1000 300
old.a.01 -0.3604608 -0.04456756 -0.011559463 -0.19624181 0.49362102 0.2893902 -0.5111025 -0.050939225 -0.11963286 -0.568329 -0.16007796 0.18652007 0.49663594 -0.3426937 0.11005289 -0.22419585 0.27102244 -0.6057236 0.25889832 -0.27552608 -0.2185112 -0.103469916 -0.4202537 -0.063591756 -0.34269696 -0.081945844 0.1547153 -0.30848607 0.08275981 0.2763287 -0.039471067 0.5175545 0.08357868 -0.01066299 -0.2925308 0.21635292 0.35070217 -0.19174552 0.32922566 0.48565084 0.65975106 -0.18007754 0.16062662 0.014678582 0.23729758 0.1537383 0.24296683 0.49249837 -0.33443487 -0.5236278 0.069623806 -0.14878377 -0.84566116 0.035759874 0.39762318 0.00989004 0.1293213 0.13689105 -0.23822178 -0.36703795 0.59681195 -0.010178645 0.42558855 0.38600817 -0.81829065 0.225998 -0.25350735 0.17946394 0.18946548 -0.026735954 -0.24433053 -0.29516998 -0.72588897 -0.50376946 0.046072908 -0.051863343 -0.44632745 -0.46362588 -0.14574291 0.506169 0.33101082 -0.24656641 0.072811835 -0.18801196 -0.00051720993 0.040562946 -0.074196 -0.102928214 -0.064944424 0.39606926 0.04653576 0.24370892 -0.056632992 0.19867322 -0.09060048 0.33743185 0.17461014 -0.42205685 -0.010737023 0.056381956 0.010603525 0.24624905 0.09129185 -0.26151702 0.3228877 0.37841237 0.1640686 -0.19525819 0.3825068 0.039653294 -0.34156746 -0.3221211 -0.27299657 -0.28582862 0.0825655 0.19485472 0.050634388 0.5506623 0.09172565 0.18996467 0.023861889 0.119030185 -0.17252643 0.1768191 -0.3803884 0.2434256 0.4821905 0.09804497 0.28895554 -0.41464382 0.017852675 -0.45949256 -0.011250342 0.023668898 0.12835816 0.59237146 -0.06961171 0.060249444 -0.031006975 0.3318343 0.058807865 -0.00289124 0.48288167 0.26134896 0.53425896 0.32117018 -0.1949475 0.95165515 -0.1123412 -0.24639654 0.038545407 -0.05123323 -0.18449794 0.44254833 -0.16817755 0.2794989 -0.50474477 -0.37414473 -0.3078721 0.36030117 0.26972374 0.50527966 0.31165144 -0.29574612 -0.2612566 -0.034409367 0.0877287 0.362046 0.48988786 -0.8393504 -0.22883758 0.17612933 -0.3215154 0.3886858 -0.155983 0.22107968 0.43737426 -0.012384377 0.2750456 0.16158947 0.5628518 0.5019413 0.022091506 0.036316916 0.5162762 0.35867095 -0.6307555 -0.37273762 0.30995905 0.038687162 -0.16926488 0.037657283 0.5471192 -0.118919626 -0.49056214 -0.07951542 -0.5164687 -0.3327449 0.28595915 0.22152081 0.7533187 0.106625974 0.078314304 -0.16688322 0.054003876 -0.34743467 -0.27398047 0.083634116 0.030495703 0.054304857 0.18861988 0.09857984 -0.075001135 -0.32390735 0.20646158 -0.21173497 0.13885261 -0.5933512 -0.078911364 -0.12297703 -0.49569228 -0.1765201 0.36385763 -0.26511043 -0.40409225 0.6981189 0.028493682 -0.16815645 -0.019407079 0.3097731 -0.23114718 0.25443763 -0.26291856 0.3856713 -0.3247088 0.42514095 -0.14660014 -0.20287685 -0.48204663 0.080099046 -0.18630214 -0.110480666 0.5690145 -0.3130324 -0.2152923 -0.06254168 -0.034686856 0.086655594 0.04063066 -0.047727406 -0.13819256 -0.19749308 -0.12939553 -0.073973626 0.86910486 0.10851493 0.1799714 0.12919812 0.09013376 -0.81097275 -0.07834779 0.35924286 -0.12061953 0.1232123 0.19937015 0.44135842 -0.1071678 -0.07391646 0.49354884 0.34981543 0.03770639 0.07661583 0.59242845 -0.3185491 0.085185 -0.28282493 -1.3160588 -0.013932049 0.081179544 0.106190145 0.5469802 0.3725051 0.08833661 -0.16481765 0.06634174 0.15415554 -0.23594412 0.04123938 0.27948835 0.19255356 0.4808227 0.12763695 0.38143966 -0.19938597 -0.15634571 -0.33460778 0.25838074 -0.2617539 -0.28519753 0.34550038
tidy.a.01 -0.20706959 0.12325994 -0.023908947 -0.12798025 -0.0050261407 0.066074476 -0.26400435 0.4646001 -0.03800147 0.07313468 -0.22984424 0.4537197 -0.08196998 0.27243844 -0.17887422 -0.33033046 0.020974914 0.1964728 0.13600475 -0.18613999 -0.08714084 -0.038411178 -0.121949345 0.4042511 -0.05670623 -0.10076168 -0.12585452 -0.57728314 0.36835343 0.055491872 0.1393715 -0.15215805 0.048666053 0.27988493 0.0034966785 0.115077995 -0.07616663 -0.042120874 -0.22090876 -0.26048428 0.052310403 0.09972436 0.07245924 0.18653776 0.19975488 -0.099050865 -0.10194159 -0.22509821 0.05882034 -0.28948683 -0.26792228 -0.030798456 0.26154435 -0.17675295 0.072043166 -0.13211012 -0.3147066 -0.3778779 -0.45228165 -0.09399368 -0.10238432 -0.22413063 -0.05492138 -0.059745476 0.2880696 0.31020463 -0.175768 -0.012993495 0.18337183 0.20883049 -0.078462265 0.19335638 -0.16100608 -0.22329926 0.31017205 -0.12468485 -0.07159975 -0.07579921 0.063281015 -0.19628726 -0.34032905 0.2125662 -0.045487784 0.18660353 -0.17286196 -0.50453603 -0.23265453 0.26079997 0.0024397601 0.1838914 -0.2102098 0.15804496 0.4518519 -0.2901656 0.016684612 0.035628233 0.5518775 -0.076155834 0.27266568 0.012175666 -0.272409 0.093409896 -0.040998176 0.19753228 -0.07376408 0.11083055 0.18143211 -0.10358937 -0.022072934 -0.08410572 -0.4348527 -0.09552572 -0.03377492 0.09785362 -0.11183763 0.21206497 0.3559204 -0.099578865 0.021863146 0.07752376 0.06978041 0.20765212 0.54203314 0.2242391 0.048631426 0.39562464 -0.07751276 0.34520814 -0.025083128 -0.05551526 0.16437614 0.1776397 -0.19572164 -0.30937797 0.1304979 0.26862144 -0.19009604 -0.25972524 -0.39610726 -0.37050983 -0.2013623 0.29192233 -0.032939766 -0.110286176 0.13092853 -0.03013235 0.08268127 0.08244727 0.3908772 0.22602151 -0.23560505 -0.1118694 -0.09565941 -0.38233852 0.0127469795 -0.113401845 -0.584235 0.2667127 0.18638413 -0.030219883 0.056909107 0.12737964 -0.1082933 0.1198899 0.12260836 0.24732062 -0.046402305 0.24589431 0.08771043 -0.08368381 -0.19227591 0.02482611 0.12008879 0.1466477 0.015555393 -0.03598716 -0.2107911 0.04960159 0.05173688 -0.36226356 0.16778654 -0.43540773 0.3197303 0.15302794 -0.13433062 -0.09234069 0.40889767 0.13937882 -0.11399229 -0.4361995 -0.031057218 0.0315926 -0.08555848 -0.23088673 0.03210784 0.21233949 -0.07168225 0.30641732 -0.23350538 -0.19145593 0.00056756154 -0.23835248 -0.031895593 0.26359636 0.26272282 -0.28335455 0.0025373334 -0.0686103 -0.08724076 -0.065224886 -0.42509824 0.48992902 -0.12933284 0.15084516 0.2560906 -0.13247247 -0.23218453 -0.26771984 0.29702663 -0.012876934 -0.019009894 -0.03359984 -0.19170816 -0.05766471 -0.22790642 -0.31705728 0.15369906 -0.11685688 0.0936586 -0.16099516 -0.08612479 0.0069791693 0.04680622 -0.29180577 0.14137128 -0.13915618 0.034358498 -0.23572034 0.23545802 0.597002 0.52076966 -0.18737929 0.1246452 0.313985 0.12739973 0.14078686 -0.16593279 0.108173676 0.14605999 0.60676306 -0.080301605 -0.16685925 -0.16003692 -0.003910142 -0.26267278 -0.13835695 -0.07511703 -0.06981865 0.11367036 -0.015572359 -0.06049528 -0.07200829 -0.12812151 -0.17990322 0.33570057 0.2524763 -0.009600338 -0.11744927 0.030454464 0.3465803 -0.055745967 0.14956328 0.109663196 0.06710326 0.5018839 -0.00033713947 0.25019333 0.30347767 -0.013578055 -0.19363208 0.22676453 0.21674132 -0.17751944 0.38034853 0.42458713 0.07608243 0.08274937 -0.36571407 -0.19283433 0.32343614 0.19224611 0.18550107 0.018505018 -0.28390914 0.15014143 -0.015441397 0.08367807 0.34479123 0.15974039 -0.06966662
available.a.01 -0.058187116 -0.43577898 0.21477775 -0.0774288 0.21677858 0.25427884 0.19259958 -0.17406942 0.15687527 -1.2327188 -0.11572933 -0.06520592 0.09445596 0.3181205 -0.062042516 -0.28601012 -0.3460658 0.5365393 0.05257552 -0.38414267 -0.14815712 0.018945236 -0.23783755 0.35942355 -0.110717885 0.41400385 0.20204581 0.5623686 -0.37387145 0.3604005 -0.029667873 -0.42850652 0.3540895 -0.15852916 -0.64467025 -0.4118393 0.21683767 -0.21038812 -0.031698313 0.15678515 -0.4411767 0.35389012 -0.09054802 0.29157943 0.54794216 -0.2645486 0.5117914 0.46899563 0.06828482 -0.06905594 0.29878432 -0.30749533 -0.0005056104 -0.16701439 -0.43945372 -0.4056921 0.14564809 -0.122473195 -0.45642364 0.39585322 -0.42508608 -0.17342766 -0.39327118 0.16513133 -0.073519304 0.1417401 0.65831935 -0.67936116 -0.31033003 -0.38171703 -0.21673998 0.23008773 -0.13615546 0.14367434 0.045140125 0.0074026478 -0.09008545 -0.2716033 0.13414052 -0.22847784 0.106558904 0.08216394 -0.108018145 0.14500412 -0.46153748 -0.33981663 -0.31504425 0.072326906 -0.14380844 -0.14292508 -0.6824911 -0.35314208 -0.16947813 -0.47881043 0.316545 0.5171252 -0.65277 -0.50828797 0.43068436 -0.26437518 -0.5578483 -0.7199825 -0.32769838 0.48810443 0.38933045 -0.17690162 0.48846704 0.15869991 -0.74448746 0.3099553 -0.38056383 0.48677072 -0.063765 -0.18486455 -0.2443819 -0.24786901 -0.27116197 -0.09609526 0.19131362 -0.4290276 -0.41984296 0.53114545 0.27526066 -0.15357226 -0.15067595 -0.13895513 -0.10428145 0.18628344 -0.17188254 0.06970085 -0.11135567 0.42675853 0.2079724 0.4503452 0.025618875 0.21370825 0.23624982 0.35589194 -0.3860781 -0.082399525 -0.050358843 -0.15026465 0.31299415 -0.41032124 -0.04992136 0.19153857 -0.36261073 -0.23674613 -0.035238564 -0.21139899 0.51052535 0.025758771 0.57228106 0.040419362 0.3922866 -0.49191362 0.17572327 -0.04161077 -0.37594873 -0.44244677 0.4227114 -0.18505655 -0.3983283 0.17769574 -0.4578616 0.21029477 -0.02971941 0.26664808 -0.25011608 0.13100511 -0.8284754 0.2802552 -0.3208897 0.4494674 0.10442935 0.27946812 0.12032906 -0.1141994 -0.31626934 0.5133647 -0.45352942 -0.12244717 0.41583908 0.17221777 0.22412133 0.18279861 0.09063343 -0.009739205 0.3336898 0.64334875 -0.13654497 0.8901617 0.37420738 -0.11778564 -0.5815661 -0.6619563 0.0017773851 0.19708885 0.13225351 -0.43172 -0.4815429 -0.85772806 -0.41070962 -0.6625285 0.5906349 0.3640732 -0.7321224 -0.17514773 -0.06530766 -0.46583694 0.18606873 -0.41322035 0.25265422 -0.16084018 -0.5063644 0.0860918 -0.44524404 0.57783073 -0.123035684 -0.25366035 0.11715183 0.3717057 0.085499495 0.0059064007 0.27397403 -0.05251737 -0.015732996 0.2709441 0.05329701 -0.66992825 0.14488749 -0.32313094 0.5144281 -0.3049434 0.543044 0.2480735 0.13065405 0.5016462 -0.62326074 -0.22503841 -0.36091834 0.8325763 0.16691507 -0.111976065 -0.1660828 0.68784094 0.005326532 0.03821393 0.28409436 0.046295006 0.010518136 0.14467731 -0.5931626 0.08508265 -0.6192558 -0.14747518 -0.60385484 0.5420372 0.3296756 -0.01475037 -0.70135456 -0.20624402 0.0066840057 -0.004571291 -0.15485966 -0.47290784 -0.1438812 0.35694423 -0.4164065 -0.46421173 -0.08571272 -0.027423711 -0.3876758 -0.62817633 0.49010032 0.4321571 -2.1656036 -0.1366878 0.17510943 -0.35961598 0.32802862 -0.5655208 0.002348555 0.49579835 0.13771981 -0.68490475 0.35040957 -0.15103965 -0.09020041 -0.34655288 -0.65508103 -0.5525965 0.49397045 0.37546924 -0.09604924 0.53863335 0.09367817 -0.16686061 0.2554412 -0.4009552
warm.a.01 0.19415699 -0.66309863 -0.7577582 -0.39648426 -0.5488546 -0.13243711 -0.20803098 -0.3683936 0.040079612 -0.7707511 0.10790197 0.78699726 0.04532264 -0.34236348 -0.8912743 -0.31057516 -0.55473053 0.39125666 -0.21344963 0.4370234 0.061723188 0.31701145 -0.009689477 -0.29336256 0.19400704 -0.45331302 0.18505602 -0.13993858 -0.17984036 -0.72414213 -0.20495518 0.15599559 -0.7643623 -0.18394166 -0.28052127 -0.0398305 0.46328542 -0.46069098 -0.3249327 0.15599816 0.27277404 0.51559657 -0.47820565 -0.05197089 0.308896 0.47482738 0.5503949 0.18435946 0.109418176 -0.28992996 0.19903222 0.054382414 0.17718807 -0.5583534 -0.04474936 0.40466088 1.0515099 -0.057520635 0.06931423 0.6943964 0.1839575 0.25315943 0.4270336 -0.3506132 -0.011481558 -0.22557269 -0.011701482 0.2384944 -1.0343227 0.78335774 0.17959827 0.111190245 -0.51432246 -0.17919585 -0.5629431 -0.20221642 -0.3094361 0.23902114 -0.35127726 0.6734817 0.42685026 0.6034944 -0.80442786 -0.80197275 -0.13843288 0.4796552 -0.59447473 -0.89554167 0.024348797 -0.19503295 -0.046932835 0.16837277 0.09088187 0.2646088 -0.56675017 0.77016944 0.3871093 0.12464083 -0.2193279 0.8978001 -0.20404772 -0.4579605 -0.64495385 0.53267956 -0.21522982 0.38359094 -0.28722933 0.8604402 0.10862958 0.74743867 0.3573962 0.22322255 0.25443065 0.19338357 -0.53429455 -0.49207327 -0.15759891 -0.08130709 0.6385941 0.16890432 -0.34790042 -0.41697502 -0.018418334 0.8388977 -0.08867038 0.8950866 0.48846424 -0.3317885 1.0009115 -0.72224975 -0.42081112 0.28185034 0.052062497 0.4286822 0.08695801 0.036118366 0.004292875 -0.0340335 0.037775278 -0.09404893 -0.14505175 0.18396045 -0.061118707 -0.35025272 -0.14945665 -0.30025238 -0.41325676 -0.4318469 -0.5394989 -0.7337653 0.014552371 -0.1648058 0.112921655 0.029255323 0.22629967 0.009503332 -0.29743725 0.32289732 -0.5304374 0.3840787 -0.5555911 -0.36357042 -0.3246295 -0.4456883 0.873789 0.15028805 -0.07736249 -0.39181972 0.43921703 0.40327856 0.4309719 0.45930296 -0.5375902 0.32934538 0.41154775 0.4299007 -0.002613916 -0.40663067 -0.6795546 0.285117 -0.14976689 0.29073736 0.7453974 0.57007146 0.62567496 0.11141231 1.0037724 0.4071711 -0.9341632 -0.27583092 -0.03825062 -0.4863316 0.09544128 -0.28930202 -0.54011554 -0.32616827 0.1840252 0.44507277 -0.6399185 0.026901558 0.12660095 -0.8354464 0.86768 0.4024006 0.24954855 -0.3510816 0.004427658 0.5526866 -0.32030955 -0.649673 0.36628917 0.24595419 -0.060895078 -0.119479775 0.857252 -0.1405475 0.18428193 -0.75109345 -0.01481334 -0.48094127 1.3331572 -0.31706333 -0.76963353 0.2878852 0.26992893 -0.0023182712 -0.18807779 -0.040859487 0.2371896 0.5621403 0.648285 -0.590693 0.49354956 -0.6079146 0.18683219 -0.16546468 -0.57529205 -0.32116446 0.026943525 0.00064137916 -1.2340196 -0.031771015 -0.17525893 -0.16057235 0.1355037 0.16598366 0.22263655 0.45983362 -0.32066664 -0.40093607 0.51796645 -0.8517553 1.0859928 0.19301873 -0.46733257 0.42328736 0.9108924 -0.4919297 0.11794024 0.2659492 -0.6338579 -0.15045407 0.039043292 0.3555317 -0.7224334 -0.1380938 -0.3670801 0.10580174 1.0097135 0.1984695 0.89970917 -0.3220614 -0.026130497 0.35570765 0.789562 0.030787503 -0.507056 0.17307524 -0.029760057 -0.17082736 -0.4560377 0.2750445 0.14880653 0.5472028 -0.03895982 0.55790585 0.74263984 -0.39594233 0.4103688 -0.12761113 0.040676795 0.62684906 -0.08962973 0.5548475 -0.18086177 -0.15304065 -0.17789279 0.26326776 0.14259335 0.30388555
strange.a.01 0.06847691 0.05848766 0.048203032 -0.031255223 0.0039115087 0.028875612 -0.16114296 0.08640768 0.3557531 -0.08306852 0.14568481 0.035440687 -0.47283614 0.27880013 0.026048878 -0.14509347 -0.05552634 0.09639887 -0.10544057 0.1259277 0.4172165 0.23136711 -0.24652979 0.31655008 -0.008610026 -0.16129503 0.3161373 -0.16186449 -0.11028689 -0.29626554 -0.39208144 -0.22291274 -0.3402285 -0.16935316 -0.55352753 0.3802539 0.3075239 -0.03322879 -0.49070635 0.13529111 0.06943732 -0.23322499 0.5529338 -0.11229144 -0.2408393 0.23793072 0.022073185 -0.2534792 0.117557056 0.76385635 -0.28106827 0.047795758 0.23816152 0.3263738 0.10023657 0.10888367 -0.17605625 -0.07317012 0.31509882 0.13325568 -0.16138676 -0.10450575 0.16661079 0.09253006 -0.26580656 0.12375068 0.20450503 -0.19544017 -0.3307776 -0.26837513 -0.030722076 -0.22678901 -0.057891637 -0.19835624 -0.47230214 0.38478965 -0.24505007 0.12039017 0.47350356 -0.20213392 0.36445165 -0.03697904 0.011136985 0.19041409 0.047672264 -0.18198879 0.24692531 -0.06342731 0.24962814 0.42021376 -0.31309775 0.055977274 0.09279434 -0.45826995 -0.09272119 0.08726261 0.03918428 -0.025582954 0.31079608 -0.06944413 -0.11108641 0.50626415 0.042055227 0.49838653 -0.21854044 -0.041910775 0.09531784 -0.21214247 0.07649286 0.26488438 0.20245984 0.18400717 -0.21935101 -0.1965124 0.07846498 0.24485902 0.24508128 -0.15555476 0.016277345 0.4206515 -0.10045334 -0.13860136 0.1280575 0.33765596 0.05039449 0.06683073 -0.4089718 -0.0012976032 -0.07912707 -0.059418537 0.3482949 0.12139415 0.13172163 0.33525172 -0.2874369 -0.020167718 -0.33650997 0.2417722 -0.92747885 0.07785398 -0.48043826 0.15436515 0.14830261 0.6168094 -0.15019274 -0.0076607983 0.038708873 0.3226192 -0.17960134 -0.015217229 -0.41344267 -0.047545474 0.2604955 -0.3779566 -0.061372716 -0.50409293 -0.14875276 0.20155382 -0.10857421 0.12968947 0.53286386 -0.23194996 -0.16073929 0.343494 0.06771704 0.22863056 0.22728807 0.33014244 0.651855 -0.48825017 -0.26849946 -0.37139502 0.10647661 0.29529116 0.077095054 -0.06245117 -0.32567182 -0.5450472 -0.30737215 -0.2819014 -0.00610321 -0.06558123 0.24818914 0.010787621 0.12994912 -0.19250394 0.14365108 -0.22522892 0.017712675 0.07237071 -0.4776227 -0.22378069 -0.08268177 -0.013123281 -0.29426628 0.18700181 -0.12690333 0.0831948 -0.59859633 0.38459364 0.3924309 -0.13458116 -0.09047007 -0.20185535 0.037100043 -0.013046814 -0.018822575 -0.06182367 0.34039438 0.06675515 -0.35763443 -0.1325617 0.6003752 -0.3640655 -0.053603828 -0.3213755 0.4498973 -0.044170782 -0.09624847 -0.1319113 0.03877371 -0.23070101 -0.119485945 0.22513266 0.3830919 0.028898947 0.44890088 -0.29754627 -0.063002564 -0.3677308 -0.1710431 0.5034937 0.06898074 -0.27389053 0.45306307 0.1589595 0.02480854 0.12646125 0.34627795 -0.2365237 0.28160173 -0.17876846 -0.16311304 0.23988289 -0.2632817 0.027939284 0.06703609 0.11367291 -0.102603845 -0.02714376 -0.023034956 -0.29543898 -0.11389946 0.25725758 0.30823815 0.50552493 -0.35799918 -0.1777882 -0.22389652 -0.20541026 -0.2183098 -0.11702578 0.21501808 -0.6080674 0.10773226 -0.46890393 -0.30975893 0.06687419 0.03067544 0.1342133 -0.2559271 0.06657143 -0.012003197 0.081950344 0.15784724 0.26486716 -0.46866363 0.037286147 0.2982578 0.033484634 -0.15269613 -0.018000098 0.04574162 0.042071596 0.16428757 0.061893966 -0.31347048 -0.43381417 -0.18603799 -0.090279266 0.3052292 0.15713441 -0.18404353 -0.2109531 -0.26444334 -0.10048813 0.2054159 0.45926067 -0.1651143 0.36471936
odd.a.01 0.061611347 0.098529175 -0.23465635 -0.093306065 -0.19670998 0.23280483 0.35848865 -0.105700195 0.111444965 -0.15439199 -0.05921453 0.12545583 -0.103268154 0.31328726 -0.24537936 0.052202076 0.24227066 0.41398346 -0.02855733 0.09737733 0.25117135 0.2594073 -0.07993359 -0.162026 -0.03040757 0.38392547 -0.2245079 0.09097607 0.020082667 -0.027428418 -0.3480318 -0.17833887 0.11009782 -0.06544713 -0.2827443 0.12628266 -0.15799238 -0.09397329 -0.2276946 -0.25013986 0.061802726 -0.1479308 0.14485422 0.3337422 -0.02744692 0.06981773 -0.09611328 0.13933021 0.09711241 0.35937294 0.49154118 -0.020706197 0.5711594 -0.026051788 -0.18570742 0.19730593 0.19396298 -0.30482274 -0.17619549 0.49120757 -0.037336458 -0.13071117 0.016876856 -0.046308905 0.050290465 0.2805833 0.097807944 0.6031631 0.26509395 0.34844512 -0.6485764 -0.07412411 -0.080880746 -0.092727795 -0.41954732 0.05026988 -0.24089955 0.18137921 -0.044561975 0.19430007 0.000985482 -0.21778731 0.03140212 0.26673692 0.09291703 -0.62568057 0.37833652 -0.40434417 -0.260636 -0.011641793 -0.09525674 0.42708722 0.2860754 0.21034533 -0.20288885 -0.12440039 -0.12692083 -0.0419687 0.019389255 0.004593131 -0.3581047 0.012322732 -0.26143062 0.1041816 -0.25915352 -0.099580124 -0.17359664 0.10795912 0.2644686 -0.18488449 0.09109066 0.14253731 0.122958906 -0.20070708 -0.17054532 -0.086603455 0.103984065 0.030298501 0.12653223 0.06187593 -0.10089261 -0.21775267 0.091535844 0.049515445 -0.06562282 0.33606714 -0.1006954 -0.039040577 0.06596664 0.08209584 -0.1684247 -0.060581442 0.19389224 0.0588598 -0.15910345 -0.27884045 -0.29169327 -0.05427469 -0.42055517 -0.107356064 -0.04387345 -0.015697572 -0.22397184 0.15753998 0.07958669 -0.1321976 -0.10111023 0.039800182 -0.18930058 0.28664854 -0.36764622 -0.096063815 -0.28517798 -0.19239129 -0.011093427 -0.21792302 -0.052484546 0.051485043 0.27029312 0.3669399 0.22835162 0.25395238 -0.02570801 0.3170904 -0.042249907 0.48402596 -0.10426917 -0.12062584 0.24060915 -0.042704463 -0.16356793 0.05907709 -0.25478488 -0.07293994 0.0571747 0.09917844 0.26580024 -0.24753939 -0.294527 -0.121494114 0.23916475 -0.0082105445 0.10866507 -0.0955016 0.18564981 -0.03704923 0.25606626 -0.2119117 -0.34322467 0.040030923 -0.1624816 -0.39954278 -0.100866266 0.20114686 -0.21526615 -0.13086967 -0.35607615 -0.11721384 -0.18763721 0.23460807 0.27572063 -0.025841018 -0.019320821 -0.028359067 -0.0801145 -0.2293516 -0.06908872 0.2589894 0.09332416 -0.23249441 -0.10327591 -0.21808209 0.4342062 -0.04242376 -0.032027226 -0.14961971 -0.1880284 0.10858642 -0.19745192 0.29342663 -0.19638608 0.0052227885 0.11468001 0.28763184 -0.033900034 -0.077977404 0.17400576 -0.15569852 -0.14611429 0.1380074 0.05205027 0.106100716 0.10757737 -0.15148133 -0.13960867 0.22564515 -0.15504281 0.054401085 -0.050034218 0.045947004 0.18639591 -0.19398308 0.4853469 0.28214177 -0.08194315 0.33905903 -0.24973863 -0.16928749 -0.24477652 -0.1520076 -0.22558858 -0.5171758 -0.013442601 0.02636125 -0.19620644 0.16213708 0.11822452 -0.11853881 -0.3259147 -0.17848462 0.23534746 -0.099395946 0.27418685 -0.486466 0.1156155 0.062338527 0.08641058 0.20570458 -0.015416668 -0.09684169 -0.18223368 -0.005702365 0.15973325 0.09094148 0.2638702 -0.03131425 -0.016072515 -0.08442014 -0.013449035 0.06203064 0.001095758 -0.20155282 -0.090375185 -0.100793794 0.1129764 0.02311966 -0.085431285 0.16288657 0.29188344 -0.0025791316 -0.09724455 0.5134646 -0.04669504 -0.13371713 -0.18434145 -0.24871996 0.01174042 0.058322053 0.33020484 0.05266626
impermanent.a.01 0.6753096 -0.43579632 -0.12366952 0.07959091 -0.23735991 -0.018630965 0.89469236 -0.005608361 -0.15353106 -0.048804276 -0.03243624 0.20343384 0.4981886 0.15175208 -0.11409911 -0.03748655 -0.018112158 -0.10194962 -0.261924 0.022148404 0.2891004 0.09160515 0.17150718 -0.54090005 -0.3152507 0.30305403 -0.24033472 -0.13847466 0.103430875 0.42227224 0.28740546 0.22194593 0.047844626 0.46804407 -0.065377355 0.5596388 -0.1716074 -0.74703914 -0.14508392 -0.9118262 -0.18357132 0.34031785 0.10156159 0.09690139 -0.41704988 -0.23678026 -0.07822465 0.23202735 0.26108328 -0.33376017 0.1656618 0.12777826 0.46745268 0.18906939 0.4965223 0.08985811 -0.046108957 -0.12482623 0.24840924 0.21966995 0.04322057 0.15509048 0.14885235 0.21905108 -0.09739702 0.24091342 -0.45932698 -0.2860585 0.45963466 0.020357387 -0.28299186 -0.25638187 0.033337574 -0.009081933 0.3353031 -0.08196213 -0.20389476 -0.04048011 0.7537965 -0.07620472 -0.011720622 0.25099757 -0.41764143 -0.13077934 -0.5288979 0.042450976 0.14065437 -0.27983293 -0.17645884 0.54565877 -0.09870119 -0.21134944 0.35324475 -0.15128349 -0.035519503 0.26576576 -0.29669607 -0.18686228 0.1235337 0.3502148 0.22553807 -0.25141257 -0.04530543 0.19020623 -0.29858792 -0.09268486 -0.31850854 -0.16253129 -0.06289059 -0.5304403 -0.25533345 0.45641622 0.37037897 0.05438195 -0.6824939 0.46543184 0.17340857 0.52622396 0.08026684 0.17346339 0.48768356 -0.11092602 0.39345965 -0.04223884 0.45483565 0.26779798 -0.14191814 -0.41526067 0.15351237 -0.26930162 -0.013089682 0.101626635 0.37455553 0.15770346 0.04945372 -0.29653898 0.44181725 0.2937613 -0.45884493 -0.011621177 -0.4673417 0.29231966 -0.37022007 0.37589255 0.4460591 -0.071024485 -0.28886274 -0.11862567 0.34252596 0.057893917 -0.13776249 0.16620184 -0.21796186 -0.2538843 0.11083684 -0.012861921 -0.58145124 0.2885995 -0.524021 -0.039284848 0.038383532 0.039538287 0.14956078 -0.008234011 0.39043844 0.2345251 -0.14089897 -0.08891803 0.048843168 -0.17477445 0.21746518 0.06405232 0.08115068 -0.1427418 0.16571921 -0.13931562 -0.24396569 -0.56138647 -0.11781618 -0.16198796 0.47264296 -0.3180048 0.476877 -0.017541844 -0.21086977 -0.20961264 0.186219 0.09310624 0.42799905 -0.058372565 0.6791331 0.26852483 0.22901237 -0.35870817 -0.24203698 0.20340443 -0.26694626 0.3677301 0.5717546 0.206271 -0.32678938 -0.06589291 -0.26614735 0.084377 0.1716355 -0.4638784 0.4284011 -0.65395766 -0.0726375 0.010759095 -0.3070871 -0.03371396 0.462813 -0.040679723 -0.015450099 0.13117415 -0.6274307 0.21286519 -0.075464845 0.50706077 0.32276452 0.19235267 -0.21133402 -0.05010215 0.69826466 -0.3985274 0.40207225 -0.010520295 0.11368848 -0.5251081 -0.15446927 -0.47971642 0.35250512 -0.49450064 -0.085096404 0.21132629 0.0966498 -0.13143994 -0.046721753 0.44761118 0.14871481 0.13855831 0.11428509 -0.21888664 -0.68218994 -0.38537073 0.3886457 0.077112414 -0.013027324 -0.2066932 0.24363662 0.10625784 -0.020220706 0.18099709 -0.45626938 -0.14858526 -0.28897142 -0.33247405 0.35489425 -0.44553408 -0.008378576 -0.20147182 0.105975434 0.2229758 0.15649882 0.030443644 -0.35035777 0.40575323 0.0849701 -0.6234579 0.5000746 0.22585335 -0.42780775 -0.19085917 0.0076715755 -0.40150115 -0.8264405 -0.09643701 0.4871415 0.32350713 0.0074186 -0.61700404 0.24422486 0.051540647 -0.008227829 -0.2925892 0.529159 -0.1014743 -0.4616198 -0.016545447 -0.0913829 -0.39757007 -0.23611511 -0.3745774 -0.18866518 -0.34990826 -0.039736502 0.7558383 0.14010143 0.46853983
sensitive.a.02 0.38156444 -0.2663136 0.4312608 -0.7021796 0.16737303 0.036057286 0.18096444 0.27228323 -0.3030161 -1.8267045 -0.26033965 0.21544495 -0.07796539 0.30981022 -0.2895533 -0.18784885 -0.10573267 -0.16371669 0.4273213 0.72367793 0.055405173 0.49282146 0.21828006 -0.041786063 -0.01914979 0.052055195 -0.0021378156 -0.3452313 0.008259673 0.4964721 -0.41864008 0.34966013 -0.98627037 -0.23866068 0.5831814 0.2823339 -0.72422516 -0.3619878 -0.7768932 0.47083297 0.5421824 0.10482338 0.41446665 -0.35778555 -0.6490228 0.13442597 0.109296404 -0.054940026 0.0058477945 0.5373392 0.27376753 0.07996011 -0.06455815 -0.72119784 0.25746024 -0.38540283 -0.27343804 -0.24038798 0.6875964 -0.6999185 -0.3050882 0.5052849 0.13478819 -0.41163293 0.15716703 0.0028146736 0.742847 -0.1639048 0.045061916 0.4255323 -0.5378574 -0.0983929 -0.3205509 -0.0945675 0.11986686 -0.40997604 0.19683759 0.5191464 0.10679633 -0.21782087 -0.22039366 -0.19922498 -0.34227464 -0.5592464 -0.5336874 0.5565123 -0.6319144 0.18753491 -0.6424762 0.1113103 -0.54063356 0.13874066 -0.5562108 0.29268524 -0.47017032 0.48900086 -0.012418669 0.24630997 -0.0386866 -0.074197926 -0.9307816 -0.6745839 -0.45318165 -0.40150902 -0.26408997 -0.63198805 -0.2727943 0.26011747 0.3963464 -0.23256806 0.01849615 0.5262939 0.35682288 0.32237715 -0.1059197 0.12944324 0.80969876 0.4198244 0.53316444 0.35014373 -0.78777516 -0.6249605 -0.73912704 0.057692513 -0.17292377 0.16988075 0.025446892 0.048303083 0.03944924 -0.2763591 0.94467825 -0.24092539 0.36102954 0.4757923 0.06651854 0.2667725 0.50694853 -0.16595395 0.53217775 0.054137234 0.2876468 -0.039594367 0.4849874 0.03142823 -0.44659203 -0.14907707 -0.30583644 0.26111332 -0.70461625 0.50005144 -0.091169015 0.24643365 -0.07412311 1.098608 0.097445086 -0.40315616 -0.2208589 0.095899574 0.44651055 0.4570855 0.16972399 -0.8052719 0.12071705 0.23230338 -0.33773434 0.14039844 0.22625823 0.4074811 0.36783344 0.3701464 0.077481695 0.44392493 -0.2778874 -0.3634724 -0.1750438 -0.6350992 0.4695535 0.110199 -0.6032855 0.3405717 0.26612866 -0.596588 -0.41731942 0.009713008 -0.46641907 0.041127868 1.2652515 -0.62334037 -0.45200098 0.2986523 -0.6110307 -0.52053255 -0.32572204 0.46249953 -0.08676707 -0.37514737 -0.09757923 -0.4535185 0.33619177 -0.070671365 0.39138517 0.2450444 0.12792534 0.095210485 0.15394527 0.2794353 -0.18392295 0.22534499 0.16746286 -0.19551502 0.9643631 0.4465099 -0.29211944 0.3620695 -0.19136387 -0.07572062 0.29677424 -0.41919678 1.2517656 0.7995092 -0.28255615 -0.09545433 0.5295217 -0.5416895 -0.2372452 -0.26273337 -0.3453674 -0.05206772 -1.0858701 0.6908063 0.03106396 -0.29077864 0.24287143 -0.18886428 -0.3060047 0.80674475 -0.39941353 0.124878675 -0.12683721 0.7820737 -0.30321547 0.5462841 0.55693495 0.6614094 -0.25955337 -0.09447645 -0.5978337 -0.07933817 0.3122968 0.030656694 0.40391004 -0.89804065 0.19049653 0.3734627 -0.16718039 0.61402726 0.5640586 0.26520413 -0.47014737 0.1808195 0.3267017 0.37228626 -0.3681114 0.22708003 -0.029950326 0.43773824 -0.19950134 0.37685144 0.7901131 0.5015861 0.54569656 -0.4030361 0.10106102 0.40449324 -0.2738147 -0.3736376 -0.6555467 0.21654473 -0.08943212 0.16133878 -0.40778202 0.6522203 0.12604716 -0.06690092 -0.017211057 -0.25954035 0.07882982 -0.78796697 -0.12351386 -0.2784913 -0.40724057 -0.4113492 0.7042223 -0.66088265 0.041802485 -0.14614527 -0.6356497 -0.72311795 0.2087426 0.039666075
fat.a.01 -0.35846433 0.15756123 0.4898113 0.21028662 0.011364631 0.519907 -0.49845108 0.4139563 -0.20902331 0.07954287 0.33814684 -0.20142005 -0.109785154 0.2160005 0.079169855 -0.2609542 0.34053442 0.0907254 0.3628353 -0.47433028 0.18921968 0.29857737 -0.10467228 0.10086456 -0.121544376 -0.14021161 0.86201197 -0.52577114 0.6269053 0.19275695 -0.5943567 0.04839072 -0.3878566 0.16548845 -0.19913548 0.20654534 0.34253243 -0.16028075 0.10255497 0.4516067 -0.110448286 0.09481146 -0.59855324 -0.17759609 0.206932 0.15345226 0.41122073 -0.028051738 -0.3855996 -0.10074485 0.091391996 0.117394485 0.047719043 -0.3533299 -0.047639288 -0.0851216 0.069963455 -0.14559577 0.05862997 0.0076407935 -0.11882658 0.19915412 0.10788868 -0.46812117 0.20534809 0.35100386 -0.1831978 0.22345553 -0.19012356 0.3177533 -0.04638761 0.19948809 0.38821343 -0.027276099 -0.01159654 0.39296368 -0.3041999 0.022983728 0.3434218 0.801501 0.14032038 0.21551706 -0.18727535 -0.020390835 -0.15815087 -0.6363778 -0.344479 -0.035337873 -0.29991174 -0.43220657 -0.39979872 -0.2701647 -0.021994626 -0.10844877 0.15387109 0.21977736 -0.5059579 0.4534683 0.083217435 0.008917348 0.057749584 -0.3538388 0.04678992 -0.18636653 0.19500037 0.34948215 0.37303162 -0.022617092 -0.046224136 0.59906596 -0.34884843 0.53554446 0.107478686 -0.4588726 -0.19591524 0.13258614 0.095047854 0.24275629 -0.19869997 -0.20517589 -0.034284454 -0.0848021 0.35256627 0.38997144 0.0051842825 0.25914317 -0.32318383 -0.091687515 0.28023493 0.24044113 -0.57099855 -0.10882815 -0.4266068 0.40982562 -0.18491577 0.28807378 0.013227677 -0.39366704 0.057767924 0.04052423 0.22020093 0.15668519 0.18024975 -0.3984414 0.386319 -0.023942964 0.042920783 0.35521585 -0.42015627 0.075805925 -0.80177224 0.09856176 -0.126525 0.03264116 -0.15976752 -0.15693718 -0.16080791 -0.12788746 0.25133395 -0.12036329 0.121462464 0.025868066 0.4566017 -0.012298743 -0.4496202 -0.47748175 -0.02633305 -0.027918456 0.37285373 -0.3784946 0.56009066 0.17098975 -0.29697308 0.08013928 0.40701753 -0.38226864 -0.1767718 -0.07945474 -0.111532755 0.27006713 0.33906817 0.32225618 0.02180519 0.30247936 0.35726902 -0.10366104 0.2884835 0.4321269 0.27440822 0.027977992 0.40311274 0.54212886 0.28727818 -0.103944145 0.1706337 -0.13402477 0.27017248 -0.5603411 0.025580896 -0.07486936 0.08269016 0.44298527 0.26654464 0.020335298 0.21499486 -0.19966272 0.10298204 -0.023051986 0.11777726 -0.3127445 -0.33302692 0.15542391 -0.38464618 -0.027517343 0.24825169 1.0038115 0.12668657 0.024092104 0.3469596 -0.35261872 -0.90135187 -0.22360267 0.059877418 -0.44116512 0.030924847 -0.15936512 0.10396405 0.66881984 -0.2412564 -0.0070642056 0.07142947 0.19634566 -0.2625568 0.14498712 -0.6799704 0.2811784 -0.4749153 -0.48645455 0.058543578 -0.32943025 -0.041762263 -0.61281604 0.3171466 -0.06654305 -0.75049555 -0.84423155 0.3038337 0.25622964 0.6300554 0.40823942 0.1271723 -0.3051081 0.12820636 0.6260969 -0.19425409 0.21274862 0.14095706 -0.22814889 -0.5884212 -0.4131438 0.35715228 -0.059026733 0.20607443 0.3706514 0.26231515 0.5409493 -0.07799687 -0.656667 -0.29708818 0.41354355 0.17591393 0.60052615 0.31892815 0.42721513 0.06911553 -0.09911913 0.058507986 0.09628038 -0.77618295 -0.20007642 0.25559452 -0.4707592 0.10551811 0.41481733 -0.094455734 0.3465441 0.18471105 0.119236924 -0.0068602473 0.062897936 0.20428567 -0.21332638 -0.72220343 -0.34149927 0.32239082 -0.5214525 0.0051524094 0.27320486 -0.20437585 -0.2639463
outer.a.01 0.1610642 -0.43357044 -0.36774176 -0.21565422 -0.004721307 -0.41259316 0.39947352 0.28696612 -0.13272302 -0.48009944 -0.11806929 0.0835294 -0.24437502 -0.07755934 -0.32582974 -0.32965633 0.10229801 0.121650755 0.0013504488 0.14483032 0.02291973 -0.15316987 -0.0018497194 0.41581234 0.0684508 0.3006646 -0.11331009 0.0075400006 -0.2296489 0.19133615 0.42446434 0.17872097 -0.37844226 0.02246779 0.40634906 0.33487934 0.0072055706 0.24851476 -0.30277202 0.7228714 0.16130958 0.6046804 -0.1252592 0.12828816 0.3071468 0.73997605 0.3904067 0.24152525 -0.54933256 -0.20149104 -0.30925658 0.30305982 0.15881266 -0.13984549 0.013920034 -0.44952163 0.13460515 -0.20257439 -0.018647127 -0.53264534 0.7423227 0.08923617 0.19768864 -0.44161546 0.48348987 0.10579677 -0.2432246 0.12243371 -0.07665347 0.30261698 0.32169968 0.10973727 0.4534371 0.039366096 0.028069818 0.41753334 0.15249191 -0.11246427 -0.27015707 0.065475315 0.13422385 0.16214411 -0.22371772 0.29047003 -0.45568383 -0.4080995 -0.09108884 -0.090225905 -0.18691187 0.21912548 0.02252401 0.060759675 0.112975016 -0.43735388 -0.70360774 0.13639794 0.22882682 0.1677444 0.6578238 -0.2773583 0.11173418 0.25097492 -0.34346634 0.3678628 0.16541561 0.2269032 0.057936005 -0.27775452 0.3733274 0.13450086 0.24283795 -0.22650856 0.281452 -0.6525524 -0.5154936 -0.033494197 -0.15425761 -0.23445599 -0.26284245 -0.17570686 0.29575223 -0.62309796 -0.16712867 -0.019230794 -0.21058302 -0.26002625 0.05852142 -0.16392866 -0.26559916 -0.1541026 0.028160997 -0.22356962 0.25151142 0.010801894 -0.11061645 0.0005862104 -0.24264018 0.1897674 -0.15789683 0.07959845 0.326114 -0.09866477 -0.44167072 -0.19073528 0.103458315 -0.051942058 0.26977688 -0.3194594 0.037340697 -0.29085514 0.31001708 -0.19003455 -0.10368472 -0.01106569 0.47133464 0.3129838 0.11529185 -0.06971903 0.32995182 0.13971996 -0.1434649 0.16039106 0.17061292 -0.17797694 0.26039374 -0.32020473 -0.20956509 -0.24746542 0.41196546 -0.35404116 -0.038550112 -0.43925405 0.53354067 0.028827699 -0.63221955 -0.04136433 -0.02102942 0.50821143 -0.38418654 -0.75567794 -0.12155892 -0.019583335 -0.05689283 -0.10922446 0.16444257 0.005746493 0.13137622 -0.066768646 0.03853973 -0.2667832 -0.19961792 0.32961065 -0.16285041 0.089233756 0.28749838 0.1678774 0.2744931 0.055615183 0.28005898 0.0697173 0.87380546 -0.100699835 0.1799385 0.29036403 0.1372314 0.25614065 0.64833736 -0.10366289 0.16558851 0.024437888 -0.022267884 0.15251167 0.060455877 -0.2825993 0.031906504 -0.20844114 -0.08545144 -0.31185147 -0.07345683 -0.26163933 0.6723699 -0.13894205 -0.35110384 -0.21927932 -0.13369778 -0.23078637 -0.5056844 -0.18718265 0.15766896 -0.36939192 0.5327584 -0.26908296 -0.36804917 0.098257326 -0.31869972 0.068218194 -0.3606433 -0.272647 -0.12451392 -0.112097405 0.38275293 -0.25450385 0.16367958 0.24184817 -0.67388076 -0.38387558 -0.021269511 0.15509343 0.23990892 -0.106713004 -0.43843496 0.19040081 -0.30023757 0.17497125 -0.67076296 -0.022364458 0.17071198 -0.3824713 0.012542711 0.23069972 -0.33329177 -0.05581611 -0.008198569 0.22413832 0.12833218 -0.11922714 -0.23278458 -0.4919645 0.039097812 0.31905094 0.3000178 -0.14252643 -0.105979726 0.24374947 -0.8529964 0.11931069 -0.63545763 0.36581507 -0.3173095 -0.017748002 0.32245043 -0.3121482 -0.4834533 0.13709685 -0.71536124 0.2219805 -0.045807 0.05948484 0.41802156 -0.17728683 -0.018325746 -0.08743415 0.058948353 -0.22079204 0.14261392 0.48622575 -0.12066525 0.28282732 0.18273816 0.012020288
plain.a.02 -0.12907489 0.31466296 -0.11242825 -0.070822805 0.08513405 0.047378466 -0.0546928 -0.33991262 -0.08328162 -0.108107924 -0.24952178 -0.124174535 -0.109796606 0.17964776 -0.22765373 -0.17670907 0.016434038 0.41143072 0.2478223 -0.09446391 0.25386366 0.016399149 -0.121427335 -0.16535656 -0.07036349 -0.12645182 -0.28777772 -0.35216036 -0.10410596 -0.10665959 -0.39206237 0.0023448765 -0.22104734 -0.29243955 -0.019535825 0.2826789 0.175936 -0.88518727 0.059917197 0.0708772 0.24538161 -0.087408796 0.11564088 -0.014694002 0.27722883 -0.20510045 0.28909022 -0.07085594 0.026876818 0.09702082 -0.45348862 -0.057395115 0.29259792 -0.21966185 0.0038219155 -0.41904068 0.19538791 -0.33798856 0.16953406 -0.17742668 0.13777284 -0.29436734 0.058001515 -0.061839215 -0.13160792 0.31685174 0.29580095 -0.40354916 0.043091137 0.023117086 -0.018968247 -0.0653698 -0.18471041 -0.09456127 0.077435985 0.2625081 0.054915696 -0.16815907 -0.08010629 -0.08890603 0.2456481 0.07387142 0.03329852 0.0035817474 -0.19815843 -0.021028183 0.038368825 0.006266618 0.085787766 0.6065669 -0.3188326 0.16464798 0.19256997 0.044056863 0.10867911 0.37077972 -0.29393524 0.2573729 0.13915278 0.05012975 0.049568906 0.124497846 -0.40127587 -0.072173074 -0.28352675 -0.057152446 -0.114212334 0.09570045 0.0848104 -0.09522885 0.119098775 -0.016558122 -0.2248922 0.1445735 0.009866741 0.48317468 -0.12986535 0.1712518 0.23302774 0.29264617 0.33260977 0.033614274 -0.036875173 0.42514208 -0.29450297 -0.018093633 -0.11279407 -0.05655773 -0.11575234 0.02547864 -0.1653093 0.12163888 0.122949265 0.08643232 -0.33442122 0.011829908 -0.04695812 0.28588635 -0.15551251 -0.008352036 0.07936245 0.21562776 0.15628152 -0.011032873 -0.4241391 0.14889935 -0.03772301 -0.12266625 -0.34510872 -0.096365765 -0.5082404 -0.17679197 0.011922231 -0.05971738 -0.102041714 -0.05186958 -0.2917953 0.1711762 0.7208332 0.20954658 -0.10468517 -0.052146655 0.04483395 0.40388703 -0.26246488 -0.2549627 -0.1967893 0.31600955 0.09813919 -0.15229575 0.026559079 0.037941158 -0.1160297 -0.1966553 0.050010186 0.0056737806 0.055759758 0.032271314 -0.16664866 -0.7798255 -0.13619429 0.04411674 0.08459198 -0.08089952 0.3935474 -0.2539304 0.5100646 0.28191504 0.030293247 0.32838356 -0.21578771 0.15113337 0.44006133 0.19997482 0.2597209 0.32296768 -0.35423175 -0.037746113 -0.10646734 -0.2005418 0.04872044 -0.19156101 -0.072458684 -0.015797833 0.03323104 -0.42660263 0.2443538 -0.2838071 -0.12537499 0.2770072 -0.5245507 -0.005689221 -0.26451588 -0.1132583 -0.21074189 0.03936098 -0.07549174 -0.33296797 -0.2825407 -0.4823436 0.37950465 -0.027073978 -0.53139883 -0.24329364 -0.31839642 -0.38280833 0.502366 0.16939308 0.107354805 -0.22563943 0.1887298 0.4569193 -0.22177644 -0.17131953 0.49757567 0.1287812 -0.21249244 -0.20203252 -0.3443485 0.28559783 0.1726636 0.13444558 0.50247484 0.066239335 0.03924148 0.2067711 0.102883264 0.047210693 -0.106900245 0.2911035 0.24102752 -0.29822052 0.098679386 0.3469155 -0.63164026 0.60178214 -0.15125409 0.041987665 -0.22868901 -0.28814763 -0.29694754 -0.0037863918 0.14635634 -0.17888643 -0.6465781 -0.39588714 -0.071172416 0.31679085 0.10203206 0.50437826 0.028237754 -0.07439578 -0.1544814 -0.054251276 0.12653272 -0.31387752 0.18793702 0.23418505 -0.07288126 0.24435389 0.004886446 0.0010306145 -0.14666504 0.22743595 0.41153654 0.3217049 0.1881335 -0.4620009 -0.19152766 0.22431384 -0.37179923 -0.16360499 0.06220219 -0.0309828 0.40939087 0.12920208 0.0014423127 -0.10804762 -0.00088017865 0.086100034
structural.a.02 0.1209712 -0.051653143 -0.75199324 -0.41927847 -0.27123502 -0.20298062 0.18405147 -0.55411106 0.1365087 -1.1392812 -0.2883331 0.09002668 -0.20047632 0.21149509 0.42325822 0.017895613 0.21724229 0.05538542 -0.30486733 -0.39485773 0.18077554 0.12823398 0.12024949 0.5433715 -0.8362396 0.4735913 -0.3347627 -0.2496355 -0.25733343 -0.41710147 0.540151 0.7885018 0.07903202 0.057163727 0.09575236 0.17424692 0.24973266 0.24954477 -0.020194769 0.4896375 -0.22706147 -0.2790149 0.26264185 -0.39590663 -0.32545808 -0.15084657 -0.07512856 0.02340221 -0.27539706 -0.4653621 0.19223022 0.18447037 0.16686231 -0.16745214 0.18115109 0.74985266 -0.09375362 -0.14114314 0.14473312 0.22466406 0.69094294 0.42105523 -0.057180755 0.24090451 -0.3563093 0.0034615265 0.21448703 0.40297285 0.25943735 -0.3562817 -0.31501997 0.045641225 0.094647825 -0.16666095 0.060873624 0.0019318053 -0.32443175 0.01110231 -0.5177246 -0.16162336 -0.23303813 -0.4416187 0.22553608 0.41343507 0.6021864 0.5474287 0.1082984 -0.014063748 -0.5420835 0.047516514 0.92744255 0.6756005 0.15684417 -0.09776709 0.0022176302 -0.40799367 0.16667077 -0.38956565 0.34993604 -0.099267334 -0.34050712 0.17369439 0.15834007 -0.15164518 0.24888004 0.44136515 -0.049822003 0.3147578 -0.15639126 -0.6439594 0.28416184 -0.40823263 -0.25803894 -0.25060588 -0.045987178 -0.4594969 -0.03814982 0.39703238 -0.30526817 0.007932868 0.50021404 -0.008398755 0.1305297 0.15078458 -0.31620738 -0.20211351 0.06652653 0.2760551 0.5749638 0.21258982 0.09547563 0.6545534 0.66379386 0.1728803 -0.06343849 0.031075818 -0.47257072 -0.0026186097 -0.2914762 -0.3892703 -0.25724724 0.33529177 -0.19644623 -0.1398819 0.9356223 -0.501719 -0.22018915 0.3008835 -0.5731057 -0.36925742 0.005440954 0.5411284 -0.26668695 -0.3028032 0.4517243 -0.5280518 -0.13581656 0.24871878 -0.3763634 0.29020992 -0.36655256 0.12401917 0.02112355 -0.2715663 0.034004893 0.37216628 0.2444096 0.27732003 -0.20242798 0.16280122 -0.36933133 0.036244128 0.72189385 -0.13020164 -0.09539297 0.5873007 -0.028017309 -0.029500842 0.22421671 -0.5494317 0.57719976 -0.21646596 0.23394673 -0.25675344 -0.34993643 0.3046933 0.31148967 0.53034794 0.40491003 0.06587383 -0.16022447 0.39068213 -0.15767162 0.25122392 0.050670538 0.17436452 0.24954194 0.28133175 0.07735083 -0.3619433 -0.4124139 0.4782638 0.04166026 0.18885373 0.46735007 0.51369524 0.24794771 -0.22060128 -0.27557266 0.07083672 0.1359194 0.04783024 0.0458382 0.073749535 0.312432 0.32080716 -0.054547116 0.39590675 0.09904004 0.06253181 -0.494967 0.2179893 0.94999087 -0.46752676 -0.07991217 0.12506396 -0.013632302 0.414591 -0.3729642 -0.36517477 0.10704691 0.5213395 -0.22133893 -0.13985105 0.04491665 -0.4613099 0.14470626 -0.006620555 0.024950946 0.4622573 0.23244472 -0.039950013 0.2869643 0.033967953 -0.43597937 0.018014058 0.5531938 -0.19461273 0.17527252 0.373892 -0.00042393157 0.37407488 0.087323084 -0.3527798 0.009747757 -0.37188274 0.009665353 -0.19181186 0.13403727 0.34362268 -0.21532477 -0.05664565 -0.018304983 0.11412461 0.53797424 -0.28457126 -0.45688322 0.16633418 0.1752645 -0.31600702 -0.41443154 -0.12213847 -0.27509022 -0.059323724 -0.34107265 -0.1118179 -0.41801375 -0.02198114 0.45884344 -0.36662182 0.1847325 0.22026305 -0.08170943 -0.17912385 0.5233954 0.03324444 -0.17108737 -0.04544295 0.69740236 -0.024709664 -0.059061874 0.16159244 0.044116452 0.29726344 0.2235169 0.561844 -0.036054205 0.004603481 0.14052807 -0.17372566
objective.a.01 0.21970348 0.65287364 0.48081833 -0.21055593 0.04001992 -0.010791043 -0.09958308 -0.0066861403 -0.4938248 -1.8752141 0.15231456 0.031069221 0.767485 0.12058315 -0.24211517 -0.00815862 0.17684641 -0.26521152 -0.448165 -0.3192128 -0.21539061 -0.053811062 -0.17883046 0.071660146 0.20026049 0.056814197 -0.40860155 -0.29055822 0.286661 0.232879 -0.15959343 -0.421398 0.15015812 -0.4215446 -0.52017754 0.52549016 0.5401741 0.36513242 0.05284152 -0.33811763 0.4378255 0.051069286 0.15953451 -0.46693096 0.13931723 0.37473089 0.18113694 0.83467764 0.013374857 -0.23603442 0.14303067 -0.06020748 -0.1636955 -0.00796434 -0.4497635 0.8261166 -0.06428647 0.5006821 0.22138298 0.5129274 -0.45030132 -0.31167918 -0.50871605 -0.10547131 -0.3077349 0.22008675 0.2184175 -0.37158194 -0.15166156 -0.051710427 0.1515177 0.5852915 -0.44181162 0.2545237 0.4899261 -0.1209326 0.52708083 0.40337762 0.2982093 -0.38477188 0.21052073 0.42542273 0.9861357 0.07622318 -0.3683814 0.33290654 0.12756576 -0.08575897 0.12719183 0.5636653 -0.28970402 0.019495942 0.23558919 -0.12924981 0.5748601 -0.07124909 -0.59314346 -0.46639085 -0.15830791 -0.019519009 0.011112696 -0.21788745 0.20126754 0.5489592 0.060460903 0.40736657 0.018860526 -0.34908482 0.36693436 0.68691635 0.6104262 -0.20688435 0.47762215 -0.28651857 0.23610567 -0.50987107 0.27496657 -0.4384857 -0.291688 0.35419613 -0.09709937 0.3535874 0.4793522 0.4087578 -0.08154764 -0.21289182 0.19049108 0.09184049 -0.48863167 -0.02400992 -0.2746106 -0.39731526 0.32719657 -0.26574376 -0.3825491 0.16859877 0.402263 0.17989844 -0.016438415 -0.19750425 0.041309606 0.21658422 -0.11975334 -0.18098508 -0.048522137 0.14721741 0.86640453 0.5263095 -0.36203524 0.22897494 -0.33560368 -0.00682279 0.16320027 0.45280823 -0.1414548 0.25186726 0.59314173 0.045292024 0.41369382 0.10128498 -0.07766435 0.08414189 0.4837824 -0.059445422 0.5964841 -0.28291762 0.10295962 -0.23598862 -0.24203517 0.5000669 0.38705164 -0.33407298 0.039156117 -0.60645145 0.3876157 0.119987905 0.12939557 0.05950986 -0.46341315 -0.2951865 0.11254831 -0.4493047 -0.55466866 0.14049472 -0.33872363 0.012064787 0.050530415 0.08555106 0.11040566 0.04670241 -0.37269297 0.45309877 0.62599486 -0.31432995 0.29562688 0.038258858 0.20898663 0.4189026 0.39932278 -0.49602515 0.33697194 -0.16104147 -0.5311569 -0.30241877 0.13699606 0.82605106 -0.01958414 0.120112844 0.14875402 -0.0211602 0.4789383 -0.507641 -0.39303517 0.5013949 0.101645745 -0.24239841 -0.2647304 0.07555449 0.08229268 -0.35624573 -0.56518555 -0.5822854 -0.44752523 0.37683302 -0.15438542 0.095682606 0.062443636 0.5489709 0.30777672 -0.030909345 0.22503836 -0.048962805 0.36961308 -0.1618984 -0.7521054 -0.16674109 -0.34800348 0.11105232 -0.2474057 0.19403398 0.388851 0.045887187 0.45726788 -0.14356937 -0.11157113 -0.13844045 0.17703189 0.6004593 -0.5409215 -0.28190607 -0.013035462 -0.38289267 -0.4216182 -0.055646475 -0.4206774 0.30140486 -0.5021661 -0.29445508 -0.23810911 -0.01112588 -0.28991747 0.006224151 0.06442857 -0.05319507 -0.48691985 0.29591084 0.13733555 -0.19143978 0.23957928 0.118038006 0.27357417 -0.15438254 0.62188727 0.4024234 -0.4406779 -0.17500077 -1.1252389 0.24154134 1.0403621 -0.482334 0.5432252 -0.3410662 -0.39831483 -0.031285144 0.84837633 -0.09173494 -0.3438864 -0.53787315 -0.36548275 -0.16899253 -0.4081134 0.22124502 -0.16375943 0.18130721 0.50693136 0.23003303 -0.0048004747 0.2260095 -0.28382236 0.39711076
ambitious.a.01 -0.07170417 0.122127555 0.41482863 -0.087817006 0.43196955 0.2940315 0.045061592 -0.057921197 -0.19042046 -0.40915197 0.4141115 0.16285822 0.0073306723 0.2493393 -0.044077456 -0.12868963 -0.3405658 -0.17356677 0.29671457 0.022331245 -0.55782413 0.46412727 -0.08916176 0.5430446 -0.0791502 0.3835424 0.06558399 -0.26480427 0.15038474 -0.008669152 0.29386237 -0.06356094 0.22210276 -0.1277188 -0.59897685 0.5662355 -0.43643233 0.21563119 0.28355387 -0.2204946 -0.2275571 -0.040014822 0.22708987 -0.18267506 -0.2395055 0.3784866 -0.1618481 -0.32268438 0.1643015 -0.71846867 0.5936762 0.117258385 0.022741135 -0.15350717 -0.08539189 0.4424339 -0.0012164039 0.27623123 8.324685e-05 -0.0009726583 -0.29106626 -0.20081872 0.0067388173 -0.046759047 -0.06271561 0.5465074 0.29783133 -0.12373448 -0.23958613 -0.19216931 -0.1621519 0.10901144 0.29983866 0.18628953 0.65645754 0.11190553 0.016257007 0.28882906 0.15046197 0.87916815 -0.24539357 -0.14787024 0.53493744 -0.4975995 0.3138012 0.426698 -0.103029296 0.13813083 -0.008447238 -0.2083104 -0.15665713 0.17474245 -0.03191218 0.22550601 0.1794015 -0.5870817 -0.2116853 -0.1784695 -0.014953817 -0.31125352 -0.51249635 -0.4399966 0.26640418 0.40717068 0.121984385 -0.31520605 -0.31805873 0.024587415 0.25375864 -0.55232245 -0.29359266 0.12950455 0.053273395 0.17327443 0.3962755 -0.61600363 0.32684106 -0.42538804 0.20139611 0.28257465 -0.06709636 0.19331902 -0.20589395 0.2510254 0.3824444 0.10164474 0.05943728 0.28603005 -0.16178514 0.0038845697 0.4634093 0.004102715 -0.21744126 0.33657452 -0.17671482 0.11413863 0.036811415 -0.16093193 -0.23105231 0.20566662 -0.023669623 0.07910255 0.22633858 0.089211114 -0.25633344 0.09196071 0.33071458 0.2914727 -0.08104171 0.059874874 0.29412287 -0.031204822 0.25618893 -0.2012865 0.062321957 0.23290576 -0.35235003 0.02490082 -0.45956227 0.004502292 -0.42185563 0.18344252 -0.07315352 0.1964557 0.22242728 -0.8458407 -0.50570107 -0.13243434 0.18054292 0.148476 -0.09070686 -0.23488219 -0.8854117 -0.25139168 -0.023468498 -0.114579074 -0.17626391 -0.3043125 -0.35308212 0.6430004 -0.23832585 -0.20960017 -0.13873437 0.041434657 0.67832494 0.0006021003 -0.052774046 -0.50300777 -0.25167498 -0.045994073 -0.15299001 -0.34319144 0.06522258 0.14603671 0.09297016 0.12727857 -0.42703414 0.17877509 0.16557369 -0.020258328 0.47963297 0.5425831 -0.22962478 0.2096667 -0.103701964 0.012145455 0.12422815 0.18923306 0.60928965 -0.54416347 0.17583147 -0.353688 -0.2995422 0.4042358 0.17827706 0.08813881 0.058037486 -0.04479915 0.14401586 0.09655164 0.7717046 0.25021118 -0.08790989 -0.008988713 -0.1872054 0.19869345 0.10581823 -0.40625167 -0.5715239 -0.23765172 -0.050564133 0.5525167 0.3211471 -0.057522673 -0.24806271 0.35825986 -0.2269635 0.5027767 0.030070174 -0.20424025 0.4462736 0.02470525 -0.09676374 0.36967 -0.2900686 0.38633117 0.46858007 0.1052888 0.23577553 0.64166385 0.48642468 -0.10147364 -0.048109367 0.18274222 0.77009225 0.051785763 -0.10059399 0.5303189 0.14625046 0.2838269 -0.08206036 0.35136634 0.13601919 -0.040875204 0.16640958 0.25317767 0.14876144 -0.03825481 0.6833179 0.22587384 0.21222915 0.0057631866 0.16523632 0.16849236 0.34876403 -0.35158917 -0.73288536 0.08132585 0.19779168 -0.6264157 0.39829707 -0.30491132 0.3107007 0.041741963 -0.021388674 -0.23008063 -0.17843829 0.19063927 -0.30546397 -0.08446431 0.10918549 -0.048003726 -0.21994244 -0.016551163 0.5778144 0.07568632 -0.23012568 -0.029050497 -0.49958006 0.36826172
mobile.a.02 -0.5796412 0.15297331 -0.13307749 -0.31594294 -0.23992859 -0.32343084 -0.48109856 -0.19750682 0.070414774 -1.0075177 0.57855874 0.021252742 0.27552807 -0.4163097 0.32446435 0.10960901 -0.3968246 0.11847505 -0.09683351 -0.39496374 0.4957645 -0.21897568 0.053596534 0.0010114865 0.060686033 -0.426869 0.18755807 0.44934076 0.26245004 0.23089463 -0.18993065 -0.11205625 -0.32943186 0.43995893 -0.3315535 -0.31992134 -0.16195172 -0.16473053 0.23534827 0.22378272 -0.16953509 -0.17578614 0.10914348 0.3052327 0.2672196 -0.48809066 0.23081635 -0.54520273 0.21237418 -0.13007611 0.2795171 -0.08907442 -0.35998186 -0.27817595 -0.12986293 -0.07671833 0.07822783 0.4228662 -0.027530558 -0.04930355 -0.50261116 0.08627542 0.108590744 -0.15083656 -0.0035479963 0.40571257 -0.14557573 0.42920902 -0.7659214 -0.4621061 -0.30298978 0.16465658 -0.43703064 -0.23976591 0.23491612 0.5983562 0.051731925 -0.008842694 -0.30274484 0.12495876 0.08383502 -0.30090034 -0.6168438 -0.32783508 0.04628036 0.07220757 -0.5649163 0.31155 0.349659 -0.04493771 -0.08769639 -0.19028658 0.893019 0.4760348 0.15755193 -0.30655602 -0.24306886 0.49380252 0.47062063 -0.73550963 -0.5110807 -0.02063388 -0.25974318 0.28425384 -0.55177206 -0.15170212 0.6627708 0.22038212 -0.5931328 0.22884041 -0.07513986 -0.08562705 -0.034989823 0.13501586 -0.027034245 -0.16407181 -0.06117265 -0.053832103 -0.2517275 0.5299782 -0.012002453 -0.36745998 0.2317519 -0.8588627 -0.31873766 -0.249818 -0.11890863 0.3843125 0.04667614 -0.032360855 0.0015467778 0.24115957 -0.5113047 0.41257873 0.11111449 -0.62334687 0.92718124 -0.50757265 0.6695961 0.08490449 -0.01155849 -0.24899857 0.530289 0.297903 0.17141141 0.19093665 -0.35971 0.6745496 -0.23505974 0.07793325 0.25591898 -0.44132662 0.13808727 0.14551441 -0.21620972 0.37861496 0.062910676 0.38276708 0.014908507 -0.6502364 -0.9034042 -0.06583903 -0.097402096 -0.15943494 0.20703828 -0.067856856 0.6870686 0.3343734 -0.52496207 0.6532716 0.75873685 0.6845272 -0.20023759 0.4595147 0.039231304 -0.022485455 -0.11758893 -0.45829523 0.017440818 0.033356942 0.0678171 -0.5941923 0.019354083 0.15441509 -0.25929874 -0.32286283 -0.23720004 0.21070695 -0.5137889 -0.58290815 0.41904116 0.092901126 -0.50515634 -0.2617872 0.11446789 0.095192626 -0.56086844 -0.01495811 -0.30684206 -0.002599341 0.24741335 -0.12639129 -0.17171624 0.24864326 -0.1742489 -0.15178552 -0.16296199 0.3814478 -0.09985269 0.19297649 -0.09596964 0.21288231 -0.5811079 -0.14346156 -0.4507489 -0.13155018 0.12908112 0.6491935 0.04322374 0.32248908 0.09254092 0.5723371 -0.09175564 -0.2647267 0.47212973 0.040084425 -0.12469885 -0.84242105 -0.088809475 0.055147517 0.19957045 -0.008765094 0.08547579 0.1847989 0.0057265344 0.10194744 -0.22173235 0.055693038 -0.11702059 0.44193244 0.37209493 0.43484715 0.38448772 -0.019023014 0.1272672 -0.3297151 -0.34484637 -0.58340776 0.21210472 0.4022037 0.169715 0.42713743 -0.18083866 0.070977025 -0.36160588 -0.13643405 -0.09353505 0.54046315 -0.0735181 0.014356989 0.06812351 -0.47352558 -0.58794206 0.23243424 0.07642996 0.18128616 -0.13691184 0.072798245 0.10346912 0.2330575 -0.3226201 0.024404937 -0.565381 -0.16651265 -0.05787694 -0.18427764 -1.3638605 -0.15450764 -0.6392188 -0.22926466 -0.78808814 -0.38096395 0.0050929836 -0.10826351 -0.04006042 -0.4490738 -0.015371127 0.012991924 0.07169322 -0.028941268 -0.22630838 -0.45240605 -0.2832584 -0.6803746 0.03567691 0.5928895 0.2753603 0.3638229 -0.25827444 -0.26420116
ethical.a.02 0.35070378 -0.56278706 -0.51714224 0.20929049 -0.06780234 0.24021228 0.5530519 -0.17974153 -0.39343035 -1.2998465 0.50803035 0.21209389 0.06098484 -0.2078311 -0.24582554 -0.1086205 -0.3099494 0.015816405 0.57997984 -0.21156423 0.14253128 0.28246376 0.33721995 -0.5188822 0.51059 -0.009556957 0.30598325 0.20825393 -0.24236551 -0.1765227 0.79865015 0.31357586 0.054486733 -0.27121738 -0.0011798266 0.2313559 0.49831086 -0.177211 0.3239348 -0.16432418 0.8670068 0.44325954 0.45832393 -0.2714744 -0.6174325 0.73468006 -0.22004896 -0.7024858 0.46907613 0.30354685 -0.4832935 0.29411587 0.07719981 0.14223377 -0.34184894 -1.0343378 -0.55681205 0.4116757 -0.4821455 0.12348843 0.608582 -0.38511232 0.43430912 -0.016057039 -0.13960405 0.14067754 0.3158943 -0.3442587 -0.8476867 0.27881113 0.07961502 0.005426391 0.7709941 0.3447698 -0.1528678 0.68988717 -0.3283639 0.56476444 0.25005686 -0.7635111 -0.4584491 0.29593825 0.5134295 0.11021697 -0.15233053 0.4584093 0.54236853 -0.5937428 0.3261783 0.120601095 -0.10049651 -0.042910475 -0.5302112 0.68206775 -0.09971218 -0.12890376 0.3866656 0.6723728 -0.4523038 -0.2857763 0.7443045 0.3851706 0.39140067 0.18692957 -0.0585345 -0.37973747 -0.42656124 0.76981133 -0.13871022 0.15595293 0.28803152 0.31940544 -0.049792673 0.0685852 0.34997466 -0.232477 0.23596427 0.080518305 -1.0723834 -0.14832011 0.06578135 0.6359145 0.13714297 0.74948883 -0.3961147 -0.5822942 -0.5207296 0.5119938 0.5152291 -0.5997366 0.37064895 -0.69415253 0.030814413 0.5239814 -0.13243288 -0.40370527 0.039504245 0.40354443 0.02483904 -0.22918148 0.24863431 0.042869408 0.19062312 0.111765146 -0.21383289 -0.22314228 0.5186971 -0.9585526 -0.32614917 -0.17706163 -0.8849071 0.018139774 0.82090837 0.11317855 -0.36101687 -0.023863576 0.05023193 -0.38146034 0.4250732 0.5951128 -0.1237099 0.64689815 0.048050012 -0.22462592 -0.75806445 0.16968527 -0.1460301 -0.14803523 -0.26113862 0.26580292 0.03929292 -0.32446867 -0.04587876 -0.60699034 0.5885567 0.42656592 1.121245 0.4406368 0.11862779 0.375094 0.06968483 -0.36848453 0.15228003 -0.42538926 -1.3888252 0.13538183 -0.22438297 0.5103884 0.013964091 -0.14302489 0.3448578 -0.69718605 0.050355673 0.3031259 -0.08808992 -0.4614114 -0.48935142 0.15584005 -0.46649042 -0.013108611 -0.32228276 0.19869117 0.5010783 0.52255684 -0.24944507 0.1261797 -0.04334128 0.24430197 -0.24453029 0.6156671 0.31460553 0.42099506 -0.36060888 0.2916292 -0.7346006 0.2752663 -0.09442143 0.2920935 0.24156657 -0.61351186 -0.28863865 0.34790862 -0.26152113 0.47375095 -0.10348656 -0.12026916 -0.034816846 0.20055541 0.23149662 -0.01719958 0.32317194 0.5103777 0.06064451 0.2633792 -0.002910869 -0.10865284 -0.49950486 -0.36637408 -0.004192315 -0.32302263 -0.07474908 0.42618635 0.12075816 -0.6796021 -1.2911648 -0.027258575 0.45578173 0.1328835 0.55111885 0.5974445 -0.6944226 0.3342373 0.17315538 -0.36080268 0.3715734 0.29561082 0.13377696 -0.29079744 -0.0031219416 -0.55508834 0.34513783 -0.59996265 0.3482813 -0.7181527 0.44546854 0.4259487 -0.5265586 -0.62063867 -0.12752904 0.08551347 0.3425399 -0.42099667 -0.080758564 0.4174788 -0.5889834 0.59868395 0.14347155 -0.14615017 0.84052926 0.22874577 0.093346916 -0.20818007 -0.09973164 0.43803644 -0.12127662 -0.21211652 0.2849323 -0.07061555 0.40690348 -0.22195882 0.402517 0.82212406 -0.018517528 0.38758537 0.47946998 0.13425988 0.11850992 0.32406083 0.54444814 0.037617713
bureaucratic.a.01 0.092919126 -0.6127941 0.5776624 0.8568161 0.55354 -0.16862254 0.75883573 0.19927013 -0.38148007 -0.6171539 0.028515097 0.36849678 -0.41701448 -0.005732151 0.57576185 -0.37464073 -0.16862483 0.22808391 0.28689864 0.4639203 0.5596428 -0.0025725826 0.32190993 0.21961099 0.014313507 0.25825298 0.48155296 0.19340254 -0.22329254 -0.075484365 0.1846728 -0.46926713 -0.36439517 0.5020358 0.093077525 0.70304495 0.34435064 -0.8561612 -0.3720709 -0.02284833 0.41202763 0.11036592 0.60680807 -0.07368991 -0.05861329 -0.26121384 -0.44345582 -0.11355693 0.3386327 -0.20556058 -0.4446779 0.21726634 -0.037433494 -0.3250987 0.096101046 -1.1428386 -0.75037485 -0.24891838 -0.053332973 0.4470508 0.19076392 -0.20970811 -0.30736175 0.28748614 0.21543518 -0.6542621 0.7163676 -0.3323081 0.14775844 -0.35041046 -0.40993407 0.56349385 -0.5101325 -0.11210573 -0.21092877 0.5373463 -0.32059556 0.26808986 0.111028746 0.40631637 0.41758767 0.32592657 0.38403213 -0.2232477 0.6608383 0.30598632 0.68800795 -0.26551312 0.36009905 0.004402348 0.15521948 -0.43616322 -0.18491516 0.20521723 0.33236486 -0.503647 -0.8185917 0.6899327 -0.113008544 -0.18400349 0.547979 0.20729002 0.7217712 -0.68079 -0.67155606 0.25157994 -0.58008695 -0.063322484 -0.32236865 0.7421018 -0.28770998 0.20154914 -0.46024185 0.06775608 0.08173823 0.083615966 -0.511022 -0.32666993 -0.21204375 -0.14371142 0.7970387 -0.47024876 0.22741216 0.1000023 0.5689537 -0.51654583 -0.16409597 -0.08033842 0.6582399 -0.63184994 0.116504714 0.25538746 -0.1930945 0.06348243 -0.45198062 0.15120009 -0.29271138 -0.14485087 -0.076946706 -0.15444618 -0.24462798 -0.02133074 -0.5529063 0.20603701 -0.33698857 -0.06636711 0.431765 -0.2603386 0.042030614 0.23570774 0.007983763 0.31162763 -0.51348835 -0.24830078 -0.39569744 0.87830716 0.39125443 0.21017337 0.1683979 -0.19855498 -0.028716594 0.07147548 -0.26333103 -0.5104653 0.335352 0.081999145 -0.28286332 -0.18586563 0.12943693 -0.114309594 -0.49955893 -0.52354306 -0.40904877 -0.5118678 0.13721128 -0.13525733 0.30116338 0.12721068 -0.15156215 -0.020722475 -0.23262161 0.43274862 0.32461858 0.5495989 -0.4039322 -0.228819 0.33578888 0.116725825 0.4406588 -0.10360524 -0.073042154 -0.39527088 0.5343751 -0.33056837 0.8471731 0.4578127 -0.46595094 0.550545 -0.2948146 -0.33891022 -0.054174863 0.3979919 0.57938504 0.5947683 -0.1703201 0.23760904 -0.35797054 -0.6802605 0.57056254 0.29169294 -0.228833 0.05902007 -0.25925714 0.19641747 0.14830935 0.24799554 0.24282533 -0.09608159 0.03511812 0.22093552 -0.80772996 -0.8518456 0.19387126 0.39195704 -0.025166065 -0.43107215 0.03480222 -0.13207987 -0.2455392 -0.6523466 -0.10269807 0.12642995 -0.2055974 -0.18842016 0.032455985 -0.14625002 0.82281846 -0.081593715 0.6122864 -0.0270802 0.19611546 0.069870345 0.105738394 0.012654059 -1.300074 0.2131329 0.45887482 0.61621696 0.7349194 0.009729124 0.219815 -0.0088508455 -0.07521785 -0.3944195 0.586284 -0.21660535 -0.025363477 0.003141308 0.1279979 -0.08356479 -0.29059824 0.32923117 -0.24419735 -0.80046195 0.23198014 -0.35757586 -0.2547318 -0.45517063 0.052922666 -0.027078047 -0.042113636 0.23040105 0.44873032 -1.001189 -0.04698622 0.60314286 -0.6702083 0.13024263 0.057790667 -0.8612955 0.47122082 0.120947845 0.5556206 0.1614044 0.43163297 -0.34636238 -0.14050397 0.5724083 0.34656423 -0.37843424 0.13071427 0.3913291 -0.2972115 0.6660693 0.1372993 0.3056247 -0.66617566 0.3712878 -0.30617082 -0.007509337
grotesque.s.01 0.02353337 0.112099044 -0.08476924 0.45202905 -0.26875165 0.26092082 -0.09680912 0.22563407 0.4718958 -0.043197326 -0.42538902 0.17615397 -0.36844546 0.27688956 -0.13824072 -0.02444934 0.4290003 -0.1928871 -0.18103953 -0.149152 0.4577674 0.14114238 -0.17034777 0.9261802 -0.3009886 0.606551 -0.010950962 -0.031698704 -0.032889906 0.24297202 -0.26822656 -0.0010293802 -0.19801208 -0.41736054 0.39835227 0.30925137 0.18417002 0.12674445 -0.18556242 0.30990943 -0.050685525 0.65794116 0.128464 -0.11427201 -0.21076478 0.1358682 0.13354784 -0.31991196 0.36915025 -0.18115444 -0.26687604 0.2981689 -0.12503591 -0.15139139 -0.123034015 -0.012347407 0.06486715 0.23860186 0.57205325 -0.3613338 -0.118937925 -0.25089365 0.009703275 0.2717905 -0.22393622 0.2580913 0.026842296 0.14827551 -0.1877919 0.13120358 0.015892697 0.0059332377 0.02212956 -0.32433966 0.47348785 -0.3634788 -0.2032293 0.22325453 0.14070792 0.2704587 -0.5652714 -0.355853 0.53187037 0.19209512 0.13741332 0.44911975 -0.13400394 0.49673226 0.2988019 0.13819537 -0.47651178 -0.24669567 -0.160071 -0.024903418 -0.7849262 0.1453386 0.09345174 0.25577667 0.28024197 -0.0810545 0.25329998 -0.035019882 0.6631023 0.5554836 -0.08282746 0.21933958 -0.29008073 0.059119504 0.28111893 0.39764085 -0.15421626 0.4069654 -0.5407337 -0.27033928 0.40573347 0.16188358 0.48438892 0.2614135 -0.43997532 0.035424106 0.19444476 0.1014155 -0.22327848 0.14127588 -0.23271129 -0.14424595 0.30136624 0.11920245 0.41655 -0.21311437 0.28330293 0.121850014 -0.3155669 0.28114197 -0.3520602 -0.70336074 0.39744732 0.13299064 0.41813844 0.710015 -0.3919067 -0.25977892 0.30731106 -0.049591538 0.22425205 -0.16948342 0.48502278 0.38280174 -0.4752562 -0.22503375 -0.27711433 -0.32826 -0.66456825 -0.67987627 -0.27925324 0.042016085 -0.5469282 0.2776538 -0.14508894 -0.021908045 0.58183587 0.47349203 0.21090762 -0.13323286 0.24035445 -0.43630853 0.12620611 0.30272996 0.085810214 -0.4731903 0.20724939 -0.32198197 0.27674064 0.3113862 -0.58933705 -0.38908514 0.11576922 0.16162272 -0.4895737 -0.20830241 -0.12993865 -0.1810293 0.31578255 -0.10560381 0.1319305 -0.26401237 0.10349859 -0.36721566 0.3086832 -0.19989319 -0.3176031 -0.18678477 0.74845994 0.24352406 0.30651957 0.29977375 0.17952086 0.51142097 -0.12903044 -0.18483281 -0.07289563 0.09734057 -0.07641917 -0.24133766 -0.017155068 -0.10155162 -0.06342898 -0.39671296 -0.2076088 -0.13069333 -0.7514746 -0.0036709104 0.17454627 0.25415832 -0.017452367 0.21695085 0.40017605 0.17108266 0.10938421 0.34429342 -0.22702469 0.29383647 -0.2785844 0.039421782 -0.2619233 0.17653301 -0.2572937 0.40925622 0.059329107 0.091232024 -0.01605961 -0.2630953 0.26927286 -0.21344547 -0.040810168 -0.24795845 0.2915078 -0.060153186 0.056193054 -0.112191595 0.21140982 -0.24191622 0.27627355 -0.10202814 -0.46878877 0.111730926 0.47793445 -0.12088833 0.32173237 -0.010725037 -0.08079464 -0.29655966 -0.5361718 -0.049822997 0.45839837 0.1183448 -0.49620935 -0.3187156 -0.2930268 -0.09606352 0.18740109 -0.12877455 -0.009428402 -0.23382413 -0.07256486 -0.35917565 -0.03167195 7.011048e-05 0.027854316 0.03795001 0.3450349 -0.09247779 -4.6249046e-05 0.64832574 -0.18951975 -0.023571953 -0.07742914 0.21652412 0.07436945 -0.022583347 -0.12577043 0.20281045 -0.14548728 0.16917261 0.22525448 0.067844406 0.00993242 0.027677687 0.23553142 -0.5077158 -0.32653883 0.1699788 0.11928301 0.01972334 0.44722423 -0.4546637 -0.034638613 0.21648882 -0.2555827 0.115580894
exotic.s.02 -0.014855223 -0.033354346 0.08148725 0.14837097 -0.34180006 -0.38865244 0.22850801 0.19581752 0.2947009 -0.13822706 0.117435545 0.025480745 -0.20264587 0.12543324 -0.2625028 -0.40480658 -0.027926734 -0.04673556 -0.15705879 0.2860733 -0.08858282 0.118071355 -0.039954428 0.20528334 -0.37448213 0.17726104 -0.12284691 -0.051929325 -0.16147314 0.29640508 -0.4250662 -0.07001103 -0.17034255 -0.9746787 -0.06898942 0.09928462 0.15730472 -0.11585374 -0.18862148 -0.08327934 -0.4409856 -0.19833058 0.07642525 -0.44808748 0.012048945 -0.08351132 0.04539438 -0.15660425 0.31722075 0.10589179 0.09593716 0.053182427 0.37056592 -0.16081285 -0.0660994 -0.48049945 0.13399598 -0.2503462 0.22377473 -0.104618296 -0.21899432 0.061392188 0.51042056 0.40806535 -0.015165777 0.27800956 0.14123292 0.27666938 0.54073656 -0.060139347 -0.06530688 0.5393374 0.16265832 -0.0020361221 -0.188813 0.36555627 0.04696696 0.1169856 0.096461184 0.03552873 0.37160233 0.40901518 -0.13756599 -0.09287247 -0.04227637 -0.0645849 0.2349526 0.04481147 0.0021491058 0.02952314 -0.2175061 -0.25332406 0.31090102 0.020333508 -0.19408098 0.10490998 0.27072397 -0.7570281 -0.22434606 -0.004966307 -0.08238034 0.36898127 0.5403491 0.5989443 -0.2981404 -0.059411917 -0.2789833 0.0227248 0.20557465 0.2953627 0.65614563 0.14540724 0.034239188 -0.15436268 0.27516478 0.13675961 0.38106948 0.5242887 0.1914605 0.2652787 -0.18796155 -0.20524167 -0.4221952 0.30526516 -0.3097945 0.35508785 -0.26895967 0.2624429 -0.22047195 -0.06811274 0.50245935 -0.17370455 0.5000052 0.0019275477 -0.28301418 0.28925404 0.017149 -0.062261682 -0.6104915 0.14475729 -0.046135537 -0.2886586 0.112576805 -0.104620926 0.22445597 0.045049172 -0.12736797 -0.28041166 -0.22433048 -0.09814828 0.081992194 -0.11790909 0.08365871 -0.367029 -0.13397934 -0.35056245 -0.27802584 0.0731418 0.10752034 -0.2457183 0.5375078 0.15024586 -0.1536643 0.5436001 0.07158469 -0.2239371 0.376913 0.04062709 0.0733575 -0.32546464 -0.22461784 -0.49509057 0.1604202 0.80155635 -0.064974874 -0.17228399 -0.17863928 -0.08016865 -0.006501062 -0.32597098 -0.16535953 -0.44368368 0.03446271 0.13221051 0.17071931 -0.25728163 0.67773724 0.011301249 0.13310967 -0.51065487 -0.49167508 -0.0675643 -0.10238436 -0.015574312 -0.13986252 -0.091723785 0.24715166 -0.19414172 -0.41028693 0.44633296 0.015714835 0.07972328 -0.6460263 0.0040207016 0.16627213 0.41433334 0.10385237 0.31316143 -0.12127395 -0.027159944 -0.2912936 -0.19494577 0.6640368 -0.114272565 0.4161801 -0.2081889 0.26981232 -0.22723413 0.11417507 0.20448065 0.5408474 -0.05692027 -0.080151424 0.07552771 -0.22922179 0.2635383 0.22970082 0.24236327 0.0018005872 0.12146388 -0.069374815 0.06578796 0.24622048 0.19840229 0.06565895 0.020171361 -0.032719765 -0.07535226 -0.4849243 -0.22357738 -0.116784744 0.12136091 -0.15776366 0.44605297 -0.011850942 0.1187033 0.021081919 -0.17059106 -0.14592497 -0.13928005 -0.20694081 -0.29508767 -0.17575221 -0.15602592 0.42008 0.112626985 -0.047766037 0.12325283 -0.20566733 0.06154498 -0.061323173 -0.34679264 -0.24628845 -0.090162575 -0.037714608 -0.33294597 -0.12513518 0.3339735 0.047501665 0.22023927 -0.12784417 -0.13329574 0.15594368 0.3003673 0.29875547 0.19912289 -0.65200496 0.2172593 -0.79552454 -0.25996736 -0.25526157 0.24356093 -0.35702935 0.32933244 -0.34882292 -0.38452056 -0.47778374 0.29794326 0.22162715 -0.2909473 0.21931343 0.077370934 -0.02030605 -0.18048325 0.01741681 -0.4994387 -0.047820527 0.07825462 0.042803265 0.048997223
high.a.01 0.3261178 0.60739464 -0.17361656 0.09602114 -0.055852454 -0.017243639 0.10645817 -0.050235648 -0.25629503 -1.2980663 -0.009642688 0.4323931 0.062064275 0.1770433 -0.47596526 -0.026785605 -0.012241952 -0.2651584 -0.23236006 -0.3180322 -0.1284199 -0.03912527 0.02900253 0.035297036 0.42833608 0.17203608 0.41340292 -0.49071315 0.18530545 0.13120222 0.15857762 -0.22147985 -0.6894063 -0.11054896 -0.5324856 -0.37684456 -0.5851989 -0.73524344 -0.08652601 0.26272267 0.16148047 0.4884288 -0.3524282 0.636797 0.40047434 0.06337377 -0.16492209 0.54060066 0.53632116 -0.6296993 -0.31240582 0.25778818 -0.4432984 -0.19979577 -0.24140356 0.31581327 -0.44850665 0.01074808 0.14059547 -0.023484424 0.08785882 -0.11981259 0.74173915 -0.3171041 0.011976489 -0.49405867 -0.019698886 0.45858496 -0.04703607 1.1255914 -0.08714196 0.032050252 -0.36714676 -0.105016135 -0.18921448 0.4490132 -0.17389175 -0.4027135 0.13658662 0.41146824 -0.019762967 -0.32448536 -0.00682711 0.3761453 0.2307388 0.29943466 0.37773275 -0.18816042 -0.042716607 -0.11322545 0.6439684 0.25407583 -0.3632606 0.12266559 -0.5181756 0.15446493 -0.1696771 0.48179558 -0.262154 -0.032116927 -0.12663971 0.0039316677 0.66450644 0.1626946 -0.031981476 -0.2643659 -0.28975743 -0.053876728 0.15429801 -0.3122005 0.11594241 -0.08280497 0.0558072 0.043019146 0.38082397 -0.0879767 0.22913916 -0.30801666 0.14127347 -0.43417355 -0.24358091 -0.14560205 -0.17393164 0.2017723 0.03275744 0.18840395 0.41015136 -0.5415094 0.23782991 0.3209167 -0.70314527 0.5628317 0.025205966 0.019772908 0.41282976 -0.19510365 -0.2124452 0.22273697 -0.10945414 0.3174445 -0.0021120328 -0.11094403 0.41674942 0.14360237 -0.1516151 -0.05556145 0.07982677 -0.4360746 0.050668873 -0.30354902 0.59001017 -0.41480118 0.23656523 0.2710671 0.12670304 0.74256134 -0.69967777 -0.22621405 -0.23586997 0.21339002 0.18004993 -0.62106687 -0.26166934 0.27497804 0.43010756 0.14880317 -0.057924904 -0.154867 0.18291974 0.33707926 0.2213366 0.21764846 -0.5297222 -0.6443269 0.24143271 -0.35892448 0.10971612 -0.3214587 -0.16912492 0.41053665 0.25969633 0.35367668 0.5217465 0.42180058 0.100735195 -0.5255153 0.49633273 -0.025707413 -0.46471447 0.8319886 -0.16442911 -0.16480128 0.39618966 0.15927778 -0.31200606 -0.16968867 0.044491794 0.043679267 0.1177858 0.23903607 1.0771922 0.401671 0.44186896 0.22132413 -0.30045888 0.23298223 -0.5183293 0.5559083 0.5612997 -0.11178541 -0.10000975 0.6003144 -0.32892007 -0.4667072 0.26594457 -0.39708468 -0.57656544 -0.0069594756 0.28067663 -0.3211592 -0.08736666 -0.66405964 -0.050181624 -0.29679948 -0.4231354 -0.3202011 -0.4824658 0.2547228 -0.0611898 0.19508967 -0.40168205 -0.16728985 -0.12014159 -0.0385681 0.1227238 -0.361336 0.17083026 -0.33366328 0.44192258 -0.007343253 -0.2110092 -0.26010877 0.06650625 0.23015156 -0.41990337 0.34780228 0.26906362 0.01783035 -0.60085607 -0.03631254 0.089599535 -0.026392853 0.5276269 -0.10760809 -0.47523516 -0.014697917 0.11972509 0.24356721 -0.364947 0.2388111 -0.29424357 0.13833804 0.19904347 -0.03995317 -0.52048016 0.08291945 0.07750691 0.06456255 0.11247791 -0.12309917 -0.24317352 -0.21106857 0.0035917095 0.0047298875 -0.1392144 0.36975595 -1.12316 0.24060181 -0.021946155 -0.2957417 0.22407171 -0.088177875 -0.018824967 0.617283 -0.4789019 0.1318905 -0.098464996 -0.27140373 0.20181544 -0.21937326 -0.0069321417 0.089972325 -0.33195287 0.1857265 0.44013357 0.4477886 -0.43954116 -0.28917658 0.22852948 0.2482776
social.a.02 -0.93664515 -0.36459208 -0.25424287 0.7098937 0.06530636 -0.6913122 -0.691947 0.034534253 0.11877769 -2.23759 0.0650784 -0.26628593 -0.15964796 -0.08552657 0.38466963 -0.74728113 0.17607364 0.41330615 -0.07247945 0.48533088 -0.24776049 0.7065124 0.25865942 0.46182787 -0.22032446 -0.06607332 0.51002103 -0.043617994 -0.10743566 0.15530275 0.19738732 0.7894927 -0.74086165 0.37275222 -0.624888 0.45906958 0.49916905 -0.13229564 -0.5763424 0.38175473 -0.2219505 -0.5744983 0.20235635 -0.66144365 -0.47874454 -0.025592584 0.16817579 0.34614277 -0.9769474 0.06479965 -0.17751083 -0.24397016 -0.114665896 -0.59194577 0.025722187 -0.19425176 0.34464303 -0.89444375 -0.019452332 0.23941557 0.41479018 0.025654001 0.37873888 -0.1432918 -0.09690444 -0.5518741 0.5530173 1.0147859 0.66459215 -0.37515268 -0.57529455 -0.041620236 -0.24133264 -0.45267323 0.2941158 -0.05752436 0.38920245 0.25415766 0.2532917 0.053598914 -0.017565256 -0.54009104 0.11984649 -0.5978869 -0.02095195 -0.2284568 0.3274095 0.21506669 -0.033316057 0.48260236 -0.6109995 0.2346039 -0.10592158 0.21157733 0.32757568 -0.78995645 0.8627117 0.14305916 -0.13296571 -1.2261231 0.8705539 -0.62042534 -0.09687093 -0.24817662 -0.008355887 0.39426798 -0.5883152 -0.2455217 0.42177528 -0.16528024 0.70501006 -0.6428098 0.4498366 0.030318784 0.7594241 0.41488 0.25577605 0.72063345 -0.46766743 -0.019972548 0.6395541 0.6936604 -0.4399774 0.22433692 -0.23440695 -0.10760443 0.28746083 0.2741241 0.5387412 -0.85133845 0.14212753 -0.23773119 0.5490325 -0.43837696 -0.5145272 -0.58753365 -0.16635111 0.34332705 -0.504277 0.7556803 -0.7132125 0.3166215 -0.5778115 -0.1719132 0.9420272 0.1136457 0.79387087 0.04545622 -0.26388857 -0.08759196 0.8074062 0.44749886 -0.25466198 0.06466447 -0.10121202 0.2681488 0.54254323 0.15856317 0.41379425 -0.52567136 0.4464859 0.47838238 1.1817553 -0.5692452 -0.2020388 0.46617886 -0.31298086 0.08408791 0.07612924 -0.41276506 -0.2192214 -0.4705099 -0.8121062 0.34401894 0.25927833 0.16378962 -0.37986392 0.32625422 -0.10805878 0.6224265 0.51176316 0.23778161 -0.09240885 -0.11477344 -0.39970005 -0.09841885 -1.0162995 0.2237199 -0.32764962 -0.46850067 -0.15306413 -0.24158175 -0.55224776 -0.048831522 -0.37116483 0.3446389 -0.021399502 0.11928682 0.43180698 0.24405883 0.16373685 -0.12561128 -0.08696744 0.3500914 0.095061615 -0.2225794 -0.07778205 -0.091323934 0.017440187 0.6349202 -0.026499506 -0.41219538 0.6508721 -0.027834145 0.33782727 0.6015519 0.08730875 -0.19502057 0.8788209 0.7028723 -0.16790484 0.6172598 0.23830698 -0.15023327 -0.10324322 -0.6395336 0.3443554 0.25581148 -0.24703258 0.16489804 -0.32567534 0.14680456 0.14729486 0.015083116 -0.05652183 0.35911945 0.4012638 0.17295523 0.19152395 -0.015772175 -0.050386123 0.039318312 1.0342884 0.316594 -0.97245204 0.63938427 -0.40443003 0.22509444 -0.06091974 0.47734526 0.008319942 0.5181027 0.7735002 0.5620329 0.13161694 0.1937273 0.39101753 -0.297013 -0.04958527 0.13017975 -0.22939718 -0.6211405 0.7563508 -0.5100897 -0.0092952475 -0.29598266 0.11580374 0.5218311 0.13423997 0.29516461 -0.24547143 0.48519844 0.03398027 0.17945689 0.5129846 -0.36854324 -1.7149442 -0.24581775 1.3277858 -0.86915183 -0.26851657 0.07540626 0.10658688 -0.35826227 -0.18854834 -0.119981065 -0.19714247 0.24619436 0.08452351 0.4294227 -0.28854173 -0.3537304 -0.40605757 -0.004405027 0.03506926 -0.0041918643 -0.18793681 0.1307939 -0.7090662 0.0575317
easy.a.01 -0.025390461 -0.18053943 0.24051143 0.3325264 -0.27120855 0.019419895 0.45152995 -0.07226636 0.14464493 -0.767231 0.100888744 -0.092834756 0.03228748 0.12462015 -0.20368482 -0.56464493 -0.14170209 0.26483122 -0.07720411 0.34992543 0.037498984 0.076836936 -0.17976663 0.018726792 -0.24189216 -0.11880134 -0.10445376 0.32292584 0.07900778 0.045983613 0.06984544 -0.18184337 0.30708343 0.13521242 -0.5278835 0.098187335 -0.24955843 -0.43876997 -0.37332392 -0.02555014 0.027004365 -0.35602286 0.24644427 -0.2131937 0.14720522 0.18896942 0.28552526 0.6078168 0.13401562 -0.7778019 -0.0119408425 0.0059957025 -0.14816591 0.15415238 -0.11278383 0.064824976 -0.30433264 -0.09177436 -0.5527479 0.16101164 0.062779255 0.117500626 -0.41033953 0.5270306 -0.04237869 0.3042302 -0.1510769 0.3453608 0.20658703 -0.018491847 -0.40973532 0.13732818 -0.09824129 -0.028323285 0.17346674 -0.31410453 -0.095607795 -0.012260046 0.47631636 -0.36228007 -0.03706019 0.142044 0.34528595 -0.24998786 -0.2050098 -0.04255601 -0.13168265 0.14434607 -0.28972873 0.31960094 -0.4471254 0.33608454 0.38760874 -0.2697899 0.44551966 -0.27023226 -0.31910926 -0.2717737 0.27164796 -0.11619557 -0.2933941 -0.21912864 -0.02914656 0.039513677 0.4812278 0.0579734 -0.099963695 -0.06642312 0.11404023 0.21945792 -0.27422586 -0.0726449 0.084775314 -0.1830042 -0.23167656 -0.009365507 0.12233644 -0.3295651 0.34972212 0.32089788 0.14496884 0.019833382 0.23284744 -0.13843465 -0.11619966 0.27440912 0.41359133 0.3126743 -0.04200465 -0.26432627 0.31596646 0.2114276 -0.05821427 -0.082001634 0.22612171 0.17536029 -0.09371531 -0.39610997 -0.022364331 -0.35599083 0.3269536 -0.14173736 0.031414058 -0.021136785 -0.31655708 0.20065154 0.3104208 -0.09034356 -0.09738209 0.2613792 -0.6301963 0.12297138 0.016092388 -0.1723527 -0.17832665 -0.107624374 0.003946714 -0.033154525 -0.07608101 0.23312354 -0.28972092 0.038304072 -0.04079527 -0.08140828 -0.14243872 -0.23792812 -0.13605419 -0.09892273 0.19261728 -0.4088631 0.04887958 -0.018635256 -0.38250524 0.2412616 -0.30133075 0.07036702 0.024073664 0.019579075 -0.42963022 0.03863179 0.2381028 0.018219449 0.09566302 -0.046850078 0.19567895 0.57335824 -0.09391794 0.23974293 0.24067056 0.35864732 -0.15558098 0.28052714 0.48344743 -0.32217258 0.12088989 -0.11585205 -0.12678261 0.030688152 0.4671789 -0.48260948 0.5077339 -0.1471193 0.61140025 -0.50379044 0.20128419 -0.086390294 -0.01134183 -0.10292404 0.06290623 0.4331507 -0.72764313 0.08076258 0.07039769 -0.0035835083 -0.33948463 -0.40960148 -0.33090207 0.2015624 -0.02677098 -0.44561982 0.104263 0.31988475 -0.48604622 0.1120674 -0.30151665 -0.61699504 0.61219305 -0.10856967 0.2258814 0.0891462 0.044881526 0.46258286 0.18188573 -0.57526827 -0.17619635 -0.2935989 -0.0010790438 0.58752316 0.1602884 -0.04186685 -0.0983014 0.08640673 0.2170088 -0.52683014 0.0062232306 0.26978797 -0.1554066 0.6494417 -0.16720995 -0.49775964 0.32072186 -0.64394027 -0.37823412 0.04869059 0.27931365 -0.026382368 0.31888232 0.36670527 -0.2843396 -0.05922193 -0.1694869 -0.299121 -0.23249474 -0.22429404 -0.05922861 0.24084944 0.035132434 0.16710456 0.12806281 0.094671905 0.13278334 -0.0031726935 0.38795233 -0.15526886 0.19579786 -0.020404171 -0.979323 -0.10127256 -0.15662931 -0.048233107 0.36670032 -0.10230446 0.29480383 0.5982984 0.09113397 -0.32144916 0.30756778 0.020201217 -0.2479056 -0.13746014 -0.09402841 0.0104457205 0.49511072 0.33185446 0.28799433 -0.061703134 0.30897593 0.07129648 -0.7286308 -0.030459866
poor.a.03 0.34247953 -0.04219824 0.054043144 0.15510213 -0.28354988 0.3424674 0.050179195 0.6158542 0.068581976 -0.43131238 -0.0065400274 -0.38007656 -0.46455827 0.060972378 -0.07725459 -0.46668977 0.16773604 0.08480292 0.10695008 -0.5708395 0.26744115 0.31816062 0.24331625 -0.06755725 0.17690484 0.10705628 0.49522784 0.33749065 -0.09550528 -0.0986897 -0.41179368 0.63187784 -0.18413752 -0.19019662 -0.281478 0.07350616 0.053128984 -0.21276328 0.06602591 0.040315107 0.36019272 -0.6450746 -0.35951602 -0.11485207 -0.16679339 0.19663598 -0.30335352 -0.100795396 -0.11166318 -0.09113166 0.42988497 0.146406 0.3790427 -0.4037177 0.26580772 -0.018392948 0.36483788 -0.14885509 0.00789478 -0.07038248 -0.54436475 -0.5413937 -0.057793595 -0.38623977 0.11014807 0.4631351 0.04989369 -0.4510657 -0.11288478 -0.17309707 -0.24296135 -0.14115953 0.061264213 0.028569143 0.095203705 -0.40854886 -0.2704187 0.14310567 -0.21146534 -0.10158778 0.43771988 -0.015863828 0.21205083 -0.34412795 -0.48242185 -0.26803845 0.26322374 -0.26744047 -0.59255415 -0.16702385 0.28760806 0.102431856 -0.2578585 -0.44820234 0.06403609 0.059417095 0.01956296 -0.13028616 -0.38982382 0.03851382 0.36707234 -0.19952352 -0.1693928 -0.044804968 0.012883386 0.23612764 -0.39966777 0.20278345 0.31555912 0.14255251 -0.04543883 -0.41110027 0.21758063 -0.016527414 -0.043897957 -0.20950131 0.7865391 -0.022968546 0.12944055 0.1817426 0.161136 -0.13890347 -0.11152172 0.2176135 0.01017548 0.32156608 -0.03230842 -0.0517562 -0.12836727 0.0808937 -0.15493773 0.32228488 0.5722531 0.29683042 0.08717653 -0.25983295 0.016825436 0.063801385 -0.4017828 0.14448595 0.15801151 0.05282392 -0.07902657 -0.1745662 -0.1544501 -0.21396232 0.35966414 -0.033756144 -0.0027737115 -0.46695632 -0.49786583 -0.26154616 -0.0039715017 -0.3148524 -0.3645008 0.34433517 0.46660316 0.2486675 0.3027171 -0.05082132 0.16493462 0.09238693 0.30911207 0.050541714 0.01800805 -0.28645098 -0.23215532 -0.5414206 0.1491974 -0.27745682 -0.22832057 0.2767054 0.11896943 0.23772666 -0.21355493 -0.500208 0.15812166 0.45111483 -0.20638253 1.0533185 -0.20435634 -0.22402693 -0.23848648 -0.253137 -0.060912624 0.23014495 0.065717414 -0.35716555 -0.22028425 0.4070214 -0.056656282 -0.005238561 -0.086359434 0.3211758 -0.1205548 -0.3610029 -0.052579805 -0.4982281 0.29347032 -0.48441708 -0.0186546 0.2367717 -0.041389164 0.13987015 0.18830512 -0.18071675 0.4941503 -0.32666388 0.20016862 0.20538832 -0.3868621 -0.09523392 0.0340408 -0.31752503 0.31322291 0.6654377 0.3789273 -0.06269029 0.08148792 0.34047708 -0.013946529 -0.2376808 -0.09171476 -0.0756184 0.19055495 -0.07585058 0.27500203 -0.1694449 -0.48499256 0.18813875 -0.097024694 -0.2603521 -0.38847885 0.34604293 0.09470563 -0.4361021 0.012474534 0.22586311 0.47110265 -0.17961635 -0.28481314 -0.20499283 0.87246126 -0.09474703 -0.6336566 -0.24832265 0.042778213 -0.20501454 0.33815438 0.2955893 -0.075909235 0.40133268 0.0003965033 0.16150911 0.4530236 0.6036191 -0.31470194 0.041712534 -0.098510526 -0.19341919 -0.007976695 0.19837627 -0.89240015 -0.048409298 0.5045245 0.300975 0.4110985 0.22490066 -0.29809675 -0.079148315 -0.1468969 0.61132187 -0.5615561 0.092157446 -0.2526089 0.09589535 -0.97271353 0.033930924 0.18184556 -0.09980954 -0.27323627 0.18491764 -0.29678458 -0.20524916 0.1031825 0.5077782 0.2960937 -0.21173623 0.10389199 0.19450903 -0.32130063 -0.28181094 0.026878433 -0.1481053 0.23510776 0.22366811 -0.24482965 -0.24135274 -0.17317046 -0.21982394
inactive.s.10 0.07826386 -0.04299851 -0.14755845 0.088719904 -0.0147156 0.041364677 0.040924136 0.021696763 0.06962803 -0.044088967 0.4610203 0.103801645 -0.101746395 -0.24180685 0.23662789 0.04396166 -0.017022207 -0.106221676 0.12215268 -0.046057418 0.3872377 0.0769692 0.039904796 0.22626857 -0.13389596 0.19694802 -0.3835864 0.021134771 -0.13834026 -0.036849637 0.18837087 0.011966609 0.24642831 0.19097915 0.11680248 -0.58826774 -0.03238404 0.28916854 0.24177793 0.40224978 0.017086884 -0.11747744 -0.18892676 0.12036462 0.11591071 -0.3449715 0.13124938 -0.06441838 -0.012244725 0.16250688 0.061789524 -0.46443757 -0.27130106 -0.08648103 -0.27063516 -0.30611604 -0.4009371 0.091247745 -0.12690346 0.14770544 -0.28776976 0.070600644 0.27326658 0.06859229 -0.12585385 0.050354265 0.3005261 -0.07676704 0.2500607 0.26814598 -0.41681376 0.6472116 -0.00036260294 0.056572925 0.41229367 -0.36184174 0.13197036 0.019626472 0.21477243 -0.051561236 -0.26190582 -0.24167871 0.016059145 -0.014379996 0.01965808 0.4148261 0.03545017 0.27282757 -0.43213293 0.44303626 0.12059599 0.2750475 -0.01750534 -0.04519245 -0.2984035 0.28017807 0.29092696 -0.4413319 -0.08807617 -0.011945626 -0.031607978 -0.18371277 0.1442667 -0.05023208 -0.03931927 0.28649706 0.5458788 0.13044138 -0.06375467 -0.10482682 -0.5326181 0.38327193 -0.3287051 -0.09035482 0.4172555 0.37025723 0.037758708 -0.0668591 0.12174935 0.28089258 -0.09262777 -0.081723854 0.009197848 0.17551443 -0.2951628 -0.16081488 -0.6703771 0.22051944 -0.0652547 -0.18567465 -0.04786027 0.108963944 0.09081871 -0.35314882 0.040369242 0.11140095 0.3142963 -0.13359459 -0.32603592 -0.09761624 0.006807004 -0.12962754 0.16334023 0.08543306 -0.042941008 -0.17358638 -0.029348163 0.042790595 0.012889884 0.01333396 -0.07527468 -0.2641448 0.08575849 0.19652086 0.33492973 -0.009715291 0.04824185 0.046310004 0.1484975 0.5119842 -0.024531385 -0.12411198 -0.087705985 -0.16963851 -0.29692513 0.2065911 -0.2580053 -0.053310778 -0.7995853 -0.150208 0.34405473 0.13028942 0.10383449 -0.19440162 0.28596106 -0.18099265 -0.11058017 0.15755565 -0.17983806 -0.19109964 0.14294805 0.038820423 -0.14041415 -0.048440058 -0.19253308 -0.14902365 -0.13188395 -0.08616997 -0.34340453 0.2862001 0.176439 0.25006622 -0.08540003 -0.4554164 -0.016449125 -0.24217884 -0.31297395 0.12916277 0.033917196 -0.41309884 0.34568778 -0.05970996 0.11386383 -0.24214178 0.22502722 0.063769184 -0.020056952 -0.45583224 0.0023853267 0.02844931 0.046893857 -0.15794685 -0.08569751 -0.062308412 -0.1925689 -0.13447835 -0.14357135 0.14365387 -0.12703305 -0.19193454 -0.49318528 0.24436444 -0.055360567 0.3195938 -0.0054149036 -0.0114606675 -0.16859771 -0.032970402 -0.39123008 -0.5250915 0.14177114 -0.3818868 0.27100158 -0.30506784 -0.09189128 -0.12682326 0.3885543 -0.035819672 -0.07054863 0.1298209 0.39081052 0.10557385 -0.09207118 0.1995012 0.003481956 0.06419373 0.2814535 -0.2887715 0.23273946 -0.003042145 0.0738761 -0.049326155 0.12326059 0.1831721 -0.09972194 -0.05712844 -0.30168578 -0.047382753 -0.2600667 -0.035823043 -0.10693386 0.3225973 0.34325844 -0.07483002 -0.13210389 -0.14342652 0.20235099 -0.046315856 0.059722323 0.11188548 0.2160563 0.226068 -0.5054713 -0.31898353 -0.25659016 0.27669874 -0.102756 0.2929464 -0.4399029 0.003056757 -0.36640638 0.02072844 -0.025934737 0.02271257 -0.003959162 -0.116699755 0.29439995 0.44995895 -0.11150452 -0.16888651 -0.08826387 -0.09774252 -0.027826399 -0.17207612 -0.24565147 -0.14039715 -0.0014360971 -0.11908543 0.012617345 -0.12319823
abundant.a.01 -0.13302632 0.07984513 -0.052583683 0.14660195 -0.14611551 0.3412679 0.23668475 0.58153534 0.22143327 -0.6455619 0.11421492 -0.29612333 -0.5207684 0.55916303 -0.20577079 -0.5451748 -0.34485558 -0.05109772 -0.24153093 0.27974287 -0.7147592 0.3644404 -0.19299768 -0.33442977 0.27153692 0.012475805 0.4897353 -0.16636504 -0.75351906 0.34997526 -0.08906543 -0.25318876 -0.67485267 -0.17183575 -0.016896775 -0.14973475 -0.21957695 -0.32756194 -0.004543833 -0.29668602 -0.17163828 0.34879512 0.25792453 -0.279188 -0.2192679 0.059567578 0.46397024 0.25564796 0.59909153 -0.11580878 0.060624957 0.2680445 -0.25732726 -0.09155887 -0.15866044 0.2363311 0.50074303 -0.32154366 0.15641116 0.2228839 -0.05877576 -0.15930302 0.27879095 -0.49721542 -0.31716985 -0.11838309 -0.1077617 0.07656715 0.07944144 0.36438644 -0.51287645 -0.0040322947 0.076436915 0.01637211 -0.18908167 -0.08146234 -0.2625374 0.08747943 0.06619358 0.27817503 -0.043957893 -0.054044276 -0.20024869 0.11252894 0.4284719 0.14786237 -0.047075562 -0.19903906 -0.04724494 -0.0152451815 -0.07398089 0.0184583 -0.049805596 -0.3225503 -0.3997109 0.5471926 -0.040062565 -0.46130773 -0.079389125 0.509916 -0.02356011 -0.0574913 -0.35380924 0.5823906 -0.065936945 0.38272747 -0.13338634 0.21964645 -0.08009125 0.010654908 -0.14386323 -0.3330477 -0.11481723 -0.10059568 0.30752954 0.1530312 0.3885639 0.20430742 0.5783736 -0.09845382 -0.3471529 -0.04713417 -0.31515157 0.49222252 -0.16356583 0.586687 -0.011483677 0.40821484 -0.19995818 0.06516969 -0.16321096 -0.10965762 0.26238415 -0.12917326 -0.089283645 -0.124471135 0.32621783 0.0061232164 0.19528176 0.15545934 -0.08706693 0.024745345 -0.007972447 -0.5875519 0.31525195 0.24131796 0.21163736 -0.35979536 0.03597085 -0.3353889 -0.42120466 -0.25552854 -0.16329898 0.117108494 0.13999519 -0.6670684 0.07182887 0.46295252 -0.135615 0.30891752 0.24991183 -0.19925039 0.6576172 0.43765318 0.12269351 -0.45027786 0.25944686 -0.2615115 -0.02774546 -0.06555349 -0.076115936 0.12224458 -0.5944165 0.2748382 0.013036086 0.07430873 0.004681434 -0.13800324 -0.49675754 -0.3595723 -0.16082802 -0.2177143 -0.031357422 -0.4013067 0.5344474 -0.19913118 0.61131966 -0.2445303 -0.07366234 -0.1047355 -0.23816901 0.8093282 0.025639858 -0.43315986 0.033057045 -0.16822092 -0.21383274 -0.4150846 0.07910098 0.3212325 -0.29497808 -0.34282008 -0.045295406 -0.26385292 0.071976654 0.4661504 -0.3189837 0.08779625 0.019532625 -0.028370133 0.10246109 -0.47529697 0.4238824 -0.2827057 -0.118075304 0.031527147 0.021050619 -0.06611981 -0.38268185 -0.15966147 -0.13921265 0.23349771 -0.22591804 -0.08909904 -0.091520764 0.3039875 -0.4564021 0.23325971 -0.22874047 0.06193794 0.20536213 -0.034476984 0.30058524 -0.6577913 -0.3681909 0.25045082 -0.18920644 -0.058451083 -0.50953823 -0.10128946 -0.18699639 0.14263724 -0.11780761 0.24029288 -0.48684165 -0.053342607 0.1642955 0.41079214 -0.25008947 -0.30469355 0.19661888 -0.3029976 0.07344143 -0.17961784 -0.20439847 0.016334528 -0.41224486 0.31492272 -0.36938277 0.10393973 -0.031033589 0.21674806 0.040065654 -0.17499596 0.011707006 -0.28998494 -0.055237226 -0.23511422 0.35423395 -0.4369885 -0.29787502 0.17750221 -0.3200415 -0.10182329 0.14340372 0.2511167 -0.58670276 0.054171775 -0.13639061 -0.057382595 -0.50427425 0.21180052 0.27815256 0.73771447 -0.084335305 -0.63712054 0.26300102 0.3955039 0.5708101 -0.49670145 -0.53046316 0.6914804 0.05515188 0.52030617 -0.15839757 0.4231236 -0.26073065 -0.73898274 0.031990614 -0.55860394
green.a.03 0.115715936 -0.3139868 -0.16883977 -0.02115664 0.29897907 -0.058621626 0.83375424 0.4678632 0.4127297 0.23822226 -0.1333185 0.17495179 -0.13698952 0.24908979 0.29422286 -0.37272865 -0.38097674 0.15526934 0.09510654 0.16754311 -0.035465006 0.48463628 -0.5870966 -0.39694336 0.045131847 -0.33691424 -0.20819265 0.20853405 -0.020957302 0.2527122 -0.13257281 -0.25290808 -0.22389518 0.5683477 -0.34990332 0.14625922 0.04164718 -0.28708732 0.2915971 -0.7106253 0.60341763 -0.13771372 0.0048562475 -0.2599244 -0.0098482985 0.3882733 0.073076576 0.28835046 -0.20117599 -0.11376433 0.03359935 -0.51132286 0.22257772 -0.071464285 -0.05426714 0.18289152 0.32347357 0.11324164 -0.0342439 0.04871803 0.10513027 -0.25199515 -0.5358944 0.38387617 -0.3661792 -0.12633279 -0.1829162 -0.15154326 -0.18947195 -0.079570614 -0.5310137 -0.010550457 -0.10156927 0.082497805 -0.34908193 0.33498472 0.054383032 0.41553625 0.21605356 -0.07951739 -0.015450222 -0.028872523 0.010168436 -0.17732456 0.42769176 -0.15552746 0.099615574 0.08533132 -0.14315467 0.17189102 -0.18021284 0.28183264 0.1548314 -0.2650039 0.097028375 -0.20399228 0.015132321 -0.06636876 0.3521955 0.5522691 -0.21549824 -0.07364567 -0.39363146 0.3412801 -0.11593259 -0.24521469 0.28811836 0.12896048 0.014702939 -0.13057788 0.42307484 -0.31146777 0.015969064 -0.11251625 0.29616386 -0.5641673 -0.4001473 0.56619984 0.067708075 0.549605 -0.27217364 0.10990603 0.30517703 0.21253054 0.07988178 0.03594711 -0.13880627 0.078361616 -0.025703462 -0.75633895 -0.3597911 -0.39097944 -0.03231208 -0.06188553 -0.23937517 0.23321022 0.12949659 0.43628398 0.07619033 0.08619593 0.7253631 -0.0280024 0.05219438 -0.17068382 0.6149074 0.2585822 0.19979146 0.0063903313 -0.122298576 -0.2288929 -0.10863755 0.7078152 0.39768678 0.07406915 -0.29349563 -0.12713121 0.43743762 0.20683557 -0.2466505 -0.12519632 -0.34472427 0.07391368 -0.3501061 -0.35923022 -0.41465867 -0.563551 -0.28002086 0.08577072 -0.66480213 -0.5372524 0.049893152 0.25382206 -0.25836566 0.022099622 0.08870558 -0.43296143 0.24369836 -0.14838684 0.088416375 -0.5059992 -0.07755749 -0.59459025 0.19201437 -0.30923477 0.23010446 0.29224837 0.2407575 -0.24810635 0.23086861 -0.2725534 -0.22064158 0.1592185 0.08968774 0.15184493 0.30776373 0.44230866 -0.25113818 0.14298774 -0.2909263 0.48041916 -0.088074505 -0.07975881 -0.24169922 0.60358477 -0.41476324 -0.13280155 0.4716086 0.905662 0.1380886 0.1368079 0.4547271 0.17767416 -0.6554876 -0.26018187 0.022027796 -0.108034864 0.6056582 0.2151487 -0.079905465 -0.3980112 -0.071162455 -0.27325165 -0.50684935 -0.33870083 -0.017583776 -0.73884267 -0.076852754 0.08758666 0.14355947 -0.23127177 0.23884755 0.29031864 0.37933153 0.22935174 -0.1495722 0.7945391 -0.123332284 -0.27322608 -0.63986874 0.13675086 0.4228688 0.104961134 0.061259203 0.051817957 -0.39341086 0.0323046 -0.40447918 0.038441364 -0.47111273 -0.4159707 0.27218288 -0.031649865 -0.24472988 -0.54867303 0.12598705 0.1648786 0.16819215 0.36716217 0.037903674 -0.07392963 -0.07644507 -0.18995728 -0.08910678 0.12712419 0.092844225 0.20049101 -0.14212786 0.016536951 -0.12960868 0.14376938 -0.64783293 -0.37034997 -0.012520273 -0.4701804 -0.32483557 -0.36897734 -0.34462816 0.042605262 -0.2746769 -0.3733162 -0.33430547 -0.35132268 0.0820372 0.56881404 -0.22448038 0.22002701 0.2983968 0.3413391 0.1288116 -0.17568016 0.10083986 -0.12776256 0.49648708 0.19203497 0.26165122 0.21127796 -0.37616757 -0.019028476 0.03652434 -0.32082346
urban.a.01 0.16337262 -0.18106721 0.32662448 -0.06684529 0.16938181 0.08495075 0.16350088 0.0700511 0.3432752 -0.62269557 0.034359932 -0.46494868 -0.04998607 0.3969249 0.81940705 -0.19631276 -0.35091645 -0.20912881 0.5088523 0.40011993 -0.3272235 0.45553428 0.32774273 0.34125274 -0.37842655 -0.10231064 0.18985882 0.24661532 0.11220793 0.29021508 0.19608794 0.66885465 -0.60248154 0.29425362 -0.25763285 -0.10275187 -0.16166763 -0.34621534 -0.0046477513 0.43614894 -0.10059067 -0.6664479 -0.2889262 -0.17235652 -0.13748644 0.118364684 -0.10552191 0.04715444 -0.22609375 -0.009346792 -0.1619845 0.05877555 -0.86179054 0.27533814 0.64757574 -0.14415357 -0.16110602 -0.5188169 0.33330107 0.11322566 -0.8401769 -0.63249445 -0.22300518 -0.34950456 0.08509654 0.49781725 0.48995233 0.4667508 -0.3103664 0.06294555 0.30104592 -0.62363696 -0.37121868 -0.27813572 -0.44357663 0.047196202 0.16692948 0.23213905 0.33121857 -0.517565 0.29956126 -0.19080058 0.10774901 -0.08349617 0.02360178 -0.2553417 -0.35641313 -0.051392004 -0.16120628 0.003123527 0.20897642 -0.16592869 0.48014686 -0.3049921 -0.09690029 -0.729484 0.89736426 0.6287273 0.14180507 -0.63448 -0.43585214 -0.28875065 -0.51391727 0.18231702 -0.257278 0.20786424 0.24003439 -0.31387675 -0.22656813 -0.19812173 -0.11799838 -1.2087861 0.066700175 -0.15334119 -0.0979356 0.047939133 0.19748452 0.15241727 -0.53238934 0.115917124 0.4431179 0.5531288 0.35148048 -0.006482778 -0.7921286 0.28355575 -0.0076555004 -0.14626417 0.00086965057 -0.03701533 -0.08885165 -0.37191325 0.42948407 -0.106185906 -0.29910105 -0.58251274 -0.47912598 0.3616184 -0.15968876 0.10213784 0.10854358 -0.19521227 0.07169479 0.50895256 0.08663509 0.43749782 0.28213474 0.5372701 -0.49404204 -0.10371309 0.3009574 -0.2356723 -0.09931233 0.5272302 -0.019092843 0.120366156 -0.036859054 0.027122196 0.23559524 0.04555434 -0.17161971 0.036748014 0.06222167 -0.239269 -0.087321304 -0.79506564 0.3080049 0.16823144 0.25016016 -0.40084743 -0.22269833 0.15009953 -0.515486 0.5769394 0.042640578 -0.41834453 -0.1998431 0.16183865 -0.7204801 0.10329913 -0.13000847 -0.26788104 -0.09412094 0.32713136 0.16244367 -0.05485036 0.33151612 -0.06914542 -0.27782148 0.35879588 0.18431653 0.20866778 -0.4683142 0.021691 -0.15390943 -0.28845084 0.041398704 0.5325219 0.7033282 0.34679824 0.006717896 -0.41599256 0.90844905 0.14270775 -0.25893304 -0.41045055 -0.32388455 -0.4315308 -0.24002755 0.74183387 -0.8672692 0.4194612 0.37681556 -0.2875762 0.50696063 -0.040536422 0.17438914 0.30127335 0.100639895 0.24504308 0.06060372 -0.36833394 0.718792 -0.08993526 0.16801922 -0.5634233 0.6138213 -0.25276855 -0.26792952 0.29840153 -0.14066951 0.21233627 -0.51438284 0.18523441 -0.04422834 0.10167 0.13669482 0.25818244 0.42891434 0.7029708 0.4808202 -0.29343322 0.9168349 0.42614427 -0.9200828 0.55470663 -0.028940117 -0.469766 -0.1716196 0.31721467 0.2613053 0.46161306 0.11900486 0.42518994 0.33009923 -0.333899 0.18724275 -0.3052839 0.67551684 0.21521567 0.15743026 0.070032954 0.5141884 0.3621053 0.05387283 0.102996305 -0.17084628 0.14610694 0.22814588 -0.106489986 -0.77577704 0.42674795 -0.2941796 0.15524486 -0.0046439543 -0.11215295 -1.2089593 0.32536685 0.6766048 -0.78025305 -0.54494315 0.08614135 0.062368356 0.21920472 -1.091433 0.374946 -0.30930206 0.067694284 -0.24510711 -0.027602758 -0.18303551 0.19692005 -0.09150848 0.44294688 0.35090336 0.7920073 -0.06762551 0.589129 -0.58974963 0.35030058
exact.a.01 -0.07444252 -0.3844023 0.3754594 0.50678706 -0.777822 0.04214685 0.39668077 -0.09483578 0.093227886 -1.6113813 -0.34474728 0.22558248 0.18993768 0.62954605 -0.060951315 0.14962955 0.5291222 0.49430835 -0.87756443 -0.3358433 0.54241556 -0.07219005 -0.34979308 -0.6001227 -0.54800606 0.68877196 0.38115907 -0.54781485 0.49505413 0.6454513 0.7046408 0.36152917 -1.0571003 0.17208605 0.37693867 -0.31289893 0.2146059 -0.46071145 -1.0346572 -0.75683904 -0.3937923 -0.15876208 0.67451775 0.19922861 -0.09873134 0.13557422 0.35289446 -0.68489105 0.7738242 -0.117239825 1.0691575 -0.4045514 0.48785657 0.27915683 -1.0331057 0.84400356 0.05676545 0.09217475 0.08104118 0.5573328 -0.3131301 -0.32638055 -0.06108381 0.43348035 -0.5571832 0.014159065 0.59045124 -0.32690793 -0.7373539 1.1600885 0.29691845 0.78538483 0.4906431 0.34393382 -0.040084857 0.6244441 -0.39920178 0.36374134 -0.3443951 -0.2222503 -0.73830307 0.48245135 0.36648753 0.4271289 -0.4602607 0.0262182 -0.124930225 -0.17487401 0.1374468 1.2318227 -0.39229622 0.36023152 -0.6228159 -0.12500818 0.076526254 0.53163946 -0.20339733 -0.3248258 -0.2807229 -0.7824307 -0.5446751 0.6309206 0.48891366 1.3812237 -0.29534197 0.22362056 0.29769295 -0.22906522 -0.09017672 0.2646988 0.73672533 0.491974 -0.28660125 -0.4551607 -0.36848557 0.033730317 -0.2746984 -1.1635026 0.52840453 0.4796182 0.61802644 0.4284521 0.9772751 -0.07098512 -0.024168264 0.112706915 0.9140925 0.26439464 -0.5106657 -0.099903405 0.55517596 0.48365974 0.59668386 0.18539561 -0.31380156 0.35495105 -0.51046073 -0.106163085 -0.46679428 -0.28898093 0.0682694 -0.23275864 -0.6515263 -0.32311922 0.45707723 -0.43620414 -0.6620593 0.2160178 1.4062634 1.0513473 -1.069658 0.6909431 -0.10362919 -1.3869579 -0.19449802 -1.0759509 -0.6571103 0.09260032 -0.30300555 -0.36895058 0.58667105 0.25783786 0.67956555 -0.8671155 0.5919435 0.7212943 -0.4337077 0.4226897 -0.98033625 0.4507036 -0.49650055 0.29484692 0.71189713 -0.5074316 0.7737062 -0.024050018 -0.41318873 -0.19629075 -0.24317227 -1.1835119 0.12117306 0.03435605 0.20111236 0.39006156 -0.6700831 0.37172735 0.7069328 -0.74647427 0.4629785 0.39704907 0.24018714 0.038765483 0.81544304 0.69231546 0.46372578 -0.07410214 -0.69097745 0.11544552 -0.6204032 -0.18717527 0.7919226 0.18720976 -0.49519855 -0.31664807 0.35835567 0.62917703 -0.3735802 0.5470393 -0.41565272 0.37518758 0.14731848 0.8688058 0.4792465 -0.32958508 -0.61013556 -0.3746607 0.29828903 -0.31606248 -0.07673728 0.3767393 -0.63598436 0.69604087 -0.3667921 0.16300733 -0.4874001 0.8930761 -0.4630671 -0.50832385 -0.03281701 0.3164945 0.4166151 0.63689333 -0.04985983 -0.12418365 0.032013994 -0.8904741 -0.31463772 0.55078685 0.1420389 1.286752 0.8488321 0.3042506 1.1181295 0.17193298 0.014871658 0.07158747 -0.38727725 0.8738376 0.4490476 0.98492575 -0.111472 -0.38358876 -0.701254 -0.36426657 -0.4195305 0.925441 -0.6079657 1.0114089 -0.3511109 -0.15447919 -0.3183169 0.6071607 -0.8041635 -0.14861187 0.18205908 0.40481013 -0.7832718 0.04761123 0.61260206 0.19773708 -0.9221806 0.1674856 0.66457075 0.77157265 -0.022658834 0.46550608 -1.5819309 -0.22957547 0.60530555 0.108055174 0.11697507 -0.342031 -0.36178473 0.028388325 1.1820709 -0.39104006 0.044928733 -0.84504914 -0.7831019 1.1149323 0.6851444 -0.49437463 1.2506326 0.03257532 -0.26518098 0.13769694 -0.5015098 0.74594355 0.111525625 0.19681758
thirsty.a.02 0.09804765 0.039179716 0.30015886 -0.5447051 0.15401761 0.112546645 0.7319447 0.15129626 0.197356 0.7509146 -0.16938497 -0.48118275 0.10333614 0.08423538 -0.12200529 -0.43879616 -0.22616622 -0.25241598 0.3078755 0.13488775 0.002120233 0.17552432 -0.05322859 -0.23842041 -0.4056038 -0.711582 0.42098644 -0.5260443 -0.1986065 -0.07164396 -0.31729415 -0.24887684 0.24175678 -0.46278548 0.021582142 0.2488549 -0.5380867 -0.55746645 -0.08335116 0.42356706 0.13182136 0.12561856 0.15496163 -0.66333675 0.073980965 -0.3670768 0.6132285 -0.17600648 -0.22318877 0.31726015 0.67292726 0.18727548 0.24655482 0.08605112 -0.20423222 0.12209076 0.50171924 0.3753949 -0.07780288 -0.049775682 -0.008161841 -0.25620124 0.30067995 0.6951506 -0.36204985 0.534578 -0.30869314 0.20866236 -0.00736219 0.10333689 0.17750162 0.3915389 -0.209541 0.01936355 0.36162215 0.38561732 -0.3188498 -0.45201507 -0.6230519 0.3501228 -0.21564455 -0.23966648 0.25571352 -0.2645205 0.33359563 -0.6115637 -0.20243873 -0.3442547 0.30642116 -0.15379962 0.24213715 0.33050826 0.28556415 -0.29395732 0.400736 0.36370748 0.61048347 -0.3994251 -0.38713944 0.7813472 -0.40027535 -0.69959414 -0.49803528 -0.29369125 -0.4511594 0.18265776 -0.5191598 0.26711282 -0.68381715 0.094640374 0.050726444 -0.06015357 -0.4282417 -0.12968083 -0.43250412 0.29320773 -0.10509485 -0.060609438 -0.09752498 0.37811232 -0.7829464 0.17531495 0.14875935 0.3081488 -0.2596605 -0.037012022 0.27639088 -0.34169966 -0.08856209 -0.35323507 0.08256478 0.33579943 -0.2808162 0.36552024 -0.22419773 0.17456149 -0.16141914 0.042256717 0.20945145 -0.11248522 0.22574249 0.40456137 0.45821282 -0.3071005 0.22305074 0.25661263 0.009800475 0.7824204 -0.14496247 -0.045366947 -0.49723038 0.46818897 0.19032004 0.23705828 0.42500496 -0.24624808 0.49044332 -0.48520446 -0.06306642 0.019847235 -0.5617822 0.18152554 0.25529334 -0.27483115 0.07829443 -0.41396853 -0.23303655 0.13076384 -0.5987038 -0.3223539 -0.72215706 0.26895204 -0.1625875 -0.15150242 0.27123946 -0.966711 0.4935408 0.032759305 0.09634552 -0.11892915 -0.7065469 0.21217132 -0.19599548 -0.047307245 0.6251207 0.18625668 1.0820966 -0.097360425 -0.45214638 -0.9094156 0.16849566 -0.33431998 0.18669851 -0.67279 -0.044053853 -0.06704111 0.34439462 0.18724751 0.40605202 0.32198355 -0.61908305 0.2979905 0.51022375 0.33012918 -0.2628486 -0.17556214 0.12257237 -0.37326562 0.039897215 0.074583195 -0.26333788 0.19541539 -0.37773302 0.048612315 0.15542728 0.37310818 0.22463056 -0.13037635 0.044227593 0.15082392 -0.19100818 0.42205924 -0.27663687 0.04922437 0.27405295 -0.4518965 -0.20530927 0.04312538 -0.6265309 0.02901355 -0.8147361 0.0700364 -0.37959394 0.34035346 0.19370325 0.061590616 -0.401338 -0.14750127 -0.3813048 -0.82642895 -0.1941093 0.48938873 -0.30963343 -0.30647716 -0.3480348 0.23709159 -0.5528928 0.12223803 -0.47841182 0.10606314 0.5477387 -0.2136631 0.43692648 -0.15181376 -0.5426639 0.57008344 0.25619474 0.0019420895 0.5595812 -0.23880796 -0.22703867 0.050839104 -0.18147625 -0.46838936 0.29325587 0.29358804 -0.14117612 -0.6036315 0.009295164 0.8469114 -0.5994444 -0.2578409 0.23780447 0.01179078 -0.5051311 0.28373638 -0.023334103 0.20783585 -0.4251716 -0.27147174 0.029962013 -0.29625377 0.23514675 -0.34966308 0.017914455 -0.05418834 0.1536651 -0.34697032 -0.31585458 0.17998287 0.023218798 -0.22518305 -0.3034146 -0.5108741 -0.3981138 -0.28798783 -0.15329267 0.44881463 -0.08141584 0.34666228
