1000 50
old.a.01 -0.6104352 0.5132252 -0.29911754 -0.35379052 0.39260864 0.16855176 -0.840679 -0.35468298 -0.78376883 0.014172413 -0.2509815 -0.18026266 0.2277488 -0.024405008 -0.5249995 -0.01573808 0.3761212 0.20189728 0.31616732 0.8885554 -0.8332888 0.40992388 -0.036711827 0.02352721 -0.0050214394 -0.67701215 -0.19766779 0.20032336 -0.11273831 0.099796474 0.12525982 0.015999397 1.0213656 0.30877098 -0.01701425 0.85042423 -0.6020393 0.0015884842 0.2221284 0.99132067 -0.20116284 -0.0911389 -0.27662006 -0.3744376 0.321623 0.12702148 1.0083269 0.072973825 0.062142923 -0.0820771
tidy.a.01 0.55626756 -0.52467304 -0.35404068 0.6605375 -0.17482829 0.19725056 -0.07807246 0.19955659 0.17370375 0.2204671 -0.29559076 -0.045003433 -0.17775905 -0.51990205 -0.20495419 -0.21069925 0.45840088 0.27828002 0.512911 0.62409693 0.23217751 0.64515406 -0.08755019 0.2747811 -0.4027976 0.25520298 0.268289 0.07588843 0.2511086 -0.3613897 -0.028630866 0.11560605 0.24256323 0.22698219 0.059289105 0.50321484 0.5874541 0.7600258 -0.049154557 0.24789676 0.077144966 0.3424715 0.19420063 0.11160612 -0.19996245 -0.11945479 0.7897319 -0.44428983 -0.25997803 -0.1801343
available.a.01 -0.82082236 0.23997033 1.6129836 0.016954187 -0.25476822 -0.6493816 -0.57532424 -0.51138973 -0.04404561 0.5892876 0.03535029 0.60493994 -0.4601812 -0.40640754 0.15925166 -0.056275632 -0.2093917 -0.38466716 0.06862421 -0.25308326 -0.5057679 0.450224 -0.42091396 0.296549 -0.50125784 1.3570324 -0.14020391 0.11234898 -0.5136147 -0.34372842 0.82523894 -0.18357497 0.69124013 0.20838559 -0.27500126 0.6200153 0.2041687 -0.40632865 -0.25056508 -0.28101906 0.68442315 0.24155135 0.5091852 0.11966353 -0.36877984 0.14948347 -1.2263303 0.26570484 0.03409211 -0.17180224
warm.a.01 -0.5903297 0.45181012 -0.56462854 -0.031264782 -0.12839758 -0.37098402 1.0203788 0.99021643 0.77802944 0.0671092 -0.50665957 -0.2562862 0.89199543 0.61202884 -0.32180032 1.0896587 0.1570996 0.20302011 -0.10714162 -1.1264174 -0.43846074 -0.19648331 1.0045389 -0.014232844 -0.17547205 0.15470815 0.6521249 0.6073743 0.1871694 0.078732826 0.81714356 0.23478483 -0.268725 0.10013985 -0.18927833 -0.009413622 -0.3483547 0.30931592 0.23536444 -0.62136084 -0.07972342 -0.8672699 -0.42107356 -0.2748574 0.3349005 -0.26158237 0.6650064 0.0012297516 0.33315036 0.012958155
strange.a.01 0.4734989 0.8068729 -2.0505133 -0.023123395 0.44776872 -0.063043356 0.064374015 -0.20793973 0.1363195 -0.42203334 0.32418972 0.56809217 1.2500727 0.61948836 0.2991641 -0.7145968 -0.6099708 -1.3050448 -0.98284686 -0.8465829 0.67126805 -0.23142776 -0.8424936 0.6017211 0.29200593 0.013333705 -0.950632 0.13009061 0.5066297 0.5080933 1.4027487 -0.49320093 0.19014698 -0.19547068 0.20510572 -0.23742227 0.7392573 -0.43340343 -0.13538407 0.40643474 0.41510797 -0.06905608 -0.8591371 1.192738 0.43601963 -0.20098351 -0.1399809 -1.3153733 0.5822541 1.474049
odd.a.01 -0.5624822 -0.39044455 0.06313731 0.20721774 1.0894587 -0.17230606 0.33119208 0.607711 -0.39200056 -0.013719543 -0.12938844 -0.06431033 0.24914384 0.40005484 -0.22692959 0.28623486 -0.34778872 0.088257 0.3087519 -0.75011295 -0.3592718 -0.7144189 0.27413347 -0.059754074 0.56333506 0.4350194 -0.45682156 0.13258396 0.5073004 0.31990528 0.6796299 0.57482004 0.61171603 -0.30162254 0.42167372 -0.23130211 0.15009345 0.2553535 -0.20346464 -0.21130405 -0.59839183 -0.22149846 0.20606197 -0.34189296 0.14997962 -0.87249005 0.8195881 -0.40735945 0.46664104 0.2205418
impermanent.a.01 0.029931022 -0.14504072 -0.32383204 0.11097433 -0.3635149 -0.18201455 -0.03837907 0.6120075 0.1251259 0.031019427 0.055911124 0.32989717 0.46831286 0.0008515911 0.19223797 0.48503408 -7.506589e-05 0.9034105 0.14184012 -0.15021022 -0.5426307 0.31997415 -0.23367213 0.16325998 0.07360417 0.22122034 0.14116079 -0.2635089 0.30836928 0.16745076 0.31304964 -0.1290372 -0.11677579 -0.05014147 0.014912344 -0.36947963 0.775393 -0.019066479 -0.39798418 -0.018769858 -0.30084652 0.11483677 0.42615998 -0.4718509 -0.37196308 -0.4683211 -0.27339038 -0.2010141 0.04143408 0.03657045
sensitive.a.02 -0.0966918 0.025799295 -0.06718946 -0.11324984 -0.043116048 0.15913807 -0.02190793 0.25667918 -0.24749725 0.22152002 -0.0057367124 0.11643415 0.026171608 -0.14523438 -0.20114319 0.23080921 0.105724126 -0.005501588 0.08545957 -0.11666813 0.13707106 0.27643427 -0.08935454 -0.32669434 -0.024812669 -0.012129069 0.03352973 0.22839761 -0.29264233 0.02138569 0.06180128 0.013580986 0.04518315 0.080939785 0.11845071 -0.061079435 -0.1474854 -0.18562055 -0.051805913 -0.12545058 -0.05561113 0.123159505 0.096177615 0.017543321 0.107691854 -0.06260151 0.005877561 0.19818059 -0.17518498 -0.13798846
fat.a.01 0.12446885 0.18115643 -0.009172284 -0.38663343 0.5877548 -0.014887529 0.3518094 0.11817029 0.3693569 0.15701598 -0.09686057 0.6016594 0.33245793 -0.1407599 -0.11328344 0.28575528 0.3616088 -0.14600341 0.07854899 0.07557235 0.328725 -0.2716821 0.55295354 0.28545824 -0.48681304 0.57032007 -0.025705682 0.068177715 0.43257958 -0.08464785 0.44913593 0.29598352 0.005286465 0.4899682 0.07133409 -0.025417503 0.2930492 0.14051296 0.37628454 0.14779927 0.048194237 -0.48908046 -0.0340189 0.14121585 0.5529632 0.44917008 -0.15654221 -0.049678043 0.33894628 0.13051023
outer.a.01 0.010037843 -0.065078005 0.2749892 0.0008250017 -0.11369265 0.25791633 0.1867744 -0.1677442 -0.15641432 -0.33383325 0.050332732 -0.082777366 0.18961073 0.21792768 0.010000276 -0.29972693 0.040599428 0.08372722 -0.04548217 0.08442468 0.019678947 0.22707418 -0.22072247 0.016292125 -0.21037981 -0.1682353 -0.20528854 0.31921884 0.23801841 -0.16584393 0.037252147 0.05627985 0.023053374 -0.095628396 0.105005726 -0.18969987 0.07373878 0.0144128455 0.01907012 -0.054028932 0.14001387 -0.0020492822 -0.17762555 0.062462267 -0.09170179 -0.1367367 0.07849239 -0.030129123 0.082391545 0.11857636
plain.a.02 -0.37499318 -0.18246764 -0.012232267 -0.033390738 -0.43760332 -0.072968796 0.19121403 -0.30029595 0.20317289 -0.5098261 -0.56235754 0.15715998 0.30774617 -0.068786666 0.0782702 -0.20474315 0.08429374 -0.23561445 0.34916568 -0.074368894 -0.39217117 0.15265173 -0.3510124 0.14320433 -0.3591486 -0.3483075 0.046335675 0.23062985 0.41410044 -0.49546704 0.047495667 -0.30108154 -0.026901927 -0.013513305 -0.17850778 -0.26224568 0.16910191 0.04939834 -0.11791301 0.16282931 0.23813447 -0.0013575502 0.028577423 -0.045871004 -0.5341355 0.02262447 -0.062169578 -0.32591262 -0.107213415 -0.045104507
structural.a.02 0.3229009 -0.38267115 -0.069433756 0.08469334 -0.40036073 -0.3321754 0.56355673 -0.04125716 0.096222565 -0.4683911 0.6633416 0.41814503 -0.30505657 -0.34555453 -0.59558773 -0.270824 0.321324 -0.078062825 0.9594326 -0.086269416 0.18444332 -0.10787384 -0.43512103 -0.3838432 0.6010342 0.81995064 0.016020847 -0.046905078 -0.098179534 -0.006488068 0.6387547 -0.31173933 -0.06468202 -0.8255704 0.33880368 0.37267464 -0.4303399 -0.08098575 0.4681434 0.56909853 -0.4840464 -0.32225293 0.5104581 0.09193792 0.6983543 0.40954518 0.6151335 0.102664 0.21219283 0.55832464
objective.a.01 0.08537975 -0.098045446 -0.022044394 -0.103794895 0.108287245 -0.3740883 0.0648762 0.090844184 -0.056405842 -0.034314454 0.24559103 -0.2393836 -0.078097776 0.27140918 -0.07869836 -0.61553556 0.16674742 0.047275297 0.08986256 -0.0467499 0.0872921 0.146048 0.31257465 0.15432489 0.20601554 0.18138966 0.013298673 -0.17010885 -0.6095757 0.18502201 0.15138231 -0.05058375 -0.0959859 -0.2824061 0.06939348 -0.099029385 0.0077252393 0.15077879 0.06667034 0.22020923 -0.13419364 -0.32410154 0.33064872 0.028757282 -0.083556704 0.26895285 0.28569645 0.26697174 0.09574765 -0.010167396
ambitious.a.01 0.060509328 -0.21005614 -0.22557211 0.08791759 -0.12876865 -0.525735 -0.016440963 0.010936914 -0.16798207 -0.027014432 0.045154557 -0.017160812 -0.32530543 -0.24120368 0.40820453 -0.24876659 0.2383704 0.18526381 0.2078054 0.43501267 -0.42971274 -0.2893265 -0.15517654 0.27624753 -0.112853475 0.08499876 0.2710298 -0.078710735 -0.42887172 0.098294035 0.10278679 0.21303813 -0.55131334 0.1325738 0.014827794 -0.03844496 -0.3936917 -0.19732097 -0.17874691 -0.049707443 -0.129439 0.270238 -0.03808758 0.14052744 -0.5503166 -0.70614195 -0.40608662 -0.3293666 -0.13943148 0.22530533
mobile.a.02 0.25351554 -0.42077965 0.015625251 -0.095655404 -0.3804559 -0.5127567 0.019374339 -0.28486773 -0.15639445 -0.5011175 0.012573904 -0.19029926 0.46595776 0.39652613 -0.089061916 0.45383465 0.024773104 -0.08045177 0.22569801 -0.23645195 0.4182191 0.46903646 -0.02886071 0.024240924 0.093781464 0.37437588 0.1280031 -0.53121656 -0.26584098 0.07743834 0.5779857 0.21063061 -0.12092303 -0.2462241 0.2063453 -0.42255488 -0.17551 -0.16507633 -0.34470594 0.07728998 -0.058500256 0.13377815 0.27859485 0.44795617 0.04893905 -0.0014717566 0.9339687 -0.56182647 0.09937504 -0.08333176
ethical.a.02 -1.0531486 -0.1079847 -0.5187215 -0.015370977 0.40889108 0.44697663 0.67494273 -0.24269807 0.42760885 -0.06459002 -0.6723258 0.20405819 -0.4549265 0.031235259 0.24105527 -0.47147524 0.8851423 0.12060105 0.021600412 -0.19052932 0.052503936 0.07020337 0.1997634 0.26038125 0.5950895 -0.519204 0.34706643 -0.3697486 -0.3288799 0.3266045 0.0199626 -0.10310222 0.11196504 -0.64952695 -0.241888 0.4005055 -0.075975746 -0.0510527 0.4605835 0.4665612 0.4610568 0.37690544 0.10408953 0.8888832 0.34666628 0.059130114 -0.15872243 0.45955548 0.43325964 -0.24654174
bureaucratic.a.01 -0.35914928 -0.5250423 -0.13409352 0.31219122 -0.45177895 -0.18030117 0.29116443 0.0033733712 -0.28759116 -0.28056166 -0.08668303 0.05639232 0.45838204 0.25369158 -0.55306834 -0.6724425 -0.33960176 0.32769194 0.54276234 -0.096718125 -0.46767777 -0.1727608 -0.41731983 -0.074937575 -0.10429997 -0.15766741 0.13082631 0.13710476 -0.23080388 -0.09153818 0.04124259 -0.07274252 -0.1429071 0.020621974 0.25621095 -0.24446996 -0.23883787 -0.33548194 0.33151627 0.24811912 0.0660143 0.03251935 0.34515017 0.28543338 -0.3482443 -0.050541744 -0.023875924 0.15373446 0.3065146 0.0006705801
grotesque.s.01 -0.06729261 -0.26737857 -0.078811005 -0.04018195 0.2021078 -0.14317745 0.7525309 0.01799896 0.39017665 -0.09344927 -0.4705445 0.30036864 0.1886011 0.23575479 0.35109743 -0.0009554734 -0.23179261 0.086070366 -0.06483819 -0.2983457 0.14194365 -0.28018817 -0.5947434 -0.026790375 0.09897794 0.025172325 -0.7987538 0.49048653 0.15608595 -0.023516154 0.19859868 0.44102767 0.18921009 -0.030680917 -0.6414303 0.26877543 0.073857166 -0.1703664 0.36560717 -0.14889413 -0.21069907 -0.39116806 0.27773702 0.45201924 -0.37644863 0.30581644 -0.17515077 -0.039276525 -0.18148212 0.57375836
exotic.s.02 -0.106102884 -0.06953997 -0.32487273 0.15429395 0.28264323 0.06178862 0.2219405 -0.45108834 -0.050183266 0.54038376 0.005927284 0.020728374 -0.26168394 0.25503057 -0.01107192 0.49380156 -0.2476098 0.19487882 -0.19951528 0.21815957 0.24159962 0.038366683 -0.05588703 0.007009173 0.10771693 0.2578107 -0.15257928 -0.14211427 0.12170686 -0.1841045 0.12492801 -0.07917212 0.043107778 -0.03338145 0.3304231 -0.10742077 -0.11785101 -0.10879929 -0.26813674 -0.36710095 0.38338 -0.12789078 -0.38651106 -0.099363655 0.3864523 -0.04081922 -0.3340958 -0.20728898 -0.04426855 -0.033155493
high.a.01 -0.29076397 0.61367077 0.29192525 -0.24140298 0.15604672 0.29658994 0.61966234 0.23166348 0.12835622 -0.20912854 -0.17962584 0.019740907 -0.10891817 -0.1359598 -0.5262089 0.9219208 0.08618029 0.2692381 -0.36754358 0.22437738 -0.13147807 -0.20514362 0.24630702 -0.10539603 -0.20667574 -0.17607526 0.30451727 0.5483971 -0.6044807 0.028504247 0.90267813 0.061144345 0.61627966 -0.50843245 0.84329325 -0.54503286 0.22267261 0.116889164 -0.4412453 -0.29875386 -0.33269733 0.3695809 0.2645084 -0.12452024 0.28967026 0.50067914 -0.070129275 -0.17745653 -0.3952886 0.44400972
social.a.02 0.033354968 1.1221502 -0.6116785 0.23469925 0.95810604 0.21403486 0.34614235 0.03913898 -0.06567626 -0.09533065 -0.30114755 -0.7816546 -0.24744193 0.6250578 0.2552614 -0.5163045 -0.012805266 -0.4070093 0.09145673 0.4370685 1.3062869 1.186069 0.8189966 0.5562313 0.2517275 0.119400725 1.2176282 -0.24884942 -0.706385 0.25751346 0.7512439 0.63246524 -0.23188323 -1.1083493 -1.0544949 -0.5361141 -0.3966863 -0.29247147 0.629293 -0.5209027 1.0515529 -0.040989473 -0.22654842 0.35764432 0.3637827 -0.26920918 0.21808316 0.4107943 -0.02158977 -0.7310416
easy.a.01 -0.67184186 -0.45946333 -0.7473846 0.4177587 -0.1513701 0.078134574 -0.16993967 -0.27187267 0.3634201 0.36663514 0.3049641 -0.4252579 -0.5368013 -0.27506292 0.13762674 -0.26600274 -0.42048907 0.20670299 0.53572744 -0.6296418 0.3820316 0.5945421 -0.25775358 0.0994697 0.37074593 0.5297234 0.21409385 0.028464442 0.06838407 -0.21515 0.7800075 0.78433055 -0.4902819 -0.21392702 -0.15778926 -0.24407443 0.21781404 -0.47227424 -0.33288604 0.15845694 0.7243505 0.15656333 0.6832345 0.13766256 0.13816158 -0.048055887 0.08174616 -0.7935912 -0.36509 1.0063589
poor.a.03 -0.04871047 -1.0240742 -0.32191086 -0.73019236 -0.07000024 -0.07176535 0.2969178 -0.19605477 0.06361744 0.45878226 -0.9094692 -0.017001512 0.10716099 -0.13430217 -0.015825458 -0.4512783 0.13095158 -0.6907445 -0.17825563 0.14694099 -0.49964902 0.01800044 -0.24671587 0.39259085 -0.48102915 0.8372901 0.51179326 -0.6529924 -0.026469953 -0.22364058 0.67298037 0.41630575 0.73379153 -0.1391257 0.21025561 0.07812795 0.05387352 -0.2388161 0.32346997 -0.3803109 -0.049031127 -0.22657382 -0.47144118 -0.17550401 0.10660725 -0.18955512 -0.15890035 -0.8113508 0.45649105 -0.07451182
inactive.s.10 1.0553837 -1.8022507 0.96058893 -1.8612607 2.4479866 0.32486817 -0.5140466 1.1856791 -1.2078108 -0.7712998 2.3857503 0.6800179 0.33028638 0.542215 0.67763174 0.89356315 -1.169742 1.4694226 -0.29096335 0.6748553 -2.934441 0.5372974 1.8615738 1.6239853 0.41479012 1.0403291 0.44567508 2.0587525 1.54294 0.93815136 3.4064422 -1.3721879 1.4961048 -1.178289 -0.4785656 0.8504059 0.95103663 -0.2760077 -1.7275834 -0.005276329 1.3995509 -1.2328199 0.86782354 0.9611244 -1.9678197 -0.54777783 -1.6514693 -0.5649884 -0.5274238 -0.7176841
abundant.a.01 0.07166524 0.2776368 0.39385054 -0.156872 0.2715564 -0.11054114 0.028082173 -0.03449257 0.3994863 0.30339214 -0.41166627 0.30891 0.48901674 -0.30055648 -0.0715704 0.36880058 0.043092526 0.022752143 -0.006496272 0.35176015 -0.52649236 -0.23912023 0.07947161 0.17734046 -0.14642541 0.50860775 0.00947485 0.018006768 -0.1625732 -0.115383185 0.27442524 -0.33487388 0.4202338 -0.35166186 -0.119172 0.2421444 -0.7167589 -0.030811407 -0.100173905 0.3612731 -0.065775685 -0.09602535 0.31127974 -0.33919036 0.4216268 -0.12889245 -0.44463995 -0.20071101 0.26628977 -0.042891826
green.a.03 -1.0962579 -1.151206 -0.9351511 -0.6435824 2.3161054 1.930491 -1.6133764 -0.70008796 -1.4926564 1.4594182 -0.5236286 0.23359966 1.9359484 -0.23093814 0.3903582 0.25443846 1.5414175 -0.56717414 0.61816937 -0.42329317 -1.3694139 -0.96297777 2.617664 0.11808798 0.1308451 1.1792161 1.4203877 1.9329888 1.5705173 -0.55304426 1.2579657 -0.80888253 -0.65160584 -1.0428461 0.8746241 -0.3203409 -1.2003032 0.32145634 -0.19606258 -1.8889112 -1.7989721 -2.3044708 -1.7455847 -1.5105658 1.9796494 -1.395241 -0.10438925 -0.5762769 1.4256165 -0.5408776
urban.a.01 -0.023336135 0.27725774 -0.061876874 -0.6223359 -0.28809884 0.016851593 -0.54200685 -0.056554556 -0.11156784 0.054281905 0.06217063 0.18852295 0.06190031 0.54163 -0.14495137 -0.16804436 0.88384825 1.16383 0.27481103 0.12780464 -0.16301264 -0.06352739 -0.24750374 -0.020702453 -0.56961405 0.5379511 -0.13645428 0.6790067 -0.7533919 0.21721727 0.7636562 -0.07095682 -0.6558814 -0.9563317 -0.11911551 0.14057419 -0.1743688 -0.3190609 0.9562665 0.33855203 0.38703427 0.2598656 0.64148563 -0.05267165 0.019659637 -0.050696686 0.8354598 -0.3973825 0.3943944 -0.094467916
exact.a.01 -0.1136995 -0.3188093 -0.44462723 0.25127277 0.49062505 0.5001158 0.54885453 0.67522085 -0.2535726 -0.56229925 0.13165236 0.32161796 -0.25711206 -0.24132183 0.6110115 0.20235796 -0.05200888 -0.2657612 -0.2298902 -0.10480078 -0.3893007 -0.05997827 -0.18674287 0.62924224 0.031908326 0.7484476 -0.24082465 0.06930594 0.026973141 -0.44032028 0.1063752 -0.958369 -0.19128203 -0.11371582 0.6992536 -0.6184596 1.073398 0.43646267 0.3329688 0.22426395 0.28616974 0.07787227 -0.5592608 -0.35499313 -0.14962666 -0.31162128 0.117341556 1.0193703 0.32768103 -0.14311698
thirsty.a.02 0.16392155 0.28033975 0.2311007 0.54175407 -0.2677338 -0.069001384 0.15510054 0.23303016 0.34289852 -0.11746517 0.012936218 -0.28137264 0.35320848 -0.34339115 0.27059856 -0.33163705 -0.35725835 0.024141079 0.4405147 0.02360565 0.2205224 -0.43465585 0.11100676 -0.13983239 0.15527661 -0.0008809246 -0.26684248 0.19118418 0.08290319 0.26360074 0.050686672 -0.023150392 -0.16361003 0.023979532 0.33006126 -0.021199262 0.012205811 0.0021410692 0.2197339 0.39590445 0.40257898 0.13268726 -0.2321922 0.015657498 0.67730933 0.105303325 0.097714365 -0.53519225 -0.106061704 0.017025368
operational.a.01 0.22885348 -0.4164197 0.21239534 -0.26813272 -0.09786121 -0.6169553 -0.13799681 -0.062307935 -0.15875909 -0.64041156 0.47280964 0.48495287 -0.22647838 0.03185833 -0.7228992 -0.29914525 -0.12627628 0.659054 -0.32762018 -0.02602997 -0.14590427 0.10417698 0.29992306 0.086660594 -0.6152516 0.2836301 0.06914649 -0.13849424 -0.019884134 0.4891676 0.62308985 -0.04716742 0.21771109 -0.15636905 0.3288737 0.057164628 0.43334985 -0.114292435 0.37943524 0.21585894 -0.011065516 -0.39872256 0.033619285 0.34841242 -0.3721421 0.15090638 0.1670309 0.32940307 -0.5261989 -0.28048468
vocational.a.01 -0.5515307 -0.09367265 -0.003848568 -0.043816473 0.03700626 -0.03800757 -0.0069577433 0.045320768 -0.05030892 -0.33656168 -0.7567206 0.6486187 0.039028812 -0.15930325 0.090346456 0.33491647 0.051894166 0.5246164 0.40746525 0.5395052 0.09724198 -0.10923309 -0.19114684 0.2790035 -0.11607809 0.18900208 0.042151634 0.12413301 -0.32950336 -0.149952 0.02921368 0.23735525 0.07889919 -0.422608 0.59062564 -0.3481806 -0.21433713 0.26115286 0.44337168 -0.7146535 -0.2025582 0.22258675 -0.14916113 -0.33392262 0.52470285 -0.53514737 0.30434042 -0.06324612 0.21307628 -0.17887631
potential.a.01 1.6714919 0.81203115 1.6018804 1.9636284 0.054513924 1.0752288 -0.01779047 0.75255716 1.0427462 1.5068328 0.48634 0.6903184 -0.17455153 0.23737277 -0.054129057 0.73363274 1.9148749 0.19366 -0.23207207 -1.5012472 0.26430577 -0.48355934 -0.21094273 1.213092 -0.9652922 -0.5120661 -0.30325472 -1.2649597 0.5835246 0.50067073 3.47546 0.8452658 0.73119104 -1.6450475 1.4995912 -0.5030906 -1.1383384 -0.7730594 -0.7184665 -0.07389732 0.16431004 0.7709559 1.809594 0.29348746 0.39509487 -1.101943 -1.2624445 0.37698317 0.96378934 0.32136452
personal.a.01 -0.8301792 -0.20914629 0.14456858 0.70116884 0.28042912 0.0028420144 0.18924315 0.4979174 -0.71626484 0.6403395 -0.16865422 0.570024 0.12851931 0.15728596 -0.4106155 -0.89398855 -0.47967908 1.1436261 0.60206234 -0.072199084 -0.26030758 0.13959053 -0.7341619 -0.3295443 0.3289298 0.40256548 -0.3763453 -0.5067898 0.0053561702 -0.6246673 0.79723173 0.0481095 -0.36048663 0.7318664 0.6281212 0.10701257 -1.1606152 0.3435907 -0.13892512 0.66644365 0.8298941 -0.23459616 -0.6804739 -0.001960139 -0.15428302 -0.6303901 -0.08998563 -0.76611304 0.5291952 0.0511289
covetous.s.01 0.57154346 -0.71882904 -0.5754994 0.058293182 1.176584 0.05958926 0.18926278 1.7202226 -0.6546028 0.19124031 0.46357313 0.664219 0.05209307 0.75217897 -0.116965584 -0.44872364 -0.0949092 0.66912913 0.12840764 0.2453693 0.67766744 1.294505 1.3273989 2.0015013 1.0835861 -1.3146136 -0.44065535 0.4589677 -0.27148014 -0.5127802 -0.04113806 2.3077993 1.9659448 -1.3716288 -1.1604191 0.5541513 -0.87727016 -0.43203783 -0.37212697 -1.3581263 0.04415409 0.108095445 -0.1121302 1.0126255 0.775018 -0.39588863 -0.6213521 0.11978631 -0.032392625 0.22952762
rich.a.01 0.17182602 -0.050022904 -0.15682578 -0.14654876 -0.2744552 -0.16503252 0.060838286 -0.4734803 0.20135716 0.16306448 -0.58640814 0.10473337 0.34407824 -0.45448107 0.40034395 -0.24909647 0.31520543 -0.2545871 0.008344873 0.16303028 -0.36306316 -0.6101148 -0.0493666 -0.060318492 0.02923465 0.18278137 -0.36895844 -0.01864075 0.24035203 0.37750357 0.42887157 -0.23321623 0.093457825 0.2470465 -0.07934239 -0.3322491 -0.37330312 0.12853262 0.003774508 0.067775875 -0.30993542 0.023880515 -0.6129567 0.48313975 -0.7590255 0.12838688 -0.69374645 0.21054314 -0.57418287 0.047341116
first.a.01 -0.41962615 0.22328691 0.25742692 -0.5007924 0.27323762 -0.11021535 0.08358971 0.14689547 0.05489657 0.26981643 0.43540436 0.5103869 0.09786949 0.015749581 -0.14771721 -0.2372196 0.099618115 -0.031282004 -0.2792814 -0.19349612 -0.35248408 0.026150387 0.32223743 -0.34460878 0.21687362 0.028374942 0.2978935 -0.60870975 -0.9346436 -0.049319882 0.6252148 0.11929166 0.1182002 0.12530753 -0.02440453 -0.3481215 0.5259571 0.16766612 -0.4426306 0.21425614 -0.13404165 -0.41524965 0.1955428 -0.539187 0.046038028 -0.20146859 0.042504348 -0.76780325 0.14015314 0.54474956
negative.a.04 -0.32792318 0.17369288 0.26813737 0.51263916 0.36385605 0.45205352 0.5822511 0.79456776 0.2480289 0.23867665 0.88575906 0.41515055 -0.43811524 0.14679158 -0.7564318 -0.45878854 -0.16191348 -0.42358556 -0.51080394 0.37159142 0.17786296 0.21563436 0.32381323 0.5182509 -0.038342465 -0.2651443 -0.62929916 -0.13537517 -0.3295686 -0.3517651 0.31032485 0.67195946 0.9886837 -0.5467468 -1.0095116 -0.4799146 -0.24038051 -0.2606779 -0.1536824 0.35720173 0.39659548 -0.26595262 0.0472098 -0.107812025 0.20409465 0.3351633 -0.7566487 0.49762017 -0.2297416 0.70204914
daily.s.01 0.019191658 0.010708415 0.14194441 -1.0058892 0.21921548 -0.9371392 -0.041823316 0.030192593 -0.022078717 0.7478478 0.08629587 -0.43116096 0.6200903 -0.058840804 0.4652862 -0.54371667 -0.3051784 0.69262654 0.07678813 0.22803538 1.0960907 0.4549805 -0.2656543 0.556297 -0.09816242 0.34693083 0.27940258 -0.058296703 -0.32822666 0.66782767 0.9298433 0.32395563 0.24579231 0.83248544 -0.4772186 -0.3145806 0.42620048 -0.75950426 -0.27585882 0.65313345 0.99176514 -0.73212945 -0.09279244 0.23223868 0.30483335 -0.7011395 -1.0792525 0.74428815 -0.46519247 0.2514016
adequate.a.01 -0.3483541 0.056697436 -0.41068643 0.52902055 0.15646714 -0.1636409 0.97490025 0.66607213 1.2660191 -1.9359353 0.3695073 0.6263379 -0.80080795 0.2771159 -0.26717496 0.06544447 0.45154154 -0.12803768 0.5398207 -1.1250074 -0.49183777 -0.2629646 -0.16562366 -0.45295492 -0.3837019 0.88923675 0.26038516 -0.6069046 -0.6060132 1.0111419 2.344832 0.37780577 -0.35257852 0.7348685 0.84420055 0.032771755 0.9087428 -0.1341008 0.41830647 -0.959605 0.07464287 0.27263024 0.5612932 1.3896514 -0.6037983 0.18249144 -0.28445184 0.09379437 1.1011626 1.0989099
sweet.a.01 -0.06422697 0.21915081 -0.28963992 0.08880086 0.52188104 0.47084773 -0.1772619 -0.16746871 0.10667258 0.23164792 0.12138097 0.33907348 0.04066534 -0.5414833 -0.07629989 -0.5112898 0.33467227 -0.05289367 -0.26458865 -0.028523998 0.3645329 -0.22826286 0.63933784 0.3143964 0.37717447 0.07625536 -0.030864129 0.011922172 -0.110236146 0.012207056 -0.09100931 0.46141508 0.047944922 0.47214305 -0.18921816 -0.52549565 0.20346361 0.17462677 0.044903606 -0.3141088 -0.32524604 -0.02158959 -0.16710696 -0.13593374 0.08888862 0.21073374 0.09526525 -0.29922822 -0.17016992 0.40179843
wet.a.01 -0.8697599 0.04241053 0.25790143 0.25820026 -0.79691726 -0.3312465 -0.4702842 0.1039465 0.6369977 -0.67003185 -1.1827873 0.13815473 0.5767222 -0.46635887 -0.63291365 0.11429751 -0.057701845 -1.1485336 0.6287123 -0.6794943 -0.6613276 -0.2875173 0.24296764 0.23123957 0.06026754 0.92384166 -0.23202999 1.1028427 0.9404724 0.17088772 0.6695994 -1.2616918 -0.61757314 0.66010886 -0.28580853 -0.25304982 -0.21215834 -0.41238043 -0.1830669 -0.74252224 -0.09926458 0.7697272 0.12646352 -0.3259042 -0.37557167 -0.09747086 0.70238173 -1.1134554 -0.12318415 0.24791344
discreet.a.01 0.2665037 -0.38643694 0.17764811 0.0995123 -0.5261124 0.011225513 -0.13013552 -0.35315746 -0.4341334 -0.05779711 -0.3433798 0.20398562 -0.049776483 0.043808687 0.37440762 -0.23994459 -0.04712665 0.2939452 0.04949905 0.1818961 0.064848736 0.09641443 0.00642808 0.100462236 -0.05979388 0.018863123 0.31632927 -0.08931806 -0.42224795 0.06238611 0.0630484 0.5447232 -0.3231177 -0.4386601 0.2595491 -0.23964536 0.50285137 0.14241394 -0.08264439 0.15768948 0.12234301 0.5816162 0.17948015 -0.23644677 -0.049495958 0.004554838 -0.07295026 0.04176183 -0.25645834 -0.12151215
qualified.a.01 -0.43605557 -0.3661815 -0.043367323 0.0880214 0.15744045 0.3453479 0.19516642 0.42363822 0.351361 -0.19154459 -0.38868788 -0.18404269 0.004741926 -0.053523928 0.18994097 0.1523357 0.05951954 0.45893794 -0.39871994 -0.1369794 -0.4513727 0.06569653 -0.58233726 0.36355117 -0.5272893 -0.13350143 -0.14353491 -0.121429004 -0.24699065 0.0048348363 0.2579069 -0.07777228 0.056338258 -0.19506963 0.19887616 0.4994329 -0.20464246 -0.024967708 0.08354292 0.057922307 0.62398607 -0.43670267 0.39988035 0.0939532 -0.24021474 -0.6550157 0.21148175 0.2725083 0.104750864 0.11557813
unfortunate.a.01 0.11686704 -0.10414765 0.08113829 -0.062677994 0.14302474 0.057730824 0.11724349 0.31610763 -0.28469908 -0.25440842 -0.10056651 0.17128418 -0.47739938 -0.5270639 0.28692374 -0.20393115 0.3797614 0.25137618 -0.61944747 -0.033255238 -0.1972202 0.15221854 -0.12090562 -0.17113593 0.44904497 0.19087233 -0.14020868 0.36858293 0.09274732 0.2397983 0.14399573 -0.37990838 0.17009516 -0.2947341 -0.20468503 0.19281529 0.43940958 -0.16529949 0.17391145 -0.123709045 0.24985625 0.11469978 -0.077080734 0.18383306 0.037833575 -0.10550529 -0.45562705 0.13757484 -0.088609464 0.021294111
civic.a.01 -0.48936087 -0.15064064 0.34384385 0.1199938 0.08668179 -0.2550851 -0.37913656 -0.72014487 0.29566303 -0.4567724 -0.21129327 0.018518759 -0.21701477 0.8075305 0.042481698 -0.25520626 -0.26878634 0.4554588 -0.03931605 0.22150716 0.3768556 0.07506493 -0.5241423 -0.22592682 -0.27439052 -0.20347865 -0.49416283 -0.4138842 -0.27205437 -0.3492095 0.34521058 0.8601401 0.27245504 -0.16375825 0.3009526 0.14204484 0.08827213 -0.19816524 0.35504884 0.017177641 0.010098751 -0.661425 -0.12984928 -0.12798835 0.21535781 -0.022510657 -0.9441502 -0.29203215 0.09060493 -0.19613513
alike.a.01 0.71792 -0.8910155 -0.071099624 -1.2412927 -0.5862092 2.2208161 -0.98214203 -2.2546527 -2.402539 1.0543346 0.3345759 0.9118867 1.2865171 -0.32111847 0.32820252 0.33181065 0.7519429 1.2079858 0.4810003 -1.8293858 -0.6031796 -0.2793998 0.18808307 0.96330494 -0.4054448 -1.5086806 -1.9489273 -1.6792493 -0.6536023 -1.0366236 5.1303325 0.15913518 0.3714458 -2.1890266 -0.8269758 0.00095175736 -0.599839 -1.2471133 -1.5186234 0.17659585 -0.83130276 0.052148573 0.7136704 1.6634885 3.1987512 1.179435 -2.272494 -1.3198048 -1.9644665 -0.23683736
effective.a.01 0.876173 -1.2962323 0.058368757 -1.3495644 -0.1259155 -2.1818087 1.3873272 -0.017088963 0.709871 1.2327671 -1.0408821 0.08124374 1.4100881 -0.9681954 -0.7830507 -0.73331606 -0.27306357 -0.6740123 0.39900395 0.3676625 -0.9500529 0.45276386 0.58859396 -0.6261498 -0.07132796 1.4097768 1.4950397 -0.7299973 1.7019271 0.6910797 1.0666788 -0.38772446 -0.7103967 -0.25927332 2.0717735 0.87428725 1.2252287 0.48521927 -0.9018302 -0.2992196 0.6956719 0.8193042 0.008169261 0.75744486 0.07713035 0.5016322 -0.8867168 1.2706614 -0.658732 0.97403115
autochthonal.s.01 -0.108034536 -1.2331504 -2.1716106 1.3238813 0.6933527 1.94753 -0.46888763 -1.9945928 1.1814945 -1.2592162 1.1382191 0.67068726 3.9005058 -0.81525254 -1.0760714 -1.71565 0.5513593 1.706332 0.91590595 0.008706015 -3.1027544 -0.50973225 -0.25742596 0.87711585 1.0344604 1.2236495 0.34054667 -1.8852161 -1.5591855 0.20418842 1.9151634 -0.05957715 -0.071174204 0.79611284 -0.22062108 1.0035894 -1.9410963 -1.6764545 -2.1100094 0.485711 -0.7175068 0.52905667 1.191046 0.752192 -0.21857408 0.49300155 -1.558876 -0.5139695 0.68898964 -2.4699306
laic.s.01 0.038032163 0.64424485 0.49393845 -0.91685885 -0.38701615 0.3540734 -0.104566246 -0.4084992 0.15947002 0.58744514 -0.14239468 -0.014932914 -0.1534357 0.90875334 -0.89800245 0.74006444 0.5233249 -0.14939186 -0.053611908 0.6370923 -0.24008304 -0.2551246 0.80251336 0.6422417 -0.034979824 -0.46615618 -0.021629876 -0.72886825 -0.8191074 -0.23129532 1.0825932 0.043737147 -0.44927588 -0.07533811 -0.04364434 -0.057411276 -0.36734435 -0.45684722 -0.27452573 1.0239384 0.03516371 0.78575397 -0.32628876 -0.47528926 0.32423252 0.16742334 -1.23345 -0.55882883 0.4627926 -1.1994847
firm.s.03 -0.5907095 -1.7621839 -0.05289023 0.07609069 2.056837 -0.8023317 0.16356947 0.39417097 -0.11435698 0.3082953 0.30179223 0.5213555 -0.9890782 -0.7818307 -0.64792866 1.3479402 1.3518997 -0.48351413 -0.46168652 -1.9797851 0.29378846 -0.23268108 -0.9388195 -1.1925573 -1.6961219 -1.091172 -0.6572243 0.57861793 -0.05709247 0.9551364 3.558488 0.7531535 1.5003626 0.41386104 -0.4688504 -0.054549683 -0.15349847 -0.99311835 0.20883185 -1.1299198 -0.15835547 -1.2304627 0.9433852 -0.55998206 1.893773 -0.33044836 -1.99696 0.38819414 0.3280144 0.48137757
weak.a.01 -0.39210117 -0.12994525 0.5720496 -0.67028046 0.3955482 -0.17725857 -0.13467886 0.47032362 -0.49114987 0.063342184 -0.3568642 0.6156518 0.22799572 -0.050671767 0.17332236 -0.21057203 -0.33098337 0.095988944 0.031815704 -0.023897514 0.07208696 -0.1202106 0.79338664 0.6573159 -0.052056585 0.18600743 0.19575804 0.5753856 -0.48236975 0.7259076 0.64946187 -0.0022948915 0.7097599 0.016877154 0.08338572 -0.40815964 -0.08358088 -0.588083 -0.6422516 -0.2758786 -0.5533728 0.0034422735 0.47465485 -0.3285709 0.7327863 -0.04489526 -0.66923785 0.41992924 0.98949724 -0.102417134
outdoor.a.01 -0.79524744 0.7862199 -0.21583879 0.19862802 -0.7321608 -1.534456 1.1346061 0.15502359 0.054772805 0.4029883 -0.8658621 -2.1619306 0.129392 0.5342384 -0.14843504 0.034508668 0.32744244 0.2913284 -1.3502339 -1.411289 -0.337483 1.4589483 -0.88584477 0.77175623 -0.6474353 0.17431173 0.055621255 -0.19919606 -0.90555006 -1.501956 2.2405179 -0.05033052 0.43253338 -0.10333659 0.25748315 -0.27862084 2.0356996 -0.32817417 -0.3663826 -0.6409579 1.298699 0.1511496 0.22086295 1.697536 1.9830604 -0.6651242 -0.050160762 -1.5235851 -0.62475634 -0.61157274
sad.a.01 -0.022496138 -0.28809592 -0.0905154 -0.22459048 -0.0448604 -0.34875116 0.48807314 0.12778765 -0.25972122 0.025125243 0.3159915 -0.46951288 -0.05893312 0.09934566 0.040473618 0.30784225 -0.3027577 0.33082995 0.048754886 0.35371506 -0.14373185 -0.12560517 -0.22787094 -0.044115685 0.24095537 0.15242329 -0.08006767 0.4347822 0.23270735 0.18106936 0.18926853 -0.12154342 0.23114511 0.217034 0.15852912 -0.15252253 -0.15774505 -0.25871316 0.39532152 -0.27492136 -0.017543841 -0.13302962 0.19848737 0.2047169 0.120230556 -0.26504612 -0.26236892 -0.15160875 -0.046010457 -0.12468642
comprehensive.a.01 0.07018167 0.09033851 -0.06782925 -0.5920921 -0.37321138 -0.070374385 -0.3144342 0.100493774 0.22078048 0.12078377 -0.6018446 0.43304604 0.3268329 -0.15387924 -0.39404216 0.44805774 0.3543652 -0.42810366 0.34826514 0.26308972 -0.23866756 -0.7047335 -0.535018 -0.45174074 0.27165735 0.013947937 -0.71260566 0.4534212 -0.19198927 -0.17255387 0.648266 -0.6193442 -0.20460878 -0.047241006 0.44869596 0.3139972 0.032982785 0.43474656 -0.50586236 -0.066003636 0.37691993 -0.033140495 0.12633815 -0.6090334 -0.4126617 0.591392 0.3180955 0.42249978 0.283578 0.07248777
impressive.a.01 0.39828658 0.16942847 0.06278675 -0.33917528 -0.22222787 0.61794895 0.12408506 0.6336558 0.1324641 0.7174105 -0.12443333 0.3427238 0.06827685 -0.27547178 0.27098274 0.064547054 0.45325324 0.31019154 -0.066039406 0.3971356 0.10048633 -0.28905874 -0.24528728 -0.28395846 0.2459431 0.43739024 -0.54599077 -0.29488692 -0.4397641 0.001858612 0.53678197 -0.09959096 0.41571933 -0.2417046 0.5321316 0.21524651 -0.04330534 0.43120086 -0.35203964 0.056982413 0.056745853 0.050101627 0.102587 -0.06323747 -0.15521803 0.07904084 -0.09589981 0.2987391 0.030172344 -0.20390183
constitutional.a.02 -0.7667851 -0.46608204 -0.2713547 -0.25184125 0.075971045 -0.018029619 0.35644257 0.007851217 -0.20783098 0.00455123 0.09657322 -0.43782368 0.24370168 0.33008608 -0.18996511 -0.12461448 -0.2218588 -0.1632236 -0.045649942 0.18654768 0.2449843 0.3302718 -0.1564928 0.039141726 -0.037675586 0.07014083 -0.056701414 0.020672753 -0.72065973 0.24529812 0.33105138 -0.11234229 -0.21293646 -0.22611661 0.2009584 0.09760768 0.07643536 -0.4780184 0.6920865 0.5058404 0.13340202 -0.16005638 -0.116364375 0.017155068 -0.09340079 0.30254093 0.1867157 -0.2382313 0.11229435 0.39199665
violent.a.01 -0.14357303 -0.41460165 -0.527782 -0.1175439 -1.0171148 -0.21094081 0.41426557 0.16603728 -0.531647 -0.024984052 -0.04757854 -0.40666756 -0.13009995 0.38493624 0.32616985 -0.6070247 0.3631136 -0.31935614 -0.6668041 0.5673951 -0.36159572 0.18554808 -0.069473736 1.0604048 0.44755673 -0.31895462 0.4746135 -0.041876063 0.22940828 0.48371747 0.53818315 0.5986277 -0.18671721 -0.14983112 0.22573093 1.0960565 0.17735757 -0.030960893 0.019335123 0.41897026 -0.10605308 0.15839249 -0.18634298 0.23160933 0.39737865 0.30061916 0.20136061 -0.4444366 -0.40438545 -0.8169213
marine.a.01 0.0790081 -0.61477554 -0.15349126 -0.10613897 0.17572638 -0.011424532 -0.06439428 0.3038223 -0.20061606 -1.153659 0.28858584 0.24774197 0.47452697 0.011526427 -0.69221264 0.06756975 -0.29326838 0.14819111 -1.0010544 -0.057652622 -0.63198394 0.27219284 0.27375 -0.45793393 -0.5590839 -0.045332372 -0.017561661 -0.3371396 0.1703589 0.5104445 0.74496645 -0.02252679 -0.27765572 0.29860437 -0.0059356457 0.37163335 0.30784273 -0.50243515 -0.095848545 0.18907966 0.25468698 -0.2591269 0.02393951 -0.09092307 0.21235491 -0.28401494 -0.26384246 -0.5549368 -0.45909286 0.2188873
junior.a.01 0.025642658 -0.059237484 -0.09881608 -0.007852105 -0.01304077 -0.11589691 0.09125559 -0.043345783 -0.114772715 -0.049334202 0.060899243 0.14738365 -0.044730175 0.19435051 0.0830524 -0.07639158 -0.06646166 -0.010971464 -0.028881751 0.014410549 0.033980664 0.030407729 -0.18560378 -0.024337403 -0.042446997 -0.17733695 0.07344357 -0.15817742 -0.065672584 0.067666344 -0.054043792 -0.022654558 0.03374933 0.012554189 0.029175008 0.1790163 -0.13291208 0.017735913 -0.09149157 0.009996941 -0.067269824 -0.20280185 -0.1812673 0.075176366 -0.17698336 0.0074161957 0.040053204 -0.11089207 0.046588544 0.020297999
loyal.a.01 0.23340766 -0.23675542 0.018190844 -0.10989147 0.4735806 -0.26674047 0.0034794395 0.35849243 -0.25771922 -0.069896765 -0.18783383 -0.37566218 -0.1884039 -0.3012113 0.006311972 0.0025927564 -0.26346588 0.030220894 0.06832612 0.023273412 -0.19847378 -0.37452266 0.46861795 -0.40330324 0.15825826 -0.13216399 0.141624 -0.20442577 0.05504045 -0.01609344 0.3556902 0.15025392 0.038505364 0.6060608 0.2683915 -0.27708888 -0.015457119 0.40460795 -0.47055715 -0.107138775 0.07183801 0.455053 -0.47277972 -0.29573748 0.11611501 -0.01799641 -0.030070055 -0.2771239 -0.10662779 -0.1587713
ashamed.a.01 0.29203314 -0.5695331 -0.14133507 0.22771515 0.2107874 -0.22719039 -0.111134075 -0.09180085 -0.46712616 -0.0918492 -0.050093826 -0.16511211 -0.32041836 -0.35675249 0.1487941 -0.59558094 0.4638793 0.41781846 0.07561291 -0.0069815577 -0.306647 0.3112303 -0.031942755 -0.27620977 -0.34992605 -0.6266965 -0.4148353 -0.20060349 0.044688024 -0.23517594 0.03954867 0.4357438 0.20585234 -0.4543766 0.07112932 -0.19011006 0.3556429 -0.23052183 -0.14836922 -0.16805448 0.82506067 0.121857144 -0.016647164 0.3165168 0.12097509 -0.018418716 -0.544678 -0.3254604 -0.050443254 0.06529473
cooperative.a.02 0.20561078 0.11547222 -0.045277465 -0.09999562 0.56257 -0.39341173 0.2863909 0.013528579 -0.11635822 -0.03861791 -0.21874917 -0.076156154 0.051528092 0.43569446 -0.24401066 -0.40980834 -0.082941316 0.68558955 0.38307846 0.4792908 -0.45919853 -0.17512593 -0.28378168 -0.0617054 -0.14012645 0.19401047 0.19567712 -0.2435267 -0.09992005 0.42228708 0.27052653 -0.25961515 -0.10506764 -0.25093788 -0.11032452 -0.733456 0.19039084 -0.25074288 0.3444113 -0.04440672 0.28328922 -0.091816895 0.45876008 0.09884192 0.119215034 -0.08918629 0.11653275 -0.113577805 -0.06641792 -0.23949486
harmful.a.01 0.49320433 -0.9363124 -0.95497304 -0.32324255 -0.2839047 0.062054336 -0.24551593 -0.5404606 0.093703546 0.26839846 -0.3785657 0.0031356243 -0.38377836 0.28481454 0.54387295 0.07812744 -0.04133645 -0.010225111 -0.7366462 -0.63816804 0.1624836 -0.30855718 0.37609512 0.055177342 0.36007607 -0.06984614 0.4561041 0.43095013 0.7434745 -0.0974526 0.5791807 0.25401577 -0.36580923 -0.47402695 -0.8292985 0.33548525 1.1925541 -0.094725825 0.41512987 -0.22843736 0.14867756 -0.33343428 -0.59180206 0.08465999 0.6899826 1.0065633 -0.86429733 0.0762753 0.71351165 0.6489568
political.a.01 -0.23635864 -0.12129497 -0.12798044 0.30681676 -0.019737808 -0.30203697 0.7530098 -0.51561457 0.0036186418 0.06787317 -0.7537661 0.0050486005 -0.4334072 0.29855514 -0.44364405 -0.25740883 -0.43763375 -0.31743595 0.41003385 -0.06684588 -0.104065806 -0.62764096 0.55097574 -0.26474544 -0.63785434 -0.5419379 -0.40151 -0.64952797 0.08887019 0.38013142 0.96784395 0.14311157 -0.41920385 -0.45427296 -0.47126275 -0.10384999 -1.6043785 -0.22947808 0.07484663 -0.3372288 -0.29279178 0.18549573 0.29360124 0.5344703 0.4210561 -0.37482792 -0.27768907 0.16792688 0.23503597 -0.5335879
appropriate.a.01 -0.25472185 -0.38376647 -0.46132237 -0.4770261 -0.17598715 -0.16868365 0.2095902 0.29852453 -0.5137008 -0.031674966 0.55433214 0.21997286 0.6922744 -0.31007233 -0.48204398 0.60030085 -0.1315975 0.034040313 -0.11194827 0.5963374 -0.123205304 0.2662368 -1.2254727 0.29551122 -0.7928551 0.32996142 0.08318129 -0.15838766 -0.18361847 -0.2877042 0.8380696 -0.050171793 0.19325848 -0.24441218 -0.23582016 0.62802666 0.33437338 0.0027209197 0.14851746 -0.16663916 0.0035205279 0.35908577 -0.42691216 -0.8686354 -0.49469155 0.09262414 -0.20074159 -0.2793997 0.26126307 -0.23905301
even.a.03 -0.3294005 -0.14791308 0.6923675 -0.08907028 -0.6825173 -0.27451608 0.20118819 -0.34696966 0.23075423 -0.05479651 0.08001422 -0.26722768 -0.48755857 0.32328397 0.240692 0.26167685 -0.22580226 0.43569937 0.06256919 0.052510787 0.52711076 -0.4834467 -0.3351764 -0.63640505 0.44659716 -0.24387783 0.102972694 0.21883151 -0.0153667675 0.2815446 1.0031514 0.07638273 -0.2321987 0.38788876 -0.2675552 0.15693091 -0.3290558 0.414179 0.2940341 -0.5929361 -0.12342648 -0.18845217 1.1834035 -0.2765539 -0.38573244 -0.28476948 0.08168495 -0.13937265 0.29650432 -0.02624385
vacant.s.01 -0.16939956 -0.16708659 -0.07568587 0.13121958 0.24537571 0.2920137 0.036243007 -0.15314777 -0.042795356 -0.08147936 -0.15259324 0.008093178 -0.16966122 -0.1777177 -0.1894129 0.16766344 -0.056479696 -0.16520454 0.04624006 -0.039521307 -0.026219584 -0.09677956 0.21547636 0.15856594 -0.2547466 0.06967435 -0.03513793 0.11102385 0.05211195 0.085751444 0.052710775 0.14493532 -0.011747408 -0.030189225 0.13546433 0.25297293 0.06458263 -0.16143534 -0.06670281 -0.23073493 -0.07866181 -0.1042127 0.16358155 0.46143976 -0.27132875 -0.11124543 0.15554826 -0.2123221 -0.008698071 -0.22995017
muggy.s.01 -0.9980489 0.12772876 -2.2307508 1.8685331 -1.3964361 -1.8412184 0.074058875 1.5927349 0.33601353 0.19208397 -1.0986234 -1.3270813 0.8670714 1.8530493 1.2511773 0.843566 -1.3868743 -0.41157845 -0.5889304 -1.0627326 0.32485604 1.9566534 0.736431 0.28184864 0.19170316 2.3858738 0.97331285 2.0221198 0.9452359 1.3174298 0.25689608 0.78637815 0.14720765 -0.32758123 0.078982495 -0.15434757 0.15410087 0.35922658 -0.14763589 -0.052721057 -1.8006476 1.3324027 0.21577708 -0.0019887893 0.25789464 0.40984428 0.22351155 -0.18454766 -1.5610679 0.51938283
complimentary.s.02 0.5648925 -0.56783307 -2.1012409 -0.044475142 -0.4937611 -0.2940286 -0.15480809 -0.5928053 1.7887721 3.090358 -0.4454687 -0.9878169 1.3849165 -0.5905579 0.23589508 -2.1308918 -0.69421923 0.17791788 1.9150152 1.0244427 -0.43962577 2.7073376 -1.2037667 1.4899035 -0.47432473 2.467816 1.241304 1.3410181 2.9093206 -0.31520432 1.9531816 1.2457026 0.6694779 1.9406611 0.5274758 1.6505622 0.7991524 1.0883495 -1.6142883 0.5958555 1.9015907 0.767062 2.095219 2.600053 -1.5176772 -1.3725297 -0.65995896 0.5701121 0.42560154 1.2637199
critical.s.04 -0.5866717 -0.024454568 0.09558423 -0.96970624 -0.18787503 -0.4735364 0.023181846 -0.10809776 0.9551059 0.3158808 0.29481605 0.81830156 -0.23622839 -0.47930408 -0.26691395 -1.4173884 0.40627936 -0.30829698 1.3932858 1.8124208 -0.1675928 -0.29304624 -0.9263699 0.2875156 1.3316276 -0.018067127 -0.94529617 0.42544395 -0.024859283 0.743339 2.0937805 -0.7902074 1.747813 -0.5349482 -0.13264275 -0.3184291 -0.97450364 -0.008473284 -0.010772062 -0.31493795 0.13185854 -0.15488894 0.6347722 -0.7719522 0.14432658 1.4753283 -0.5807926 0.4576286 -0.06557583 2.240068
ordinary.a.01 -0.0024905622 0.09136 0.14019732 -0.17277278 0.28841284 0.0023587185 0.3884215 0.33488837 -0.35193443 -0.56605965 0.15548725 0.17103054 0.14069608 0.2978551 0.14439805 -0.847103 0.014311284 -0.34873846 -0.21466632 -0.22654939 -0.23754905 -0.1767965 -0.43064004 -0.42054662 0.3402678 0.56726503 0.08049759 0.10662532 -0.02787327 -0.35057113 0.25830302 0.092209585 -0.09711891 -0.29107922 0.5607711 -0.44204578 -0.23500362 -0.14009638 -0.20992273 -0.23421955 0.38075674 0.22348088 -0.12532617 0.156172 -0.33075064 -0.10504475 -0.20276405 -0.10432432 0.03580108 0.33450142
empty.a.01 0.20919389 -0.1042662 0.21744914 -0.18091273 0.44822672 -0.07650287 0.7570802 0.03153863 -0.018431606 0.1854923 -0.013295612 -0.08320728 0.30967912 0.1640733 -0.058935944 -0.48979792 -0.05454487 0.73766816 -0.61991036 0.11036845 0.14598596 -0.48075277 0.38621485 -0.21766987 0.015703423 0.08604248 -0.75691026 0.5279546 1.063843 -0.0010887079 0.29076573 0.05863134 0.2615594 0.1137532 -0.04443088 0.19599576 0.20805445 0.20642993 0.28762108 0.08241357 0.014740677 -0.043539375 0.3459294 0.8843471 -0.12527706 -0.0687322 -0.19591835 -0.05072095 0.43043935 0.64726114
well.a.01 0.42493734 0.17677963 -0.21116443 -0.2715717 0.19293219 0.43543303 0.08810853 -0.12588705 0.9649603 0.04029427 0.01675401 -0.601132 -0.13826743 -0.044880684 0.513777 0.12064663 0.12828816 0.5376083 -0.29995906 0.19469106 0.0379149 0.3399496 0.22137439 -0.54459643 -0.5434378 0.5306248 -0.037579138 -0.6267086 0.113914974 -0.24579427 0.44233033 0.43029612 0.31108108 0.03311231 0.5910709 0.016409257 0.30558896 -0.07966205 0.04096425 0.74318874 -0.046107814 -0.24076824 -0.3138351 -0.13705751 0.68851566 0.8319587 0.1503134 0.26619273 0.7299363 0.24110943
invisible.a.01 0.09608308 0.30142063 -0.08698066 -0.09247285 -0.060184963 0.14015487 0.2000062 0.18585284 -0.020976737 -0.011694024 -0.099326245 0.03934085 -0.11541447 -0.08121937 0.07817736 -0.2235059 -0.09429163 -0.12679178 -0.14970692 0.024561549 -0.13694865 -0.02489778 -0.23351125 -0.035116747 0.30885318 0.050076768 0.036978375 -0.24364099 0.07770176 -0.0978857 -0.0172415 -0.26148662 0.1576785 -0.3652605 0.06962066 0.09604681 -0.12529764 -0.020771444 0.25590324 -0.13854551 0.10583241 -0.15395395 -0.04487745 -0.033325322 -0.1934823 -0.27121514 -0.028774833 -0.007134162 -0.16582552 0.1589025
decisive.a.01 -0.79767233 -0.48415884 0.328391 -0.78429407 -0.65396196 -0.2239418 0.9045962 0.17045076 -0.029246908 0.10705238 0.14320308 -0.18056633 0.33004585 0.68354064 -0.08287812 -0.56248724 -0.76912016 0.1966315 -0.18263277 1.1539232 -0.20898047 -0.04725066 -0.77833706 -0.32286778 -0.12627704 -0.6238344 -0.014504124 -0.27636024 -0.3299475 0.51654255 0.6950739 -0.62513876 -0.44312 0.34486488 0.60447365 -0.7591541 -0.20162365 -0.11673245 -0.5291762 -0.24170691 -0.12884142 -0.9239024 0.48072404 -0.53673416 -0.44874275 0.5473069 0.5084117 -0.46848866 0.40095928 0.61711454
major.a.02 -0.16232653 -0.2528753 -0.07804836 0.21176913 0.016017828 -0.04961343 0.9890217 0.31767127 0.20605777 0.20696492 -0.24725446 0.33324155 -0.76797086 0.8588641 -0.050902516 -0.1265995 0.009448436 0.6745413 0.28699264 0.37061912 0.74968284 -1.2559339 -0.07344595 -0.35536933 -0.17437887 0.48794472 -0.12046743 -0.65144885 -0.36430898 0.55279803 0.7866342 0.40811643 0.3350474 -0.35663295 0.13065283 0.11680616 -0.5891176 -0.17734016 -0.26844576 -0.023540275 -0.55704033 0.25469697 -0.19712755 0.09077181 -0.018937038 -0.002723156 -0.40753716 -0.009073805 0.45087084 0.2461984
warm.a.02 -0.5332125 0.5153243 -1.1517342 -0.053325694 -0.3945073 -0.18307002 -0.07475713 0.76806575 -0.12622376 -0.47193998 0.4319033 0.6639173 0.6793104 0.29783538 -0.55014783 -0.018814823 0.7039443 -0.6087454 -0.76589435 0.014510228 0.1444209 1.0292156 1.0289936 -0.42532325 0.18345766 0.49981618 0.07287107 0.30080286 0.05482795 0.14294179 0.67873824 0.33785167 -0.3008182 -0.080732174 0.68537253 0.22069956 -0.09899999 0.15020487 -0.49555004 -0.25571442 0.96605116 0.69539225 0.7612958 0.70302695 -0.5341664 0.9122805 -0.63415956 -0.32758218 0.109985 -0.30945563
cultural.a.01 -0.7735426 0.5935248 -0.5892426 0.19460694 0.2953393 -0.71370775 -0.30762407 -0.81100637 -0.3871697 0.08239656 -0.027211774 -0.32868463 0.57105124 0.54027075 -0.15328829 0.17787793 0.08400945 -0.52592623 0.062757015 0.77699935 0.34057736 -0.090667374 -0.81332463 -0.28198242 0.29291523 0.49467343 -0.77218455 0.30164456 -0.37486953 -0.100301675 0.4524176 0.05991137 0.07200651 -0.02962005 -0.13457265 -0.319192 -0.5224795 -0.10279546 0.24410476 0.9371823 -0.34208745 -0.29579046 0.44173932 0.13809943 0.17475459 0.06345067 -0.1617189 -0.26040274 0.63306785 -0.49539047
liberal.a.03 -0.3406336 0.06203071 -0.1323708 -0.44264168 0.33263904 0.0027618362 0.047268808 -0.20762444 -0.61701304 -0.12965943 -0.42155886 0.019853849 0.44702575 0.4307464 -0.33822775 0.3311254 -0.09788356 0.15477791 -0.36265326 0.13047595 -0.24289785 -0.06595012 0.65219814 -0.30302262 0.13833764 -0.2145588 -0.08285426 0.24824703 -0.55183464 0.16628109 0.122109346 0.20520383 -0.0023147713 -0.25776547 0.30019197 -0.11958922 0.4738559 0.41923904 -0.006666009 -0.010391042 -0.25704768 -0.05995973 0.4258736 -0.41364273 0.039676566 -0.08710981 -0.091789976 -0.18300591 0.46553022 0.004001266
proud.a.01 0.057637867 -0.21135978 -0.84579235 0.2046682 0.2849234 0.1625444 0.019037453 -0.019738382 0.12633477 0.5526212 1.051259 -0.3998885 -0.8584778 0.06180372 0.17560548 -0.4681999 0.2683447 0.17115152 -0.25769806 0.7106832 -0.62990487 0.0046268073 -0.34254855 0.2533209 0.8417462 -0.7737579 -0.74821466 0.17358135 -0.32924733 -0.3173605 0.3929621 -0.09025979 0.05508265 -0.39625457 0.8484989 -0.23231757 0.27762622 0.43922868 -0.27756527 -0.28790894 0.21347933 0.287239 -0.09136811 -0.22872996 0.11995863 -0.36889803 -0.68190426 -0.41077796 -0.74465 0.35425705
accurate.a.01 0.39590105 -0.3598104 0.61507803 0.111140065 0.8105556 0.04570898 0.46861956 0.13092825 0.34558424 -0.14006466 -0.20020418 -0.641468 -0.19925673 0.040320024 0.18314342 0.66582745 0.050605115 -0.39576858 0.37913206 0.055051062 -0.24657683 -0.4859316 0.360242 -0.33255467 0.8177197 0.17249793 -0.3141319 -0.53150046 -0.4803052 0.34015107 0.43584868 -0.10839563 -0.4739622 0.096503064 0.78487647 -0.08337369 0.5766647 0.7976434 0.15973812 -0.2579465 0.94910777 0.10710046 -0.17389192 -0.12758657 0.13477471 -0.7007471 0.03933923 0.011557183 0.17438982 0.91189927
controversial.a.01 0.18433659 0.40437818 -0.20551042 -0.09423647 0.13455525 0.15750675 0.27914175 -0.56610674 -0.4339697 0.4921519 0.13802065 0.2864233 0.09882812 0.48655164 0.30553514 0.09780139 0.21023832 -0.3168407 -0.40941748 0.6421523 0.019600898 0.2419449 -0.55097455 0.377466 0.42119956 -0.50212854 0.06957118 -0.5420969 -0.5554332 0.51177686 0.31299198 -0.5127275 0.13659185 0.13529636 -0.54387987 -0.086844444 -0.07665555 -0.4056216 -0.27196208 0.835456 0.21343493 -0.09903671 0.27554202 -0.07532841 0.13928942 -0.053595733 0.0038638148 0.3061881 -0.7944163 0.005591692
abstract.a.01 0.3792135 -0.10054004 -0.14797506 -0.1386103 0.29004887 0.028923618 0.15866712 -0.32413357 -0.53939855 -0.043403145 0.24825683 0.101598285 -0.250764 0.13615277 0.17561895 -0.20690195 0.040777724 -0.0045596533 -0.10668977 -0.2421828 -0.12880962 0.11211935 -0.29032773 -0.2077082 0.20109895 0.0921686 -0.16362618 -0.37959093 -0.06678061 -0.055136926 0.30816472 -0.2721738 0.16964698 -0.23616745 0.3028276 0.2261033 -0.48441926 0.30210567 0.3564018 0.23823723 0.037641168 -0.742715 0.16223752 0.09139228 -0.3950617 0.10022849 0.31686366 0.08435277 0.15017211 -0.10342451
constructive.a.01 0.51110023 0.043442335 0.08875782 -0.19195811 0.17219003 -0.1066999 0.18388022 -0.22408587 0.07471062 -0.10455023 -0.023937143 -0.1681766 -0.20590927 0.13577329 -0.2108999 0.31438133 0.1436864 0.049455956 -0.05255544 -0.3790897 -0.24918228 0.2609863 0.05665667 -0.29400897 -0.081386745 0.20351802 0.25808087 -0.33487403 0.26459983 -0.319573 0.14068386 0.18666962 -0.14906485 0.15017179 0.06015922 0.22115871 -0.10208382 0.2518744 -0.38011727 -0.008408274 -0.0067944312 0.19160451 -0.120613724 0.053194985 0.017521087 -0.4014661 -0.24955407 0.21086949 0.020796768 0.17962222
well-defined.a.02 -0.672674 0.40420473 0.4335318 0.06985841 0.47507757 0.24610634 -0.28825366 0.2912525 -0.0054377103 -0.4866823 -0.64038986 -0.64486927 -0.017808044 -0.23150401 -0.2861595 -1.0027585 -0.9092566 -1.1195505 0.39451322 -0.03749963 0.17037104 -0.25427136 0.20849627 0.70727164 0.13832726 -0.19952713 0.18629341 0.17537262 -0.09218253 0.25685224 1.0405966 -0.39903918 -0.034875993 -0.6565181 -0.5309042 -0.1741452 0.44519496 -0.5745775 -0.28099644 0.1954375 0.76083153 0.5705255 0.62754864 -0.95789856 0.22520968 0.25092685 0.113925554 0.030785795 0.2924513 -0.23929389
alone.s.04 -0.9357414 2.248459 -1.2996484 1.3823856 2.0319722 -0.40181327 0.70856386 0.16187876 1.9073094 2.5131893 0.87014055 -0.4910415 -0.74636716 0.19264594 0.6406159 -1.0178269 1.9262012 1.140277 -0.63160044 0.60787547 -1.7663205 1.9365011 -2.1995852 -0.026674334 2.9401007 1.3867642 -2.0000584 0.19333631 1.7376561 1.5005566 1.9979712 0.35120597 1.6642243 -2.8127158 -0.11902415 1.6056453 -0.305407 0.6100753 -2.1014128 -0.0776337 -0.9079821 -1.9928955 -0.29619673 0.574585 -3.2641814 0.59005994 0.60002816 0.20617183 -1.3296723 -1.8236308
official.a.01 -0.048833046 -0.22068454 0.23228756 -0.7817799 -0.67235386 -0.19459093 1.0736657 -0.14768252 0.42024025 -0.16723157 0.45747936 0.2694674 0.041396916 0.72562987 -0.049635034 0.81143284 -0.21615614 -0.31681544 0.21137173 0.354951 0.33603537 0.23073518 -0.2587119 0.40943027 -0.050850525 -0.6333044 0.31536576 -0.15061873 -1.390263 -0.6553448 0.84626323 -0.8346545 0.7387454 0.16157345 1.0893364 0.45374185 -0.5394742 0.37667435 0.72393113 0.5035557 -0.12175338 -0.3334322 -0.28830615 0.03706065 0.22417639 -1.4736246 -0.22800179 0.38120073 -0.24795614 0.15917695
rough.a.01 0.031075004 -0.34537035 -0.29102287 -0.04504964 -0.33500314 0.2333017 -0.059915796 -0.050500017 -0.112469256 -0.3591748 0.18498032 0.32212862 0.13797857 -0.16769718 0.505772 0.15289578 0.16150525 -0.017332429 -0.22294335 -0.5222322 -0.2530986 -0.068766244 0.464284 0.04530467 0.18357363 0.55940986 0.20074387 -0.20514779 -0.044912852 0.13468392 0.2460494 -0.5321564 -0.26786765 0.3069381 0.079008594 -0.35876572 -0.1028094 -0.59944355 0.1803815 0.16169938 -0.3522305 0.02223643 0.1909424 -0.412506 0.051197108 0.15723783 0.048364222 -0.15197094 0.6008129 -0.20730215
weekly.s.01 -0.21375795 -0.19792317 -0.013261048 -0.41627717 -0.4508039 0.17875758 0.08986043 0.5882311 0.52135855 0.26453093 0.04123274 -0.6002877 0.13372552 0.39488742 0.6252001 -0.2094107 -0.13697964 -0.70220387 0.047887757 0.3691357 0.4340517 0.05615263 0.65616685 0.54062414 -0.41835493 0.08126788 0.15907823 -0.13857989 -0.83074105 0.21190573 0.36670557 -0.5111025 0.25420347 0.372531 0.018438837 -0.10043242 0.13204265 0.18772668 0.3954189 0.65374786 0.20555334 -0.07419593 0.23869328 0.06306987 0.10180277 0.0015118596 0.3885445 -0.100696765 0.39584947 0.3213172
continental.a.03 0.39032155 -0.12433133 -0.018323295 -0.062534146 -0.24990258 0.054089446 0.0907635 0.1861062 -0.18339068 -0.2322531 0.025841465 -0.20916623 -0.16449483 -0.07309842 -0.004186256 -0.13090998 0.28893253 0.11722672 -0.07140884 -0.19166054 -0.06089971 -0.28124595 -0.017908745 -0.2963291 -0.2179598 -0.21574047 -0.064701416 -0.03059031 -0.19276124 0.34787846 0.1736728 -0.05290317 -0.029980399 0.32908738 0.08997512 -0.23302577 -0.25867972 -0.06406777 0.09823118 -0.023193907 0.20977119 0.22610182 -0.17932382 -0.0045434465 -0.38880798 0.40635383 0.2708749 0.14209054 0.28987283 -0.054201555
dynamic.a.01 0.65862155 0.3400933 0.42185366 1.3766237 -0.062597446 0.5041787 0.8895744 -0.06510061 -0.7280295 0.8996846 0.9724162 0.14990762 -0.37571365 0.6340116 0.23084164 0.7952724 -0.71236444 0.030666687 1.1125163 0.1617873 -1.2743431 0.20804456 -1.2112551 0.85076356 1.6022243 1.1597377 0.19306174 -0.07481145 0.49046507 0.40691158 1.0970013 -0.5090974 -0.24429092 -1.4906331 0.5822734 -0.5193905 -1.1911339 -1.1324862 0.26811165 1.057634 -0.20513439 0.33387795 0.47342867 0.53393734 -1.0792801 -1.020616 0.29799768 0.25170124 0.6113322 -0.35533148
artistic.a.01 -0.15356913 0.7045227 -0.57073414 -0.0031014022 -0.24213155 0.28887913 0.4073861 0.17825076 0.115312375 0.47940207 0.23835942 0.215035 -0.5278501 0.33107695 0.22257842 0.10634028 -0.1842409 -0.07877488 0.20466891 0.3433791 0.11855784 -0.019666614 0.0025209326 0.17878337 0.5678183 0.7303079 0.045671653 -0.80395806 -0.07947242 -0.5974708 0.20721291 -0.1541688 -0.11801132 -0.17838375 0.4838646 0.22891103 0.009888562 -0.2719086 -0.65458304 0.7004569 -0.11922896 0.35718283 -0.021257846 0.00089743786 -0.13724366 0.00892653 -0.008076617 -0.62310976 -0.049630135 0.6184637
acrimonious.s.01 0.080908336 -0.45420748 -1.1216465 -0.09643007 -1.0507812 1.7790604 0.8525018 1.4407295 -2.858649 0.17230575 -1.076842 -0.4323428 -0.56111187 0.014225307 -0.63434845 0.2833379 -0.241374 -0.48142287 0.4308329 -0.33539325 0.1555367 0.5882224 1.312509 1.3494911 0.042969216 -0.83839136 1.0727826 0.41865003 0.34182602 2.5399618 1.5084468 0.51246667 0.31357864 0.7038856 -1.0527158 -1.4263884 -1.8579088 0.37279904 -1.2033584 -1.2623466 0.0221166 0.19704315 -0.99112654 0.728182 0.052662466 0.43018854 -0.36987048 0.45484632 -1.252878 -0.07503851
uncomfortable.a.01 -0.13573967 -0.6429978 -0.27759096 -0.1895995 -0.086126626 0.3176022 -0.12283025 0.15304926 -0.38142267 -0.18568327 0.052603334 0.012174519 -0.35540727 0.097764745 0.81018317 0.118539415 0.23868474 -0.22049381 0.24686752 0.46488413 0.049647298 0.2696202 -0.3601238 -0.4576808 0.1347245 -0.31115556 0.4158815 0.65801084 0.11553354 0.05202796 0.11327132 0.14432502 0.1618949 -0.026094342 0.1941149 -0.25714713 0.12636945 -0.03915368 -0.011438842 -0.014095298 0.7204865 -0.16522926 0.10996393 -0.07643604 0.16315381 0.24891676 -0.22855406 -0.34652624 -0.32420108 0.07251819
gradual.a.01 0.31480834 -0.4038779 -0.30808365 0.01758357 -0.8141704 -0.25541312 -0.04270612 0.3059749 0.13228595 -0.031252336 0.22922875 -0.13063769 0.029418362 0.23431088 -0.15568504 0.6289568 -0.19970244 -0.3696234 0.13057749 0.55544657 -0.17742386 -0.4404386 -0.34842122 -0.085678816 -0.14837132 0.4488924 -0.16469346 -0.40190855 0.43612733 0.4549442 0.8793042 -0.034790106 -0.082644075 -0.11979695 0.41330737 -0.21998891 0.19006278 -0.12879556 -0.08631275 -0.08842634 0.08548965 -0.04894246 0.7116855 -0.56061196 0.2590911 -0.7587041 0.60671514 0.18623115 -0.23634696 0.23943882
assertive.a.01 0.08377027 0.27739543 -0.34363058 0.14703448 -0.6915285 -0.27603436 0.387681 0.26958868 -0.25440848 0.21449277 0.19719541 0.16312043 0.31913403 0.3138036 -0.4010772 0.005672024 -0.27396128 -0.23212147 0.22203808 0.45024377 0.16205843 -0.051189024 -0.0824353 -0.07188739 -0.020016488 -0.7379042 -0.06827992 0.07762298 0.03507232 0.072190136 0.13181016 0.20504482 0.27612 -0.13095707 -0.11832396 -0.080908366 -0.23366097 0.6592735 -0.3039414 0.22196744 0.054317523 -0.0008503178 -0.092479415 -0.013451954 0.191301 -0.033897694 -0.12180983 0.3728643 0.10812644 0.18819718
free.a.01 -1.1667997 -0.27838492 0.17512324 -0.26067328 0.17429213 0.89907163 0.010225824 -0.74169004 0.58157396 0.69845384 -0.5984989 0.088541806 0.1226252 0.56661355 -0.044074267 -0.6838662 0.07908245 -0.30322072 0.697013 0.24265447 0.06024297 0.59806067 0.0859871 -0.28847033 0.4515563 -0.102543935 0.55140454 -0.5138629 0.13679026 -0.26083496 0.6628298 0.17284168 0.08520761 -0.049527835 -0.54103416 -0.38350242 0.7135261 -0.7757406 0.25661105 -0.16850673 0.98802865 0.33420372 -0.14699867 -0.34400263 -0.3254122 0.24013524 0.049916252 -0.4609053 -0.95955676 0.106227376
incapable.s.04 0.73938525 -2.0925853 -0.55423594 0.17429483 0.17099617 -0.050259423 0.62918574 0.27364197 -0.009083551 -0.059509914 0.008182006 0.23233944 -0.8547685 0.50177866 -0.2084255 0.036142543 -0.39705685 1.5571129 0.7949359 -0.4334691 -0.67449075 0.8263654 -0.62188864 -0.072777025 0.16432256 -0.19417499 -0.54548347 1.0299324 -0.114379294 -0.4267763 0.7502088 -0.6244938 0.116371095 -0.5788984 -0.38491848 1.369905 -0.3879135 0.6230096 -0.20704979 -0.17674825 -0.5059185 -0.9616965 0.022921776 0.7978726 -0.55295056 0.08393396 -0.88663924 -0.24892552 -0.11018897 -0.19271956
obvious.a.01 -0.22672054 -0.08604146 -0.21311769 0.037854463 0.16072795 0.18850054 0.40068042 -0.130876 -0.44200462 0.022694487 -0.1629137 -0.44872737 -0.028103897 0.08210452 0.24696758 -0.23875001 -0.06506618 0.20660974 0.016072668 -0.1900816 -0.026977489 -0.066385396 -0.27494094 -0.26421022 0.11111803 -0.0174578 0.033858746 0.15669674 -0.18905364 -0.26948667 0.13624041 -0.07670577 -0.06745612 -0.22988656 0.26743212 0.020075863 -0.12696342 -0.7220543 -0.11592377 -0.25606212 0.27491376 0.16931738 0.04104321 0.37585598 0.0137913115 -0.07873201 0.1482063 -0.1769738 -0.10859328 0.091186725
religious.a.02 -0.056428507 -0.5808783 -0.7291394 0.23974313 1.1401223 0.1978323 0.47200942 0.74836487 -0.05326051 0.3047732 -0.6061907 -1.3667724 0.5676758 -0.3607111 -0.47068825 -0.056113992 0.446833 -0.6113854 0.17037173 0.7804923 0.028122237 0.1411676 0.29271275 -0.7084333 -0.3431485 0.5418163 -0.37646428 -0.81437594 -0.13072345 -0.5419996 0.5394392 -0.16748387 -0.41298226 0.40264487 -0.29617718 0.38984108 0.6698151 -0.48749924 -0.6135404 1.1601118 -0.36712041 0.8299981 0.0577755 0.865778 0.31118545 0.6086994 -0.7039124 -0.21129385 0.053322867 -0.13640751
busy.a.01 -0.19103235 0.21518376 0.12559097 -0.275699 -0.3357616 -0.03964089 -0.21189323 0.20859866 0.20899771 0.011123956 0.13516667 -0.07723816 -0.32360145 0.14282174 0.015655605 -0.06231028 -0.19295369 0.0963211 0.20462447 0.0387819 0.060832378 -0.21473508 -0.024245286 0.17339098 0.10346069 0.1552497 -0.11002552 0.08395468 0.018567855 -0.39324194 0.03743008 0.20374967 -0.037085786 0.029667381 0.08832364 -0.2572578 -0.20367447 -0.13982628 0.10347972 -0.028409839 0.009162052 0.018733693 -0.03433744 0.005492533 0.2003552 0.121615715 -0.12308739 0.14530158 -0.06736885 0.16808642
residential.a.02 0.14682017 -0.22153541 -0.076882996 0.0025982826 0.102326155 0.03016283 -0.088126145 -0.26496822 0.1135871 -0.23892595 -0.39587367 -0.3026925 0.6404247 -0.06934776 -0.4088552 -0.12052085 -0.19140963 0.4116869 0.16967484 0.2122906 -0.42754945 -0.2786464 -0.3730031 0.10736596 -0.69629294 0.15024236 0.09085712 0.18323693 0.16630699 0.32409006 0.21556988 -0.22002213 0.04762532 -0.55293614 0.5833964 -0.00038519804 -0.12607065 -0.4088035 0.15524362 0.09244149 -0.08369013 0.09141011 0.011651749 0.32607526 0.42863306 -0.0605341 -0.04887847 -0.63162655 0.036773007 0.2534008
lost.a.03 -0.1359114 -0.39345926 0.26396838 0.3280202 0.24592671 -0.56605595 -0.09721752 1.0003114 -0.14344765 -0.22189716 0.5182767 -0.39874348 -0.6827911 -0.33114418 -0.12382635 -0.11674315 -0.75811 -0.46489626 -0.476544 0.02343981 -0.024808485 0.4282532 0.07936921 -0.1976527 -0.6565113 -0.3936775 0.08116172 -0.20090294 -0.42063552 0.3545156 0.9677018 0.6372125 -0.39926723 0.20036675 0.13995807 -0.37914923 0.3010147 -0.26738647 0.13637829 -0.41665056 0.51542866 -0.3402631 0.07774917 -0.5560276 0.19893067 0.15686229 -0.5998411 -0.082213506 0.3205508 -0.38066375
reliable.a.01 0.135289 -0.20768382 0.5626035 -0.03076542 0.535528 -1.9566923 -0.5059591 0.89968693 0.38783985 0.20291324 0.55362505 -0.64925486 0.5333071 -0.4538216 -0.34773958 -0.25146908 0.25307646 0.54400676 0.48593867 -0.44426474 -0.46664068 -0.0023952788 0.6500512 0.38401273 0.84539753 -0.6191207 -0.28977528 0.7802625 0.33325177 0.62694424 1.2848098 -0.5776257 0.98732907 -0.35064933 0.41142625 0.38733643 -0.22711866 0.7518333 -0.03619836 -0.19447322 0.7415271 0.03525975 0.09902015 -0.34828267 -0.62661916 0.5565428 0.4653883 0.3608642 0.87714124 0.64561135
desirable.a.01 -0.35752705 0.7404328 0.68802273 -0.040265206 0.2874159 0.19938652 0.29687774 0.6826102 -0.50943714 0.39882496 -0.048914365 0.057467856 0.45362464 0.09216148 -0.11264275 -0.4835447 -0.102023385 0.1139815 0.3007074 0.4062503 -0.72955775 -0.17265832 -0.5562009 -0.3573916 0.05929071 0.08988226 -0.11223961 -0.117247 0.13061376 -0.2677652 0.19151028 0.2833358 0.33011824 0.06603561 0.7361802 0.07686771 -0.77310103 0.44855928 -0.73075306 -0.26499915 0.19966163 0.02316304 0.43551165 0.28184313 0.35939282 0.03994657 -0.22615254 0.12152974 0.5584077 -0.01332282
cosmopolitan.s.03 1.1886307 -1.632278 -1.7466469 0.5916884 1.6550426 -2.348621 1.4282312 -2.409728 1.4424108 1.6172367 2.5363412 0.026457157 -2.5709915 1.9768379 -0.7886006 -1.9266567 -1.6370032 1.6917168 -0.94979644 1.3393475 -1.1477417 0.23456144 -1.4037094 2.0264637 -1.8998189 0.41671088 -1.1540272 -2.4614174 -2.8867676 3.552537 5.9881783 1.524368 1.1050537 -1.1918436 -1.8772193 -4.1551685 0.2534119 -3.017759 -2.3735116 2.0834866 1.0381043 0.05419487 -0.44139308 -0.64524716 -1.672741 3.2059846 -3.573203 0.29796484 -1.8986452 1.0550613
irrelevant.a.01 -0.047220673 0.008347317 -0.13536486 -0.077683754 0.036212604 -0.03454232 -0.014115707 -0.09253324 -0.0929326 0.08016861 -0.04189302 -0.103213 -0.097997345 -0.031260997 0.17145208 0.02968185 -0.18947709 -0.09707807 0.10121843 -0.12603094 0.100253545 -0.13451242 -0.0120076565 -0.030381316 0.0017959954 -0.080978066 -0.07914416 0.07319992 -0.19955905 0.21339153 -0.0701367 0.07149424 -0.07601322 0.046723094 0.07755287 0.114274986 0.05093109 0.14427665 -0.02732788 -0.12535216 0.018850477 0.19728716 0.11877528 0.023796326 0.059318475 -0.07054317 0.03387782 0.19042051 -0.082070805 0.09145618
subjective.a.01 -0.034929194 -0.40593997 -0.28696752 0.14295916 -0.28208768 -0.008800722 0.83313745 -0.16396965 -0.9001874 0.5810865 -0.42353162 0.06650934 0.025626792 -0.111166924 -0.99342865 -0.13534655 -0.2448412 -0.28562853 -0.2169336 -0.5666782 -0.20629416 -0.24149533 0.16298054 0.36375913 0.5654622 0.062512904 0.46512473 -0.3249423 0.066542 0.11173212 0.50378203 -0.18911372 0.08414379 -0.4352418 0.40128413 -0.057528023 0.25781056 0.77082497 0.91017795 -0.5126181 0.718172 -0.40879154 0.52508014 0.33208364 -0.14898808 -0.28118506 -0.15169922 0.10019913 0.5933397 0.49236396
alert.a.01 0.3960133 -1.2243336 0.4187111 -1.3069334 -0.22023012 -0.8342776 0.5770256 0.6151026 0.08184233 -0.48232025 0.9697256 0.19645408 0.52562827 0.36689764 -0.8883095 0.5299042 -0.6929244 -0.08461986 -0.07577634 -0.27115574 -0.93400544 0.23822659 -0.86658615 0.42704242 -0.36657774 0.21719095 0.50339687 0.56368244 -0.48540992 -0.36184895 0.7492229 0.30232394 0.90769845 -1.1792774 -0.24489103 -0.18795371 0.70739865 -1.2851497 0.31590027 -0.987445 -0.22423072 -0.11462139 0.21527773 -0.0057237535 0.65046245 -0.46326327 0.0044459715 0.17926024 0.6399497 -0.4194655
firsthand.s.01 -0.12272207 0.20273471 0.3932765 -0.0075426647 -0.2547517 -0.21774168 0.4144866 0.32882956 0.1669012 -0.15037856 -0.12671313 0.26733705 -0.02374233 -0.6191228 0.19298916 0.16543864 -0.3955305 -0.15931223 0.19277972 0.68306655 0.018814934 0.32870162 -0.41602513 -0.3555729 0.4203935 0.33995235 -0.4293087 -0.35888276 0.33164778 -0.5023201 0.12988949 -0.02021885 -0.09299118 -0.696677 -0.063186884 0.05700676 -0.5585193 -0.2707033 0.5281029 -0.2070652 -0.0702581 0.14300004 0.0079837665 -0.26652837 -0.31879508 -0.3899203 -0.5998432 0.7184828 0.08889661 -0.040962078
traditional.a.01 0.032233622 0.06913269 -0.60053 -0.78621274 0.15399174 -0.25679848 -0.073761225 0.4339232 -0.11146046 0.9625441 -0.33347815 -0.27427885 0.6599241 0.4581204 -0.34524775 0.53544885 -0.005694622 0.70531255 0.18126534 0.18994299 -0.96992743 -0.5072643 -0.6107054 -0.08259312 -0.41941452 1.026209 0.13965549 -0.0078293355 -0.7296568 0.22363986 0.6252754 -0.51521105 -0.6254684 0.0062758247 0.26793724 0.5525891 -0.032485887 0.57774115 -0.3814192 -0.13236333 0.39629677 0.38671076 -0.05954931 0.6033031 0.42725268 0.29363555 -0.19068472 -0.36822933 -0.61646986 -0.5593449
dangerous.a.01 0.39178455 -1.1002787 -0.18096986 0.14242846 -1.601786 -0.1766975 -0.44472614 -0.36597407 1.7573205 0.4748876 -0.07406007 0.0004871456 0.42992046 1.0801957 -0.57807636 0.22725941 1.2355928 0.7963954 -0.47475383 -0.24987793 -0.29134437 0.9863919 0.33324355 0.8364885 0.70645505 -0.40643492 0.7092048 0.122443 2.360608 0.26140317 1.3128333 0.038905103 -0.2040873 -1.3122758 0.17071106 -0.30718046 0.9836356 0.15144244 -0.3957382 0.6755296 -0.81156313 -1.0505944 0.9868717 0.7764123 0.73993546 -0.1901677 -0.5627913 -0.5436146 1.486525 1.0734239
square.a.01 0.2939522 -0.3486594 -0.020301638 0.084261954 0.65842986 0.12715246 0.23354195 -0.47790372 -0.51774323 -0.32315087 -0.007410233 -0.31896448 -0.11357862 -0.637117 0.453535 -0.05867132 0.05183584 0.36354455 -0.34497055 -0.28055578 0.17632897 -0.27471536 -0.38068557 0.1004855 0.0677845 0.0026143491 0.046482354 0.47893754 -0.44125086 -0.1962157 0.25207308 0.009364074 0.19445474 0.028401816 -0.3137835 -0.5916165 0.54907656 -0.13885093 -0.30920088 0.062989816 0.103380546 0.083973795 0.011116021 -0.4313477 -0.31881645 0.07460825 -0.05508623 0.028451527 -0.012320428 0.07273225
solar.a.01 0.17508768 0.22024786 0.105110265 -0.13528694 -0.17391911 -0.31544003 -0.113175265 -0.026700119 0.016033791 0.3653447 -0.10488127 0.0055141645 0.24797332 0.110689335 -0.03181278 0.11669392 -0.20319478 0.3973035 -0.19386743 0.07196827 -0.10514314 -0.21721618 -0.10478572 -0.318439 -0.052439105 0.10449895 0.076095186 -0.040111367 0.11810755 0.0029921085 0.09048396 -0.0890167 -0.37905058 0.065663695 0.24756412 0.06307168 -0.07262243 -0.029101586 0.022031855 -0.07113927 0.023280215 0.18552184 0.2427207 0.2582778 -0.025110962 -0.05139806 -0.025946274 0.029395344 -0.041141544 -0.21289498
seasonal.a.01 -0.33890656 0.10767744 -0.3636759 -0.64749455 -0.07837061 -0.4793836 -0.49335867 0.5247466 -0.25830775 -0.12883808 0.05107218 0.7353685 0.88545656 0.19239321 0.4807289 0.91384894 0.08341587 -0.4050585 -0.17003512 -0.700941 -0.39135948 -0.105715044 -0.17410575 -0.05660533 0.04593083 0.2729135 -0.20083165 -0.03971434 0.21826926 0.870379 0.6908236 -0.016199065 -0.19493884 -0.16411613 -0.31047803 -0.13635418 0.45618758 -0.123911 0.6671105 0.18740521 -0.3697995 0.15749972 0.14610094 -0.14227575 0.5074444 -0.11418481 -0.09277903 0.049099524 -0.23550649 0.48577598
illegal.a.01 -0.07074008 -0.8043311 0.04300911 0.37668222 -0.08015729 0.772991 -0.30356562 -0.46978453 -0.20311862 0.19595407 0.53396946 -0.0596847 0.38506612 -0.008901104 0.36156344 -0.3572229 -0.082239516 1.5107404 0.076048695 0.276395 0.11153345 -0.24113734 -0.07358106 -0.08267055 -0.1974693 -0.2443801 0.9962919 0.14173038 0.49375528 -0.50253236 0.49249005 -0.31082058 -0.14149852 -0.10270278 0.82476187 0.600475 0.33355233 -0.49753186 -0.28634518 -0.00014375662 0.091061726 1.1904347 0.9432399 -0.9185017 -0.30961314 0.44358176 0.012804209 -0.0012880046 0.811333 -1.0136712
acute.a.01 0.6156967 0.07451576 -0.104585975 -0.61430675 -0.3850977 -0.08624719 0.52096504 0.23641247 -0.036178302 -0.12353036 0.028435912 0.25267446 0.20340024 -0.24354172 0.1843466 0.5722982 -0.27235338 -0.16057302 0.16709726 -0.077449664 -0.12403451 -0.2688892 0.58569074 0.2832958 0.21065457 0.16233622 0.4129658 -0.46921638 -0.10549417 0.54944545 0.48442745 0.25828052 0.25447032 0.04142284 0.086331636 0.16360457 0.21403018 -0.038654495 -0.042431105 0.04678575 0.09210209 0.21883407 0.0088115465 0.1343365 -0.03283397 -0.10829234 0.07115414 0.11543286 -0.033949547 0.12532258
statistical.a.01 -0.12804924 0.15730569 0.24151886 0.17762026 -0.3537579 -0.5743509 0.1358529 -0.0044916496 0.23807445 -0.20040768 -0.5233146 -0.4746181 0.696 -0.457044 -0.2866235 -0.36794224 0.6379093 0.28135115 0.179136 0.49683255 -0.5109908 -1.0099533 0.53200525 0.34371036 -0.6178065 0.2791966 -0.8349839 0.13322665 0.64472926 0.036074582 0.46525607 -0.2584259 0.62714034 -0.91293365 0.48181978 -0.97656935 0.037534613 -0.36965466 0.6281374 0.2732952 0.01902664 0.93669456 0.69726396 -0.45829213 -0.2715713 -0.2937599 0.16011332 0.9739843 0.01187062 -0.2241976
equivocal.a.01 0.5768787 -0.25855643 -0.25339317 -0.3757898 0.39619923 0.20679532 1.0198405 0.27280226 -0.67095995 0.3363932 -0.6657439 0.0070217033 -0.09195284 0.3834347 0.2367782 -0.11187715 0.07452726 -0.8103349 0.5763431 -0.2607668 -0.7010519 0.3163747 0.08968571 -0.30315837 -0.60470325 0.08095511 0.035796516 0.591698 -0.14100954 0.8512716 0.32086062 -0.2118317 0.087914035 -0.65722394 0.78492326 0.24250187 0.0736919 0.7403921 -0.8151386 -0.58631736 0.30934948 -0.23598807 0.32762396 -0.05611207 -0.40386212 -0.2849089 -0.25669026 0.6320647 1.1007962 0.47886872
complete.a.01 0.116257854 0.13619621 0.27300507 -0.55287117 -0.06325812 0.12971115 0.0024914243 -0.06182197 0.005278627 0.12014507 -0.09433037 0.45599616 -0.20109124 0.23507503 -0.0121341115 0.24467857 0.007106096 -0.22613475 -0.05544423 0.8009647 0.0060477383 -0.0023002385 -0.3484085 0.08204405 -0.21904746 0.68313354 -0.3367238 -0.27529988 -0.2795316 -0.020473164 0.35689747 -0.1761488 -0.30473983 -0.27618772 -0.2834175 0.053901568 0.54986376 0.230231 0.2029754 0.1687273 0.017546935 0.03137487 -0.016749918 -0.05467715 0.44873843 -0.14429028 -0.15946048 -0.27441514 -0.18669958 0.38306123
color-blind.s.01 0.0040952107 0.0033067237 0.058397353 0.12037028 0.023233008 -0.01339575 -0.089256436 -0.13990119 -0.1448759 -0.06396928 0.10618244 -0.088059016 -0.057526242 0.0040848413 -0.015389372 -0.026583668 0.10397696 -0.08503721 0.043740142 -0.047053006 -0.019042948 0.14763616 -0.11265746 -0.008217627 -0.008691398 -0.13977434 -0.1937323 -0.16646199 -0.05979606 -0.0019120467 -0.13432766 0.15053394 0.023160791 0.04203481 -0.082525596 0.015856033 0.016045379 0.021229561 0.02011803 -0.0067728623 0.02865279 0.003309911 0.009164095 0.08478881 -0.010418196 0.12571137 -0.013025334 0.042382527 -0.14995958 0.089698404
digital.a.01 -0.6971988 0.07223283 0.6407521 0.44365418 -0.6819618 -0.43152782 0.026038839 -0.6573331 0.15415639 0.2135024 -0.025011519 -0.6819271 -0.23025519 0.9051923 -0.26072106 -0.063352026 -0.58800185 -0.33278912 -0.016445324 0.35027996 0.3470276 0.23957086 -0.33180147 0.04184137 -0.053134594 0.38034305 -0.48056105 0.041964233 0.49808216 -0.43615738 0.0280788 0.18026006 0.13393144 -0.9750469 -0.46178493 -0.8525719 0.13149248 -0.184098 0.055340465 -0.20361936 0.3446336 0.418704 -0.13892202 0.014650011 -0.008187729 -0.13518713 -0.14695221 -0.2563658 0.3817634 0.2710133
toxic.a.01 0.16066165 -0.12547077 -0.025480838 -0.27518675 -0.44559154 0.09290371 -0.16795512 0.1456763 0.21767397 -0.06774421 0.21362032 0.14627205 0.009791678 0.1640153 -0.16006045 -0.038501248 0.061227977 0.06496394 -0.049908273 0.05086278 -0.09518389 -0.19292969 0.2972134 -0.039719615 -0.0035369685 -0.23817146 -0.002766628 0.14562002 0.28705865 -0.08323407 0.11839979 -0.3112083 -0.025100498 0.01733613 -0.31220406 -0.2568647 0.2237574 0.043819595 0.53437024 -0.14863184 0.33630705 -0.2648584 -0.055099435 -0.12100117 0.62139934 0.1561858 -0.12196533 -0.3263708 0.0019063343 0.11457683
concluding.s.01 2.911198 1.065111 -0.755335 1.9462293 -1.194033 1.6790963 -1.2695917 2.7659292 0.7004133 -0.19430448 -1.0657673 -2.3287132 -2.895203 -0.4925145 1.7099845 0.09110893 -2.274897 -0.84780926 -2.9915552 0.5411864 0.66617554 -0.75199866 -0.17597038 -0.6954443 -1.6407669 -1.2121104 2.0005898 2.1263633 -1.2125942 -2.7787166 5.963655 0.38959202 0.47718343 2.1839936 2.236542 -2.0453854 2.99328 1.1250689 0.2675233 -0.2719543 -0.4964718 -0.92044336 0.050113637 -1.2011074 -1.1535493 1.3807738 0.37492368 -0.6127634 -1.4925609 -0.8732192
tough.a.03 -0.45196512 -1.4572929 0.018252565 -0.1672598 -1.7013676 -1.5035801 -0.15873818 -0.27419624 -1.3557445 0.5002872 -1.0265584 0.46225408 -0.7061283 0.8263174 0.9798744 0.76625586 -0.36290964 -0.087697126 0.022431633 0.084660225 -1.1113976 -0.14651081 -1.41443 0.25136513 0.3279322 -1.3672309 1.6048452 1.82817 0.021294583 -0.3681425 1.4939768 0.08246582 -0.3233042 0.26438612 0.23782566 -0.17152946 -0.4825918 0.5108054 -1.1021372 -0.9512363 -0.72894853 0.4622937 1.0393546 -0.29593927 1.2126234 0.08826498 1.223101 0.17357913 0.3520296 -0.051578075
complex.a.01 0.5995394 -0.30942938 -0.67283005 0.794082 0.18904094 0.2006698 1.2226478 -0.11568549 -0.34714562 -0.36031243 0.27376652 0.2546154 -0.4759134 0.3466545 -0.14160076 0.40584093 0.17776753 0.12811111 0.45360458 -0.67197496 -0.28677517 0.45718953 0.28331268 -0.16273151 -0.7177355 0.89839196 -0.11804384 0.2068521 -0.0930278 -0.1647186 0.6022891 -0.80613863 -0.14801705 -0.45570728 0.3307968 -0.27286914 -0.07571266 0.4359069 0.51403093 0.4416396 -0.2629002 -0.3303784 -0.291858 0.13688272 -0.5532048 0.5506781 -0.053950205 -0.11165113 0.16509327 -0.09784653
part-time.a.01 -0.06838583 -0.22139667 0.15346497 -1.0402524 -0.2632752 -0.4419105 -0.43508992 0.37531838 0.05839624 -0.41838324 -0.20433685 -0.08324541 0.44014227 0.15134537 0.14308147 -0.48095393 -0.13369845 0.12776218 0.27805462 0.25297794 0.3053021 0.18472576 -0.2316416 -0.16857493 0.25807723 0.6534466 0.6642144 0.046621367 0.057466123 -0.1568825 -0.07336295 0.08874154 -0.47402808 -0.050656796 -0.20291987 -0.120958515 0.0015325086 0.13729371 0.29927275 0.19864626 -0.026967563 -0.3915822 -0.30137366 0.26421958 0.2914498 -0.5605726 0.5849981 0.20728119 0.35859123 0.48302084
steep.a.01 0.066942684 0.2607221 0.59072113 -0.017867932 -0.33606187 0.78651226 0.204441 0.39090228 -0.44711906 0.279165 -0.62642807 -0.28073508 0.5196462 -0.1702635 0.091374874 0.4202026 0.435074 0.039273288 0.09508151 -0.45818883 0.011120429 -0.43002412 -0.4359376 0.25533783 0.010639449 0.24585524 0.44779316 0.36289302 -0.3157366 -0.17169121 0.28021106 -0.4998913 0.2733771 0.11818465 0.34194666 -0.54234827 0.24896163 0.024500605 0.23474847 -0.16312136 -0.29442003 0.56684864 0.14711419 -0.47852534 0.40145394 -0.7668884 0.6615069 -0.86991894 0.42340177 -0.5647945
human.a.01 0.16132285 -0.9354961 -0.33369097 0.29405013 0.86441314 -0.16757841 -0.032230347 -0.83491266 1.1401067 0.49016905 0.36323184 -0.011131352 0.5878341 0.082837105 0.25938302 -0.6034207 0.28622994 -0.3342394 0.61275846 0.6799381 -0.80348456 1.0443287 -0.5047747 -0.68749183 0.61156654 0.52917945 0.26340005 0.056884717 -1.170277 0.048584875 1.023585 0.06799281 -0.14671008 -1.0506164 -0.100270644 0.28968856 1.1635914 -0.63962114 -0.47034088 1.363526 0.30226257 -0.5075898 0.06806543 -0.6040507 1.5162896 -0.5436657 -0.90823513 -0.15796985 1.0680978 -0.8347328
happy.a.01 -0.55117005 0.18554744 -1.2136613 0.5461201 0.24338914 -0.08324076 0.41067663 0.2925474 0.46989498 0.31567264 0.08050824 -0.4250046 -0.035649307 0.619229 0.65244377 0.13936351 0.57560337 0.55882734 -0.13439235 0.79943836 0.9629624 0.90106404 -0.63996726 0.2578223 0.7512161 0.11211589 0.3439366 0.21077645 0.8140483 -0.087035686 0.32816586 0.23360406 -0.1063186 0.39118698 0.65577537 -0.6976572 0.22108223 -0.13105793 -0.012631124 0.03248297 -0.04869677 -0.7085809 0.052670974 0.1576531 -0.4348671 0.122706845 0.23332667 -0.2812777 -0.5483073 0.6841207
handy.s.02 -0.26693708 -0.17944275 -0.02095225 -0.1160294 -0.13687614 0.044163305 0.0043382826 0.014149676 0.20369361 -0.066850714 -0.124834076 0.13385199 -0.056629375 0.228601 -0.19171569 -0.06902858 -0.056241285 0.08665664 -0.032346986 0.10062274 0.40106878 -0.136617 -0.10357369 -0.15790129 -0.026897572 0.15125205 -0.22494914 0.075443305 0.07983124 0.0037061223 -0.15601063 -0.15084587 0.021636274 -0.08500635 0.0912293 -0.18244284 -0.11991819 0.052128136 -0.08249294 0.20947401 -0.21979411 0.052633032 -0.34389114 0.30951214 0.06277683 0.08079226 -0.006455896 -0.30396655 -0.24114913 0.22348835
standard.a.01 -1.4897687 -0.08150367 0.2035565 0.4977939 0.4282853 0.13256104 0.16541035 -0.14591052 -0.78104454 0.8304037 -0.4398705 0.226595 0.044947527 -0.26175997 0.47668165 0.5872003 -0.6039277 -0.6577742 -0.89313805 -0.38608563 0.3613383 0.4086266 0.056883015 0.18543828 -0.6322289 1.0775985 0.1372192 0.008922105 -0.56822014 0.20850112 0.74106777 0.4109412 0.14647254 0.1746911 0.6626312 -0.32321277 -0.47212496 -0.1587083 -0.27223793 0.9040785 0.43540925 0.18952082 0.12441488 -0.14712454 -0.81398535 -0.07492323 0.34407565 0.6389695 0.5249495 -0.22175957
extraordinary.a.01 0.22259586 -0.0675422 0.4428523 -0.14794376 0.04555942 -0.24144529 0.13182007 0.055868823 -0.056804243 -0.07453714 -0.1635194 -0.12541924 -0.039863303 -0.48399788 -0.31519312 -0.31767336 -0.012773139 0.40522134 0.25472075 -0.3270697 0.0323901 -0.026228605 0.16857408 -0.29184067 -0.24338797 -0.18393402 -0.5235746 -0.15917757 0.45401785 0.18942472 0.26389366 0.25595692 0.15507887 0.34430543 -0.09510483 -0.06040153 -0.22226906 0.45473796 -0.24810892 0.094277136 -0.16290724 0.05644639 0.109695986 -0.17330647 -0.14505716 0.34297317 -0.03211807 0.6677823 -0.3173239 0.23964164
wrong.a.05 -0.12238987 -0.2930248 0.7840813 -0.28685343 0.41207457 0.5436757 1.1549568 0.26022956 0.1111777 -0.29997352 -0.38024035 -0.53103465 -0.17146443 -0.1899751 -0.057909865 -0.19062391 0.577552 -0.21149202 0.16080499 0.35117078 -0.20198072 1.0274415 0.12386799 0.37559438 0.1308985 0.3751331 -0.64687926 0.5082593 0.18484482 -1.0942193 0.056268547 0.19506074 -0.2736069 -0.0299972 -0.25752884 -0.22149487 0.5384976 0.092824586 -0.3212512 0.39347902 0.5335417 -0.3969287 -0.037366446 0.52707595 0.18488508 0.19684093 -0.36173138 0.3030879 0.6853479 0.22348163
ill-famed.s.01 -0.2733334 -0.21943246 0.36415732 0.5373366 -0.60217303 -0.18347394 0.85453653 -0.27432144 0.043652236 0.24284206 -0.14013879 0.055295806 -0.22384603 0.046746526 0.4111055 -0.5130714 0.1592577 0.19899338 0.059769645 0.63690865 -0.51886123 -0.77322185 -0.3136227 0.22522342 -0.93629444 -0.34123388 -0.71550333 0.18943241 -0.31641787 0.006943658 0.49774954 -1.1612557 0.6804192 -0.23005421 0.03642518 -0.7604479 0.40804034 -0.7624772 -0.59147424 -0.25235838 0.19323665 0.075141735 -0.039178964 0.31311777 -0.08639255 -0.41166982 -0.56381804 -0.97724754 0.17082705 0.13679187
chronic.a.01 -0.20527571 0.47491717 0.14125738 -0.098988995 -0.84762836 0.34152874 0.2793277 -0.40753442 0.5824874 -0.055729914 -0.31750715 0.6238219 0.28648552 -0.359176 -0.0910465 0.55044574 -0.11133899 -0.08765778 0.16656338 0.11253964 0.08212337 -0.12301196 0.076892816 -0.08134994 0.37230963 -0.042206403 0.020206304 0.12617745 -0.1717506 0.41212273 0.27057374 0.204233 0.48715702 0.21121152 0.0043633874 0.5227287 0.13797377 -0.34419897 0.78312284 0.4402101 0.0737312 0.7191258 -0.18708727 0.19721018 0.62415504 0.37863863 0.16647115 0.16533136 0.013057665 -0.04372597
hot.a.01 -0.16901854 -0.46571642 -0.14883004 0.055843487 -1.3558775 -0.22184284 0.13529196 0.058987208 0.26484323 0.091687694 0.12693506 -0.38419515 -0.005450863 0.80791336 -0.16689737 -0.7307102 -0.38225803 -0.005879197 0.028943045 -0.27231306 -0.3864594 0.6021775 0.14727321 0.49153048 -0.024957975 0.4054296 0.161734 0.4494761 0.46044445 0.02545295 0.102951854 -0.55198944 -0.0050360654 -0.4560528 -0.26385844 -0.38348714 -0.108555056 0.0761337 -0.0042947205 -0.4408385 -0.13733007 0.10957461 0.25752294 -0.22220379 -0.2487297 0.23834938 -0.63361025 -0.25034055 0.19348435 0.544689
flat.s.12 1.0382823 -0.75369084 0.7409557 -0.2954668 0.507113 0.50765973 0.4618056 -1.1714884 0.19605601 -1.3006225 0.004122605 0.5879768 -0.5128427 -0.7277676 0.101522595 -0.6232458 -0.7205953 -0.30402473 0.68796337 0.2854766 0.35289326 0.72376406 -0.23286445 0.4793373 -0.18367279 0.81813186 -0.054149795 1.004302 -0.49201503 -0.00035417933 0.9916345 -0.7947238 0.5086234 0.2178334 -0.28898746 -0.7901886 0.046214633 0.6455874 0.79505026 -1.1060297 -0.1341477 0.08231723 -0.1063259 0.3123559 0.60750246 0.345534 0.7465628 -0.12777834 -0.11993729 -1.2102158
optimistic.a.01 -0.14953093 -0.12757476 0.12576316 -0.032353994 0.068249166 -0.23106916 0.07649076 0.04127048 0.016654108 0.13529944 -0.049833734 -0.12096692 -0.27399126 -0.08777469 -0.15317263 0.14333488 -0.5042568 -0.111526266 0.019629667 -0.04765101 -0.28068414 -0.04493064 0.13220094 -0.09926775 0.036006853 -0.14557205 -0.241015 0.13296032 -0.16958518 0.21831366 0.042252526 0.3007124 0.057856478 -0.19851641 -0.08321809 0.075401165 -0.23097469 -0.040430635 -0.23499 -0.009817736 -0.06334753 0.056665804 0.058078554 -0.32307425 0.42263386 -0.15742326 -0.26466614 -0.17466743 0.028044678 -0.106683776
uneasy.a.01 0.68404466 -0.089030854 -0.7531249 -0.16198267 0.25305456 -0.12071265 -0.050358396 0.004482015 -0.5775095 -0.20033513 -0.41762024 0.8517688 0.06789952 0.38857868 0.332982 -0.1986091 0.919764 -0.67057246 0.08534943 0.35179248 -0.35072875 1.1029602 0.15054266 0.21624143 -0.50840956 -0.15031174 0.48498747 0.7179411 0.04781893 0.6727274 0.029298518 1.0555611 0.0058634942 -0.4494926 0.1956408 -0.7561079 -0.3096321 -1.0457174 0.34743017 -0.74122125 -0.03664527 0.6119312 -0.36359176 0.19611347 0.65871394 -0.2041518 -0.2938708 0.07561506 0.7857994 -0.15216868
heavy.a.01 0.09184257 -0.09527332 0.6217694 0.10788947 -0.21993464 -0.19246629 0.287518 0.04338436 -0.049875885 0.030988362 0.11297385 0.16844253 -0.5080707 0.01916176 0.10441102 0.04841508 -0.24022476 -0.1056695 0.006499516 -0.21162634 -0.005092772 0.44765475 0.033975936 -0.47954622 -0.23598123 0.16602586 -0.39265722 0.14821164 -0.22835411 0.46731615 0.6844142 -0.20174272 0.5589229 0.5294248 0.025431575 -0.058506094 0.017380636 -0.7208843 0.16165926 0.20904052 -0.23674971 -0.37964627 -0.33686653 -0.43762374 0.020720897 -0.42113337 -0.19606087 -0.3460008 -0.46163973 0.09120996
retired.s.01 -0.19496025 -0.013238273 -0.012577478 -0.0045001567 -0.090617836 0.056039523 -0.30352592 0.08376893 0.13417378 -0.037386578 -0.07322372 -0.062985495 -0.084102854 0.20627864 0.034797642 0.06407316 -0.1588572 0.23706953 0.14359038 0.14129812 -0.062203575 0.079220854 -0.07379417 -0.09965335 0.07209884 0.044070993 -0.18978326 -0.027776623 -0.0035666537 -0.08808788 -0.079281166 0.067459844 0.06811017 0.05927688 0.07695478 0.11336063 -0.112820104 0.14779449 0.07599311 -0.20363835 -0.014547922 0.046126947 0.22437048 0.077325076 -0.041228846 -0.046259064 -0.0030139484 0.04949817 0.0023118574 0.12557897
ample.s.03 1.0191212 -0.51183015 1.656451 -0.7609653 1.4347812 0.19604751 -0.07130939 1.0285696 0.74405277 0.38403884 0.028771574 -2.4200249 1.6733363 -1.4053276 -1.2466687 0.55116254 1.9975182 -0.39486194 -0.8333596 -1.0785396 0.6462634 -2.6892529 -1.6966598 -1.155868 -0.48490694 0.8058731 -1.0694994 1.2002095 0.7251327 0.9493163 2.909113 1.2488309 2.4409673 1.2073529 -0.13327485 0.88990724 -0.76332796 0.029645689 -0.20934825 -0.6789304 0.9808988 0.5770202 -1.0874109 -0.0034586121 -1.1937882 -1.6611394 0.6455041 2.7585866 -0.9817219 -1.1291113
drawn-out.s.01 3.2909858 -0.13057108 -3.356566 -0.49735233 -3.9836898 1.5523878 1.3262889 2.3365948 0.3765989 1.7571079 -1.1756629 -0.03678586 -2.7421954 -0.7716443 2.7498386 -0.6091498 -2.7526824 -1.7276833 0.29693708 0.88558936 1.3153003 0.4163472 -1.2941263 -2.6315222 0.47475842 -1.7042831 1.3756676 -0.50297874 1.3918213 4.982828 7.3927155 -2.1682107 -0.06773222 -0.49709672 -0.9430301 -1.1910976 -1.1242133 -1.028594 -0.83980465 -0.49086478 -2.6218555 -2.071269 -1.0331101 2.8835964 -0.15352932 -1.7918377 2.492523 2.0211225 -2.7623801 0.088060476
cosmetic.s.01 -0.4194906 0.42053956 -2.2680502 -0.6635983 -0.05837898 1.2579876 0.28362396 -2.6777256 -1.5217646 0.899538 -0.19457565 0.11266878 2.5690398 -0.15070084 -0.53825295 0.27819514 -0.06459258 -0.12008757 1.4787589 -1.7563238 1.3469901 -1.7589965 -1.7580311 -2.6004176 -0.24532698 1.393858 -1.1957148 0.45328864 -0.14112988 -0.86927295 2.0585954 0.22094898 0.8179854 -1.2954164 -0.194983 1.9524595 1.3782318 3.6586187 -1.2077667 0.3595271 -1.1528883 1.0068109 0.98116106 -0.2939531 1.3771013 -0.48436242 -0.20873353 -0.51077086 0.84663516 0.015897889
responsible.a.01 0.51463693 -1.0179267 -0.8975664 0.0015563612 -0.31692234 0.21580496 -0.34279218 -0.25858015 0.3080926 -0.48748592 0.8430377 0.12039376 0.5417174 -0.6612886 -0.3719396 -0.5699026 0.24313094 0.99352777 0.47346196 0.76758564 -0.9220256 0.5381861 0.4688693 -0.68163127 -0.9819477 -0.5764815 0.39436215 0.6924703 -0.25101954 -0.790283 1.0614991 -0.32222858 0.37748763 0.2661897 0.40299165 1.3423119 -0.36606917 -0.9104844 -0.2977766 0.28546822 -0.65728515 -0.7690144 0.77207774 -0.16154814 -0.22466712 0.12070403 -0.59153533 0.15909036 -0.6169724 0.87553185
electronic.a.01 -0.6028653 -0.0961208 0.021149546 -0.043772563 -0.39969286 -0.1872294 0.057740632 -0.60724396 0.3038255 0.28707618 0.48890933 0.2188237 0.013375247 0.057071522 0.39338636 -0.38305014 -0.588475 -0.3631212 0.28378963 0.13111298 0.51566905 0.40579328 -0.20378076 0.27418536 -0.43164316 0.37361044 -0.23253013 -0.48849174 0.110142596 -0.33112863 0.37153593 -0.83007824 0.032089647 -0.30845028 0.3535818 0.683875 -0.16232415 -0.5326715 -0.08123008 0.370049 0.2960435 -0.17878437 -0.40569144 0.05895011 -0.23608217 0.09509828 0.27037477 0.17366736 -0.21290287 -0.33127442
solid.a.03 -0.7790642 1.0077212 -0.094837986 -0.41193405 0.61891735 0.7579563 0.73740214 -0.19474378 0.116330385 -0.22560284 -0.04704876 0.5036966 -0.1358658 0.9837367 0.33542004 -0.17765571 -0.038321543 0.1072163 -0.50554794 -0.10812993 0.16945638 -0.14403646 0.71433216 -0.6844569 -0.25005722 0.28092638 0.3001128 0.16859567 0.4524406 -0.49347228 0.41148174 -0.3808582 -0.23932156 0.26551086 0.7254601 -0.23404634 -0.18753234 0.5084534 -0.43282312 -0.56218165 -0.4078085 0.566241 0.084405445 0.7473273 0.99184054 -0.5618136 -0.25309774 0.44275802 -0.14966433 -0.6601018
quantitative.a.02 -0.8307289 -0.35468477 0.691481 -0.8296453 0.18028657 0.2860135 0.91218126 0.3460322 -0.24822168 -0.7018618 -0.39902878 0.6976083 -0.31890586 -0.4355015 -0.037054703 0.542675 -0.4102634 0.14974703 -0.49649704 -0.93799126 0.43706024 0.16808489 0.19886465 0.7834514 -0.54868937 0.86959785 0.12218053 0.7534999 -0.2721628 0.23268196 0.6087201 0.21931426 0.56244767 -0.2544447 -0.82209593 -0.77589583 0.11190641 1.0590591 0.011427924 0.50415087 -0.14920738 -0.7001167 -0.27843806 0.4573346 0.12338058 -1.451503 0.57680863 0.42894936 -0.04629728 0.06651775
valuable.a.01 -0.40762258 0.33647949 0.29453048 -0.017400822 0.15513872 -0.20646156 -0.6299315 -0.01085091 0.13632184 0.5442971 -0.63387537 0.51825625 0.22180128 0.24852711 -0.032825533 -0.29887572 0.51492995 -0.40792435 -0.0155954 -0.387935 -0.17941412 -0.16262403 0.6303356 -0.46992424 0.30227843 0.5469656 0.2446234 -0.38853684 0.13438307 -0.049735904 0.37407276 -0.25472316 0.5870474 0.053377945 0.44334924 0.8154937 -0.36117643 0.11307096 -0.25489423 0.6553451 0.46569872 -0.5374551 -0.48754647 0.12578635 -0.06251942 -0.46009734 -0.45276067 0.12265713 -0.027164154 -0.23265778
stupid.a.01 -0.36435652 -0.31841767 0.069285095 -0.2907353 0.32613856 0.17593183 0.18169785 -0.29357454 -0.3258513 0.33172268 -0.17627183 0.17285001 -0.052662354 -0.065337665 0.07665153 0.25868443 -0.017230028 0.669426 -0.062010735 0.24011715 -0.5540605 -0.19762596 0.22031565 -0.22901963 0.47122148 -0.30404875 -0.45888957 0.5461932 0.15962754 -0.23779418 0.07862642 -0.05866803 -0.13304946 -0.021736253 0.09474107 -0.5615114 0.41049153 0.18977845 0.0520186 0.10071381 -0.26922363 -0.59178376 0.07213059 0.25054643 -0.12109339 -0.2428174 -0.18039793 0.3469903 0.5400382 0.32260266
subject.n.06 -0.059141252 0.19735642 -0.4399687 -1.0903054 0.27323386 0.93777007 1.6383142 -0.58201903 -1.0408505 -0.027918428 -0.70409924 1.0329876 -0.29188076 -0.37158605 0.27756378 -0.28741926 -1.9193575 -0.77540296 0.9431142 -0.8519229 0.56769085 -0.5198618 -0.003216819 0.5044562 -0.3859421 -1.207301 -0.83194774 0.40437093 -0.8289332 -0.34893173 1.8210528 -2.4401572 0.47782516 -0.66117704 -0.005819131 -1.4767631 0.538152 -0.22692744 -0.09209178 0.120567 0.6614528 0.41842908 1.1721895 0.78969985 0.5548665 -0.18921556 0.28340873 -0.23616064 -0.076740526 1.0152429
prize.n.01 -2.3132567 2.114635 0.27125642 -0.18318246 -0.07426751 1.2489154 -0.22903389 -0.40849397 0.30333975 0.22254615 0.28343552 1.119083 1.4950677 0.030972822 1.2013328 -1.1569698 1.8550911 0.36019355 -1.3651842 0.10215157 1.3062972 -0.68997943 0.32804924 -1.3884118 0.68351334 -0.39755663 -1.9340457 -1.8519223 -2.9039996 -0.15601663 0.69900066 -0.5638573 -1.2825869 -0.45776793 -0.12062904 1.0291505 0.142326 0.6643421 0.11828978 -1.1887863 0.7468842 1.373719 -0.6294221 -0.49388143 0.18964407 -2.281183 -0.2612424 0.16743459 -0.5982566 -0.8190418
cup.n.02 -0.25152358 -0.21264492 0.030660179 0.3718481 0.26229563 0.026567323 0.3333624 0.3299189 0.004254808 0.22700167 -0.11307834 0.2411168 0.08676274 -0.70618004 0.028064368 -0.30583927 0.21390328 0.05768085 -0.53031445 -0.46500504 0.028905315 -0.13580419 -0.68106157 0.5768946 -0.14432336 0.27209073 0.28770384 0.14326254 0.024330966 0.33305183 -0.020196345 -0.0869158 -0.73026985 0.489281 -0.13715707 0.17509499 -0.14855203 0.054559313 -0.10291959 -0.50749373 0.51683015 -0.22945091 -0.11059225 -0.14870124 0.2680153 0.22326554 -0.25853437 -0.0022655819 -0.31649342 0.029486228
university.n.01 -0.3456315 0.059912045 -0.39195132 -0.9295564 0.037399426 -0.09650974 0.39923105 0.05685414 -0.12551065 0.041993268 0.104408644 -0.100443296 -0.2638517 -0.5306913 -0.039839458 0.70116454 -0.096997894 0.6282921 -0.6493392 0.5502186 -0.03633449 -0.40269172 0.09424768 -0.39896566 -0.2879323 -0.12383455 -0.02968171 -0.3257652 -0.28464502 -0.069405966 0.47499758 -0.6464409 -0.18566851 -0.7344793 0.12274195 -0.07734461 0.0040267934 0.028989043 1.0643306 -0.09416824 0.24091423 -0.29693142 -0.11920541 0.4142162 0.12127373 -0.30619535 0.5530374 0.19097899 -0.6918725 -0.18287067
library.n.05 -0.09074987 -0.016446827 0.09786768 -0.008235369 0.42312425 -0.21381785 -0.20426224 0.07549514 0.080320686 -0.15346402 0.02284944 -0.21031952 0.19706917 -0.18999337 0.2248123 0.21092878 0.07594372 0.15969494 0.28629893 0.2366179 0.3279663 -0.35380808 -0.037881155 0.14793795 0.18541415 -0.18894921 0.27805057 -0.09291759 0.002223144 0.0041747936 0.10417965 -0.222892 0.13139187 -0.37192982 -0.078489706 -0.026250485 -0.051289424 -0.0054384544 0.29022196 0.007969807 0.20164761 -0.011688601 0.33556718 -0.022608453 -0.55537254 -0.022059051 0.10433047 -0.36974704 -0.19679959 -0.4976213
competition.n.03 -2.5135105 1.2945262 -1.8928975 1.9346529 -2.3382928 0.29364794 -0.53308463 1.2907488 -1.9260952 -0.26547956 1.0726887 -0.2712349 -2.0908763 -0.70370066 0.373504 -0.46135893 0.47250512 1.7336141 -1.0924951 -0.07606922 -0.57323986 -0.63533694 0.027293805 1.6839588 -1.0417587 -1.6821476 0.36897555 -0.15010315 -0.29377055 0.015430568 3.3070393 1.9602249 1.6943232 -1.2936529 0.4664743 0.77918714 -1.9089038 0.75821376 -1.960934 -1.1381081 -0.89757735 -2.3423696 0.4679169 1.654061 1.5715014 1.0409404 0.28411338 0.25571296 -1.5205696 0.11836985
legal_profession.n.01 -0.16541351 -0.11512241 -0.24468762 -0.30744857 -0.03376305 0.059879053 0.028583337 0.021336868 -0.03370852 0.011370717 0.055198077 0.18575314 0.27179974 -0.26714453 -0.23181924 -0.17141 0.26949334 -0.18557154 -0.060490858 0.1605671 0.3170644 0.05059006 -0.12067649 0.21703455 0.084750734 -0.062929474 0.027771194 -0.07588872 -0.07394462 0.0076460075 0.111137606 -0.12833771 -0.09033597 -0.05519272 0.07620911 0.081988685 0.16741735 -0.29028124 0.29610828 0.021319857 -0.0027543632 0.2854649 -0.0554115 0.35320023 -0.04081209 -0.04910146 0.17476408 0.061223272 -0.0048209853 0.069167815
percentage.n.01 -2.8472142 -1.940319 3.9022694 2.3670409 2.8451293 1.9463992 -1.061047 -2.8331642 -1.5806398 0.45397213 2.4757636 -3.897089 3.4998174 -0.64365333 0.13759466 0.38004914 -1.5979911 -0.62156206 -0.39815396 1.0985124 0.9347242 -1.4478514 1.5130624 -0.28475687 -1.2068887 1.6007417 1.4015605 -1.3201728 -0.41735715 2.1758711 5.542697 3.5028837 -0.10343306 2.6277127 -0.4405314 -3.0702796 -4.1730175 0.7862358 3.092424 -1.373663 -1.6814009 -1.4393721 1.2182974 -1.886563 -2.1167884 -1.4777228 -0.1737635 0.6096201 4.0885067 0.5424564
finger.n.01 -0.059889972 0.019546485 -0.0036429889 0.008663018 0.079336 0.21329369 -0.23552683 -0.08378063 0.31539583 -0.10226144 0.03186181 0.22356169 -0.054154605 0.28780586 0.08223242 0.24029334 0.33980963 0.09731083 -0.15008292 -0.3776171 0.07848586 -0.099922486 -0.021698207 -0.082826816 -0.08755064 -0.060722265 0.06274716 -0.15728153 -0.048441015 -0.57754946 0.29732957 -0.08871028 0.5195236 0.001832401 -0.15778747 0.29115537 -0.24599841 -0.13919999 -0.11908061 0.1772784 -0.044446852 0.28586537 -0.067986734 0.026638333 0.17692403 -0.043594237 0.16549805 -0.44548643 -0.15345132 -0.057659373
manner_of_speaking.n.01 -0.39214355 0.5808686 -0.62077755 0.53919643 0.25855651 -0.15965246 0.5742928 -0.96058935 0.8298759 0.00448982 -0.26540625 0.6919503 1.1389201 -0.14819705 -0.8964326 0.95536387 -0.7309995 -0.14073718 -0.2152381 -0.7542827 1.4585658 -0.0896342 -0.9620769 -0.77672476 0.6600628 -0.3451681 1.195595 0.14618725 -0.44868827 0.60375035 1.943889 -0.023951333 -0.5000336 1.2431198 0.49399704 0.72406095 0.3842799 1.2420331 0.12487058 0.9076896 0.17646015 0.7020243 -0.3652185 0.71995485 1.2652295 0.8473729 0.19759044 0.11714285 0.17285782 0.5544069
presence.n.01 -0.011665808 0.14903052 -0.033052046 0.007125334 0.15583502 0.060570788 -0.020822052 -0.2141086 -0.040667497 0.19046988 -0.08475987 -0.06192238 0.010732337 0.074215725 -0.09830918 0.24848291 0.23544712 0.046812944 0.02421419 -0.06264443 -0.18040387 -0.069342315 0.13842148 0.17881921 -0.22680406 -0.0021918907 0.06887756 -0.11199865 -0.05168787 -0.007222762 0.0036039094 0.09193296 -0.07570064 -0.15587561 -0.29120472 -0.12089492 -0.23077981 -0.16884476 0.07641453 0.18552445 0.07977492 -0.057058547 0.10051709 -0.19918233 -0.050333336 -0.13024409 0.09069987 0.046272792 -0.14525394 -0.029365346
campaigner.n.01 -2.1586914 1.1262861 1.072322 0.59689397 0.25217736 1.5799526 0.18200724 -0.3420257 -0.49470893 0.27074283 -0.88227093 -1.2223018 0.5412338 1.839768 -0.2671846 -1.7589698 1.9707333 0.5730976 -0.87286675 0.6984319 -0.99739033 0.24674785 0.51237416 -0.7733443 0.5431717 -3.3757021 0.8652844 -0.36504212 -2.91129 2.6960313 1.2262739 -0.43521893 -2.449278 -1.2656549 -1.8500823 -0.4574305 -0.78432655 1.8440874 0.46771982 -2.0441222 0.47179362 2.8731873 -2.1247668 -1.6183089 -1.1900204 -1.4716941 -1.4988884 -2.0342114 2.3604019 0.9363912
gentleman.n.01 0.5257463 0.2621716 -0.32972777 -0.5040998 0.5963601 -0.28691742 -0.47946525 -0.16757274 -0.498614 0.35585442 -0.0044101486 0.53308 -0.34895158 0.21885177 -0.04420159 0.33757037 0.039612647 -0.11762433 -0.05207504 0.0038194517 -0.60348207 -0.26456955 -0.26035294 -0.0110082505 0.14862159 -0.32261685 -0.05413696 -0.12949902 0.03869375 0.21100113 -0.008736115 0.33683375 0.20885639 0.19961242 -0.5103013 0.16891217 0.19725443 -0.2133695 0.028887713 0.29331902 0.4696837 0.2632485 -0.08604338 -0.41257787 -0.31490657 -0.21707729 0.23167719 -0.6876523 0.17836149 -0.019627187
pension.n.01 -0.11071464 0.11708077 0.1803516 -0.09264386 0.0011925142 0.08054491 -0.022480285 -0.0881628 -0.02785171 0.05316712 -0.04888977 0.013159813 -0.05545646 0.14250053 0.119680434 -0.11375735 -0.07733066 -0.08791007 0.16816032 0.11027283 0.0383049 -0.19880804 -0.19396201 -0.042029258 -0.21588601 -0.2232591 0.0018881074 -0.15642211 -0.27365434 0.28487885 0.043609142 -0.03170221 0.014404645 -0.0438217 -0.2701544 0.112235464 -0.25526178 -0.1844369 0.17739287 0.16786355 -0.11799107 -0.12634853 0.287911 0.040187605 -0.12676807 0.053963233 0.12417489 -0.07031858 0.18320163 0.079875246
weather.n.01 -1.1365023 -0.24843132 0.11767244 0.0019083439 -1.4777158 -1.8568733 -1.0521601 -0.32943133 1.11476 -0.86883444 2.3899407 1.0940548 1.5669701 0.13662271 0.45741886 1.1595852 -0.16442633 -0.18180798 -0.8000404 -1.3516911 -0.61863756 -0.20906472 1.5581813 -0.3090784 0.555338 0.6864789 -1.2928804 0.30001718 1.4212899 2.3564422 4.2726555 0.13983352 -0.32290658 -1.5083262 -0.7509058 0.7055634 0.22186387 0.8331549 0.079317145 1.2761195 0.4233612 0.3656449 1.3603827 0.48327625 0.108028226 -0.6268249 -0.7521134 1.3047965 0.5733081 1.5868229
youth.n.03 -0.22021213 0.25934863 -0.38143125 -0.68111384 -0.05605692 0.27373174 0.0607908 -0.19286686 0.28056383 0.37884393 0.044474848 0.050118096 -0.24594635 0.16015123 -0.25537094 -0.26818174 -0.3718583 0.10791632 -0.22960651 0.23553592 0.43766415 0.053973638 0.056421354 0.12652755 -0.14630556 -0.050527226 -0.08179754 0.15802929 -0.13679156 -0.03416277 0.70194304 0.19052926 0.06670124 -0.27210104 -0.15770605 -0.2228701 0.057952333 0.15671502 -0.24109119 -0.13320155 0.060518224 -0.2910201 0.22540402 0.016278878 0.41759574 -0.1563292 -0.22467357 -0.1151484 -0.474653 0.287324
screen.n.04 1.0803794 -0.7651095 0.37353912 -0.7400389 0.618316 1.0907332 0.7984194 -2.9022896 0.07421323 0.97101665 -0.95452094 0.8651223 0.7470628 2.0643628 0.82467335 -0.5143353 0.8253465 1.4204359 -0.4567177 0.59848595 1.9164867 0.8395093 0.671396 -1.5001758 -2.1539712 -0.3955136 -0.5537054 -0.19549626 1.2667013 -1.7338443 3.5473266 -1.7481956 -1.4982375 -2.057207 -0.83084416 2.5460875 -0.9381947 -0.16812028 -2.373475 -1.2922333 1.8415715 1.1423215 0.49509743 -1.2818676 -1.733782 -2.9961202 1.383166 1.04834 -1.5223557 0.82492155
expert.n.01 -0.17942956 -0.34436336 -0.102590725 0.11618529 0.23215313 0.16058764 -0.19314563 0.10453104 0.7721401 -0.058904923 -0.26396516 -0.121765666 -0.14894535 0.37867698 0.118326694 0.23266292 0.12857316 0.409619 0.17480381 0.22962582 -0.34098083 -0.21258326 0.1677738 0.3134864 -0.2755452 -0.4207071 -0.37872803 -0.2842833 -0.3833894 0.40794304 0.023346072 0.2181643 0.14606127 -0.22423437 0.13091537 0.1865052 0.20504543 0.2686502 0.680942 0.15934667 -0.17351264 0.13799596 0.18196054 -0.10905177 -0.3188962 -0.33833563 0.078867614 0.67348665 0.18309443 -0.18042731
cat.n.01 0.105198696 -0.13483885 -0.08932083 0.053598367 -0.07356462 -0.0037529203 -0.018012032 0.023002129 0.21311742 -0.12651354 0.33226815 -0.048967265 0.09622693 -0.1790566 0.025081439 0.14253232 0.10984367 0.009012878 0.05636361 -0.104429156 -0.14257449 0.1310534 0.01286865 0.06077349 -0.11523504 -0.06667023 0.09216781 -0.25943494 -0.01866429 0.016345972 0.02262127 -0.1003046 -0.11279091 0.112865224 0.14018203 0.09323537 -0.13786948 -0.23751569 -0.06905674 -0.072460555 0.06850637 0.1914106 -0.016267307 0.07558313 -0.10154404 -0.016080134 0.065901004 -0.1317427 -0.012478462 -0.079545945
urine.n.01 2.0628822 -0.5220001 -0.63644636 -3.912963 -1.7746793 -1.7742767 -0.72333115 -0.3219584 4.3748503 2.9718347 2.285957 1.1691383 0.8587294 -2.1625755 -0.0427045 -0.166605 2.2903152 0.20707753 -0.3945019 -1.1500382 -2.8285065 -0.7472115 4.4267592 0.30571014 -1.6359214 -0.9199279 -1.3156685 4.790063 -0.06408921 -1.6587443 2.3012843 1.019986 -2.31734 0.5326833 0.38903767 -0.30980182 1.0929158 -0.3033592 3.6021254 1.3801916 -0.35686627 0.20131059 -0.889253 0.05538816 -0.6557006 -1.0280141 0.10133877 -0.9712756 2.4089777 -4.112895
expectation.n.01 1.5284443 -0.45043626 1.9825053 0.55444425 0.39892903 -2.7448714 -2.0485203 -1.0064455 0.8844041 0.2725724 -1.615362 -0.40922198 -1.5004522 -1.2179859 2.165388 1.6006113 1.0557755 -1.7887564 0.43418503 -0.009841635 1.0644953 -1.4872745 -2.0754344 -1.5837122 -0.47870937 -0.34279332 0.15743905 1.1820198 0.054808453 2.6584053 3.9870663 -0.1749406 1.6156588 -0.14243668 -0.21734454 -1.7963349 -0.5977788 -2.2010982 -0.7280489 -2.494682 -1.9714403 -0.47578782 1.2248513 -0.14774714 -0.6547996 -0.03762397 0.51199996 2.331523 1.8458395 0.6682229
index.n.05 -2.0545745 -0.21367984 -0.07705467 0.10785441 0.70878494 -0.27977267 0.8211347 -1.244917 -0.24883446 0.03543092 -1.0439531 -0.19472446 -1.4152538 0.6773351 -0.49337125 1.3225126 -1.6008186 -2.080898 0.22362828 0.53627616 0.66834694 0.8220919 0.6474531 -0.26129287 0.3709494 0.3189001 1.0159 0.29982695 0.02090932 0.19582793 0.9803547 0.37250948 0.55843765 0.9437433 -0.18173933 0.21911968 -0.49515566 -1.0130202 1.4986528 0.48333603 -1.0938904 -0.16801444 -0.2077661 1.6222463 -0.47366303 -0.20273513 1.7649673 0.122563325 1.3385217 -0.8627774
