1000 50
old.a.01 -0.10420621 0.73804474 0.11820141 -0.23316938 0.7263268 0.6167107 -0.9446282 -0.106460966 -0.37785894 -0.07890772 0.3068894 -0.11949683 -0.15552308 0.094182715 0.41561046 0.046199538 -0.3646307 0.50677687 -0.004489828 0.56624895 -0.6443796 0.24126619 -0.6032973 0.48768196 0.17951791 -1.187099 -0.23165655 -0.43172306 -0.02435313 0.23478465 2.1217144 -0.5226858 0.23003568 0.23940922 0.66361713 0.19284725 -0.05321925 0.55773354 0.23480202 -0.033606224 -0.31852138 -0.03443463 0.29527658 0.358142 0.27760762 0.23151432 -0.45552626 -1.092352 -0.053020675 -0.4324094
tidy.a.01 0.14156978 -0.16590324 -0.31344074 -0.3238199 0.08449358 -0.259662 0.024392456 -0.031851575 -0.02812866 0.23092927 -0.56712294 -0.5458301 0.08771467 -0.08290194 0.04941106 0.13915923 0.68362284 0.49004623 0.23073067 -0.4313328 0.034296103 0.046429228 -0.8597842 0.31073636 -0.013286628 0.49566767 -0.6085955 0.61087394 0.4881813 0.017911358 -0.20202573 0.31293806 0.3590393 0.30272722 0.3980471 0.45219842 0.10578008 0.46746904 -0.5044136 -0.57383436 -0.27826548 -0.24677514 -0.010482365 0.24231273 -0.5395106 0.12974788 0.048273835 -0.13695686 0.23273578 -0.06183099
available.a.01 0.47621295 0.5302027 0.6137864 0.188876 -0.41920203 -0.27488416 -1.0253241 -0.7391173 0.3742009 0.08526869 0.343131 0.31002006 0.42135456 -0.40846834 0.84038013 0.5809564 -0.4728461 0.107362494 0.22603467 -0.8414558 0.38627928 -0.032907322 0.3680498 0.8258301 -0.34737656 -0.20950396 -0.06358981 -0.3661116 0.033824272 -0.10488216 3.3582764 -0.023090946 -0.28801966 -0.38547412 0.7123655 0.3627614 0.7257702 0.09165183 -0.35741296 -0.4736254 0.89142615 -0.020675818 0.22883205 0.26428372 -0.20234427 0.21585312 -0.056525584 0.5302979 -0.032488573 0.36921152
warm.a.01 -0.2576712 1.2767347 -0.72135764 -0.5143882 -0.33797586 -0.8996665 -0.44544244 0.85290295 0.38110614 0.013430033 0.5066375 -0.29560778 1.5290427 0.43872806 0.4226185 0.7938143 -0.74979514 -0.2720845 -0.36756355 -0.3692111 -0.53653276 0.25408328 1.090119 -0.5169478 0.8253495 0.288403 -0.054544955 1.1845621 1.1073552 1.349849 1.6814632 1.0343288 0.18612938 0.35130584 -0.12630731 -0.4595856 -0.519521 0.8078249 -0.58136845 -0.307999 -0.62311065 0.32240498 0.07644824 -0.51182956 -0.5358908 0.43595523 0.034433316 -0.34817356 -0.9808068 0.1652106
strange.a.01 0.52694696 0.3812472 -0.82796866 0.3618194 0.61428005 0.28199813 -0.10614466 0.4108693 -0.007557639 0.14318688 -0.47279194 0.14143498 -0.13406318 0.47259828 0.71452856 -0.14741983 0.02989961 0.041550945 -0.4830187 -0.32921243 -0.29222032 0.4260421 -0.0074517597 0.35387403 0.80692446 -0.4726496 -1.2052777 0.44666705 0.8299404 -0.15418683 1.0320631 -0.15317062 0.18005647 -0.55448014 0.16232371 0.123883165 -0.07767368 -0.08221938 -0.29314706 -0.17033505 -0.46504924 0.18447025 -0.2783369 0.42863128 -0.121132016 0.12861256 0.3057644 -0.19076465 0.15775612 0.31165358
odd.a.01 -0.042955175 0.07614728 -0.38577023 0.19966193 0.44311306 0.43434304 0.3215966 0.18962854 -0.16606355 0.18950644 -0.26211497 -0.619344 -0.03183666 0.39438266 0.5769042 0.00999426 0.25628284 -0.04941658 0.16699934 -0.22861718 -0.21977605 -0.2103221 0.07475931 0.4570041 0.6114724 0.37675717 -0.7863964 0.37095663 0.3647365 0.033597916 0.27541426 0.0541092 0.5003877 0.1475974 0.05096524 -0.056379 -0.21641509 0.72801214 -0.5067364 -0.043600287 -0.40753052 0.035896715 -0.10501016 0.45652553 -0.47515407 -0.21898058 0.43543658 0.21003035 -0.07916771 0.0063301455
impermanent.a.01 0.2334118 -0.0021031767 -0.294563 0.025738426 -0.16732013 -0.4095984 0.16595176 0.21982059 0.20648511 -0.26263297 0.1179478 0.04045407 0.5941713 0.09441771 0.45184192 0.5198846 -0.02999247 0.054347478 0.5676128 -0.36735788 0.1203587 -0.33311865 -0.8139848 -0.17782351 -0.16164592 0.5999981 0.3019431 0.15186135 0.59240127 0.43156302 0.91395634 -0.21720093 -0.061496902 -0.33026206 -0.1097193 0.9682893 0.8282183 -0.06288084 -0.27089003 -0.20838657 0.028486794 -0.15988411 -0.12194031 0.6200036 -0.18268894 -0.43957135 0.0089978 0.06693437 0.048723653 0.14613336
sensitive.a.02 -0.029616334 -0.3958691 0.026858374 0.5462237 0.5332716 0.13470615 0.46670833 -0.0017627731 0.2888682 0.37421915 0.09599024 -0.21308984 0.7833619 0.8864217 -0.274978 0.8290504 -0.07001996 -0.12579972 0.21941477 0.14229284 0.21955983 0.48507056 0.5128261 -0.018971294 0.60920817 -0.799028 0.25537038 0.5114088 0.7529843 0.22743668 2.1109557 -0.912398 0.82006174 -0.9376503 0.023028053 0.061097037 -0.36452356 0.22711876 -0.6676145 -0.2344465 -0.29080358 -0.017546797 0.6485986 0.47386578 0.69256276 0.09661442 0.28270602 0.5701687 -0.052678593 0.21338281
fat.a.01 -0.18243515 -0.17953788 0.6291272 -0.78126967 0.5750084 0.24845164 0.29981118 -0.15897156 0.88330513 0.47854134 0.17003052 0.004318775 0.5062414 0.22679621 0.39113894 -0.2962072 0.064856015 0.4931808 0.4356143 0.28288683 -0.42814294 -0.7236913 1.0309262 0.5531287 -0.27566424 -0.21051133 -0.81719404 0.24323213 0.53782445 -0.098679006 0.2968717 1.0662433 0.6779285 0.823253 -0.22182955 -0.1320842 -0.20016822 0.509668 0.19659306 -0.47222045 -0.3949026 -0.19219528 0.17838801 0.31926104 -0.034017418 -0.3094817 -0.54171216 -0.11556224 0.36577216 0.43763635
outer.a.01 0.33800235 0.4000421 -0.29441708 0.5148866 0.07045361 0.5971383 0.90555453 -0.29204237 0.58909255 -1.0026578 0.00087585155 -0.15765634 0.45693117 1.1125331 -1.518984 0.9827761 0.6534747 0.2129191 -0.42299926 0.08746302 0.29288325 -0.16464089 0.33253142 0.035857446 -0.48549393 -0.119892515 0.029750837 1.4314992 0.44925803 -0.7913538 1.6411384 -0.53311896 0.373952 -0.48114178 -0.49475828 0.1924671 0.10554499 -0.19599828 -0.34566355 -0.15533206 -0.32729673 -0.20922852 0.42548075 -0.3400277 -0.878742 0.24367715 0.27772075 -1.3902938 -0.13855453 -0.50440776
plain.a.02 -0.07031323 -0.36214954 -0.72732115 -0.32899246 0.08086512 -0.1744737 0.16297403 -0.24924415 -0.6343453 -0.13504831 -0.34161928 -0.29206502 0.6691262 -0.4741951 -0.16625203 0.09479139 -0.0236075 0.41620442 0.4332727 -0.05542694 -0.33899066 -0.060370546 -0.20064744 0.47199365 0.005538983 0.13290906 -0.443599 0.885851 0.4093097 -0.14609677 0.21817945 -0.33795062 0.058976024 0.35689253 0.53901035 0.02869268 -0.22618154 0.027246345 -0.29911777 -0.16973223 0.17210151 -0.01958085 0.20310967 0.307844 -0.5293583 0.06325125 0.48525885 0.618532 0.0965165 0.048783977
structural.a.02 0.63081783 0.44635305 -0.22166254 -0.17826554 -0.38522235 1.22735 1.0073773 -0.7320724 -0.25289294 -0.5690872 0.34715012 0.53806853 -0.7573506 0.26835766 -0.6136042 0.315423 0.27520454 0.022030126 1.0208933 -0.4883413 -0.106599085 -0.6741005 -1.0704308 -1.3338603 0.45060527 0.3327678 -0.53319055 -0.019304391 0.048177056 0.540442 2.2865727 -0.46369448 0.22191423 -0.8341885 0.079434 0.73894763 0.28610507 0.12736458 0.8290867 0.7226902 -0.85987747 -0.7749792 0.42888507 -0.2536403 0.2595635 0.45549 0.708092 1.0882528 0.1372031 -0.27365777
objective.a.01 0.26609606 -0.035569508 -0.31907827 -0.46549714 0.9080114 -0.5194958 0.9631514 -0.058124874 0.4274797 -0.076610014 0.24530543 0.24304508 -0.6037864 -0.00088346953 -0.5735118 -0.18760282 0.9745815 -0.13805623 0.2226527 0.045362283 -0.13259482 0.50686705 0.075089164 -0.2671486 0.47377455 -0.56931394 -0.5629897 -0.14040388 0.21853212 0.4279913 2.1317036 0.04441682 -1.0047017 -1.109248 -0.11631933 -0.30721414 0.30651876 0.563664 -0.7942587 -0.42197064 0.4479881 -1.1674013 0.30879202 -0.1196133 -0.79117656 -0.42489824 0.22675353 1.3557639 1.0454241 0.68334264
ambitious.a.01 0.88900137 -0.10962148 0.002756569 -0.77638465 -0.29107395 0.18769789 -0.526849 -0.49804193 -0.2611546 1.0013952 -0.9487124 -0.0325072 -0.36480337 0.76842785 -0.10531325 -0.451965 1.0487143 0.5045972 0.5083445 0.41572315 0.36139783 0.13276456 -0.903231 -0.2491228 0.4588548 -0.8493316 0.071858004 -0.02446376 -0.17775975 0.3866006 1.6903626 0.19616301 -0.4551934 -0.061114028 -0.07496195 -0.26461506 -0.53034174 1.0650349 -1.1293293 -1.2214587 -0.75874513 -0.24105123 0.21943134 -0.5691099 -0.2848144 -0.1881704 -0.22657734 0.5428324 0.41360748 0.9209635
mobile.a.02 0.6191089 -0.8808609 1.6648965 1.1865616 -0.18561836 -0.23782527 -0.81567305 -0.7630863 0.7318308 0.03729634 1.0939895 -0.3899716 0.11981464 -0.16491473 -0.751374 0.4054496 -1.2833174 0.62474126 -0.28206277 -0.22324647 0.4169108 0.0662159 -0.91736346 0.48031142 -0.103094324 -0.4246395 0.09975231 -0.8083837 0.10722357 0.03091507 2.500184 0.2073685 0.1328358 0.29323983 -0.1459329 -0.19760561 0.009429103 -0.049132742 -0.5978591 -0.29298845 1.2589242 -0.20521554 -0.118556656 0.24750705 0.49284744 -0.034532532 0.107172735 -0.33779752 -0.23098935 0.2439354
ethical.a.02 0.019188015 0.27324095 -1.1673666 -0.4084254 0.2583934 1.2129186 0.8453502 -0.8954608 0.46544623 -0.4063403 -0.82675093 0.5618526 -0.6583005 0.14206469 -0.34796163 -0.25012022 0.4003615 -0.22100899 0.51669616 -0.46626475 -0.22780804 0.6437548 -0.20674688 -0.58801 0.49931592 -1.2221476 -0.114854656 0.15063597 -0.092371166 0.42511582 1.2040119 0.026609883 -0.37766865 -1.2052512 -0.98802316 -0.37413946 -0.38648808 -0.23374411 0.09227566 0.20694058 -0.21299747 -0.71468073 0.37819356 2.4619777 0.057027675 0.2965485 -0.06480918 1.1665736 0.3454867 -0.23279071
bureaucratic.a.01 0.29325202 -0.9409597 -0.6008601 0.121487066 -1.3481126 -0.11246905 1.1069988 0.34479985 -0.35646796 -0.81149155 -0.78860426 0.044503428 -0.7838233 0.890965 0.09202931 -0.84020555 -0.040910553 0.30637068 1.5257359 -0.8704194 -0.23895796 -0.50360346 -1.0018243 -0.32192454 0.06322653 -0.4442663 -0.41896057 0.4101863 0.64308184 1.0187067 1.4889598 -0.206793 0.0002789915 0.09462308 -1.214443 1.2504371 -0.5768209 0.50565803 0.33106923 0.21304978 -0.61006904 0.21600275 0.32071465 1.4494294 -0.588778 -0.49673465 0.22207172 0.6241461 0.073368065 -0.39510387
grotesque.s.01 0.46419513 -0.88194233 -0.7307735 -0.29112566 0.05623005 0.74234194 1.1844046 -0.74426115 0.0080410205 0.29561028 -0.5611966 0.11917935 -0.07243796 0.41233596 0.6540168 -0.82271385 0.10759662 0.33165947 -0.17290817 -0.04439196 -0.7506103 -0.32736135 -0.027719531 -0.35829076 0.18334298 -0.19827606 -1.1209129 0.48236522 0.86966133 0.18348604 0.30288097 -0.30852613 0.06858274 -0.45977727 -0.8758687 0.95194316 0.26981404 -0.33380055 -0.61405975 -0.17348528 -0.5669221 0.038341466 0.20574686 0.4057916 -0.16938952 0.17217042 0.21941859 -0.1519013 0.3854223 0.039581217
exotic.s.02 0.81983936 0.09487135 -1.3334869 0.6311373 -0.0768991 0.11670961 -0.49860403 -0.68599313 0.23510155 0.6776717 0.27927044 0.7246989 1.6664691 0.23081613 0.33568466 0.27191055 0.315261 0.38452837 -0.5395052 -0.67254895 -0.19109046 0.08209296 0.06195711 0.32122707 0.2468261 0.18820114 -0.18348557 0.28742135 0.7786656 -0.3124269 1.230012 -0.1403506 0.5147991 -0.03035963 0.77070785 0.50102824 -1.0149819 0.14107856 -0.7537668 -0.32229605 -0.23334017 0.41393152 1.1308234 0.35790667 1.1856921 0.09618639 0.2465131 -0.45582342 0.19315831 -0.16942611
high.a.01 -0.7932746 0.9770453 0.46931374 -0.4946155 0.36342496 -0.2238332 0.14216585 -0.06432002 0.48519713 0.40960142 0.3132017 -0.5767101 0.38855684 -0.37476036 -0.017124971 0.1858611 -0.17641409 -0.10552962 -0.90294176 -0.15391201 0.0038099892 -0.33210072 -0.05392175 -0.42699167 -0.35997352 -1.2442896 0.12128012 0.08384794 -0.45061103 0.6708704 3.1670825 0.15369816 0.85835385 -0.10089353 0.90269524 -0.727884 -0.058365732 -0.13002813 0.40857777 -0.5123522 -0.9062648 0.23273493 0.24051848 -0.034677785 -0.3906674 -0.17139062 0.44157964 -0.10081555 -0.030617371 -0.19759566
social.a.02 -0.035281915 1.0040213 -0.55964833 -0.44268855 -0.040356606 1.0164597 0.0067631933 -1.340491 -0.5822633 -0.041089807 0.17318593 -0.20444955 -0.10318055 0.15043482 -0.3097132 -0.46004558 0.14344512 -0.1259411 1.3286446 0.17913923 -0.016124183 0.4570107 -0.645952 0.40312782 0.6358212 -1.0096931 -0.5616612 -1.0605192 -0.42197788 1.0191393 3.6862144 0.7802538 -0.28484175 -1.6600711 -1.540303 0.32804742 -0.9751174 0.02240047 0.41177484 0.30242425 -0.2960931 -0.12258864 0.09227635 0.55596834 -0.191187 -0.015983438 -0.21549627 0.044136763 0.7873327 0.0058260257
easy.a.01 0.20883766 -0.3394244 0.2500838 -0.17247498 -0.14257005 -0.42568806 -0.24753731 0.5355504 0.12417787 0.2550553 -0.4158766 0.13580126 -0.058365975 0.076086305 0.17001343 0.29263803 0.9464569 -0.14112854 0.46242598 -0.49261445 -0.447383 -0.14582779 -0.22323325 0.82079995 0.78170276 -0.68744665 0.06230992 -0.1946145 0.91096133 -0.7019577 1.7430556 0.27139792 -0.82282084 0.30363017 0.54306555 0.10602243 0.18837939 0.96653694 -0.30194134 -0.44974098 0.18606262 0.03289956 0.39067385 0.452638 0.07805774 0.0048928834 0.5440144 0.017993324 0.3969298 0.6221066
poor.a.03 -0.07349306 -0.33919096 0.10899729 -0.7767627 -0.04564167 0.14661506 -0.021418361 0.003355751 0.17219912 0.48548502 0.1876989 -0.5222027 0.6622003 -0.5071079 0.23991565 -0.0047623515 0.7182492 0.019495891 1.1372327 0.24733728 -0.64514273 0.12715621 -0.23080832 0.6379763 0.09661952 -0.2453013 0.03161562 -0.36124262 0.19253027 0.3791035 2.479129 1.1755924 0.97154677 -0.14937575 -0.014267855 0.18874373 -0.69899875 -0.029549435 0.33241543 -0.49460578 -1.2565975 0.04472312 1.270696 -0.32622683 -0.2776466 0.563722 -0.83765435 -0.07797097 0.51149136 0.069434635
inactive.s.10 0.13743444 -0.2701897 0.18348184 -0.29541853 0.3694528 -0.010824283 -0.0010530034 0.14698747 -0.12892845 0.023936925 0.47072467 0.22321463 -0.06079879 0.3387844 0.1617502 0.2605634 0.045457706 0.29113662 -0.15993384 0.12741564 -0.46014866 0.29219097 0.2356963 0.30033517 -0.2164706 0.15701929 0.25129035 0.49059597 0.32680085 0.14398897 0.76434034 -0.2000464 0.49679747 -0.46844587 0.016535385 0.3544328 0.28245792 -0.12878959 -0.046179235 -0.3780668 0.27894825 0.009809801 -0.18845011 0.1682059 -0.3710876 -0.14516906 -0.07981741 -0.28552407 -0.361172 0.16818306
abundant.a.01 0.23188528 0.59141564 -0.4395235 0.37444013 0.3074805 -0.6009512 -0.48883015 -0.124537535 1.4020612 0.6724526 0.16324235 0.26649398 1.9599733 -0.83472604 -0.24462014 0.44727412 1.1639619 0.27802086 -0.035859186 -0.23264295 -0.48132506 -0.5967823 0.8912744 -0.67866147 0.32515186 0.615531 -0.040024545 0.68044925 0.65932035 0.73396623 1.6226529 -0.5465423 0.86349535 -0.66385376 0.50986034 0.5647139 -0.86448234 0.56069475 -0.026691286 -0.13791956 -0.37004602 0.113364674 -0.03304009 0.031733703 0.30242607 0.07326325 -0.6641314 0.14330244 0.13771704 -0.3289266
green.a.03 -0.14113823 -0.13909672 -0.40672544 -0.16908649 0.312194 0.066164635 -0.36207998 -0.51307154 -0.1428275 0.17907488 0.09495181 -0.049231775 0.90632933 -0.2490082 -0.36895472 0.056443788 0.5354531 0.59335876 0.30335662 -0.44569317 -0.5295322 -0.46381116 0.17779016 0.0423993 0.18954766 0.3825237 0.026504068 0.54168755 0.3822146 -0.22254126 0.22362252 0.24695805 -0.19056885 -0.22713508 0.21800278 0.2610166 -0.41815826 0.30816528 -0.21726426 -0.47558025 -0.456833 -0.64617395 -0.22362377 -0.16436423 0.75213313 -0.16160959 -0.23256144 -0.3193833 0.7262282 0.11934254
urban.a.01 -0.16608365 0.35261947 -0.087322295 -0.26050937 -0.7776103 0.24214119 -0.35631078 -1.2648488 -0.3574958 -0.105578765 -0.370658 -0.9621636 0.27954105 -0.2844127 -0.61383694 -0.011296186 0.98019236 0.6496863 0.49909192 0.6720927 -0.0114821065 0.13125974 -1.0961244 0.90879756 -0.15484494 -0.066151306 -0.51196307 -0.36857638 0.2783194 0.45793712 2.8453722 0.13145018 0.32845607 -1.441309 -0.09709925 0.7563086 -0.2997073 -0.4601815 0.24461055 0.43162504 -0.8875607 0.06358441 0.3210998 -0.22685078 -0.2883072 0.23934487 -0.28228256 -0.49131775 0.80776864 0.23177755
exact.a.01 1.1077391 0.3249212 0.26664862 0.012233133 1.1438531 0.15804651 0.51723146 0.43965456 0.2509703 -0.6062968 0.32277226 -0.07505325 0.042480666 -0.49813938 0.7949684 0.60058445 -0.15226024 -0.680511 0.045880973 -0.4986771 -0.22687057 -0.28129277 0.0283579 0.20783699 0.9042165 -0.52473176 -1.6762192 -0.0003423557 0.9129449 0.007981858 2.0238214 -0.80402863 -0.5437807 -0.62852263 0.90256536 -0.09399142 0.80828243 0.10500204 -0.25036427 0.48326012 0.36596304 -0.5102807 0.1917571 0.40317455 -0.47579455 -0.7488608 1.032259 1.2384901 0.56541854 -0.029337784
thirsty.a.02 -0.5024773 -0.7804092 0.5247737 -0.004385706 -0.21492465 -0.42776158 0.075959906 0.33032486 0.78460884 0.76923513 0.0007441897 -0.0464803 0.8071494 0.440872 0.115030974 0.08368584 0.1395394 0.83606595 0.34842563 -0.63640726 -0.15360922 -0.025033014 0.27224886 0.28448662 0.87610614 0.14525038 -0.4117941 0.3789684 0.5749311 0.33985794 -0.56559217 0.5765272 0.4576239 0.23174226 -0.34853962 0.15775202 -1.0002695 0.074920446 0.25426325 -0.69011104 -0.03526937 -0.1751426 0.1497533 0.38664556 0.2986666 0.7422562 -0.049212806 0.034275077 -0.02110594 -0.25064987
operational.a.01 1.0598949 -0.21058063 0.48478428 -0.04352274 -0.27377862 -0.6935957 0.42125028 -0.0942442 0.6764728 -0.95638007 0.69406134 0.53249115 -0.8498784 0.0917543 -0.9218832 0.22047472 -0.41347742 0.86357033 -0.4365747 0.49809515 0.18409185 -0.26968798 -0.26323175 -0.6749713 -0.29724845 -0.043454338 -0.16008006 -0.33426622 0.27751353 0.7874471 2.1034348 -0.121052586 -0.023885747 -0.56757826 0.6461322 0.32649937 0.89337116 0.24669486 -0.5702883 0.5144347 -0.07053802 -0.9057455 0.2305593 -0.277518 -1.0149709 -0.22848561 0.20351736 0.8462177 -0.083791986 0.90803736
vocational.a.01 -0.91945654 0.5103303 -0.5207528 -0.59756 -0.18990643 -0.13354662 -0.22051491 -0.29459736 0.32867151 -0.64916086 0.3229913 -0.4936531 0.8083144 -0.7508209 -1.1010656 -0.17178315 0.021761766 1.0683668 0.8028083 0.6178381 0.47918218 0.7014321 -0.50620335 0.36732894 -0.093438886 0.3299097 0.86195225 -1.3316174 -1.0836997 -0.34713894 1.9248507 1.0374135 0.051918637 -0.7262558 1.3004848 0.8822491 0.014431342 0.8267958 0.7948289 0.07734542 -0.6456723 -0.8935375 0.2616074 0.484574 -0.09132903 -0.844754 0.71469074 0.7389157 0.26019302 0.6322558
potential.a.01 1.0043987 0.3764634 0.68552226 0.6447002 0.012370169 0.40932843 0.07947079 0.6491923 0.3873089 0.30408058 -0.18621527 0.24584483 -0.37506166 0.007151078 0.6339978 0.3287212 0.54647446 -0.7375433 -0.2507836 -0.5006407 -0.00086987286 -0.7527499 -0.2728458 -0.08217673 0.14627625 -1.2799375 -0.13634014 -0.39609823 0.42700562 0.34013233 2.6928723 0.39320922 -0.09921498 -1.0306724 0.14435598 -0.352286 -0.30500197 -0.20640862 -0.27583542 -0.6103696 -0.44606724 0.27608442 -0.1356095 0.114733554 0.27079386 -0.2475676 0.19573273 0.9526433 0.30870652 0.22743276
personal.a.01 -0.07392032 1.0419058 0.15489174 0.38174272 0.7814708 0.36632434 -0.07357163 -0.36907667 0.013277626 0.23353058 -0.4313727 0.6911707 -0.6202188 -0.5716088 0.3244687 -0.5644599 -0.9674705 0.015724942 0.7531137 -0.37602332 0.29416373 0.66862893 -0.48222017 -0.7483063 0.43176487 -1.1314619 -0.6830968 -0.6322789 0.51313406 0.71012765 2.497377 0.31994954 -0.051030025 -0.5608041 -0.4050291 0.32003957 -0.65689754 0.23756635 -0.32013568 -0.19214045 0.7492737 -0.027026378 -0.38433588 0.8910459 -0.14523272 -0.29836842 -0.41894463 0.2484501 0.18601461 0.077901766
covetous.s.01 0.22806709 -0.053324517 0.05658169 -0.41617772 0.48259622 0.39241272 0.45659894 0.83934015 -0.83813226 0.59914213 0.33198258 0.37180397 0.09170348 0.5154456 -0.1070209 0.26021016 0.17046471 0.43476513 0.4826455 -0.0911813 -0.23625274 0.44469196 0.12872805 0.5285453 0.4874729 -0.45374316 -0.37900606 0.42415753 0.14730285 -0.022051265 -0.4228583 0.40838993 0.54273045 -0.3574723 -0.4063466 -0.08547259 -0.7184503 -0.35276344 -0.034266487 -0.65763015 -0.11074744 0.17219865 -0.3100057 0.35649985 0.31237173 -0.55914575 -0.25551847 -0.4532856 -0.002235384 -0.22829343
rich.a.01 0.054742992 0.48761433 -0.112313785 0.15987875 1.0582771 -0.06732256 -0.28456348 0.08236931 0.11942493 0.7252103 0.09720674 0.08236477 0.72235715 -0.057072535 0.44924322 0.04937237 1.3525314 0.24526805 0.49335322 0.13210432 -0.5691092 -0.07644011 0.16073386 0.42868155 -0.036496878 -0.3450041 -0.3596537 0.088816665 0.13200328 0.21248806 1.4872177 0.2865539 0.883039 0.31116462 0.22933446 -0.11008619 -1.3205022 0.92844856 -0.16239856 -0.7687497 -0.31406775 0.2695478 0.85847586 -0.07733577 -0.27283642 0.12543787 -0.8568755 -0.111510225 -0.11555366 -0.0014046268
first.a.01 -0.06654673 0.33014786 -0.19613108 0.37855503 0.038596623 0.43221936 -1.1770879 0.15716222 -0.065730125 -0.25669014 0.35462126 -0.2184671 -0.701538 0.39744845 0.61997926 -0.6580212 -0.4573494 -0.22128725 -1.4526975 0.46456057 0.07250849 -0.31308627 0.09039519 -0.004750463 0.0611073 -1.3165174 -0.08694127 -0.6033671 -0.50163996 -0.1617138 3.3176014 -0.1852452 -0.5958961 0.21295121 0.55343664 -0.21025427 0.7035695 0.5135879 -0.18527612 -0.39103884 -0.12658992 -0.42164186 -0.60237837 -0.6279013 -0.47511455 0.34008572 0.18510206 -0.16786754 0.052103657 -0.2224776
negative.a.04 -0.16247731 -0.15116942 0.2541728 -0.0029013108 0.049552538 0.6485371 0.726702 -0.27581796 -0.21668762 0.82865536 0.22833829 0.1284421 -0.31874117 -0.38354808 0.11518006 0.09209028 -0.10153193 -0.96920085 -0.45518848 -0.26155668 -0.10217209 -0.38270995 0.98781824 -0.16481648 0.447313 -0.6774827 -0.36640543 0.647362 0.3180946 0.54372025 2.4120278 0.17465034 1.2699581 -1.369589 -1.0377318 -0.9954301 -0.24997786 -0.5450207 -0.38016948 -0.35895488 -0.03735781 0.13161288 -0.18636827 0.19760181 0.26519525 -0.32249874 0.1138302 0.98695385 0.9111911 0.54426366
daily.s.01 0.42279956 -0.23485847 -0.6476261 -0.13853423 0.117358044 -0.3492793 -0.053815585 0.22884704 0.8603874 -0.34438425 -0.093247846 0.1290481 0.012967996 -0.08411813 0.28202412 -0.649997 -0.76941985 0.12708437 0.42356423 0.57110864 0.31596223 0.05012662 0.31151867 0.5632694 -0.112176195 0.13762398 0.011762355 0.028701333 0.53025466 0.79260606 1.176805 0.14435607 0.44484076 0.037150946 -0.3025344 0.62890977 -0.4221783 0.14508055 0.11747529 0.5627632 0.41107228 -0.015275332 -0.4252737 0.65800774 -0.64388967 -0.7858516 0.14862376 0.7756306 0.42264876 0.5338272
adequate.a.01 -0.23146544 0.15298134 0.108256415 -0.34297413 0.75170994 0.06904102 0.96286005 -0.0025462657 0.9139786 0.1948479 0.53081375 0.07275983 0.6421751 -0.84328634 -0.07254423 0.16915657 0.4806164 0.06795465 0.59942126 -0.91574377 -0.15277308 0.24904908 -0.034928396 -0.4737536 -0.05599209 -0.18844347 0.11862939 -0.27467504 0.5635718 0.37161028 2.6137583 0.46951288 -0.24979672 -0.32272637 0.32466745 0.16550191 0.59466845 0.30692342 -0.0018080835 -0.19393645 0.45430574 -0.291207 0.64698213 0.51915294 -0.83618927 -0.2799044 -0.25823194 0.8150513 0.1942933 0.60121566
sweet.a.01 -0.18316916 -0.03285681 -0.95980346 0.28194007 0.8638935 0.387449 0.13210467 0.5199651 -0.2219841 1.0639862 -0.19628021 -0.22601904 0.56087714 -0.5283585 0.37910968 0.24667807 0.051218435 0.46149507 -0.15910476 -0.33452627 -0.27581933 0.085707 0.5738445 0.089941755 0.24687563 -0.044069134 -0.859067 0.75811464 0.87701744 -0.36017916 0.63854116 0.09886108 0.23811059 0.9943115 0.72797906 -0.7303451 -0.29289848 0.25311553 -0.022152038 -0.7307764 -0.23797598 -0.13440119 -0.37190646 -0.33787248 0.08667998 0.70601964 -0.0702306 -0.024501242 -0.24896179 0.3214696
wet.a.01 0.14544396 0.20111394 -0.5584824 -0.08864077 -0.7126963 -0.68404526 -0.3135571 0.25101796 0.43437523 -0.6037801 0.13222723 -0.29980063 0.4610699 -0.2900365 0.72307146 0.85875404 -0.14510563 -0.089931585 -0.18771903 0.110432774 -0.54450077 0.028766003 0.7677488 0.13528417 0.14715531 0.863671 -0.12724406 0.9714369 0.6105285 1.1238055 0.7437066 -0.20525871 0.45871317 -0.09037604 0.22718312 0.1762709 0.05435681 0.9719089 -0.035393007 -0.53271973 -0.8154904 0.35302958 0.11946763 -0.25899488 -0.3657563 -0.090583615 0.45116013 -0.9792886 -0.055449903 0.43303123
discreet.a.01 0.84280163 0.12234731 -0.82480687 -0.124488555 0.35644406 -0.51300704 0.6619843 0.22122614 -0.44799018 0.38731897 -0.4175234 0.042919297 0.23774672 0.15720305 -0.21559562 0.03294056 -0.5337863 0.2016141 0.3123318 -0.40152267 -0.14103594 0.974219 -0.25840464 0.17726302 -0.15572739 -0.114008926 0.12713128 0.7594578 0.29091316 0.27670753 0.4587519 -0.14170723 0.1777141 0.0973267 0.08019842 -0.1466292 -0.18225327 -0.008274942 -1.2219046 -0.5230744 0.8862215 0.084537156 0.17595798 0.9190146 0.27202284 -0.96103585 0.2797067 0.23247074 -0.26892787 0.19484478
qualified.a.01 -0.617525 -0.21071558 0.20262411 0.28433838 0.18636112 -0.21649572 -0.23940977 1.1820709 0.085830785 -0.51993483 1.0814767 -0.2553998 0.08679973 -0.3333078 0.2502535 -0.30693513 0.6395012 0.39335608 -0.2896808 -0.69650286 -0.65150815 -0.15028888 0.1280329 0.92024523 0.03379424 -0.5253956 0.27641207 -1.2917755 -0.95534974 -0.0063071563 1.5784508 0.6983288 -0.4411417 -0.54371464 0.7621368 -0.25047386 0.46834594 1.4052142 -0.11928728 -0.9437784 0.3003871 -0.7630603 0.68105453 0.24062787 -0.40652025 -0.17088841 -0.2990851 0.36307243 0.40363878 0.55394375
unfortunate.a.01 0.6855465 -0.45027167 -1.0813377 0.4261664 0.6481955 0.4956129 0.4649801 1.1507143 -0.33810952 -0.08469153 -0.42098975 0.11993861 -0.6408264 -0.53899556 1.0496931 -0.08146705 0.28465772 -0.2118107 -0.32374692 -0.17351559 -0.6519993 0.22133577 -0.16720828 0.2533392 1.5089544 -0.65734 -1.0658783 0.46887392 1.0533447 0.2186778 0.86577827 0.05420156 0.42240885 -0.47547504 -0.07711499 -0.20604798 0.500361 -0.30449334 -0.40735444 0.09747002 -0.6691546 -0.017430265 -0.26191732 0.22715464 0.11576471 0.11601566 -0.27442947 1.0355734 1.1691118 0.563991
civic.a.01 -0.055889256 0.9231356 -0.34582338 0.19923934 -0.031271834 0.49118465 -0.28896424 -0.5798238 -0.80112267 -0.022585796 -0.14898537 -1.0404962 -0.1694751 0.22972102 -1.2372471 -0.63107127 0.06671516 1.1607826 0.69542867 -0.745374 0.06407425 0.37402517 -1.4825816 0.32213128 -0.6000006 -0.4741117 -0.33668122 -0.25846323 -0.62394154 0.33878922 1.7011019 1.2090871 -0.76393384 -1.2611717 -0.75601965 -0.6859241 -0.122702256 -0.3991902 0.20754808 0.45162955 -0.23770326 -0.86098075 -0.51785356 -0.056161188 -0.2197277 0.37528118 -1.5437196 -0.023809452 0.4334905 0.22260387
alike.a.01 -0.07270171 -0.09486103 0.009682213 -0.0046531013 0.010029396 0.2649455 -0.06640834 -0.01296763 -0.30397305 0.12478872 0.011553834 0.14539151 0.036878668 0.10254526 -0.05288714 -0.16600856 0.36499003 0.068730034 0.2957002 -0.3569256 -0.47118708 0.22759727 -0.055917263 0.29929566 0.20788038 -0.34255344 -0.16228355 -0.14065005 -0.31262764 -0.32795954 0.8843734 -0.06876459 0.3568778 -0.18345916 -0.08111387 -0.22270404 0.0039691427 -0.11915609 -0.16975985 0.2085657 -0.015957652 0.23392837 0.27367148 0.19340187 0.44886914 0.16705531 -0.23082465 0.09401103 -0.17310715 0.3306185
effective.a.01 0.5853222 -0.8201139 -0.36066616 -0.6121937 -0.03616853 -0.3465698 1.004173 -0.013188166 0.3327233 0.9199499 0.03964329 0.10661867 0.546277 -0.22750315 -0.52062035 0.0013169945 0.3520705 0.3014646 -0.01040668 0.09612477 -0.6022569 0.30418003 -0.247795 -0.33825174 0.2502093 0.17947826 0.17472123 -0.34649375 0.684721 0.5556999 0.8490822 0.04034826 -0.16103977 -0.14788511 0.4288198 0.07199191 0.67176026 0.51097697 -0.72437847 -0.12803414 -0.0841722 -0.022431582 -0.01278224 0.6533134 0.019579146 0.09084516 -0.17781474 0.4417303 0.0038571793 0.97393274
autochthonal.s.01 0.3558016 -0.28950545 -0.6097042 0.88898706 0.010435813 0.85387003 -0.13498 -0.61461836 0.35063386 -0.11887991 0.5745661 -0.31391132 1.6613764 -0.7138894 0.07768516 -0.5186752 0.54654014 0.8280974 -0.08345722 0.15199113 -1.5212165 -0.39837554 0.12585917 0.4489208 0.46177173 0.30231684 0.16932805 -0.26399997 -0.24488609 0.3231359 1.0544138 -0.6127235 -0.07301728 -0.14956442 -0.21470861 0.13305005 -0.7283791 -0.81125057 -0.47555318 0.10991344 -0.3794934 -0.13723224 0.38708803 0.25370544 0.22122729 0.33303776 -0.80688196 -0.061918046 0.09292693 -0.9152847
laic.s.01 0.18697615 0.18174513 -0.28523657 -0.9286715 0.77162933 0.25143299 0.1247595 -0.2974454 -0.80378205 -0.17184271 -0.12088035 -0.22058025 -0.39396805 0.5332159 -0.6149793 0.31005603 0.28640184 -0.39203253 1.1763157 0.4353907 -0.39898553 0.3578566 0.16693099 0.33597422 -0.45442584 -1.0372764 -0.7844246 -0.25311625 -0.48480195 0.39793336 2.0636888 0.04284928 -0.71098685 -0.029764026 -0.5916713 -0.12066348 -0.42081702 -0.047135267 -0.09578909 0.5852812 -0.42423257 -0.30286193 -0.19904569 0.7780011 0.042005878 0.25044745 -1.1139435 -0.17872643 -0.09271403 -1.0909113
firm.s.03 0.043379575 -0.40465608 0.2701896 0.25806475 0.5412621 -0.2520068 0.18597046 0.37909785 -0.00019847491 0.47468272 0.029613407 -0.1603397 -0.28906175 -0.06531832 -0.7658451 0.05805029 0.04021552 -0.18053952 -0.055866033 -0.6087083 -0.09107152 0.07210321 -0.4516177 -0.57149726 0.036184356 -0.63896096 0.100136824 0.3483344 0.26425573 0.618011 2.0154803 -0.078268886 0.55463445 0.13242972 -0.18190873 -0.66636026 -0.39053524 -0.10280921 -0.7518501 -1.0658602 0.15783708 -0.30074513 -0.013963621 -0.2024376 0.55086833 0.19851917 -0.3380798 0.40805492 -0.062077597 0.08895533
weak.a.01 -0.2118154 -1.0403391 0.67974216 -0.3222029 0.6297636 -0.26975778 0.42035466 0.22368407 -0.1714866 0.47521883 0.6630492 -0.25551397 -0.20902282 0.2414063 -0.068284295 0.4784086 -0.22575189 -0.5709969 0.03201504 -0.030885821 -0.37098935 -0.51859856 -0.06317451 -0.12206265 -0.076947995 -0.42114785 -0.2310899 0.2550741 0.3978023 0.9008722 2.2427928 0.4355804 1.6006422 -0.20478666 -0.14096197 -0.4482534 -0.18679151 -0.15703368 -0.7106634 -1.2226435 -0.89873266 -0.37227854 0.293243 -0.14658625 0.35080913 -0.1378904 -0.05297906 0.22861364 0.5020893 0.22879985
outdoor.a.01 -0.12506792 0.92698467 -0.32242018 0.5086864 -0.13611391 -1.0239482 -0.66878134 0.099053055 0.27182487 -0.20139103 -0.2911703 -1.3459827 0.21994959 0.3153228 0.3065717 0.5374572 0.2501397 0.31177375 -0.7567038 -0.6227664 0.6463187 0.5037955 -0.64176124 0.6982901 -0.39121205 -0.39101335 -0.058890548 0.4391868 0.35914746 -0.11118465 2.3231325 0.27284074 0.14632727 -0.21593961 -0.14413142 0.5195714 0.31781527 0.44333303 0.069338456 0.21224523 0.16823973 0.2473642 0.14254266 0.55915445 0.46588314 0.123008735 -0.101468496 -1.2150458 -0.1930592 -0.10173955
sad.a.01 0.35393876 0.27372077 -0.4302601 -0.33861607 0.750261 -0.34990942 0.72882265 0.50013864 -0.37840623 0.6438798 -0.6898552 -0.36681697 -0.14972447 0.06137312 0.77281815 -0.15431401 -0.5692696 0.23915724 0.5463185 0.5788837 -0.6843814 0.19404435 0.1604734 0.3308844 0.8764159 -0.21241836 -1.5736929 0.54231584 0.6928507 0.16027054 0.10538103 0.12338484 0.75914484 0.6877335 0.15445632 -0.022133874 0.16572513 0.23835145 -0.4290002 0.5713828 -0.54087883 0.33487403 -0.43926334 0.22767183 -0.0779551 0.57894725 -0.26792422 0.080176465 -0.46086103 0.30511206
comprehensive.a.01 0.06540885 0.4449467 -0.79118884 -0.23504923 -0.5983768 0.19009846 -0.35795546 -0.7880592 1.3907119 0.004351537 -0.4529122 -0.28835747 -0.07723904 -0.3023099 -0.72462374 -0.23336995 0.2447496 -0.54656357 1.1190369 0.86904675 0.18426204 0.035793852 -0.6171816 -0.22529052 0.10339888 -0.11171978 0.24435121 -0.3973842 -0.20792256 0.068531655 2.6036224 -0.7597654 -1.0811529 -0.6154007 0.2742879 -0.14291683 0.42272186 0.49244308 -0.211865 -0.3485679 -0.010461283 -1.5002534 0.25464576 -0.4323054 -0.29075843 0.60801524 0.7746618 1.465716 0.10878981 0.5651238
impressive.a.01 -0.09082766 0.42711926 -0.09325859 0.12110403 0.6288422 -0.5326962 -0.43999258 0.22410679 -0.14736123 0.9142105 -0.67125434 -0.65139097 -0.5776239 -0.17521667 0.022808444 -0.78761584 0.75733674 -0.3344399 -0.7892779 -0.39530677 -0.94233525 0.10733722 -0.562067 -0.75942564 0.5569938 -0.1029411 -0.54262966 0.084012754 0.07806175 -0.055928748 2.2999144 0.5459356 1.0879087 -0.2913187 0.42751792 0.6749497 0.18683635 1.4564779 -0.7299316 -1.0153141 -0.09443042 -0.0048986785 -0.4192947 -0.26056713 -0.13746049 0.45877245 0.063817024 0.047794893 0.2503335 -0.10885818
constitutional.a.02 -0.68897915 -0.16652365 -0.83195025 0.13050579 0.22351493 0.5808548 0.9006013 -0.036515858 -0.09378448 -0.4898847 -0.22856738 -0.1362097 0.124567516 0.2426686 -0.039284006 0.3994344 0.07400885 -1.1946632 0.8950878 0.039407853 0.031263787 0.07516449 -0.69242007 -0.82588196 -0.036649227 -1.9457991 0.13171567 -0.96815103 -0.3575835 0.7947769 2.2262554 -0.69843763 -2.282678 -0.8417082 -0.3507472 -0.57006437 0.42196116 -0.18819791 -0.1661265 0.39435682 -0.939131 -0.011549923 0.37597743 1.0036975 -1.886475 0.90246177 -0.6063526 0.2971783 0.12136554 -0.7230909
violent.a.01 0.44114685 -1.1487312 -0.18179472 -0.3196687 -0.6714062 0.6595301 1.0828916 0.087127954 -0.5437561 1.1202594 -0.7139072 -1.37784 -0.6807451 0.2271433 0.7364193 -0.73732084 -0.1556355 -0.16614859 -0.8196433 0.6783144 -0.4295786 0.6062117 0.3371986 0.58654857 -0.339148 -1.4431641 0.10702738 -0.26257634 1.2494229 0.9511789 2.7945163 -0.16010515 -0.18252617 -1.3992826 -0.7400055 0.5897613 -0.3003444 -1.8430333 -1.146263 0.1645381 -1.2819198 0.7192794 -0.2683932 -0.01894267 1.3110701 -0.36938572 -0.4158763 -0.6614936 0.26325798 -0.36938325
marine.a.01 0.67630744 -0.084682174 -0.46316704 0.81092954 0.9716874 -0.81985605 -0.7258224 0.176469 1.2201442 -1.8862259 0.5936346 0.99567825 1.0689243 0.5613533 -1.1710867 -0.5598492 0.26631927 0.63158065 -1.844836 -0.21552756 -0.22655122 0.061746597 0.10546696 -1.3494866 -0.29996288 -0.55233556 0.023075236 -0.53876483 0.15126859 0.69495535 1.9495307 -1.1683016 0.03923176 -0.47308612 0.8996134 0.46670333 -0.4689332 -0.58333105 0.63812435 0.40699816 -0.47608596 -0.38467214 1.1114156 -0.13246724 1.0534608 -0.29546764 -0.15610358 -0.48184562 -0.22645055 0.83451647
junior.a.01 -1.9628668 0.96925026 -0.093026474 0.33164784 0.17850816 -0.19038133 -0.41859937 0.30047336 -0.5653484 -0.8226091 0.6682183 0.28862935 -0.7708532 0.12758534 0.09313939 -0.19848087 0.23150441 1.0518544 -0.60586536 -0.057740033 -0.9459009 0.06972444 0.04061142 0.6622194 -0.6169591 -0.99719864 0.53927726 -0.834992 -1.1579565 -0.055567548 1.635266 0.41522813 -0.09306574 -0.34050623 1.2536155 0.46655765 -0.1718202 0.73983836 0.4687481 -0.97120184 -0.77306426 -0.06275039 0.122902855 0.019667875 -0.19281967 -0.06897029 0.29571223 -0.8126973 0.028321275 0.08643366
loyal.a.01 0.4605522 -0.4713468 0.61239237 -0.81928515 1.2214742 -0.98055446 -0.24359733 1.0305892 -1.3610693 -0.25371793 0.26377112 -0.26200202 -0.009272381 -0.38510793 -0.67069936 -0.08334422 -0.115682 0.664759 0.7400428 -0.2289499 -0.9997016 0.49936855 0.1739618 0.7513663 -0.70112723 -1.2437617 -0.07042884 -0.65152895 0.07989693 1.1864798 1.6824783 0.20266724 -0.4478189 -0.055135228 0.103345245 0.07771076 -0.81529146 -0.07444304 -1.663997 -0.37868345 0.62378097 0.40945604 -1.0493319 0.26925236 0.20773971 -0.43693408 -1.9242629 -0.7860582 -0.9386339 -0.13076188
ashamed.a.01 -0.14476192 -0.81735563 -0.35890546 -0.86112237 0.4380641 -0.2769944 0.3714764 0.6866235 -0.8922573 -0.09402068 0.20830613 0.25124544 -0.37938362 -0.5592122 0.72746676 0.37322655 0.12653205 1.0025747 0.80661327 -0.051649816 -0.7469653 0.8894089 0.66442895 0.59861493 1.082251 -1.0265652 -0.8753278 0.7185807 0.5645376 -0.56331635 0.04912763 0.6009877 0.3323772 -0.3296331 -0.87785083 -0.3983867 0.43130782 0.18638307 0.3095703 -0.39135504 -0.2938008 -0.6683465 0.26145503 0.44840065 0.15502237 0.23597153 -1.0849952 0.10739894 0.34676352 0.77916056
cooperative.a.02 -0.08289366 -0.0055868183 -1.1100359 0.66394496 0.1261407 -0.1088755 -0.694249 -0.03676205 0.46420848 -0.12382903 0.35220742 -0.17078546 0.3095556 0.28929287 -1.2610658 -0.4169905 0.21084309 0.910808 1.2385954 0.4473318 0.31711417 0.25233033 -0.351075 0.12691687 -0.3354512 0.07456108 0.87558764 -0.18276843 0.110840075 -0.34232765 2.0248475 -0.22285087 -0.66182905 -0.2275796 -0.11714577 -0.52213484 -0.9000175 0.5376755 -0.12438983 0.10737369 -0.4367356 -1.5795895 0.15484855 -0.56030416 0.37610313 -0.19060016 -0.61163944 0.6728221 -0.0923616 0.736277
harmful.a.01 0.24460043 -0.49394992 -0.11556893 -0.124260195 -0.4100678 0.77621496 0.74099034 -0.5710162 0.36601838 1.4550587 0.5124972 0.42160025 0.7454886 0.13198377 0.38417697 0.58171916 0.62684137 -0.4027429 -0.09825067 -0.36248794 -0.44452888 -0.39319518 0.96636814 -0.38311103 -0.114825994 -0.7422736 0.3581405 0.34009537 1.6494426 0.15735686 1.3214484 -0.19110328 -0.2941684 -1.9489295 -0.7328068 0.053552646 0.2796522 -0.105663866 -0.15365514 0.5998717 -0.3333762 -0.15763208 1.0456358 0.398928 1.3175514 0.39724758 -1.0261614 0.40193182 0.9215966 0.69650996
political.a.01 -0.16279387 0.19148965 -0.3268225 -0.00056600163 0.2621336 0.5836971 0.61785907 -0.0017157499 -0.925114 -0.10764527 -0.8522172 -0.31513235 -0.95593065 0.4691148 -0.40120175 -0.6452254 0.6617606 -0.2999396 0.5762973 0.14693004 0.030850913 0.3489274 0.22506088 -0.16837837 -0.08241545 -2.2363653 -0.506243 -0.76164925 -0.17233197 1.5474856 3.4254127 0.21859342 -1.0659285 -1.2831993 -1.1575607 -0.048886243 -1.5062656 -0.22164527 -0.53903306 0.026754284 -0.7751116 0.40987757 -0.7649627 0.5563053 -0.135434 -0.27982217 -0.64292556 0.7186168 0.0984598 -0.5022143
appropriate.a.01 0.13684933 -0.10511829 -0.8225487 -0.39769536 0.9382337 -0.42785698 1.0933514 -0.11906912 0.11954376 0.031348873 0.08711386 0.8370184 0.46818104 -0.21069826 -0.06073522 0.53997135 0.28691322 -0.07708562 0.86486596 -0.7025222 0.03255711 0.35736004 -0.17440848 -0.06623054 0.2961116 -0.66605246 -0.1814112 0.01883072 0.17735323 -0.39544553 2.3605564 0.19393468 -0.5286729 -0.9357674 0.22686969 0.073329024 0.9738825 -0.028265182 -0.5390477 -0.35722518 0.11012163 -0.30727452 0.39380613 0.67345214 -0.122911 -0.28826568 0.12510139 0.76761854 0.4693094 1.2978672
even.a.03 0.45890284 -0.3128551 0.30935138 -0.3950108 0.16943726 0.19890353 -0.4481275 -0.03753588 -0.46254346 0.4421528 -0.36364385 0.118426144 -0.24834467 -0.101920664 0.69365156 0.44779602 0.2217483 -0.18596216 -0.08359832 -0.54838985 -0.4068456 0.23079695 0.05764322 -0.10974657 0.47210807 -1.4649322 -0.509298 0.4161966 0.5589692 -0.22715273 2.8143833 0.20163675 0.09550004 -0.30401307 -0.19001998 -0.26749718 -0.17309947 0.2425512 0.0631371 -0.44846484 -0.423514 0.55437946 -0.025057144 0.35032076 0.15252511 0.064703025 -0.24303627 -0.24100918 -0.17944576 0.1694339
vacant.s.01 -0.23495279 -0.29060686 0.58167535 0.16253732 0.8200465 -0.83675355 -0.072079 0.28995878 -0.6350971 -1.1460035 -0.2789528 -0.56787145 -0.43378654 0.21340285 0.58982396 0.9870052 -0.060620062 0.24609645 -0.007845812 -0.24202958 -0.15639862 -0.3248441 -0.43597612 0.12898119 -1.4105568 -0.005273046 0.49606773 0.43331686 0.20296513 1.1040418 0.77902704 -0.30541456 -0.04547306 -0.6656769 -0.07740144 0.7307464 0.11647499 0.63977444 -0.15224023 -0.8609762 -0.37863454 -0.013621979 -0.32217535 0.99138355 -1.0485842 0.046123285 -1.0234987 -1.4717692 0.07332937 -0.120502435
muggy.s.01 -0.13849187 -0.065254286 -0.61089224 0.3615692 -0.6423183 -0.4717991 0.34943873 0.35979423 0.34805763 0.47170842 -0.38718453 -0.6589874 0.5201395 0.81138784 0.53079486 0.047588494 -0.50148803 0.15628517 -0.21276595 -0.2840158 0.023558628 0.5545719 0.43011332 0.07683418 0.18310276 0.4678179 -0.06852363 1.0336947 0.9777722 0.61593956 0.0080639105 0.06433181 0.20871471 -0.07095274 0.018302733 0.41986677 -0.15077649 0.030914584 -0.3252764 -0.32691243 -0.5178683 0.29415601 0.0022177657 0.25703746 0.1896179 0.19858842 0.64429015 -0.34301567 -0.28131232 0.10175354
complimentary.s.02 -0.26105538 -0.33240828 -0.15404707 -0.34627983 -0.06451681 -0.28103703 0.20121677 -0.22826043 0.35018888 0.6880752 -0.07431981 0.015193741 0.52162397 -0.02002527 0.20421581 -0.008988379 0.19761004 -0.19878757 0.72300726 0.19459903 0.42161897 0.05367013 0.03178559 0.2800439 0.1308404 0.31007394 0.27151293 0.1724802 0.5859982 -0.1283728 0.3300284 0.45717525 0.049788672 0.28511277 -0.42436102 0.017484933 0.09540636 0.2708976 -0.50721735 0.037020355 0.34245938 0.006727359 0.3469533 0.23804122 -0.5568488 -0.23843434 -0.31066394 0.010430013 0.11952756 0.13195328
critical.s.04 0.24125095 0.048148718 0.26336953 0.20306605 0.3676892 0.20659909 0.17155409 0.44090393 0.80568725 0.25727046 -0.13237716 -0.012773775 -0.516363 0.157753 -0.5583004 -0.12027082 0.44592118 -0.63875175 0.39211875 0.26243442 -0.17595442 0.13191701 -0.08281889 -0.36622137 0.60923135 -0.69484335 -0.08592462 0.01654996 0.4168862 0.3034921 2.3472888 0.12497782 0.15004317 -0.7135286 -0.101725146 0.11990908 -0.0796803 0.3959204 -0.26450557 -0.03329808 0.24760753 -0.10940242 -0.1874571 -0.46921924 -0.117158905 0.49236402 -0.25694108 0.8728934 0.52557874 0.04861887
ordinary.a.01 0.07205986 -0.22664146 0.22541906 -0.580466 0.98320335 -0.067291625 0.4237511 0.05704043 -0.6366733 0.22620142 0.29462236 -0.047386218 0.9150291 0.14025693 0.31265032 -0.12958805 -0.24477273 0.28348565 0.12133298 -0.50415266 0.042382445 0.11782575 -0.12550506 0.7015928 0.3433435 -0.48132026 -0.62049973 -0.7861886 0.38072228 0.27947813 1.7650955 0.29165116 -0.07869198 -0.17759196 0.0031596029 0.014583761 -0.08582966 -0.5061439 0.063983835 0.088025846 0.13410687 0.3111385 0.46943825 0.5463419 0.018030558 0.21778089 -0.3195378 -0.28765267 0.17851673 -0.21885835
empty.a.01 0.33468017 -0.5393944 0.12777716 -0.6481967 0.30315307 -0.5257578 0.12483125 0.2719694 0.1684289 0.19004878 -0.45420292 -0.6599533 0.16652983 0.12097895 0.22487953 0.2109539 0.2792332 -0.028109493 0.111924455 -0.48702493 -0.31584793 -0.15262407 -0.2511629 0.18144892 0.08090286 0.11251094 -0.4803032 1.1882368 0.92384756 0.120410345 -0.023462962 0.3491492 0.51569146 -0.11782279 0.11493572 0.28793636 0.115578994 0.26136956 -0.57856137 0.2855856 -0.16996737 0.2652493 0.008209035 0.48656282 -0.6905721 0.089905605 -0.29328918 0.08480066 -0.038913578 -0.34152782
well.a.01 -0.07574148 -0.11128125 0.020491127 -0.16019714 0.21913329 -0.08979565 -0.31390923 -0.016293691 -0.14181943 0.21187767 0.13970618 0.18010218 -0.26401898 -0.38371888 0.085874915 0.10438904 0.34838703 0.26076606 -0.012081273 -0.46300218 -0.4417525 0.39910987 0.17421041 0.18707648 0.28389972 -0.7492539 -0.1552123 -0.021785762 0.10439238 -0.26140085 2.1217732 0.416744 0.27692986 -0.24664898 0.09165441 -0.28751132 -0.0367683 0.39728484 0.1767281 -0.20036197 0.09446684 0.14566301 -0.09363288 -0.24776481 0.19317827 0.15209146 -0.17048682 -0.31856787 -0.14696385 0.9112334
invisible.a.01 0.08472813 -0.06630481 0.7027026 -0.12496137 0.5016233 0.14780773 0.36153233 -0.48380575 0.053934243 0.2387572 0.6664006 0.27785212 0.08969286 0.6425841 -0.06983838 0.282841 0.118625246 -0.05197416 -0.17090183 0.16770357 -0.659245 0.13810715 0.0016237013 -0.032875754 0.2735015 -0.39492258 -0.48752472 0.51442444 1.036837 -0.31454664 0.7457131 -0.4997425 0.1891559 -0.5874998 -1.059034 0.19900286 -0.053453937 -0.25841326 -0.320113 -0.23587476 0.3959407 0.20170973 0.43466136 0.05526337 -0.470057 -0.4266889 -0.07116612 -0.795531 -0.15404822 -0.17659421
decisive.a.01 0.17895195 -0.7244306 -0.13081543 0.15747857 0.36344334 0.09117086 0.80535406 1.1909112 -0.41813013 0.2089427 -0.51580644 -0.67470676 -0.7519344 0.03731403 -0.7997328 -0.8087255 0.81937283 -1.3094279 -0.7729112 0.36506996 -0.8050442 -0.80583483 -0.37127206 -0.5516091 0.4243058 -0.64222026 -0.14320198 -0.5385642 0.41922346 0.30050355 1.5654418 0.4177617 -0.89367557 -0.021467574 -0.025070302 -0.25689566 0.045865983 0.79380447 -0.6592574 -0.40625367 -0.069656834 -0.24268495 -0.42354444 -0.7487082 -0.40990472 0.5815149 0.27684486 0.4113303 0.6672041 0.1308271
major.a.02 0.20782521 0.12331864 -0.006682963 0.91085714 -0.33971828 -0.016074222 -0.37976316 0.43363425 0.3142796 -0.27762675 -0.030837916 0.088280484 -0.91389114 -0.14416556 -0.06361039 -0.3970139 0.16154017 -0.07328029 -0.61909276 -0.06384138 0.3395737 -0.95169926 -0.25240865 -0.3015633 -0.6841965 -1.0186268 -0.40763542 -0.6251187 -0.15474889 0.6172415 3.4708362 0.09293649 0.6530373 -0.19018055 0.39429834 0.176659 -0.09651144 -0.082168594 0.011198464 0.46965456 -0.8568518 0.27759588 -0.3053728 -0.52388906 0.46086222 0.23949443 -0.5013798 0.49248734 -0.18598568 0.06572921
warm.a.02 -0.10156628 1.2331481 -0.6947874 -0.29226083 -0.20270938 -0.95719886 -0.38746926 0.9022948 0.33421603 -0.038298458 0.42416087 -0.40364423 1.4402177 0.3684712 0.3731439 0.58978903 -0.60518587 -0.2733568 -0.44219717 -0.12627621 -0.4465769 0.19998339 1.0349673 -0.42070806 0.68807155 0.291149 0.06283829 0.8797225 0.90492576 1.183319 1.4433147 0.97441673 0.07365794 0.1449804 -0.19227041 -0.49431333 -0.49550015 0.74745375 -0.6221447 -0.3108435 -0.45133692 0.31438535 0.00259288 -0.569294 -0.48182043 0.36631414 0.04054775 -0.3600605 -0.874914 0.17689773
cultural.a.01 -0.27752224 1.5404879 -1.5707186 0.89585435 0.2623574 -0.19284783 0.03713224 -1.1548887 -0.22111239 0.40307155 0.3243306 -0.27633038 0.39345637 0.18875262 -0.2952467 -0.29675308 0.53206277 -0.11840615 0.27666613 0.66603845 0.26242843 0.2803134 -1.1196138 -0.008586861 0.22983149 -0.42342255 -1.2839566 -0.5359853 -0.1142446 -0.064968936 2.6854608 0.3627103 0.14490877 -1.4429679 -1.1398666 0.49371564 -1.0993861 -0.0058295457 -0.47393277 0.98306626 -0.31857565 0.013894629 0.48038712 -0.076303005 -0.13037477 0.23482037 -0.39447758 0.075098105 0.24263328 -0.6019471
liberal.a.03 -1.1815692 -0.040868286 0.23569182 -1.0590279 -0.108792 1.0717816 -0.46459275 -0.46139404 -1.6968096 -0.11633314 -0.3637662 -0.68922067 0.17600736 0.70658386 -1.1133825 0.088580154 0.694673 -0.47984233 0.32929623 0.39023846 -0.31666565 -0.15797333 0.09022275 0.54770225 -0.2209888 -1.463136 -0.083841406 -0.44834712 -0.9282863 1.3239058 1.8667887 0.07739393 -0.37584195 -0.718213 -1.2738638 -1.166876 -0.5148036 0.38514364 -0.00845023 -0.37273693 -0.07236524 0.15083604 -0.6364784 0.4617703 -0.34427994 0.35255495 -1.7609938 -0.39657205 0.98828286 0.2967293
proud.a.01 -0.2879858 -0.14694555 0.06916489 -0.30177724 0.91539896 -0.26129165 -0.21093363 0.37752235 -0.045463886 0.34869552 0.24178039 -0.053231433 -0.12191991 -0.22648928 0.34662142 -0.2545147 0.117733665 0.9653455 0.25603497 -0.031718183 -0.8522189 0.31479415 -0.5161041 -0.45951387 0.9677145 -0.6977953 -1.3940499 0.054201305 0.3674416 0.033099886 -0.0849067 0.65809256 0.29677823 0.09114742 0.19717453 -0.24725237 -0.046586 0.6605086 -0.4634066 -0.24360679 -0.66735244 -0.3415426 -0.11013009 0.3185359 -0.6756693 0.023903895 -0.8781524 0.34312072 -0.27286488 0.16725889
accurate.a.01 0.13110064 -0.8323021 0.7898351 -0.3073772 0.7810282 -0.39190805 0.07480923 -0.27476415 0.79990774 0.31821868 0.14139318 -0.34315917 0.37935925 -0.18711586 -0.06931347 -0.06640484 0.14774379 -0.8249505 -0.2830981 -0.65598214 -0.39668724 0.049475335 0.3267165 -0.34896678 1.2976552 -0.3945747 -1.3567909 0.056349043 0.80742705 0.018013101 2.2538183 -1.0287776 -0.17189127 -1.1623436 0.8628614 0.21043731 1.0185171 1.121356 -0.6991572 0.072359875 0.7223604 -0.028376808 0.23827493 0.4767461 -0.649456 -0.4514381 0.7689874 1.6852013 1.0712342 0.51176643
controversial.a.01 -0.008103072 -0.019375866 -0.7935996 -0.077621944 -0.33181027 0.9687559 -0.20290683 -0.3682694 -0.20539595 0.7478557 -0.8461753 -0.19041935 -0.16604514 0.5367017 0.5438901 -0.08150551 0.3277472 -0.70843685 -0.032923512 0.5026426 0.20706199 0.0003926533 -0.66850317 -0.30733967 0.042852297 -1.9840462 0.36075154 0.12786674 -0.41765434 0.5175291 2.072081 -0.9313441 -0.88485813 -0.5761065 -0.39257446 -0.07374916 0.5226443 0.18987338 -1.2476224 -0.56588787 -0.07378864 0.3186108 -0.30998686 0.41903642 0.1339337 0.2011971 -0.26891184 0.9819365 0.21541448 -0.11495896
abstract.a.01 -0.13439947 0.36355138 -1.1419964 -0.43870214 0.7603745 0.6819359 0.47035652 -1.5573289 -1.7471031 1.1096758 0.39552477 0.123210415 -0.048426524 0.23120454 -0.050553903 -0.38499618 0.30683866 -0.36113456 -0.0040417146 -0.72253424 -0.22977209 0.1317847 -0.753548 -0.14242044 0.39381018 0.38096967 -1.2994484 0.116207555 0.7642846 -0.30089396 1.4775808 -1.4359006 -0.15236722 -1.8475004 -0.4524671 -0.18000202 -0.059990533 0.82910216 -0.30677608 0.2121243 0.7337381 -0.7492423 0.77220815 0.5869871 -0.050450984 0.06394885 0.89633226 -0.17054293 0.18067944 0.07860964
constructive.a.01 0.78962946 0.510849 -1.3077697 0.37107068 0.31953996 -0.23874344 1.2241881 0.9431362 -0.5805462 0.7915174 -0.44987664 0.3413145 -0.45192826 0.06557368 -0.7389317 -0.23030673 1.2111801 -0.10700997 1.0377227 -0.09352904 0.46032783 1.0794963 0.31023318 -0.06956687 1.0319839 -0.048935775 1.403319 0.31328416 0.26894617 0.27183887 2.1328106 -0.04240761 -0.67697006 -0.71721834 -0.37433207 -1.0556221 -0.16672347 0.5330445 -0.9875417 0.11177794 0.35865402 -0.97738665 0.014825212 -0.25880337 0.33451268 -0.39299956 0.036260195 1.549609 0.07140107 1.1326344
well-defined.a.02 0.40869755 0.00213308 0.032845054 -0.080307916 0.39214003 -0.32625997 0.13039112 0.1032542 0.10197341 0.32943192 0.20515987 0.06728702 0.21111462 0.1068162 -0.37458333 0.4692055 -0.15826342 -0.7215331 0.23571555 -0.3090155 -0.57860184 0.05195169 0.089856334 -0.12296375 0.49702486 -0.27082166 -0.39586022 0.9024653 0.44097787 -0.045718793 1.1749502 -0.21964343 0.014672987 -0.8669003 0.20989394 -0.47468513 0.26827633 -0.08376153 -0.47510898 -0.16582772 0.18415211 -0.07870196 -0.035666883 0.29196808 -0.42602453 0.09168228 0.24349011 0.8917792 0.4168281 -0.07632533
alone.s.04 -0.127117 0.3624098 -0.16787083 0.17404222 0.45667872 -0.13793802 0.22172835 -0.22291651 0.4267525 0.7396795 0.14760424 -0.14241858 0.19343546 -0.2654903 0.17134479 -0.11827438 0.24102105 0.2924588 -0.18368009 0.022184702 -0.38177288 0.23573104 -0.39177403 -0.22143327 0.5276035 0.17675246 -0.8090088 -0.070785396 0.6536222 0.36998084 0.8775723 0.02121373 0.48323476 -0.36699015 0.0924316 0.30497584 -0.29369015 0.2109163 -0.49807626 -0.24884176 -0.035666294 -0.24544162 0.001915049 0.27482224 -0.6110294 0.036493797 0.24584706 0.24221413 -0.21523353 -0.09740264
official.a.01 -0.20795752 0.19523266 -0.100975625 0.6717944 0.5351213 -0.8723915 -0.48796576 0.15324368 0.4586017 -1.0171511 0.20058943 -0.2369793 -0.27055407 0.16510324 0.995731 -0.19510956 -0.6784845 -0.12113062 0.47693747 0.3908047 0.19716574 0.2312472 0.29891348 -0.20116113 -0.02005526 -2.01124 -0.27348337 0.22099428 -1.047894 0.3340714 2.9993665 -0.23466882 -0.42604512 -0.0065035024 -0.2493346 0.021828022 0.61432433 -0.49205503 -0.65353376 0.32730633 -0.17812423 0.5194561 -0.22647862 -0.8088707 0.18447304 -0.69237924 -1.0145835 1.5298424 0.7267193 -0.12448522
rough.a.01 -0.09224404 -0.7333146 -0.66655236 -0.12469971 -0.80225366 -0.3155036 -0.29072544 0.26656583 -0.025578722 -0.40307784 -0.58520377 -0.38698772 -0.16862154 0.0020751252 -0.09265148 -0.014779485 0.39810514 -0.18634956 0.19427584 -0.37186503 -0.90761316 0.5138954 0.0721581 0.15998323 0.58878195 0.32885572 -0.5303434 0.93875813 0.93108565 -0.06635607 0.86016846 -0.25371438 0.35977298 0.24060577 0.24547951 0.25628403 -0.48325184 0.45166323 -0.5754008 -0.38025418 -0.6982241 0.14817603 0.43334922 0.4376905 -0.55799556 -0.3605313 0.64244694 -0.2558139 -0.03742272 0.082333155
weekly.s.01 -0.8670843 0.88977456 -0.018244114 -0.5007134 -0.17913602 -0.894727 -1.4354196 -0.47911534 0.63358325 -0.3068795 -0.57847047 -0.92062974 0.27554733 0.2459714 1.1706625 -0.6345305 -0.93448263 -0.3043809 -0.13508692 0.46538252 1.0295917 0.020412436 0.69297993 1.140802 -0.15225253 -0.30117732 -0.4482791 0.3033844 -0.60032874 0.98995984 2.447653 -0.067027666 0.19165793 0.87357014 -0.83894855 -0.4893832 0.01769996 -0.24970074 0.26500237 0.09955303 0.7632386 0.15165311 -0.83641875 -0.04399324 0.3237051 -0.542781 0.25387484 1.2352409 0.18527737 0.97764075
continental.a.03 0.28454193 0.6421966 -0.83250487 0.67319643 -0.6837335 -0.09492486 -0.6998217 0.06744213 0.07966281 -1.5570152 0.8592056 0.22049196 -0.10879478 0.6919822 -0.18920358 0.30293593 -0.12330419 0.37402424 -1.4156898 -0.8819525 -0.16544597 -0.65144587 0.060283422 0.61677855 -0.6002732 -0.29450575 -0.5857005 0.25870433 -0.0032750089 0.91587704 1.7973353 0.22403006 -0.12046446 0.49606222 0.027786808 -1.0921568 -1.0038021 0.043459896 -0.3024869 0.29092538 0.10711168 -0.25550076 0.924764 0.30558988 -1.1535015 0.652425 0.19903907 0.14933647 -0.9967296 -0.30409217
dynamic.a.01 0.00016163343 -0.122170754 0.04062851 0.93497634 0.09950524 -0.0741684 0.7852277 -0.6506825 -0.32168165 0.18667074 0.5485916 0.021937216 -0.32599467 0.5087344 -0.5734071 0.11275566 -0.08491565 0.33998442 0.1317548 -0.2726369 -0.33623597 0.12044421 -0.6560269 0.27261952 0.6925821 1.0111299 -0.115410395 -0.43302113 0.4359271 1.0388612 1.2910315 -0.3161437 -0.08066096 -0.9778415 -0.044652805 0.0026090266 -0.34824103 0.11174091 0.07873788 0.8610558 -0.03746896 0.116722636 -0.5488657 0.7622039 -0.62662286 -0.26918623 0.92653835 0.023073085 0.40521526 0.349086
artistic.a.01 -0.41746566 1.4575666 -1.70304 -0.045985777 0.7131772 0.5357007 0.25395176 -0.46744743 -0.42647403 1.109344 0.67915875 0.31236392 -0.48649058 0.16638255 -0.2819864 -0.48622337 0.87402457 0.4087785 -0.15482715 -0.53788805 0.7240093 0.8000396 -1.0145974 -0.6757623 0.20790069 -0.15800233 -1.3793625 -0.52539915 -0.32396582 0.071013756 1.9574627 0.19971958 0.6351131 -1.7521098 -0.57214004 0.5590336 -0.5986471 1.154769 -0.49098182 0.18286787 0.29587492 0.00064739824 -0.31092983 -0.18357317 -0.45250982 -0.33622772 -0.016430069 -0.4083839 -0.83192337 0.18445109
acrimonious.s.01 0.5669494 0.14536917 -0.7954704 0.35630885 -0.72115034 0.98057365 0.35009208 1.1537708 -0.66832817 0.39841852 -1.1444397 -0.30006173 -0.5377984 0.035973683 0.09755835 -0.20373496 -0.2676504 -0.056112256 -0.31995916 0.11079067 0.02784836 0.23072554 0.17909628 -0.0070531364 -0.078239165 -0.57756615 0.03183049 0.33062872 0.86342645 1.3538778 0.50837946 0.28441757 -0.010150552 0.38578853 -0.4949417 -0.22376978 -1.2045621 -0.03233676 -0.8635428 -0.6298832 -0.026063144 -0.13603848 -0.7502078 0.90088856 0.2583729 0.48538342 -0.17121641 0.21758062 -0.8086938 -0.57641464
uncomfortable.a.01 0.38371697 -0.22749336 -0.401538 -0.26882508 0.64365697 0.49254772 0.22418794 0.68613756 -0.954744 -0.38365817 -0.31946203 -0.35878363 -0.26205158 0.6046177 0.32610887 0.53345585 -0.27935976 0.061419427 0.43541273 -0.49236503 -0.51443595 1.2250378 -0.06062166 0.42814776 0.94001824 -0.7067573 0.06952791 0.9678631 0.89571977 0.32820135 1.0100956 0.5890016 0.66018075 -0.9538291 -0.501404 -0.13437869 -0.41145965 0.26743317 -0.64981437 -0.6297032 -0.4411211 0.07604421 0.12568429 0.9402817 0.0375403 0.07795949 -0.24994719 0.047180224 -0.19203551 0.51429915
gradual.a.01 0.5016056 -0.093920454 -0.49482593 -1.1896325 -0.6077892 0.03990313 0.36941823 -0.06960068 0.3045057 0.6087857 0.41583124 -0.4631856 0.2000637 -0.19574605 -0.49695435 0.60693014 0.39435673 -1.0790287 0.4123113 0.14637089 -0.022213602 -0.8753595 -0.99631006 -1.0923764 0.658675 0.3818128 0.07913004 0.044391595 0.8142447 1.325673 1.8779101 -0.44720626 -0.7206304 0.44140548 -0.3892604 -0.95908725 0.05086997 -0.07718593 -0.24076419 0.41427177 -0.8522848 -0.49080458 -0.6744753 -0.7034298 0.051776916 -1.1179188 1.257931 0.15396586 -0.53606683 0.3201417
assertive.a.01 -0.1692835 -0.7440961 -1.0058739 -0.3082055 0.7020674 -0.08973209 0.93749976 0.2029529 -0.64466274 0.6631114 0.15624097 -0.24830636 0.44798476 1.074887 -0.9401749 -0.10704734 -0.015147192 0.5864509 0.69014704 -0.08903926 -0.43503374 0.3633925 -0.25310877 0.16709031 0.10175761 -0.73074734 0.53652036 0.578199 0.091947936 0.3632985 0.3725477 0.5018715 0.16943482 -0.32460195 -0.10663368 -0.40613705 -0.87842846 0.9550556 -1.2866012 -0.92086965 -0.24160157 -0.0851185 0.5303673 -0.29796314 0.8588255 0.42204446 0.03470119 0.67401826 -0.39527947 0.9748383
free.a.01 -0.8826452 -0.039947048 0.018964542 -0.3789177 0.15472737 -0.7670352 0.14350225 -0.37531006 0.6186089 0.76504606 0.1646402 -0.16916363 0.19729345 0.573822 0.024268482 0.33899507 0.98683035 -0.5644863 0.8022556 0.20694807 0.6976909 0.021368368 0.14729802 0.39955616 0.59731394 -0.40148497 0.03786049 -0.18077068 0.077270456 0.17275244 1.0977068 0.6688115 0.0106277475 -0.2039228 -0.9408656 -0.34936985 -0.37839842 0.68759495 -0.60439575 0.15695457 -0.10993042 0.11008375 0.339219 -0.037162203 -0.4110494 0.32416576 -0.4309463 -0.42810735 0.08006081 -0.48924458
incapable.s.04 0.103896424 -1.580548 0.07441752 -0.4988644 0.2477623 -0.07313897 0.7732057 0.69091237 -0.41585922 0.07200491 0.018502755 0.49666578 -0.2064099 0.38608795 -0.30362535 -0.43321905 0.26337224 1.0484948 0.7737365 0.06920297 -0.5321633 0.5982809 0.36351323 0.24544469 0.3852212 -0.6364321 0.1949659 -0.092765495 0.15881252 0.26900378 0.59812367 -0.3051388 0.11049389 -0.64733136 0.08398661 0.57263213 0.3434711 0.36086422 -0.39189288 -0.497922 -0.3042566 -0.39048013 0.09249686 0.60164696 -0.122460395 -0.19158323 -0.9506433 0.03960594 0.7528606 0.4419146
obvious.a.01 0.17132798 0.5333367 -0.30349 0.2568723 0.22653921 0.5794791 0.16344935 0.404299 -0.44030917 0.38969347 -0.20279951 0.5141307 -0.6402827 -0.47049353 0.084844396 0.13795358 0.287321 -0.1520174 0.13409917 -0.33693844 -0.91356194 0.037371818 -0.36233282 0.122943826 0.77798456 -0.9603395 -0.9998941 0.4854607 0.87228376 -0.29169264 1.4271053 0.11868432 0.48590052 -1.0129303 0.18425924 -0.056539033 0.014953551 0.037084688 -0.5275051 -0.22348751 0.13635096 0.36552075 -0.27741385 0.31782886 -0.08009235 -0.023708863 0.17994066 0.84043366 0.5318682 0.27316597
religious.a.02 -0.3268405 0.5700781 -1.2130612 -1.1814752 1.4499688 0.4343911 0.3721487 -1.1343305 -0.3280059 0.68819594 -0.33705473 -0.5143066 0.2908595 -0.3223383 -0.34689796 -0.14050435 0.10405398 -0.61456263 0.75126535 0.6909808 0.24392028 0.66303056 -0.35360396 0.4551578 -0.42108974 -1.4937655 -0.71006376 -1.1495453 -0.18782641 0.34062773 3.0030367 0.4133047 -0.51953804 -1.3743755 -1.0240612 -0.024047745 -0.23741233 -0.67196643 -0.9517759 1.4406364 -0.27289537 -0.20045723 -0.48075962 1.6189405 0.32381502 0.4415588 -1.1865109 0.14898244 -0.38819155 -0.9745663
busy.a.01 0.36818302 -0.291369 -0.13885354 -0.4111599 -0.33226383 -1.1816462 -0.5955891 0.41787976 0.3187373 -0.36112458 -0.5400792 -0.38248745 -0.43655008 0.38332415 0.28966808 -0.07538032 -0.1677309 0.25670698 0.0034528405 0.037837025 0.50395393 -0.27054748 -0.59464586 1.0459027 0.58328146 -0.21179225 0.24772128 0.5697532 0.9437744 0.058681794 0.95591956 0.831992 1.161444 -0.09178635 0.023727497 0.16984494 0.08968733 0.711541 -0.69218135 1.0672055 -0.8298825 0.36302048 0.3024919 0.28773215 -0.6621369 -0.08057941 0.0070119346 -0.5074798 0.27865764 0.59353983
residential.a.02 0.79254794 0.6071959 0.5149947 -0.060845323 0.12815666 -0.3385553 -0.7416707 -0.85661125 -0.31283528 -0.05503988 -0.5057344 -1.3583671 0.5237339 -0.33041042 -0.8080903 0.6850213 0.18821698 0.7614757 0.17238624 0.39284453 0.67630637 -0.022463206 -1.6510009 0.63326913 -1.1321596 0.2835364 0.67751634 0.13849662 0.52000135 0.41252628 2.809376 -0.53992826 1.2050558 -0.5331726 1.0683647 0.6383561 0.09116165 -0.029348683 0.11391922 0.6181761 -0.52173096 -0.13712348 0.47169983 0.5470546 -0.1933083 -0.1500106 -0.43993285 -0.58348674 0.50391346 0.2419634
lost.a.03 -0.5460618 -0.37460396 0.7132711 0.592594 0.64249253 0.18846716 -0.48351526 0.6151156 -1.0075178 -0.1918341 0.25177342 -0.102491975 -0.66314757 -0.85581505 0.33563408 0.1802833 -0.35507783 -0.42678806 -0.9701171 0.1313528 -0.4023022 0.19171779 -0.077951685 -0.5278543 0.16958968 -1.1598324 -0.18131666 -0.7413629 0.4365668 0.043221444 2.6723802 0.6144531 0.27787504 0.34614804 -0.17996924 -0.55789155 -0.3725856 0.121824495 0.6756026 -0.95760936 -0.07766326 -0.49161097 0.4068278 0.06805771 -0.3168005 0.38319162 -0.6215785 -0.74316555 0.4700187 -0.4957068
reliable.a.01 0.09801963 -0.29114398 0.8924658 -0.030549945 0.4833165 -0.51498705 -0.70595413 0.44458544 0.48279175 0.5325206 0.3481097 0.12587504 0.42535472 0.4035306 -0.49064785 -0.32934004 0.27001393 0.2218391 0.7951604 -0.49141762 -0.9712994 -0.04663345 -0.31222612 0.13715574 0.65179884 -0.20857374 -0.18915178 -0.021574989 0.90553117 0.9668232 1.5510231 -0.32055464 0.535604 -0.21837276 0.47595328 0.31758764 -0.112674244 1.1151087 -0.42298204 -0.3969097 0.63608414 0.0067518456 -0.047254447 0.44287485 -0.081519954 -0.17067899 -0.55728817 1.300334 0.37266794 0.89816123
desirable.a.01 0.56859106 0.31692195 -0.042637974 -0.01191654 1.0854076 0.20396733 0.34225586 -0.21796222 -0.28782257 0.7224486 0.4172228 -0.07116825 0.90089774 -0.40601996 -0.062035084 1.020672 0.67412966 0.04818776 0.5779959 -0.51177907 -0.31546015 -0.38648054 -0.5310945 0.6067543 0.17908567 0.08759449 -0.46891367 -0.1373763 1.0227093 0.19160974 1.4680682 0.39093843 0.40406364 -0.98755693 0.8929963 -0.19055669 -0.016663259 0.78168654 -0.87539244 -0.4826572 -0.45557415 -0.48756114 0.50645804 0.5944999 0.14498146 -0.28743184 -0.3605896 0.3796081 0.99975294 1.1286792
cosmopolitan.s.03 0.09118861 -0.10872802 -0.43655404 0.109578975 0.40346232 -0.35619918 -0.12839875 -0.55893636 0.41968387 0.2126417 0.6153796 -0.024545688 -0.2097473 0.020767191 0.07576356 -0.25758603 -0.29868743 0.2020822 0.07641007 0.12327758 0.27760175 -0.055479936 -0.33807272 0.1830373 -0.34702718 -0.19619422 -0.5811276 -0.43937168 -0.2485622 0.61314577 1.6185173 0.31553555 0.29104027 -0.51400477 -0.640749 -0.43349856 -0.33569533 -0.20296516 -0.36806455 0.36802384 -0.041448954 -0.39002723 0.0028462936 0.055359457 -0.5207593 0.46226 -0.595588 0.25679058 -0.35138842 0.19132486
irrelevant.a.01 -0.2925398 -0.6887533 -0.012824749 0.18943223 0.5266625 0.03062788 0.25553113 0.22484545 -0.66547287 0.25720084 -0.23454227 -0.016242363 -0.16065753 0.122414164 0.5075422 0.6180987 0.2536931 -0.13304035 0.52538687 0.5724836 -0.14561461 0.2801152 0.43169847 0.21507461 0.5742161 -0.6054467 -0.38769215 0.5813011 0.7023531 0.102521405 0.6099343 -0.95285535 0.12675905 -0.82487416 -0.29489046 -0.21939294 0.46007138 0.41246623 -0.82842606 -0.21752831 0.019423045 -0.1678563 -0.049321372 0.88624597 -0.47842833 0.19291349 -0.62283605 0.7753007 0.3442957 0.48870605
subjective.a.01 -0.21828842 0.20278008 -0.7628697 -0.17263557 0.5320903 0.11955524 1.4042648 -0.22985773 -0.130295 0.6497206 0.22837766 0.0442446 0.10469067 -0.28297636 0.042624842 -0.16990593 -0.2399575 -0.05081468 0.24153797 -0.46810138 -0.44834682 0.9968552 0.6596061 0.34372276 0.925411 0.52856636 -1.3680145 0.19416802 -0.09096963 0.57353485 0.8857452 -0.23719928 0.3033445 -1.4011964 0.24077393 -0.46928468 0.38841587 0.21315095 -0.16301598 -0.41952968 0.42341447 -0.54813087 0.4602306 1.2673247 -0.8900478 -0.2128383 0.65174747 1.1243159 1.3000062 0.49063945
alert.a.01 0.27940372 -0.5151556 0.3650179 -0.7431542 0.14629686 -1.3438072 0.453431 0.5946955 0.74448496 -0.52465415 0.27641386 0.015743056 0.37761346 0.7188732 -0.23425932 0.14451866 -0.5204145 -0.22413436 -0.24873546 0.009133242 -0.41415012 0.3933328 -0.0062629892 -0.008045608 0.016461793 -0.5167751 0.56102425 0.40310794 0.13468385 0.37968203 1.0466424 0.7209812 0.19325969 -0.70819074 -0.1842263 0.48065493 0.5781908 -0.95789987 -0.006860315 -0.28446472 -0.23861493 0.2650916 0.3940552 0.05607639 0.538178 0.054064125 0.20702414 0.23753062 0.2788854 0.2972465
firsthand.s.01 0.7025711 0.079889655 0.02915888 0.13715571 0.21084775 -1.0386915 -0.37545738 0.39292344 0.6061794 0.07902171 0.040649727 0.045349415 -0.00013775623 -0.6595974 0.71462387 -0.1681529 -0.46742943 -0.2158984 0.2275982 -0.08604207 -0.10615413 0.7892781 -0.068174824 -0.47349057 1.1079022 -0.4058959 -1.2529178 -0.304075 0.46840993 -0.090832695 0.33916953 0.12170715 0.120136835 -1.3395072 0.054343764 0.37403524 -0.7963135 0.18050279 0.34163395 0.49444228 -0.0878475 0.17700627 0.18865141 0.44890246 0.36364725 -0.3796584 0.75028765 0.96776414 -0.4206055 -0.14031011
traditional.a.01 -0.668325 0.37816092 -1.5141035 -0.1213445 0.13018666 0.05393321 -0.3983161 -0.74903584 -0.37904215 0.0027545325 0.3978903 -0.07095237 0.95609266 0.27510732 -1.004887 0.22108239 -0.2858183 0.14620586 0.56308216 -0.52441365 0.09435195 -0.17266549 -0.7677459 0.486874 -0.1138199 -0.55979556 -0.98169607 -0.4649346 -0.065871194 -0.016663065 3.063847 0.42965245 -0.56854904 0.65693074 0.0781274 0.24055965 -0.39317268 -0.10999392 -0.8065169 0.45996842 0.04623797 0.014569398 -0.46958548 0.38638887 0.400167 0.253504 0.09556672 -0.3213627 -0.22536775 -0.4900548
dangerous.a.01 0.63707 -0.99100435 -0.18381888 -0.14100863 -0.9047433 0.3636962 0.35768223 0.34236655 0.5756616 0.6081708 -0.11565523 -0.2209202 -0.20457901 0.20280321 0.4792161 0.2838606 0.5260247 0.18963866 0.016666004 -0.39764747 -0.3943037 0.51953566 0.2103021 0.49644902 0.39056715 -1.2315874 0.2729054 0.6259873 1.6659176 0.41241467 1.9062331 -0.37558758 -0.010814944 -1.0365616 0.06990449 0.2182844 0.5450931 -0.15844451 -0.59976417 0.3386392 -0.959051 -0.015436003 1.3770393 0.6268114 0.77676743 -0.11015273 -0.8374026 -0.16003186 0.9033469 0.26502457
square.a.01 0.47488508 0.09151547 0.14030963 -0.4062463 0.63663924 -0.005906999 0.40180123 -0.9057798 -0.42096683 -0.24051276 -0.40792593 -1.1232684 0.13972266 -0.29843074 -0.23829737 0.21240515 0.472915 0.6956167 -0.3890329 -0.4550318 -0.03521287 -0.15751244 -0.6659608 -0.3346501 -0.27356786 0.57043266 -0.07911886 0.9381158 -0.25364137 -0.22789553 0.7907783 0.0021043061 0.58105356 0.20341875 -0.34621406 0.21566866 0.3171883 0.48210034 -0.32126468 0.118515834 -0.046322424 0.11512699 -0.16920054 0.0055157295 -0.6721045 -0.17372414 0.0062341806 -0.71544784 -0.5841961 -0.26363555
solar.a.01 1.2361602 1.1798351 1.640711 0.88281727 -0.43456924 -0.461597 -0.30164272 -0.72224844 -0.22348028 0.92071813 0.5762113 -0.36622766 1.15528 1.3191842 -0.42773962 0.7506664 0.12780356 0.9812727 -1.0250822 -0.7732435 0.10575855 -0.8921098 -0.22356303 -0.9594098 0.41625753 0.5122885 -0.1507123 0.00040855823 0.2417064 0.6769939 1.7561817 -0.1596643 -0.87763184 -0.7648602 -0.42506418 -0.051517777 -0.058501773 0.47989076 0.85190123 0.37383166 -0.2740222 -0.17732225 -0.4402049 0.3548765 -0.25933155 0.28631157 0.28569484 -0.80197054 -0.36145493 -0.3049725
seasonal.a.01 0.19379684 0.17300248 -0.7920278 -0.112095445 -0.79234874 -0.34386757 -0.7878958 -0.22660682 0.88581896 -0.12208358 0.4372597 -0.32352376 1.5603237 -0.3239488 0.9114831 0.15466641 -0.22015578 -0.74886554 -0.5006082 -0.8303941 -0.30114865 -1.2895418 0.16805793 0.22682665 0.39426175 1.1184944 -0.6570687 0.113411084 1.180505 1.2135798 2.3251798 0.7027798 0.7284125 0.10104563 0.015955651 0.28202 -0.032623205 -0.0907941 0.22578506 0.72622263 -0.77354634 0.540282 -0.25153217 0.27876297 0.54405755 -0.36801827 0.80860144 0.44077805 0.24526413 0.70061266
illegal.a.01 0.109910935 -1.0902666 0.22875391 0.26454931 -0.53219485 0.31049058 -0.2973155 -0.246133 0.6865906 0.5879832 -0.2070301 -0.31990317 0.5620493 -0.42943642 1.0780644 -0.7771145 0.6002933 0.039131355 0.13374536 -0.09824638 0.5625301 -0.3977141 -0.1546033 0.19933455 -0.8105144 -1.5451651 1.2552888 -0.41148338 0.8236858 -0.27546307 2.2454755 -0.68732846 -0.75732595 -0.17198619 -0.38331193 0.19889386 0.0032927056 -0.53256804 -0.59564334 0.56738484 -0.37804097 0.40381283 1.1819994 0.73185545 0.2656254 -1.4419584 -1.1887347 0.24659579 0.36313096 -0.67269766
acute.a.01 1.1122897 0.38417268 -0.29459846 -0.4161802 -0.7280276 0.99519306 1.6179395 0.45519125 0.5849452 0.08827754 0.0831498 -0.11399909 0.29646447 -0.22894187 -0.15427348 0.047506995 -0.96272105 0.3087752 -0.10383398 1.1790099 -0.5853502 0.37604406 0.30569282 0.00291872 0.434631 -0.2856193 0.4897733 0.2676365 0.030557632 1.6520301 1.8532194 0.5135007 1.716232 -0.26377144 -0.25403967 0.5380019 0.42916885 -0.004471359 0.8731896 -0.11210693 -0.026630191 0.59495157 0.021060096 0.31430173 1.0181204 0.58797854 -0.030204156 0.56941676 0.53197163 0.43465513
statistical.a.01 -0.27749884 -0.23502293 -0.45143947 0.41515976 -0.40599984 0.19302052 -0.1861826 -0.6682158 0.3534393 -0.2574028 0.51506746 -1.2895657 0.26642758 -0.8773143 -0.373671 0.00064070936 -0.047504865 -0.4012177 -0.25200397 0.028855186 -0.70239294 -0.82336164 0.051772483 0.51588553 -0.1920822 0.016471867 -1.868436 0.37181595 -0.5061353 -0.18319084 1.6647248 -0.6872889 -0.006255462 -1.2988297 0.32733536 -0.54492736 -0.014908756 0.7084033 1.3236605 0.80407524 0.18552496 0.2745291 0.000821766 0.10471695 -1.3061582 0.041741434 1.1917001 2.1108956 0.89628726 0.27145848
equivocal.a.01 0.22761211 -0.26218584 -0.53924286 -0.27299026 0.5579167 0.38790107 0.7667386 0.13201739 -0.84383285 0.3575423 -0.34056187 -0.06577595 0.40816498 -0.11314371 0.0039193104 0.12730208 -0.47736743 -0.2916025 0.34524396 0.29759285 -0.5292975 0.40144005 0.6037793 -0.023030274 0.49826625 -0.14490075 -0.12871322 0.8324329 0.20879824 0.20873106 0.053614873 -0.94178075 0.35004354 -0.5511932 0.32278144 -0.49407727 0.0455369 0.23448582 -0.9159048 -0.7020993 0.30764717 -0.39436737 0.36199474 0.5956148 -0.30755362 -0.27547917 0.19674985 0.9232621 0.18006897 0.13805147
complete.a.01 0.5724263 0.30511835 -0.30060345 -0.016408447 0.22999866 0.2686999 -0.01669133 0.26394576 0.35321963 0.06713719 -0.23362385 0.08877072 -0.54019046 0.035450272 0.44129744 -0.3988169 0.1089884 -0.2895299 -0.030722998 0.12622474 -0.06474427 -0.02098646 -0.39599517 -0.55347383 0.10540699 -0.1609887 -0.66974187 -0.41027373 0.2823671 -0.3071271 2.82244 -0.4426481 -0.9328868 0.12755556 0.029304264 0.53910714 1.1498524 0.09154382 0.08912419 -0.19138771 0.052555464 -0.808043 -0.2585028 -0.06950451 -0.62540954 0.44365284 0.2673147 0.28104946 -0.3146598 -0.051497262
color-blind.s.01 -0.12390568 -0.5722449 0.056791823 -0.35375527 -0.12103336 0.56891644 0.37028366 0.0056317076 0.044376757 -0.05776585 0.11635473 -0.18661079 0.6536994 0.6360825 0.2745353 -0.52768224 0.6046362 0.39713752 0.29952922 -0.2668473 -0.5044884 0.26404694 0.15045631 0.47521025 0.58562493 0.56310374 -0.15967274 -0.110955 0.56636715 0.4253207 -1.0853951 -0.04188923 -0.9049836 -0.8925991 -0.9177907 0.5691444 0.4529477 -0.65439546 -0.2916137 -0.041391015 -0.0013286198 -0.589118 0.083570346 0.35901126 0.17696667 -0.07925247 -0.4939331 0.4734549 0.5903141 -0.16117463
digital.a.01 -0.30836627 -0.13920636 1.5915539 0.8795508 -0.56693166 -0.19011125 -0.4447789 -1.2550277 0.502123 1.0453547 1.0414749 0.09629423 0.09588657 0.6658531 -0.52564585 0.7679556 -0.8547469 0.21615961 -0.010949319 0.08522959 0.97766715 0.12670979 -0.15650696 0.35603124 0.002917991 0.14320166 -0.67664427 -0.6916154 0.26305962 -0.5023984 2.3428965 -0.41493425 0.11679519 -0.7060587 -0.27402398 0.029574918 0.10677549 -0.12691656 -0.35575214 -0.5975648 1.2518245 0.2689698 -0.48727882 -0.24347094 -0.8692203 0.31425336 0.8175633 -0.25855455 -0.5743084 0.32910082
toxic.a.01 0.8935019 -0.2735597 0.12257591 -0.14835244 -0.63992536 0.6777609 0.3337382 -0.0541807 0.23436356 1.1839774 0.57825255 0.6424221 0.76326203 0.5966079 0.5500576 0.075573735 0.665378 0.58367777 -0.7258521 -0.288855 0.059672467 -0.59938264 1.0903223 -0.6493151 -1.0017275 -0.5611746 0.13485293 1.2807624 0.97901946 0.17232668 1.0996553 -0.75733244 0.17838012 -0.84246653 0.11401687 0.42865875 -0.118168965 -0.6151677 1.577387 -0.24913917 -0.19792202 -0.61120874 1.215711 0.0042198137 1.115079 0.24004714 -0.7453691 0.3839209 0.80138177 -0.23073895
concluding.s.01 0.37446305 0.2011716 -0.26607588 0.4629094 0.0751679 0.014040786 -0.23653409 0.11280489 0.18261848 -0.20674028 -0.039317656 -0.30403304 -0.6095571 -0.074089676 0.5582425 0.20712179 -0.43434998 -0.3674496 -0.281741 0.47129682 -0.056579653 -0.13132958 0.009241991 -0.02207517 -0.14633344 -0.29774693 0.29437563 0.2777982 -0.28199366 -0.21516591 1.0986066 -0.092318684 -0.08707514 0.23105639 0.33575746 -0.18100409 0.5051059 0.20687503 -0.21577364 -0.16770993 -0.05414963 -0.3189353 -0.2548706 -0.24467854 -0.08667196 0.010277588 0.36430797 0.39391536 0.08701368 -0.12590411
tough.a.03 -0.7123942 -0.7189555 -0.37445396 -0.39125657 -0.74298096 -0.11781358 0.39969465 -0.048802853 -0.18704692 -0.14428487 -0.59363955 -0.32862407 -0.6425197 0.14146815 0.031631056 -0.01708228 0.40274233 0.051954936 0.49708384 -0.33613575 -0.7672119 0.10950779 -0.40454194 0.06500423 -0.30883607 -1.4294418 0.51613694 0.4799808 0.14414978 0.0847557 1.377009 0.29627895 -0.22320725 0.04687107 0.17357628 0.08711762 0.006279065 0.32785776 -0.90868336 -0.9565469 -0.61356264 0.085484475 0.6859465 0.2577949 0.5391748 0.14056067 0.21037644 0.24899998 -0.048169546 0.3520568
complex.a.01 1.5876697 0.48501045 -0.6476041 1.0833551 0.39593938 -0.18424083 0.82795274 -0.43118072 -0.20762175 0.43779778 -0.44935375 -0.33376116 -0.4536492 0.33451614 -0.20441945 0.5601641 0.43954548 0.89945364 0.20209768 0.0329999 0.30350584 -0.29230183 -0.66330355 0.10946248 -0.44838172 -0.40924776 -0.3168813 0.37718973 0.44761688 -0.2938254 3.0466318 -1.4110624 0.1545966 -1.1553241 0.6081185 0.4933179 0.14648569 0.4359549 0.10717066 0.7024597 -0.43130478 -0.61298704 0.20838343 0.8916267 -0.05141841 0.51151824 0.5172003 -0.09410884 -0.2542199 0.25329298
part-time.a.01 -0.45028803 -0.17096722 -0.24663106 -1.1580641 -0.11105759 -0.05199255 -0.2300236 0.56516576 -0.16025767 -0.45051628 -0.02365451 -0.3338334 0.3460388 0.29835752 0.052288443 -1.0459107 -0.108080946 1.020868 0.6104868 -0.62551916 0.90510064 0.42706263 -0.50100225 0.661293 0.11216539 0.6232517 0.626858 -0.7941648 -0.047309805 0.7608407 0.4547441 0.3814489 -0.17561053 -0.012524868 0.23156989 0.7182968 -0.11018646 0.6417251 0.42849466 0.38742688 0.084544234 -0.2336416 -0.45213228 0.65118355 -0.52718335 -1.3280338 0.46460652 0.29495358 -0.23557502 0.78449064
steep.a.01 -0.038687307 0.10464968 0.5231468 -0.440098 -1.2849389 0.21840079 -0.37785137 0.50753456 -0.021896461 -0.097859204 -0.5858586 -1.2838751 -0.06517715 -0.53850764 -0.08217843 0.24607983 0.02460098 -0.8650176 -0.57059467 -0.7243177 0.25870973 -0.9281789 -0.73802143 -0.08018156 0.08136214 0.33621043 -0.5379246 0.5071126 0.26215073 1.0644848 1.0922405 -0.41249064 1.0469975 0.80898553 0.8340603 -1.0892353 -0.43054152 0.025385506 0.1752953 -0.32395965 -1.0473671 -0.06640921 0.16081992 0.12006636 -0.14190945 -1.2439349 1.225203 -0.1621618 0.35610512 -0.15542968
human.a.01 0.38270733 0.026626477 -0.22142345 0.47975835 1.1280441 0.9122944 0.8977569 -0.81461596 1.3876435 0.18441163 0.92854 0.004177393 0.16662768 0.2683927 0.3727067 -0.3205399 0.388071 -0.34301987 0.34980798 0.13394849 -1.0658064 0.68869835 0.35452515 -0.71451104 0.8616072 -1.2969837 -0.25847307 -0.3881729 -0.4086037 -0.014920832 2.6231856 -0.3598468 -0.59448785 -1.3454971 -1.2390982 -0.18820827 0.080335654 -0.2067974 0.11228704 0.48384067 -0.31348336 0.17193592 0.46973807 0.39079738 0.73001736 0.21938524 -0.6521304 0.04897552 -0.28667173 -0.47958797
happy.a.01 0.19281448 0.119412 -0.2801126 -0.5010478 1.2732316 -0.55441445 -0.37074015 0.5401306 -0.4541625 0.4833648 0.18303122 -0.139609 0.043286785 0.3485205 1.2457024 0.59104717 0.0008865031 0.37837955 0.28151643 -0.19296862 -0.5686321 0.6878867 0.32546824 0.51050705 1.1428093 -0.049618833 -0.9122535 0.33451137 1.0692794 0.13239153 0.7345163 0.8628755 0.14045842 0.35632518 0.036635768 -0.55780023 0.11761015 0.5843664 -0.3138534 -0.56032705 -0.735785 -0.41454872 -0.15406404 0.3347803 -0.2615952 0.064669676 -0.22058377 -0.4025036 -0.08556052 0.7947379
handy.s.02 -0.18805349 -0.15623675 0.52222365 0.14443369 0.21148926 -0.45146492 0.17226678 0.2216863 0.11068454 -0.12021717 -0.62484014 0.16549748 0.55243784 0.017631289 -0.066222265 0.25994667 0.022954786 0.3517368 0.42748725 -0.20625363 -0.09220089 -0.31562227 -0.4417293 0.24615802 0.44822726 0.12529202 -0.35629022 -0.033999905 0.40318817 -0.29148313 -0.2653792 -0.059253205 0.46659762 0.25218818 0.5066006 0.6306315 0.35213047 0.2673648 -0.5330355 -0.5213089 0.35253468 -0.005616529 -0.2552292 0.7461997 0.24384703 0.19504434 0.34039333 0.47040966 -0.2869895 0.32359338
standard.a.01 -0.9989693 0.28604394 0.0821169 -0.217033 -0.2524536 0.121651165 0.4597407 -1.5978776 -0.06928332 -0.034509253 0.63024044 0.39862943 0.19241501 -0.32707345 -0.16137064 0.51163477 -0.79785085 0.21936363 -0.0923301 -1.1312236 0.15529218 -0.11703426 -0.39326146 0.21126394 0.038442723 -0.69532543 -0.3596076 -0.023758681 -0.16565871 0.59747523 3.1535378 -0.6595259 0.092510946 0.21539643 0.83719176 -0.5340158 0.8577677 -0.18988848 -0.24556266 -0.30939475 0.88985646 -0.03471683 0.7233819 0.6893044 -0.4557446 0.3268847 0.6575364 0.40584648 0.4979539 0.4490347
extraordinary.a.01 0.26196936 0.7027293 -0.8838177 -0.22180645 1.080938 -0.31271783 0.8998847 0.43733042 0.23906685 0.36769494 -0.36394018 0.43682715 -0.051673792 -0.07653317 0.40325326 -0.6608423 0.094851166 0.045598693 -0.53540176 -0.5999125 0.5278549 0.28074464 -0.3306461 -1.129007 0.2999502 -0.7960529 -1.0418165 -0.40404502 -0.16990152 0.85419255 1.9398543 0.59254843 -0.26231235 -0.6735702 -0.10825504 0.089534596 0.0011515913 0.15450002 -0.4490317 -0.4430768 -0.30902278 0.15615053 -0.19472177 -0.06585149 -0.4687916 0.14062156 0.0359324 0.45436805 -0.09361562 0.17472245
wrong.a.05 -0.16926675 -0.6872572 0.18293789 -0.6777366 0.7174561 0.1024829 0.034456953 0.116244145 -0.33920035 -0.0024786873 -0.5764294 0.60129505 -1.0084528 -0.22926894 0.46354806 0.23200075 0.43785396 -0.30230892 0.029046895 -0.48454288 -0.6528714 0.5936321 0.46528882 0.24686529 1.3384166 -2.0624833 -0.9334407 0.5645297 0.7979655 -0.88544166 1.8346409 -0.24482101 -0.29132795 -0.47256792 -0.39321002 -0.6584948 0.31641436 0.1234166 0.06575025 -0.28025618 0.071533754 -0.15140857 0.20997934 0.9330802 -0.17355655 0.040651713 -0.011203676 0.40635753 0.89130646 0.50066173
ill-famed.s.01 -0.0029487072 -0.03584167 -0.32977983 0.058328386 -0.42469087 -0.26392955 0.48642576 0.0850438 -0.054182995 0.4549777 -0.60713863 -0.13594157 -0.6805429 0.0839419 0.7745406 -0.9920778 0.01736753 0.32297853 -0.49449766 0.9360781 -0.17415543 -0.336458 -0.09662992 0.4256413 -1.0360854 -1.3090277 -0.52099395 0.021525564 0.284463 -0.009875794 0.52203876 -0.9083202 0.13453928 -0.3868267 -0.11913132 0.45447302 0.11296263 -0.6723987 -0.4290076 -0.19446972 -0.38809192 0.38246286 0.15988295 0.05606712 0.6085325 -0.5901237 -0.07224145 -0.70527214 0.06949338 -0.20112847
chronic.a.01 0.30133873 0.42928448 0.3040898 -0.55128664 -1.9053092 1.5993946 1.2375301 0.24878813 0.61764234 0.25997537 0.36430332 0.13594288 -0.33569852 -0.90561455 0.56858 0.22841135 -0.7655398 0.30190006 0.75458336 1.0144928 -1.1426008 -0.025343599 0.50844806 0.26263982 0.063952364 -0.5100081 0.573771 -0.16518052 0.18409564 1.6188768 1.712556 0.79071754 1.3047053 -0.21615456 -0.17576656 0.9228685 0.2791023 -0.14308634 1.4167682 -0.2826919 -0.39513412 0.49866572 -0.079645045 0.7417126 1.2831761 0.3109901 -0.025554609 0.62894607 0.21584606 0.17423329
hot.a.01 -0.83388174 0.43589792 0.5430689 0.053296044 -0.5366609 -0.5901802 -0.29950902 0.06806278 -0.022901744 0.46279606 0.15770054 -0.41809756 0.32453525 0.79304004 0.6431061 0.6163056 -0.014743478 0.627122 -0.5450821 -0.3706388 0.018656196 -0.25372308 0.8215774 0.7753556 -0.13215825 -0.01574934 -0.32736045 0.60188353 0.8627001 0.7804855 1.3064148 0.20475546 0.48403567 0.0105029 0.25575343 -0.14048298 -0.3420837 0.25299403 0.3036808 -0.39908555 -0.5074547 0.3528164 0.012286255 0.064079024 0.179862 0.21103802 0.29657692 -0.19768746 -0.1694787 0.6901371
flat.s.12 0.12727225 -0.2947274 0.018206611 -0.3050458 0.075847596 0.07482157 0.34207007 -0.044013985 0.24375787 -0.31530565 -0.27422765 -0.3007675 0.07993956 0.20162185 -0.49390316 0.3934797 0.1530973 -0.04083545 0.30542064 -0.4264919 0.07435304 -0.08522513 -0.08068598 0.13376443 0.19071907 0.44422808 -0.21730766 0.5817264 -0.13164209 0.23176622 0.42409325 -0.037705448 0.6234322 0.633325 0.092356056 -0.3833612 -0.0399588 0.37850332 -0.15590543 -0.1732769 -0.17963769 -0.20785126 0.005980639 0.454062 -0.3272885 -0.17374912 0.4194625 -0.19503884 -0.04559887 0.061495297
optimistic.a.01 0.3382616 -0.41967553 0.18366212 -0.55849284 0.785171 -1.1386427 -0.816216 0.31342053 -0.78861964 0.5936237 0.19064224 -0.18872297 -0.4550601 0.01986958 0.3695384 0.800295 0.26556405 -0.43123233 0.6075829 -0.59747416 -0.6740925 0.72814375 0.1148138 -0.52844554 1.2638694 -0.49597305 -0.29142278 0.9920577 -0.16558078 0.74824107 2.0560427 0.060595386 0.49718067 -0.11041284 0.06353017 -1.6955589 -0.27129075 0.4176923 -0.5329898 -1.1414622 -0.9194301 -0.49609467 -0.10704994 -0.56087315 0.3706818 0.08735235 -0.36986294 1.5018256 0.14646949 0.87487435
uneasy.a.01 0.2797777 -0.40209427 -0.7206564 -0.09319001 0.70666 0.48733532 0.23381259 0.98178 -1.1294305 -0.03579846 0.044238497 -0.49116978 -0.57271624 0.65333945 0.0072344146 0.97026306 -0.434181 -0.11865468 0.90890455 -0.054577164 -0.35939518 1.5144099 -0.18146853 0.13219482 0.74003243 -0.31561825 0.2564894 0.77968264 1.1922511 1.1349949 1.2152296 0.39701527 0.29508004 0.022390965 -0.59386235 -0.9339101 -1.1829759 -0.29109886 -0.88716704 -0.6659786 -0.8178393 -0.74168646 -0.041724417 0.14891388 0.0009243655 0.2730228 -0.41944158 0.46504286 -0.8943644 -0.08986262
heavy.a.01 -0.14809419 -0.3996187 0.47859254 -0.5499646 -0.5172354 0.10653007 0.88164777 0.6814095 0.13036604 0.07558698 0.1376463 -0.50429046 0.050528836 -0.16636088 -0.43356627 0.033698466 -0.05611084 0.38008115 -0.87027687 -0.8812145 -0.10228049 -0.63700974 0.1639428 -0.64481884 -0.41340703 -0.59085083 -0.5067132 0.6193272 0.98499894 0.69604623 2.0538635 0.091089584 1.065914 0.4932473 0.6755202 0.4305195 0.275203 -0.20649356 -0.46400127 -0.054313697 -0.48865968 0.23282439 0.44379115 -0.5611233 0.5829392 -0.24737848 -0.09120586 -0.1829103 -0.38853657 -0.14979877
retired.s.01 -1.1488883 -0.061247773 -0.21399964 -0.08636651 0.38421842 0.10285901 -1.2476835 0.9857073 -0.93953544 -1.2812496 0.67068386 0.18603766 -0.71460027 0.34898612 0.67622447 -0.5349674 -0.3488486 0.77391887 -0.5474365 0.232269 -0.58274424 0.2963652 -0.4979182 -0.056432478 -0.41546318 -1.6937234 0.60115916 -0.8878515 -0.50405866 0.9661642 1.6165935 -0.524766 -0.18103011 -0.036968738 0.50206995 0.30717102 0.19793265 0.9157971 0.64234084 -0.18431991 -0.40659493 0.41763276 0.020057341 -0.19455285 -0.1433911 -0.16730644 -0.9195497 -0.5035996 -0.48983285 0.65024126
ample.s.03 0.24141857 0.020218365 0.30045506 -0.30756354 0.8421891 0.14508447 -0.23943655 0.5442302 0.3298013 0.20361964 -0.14513642 -0.649453 1.0455673 -0.5256076 -0.25328466 -0.15305743 0.7002545 -0.4652458 -0.1647083 -0.22632074 0.18130286 -0.8290705 -0.37729496 -0.3861508 -0.3937946 0.025962265 -0.30932164 0.18452972 0.03333464 0.36398754 1.4061791 0.56876093 0.8868438 0.2932886 0.0015421556 0.27675888 -0.604142 0.22143777 -0.072905675 -0.48218986 0.28232083 0.46731788 -0.41857612 -0.06237713 -0.5686034 -0.39163908 -0.31432417 0.8473038 -0.20933934 -0.2611154
drawn-out.s.01 0.5785999 -0.26061028 -0.95042944 -0.10322473 -0.61829334 0.24574342 0.5753698 0.99451 0.25927112 0.3598086 -0.53771484 -0.22311561 -0.084279455 0.29633117 0.56373215 -0.2946594 -0.40521544 -0.48729667 0.38754427 0.12591901 0.06904371 0.060149677 -0.47440147 -0.5603904 0.32182223 -0.021674616 0.41904688 0.22443497 0.6493098 1.082012 1.0476369 -0.31159183 0.051979642 0.33566344 -0.22021826 0.16150576 -0.13231474 -0.001468317 -0.53453696 -0.3125583 -0.60695106 -0.06412081 -0.3111981 0.62961537 -0.20392093 -0.508319 0.6005418 0.57268834 -0.65921056 0.13740459
cosmetic.s.01 0.1641637 0.56004053 -1.3659405 -0.05127504 0.046037156 0.62723815 0.1842449 -1.0722142 -0.7822063 0.10229053 -0.30161133 0.15246828 0.8577088 0.012600606 -0.055832766 0.29035363 -0.02413459 0.18413287 0.38560006 -0.8826125 0.52000946 -0.44246575 -0.87903035 -0.71527874 -0.28181207 0.382202 -0.7136444 0.6902467 0.08372449 -0.50774354 1.009646 -0.5198822 0.41136086 -0.26621684 0.04236292 1.1533269 0.31738973 1.0843626 -0.30516484 -0.16840026 0.14072953 0.081056006 0.25344747 0.31833914 0.7773146 -0.06225193 0.21760458 -0.14572552 0.08905319 -0.43726686
responsible.a.01 0.74715054 -0.6478357 0.22489107 -0.14343223 0.48453414 0.35897702 0.1399937 0.04210579 0.5951557 -0.41008595 0.22562963 0.2072952 -0.60151815 0.22169583 -0.09216339 -0.41893914 0.63666916 0.46678245 0.29093233 0.12701115 0.2548454 0.14723729 0.038582426 0.051324625 -0.5566947 -1.1432365 -0.039144374 -0.54859257 0.11985386 0.34093633 2.3726466 -0.21819568 -0.37990966 -1.2849691 0.055577915 0.38458785 0.13598934 -0.3560702 -0.035264265 0.68186224 -0.63312733 -0.03598925 0.19673699 -0.22145733 0.045591146 -0.4382592 -1.0479461 0.4045193 0.4381221 0.321843
electronic.a.01 -0.72541803 -0.8833098 0.95300543 0.7173827 -0.58172315 -0.37849486 -0.47164315 -1.0565494 0.8396242 0.99191093 0.7017111 0.23662086 0.42570192 1.1545067 -0.52280235 0.024337137 -1.3577605 -0.28762773 0.050237652 -0.62271786 1.6668798 -0.14667425 -0.8616492 0.14971079 0.0793589 -0.35141048 -0.6408967 -0.69551206 0.3972989 -0.5988165 2.6778398 -0.72551906 0.30958858 -0.38253567 -0.37475225 0.16888276 0.3899121 -0.39756843 -0.04464071 0.08117045 1.1737584 0.21873441 0.08713863 0.595844 0.11678316 0.28245685 0.9092703 0.20337081 -0.41706404 0.10345127
solid.a.03 -0.18858223 -0.10528452 0.29779565 0.2519347 1.0027058 0.41291833 0.007705202 0.46393612 -0.16082916 -0.34389564 -0.018847149 -0.61689705 -0.27957135 0.79693604 -0.31374297 -0.20673305 0.38549778 0.42107725 -0.34635195 -0.16500568 -0.6178666 0.41654384 -0.15451677 -0.49762064 -0.023203328 -0.13044746 -0.25550133 0.48545226 0.45802563 0.379998 0.98370284 -0.46048075 0.45413235 0.23133537 0.120310746 0.4916029 0.22080082 0.5403945 -0.19792905 -0.5414349 0.18497247 -0.27459595 0.09223398 -0.039665144 0.44070688 -0.2655588 -0.3129263 0.4378519 -0.10898373 0.16694401
quantitative.a.02 0.015497065 -0.473539 -0.015078177 -0.27615416 -0.5631692 0.23066407 0.63436955 -1.8229809 0.064761594 0.5449589 0.5642563 0.5305336 -0.058862608 -0.49932668 -0.7501867 0.88953 0.786835 -0.9467011 -0.33155608 0.032793257 0.6699265 -0.84742606 -0.23235257 -0.6668073 0.25527927 0.06866484 -0.44913635 -0.41528597 -0.49954042 -0.009180507 1.5659761 -0.8209106 0.09964486 -0.7636031 0.28448966 -0.34360367 -0.14678265 1.016901 0.012478351 -0.16110545 0.48309672 -0.33558846 0.35381147 0.81533504 0.45681962 -1.233534 2.3178174 2.1327388 0.7439532 0.9217828
valuable.a.01 -0.08072171 0.43838224 0.14482883 0.8726582 1.3607928 -0.22626552 -0.91366345 0.08800597 0.386416 0.80305684 0.23884721 0.97184515 0.5537725 -0.12712078 0.26590964 -0.22360818 0.8740439 -0.17683394 -0.033344936 -0.2214976 0.058680475 -0.5764013 -0.12512545 -0.81802654 0.11541199 -0.5044948 -0.37756923 -0.5791981 1.0058357 -0.4968351 2.022039 -0.11854296 0.67269045 -0.7214108 0.60845834 0.8531573 -0.7309867 1.2507653 -0.5009341 -0.73100924 0.282271 -0.24096824 0.5123427 0.6559724 -0.34052044 0.11562643 -0.67246187 0.9217945 0.047796007 -0.32696775
stupid.a.01 -0.105689935 -1.0126598 -0.07708346 -0.1888966 0.51861995 -0.21376836 0.60183686 -0.32540503 -0.6894304 0.5291495 -0.6109447 0.23091775 0.044418514 0.15386079 0.92825323 -0.5649649 0.38871574 0.8042028 0.30714646 -0.27398294 -0.83464384 -0.09239383 0.20597295 0.22012754 1.2583985 -0.30783385 -1.2616084 0.33859298 0.5799701 -0.75154173 0.0032870835 0.1776994 0.18848553 0.39064643 -0.51250654 -0.19215444 -0.051903978 0.16304621 -0.32826164 -0.012232959 -0.6552837 -0.22798528 0.20687725 1.0552516 -0.26353583 -0.33222157 0.042963903 0.3618575 0.38758174 0.61410445
subject.n.06 0.426246 0.070707716 -0.54225785 0.007859307 0.033720225 0.6856859 0.3451756 -0.16746849 0.274821 -0.27067214 -0.16232799 0.07354612 0.074612156 -0.085610986 1.0277194 -0.3817349 -0.39777833 -0.34175515 -0.112446375 -0.060040765 0.028878199 0.15404658 0.51635563 0.27791882 -0.001351904 -1.3042874 -0.38828388 -0.25409988 -0.42803553 0.08585706 2.2653327 -0.6852511 -0.0073221507 -1.1628026 0.36936387 -0.005915536 0.20559295 0.24550164 -0.07485315 -0.07161767 -0.16069959 0.22391301 0.8080922 1.0131203 -0.08221727 -0.17082362 0.25261444 0.33322644 0.015534031 0.09425976
prize.n.01 -0.7927615 1.397276 -0.38710675 0.0454094 0.5191959 0.2682112 -0.32813117 -0.0728357 0.49800295 0.87183505 -0.04528266 0.30550593 0.24336912 0.06984781 0.95264137 -1.2905837 0.9679366 0.39258346 -0.9596086 -0.3399835 1.1326252 -0.02887676 -0.037580952 -0.8179617 0.029755821 -1.1131663 -1.6548557 -1.1793759 -1.5677143 -0.42902583 1.5518358 0.8508239 -0.53971815 -0.19969909 -0.14697614 0.08710576 0.07980803 0.75621 -0.19887145 -0.9897452 0.18058084 0.31201836 -0.5207559 -0.41661274 -1.2255919 -0.34199134 -0.4857023 0.32311356 -0.3103641 -0.23906127
cup.n.02 -0.6024416 0.30160978 -0.5131373 0.54064417 0.29028612 0.47162384 0.12518844 0.18761948 -0.0028803293 -0.074122496 -0.073811874 0.07287825 -0.09638784 -0.035307772 0.86784655 -0.44249684 0.46642694 0.7214154 -0.854261 -0.56210774 0.04679664 -0.68925375 1.193997 0.21804406 -0.5612115 0.22544128 0.19948396 0.6588741 0.45473838 0.38773102 0.69387573 0.37389228 -0.5898595 1.2230964 -0.00011673164 0.48041403 -0.5526877 1.0915147 0.1702948 -0.7382196 0.71605796 -0.46845028 -0.2564418 -0.18466993 0.076844275 0.9847245 -0.18093416 0.30522245 0.07607767 -0.9790138
university.n.01 -0.85903865 0.9353632 -0.49531814 -0.79942715 -0.61427873 -0.51922536 -0.7018152 -0.40111962 -0.47234696 -0.18900001 0.34352103 -0.5805086 0.23938486 -0.8022392 -0.73667574 0.2722757 0.28202772 0.84363574 -0.4048023 1.0920298 0.76302034 0.49851787 -0.2747806 0.20574595 -0.434034 -1.5820484 0.3317258 -1.0105022 -2.0517137 -0.8001806 2.3253758 0.31228793 0.103726685 -1.6525921 0.2229508 -0.0400761 -0.21454875 1.1652284 1.0261619 0.54412454 -0.3711536 -0.43300003 0.38142437 0.5825112 -0.09932497 0.391873 -0.120301254 0.2843447 -0.6955909 -0.34421718
library.n.05 0.06522113 0.5922876 0.19347031 -0.48189285 -0.014650241 -0.8900329 -0.8780579 -0.91219074 0.46663395 -0.032685127 -0.43840024 0.24085826 0.55167085 -0.48180246 -0.06797905 0.06690663 0.08707736 0.36905712 0.6897995 0.3589563 0.8646529 -0.16729298 -0.5013144 0.57775044 -0.23322076 -0.1300437 -0.2044557 -0.5055726 -0.8755803 -0.7835344 1.6868867 -0.5444395 0.482576 -1.5166321 -0.14573734 0.9621694 0.27611977 0.5005049 0.4720659 -0.05548801 0.66134536 -0.36003622 0.02703853 0.5728531 -1.0726538 1.0858358 -0.03310735 -0.29957274 -0.3905921 -0.37656015
competition.n.03 -0.56531775 0.22105241 -0.62236714 0.7226746 -0.39108577 0.35252073 0.09017394 0.53133166 -0.40071225 -0.05055354 -0.062322658 -0.42959103 -0.97506464 -0.082731366 0.08757914 -0.08906458 0.5537182 0.16067466 -0.29709345 -0.418571 -0.25109798 -0.12379114 0.12691899 0.31209585 -0.33130038 -0.9282059 -0.12023361 -0.21448936 -0.16634025 0.27441448 1.596616 0.816024 0.16656296 -0.4406344 -0.023336496 0.07369182 -0.67667484 0.4019581 -0.8554706 -0.3078999 -0.46256232 -0.46467775 -0.12962323 0.70180666 0.24184991 0.34950837 0.014954664 0.47798926 -0.4673296 -0.84733015
legal_profession.n.01 -0.9439837 0.18437354 -0.63289475 -0.14772585 0.20699298 0.03729673 -0.06632122 -0.009583915 0.11746933 0.013670167 -0.28689536 -0.6919891 -0.09035545 0.7937677 0.13815391 0.06496319 0.061988734 -0.12613218 0.02946773 -1.0068454 1.133687 0.21417181 -0.10763616 1.0469838 -1.0868994 -1.2184097 0.17247747 0.3001472 0.27218184 -0.3927073 2.0793164 -0.06561545 -0.7554778 0.24895045 0.25590414 -0.034703605 0.50029194 0.12029769 0.12314308 0.5089081 -0.16447483 0.43551916 0.16010384 0.7155761 0.22101457 -0.3136877 -0.40949365 -0.9887465 0.45699465 -0.2271731
percentage.n.01 -0.69789845 -0.14572842 1.1644801 -0.21223748 0.527602 0.3572025 0.17430197 -0.5032297 -0.09684341 0.11852109 0.1801027 -1.1228281 0.6091461 -0.27349183 0.16276616 0.04264589 -0.47154862 -0.4706194 -0.23672599 0.056719843 0.18915208 -0.82350016 0.6126234 0.101716004 -0.33897656 0.42342976 0.2516606 -0.23276906 -0.17764194 0.4911768 1.2246358 0.92258966 0.35341007 0.56032825 0.27904448 -0.86795896 -0.36671898 0.011538476 0.53456193 -0.24359395 -0.52743584 -0.17457902 0.16797276 0.051451858 -0.3056568 -0.44023055 0.37352622 0.320813 0.7031172 0.16788489
finger.n.01 -0.52934545 -0.5682238 -0.1255059 -0.24619704 0.6268196 0.44873467 0.2852145 0.51400054 0.32242545 -0.31978855 -0.06670391 0.3270771 -0.5447142 0.3009971 -0.53104013 0.011478278 -0.55767584 -0.6948033 0.044149432 -0.29844478 -0.44751066 0.28029025 0.99279183 -0.33679155 0.48310044 -0.80498654 -0.0033883995 0.80139375 0.09291314 -1.2127628 1.4521934 0.20255493 0.40655375 0.9933095 -0.49953207 0.080858015 -0.24526317 -0.01536432 0.44620112 -0.045001984 0.11032926 0.34416628 -0.86725974 0.24457338 0.5364911 -0.21826628 0.70882815 -0.2975522 -0.43871692 -0.72124064
manner_of_speaking.n.01 -0.06768755 0.007008906 -0.26660165 -0.18928646 -0.13156177 -0.0012900055 -0.39570725 -0.11944683 0.15543623 0.5136731 -0.5753281 -0.11518254 0.23482323 0.45404488 0.019454174 -0.5211801 -0.8430814 -0.30920017 -0.027757209 -0.3470294 0.9004202 0.5831986 0.36017266 -0.3479209 0.6907094 -0.494269 0.7352783 0.23835884 0.10647583 0.2307107 1.9109998 0.03788625 -0.09645989 0.19508141 -0.09142273 -0.2818926 0.44525293 0.4859641 -0.8395956 0.582196 0.41320723 0.37951815 -0.4445999 -0.15056251 0.15679839 0.63821447 -0.21466872 0.5119389 -0.26103485 0.33282074
presence.n.01 0.64264214 -0.12419136 -0.120822094 0.15534024 0.6405166 -0.47999677 0.3757232 0.20962079 0.110920236 -0.10915741 0.2588646 -0.15395619 0.10209724 0.34299666 -0.23594995 0.23695825 0.018339325 -0.13193351 0.25623876 -0.30231014 -0.4108905 0.34621516 -0.36454958 0.2291199 -0.33666414 -0.18713792 0.018249001 0.034305826 0.054106586 0.28205934 1.1954325 0.3337739 0.15698649 -0.9618463 -0.43356696 0.14763384 -0.2540179 -0.49160495 -0.97080076 -0.036228787 0.31274888 0.28464732 0.08651323 0.16404796 0.058684018 -0.026522005 -0.22953181 0.3853708 -0.97262293 -0.045216113
campaigner.n.01 -0.535602 0.1534463 0.29305688 -0.08310648 0.039611943 0.59216654 0.035843585 -0.020725472 -0.21207853 -0.0006056487 -0.67796046 -0.47106296 0.1556649 0.7087593 -0.037480887 -0.20826426 0.6269363 -0.46439064 0.29973477 -0.4584136 -0.4760038 0.19265953 0.58991987 -0.1405508 0.25034323 -1.2816683 -0.03324305 -0.35816061 -1.0218369 0.6470171 1.1024541 0.31539735 -1.0644497 -0.98224837 -0.39071447 -0.73719776 -0.09026143 0.41388413 -0.69596875 -0.9701569 -0.3878883 0.76825094 -0.6254258 0.12607096 -0.23066378 -0.14120996 -0.9525525 -0.11471083 0.39108837 0.18245073
gentleman.n.01 -0.7052222 0.48644292 -1.0892814 -0.7871524 0.8985147 -0.43355736 -0.2146038 0.61034364 -0.93099856 -0.43681976 -0.26727295 0.9446703 0.19992572 -0.09628565 0.24707285 -0.5140725 0.42581266 0.79222167 -0.27886197 -0.50258183 -0.34505337 0.558519 0.11581222 0.89318556 0.30981994 -0.7037505 -0.75523 -0.19619048 0.024260653 0.03853222 0.6879215 0.14273904 -0.36995757 0.7282725 0.6955827 -0.1605329 0.28612724 -0.2578938 -0.49512082 -1.0031549 0.32163763 -0.7176949 -0.08414284 0.65779805 0.012722036 -0.08863128 -0.62281585 -0.31494787 0.26252955 0.31720558
pension.n.01 0.04869157 0.25994906 0.36199102 -1.3710314 -0.54503554 0.6887725 -0.17419523 0.1473975 -0.009057488 -0.6380828 -0.1702887 0.5539013 0.6059636 -0.1952055 0.48640916 -0.35419297 0.021512132 0.17314373 1.4407761 -0.61795676 0.24496567 -0.549557 -0.9461642 -0.7668848 -0.9052865 -0.7369065 -0.11159247 -0.6579231 -0.053963766 1.2495022 2.0112314 0.9347643 -0.3003463 0.78110206 -0.3260114 0.13281053 -0.08174582 -0.26780155 1.1840087 -0.9113055 -0.5436043 -0.42061508 0.8237387 0.9438179 -1.2723122 -1.0282182 -0.9283419 0.910242 0.19988132 0.6191398
weather.n.01 0.19226557 -0.104439944 -0.16440812 -0.14843458 -1.0797969 -0.5122732 -0.08903733 0.69732517 -0.022360038 -0.47487617 0.27805316 0.104039796 -0.024836581 0.4301618 0.32549593 0.6537552 -0.011360712 -0.46731904 -0.28008226 -0.599531 -0.48750818 0.37549138 0.23083508 -0.18102212 0.7934435 -0.0036514015 -0.02120554 0.3757812 1.0011002 1.3490845 2.0798302 0.12606147 0.31294557 -0.41868567 -0.36881214 -0.19173655 -0.03374526 0.117688954 0.17412744 0.0761757 -0.4646715 0.1591785 0.7161734 0.15396173 0.25649846 0.1958334 0.22876437 0.31271875 -0.08833809 0.81662637
youth.n.03 -0.7712717 0.02455903 -0.33469084 -1.1436664 0.16086061 -0.05980071 -0.49620888 0.007196269 -0.410131 0.30248848 0.2727761 -1.0702444 0.054191407 -0.35692865 0.17503157 -0.655598 0.46607754 0.8186744 -0.1047139 0.057918277 -0.16494915 1.0400224 -0.20001617 1.082458 -0.31410706 -0.758641 0.32457095 -0.6639136 -0.3422808 -0.086961254 2.3454137 1.1709706 -0.33923355 -0.9093372 -0.056717176 0.70827436 -0.25485867 -0.8573789 -0.019369109 -0.0727853 -0.60872585 -0.5234902 -0.12932509 -0.030702911 1.1071075 -0.41200334 -0.40352976 -0.31860444 0.380575 -0.6645132
screen.n.04 -0.016301095 0.081523 0.4382611 0.06310925 0.007008524 0.28320205 0.048437826 -0.6216412 0.54861355 -0.3738751 -0.13844445 0.054296464 0.1930032 0.4731294 -0.1465981 0.18946739 -0.15144618 0.21444856 -0.089493155 -0.058042515 0.22275747 0.22259828 0.042507406 -0.24205011 -0.33943647 -0.053435866 0.10161852 0.38810337 0.13056906 -0.39082286 0.9882635 -0.06395392 0.24326243 -0.28711382 -0.33536762 0.57931155 0.20026514 -0.2794438 -0.37306744 -0.33385935 0.4020454 0.4198872 -0.0019408893 0.018028846 -0.17984681 -0.25993082 0.086811416 -0.29600912 -0.5495029 -0.010365523
expert.n.01 0.17090683 -0.04501256 -0.20273127 0.14517085 -0.079656854 -0.4728069 -0.40530562 -0.4369244 0.7993684 -0.4340709 0.024703985 0.092963666 0.03479911 0.44924018 0.42280713 -0.051072367 0.40882775 -0.0011334447 -0.0116802715 -0.02877759 0.22568701 0.41287217 0.024371993 -0.279858 0.3152569 -1.5875046 -0.61957437 -0.561248 -1.1826111 0.343439 2.0176663 -0.7590005 -0.34654716 -1.1583306 -0.11019056 0.112177595 -0.30852333 0.5795477 0.5350411 0.2475446 -0.16032118 0.44751278 0.7919164 0.099219024 1.2952939 0.20853472 0.10834354 1.3070446 0.006824975 0.27970913
cat.n.01 0.27407673 -0.8010403 -0.4422587 -0.124891065 0.017435785 0.5527516 -0.81283194 -0.60802543 0.4905952 -0.23126736 0.35440928 0.4986509 0.81939846 -0.14607172 0.24401376 0.24266823 0.40411854 0.48552528 -1.4260972 0.05955816 -0.71181035 0.2759347 0.56494147 0.45374212 0.28344944 -0.5406114 -0.7152705 -0.15981674 -0.098871596 -0.9447047 1.1534775 0.5085144 -0.16541775 0.53064924 -0.0010393074 0.3199883 0.21156588 -0.55583274 0.15737073 -0.93580884 -0.23468745 0.040147107 -0.1700992 0.54753685 1.0079334 -0.019861678 0.042746574 -0.882375 0.6569418 0.19580907
urine.n.01 0.2552531 -0.1616938 -0.20632635 -0.50851005 -0.58663094 -0.55621773 0.00822049 0.08881138 0.77938265 0.46136093 0.1701756 0.5567714 0.106906556 -0.049463924 -0.0955437 0.26731196 0.522861 -0.06618536 -0.10414596 -0.093265295 -0.4173716 0.17262416 0.7760496 -0.07717671 0.26934344 -0.2309563 0.13761647 0.94263715 0.02083193 -0.2128716 0.3140898 0.01786971 -0.3138736 0.25697967 -0.21719187 -0.052877326 0.1249967 -0.11426923 0.6297428 0.2935552 -0.01982814 0.10774351 0.034880087 0.038776293 -0.22669195 0.16240981 0.0584344 -0.1579405 0.3521486 -0.4177879
expectation.n.01 -0.15883374 0.036784034 0.15664518 -0.33592403 0.41078514 -0.677308 -0.54445165 0.056607734 -0.19880475 0.40300253 -0.064500205 0.1349657 -0.36212316 -0.2726467 0.30767518 0.5826444 -0.26864368 -0.7234129 0.33198485 -0.3628248 -0.1391546 -0.14145863 -0.056721088 -0.6305297 0.23320821 -0.1176276 -0.2597064 0.5757384 0.050903663 0.8076041 1.527104 0.6121898 0.7810108 -0.331648 0.01559197 -1.1674942 -0.50697094 -0.18201779 -0.1378109 -0.9858926 -0.94005805 -0.6286148 -0.1722529 -0.073737234 0.2544475 -0.02665744 0.11070021 1.1575648 0.3013266 0.41859624
index.n.05 -1.2975246 -0.37075573 0.5151129 0.08360357 0.6067096 -0.72506326 0.101197764 -0.5691904 -0.26411098 0.081056766 0.24196528 -0.43283787 -0.25356138 0.12617545 -0.76903987 0.2722859 -0.9863154 -1.1060872 0.10440506 -0.16870964 0.32894808 0.05593012 0.2701129 -0.33322105 -0.16227944 0.6820836 0.0045553735 0.10300338 -0.021934269 0.04752941 1.0874252 0.29746965 0.86078453 0.42235222 0.028528512 -0.5196064 -0.60416764 -0.39834732 0.37511113 -0.045102097 -0.29014006 -0.63009405 0.09335602 0.3419572 0.1254522 -0.087951444 1.0037199 -0.0068332506 0.5085546 -0.7072008
territory.n.03 0.059003636 -0.02683553 -0.33852822 0.1519449 -0.35348263 -0.15173258 -0.025501272 0.35173288 0.01791538 -0.6789808 0.5647246 -0.26922417 0.90027565 -0.35941395 -0.44286197 0.9802033 1.166472 -0.07285367 0.0070069507 0.65716505 -0.58383137 -0.03344842 0.97925943 0.01834892 -0.022695467 0.09343894 0.1898188 0.3429195 0.6407987 0.64861506 1.9883399 -0.972736 -0.33193034 -0.3401502 -0.0645351 0.34865084 -0.7678538 0.18416269 -0.2231367 0.07408515 -0.26886043 -0.21421924 0.5733294 -0.15518169 -0.2681434 -0.47588298 -0.05300008 -0.4464943 -0.31864327 -0.659804
