1000 300
old.a.01 -0.01940759 0.11950945 0.07738518 0.035450727 -0.023465697 0.1091447 0.51265323 -0.26638025 -0.0749291 0.09372875 0.019216761 0.23950042 0.005506705 -0.024337051 -0.017691188 -0.26727903 -0.36483848 0.077016585 -0.004973514 0.05195052 -0.123904034 -0.3836882 -0.045326844 -0.18533018 0.011808602 -0.231766 0.5147744 -0.104708 0.1863461 -0.0072932374 -0.1384495 -0.0061669312 0.038626205 -0.26751977 0.13640466 0.2327874 0.13222677 -0.663889 -0.00019109416 0.00590255 0.2082307 -0.16313493 -0.21958621 0.14763412 0.049336277 -0.16202049 -0.07572311 -0.019238628 -0.5443634 -0.04401012 -0.026280474 -0.34562346 0.018963007 0.10059492 -0.100014225 0.017838588 0.023175517 -0.11909843 -0.2469511 -0.062201843 0.077439845 0.4267049 -0.17842081 -0.10205651 -0.42543525 0.032154392 -0.385665 0.14818726 -0.14393497 0.0229415 -0.04070037 -0.11891189 0.0060072686 0.50032866 -0.030287294 0.20464577 -0.15262784 -0.23901342 0.036408223 0.5124833 -0.23989685 0.04586198 -0.5449019 0.067198396 -0.11886313 -0.46323442 0.09633088 0.005684321 -0.11071556 0.021074219 0.11319128 0.030255847 -0.44522184 -0.16796081 -0.020665484 0.101912685 -0.05287979 -0.25466114 0.057003368 0.13427389 0.036470853 -0.34588462 -0.0029038615 -0.19410652 -0.034104433 -0.1292682 0.23954709 0.37649155 0.14997388 -0.022348799 -0.23566613 -0.009513405 0.01985941 0.0005908312 -0.0078741135 0.10701037 0.0056255576 0.055046402 0.045026038 -0.13092236 -0.014680704 -0.28967115 -0.012702181 -0.0040959883 -0.09866728 -0.15568738 0.10796487 0.004308438 -0.3017113 -0.17498554 -0.424668 -0.012323135 0.10678243 0.03314588 -0.0035694472 -0.50723416 -0.1285109 0.01250387 0.05061884 0.3159847 0.025148934 0.3347403 0.24654333 -0.0418775 0.037428208 -0.020118836 0.107042186 -0.03439486 -0.02535017 0.17678083 0.042678356 -0.0078088334 -0.046628904 0.087126695 -0.09473667 0.11309606 -0.16103818 0.08249998 0.13753414 0.20890836 0.08916033 0.007846195 -0.18502711 -0.1817778 0.03299863 0.05329144 -0.01105342 -0.035565984 -0.088360325 -0.38396928 0.08266895 0.2111396 -0.02844024 0.17528549 0.012911224 -0.052177455 0.03751951 -0.03892436 -0.119115464 -0.12597294 0.033315048 -0.00351098 0.012347276 -0.5388216 0.52168983 -0.019118134 -0.48545656 0.013473986 0.12147903 -0.41938177 -0.22549254 0.34222916 0.40002492 -0.0057771555 -0.10305952 0.34755272 -0.13233507 0.018595055 0.46804437 -0.04744691 -0.0855797 0.0036568374 0.007001635 0.011264129 0.023151737 -0.09276679 0.061051335 0.05386979 -0.038159106 -0.17365506 -0.34929937 -0.14382313 -0.043594137 0.13428919 0.0144340135 -0.06851812 0.26605073 0.09831779 -0.003821201 -0.27000046 -0.034661647 0.12817737 0.14797363 0.2877361 5.2002837e-05 0.0034405098 0.025610473 -0.054688565 -0.12996575 0.112771444 0.43624565 0.09880171 -0.19259559 -0.31669912 0.05594922 0.18412848 0.13958155 0.2502943 -0.18241858 -0.0017798682 0.035969757 -0.051237457 -0.048912145 -0.10785727 -0.3236232 0.06119927 -0.21832809 -0.073116146 -0.051949404 -0.43328276 -0.028400645 -0.14491607 0.15841942 -0.11475296 -0.30319983 -0.3119069 -0.047987238 -0.6636106 -0.59149206 0.08050403 0.020817421 -0.016408214 0.050324194 -0.016768351 0.11302024 0.1965302 0.15996571 -0.08690959 -0.032076154 0.3360085 0.0045089903 -0.00055963383 -0.033821847 -0.0075245136 -0.17861232 -0.06308907 -0.15576658 0.23545143 -0.05345865 -0.08260145 0.01728151 -0.19376726 -0.14494582 -0.13893352 -0.051635697 -0.23316212 0.3700753 -0.21664855 0.4328781 0.4771038 0.2877144 -0.38104108 0.13837995 -0.1883471 -0.26808673 0.15223807 -0.041060716 -0.0642081 0.2014987 -0.19024304
tidy.a.01 -0.032119922 0.16056362 -0.011838771 -0.07619338 -0.11710118 -0.35564363 0.10028311 0.016442107 0.002142685 0.094260484 -0.13333121 -0.15572388 -0.2742569 0.1791558 -0.16246791 -0.4534055 -0.63637614 -0.13757904 0.106804945 0.06620817 -0.037635073 -0.043070268 -0.20968929 0.09217085 -0.30464882 -0.028331265 0.34024313 -0.26971334 0.019838069 0.23832983 0.09220495 -0.33310422 0.051254593 0.17007609 0.015852617 0.34918448 0.11877369 -0.23059282 0.09876285 0.6449903 0.32138938 -0.23204614 -0.17738771 -0.0695997 -0.1511269 -0.39554536 0.07798044 0.6436411 -0.49516246 0.04078596 -0.18182142 -0.05465269 0.019806273 -0.065975025 -0.1755279 -0.19499901 -0.0064984583 -0.12840624 0.32299614 -0.026056351 0.10754646 -0.1776312 -0.39674595 0.11374037 -0.036604796 -0.0087440405 -0.047888927 0.06165498 0.09344589 0.10156845 -0.28500298 0.35609287 0.31022483 0.034906786 0.046356928 0.29977202 -0.3961342 -0.08904982 0.011473362 0.42507398 -0.19666915 -0.042412065 -0.25639743 0.035164393 0.036579594 -0.09634345 -0.059457276 0.12978257 -0.0084868595 -0.100238636 0.28597513 0.02820576 0.038686164 -0.4342117 -0.0065099136 -0.18671362 -0.24672806 0.01878735 0.12160066 -0.027427437 0.07341703 -0.45286557 -0.18780898 0.44285282 -0.0073340987 -0.12081769 -0.08280306 0.6374649 -0.3483253 -0.049818534 -0.43012443 -0.030195778 0.08142729 -0.35862482 0.09469256 -0.21627754 0.56799775 0.21843354 -0.004627425 -0.030154914 -0.2222057 0.07106417 -0.11159335 0.021761965 0.19234483 -0.37201354 0.30832127 0.009132126 -0.38026196 -0.035856083 -0.6537503 0.13526681 -0.054894295 -0.15612742 0.0875726 -0.19449705 -0.28509182 0.0056109433 0.27460966 0.07588994 -0.11899191 0.07634594 -0.112685695 -0.15580104 0.006261488 0.090255424 0.069710344 0.12758233 0.11067487 0.17881104 0.2592231 -0.031553067 -0.104791045 0.3253544 -0.13979615 0.24726407 0.34414777 0.04867561 -0.09144146 0.108052455 0.030043848 -0.19605748 -0.45882592 -0.3791366 -0.09832581 0.15342306 0.12149953 -0.01906348 -0.3329925 -0.21484849 -0.1036736 -0.15315923 -0.11362065 0.13022076 -0.08853354 -0.04566095 0.057132997 0.13739948 -0.08205387 -0.03517695 0.18227102 0.12038314 -0.38066638 -0.46651596 0.47638753 -0.06268079 0.32253057 -0.028161 -0.20912407 -0.4501686 -0.2719959 -0.07067244 0.36273804 0.00010730567 0.027385991 0.38240185 -0.24456939 0.01767827 0.51569706 -0.0027722635 0.53790027 -0.054979492 0.046867184 -0.012323437 -0.04046768 -0.4479904 -0.16276683 0.098517455 0.37404898 -0.0069661248 -0.16090956 0.019768156 0.008007925 -0.03127384 -0.2798341 -0.28652373 -0.020244854 -0.0022130702 0.02613555 -0.028825395 0.5707766 -0.0670112 -0.12496472 0.30116132 0.25365397 0.029529791 -0.0063814535 -0.3284341 -0.22475107 0.05300193 -0.1461975 -0.29599372 -0.6318239 0.11904368 -0.086322084 -0.12671778 0.17668787 0.44691625 -0.1146593 0.15785936 0.14169289 0.17784117 0.1630805 -0.03017406 -0.07181268 -0.01613615 -0.070187256 -0.013195066 0.47786188 -0.03486641 -0.14553317 -0.2526903 0.19948041 0.009902697 -0.18404055 0.14424716 0.10899362 0.07818861 -0.6211203 0.033575036 0.084384106 0.058117397 -0.1917815 0.021356203 0.006859856 0.020768505 0.23650056 0.15685031 -0.14787677 -0.16096206 0.07495366 -0.090154774 0.05179467 -0.0031718197 0.021583311 -0.08769894 0.036608998 0.058697376 -0.0955181 -0.057715677 0.047659192 -0.13986942 0.02674423 -0.046477083 0.06349445 -0.7211371 0.2141642 -0.0041310587 -0.13427101 0.6341309 -0.27279052 0.074305944 -0.029663807 -0.53933513 -0.48789942 -0.45843965 0.13719237 0.38015327 0.36361352 -0.12589769
available.a.01 -0.39517123 0.050141525 0.0137672825 0.07601491 0.055382002 0.05696459 0.090184554 -0.13208872 0.08346153 0.014484186 -0.019789103 -0.022537634 0.14563783 -0.27144268 0.1404053 -0.25849086 -0.70173097 -0.08354721 0.101384535 0.006271785 0.053039476 -0.046823323 0.21627511 0.09546336 -0.20533673 -0.03315493 0.3564122 -0.11463123 0.11385325 0.0025796855 -0.054209173 0.21488583 -0.017144347 -0.041971117 0.040325433 0.287235 -0.18293999 -0.027920578 0.015283845 -0.109487854 0.074777946 -0.34673575 -0.2719506 0.12245175 0.19698742 -0.4107392 -0.013186907 -0.022561349 -0.27856246 -0.10102883 -0.020206327 0.37329623 0.3252302 -0.21438503 -0.09242595 0.050303433 -0.028908588 -0.07650741 0.010906459 0.0045915777 0.40852585 -0.029344656 -0.037522722 0.33487523 -0.3024349 -0.078249685 0.009672816 -0.016250543 0.058592286 0.035546903 0.023807215 0.23771214 0.02958575 -0.054623988 0.017901992 0.045948878 -0.32668 -0.36005837 0.10267412 0.30167583 -0.08277503 -0.055518787 -0.12891817 0.049265273 -0.02407274 -0.017566215 0.031937864 0.1593277 0.13736422 0.0038533108 0.2757389 0.040380806 0.081822425 -0.4496871 0.019404877 -0.13026723 -0.06988143 -0.39677075 -0.018727519 -0.044608604 0.07141174 -0.1678272 0.008883635 -0.013206378 0.067445114 0.08136565 -0.09235328 0.39197773 0.17371505 0.05489582 -0.4932178 0.07359691 0.000852672 0.010764132 -0.10328888 0.00085839053 0.18623285 0.083871536 -0.11827665 0.12684534 -0.09057184 -0.098705396 0.27318516 -0.36394116 -0.020902948 -0.44237125 0.19963843 -0.05656257 -0.32912475 0.10179374 -0.3952146 -0.035256375 0.028013505 -0.18692781 0.8617088 -0.2841581 -0.14369597 0.0773432 0.08889774 0.089847416 0.0012191992 -0.060282845 0.2927013 -0.27580842 0.00858749 0.2694014 -0.033441067 0.030486966 0.25958273 0.25092432 -0.060087018 0.114700526 -0.077646814 0.05027782 0.0036309953 -0.0092509985 0.36255914 -0.1755127 0.06733332 0.092431925 0.1109534 0.062113903 -0.48568514 -0.32677546 -0.06794425 0.050746262 0.014752187 -0.004316332 0.45829397 -0.46658885 -0.028463257 -0.009370516 0.02448948 0.1113448 -0.03811701 0.036293734 0.08071376 0.023220008 0.09444498 0.1067105 0.07885824 0.18680066 0.07752433 -0.45763353 0.29657897 -0.08002591 -0.007585185 0.06338482 -0.12197718 -0.34468836 -0.16873233 -0.09727643 0.20748794 -0.061544538 0.03886319 0.28153518 0.040574327 0.04205993 0.41915858 0.036749624 0.007987692 0.042091858 -0.28847474 -0.032843277 0.030799713 0.03211184 -0.03535227 0.26063266 0.20353517 -0.22407568 -0.40543273 0.007347932 0.08149632 -0.012407719 0.06843793 -0.032804523 -0.10218154 0.076263666 -0.033832908 -0.4106955 0.13617782 0.042676684 0.023891624 0.1657691 -0.17547975 0.06749344 0.024728412 -0.43628514 -0.0029690624 -0.18840693 0.22459492 0.02410092 -0.22236288 0.0048656776 0.043273065 0.084801346 0.06783112 0.17702357 0.4076144 0.26649442 -0.09221038 0.021641036 -0.1158345 0.04497793 0.09437698 -0.1395587 0.18360533 -0.015394073 -0.024166455 0.011164104 -0.05256955 -0.017596615 0.028964441 -0.021225117 0.022224195 0.01020466 -0.27919605 0.0065100207 -0.18783803 -0.44869548 0.06992051 -0.13367203 0.21993177 0.091458656 0.2630583 -0.19729446 0.21773179 0.06305396 0.012733344 -0.1301729 0.0132435355 0.088257104 0.12131852 -0.057234246 0.26459798 -0.05750031 0.20505631 0.38930005 -0.17768092 -0.021595199 0.13637012 -0.0267106 0.3244586 0.08041297 0.13911508 -0.3753407 0.041494306 0.41831568 -0.39052072 0.37769917 0.05365614 -0.076724224 -0.09042576 -0.058380615 -0.5569206 0.23459087 -0.41445002 -0.0021770347 0.405369 -0.12739979
warm.a.01 -0.014828274 0.14048766 0.04067359 0.21137147 -0.012857945 -0.24061498 0.15882675 -0.14571293 0.057602867 0.47585797 0.019804962 0.15597653 0.018132944 0.7482131 -0.028891759 -0.213977 -0.30682656 -0.019455016 0.06947171 0.21573068 0.17013364 -0.037496153 0.011010496 -0.008399075 -0.2856637 -0.06750647 0.6036955 -0.014904495 0.16871096 -0.0099893175 0.15165216 -0.043423604 0.04400733 -0.012854416 0.21320687 0.08701816 -0.2664288 -0.04935986 0.05215171 0.0027747182 -0.04339314 -0.21821813 -0.2043737 -0.061796002 -0.15873206 -0.1876366 0.037327077 0.42417336 -0.29043025 0.03725 0.011588202 -0.0038604198 0.121480025 -0.011098643 0.03150008 0.0053794365 0.020757673 -0.028453967 -0.4471601 0.030220408 0.55124354 0.13042887 -0.3297212 0.29645017 0.08498691 0.016914409 -0.091458365 0.01403711 0.029678289 0.08565335 -0.015421579 -0.005223267 -0.027587097 -0.16145998 -0.0028382523 0.009620991 -0.34320158 -0.155896 0.06804994 0.5105542 -0.86310506 -0.11504021 -0.3372968 0.32291695 -0.06579727 -0.022789689 -0.052857205 0.0019041416 0.016280146 0.55447215 0.096454166 -0.00758633 -0.07987506 -0.19689773 0.024841039 -0.24574232 -0.012757744 0.0053470437 -0.008730758 -0.03585468 -0.2968576 -0.18276876 -0.024495648 0.074721105 -0.015184364 -0.040792696 0.11091008 0.02468551 0.009572134 0.64060634 -0.2791875 0.04788874 0.08755821 -0.03971391 -0.03361112 -0.023094267 0.26062405 -0.0021264758 0.3644016 0.034445632 -0.034810588 -0.007896109 -0.025406605 0.04082104 0.067445055 -0.23647983 0.27678797 0.058788344 -0.1916126 -0.029129805 -0.4933437 0.052988466 -0.0198056 0.15427575 -0.010505915 -0.46116814 0.0095538385 0.004592151 0.010383066 -0.03498437 0.008096919 0.44775707 -0.045299612 -0.00083810586 -0.20744534 0.487585 0.18489978 -0.121249706 0.028045578 0.14121926 -0.12781662 0.0018260628 -0.057156984 0.020574175 -0.15687957 0.048926417 -0.014243067 0.0003822146 0.28336883 -0.15282506 -0.045059435 -0.038516354 -0.29854012 -0.18882269 -0.03715477 0.006911446 0.008613859 -0.010732383 -0.024508182 -0.4890745 0.22351538 -0.030119644 0.038537532 0.077709 -0.005618214 -0.027894093 0.26522097 -0.1099083 -0.08139268 0.162162 0.25348052 -0.037915383 0.038167994 -0.33700278 0.55776286 0.13132265 0.03371065 0.01565702 -0.15529582 -0.20472424 -0.121239364 -0.01774373 0.38513434 -0.02795629 -0.029873794 0.54714364 0.030090464 -0.017721163 0.37197328 -0.06971657 -0.15507628 0.19328263 0.0029351285 0.25494877 0.04685169 0.103017755 -0.018184833 -0.13264634 -0.014287273 -0.026843792 -0.34379956 0.0025521086 -0.016167084 -0.0034724667 -0.008422839 0.0011084136 0.1787116 0.046922047 -0.019279752 -0.028384412 0.021309938 -0.019489707 0.0061519444 0.12924671 0.06467163 0.07708764 0.0684623 -0.008308863 0.01078532 0.028641356 0.250469 0.03247797 -0.023167958 0.051459484 -0.013473245 -0.347163 -0.20312044 0.1381442 0.00821342 -0.03429991 0.007312924 0.014794602 0.038323298 -0.041203745 -0.05171696 0.1859274 -0.060899276 -0.012968168 0.05152632 0.013016935 0.00497711 -0.34259546 0.014166644 0.04427916 0.0006581161 0.010487159 -0.09168183 -0.026786964 -0.3808912 0.10457195 -0.16249385 0.46100783 -4.8061698e-05 0.029289465 0.030652814 0.013911507 0.26008135 0.040000916 0.47735974 0.00055255427 0.023200408 0.3590175 -0.022533353 -0.018516699 0.054466818 0.014070268 -0.096779086 -0.015829008 0.03042951 0.034353208 0.12001648 -0.09222637 -0.0909081 0.03594609 0.010995089 -0.6195609 0.33717012 -0.031780813 0.20098136 0.29462674 0.007434781 0.017197594 0.019592658 0.087204054 -0.29326177 -0.025848383 0.038710885 0.021425446 0.17666806 -0.03670631
strange.a.01 0.23234023 0.11881654 0.003659926 -0.03417191 -0.059050467 -0.10339931 0.28137994 -0.012015021 -0.1892795 0.04534662 0.014192406 0.4315283 -0.06953202 0.11847913 -0.4212595 -0.3525219 -0.64532304 -0.18256262 -0.015400016 -0.4168797 -0.05387667 0.059040938 -0.023010513 -0.2471555 0.020775868 -0.27449322 0.1398388 -0.013691766 0.1851552 -0.08222954 -0.2636881 -0.32589543 0.014656674 0.0016686574 0.12578224 0.18887389 -0.29494333 0.18995343 0.024447672 0.28588867 -0.03585633 -0.004731145 -0.17598511 -0.13226445 -0.07387928 -0.21813193 0.05546373 0.38816345 -0.5568329 -0.010441977 -0.29175797 -0.47253823 0.29752654 -0.16076949 -0.051467285 0.0704079 -0.21049519 -0.003478518 0.014968927 0.17851691 0.28689167 -0.21046361 -0.36063024 -0.118330486 0.09287083 -0.12705773 -0.49118993 0.044356 0.43662378 -0.0627549 0.026743028 0.4381938 -0.16400343 0.39709574 -0.01847805 0.16523151 -0.4324069 -0.14272158 0.01080776 0.42619136 -0.5351111 0.029401096 -0.2013011 -0.3772523 0.46423182 -0.007580178 0.06960921 0.013204319 -0.38126484 0.021758791 0.10845478 0.24891938 -0.077933386 -0.13952927 -0.013133864 0.119513504 -0.050731845 -0.36313602 0.11825621 0.13317256 -0.082988285 -0.19603314 -0.09609523 0.0829084 -0.2098309 -0.40536475 -0.20485727 0.27550703 0.35643268 -0.14309858 -0.552308 -0.02187394 0.026574211 -0.31606358 0.015441587 -0.3233854 0.2672845 -0.2330208 0.6419976 0.3682491 -0.030933097 -0.022019247 0.14164676 0.7506801 -0.03570789 -0.47962612 0.048645146 -0.05998473 -0.48578796 0.1539366 -0.43112862 -0.48923028 -0.092682526 0.21160108 0.34079695 -0.38328412 0.07198627 0.036401745 -0.0676771 0.041013878 -0.21835588 0.07680641 0.035095405 -0.31258774 0.06745033 0.04997602 0.17898092 -0.13369086 -0.1372979 -0.06442231 -0.011791135 0.04787828 -0.26180995 0.23977695 -0.100108884 -0.08128845 0.34809476 0.1950515 0.16770372 -0.1282903 0.33725134 0.32169145 -0.12441023 -0.102204725 -0.12014453 0.09659481 -0.10151203 -0.42445725 0.113968395 -0.22392723 -0.09027937 -0.015516435 -0.20097475 0.19714816 -0.06092364 0.40452522 0.05592859 0.12949133 -0.0011798479 0.015803682 0.19226475 -0.684724 -0.15182306 -0.47062883 0.48317996 -0.07825307 -0.17685948 -0.08579426 -0.2559753 -0.44778812 -0.05054309 0.021008052 0.33011073 0.020762743 -0.010193409 0.20881641 -0.01217568 -0.027125863 0.660556 -0.14135595 -0.17005579 0.002687755 -0.09416723 -0.19906093 -0.11094496 -0.3102962 -0.1412695 0.19804038 0.22785333 -0.17061503 -0.5167496 0.013280462 -0.05894899 -0.07395492 -0.03470087 0.10821282 0.038894214 -0.24717115 -0.48264256 -0.09261273 0.2582833 -0.07367302 -0.30881113 0.32221046 -0.25765282 0.049109682 0.10664553 0.31831917 0.043562133 -0.002232628 -0.04317286 -0.29801962 -0.15674233 -0.15163347 0.31631297 -0.20372592 0.005040375 0.17968822 -0.030432383 0.003927325 -0.4727527 0.44904873 -0.06855975 0.09758586 0.23291108 0.40760708 0.2782957 -0.0057074046 0.22950988 -0.2896357 0.24240074 -0.38744906 0.17331657 -0.1511061 0.21462607 0.03165859 -0.013253519 0.09259095 -0.30438423 0.021623494 -0.2132514 0.13749592 0.077291004 0.13266258 -0.023260687 -0.45098695 0.43553215 -0.5004024 -0.05711686 0.082227044 0.0301888 0.0027722812 0.11504777 -0.09310471 0.4254908 -0.025314756 -0.0011260886 0.0048688273 0.035565034 0.12881893 0.008331948 -0.3075718 -0.125347 0.13378273 0.2458776 -0.40322345 0.24580589 -0.06328181 0.37155682 0.31405637 0.08252341 -0.1559004 -0.022625031 0.095521376 -0.48659736 -0.5585808 0.20298901 0.07611259 0.35412475 0.038906805
odd.a.01 -0.034401603 0.1604941 0.49373597 -0.08450125 0.3040206 -0.27439648 0.028804705 -0.23521245 -0.057313018 0.13050386 0.02401522 0.17773017 -0.15728079 -0.12764652 -0.27271897 -0.1027761 -0.35803393 0.014812686 0.058658626 -0.1580515 -0.22925003 0.43565312 -0.0072251707 0.23653853 -0.29477757 -0.27990094 0.31124517 -0.056147527 0.037798066 0.55876786 -0.14161447 0.23147881 0.008835425 0.04020223 -0.5181435 0.3360845 -0.0664805 0.06740318 -0.03939161 -0.054962736 -0.0548497 -0.415334 -0.24925683 -0.034951337 0.2777361 -0.5554155 -0.32233807 -0.08017162 -0.66336757 0.028607553 0.40563998 -0.16756737 0.15654616 -0.16190037 0.33686393 0.3686696 0.04223944 0.19725092 0.043147814 -0.047974247 -0.24516979 0.34067717 -0.18467845 0.05328029 0.04704894 -0.108274415 0.38659805 -0.07184477 -0.22220847 -0.03457309 -0.11265267 -0.15988465 -0.114844315 0.22075628 -0.004067956 0.12877145 -0.22495803 -0.34557498 0.087456144 0.2784569 -0.46742588 0.43512505 -0.55545336 -0.038303044 0.2624618 -0.11764016 0.2544518 -0.32943726 0.021997957 0.23322165 0.54650664 -0.060345896 -0.22300568 -0.32170364 0.052544046 -0.38446546 -0.12228404 0.016254649 0.0030194314 -0.0536729 0.30354145 -0.20484616 -0.3432349 0.13221972 0.07012061 -0.29961574 0.16198622 0.42091107 0.26037344 0.10010889 -0.4862283 0.062068548 0.023790656 0.21978359 -0.1688577 0.03931374 0.14685996 0.0806991 0.36540213 -0.013580207 -0.20279175 -0.098148756 -0.23101704 0.15522343 -0.031915113 -0.10814084 0.25209644 0.12439171 -0.15847564 -0.21141319 -0.866155 -0.09500094 0.1480985 -0.21546103 -0.11798426 -0.16155638 -0.2755761 -0.061317194 -0.11693417 0.16200908 -0.13726543 0.19761042 -0.108686246 0.080206156 -0.16844517 -0.0064227595 -0.14129826 -0.08406808 -0.041258097 -0.0072162086 0.001379157 -0.21855584 0.17603946 0.060467586 -0.046736315 -0.27027714 -0.057121802 0.1869598 -0.04570011 -0.40045962 0.48971096 -0.046241004 0.0684881 -0.04976884 0.055137444 0.13908912 0.2270421 0.04349647 0.2711024 -0.5698495 0.31163418 0.29065678 0.0659134 0.124737054 -0.30938345 -0.087422 -0.18332078 0.024106944 0.2807291 -0.1089517 0.37681842 -0.2076904 0.1710015 -0.5486674 0.3181437 0.08868736 0.035422903 0.034180645 0.10624941 -0.68682057 -0.12952329 -0.3401031 0.5230534 0.09679786 0.1119662 0.44982418 0.00890578 0.12176108 0.3903487 -0.677664 0.608054 -0.10926889 0.24824283 0.15284514 0.0751732 0.04803005 -0.29861018 0.059478052 -0.028117377 -0.090495214 -0.3509842 0.077553265 0.2679049 0.012410664 0.0400254 0.004710353 -0.26650655 -0.121003605 -0.34538335 0.22884247 0.1436407 0.028342796 -0.064939246 0.28874895 0.035505775 -0.27784786 -0.03052294 -0.26642397 -0.0433564 0.116818726 -0.023643635 0.05670183 0.01871519 0.057403043 -0.16641125 0.60788614 -0.14228025 0.09072804 0.004577184 -0.034643784 -0.0007490349 0.036975387 -0.01481046 0.00958815 -0.5152129 -0.10156553 0.32089844 0.038908705 0.059382107 0.078733936 -0.11333852 -0.13659261 -0.27342704 0.3660643 -0.36654976 -0.06126901 -0.19644344 -0.18986362 -0.7498672 0.16998264 -0.032168977 -0.08395508 -0.19596958 0.101817615 0.10514856 0.0075337198 0.1854475 0.42883378 0.0061773746 -0.23665795 0.033043314 -0.41329294 -0.112378165 0.24133849 -0.055922285 0.06790406 0.110273704 0.076517284 0.09656267 0.084649935 -0.10411578 -0.09041387 0.13464783 -0.008653457 0.15018041 -0.6155377 0.3081995 -0.28605992 -0.15173973 0.37506756 0.50158423 -0.037509985 -0.43557513 -0.27606896 -0.42288196 0.0668794 -0.17077726 -0.021975541 0.44600177 -0.2929593
impermanent.a.01 -0.006955899 0.15214525 0.0018138565 -0.06505761 0.04294621 0.092887595 0.19934212 -0.23819509 -0.09074737 -0.11587849 -0.0020150123 0.38681915 0.006513628 -0.023887044 -0.042289067 -0.41879004 -0.50614893 0.5877524 -0.028013758 -0.077504545 0.008638632 -0.1278477 -0.3297647 0.17178841 -0.18259436 0.2104992 0.606291 0.016856594 -0.055982642 0.18100154 -0.010288317 0.46697798 -0.11271412 -0.013744421 -0.056444436 0.1576388 0.06007641 0.07699668 -0.110266335 0.037367176 0.08621613 -0.4418519 -0.25243586 0.030096274 0.066061884 -0.36883736 8.885737e-05 0.21684302 -0.3849013 -0.08724523 0.014131628 0.2622662 0.2304919 -0.12349144 0.13613775 0.019964965 -0.013082445 -0.022441935 -0.16086031 -0.008616157 -0.10373361 0.029779574 -0.14974691 -0.08712121 -0.19911353 -0.048955802 0.031376522 0.066722825 0.030210458 -0.06556595 -0.12349262 -0.068693645 -0.09765698 0.030526618 0.03890848 0.0170323 -0.5938156 -0.052898098 0.09558312 0.27624348 -0.5990612 0.025149817 -0.1526413 0.035630416 -0.04329197 0.05631146 0.0073913084 0.1151974 0.042169012 0.012294478 0.17882545 0.31972355 -0.008480412 -0.02197056 -0.030450676 0.10300195 0.07113968 0.28648636 -0.0311835 -0.08465098 0.015106835 -0.06668052 -0.051632456 0.2638279 -0.084572844 -0.054818653 -0.0845949 0.30255362 0.33029372 -0.0022424099 -0.36834103 -0.059823766 -0.03734734 -0.021103995 -0.03537939 0.11651405 -0.016385663 -0.025943628 0.33836088 0.043287925 -0.01832295 0.03693286 -0.3456695 -0.1500724 0.010363498 -0.36223787 0.088082835 -0.019157138 -0.53849447 -0.01745846 -0.4173806 -0.06401717 0.0007442438 0.07231668 0.021270504 -0.22411723 -0.03561525 -0.05168673 0.2532084 -0.059531856 0.0132197 0.009342162 -0.12333768 -0.20074521 0.06079364 -0.13974768 0.0047221277 -0.06570746 0.56864953 0.18816744 0.008858685 0.053575486 0.059295513 -0.2573032 -0.047717948 -0.048411854 0.023087185 -0.12229018 0.04995295 0.02121599 -0.039395515 0.01913191 0.092091255 -0.18067321 0.0075319316 -0.014666031 0.03742662 -0.11893192 -0.016446352 -0.34102252 -0.38046065 0.017075004 -0.021899838 0.05708445 0.13396308 -0.1354385 0.12538211 0.082526825 0.151058 0.04877654 0.2451664 0.07851843 -0.30052763 -0.6289362 0.532657 0.07438595 -0.07460185 0.12238022 0.25208798 -0.34965524 -0.30905756 0.113749444 0.16750671 0.13054046 0.017702045 0.5160601 0.09296994 -0.0135362195 0.63372344 -0.06723005 -0.0050407867 0.08351212 -0.009731511 -0.06125714 -0.030702688 -0.061748646 -0.00441845 0.03237371 0.08156774 -0.05412461 -0.14159158 0.027221655 0.065771975 0.025358262 0.031123603 -0.18449558 -0.032581866 -0.009706432 0.04482185 -0.096240304 -0.04842193 0.029626496 -0.077016756 0.10023909 -0.06511268 -0.07448037 0.040940307 -0.20741081 0.2382378 -0.024260826 0.018076958 -0.09818486 -0.042562567 0.45365646 0.13854046 -0.016415594 -0.08682539 0.46805298 0.36369485 -0.031989932 -0.3246793 0.064926036 -0.027280195 -0.0140507 -0.024009865 -0.007911837 -0.17482325 -0.02133514 0.16040662 -0.013860995 -0.1812921 -0.26098275 0.06385401 -0.1066638 0.028459646 -0.044090014 -0.228829 0.030898662 -0.2554809 0.004022114 -0.3806175 0.051424466 -0.05875723 0.13724075 -0.0032505684 -0.27384117 0.10687088 -0.017229313 0.013583475 0.08433688 0.017003272 0.108562365 0.043319404 -0.06882156 -0.12782583 0.046843246 -0.019928914 0.47941342 -0.023989545 -0.28374147 -0.019006133 -0.55115706 -0.27757865 -0.20577383 0.013046925 -0.49282548 0.11923508 -0.10693272 -0.0034563546 0.25916758 0.11780273 0.11203729 0.12009488 -0.4099342 -0.39217937 -0.040963408 0.049051173 0.009652703 0.22842644 -0.059420884
sensitive.a.02 0.032307595 -0.057669204 -0.06492744 0.032535776 -0.029956888 -0.14067703 0.47412232 0.11697507 0.032225844 0.63265115 0.06318298 0.031663463 0.00014913708 0.24506997 0.2990351 -0.10204479 -0.28891197 -0.03198269 0.3701045 0.0072129457 0.19471367 -0.19052579 -0.06375205 0.17975621 -0.25078693 -0.21806002 0.2476942 -0.14563346 0.32059473 0.014884286 0.08672737 -0.29395175 0.007464511 -0.08839541 0.21347342 0.33487487 0.12843733 -0.14329785 0.07511474 0.0035095932 0.46882683 -0.22177657 -0.37538075 0.35414544 -0.17052487 -0.34308025 0.009816973 -0.16729143 -0.3284102 0.023994306 0.30314144 -0.03507966 -0.04001213 -0.02936462 -0.026791604 0.009874193 0.10015273 0.011914764 0.048499644 0.013377749 0.09518862 0.16078912 -0.20041138 -0.24403404 -0.011783697 -0.067327015 0.32657224 0.009373723 0.08529756 0.024981674 -0.23382656 -0.3105504 0.01020564 0.056536894 -0.054357342 0.09150319 -0.22395928 -0.77951676 0.24101685 0.31043682 -0.35232487 0.018879494 -0.20706081 0.03853332 0.008687182 -0.1472971 0.39588672 0.0069490494 -0.078963816 -0.10216177 0.1654236 0.2551485 0.2754349 -0.25391254 0.016306477 -0.57272124 0.041150764 -0.16580908 0.008074413 0.085823484 0.24730127 -0.34337413 0.0045219446 0.022823086 0.007195684 -0.090756886 -0.27982885 0.44727704 -0.17832743 0.015668906 -0.4582921 -0.040854067 0.044391032 -0.053242054 0.036137145 0.34115013 0.35452908 -0.0050121285 -0.03162382 0.019421972 0.03569535 0.07290804 -0.017340286 0.3101296 -0.05560134 -0.1886416 0.10050691 0.025671076 -0.018860202 -0.03332082 -0.37455794 -0.3447736 -0.022790775 -0.0057058837 0.066925116 -0.27880555 0.011711157 0.9472183 -0.121851526 0.0042352467 0.05188725 -0.051222216 -0.22545554 -0.26784462 0.07685022 0.08516852 -0.25435582 -0.11591023 0.025274241 0.056814607 -0.03626161 0.03938306 -0.08426541 0.22683254 -0.3447978 0.001925628 -0.10642664 0.8985881 -0.010672833 -0.08552169 0.18211812 0.03909025 -0.2997642 -0.24134783 -0.07987463 0.012731373 0.031202504 0.05996047 -0.10465293 0.020872625 -0.024762584 -0.11836798 -0.0468005 0.42954794 -0.65772545 0.0022396778 0.013715326 0.06749395 0.010502124 0.10663188 0.27683982 -0.032685753 0.03289761 -0.3519537 0.46993038 -0.03723723 0.074363716 0.075347684 0.08513688 -0.3935235 -0.19894491 -0.014711478 0.23708323 -0.044859245 0.034269806 0.4622649 -0.12526093 0.29761335 0.45706904 -0.038941037 0.08600377 -0.02074146 0.037227433 -0.07754253 0.019294677 0.07574621 -0.080813475 0.21737374 0.14978659 -0.049317602 -0.29667625 -0.120214045 -0.23859094 0.3870247 0.010230312 -0.00862981 -0.035078157 -0.12371621 -0.12910612 -0.093686864 0.13729453 -0.046250395 -0.064479366 0.18324523 0.45067674 0.08610043 0.06151964 0.20327301 0.0071808742 0.02050646 0.058500513 0.16309379 0.010623834 0.1085021 -0.1575401 -0.15257041 0.020117996 0.029324006 -0.040788777 0.035694033 -0.36878204 -0.16845842 -0.09743188 0.5621069 -0.09492394 -0.14217253 -0.15064824 -0.020885145 -0.15234831 -0.08513672 0.017778935 -0.35242608 -0.06564156 -0.019039633 -0.020941257 0.014477156 -0.067748494 -0.038605273 -0.44884795 0.44606325 -0.3218434 -0.22558862 -0.26890194 0.096751206 0.034967884 0.06180091 0.22486146 0.06965885 -0.014946323 0.028278757 -0.110641375 0.01481265 0.056433406 0.011149699 0.22706641 0.07856649 0.02247763 0.02279306 -0.015177669 -0.3930285 0.0346756 -0.2802458 0.29737228 0.0036102596 -0.078782424 -0.4482027 0.2569369 -0.036145132 -0.16441356 0.28195286 -0.05580447 0.039740935 0.019781804 0.04124604 -0.13808812 0.034508523 -0.05533515 0.5526239 0.20992227 -0.053281438
fat.a.01 -0.001073728 0.019427855 -0.46657136 0.078230344 0.014387522 -0.11204499 0.2461938 0.5836366 -0.4885043 0.42679736 -0.23232952 0.07224965 -0.15210496 0.094985515 -0.46788356 -0.06716679 -0.25054374 0.26854667 0.11118841 0.104348786 0.064136125 0.023905499 -0.20095092 -0.054280747 -0.10713368 0.01199734 0.3993251 0.14033134 0.5974181 -0.035226535 0.3356886 0.052784204 -0.053492952 -0.023108462 0.015019905 0.3388409 -0.095523 0.039134108 -0.056797862 -0.022089526 0.03177872 -0.28305045 -0.29636544 -0.029691687 -0.0349154 -0.7924624 0.030202681 -0.10502166 -0.5249933 0.24783522 -0.06091588 -0.06589157 -0.2029394 0.0005104719 -0.04818456 0.061367206 0.006652998 0.2702723 -0.004029707 0.031299595 0.024863463 -0.071146555 -0.094605185 -0.07498264 -0.09583692 -0.052897695 -0.22301133 -0.017694402 -0.12204746 -0.19154097 -0.71955895 0.49098337 0.12663311 -0.012225317 0.008243666 0.031384017 -0.21679325 -0.077876784 0.107802965 0.3088608 -0.5929568 -0.035047192 -0.18523541 0.49365532 -0.2319557 0.021108732 0.059351947 0.034096926 0.039414693 -0.147829 0.2518983 0.10171998 0.3919213 -0.10155386 -0.036862962 0.016092336 -0.2580729 0.03160076 0.008121241 -0.0021858085 -0.285385 -0.3514666 -0.033322543 -0.42186403 -0.06411876 -0.0909898 -0.023836434 0.24725795 -0.046956453 -0.040198267 -0.30621904 -0.14113116 -0.0038368024 -0.01512871 0.040108502 0.08034348 0.15614839 0.0030502114 -0.008199528 0.03684354 0.00067221135 0.08150349 -0.53054374 -0.11184735 0.051111646 -0.16220617 0.0866138 -0.01714759 -0.23723972 -0.015577479 -0.79463565 -0.18155998 0.11372856 -0.0474283 -0.1309234 -0.36631092 -0.041386403 -0.003274907 -0.0037610303 -0.022004507 0.006459492 0.29316416 0.035358433 -0.04856628 -0.051509514 0.0080030495 0.34256122 -0.0795613 0.03888175 0.044751767 0.009594126 0.19453566 -0.18553321 0.06417002 -0.14334372 0.0010974248 -0.5301795 0.028786927 0.05742794 -0.27590668 -0.0071609453 -0.038676564 -0.20244071 -0.08147014 0.047887463 0.023738267 0.22603615 0.028373085 0.01882285 -0.322238 0.009641024 -0.20292397 0.054726288 0.29640368 0.032632474 -0.09798757 -0.008937164 0.016725391 0.00062398874 -0.10250918 0.010224392 0.037354384 -0.026162937 -0.5011713 0.3838736 0.011465066 -0.18922828 0.06690441 0.007867416 -0.7003253 -0.11362831 0.011546441 0.3687139 0.048642263 -0.5102626 0.5259782 0.010165099 -0.013003845 0.44099867 0.20478605 0.03636165 0.060512908 -0.23095709 -0.03178326 0.104968965 -0.22012942 -0.044382703 0.41300666 0.43681538 -0.0112018045 -0.1832498 -0.03416442 -0.3599731 0.0048444765 -0.04336571 -0.009420088 -0.07495892 0.06698903 0.03254688 0.003931506 0.040057395 -0.018520238 0.034339145 0.1798413 -0.10123341 -0.27494827 0.02354249 -0.03846114 -0.14469737 0.04429839 -0.02988048 0.24080525 -0.1812829 0.30094215 0.0018208611 -0.13641477 -0.019658333 0.38700408 -0.28850737 0.09447163 -0.005767081 -0.0032696158 -0.079516135 0.049835745 0.025668265 -0.117929615 0.090352036 -0.13830617 -0.05012273 0.2675697 -0.120647624 -0.25660414 0.20352474 -0.39924195 0.40978077 -0.12582524 -0.021991435 -0.5026163 -0.41710338 0.25296786 -0.22445002 -0.12921202 -0.008937727 0.017235765 0.08264514 0.03747079 0.38295832 -0.122869104 0.0701784 0.09595086 -0.048830103 -0.04963672 0.022206722 -0.018320758 0.067419134 -0.026979266 0.38278627 0.15688004 -0.04011085 0.02240071 0.053756956 -0.25002024 -0.29054922 -0.1023978 -0.008597601 -0.2818264 0.47304785 0.1428753 -0.08878692 0.21545234 0.022457832 0.063642174 0.0569092 -0.031975113 -0.42854246 -0.07406714 -0.20304918 0.5345622 0.29909626 0.027268939
outer.a.01 0.15571359 0.097424924 0.10274285 0.3721888 0.11608551 -0.09439652 0.20388131 -0.017383 0.14065753 0.023283275 -0.050722305 0.16963042 0.03743806 -0.09885295 -0.33834863 -0.26640534 -0.4992028 -0.16506022 0.05118261 0.2554535 0.7847461 -0.07516093 -0.02518622 0.058358524 0.009344365 -0.065935306 0.8678582 -0.18703116 0.46619666 0.0008983718 -0.060313042 0.24189447 0.08709428 0.004636185 -0.055958703 0.14507693 -0.15353903 0.016373914 -0.1496349 -0.18436931 0.03164926 -0.25387558 -0.07709503 -0.18574092 0.26571348 -0.34671643 -0.03948109 0.27320737 -0.34888342 0.34053516 -0.13786167 -0.1236055 0.11768384 -0.31973922 0.03344226 0.05549812 -0.2809954 -0.12348125 0.23687014 -0.37901625 -0.112222776 -0.5305006 -0.16024466 -0.11341609 0.02007788 0.07493532 -0.20594946 -0.1283747 -0.06728081 -0.0871911 -0.009669919 0.11644237 -0.13548712 0.22460975 -0.074771136 0.19478703 -0.22449245 -0.011019298 0.074197404 0.5357808 -0.06718766 -0.2182563 -0.1988088 0.22588062 0.15015633 0.021485223 -0.014301231 -0.40261707 -0.18214554 0.38922274 0.35899428 0.09443013 0.07380573 0.2995036 0.50143206 -0.062127694 -0.10316218 -0.07114375 0.113350324 0.102831766 0.15991811 -0.2650598 0.08816845 -0.27916533 0.11793457 -0.13354006 0.2067141 0.56494004 -0.010426229 0.3128034 -0.73303 -0.15970755 -0.13800174 -0.118849255 -0.2909372 0.13828498 0.08413158 0.17286246 0.28056505 0.009196596 0.18977006 0.03241762 0.10863767 0.013611695 -0.121738665 -0.3462638 0.021234632 -0.20018998 -0.11518119 -0.14485715 -0.63839567 0.21590848 0.07782146 -0.05640861 0.14029153 -0.49522838 -0.1928736 0.0067977887 0.23996931 0.09197017 -0.24117641 0.03832013 -0.38973412 -0.3853637 0.20583227 0.014567153 -0.060639206 0.092439495 -0.44668305 0.048526987 -0.2572783 0.010382522 0.08006369 -0.11830625 -0.0036775854 -0.06273226 -0.02791451 -0.033505574 0.0039076707 -0.081795104 0.048337016 -0.11157428 -0.41426325 -0.16061412 0.17575787 0.119063005 0.061957315 0.016903954 0.16844288 -0.3489468 0.090472296 0.09503702 0.13248584 -0.040106945 -0.001799692 -0.18658912 0.39729813 -0.15619121 0.21561185 0.13028544 0.25035527 -0.4000836 0.015901752 -0.29352003 0.5290128 -0.12632039 -0.4171524 0.40272203 0.054641463 -0.2048963 -0.110982776 -0.022285549 0.23376966 0.19463688 0.17680508 0.36292583 -0.0039949194 -0.42661875 0.50997293 0.17535841 0.18427709 0.014426198 0.07219824 -0.29031733 -0.06965034 0.31982893 -0.40935814 -0.05901254 -0.03161691 -0.0773312 -0.1660319 0.057758525 0.019156912 -0.069899544 -0.10335226 0.0488626 0.08361881 0.13086379 -0.36480725 -0.2906557 0.39146835 0.009926761 -0.4909857 0.37017083 0.10067935 0.022250632 0.1388852 -0.23308113 -0.14037219 0.058836993 0.3246167 0.19956274 0.15860857 0.39254764 0.34723604 -0.40934163 -0.09543207 0.8366101 0.13282475 0.061530262 -0.20876747 -0.1298965 -0.05851447 -0.118929006 0.2195522 0.24898276 -0.52593493 0.106086455 0.00020549107 0.22380723 -0.44034085 -0.35312673 -0.37596127 0.01787402 -0.16946147 0.21475212 -0.34123823 -0.15428147 -0.29665473 0.06623333 0.08499311 -0.22238009 -0.057252686 0.29696158 0.034778856 0.044111688 0.2814103 -0.09361018 0.05677274 0.2940145 0.043077983 -0.1307908 0.07638622 0.11315852 0.17998013 -0.20706306 -0.18086505 -0.1938443 -0.044867136 -0.113084406 -0.075889654 -0.044633467 0.060266037 0.19414753 -0.01606083 -0.4698245 0.40566248 -0.056517623 -0.49634206 0.39875957 0.010448456 0.06604303 0.18440263 0.34750947 -0.42433783 0.2381428 0.003322955 0.009879994 0.43404567 -0.01698865
plain.a.02 0.062686965 0.14823934 -0.20903827 0.004820302 0.023624053 0.013880899 0.34532106 -0.041854814 -0.13266923 -0.10796276 0.046971537 0.33994436 0.11824399 0.2641511 -0.20327325 -0.10867122 -0.31884652 0.14691404 -0.02124998 -0.3207169 -0.0011291796 -0.016268026 -0.085300736 -0.041557673 -0.2377832 0.0132391155 0.2520194 0.042398453 0.2799208 0.05339407 0.016890628 -0.41230223 0.12150169 0.121781744 -0.04770298 0.0050737434 0.1001388 0.25147545 -0.088733 0.5248806 -0.12979792 -0.10616379 -0.27885786 -0.29625615 0.035678636 -0.5502675 -0.119479045 0.11380325 -0.5021543 -0.006290417 -0.3337533 -0.27890608 0.2734261 -0.23249331 -0.024642928 -0.12121495 0.2746088 0.068247914 0.069258295 -0.02379877 0.015176859 -0.46187803 -0.48094 -0.0071028215 0.10455295 -0.022116465 0.015582278 -0.03179968 0.099050686 -0.060904738 0.2655149 0.1419546 0.16276833 -0.23903596 -0.17155388 0.08975274 -0.58764935 -0.27528772 -0.23398338 0.22088182 -0.34659734 -0.06772131 -0.19507563 0.20201744 0.19292982 0.080936976 -0.16337763 -0.04309172 0.07777178 -0.1107352 0.28309125 0.12010729 0.018464273 -0.1316892 0.119748436 0.26045164 0.27611488 -0.026714856 -0.12437798 -0.10113038 -0.21224338 -0.5080614 -0.13211294 -0.3685398 -0.17500581 0.0107160155 0.019908244 0.45214602 -0.11453063 -0.15763433 -0.57165676 -0.10461742 0.2273634 -0.05397404 -0.13462438 -0.09267592 0.38044614 0.10440015 0.074722484 -0.10123915 0.027620194 -0.41372207 -0.009803656 0.1443778 0.11876125 -0.32725403 0.017728215 0.0282006 -0.36933282 -0.15504582 -0.5269636 -0.160881 8.9573434e-05 0.06641062 -0.07883554 -0.5797039 -0.19200704 0.048872728 0.010008827 -0.045629315 0.0016656793 -0.002417134 -0.14402474 -0.24876665 0.10280822 -0.06520114 -0.18486284 -0.19241942 -0.015913676 -0.055092335 -0.054132238 -0.06892433 -0.21636891 0.139801 -0.23733881 0.1891696 -0.0034584864 -0.20775934 0.20939118 -0.1727189 -0.16088541 -0.0056776465 -0.3630873 -0.11942437 -0.016747905 -0.050040845 0.054821085 -0.37513515 -0.22631963 -0.36999604 0.1313936 0.16664234 -0.17480186 -0.04857441 0.14246342 -0.0493102 -0.08527894 0.15459344 -0.31511766 0.15080911 0.29866785 -0.13554955 -0.39036435 -0.47076344 0.4091784 0.0064744717 0.20516504 0.05038422 -0.026503917 -0.5149711 -0.037946988 -0.12059841 0.42339233 0.072859496 -0.077813506 0.3397506 -0.037693612 -0.39995703 0.4494806 -0.34583876 0.16369072 -0.06300778 -0.0552201 0.01304389 -0.059944075 -0.2107884 -0.17217413 0.3853917 -0.0631025 0.11990053 -0.39091516 -0.012801586 0.040583007 -0.008348892 -0.08148486 -0.001421531 -0.4398835 0.026242713 0.004773356 -0.17514837 0.060552455 -0.26732045 0.20987204 0.14527522 -0.2705693 -0.005473017 -0.031035349 0.28531787 -0.1159622 0.034423225 0.024309108 -0.18387786 0.0067429254 0.36092547 -0.04254559 0.019667856 -0.16654108 0.26012063 -0.1147087 0.09576221 0.1707298 -0.018584765 0.10311285 -0.15831296 0.15138894 -0.19197205 -0.31295204 -0.062794425 0.053419873 -0.25910163 -0.0661142 -0.31285515 0.124379344 0.13093746 -0.020897701 -0.0089201545 -0.16378348 0.2695941 -0.82513595 0.01983885 0.47476903 -0.12698798 0.05038619 0.07046025 0.012355495 0.051135585 0.33715653 -0.022307366 0.12249907 0.17209375 -0.24784504 0.16649699 0.3098045 -0.069867395 0.24549952 -0.0049240193 0.24861531 -0.17954846 -0.15665433 0.006881786 -0.052766897 -0.15395126 0.12243326 -0.1340568 0.18074977 -0.35094202 0.34019026 -0.18323965 -0.29540256 0.34546965 -0.1988997 -0.08012679 0.13084573 -0.062473547 -0.368237 0.053461574 0.12869367 -0.036713324 0.37305954 0.077112086
structural.a.02 -0.12576722 0.00036468348 -0.21840574 0.36145672 -0.025973476 -0.1535357 0.29004636 0.494255 -0.07024074 -0.070065886 -0.20105104 0.25720888 0.0028677601 0.117344186 -0.13741696 -0.2758495 -0.46023414 -0.4519506 0.26035753 0.027580796 -0.048515644 -0.076539986 0.10451548 -0.49867386 -0.23989715 0.014356604 0.24537203 -0.19283408 -0.08802237 -0.05718895 -0.33266202 -0.31074628 0.2401497 -0.06639851 -0.31528378 0.21261534 0.1506746 -0.07011809 0.08582114 0.5534994 -0.052966073 -0.45627263 -0.03794673 0.09169897 -0.3119158 -0.056087393 -0.08766217 0.1384268 -0.5729365 -0.076606005 -0.011198746 -0.11334685 0.4407708 -0.14553013 -0.02083333 0.0016360382 -0.07459657 0.26963094 0.046262916 -0.068422146 0.092734195 -0.20395434 -0.24735151 -0.019580122 0.008787146 0.136513 0.07078519 0.034330145 0.12436507 -0.24591795 -0.6345099 0.31945828 -0.025493735 0.022385208 -0.065647185 0.2968457 -0.17355803 -0.11124974 -0.020950375 0.6552819 -0.30046886 0.002558991 -0.5441852 -0.0018426024 0.25074345 0.06368853 0.38296768 0.0039377823 -0.19346538 -0.0077611 0.26088327 0.026454411 -0.042272367 -0.043164473 -0.10418572 0.1340204 -0.3777382 -0.1701349 0.29888043 0.12956351 -0.07552222 -0.5646302 0.21274672 -0.0019503994 -0.008955949 0.0027280557 -0.062713675 0.31266826 0.0545402 -0.05506681 -0.5681713 0.03330994 0.04345436 0.11260145 0.005236051 -0.07741694 0.45284545 0.03345577 -0.22358742 -0.67003655 0.017361846 0.009353572 0.0060054385 -0.03210267 0.07292322 0.0300656 0.16320288 0.08886928 -0.3716581 -0.007865587 -0.51081645 -0.10235538 -0.08804963 -0.08001305 0.087397285 -0.14486724 -0.06500403 -0.10222991 0.12768649 0.17541143 0.2323822 -0.1585245 -0.09258039 0.07738893 -0.012063525 0.0719393 0.04744266 -0.15275294 0.07354824 0.28839242 0.011634898 0.014044673 -0.0036315494 -0.024428781 -0.14210549 0.09652412 0.113453135 0.037719388 0.33073348 -0.31075227 0.06056975 0.21872342 -0.37574548 -0.23589931 -0.16013154 -0.0025697276 0.04017917 -0.17758682 -0.063810356 -0.20035572 0.4207332 0.17926155 0.17551383 0.109791726 0.067348085 0.05724913 -0.011376241 -0.011976611 -0.012697135 0.2407284 0.2225626 -0.27546266 -0.041889828 -0.35291475 0.4848181 -0.0885944 -0.013669332 -0.015296223 -0.39100134 -0.3266601 -0.11173001 -0.020211983 0.515632 0.17812227 -0.047827687 0.45856735 0.038269464 0.04339362 0.48867896 0.42630148 0.027045751 -0.16954719 -0.22327663 0.39639834 -0.00438562 0.005998824 0.008192349 0.18558778 -0.034657057 0.014048239 -0.3719699 0.07319925 0.11285055 -0.014285268 -0.025277412 -0.031516075 0.52591634 0.04181089 0.084509335 -0.12386841 -0.0587627 -0.042031985 0.027007943 0.4343784 -0.16159222 0.3285281 0.0107295625 -0.0023944988 0.13696766 0.055967916 0.7955728 0.121077076 0.041619353 0.02822965 0.05559243 0.5193046 0.109494254 0.5325618 -0.36336353 -0.004793947 0.10659054 0.049691327 -0.22540304 -0.009163056 -0.111072786 -0.033093434 0.37181577 -0.028644996 -0.036855623 -0.12507355 -0.33829302 -0.24764706 -0.02852788 0.023775209 -0.05335887 0.1523051 -0.045309253 0.030499874 -0.21368521 0.07072274 0.03477751 0.049309283 -0.0712407 -0.20632467 0.052730337 0.047039304 0.2025409 -0.34530836 -0.051816445 0.11524917 0.08843404 0.0010026931 0.16616154 0.2038794 0.15052265 -0.02737159 -0.032606103 0.01597208 0.06706532 -0.038579892 0.06935314 -0.27984026 -0.15642153 -0.008014312 -0.04098115 -0.4784596 0.094626255 0.04634944 -0.037783902 0.2933182 0.05044731 -0.23118734 0.21662864 -0.057168897 -0.21461083 0.09538198 -0.44413927 0.05564757 0.23741338 -0.25468823
objective.a.01 0.38148126 -0.13122565 0.04602012 0.03698354 0.031670034 -0.13823748 0.15289086 -0.049897652 0.074707076 0.0017135543 -0.0054504746 0.07788333 -0.017866211 -0.04402276 0.02945364 -0.1733943 -0.35030165 0.12505306 0.40559584 0.06809174 0.45758379 -0.08417382 -0.012335506 -0.043561727 -0.24050248 0.17692815 0.5276753 -0.01986321 0.23758678 0.037592217 -0.017293936 0.22542438 -0.06492553 -0.25801125 0.038731877 0.21973448 -0.33349073 0.0756261 0.06631888 0.19796096 0.062102105 -0.21305887 -0.06771209 0.11838064 0.12044552 -0.24265458 -0.014735146 0.017769277 -0.5252494 -0.11553829 -0.017195811 -0.025384737 -0.0034808032 -0.10300502 2.9166265e-05 0.034247555 0.08382216 -0.034274943 -0.007110972 0.027670247 -0.04602831 0.099090375 -0.1845477 0.01699751 -0.03210678 0.07475291 -0.0055738958 0.023075227 0.22112463 0.37444627 0.031526353 -0.020487526 0.010505798 0.1742708 0.0254047 0.10554499 -0.17700283 -0.11737256 -0.05727245 0.35739022 -0.15122831 -0.0268372 -0.29043812 -0.122705385 -0.2804276 -0.03629559 -0.08437561 -0.040397406 -0.023554718 0.23917003 0.29399416 0.056757 -0.05616271 -0.19807266 0.0146754235 0.0601252 -0.20099431 0.33915615 0.10191884 -0.022205833 -0.02120759 -0.31799147 -0.024965553 -0.060377073 -0.10078992 0.039444834 -0.10102379 0.62967825 0.0061346684 -0.06910991 -0.46325737 -0.037062258 -0.019939087 -0.05100349 0.021400303 -0.013207445 0.14354277 0.013431401 -0.322292 0.09603509 -0.030074446 -0.116333574 0.07229422 0.22244701 0.08296336 -0.18964148 0.01945928 0.228581 -0.22660263 -0.0058461456 -0.5883004 -0.024913615 -0.053186983 0.011759803 0.0042838906 -0.3112459 -0.11127304 -0.0033763072 0.13151829 0.13210034 -0.044891104 -0.08171807 -0.016494537 -0.6582264 -0.042574774 -0.020923931 0.030192006 0.039790493 -0.013631596 0.12518923 0.07114676 -0.14877443 0.025201334 0.09237139 -0.25557637 0.033808637 -0.02635928 0.07674042 0.17242028 0.53402025 -0.0051125498 -0.59842306 -0.10643153 -0.026339876 -0.023325069 -0.077345505 -0.02314528 0.038636617 -0.02236314 -0.23011392 -0.00057233416 -0.0063259713 -0.038449455 0.34341756 0.0029611774 -0.06193641 -0.0006199213 0.106875926 0.23895302 -0.17349191 -0.0016424139 0.044479195 0.27392644 -0.22755149 0.33325532 0.10715697 -0.104628816 0.005892946 0.0024591533 -0.4686494 -0.10593159 -0.027342109 0.46138433 -0.09854935 0.0034962522 0.49399185 0.09926507 -0.16910769 0.37769127 0.3866968 -0.020731527 0.026032131 0.03567341 -0.028608002 0.021659505 0.012373176 0.10881509 0.19763844 0.069564216 -0.1958711 -0.3246675 -0.08722757 0.10939302 -0.015263365 -0.078224696 0.040112227 0.022173598 0.015870648 0.18715428 -0.12240972 0.04558385 -0.26861617 -0.003692234 0.31483588 0.21809807 -0.13890819 -0.020839784 -0.08472998 0.10176848 -0.10676017 -0.017359646 0.039073527 -0.21761347 0.17782903 0.015222445 -0.036982868 0.5132452 0.3822926 -0.23540495 0.048549738 -0.034749012 0.0034345295 -0.28069258 -0.04414145 0.022175549 0.111907825 -0.12845752 0.118556924 0.27395496 0.027313588 -0.16133702 -0.2837667 -0.027974518 0.04539401 -0.30132538 0.08931487 -0.13108405 -0.32079762 -0.50747216 0.04996146 -0.034428794 -0.09149469 -0.046944343 0.042314366 0.074222654 0.14309335 0.17510895 0.016264165 -0.11807753 0.050183237 -0.07930136 -0.6840632 0.14959118 0.10596076 0.27955744 0.0046040225 -0.31355244 -0.000314934 0.015766393 0.010081096 0.021143842 -0.2873837 -0.052675016 0.10320797 0.06412129 -0.18082106 0.092695795 0.24356173 -0.0004970237 0.30784643 -0.02521588 0.010407906 -0.014260712 -0.38040093 -0.17915237 0.008943992 -0.08348282 -0.17409617 0.26848933 -0.035778742
ambitious.a.01 0.23689654 0.07989492 -0.107261375 0.23570932 0.13306756 -0.06394018 0.48618543 -0.15890022 -0.31971565 -0.042488724 0.092225224 0.11617931 -0.054648027 0.20160837 -0.097599685 -0.17575765 -0.35300705 -0.1830208 -0.09776626 0.1981992 0.6451023 0.47192642 -0.047289517 -0.01742903 -0.24286824 0.102575295 0.79242975 0.058877744 0.003302291 0.032732014 -0.017290628 0.05599339 -0.06252987 0.016303279 0.0038064546 0.13547853 -0.038463045 -0.13159022 0.19950701 -0.18943398 0.1910474 0.035065416 -0.34595406 0.12326904 0.16427979 -0.14302282 -0.047179706 0.04905429 -0.4301805 0.042164072 0.22573529 -0.016368194 -0.41592255 0.01043818 -0.021898258 0.03412224 0.17496257 -0.1598859 0.13250482 0.034849577 -0.039177217 -0.005268042 -0.14599092 -0.33641756 -0.0057033333 -0.015529866 0.04822626 0.038583543 0.14570561 0.23266776 0.112893306 0.008338795 0.14169385 -0.19248702 0.03448679 0.124741375 -0.35082787 -0.47137284 -0.0036888933 0.58658713 -0.0006439364 0.0116555905 0.0060355067 0.21237051 -0.11883541 0.0037897031 0.11866616 -0.36567298 0.00716414 -0.1642122 0.47727355 0.46179572 -0.16624643 -0.42851952 0.063315764 0.071771815 0.06551198 0.07568105 0.21595569 -0.022555871 0.019871341 -0.26759258 -0.12383573 0.083806895 -0.24745102 0.03440265 0.0338891 0.3404566 -0.21822175 0.0041089454 -0.36352697 0.1417479 0.2101533 0.0039427113 -0.07287736 0.018250516 0.29839182 0.014252853 -0.025739716 0.2773113 -0.07865 -0.29557788 -0.05787705 -0.004796426 0.20517284 -0.02249055 -0.041665394 0.03772831 -0.17456849 0.15247528 -0.43449157 0.13067158 -0.009238062 -0.38294858 -0.18078342 -0.2915429 -0.18165626 -0.026609857 0.18699121 -0.014629249 0.0029381376 -0.022188203 0.20098026 -0.43614233 -0.042708546 0.04502055 0.12357307 0.034180347 0.24400052 0.089756735 -0.12756994 -0.057096608 0.008310612 0.1749482 -0.14539716 0.09944093 0.10550156 0.004888562 0.0069771768 -0.33224836 -0.018997036 -0.450514 -0.31417868 0.27465862 0.00041396328 0.12839219 -0.1704317 0.06260143 -0.05078494 -0.46645376 0.18271777 -0.10550172 -0.14303805 0.16413869 0.09501463 0.17112423 0.077902496 -0.1523046 0.24135292 0.4157734 0.08412754 -0.048615832 -0.21356145 -0.43214607 0.45740896 -0.20515642 -0.09616444 0.16149597 0.23030317 -0.2914471 0.06884395 -0.09660837 0.38769844 0.031806342 -0.0027878792 0.41778427 -0.0010688491 0.16374406 0.5152259 -0.43757096 -0.016833259 0.22212707 -0.080463156 0.15071972 -0.018209403 -0.38634422 -0.19326812 0.2992068 -0.032848805 -0.0908138 -0.23715326 -0.055538826 -0.023754291 -0.06699113 -0.05914468 -0.03918162 0.05783033 -0.025886511 0.044744708 -0.22979762 -0.11436609 -0.37824574 0.050053272 0.13697651 -0.24329674 -0.102033325 -0.015572912 -0.027852872 0.14546977 -0.04766978 -0.11549787 -0.22662921 -0.2966897 0.028112771 -0.037131023 0.15323667 0.042923834 0.40922982 -0.014549272 0.36172098 0.030393958 0.18567333 -0.0032953322 0.018625356 -0.42580494 -0.17546695 0.12670521 -0.09642873 0.12600824 0.16538718 -0.09564824 -0.3928931 -0.18977013 0.34644768 0.0014729853 -0.17859831 -0.53797674 0.35034305 -0.7336873 -0.21488456 0.2993121 -0.113713905 0.31478837 0.13315435 0.09123591 0.30173796 0.48152667 -0.051967327 -0.0043515 0.10527463 0.08074449 -0.054280955 0.07996523 -0.3204668 -0.00057383993 0.07236592 -0.022816923 0.02994383 0.071106926 -0.12403865 -0.2153978 -0.28412178 0.2521415 0.10178202 -0.40372282 -0.26136085 0.2733497 0.35421312 -0.19548465 0.39381796 -0.0022287413 0.45667624 0.05779112 -0.23635384 -0.363672 0.04079754 -0.07202274 -0.08584091 0.24934836 -0.12315102
mobile.a.02 -0.10142299 -0.015350325 -0.10176564 0.14348109 -0.10200647 0.072130755 0.07159442 0.055218983 -0.36451173 0.023533836 0.03219707 -0.08648284 -0.095781036 -0.039578937 0.019705303 -0.49677768 -0.3164188 -0.020534998 0.1992534 -0.1469367 -0.20309183 -0.07101004 0.12868302 -0.1327384 -0.0043052845 -0.062463786 0.24744609 -0.16840172 0.35006645 0.08211094 -0.0041627395 -0.4492361 0.55603904 0.019526066 0.023389507 0.18727067 0.37869692 0.1961649 -0.03377271 -0.36608514 0.0388665 -0.45741332 -0.29731646 -0.044013098 0.29530987 -0.15390514 0.036044557 0.13004449 -0.5145962 0.12815644 0.3177172 0.38051245 0.009553042 0.07802563 0.02160698 -0.005562577 -0.3697985 -0.023416515 0.068448916 0.051058188 0.16254197 -0.33706602 -0.17552589 -0.072834104 -0.20926033 0.05006383 -0.005751322 -0.06487355 -0.05036428 0.03499341 0.07609797 0.1423745 0.044473357 -0.008725812 0.009345716 0.03679583 -0.2107681 -0.12219921 0.09321249 0.36399323 -0.188197 0.03878704 -0.20677784 -0.026525754 0.35820043 0.06497052 -0.04906901 -0.1482852 0.04817333 0.0071555874 0.1585421 0.112454705 -0.09472528 -0.1031169 0.86032265 0.050221577 -0.25113484 -0.3801335 -0.05632376 0.4077051 -0.050029665 -0.48213255 0.52314115 0.080526315 -0.028955545 -0.029590644 -0.14717819 0.42720088 -0.03143736 0.55529684 -0.64655536 -0.063364685 0.04997461 0.13017277 0.0019219768 -0.27530396 0.3720185 -0.040107355 0.1945972 0.307285 0.0117948735 0.045809872 0.24296659 -0.32242867 -0.22898827 -0.0290357 0.050312474 0.040959034 -0.22992316 -0.08478845 -0.7737621 -0.14831036 0.017704444 0.03932332 0.34491 -0.35277507 -0.027681876 0.23993915 -0.017043354 0.10209317 -0.018281955 0.053150903 0.3985177 -0.11415345 -0.027580725 -0.024767926 0.26384756 -0.024207745 -0.03689151 0.033044856 -0.037976258 -0.020949477 -0.113706194 0.056302045 -0.17972241 0.009722465 -0.08159059 0.058792397 0.0041987654 -0.26908228 -0.18474922 0.0705736 -0.17685255 -0.4428204 -0.060571983 -0.006238401 0.5747604 -0.048629113 -0.16537136 -0.13332176 0.116083205 0.14548717 0.08463449 0.24547094 0.057720635 0.061325595 -0.20111954 -0.020440571 -0.17991981 0.028114315 0.079468414 -0.26727054 0.33422717 -0.17676672 0.4073835 0.316245 -0.31671256 0.24812129 0.037262894 -0.21511525 -0.0656695 0.04147328 0.23145463 0.100149654 0.0569316 0.24148947 0.029974738 -0.08416013 0.45257333 0.15164086 -0.0962992 -0.07807405 -0.20381142 -0.045515805 -0.026096167 -0.08015974 -0.0147594465 0.28553885 -0.046263136 -0.013046003 -0.29343417 -0.49258348 0.28173673 -0.020158885 0.11067378 -0.0007551432 -0.09567125 -0.06269295 0.0048712664 -0.104346655 0.035635803 0.1559039 0.052338153 0.13440323 -0.23585898 -0.10674553 -0.024528347 -0.27746233 -0.0041518672 0.065707125 -0.20172043 -0.031913634 0.17006862 0.007108012 0.27726796 -0.2220512 0.054138016 0.27827987 0.118121944 0.24101572 -0.01347868 0.0005355052 -0.07200418 0.07618566 -0.13344152 -0.04486481 0.18705153 0.023194613 -0.19917895 -0.07269973 0.004239225 -0.0992508 0.06976541 -0.36584142 -0.091156356 0.20320353 -0.14781485 0.007597238 -0.2682931 -0.13784824 0.053673647 -0.20654453 0.25564432 0.9756019 0.032777064 -0.55475694 0.2123161 0.02619233 0.05334363 0.24851842 0.05029528 0.08673294 -0.018818505 0.059434067 0.3387619 0.18966076 0.36005184 -0.004809326 0.23770404 0.085024804 0.117916495 -0.21015504 0.1950419 0.06961964 0.25700882 -0.56000054 0.16088769 0.21536145 -0.05491533 0.15317601 0.061345983 0.35761884 0.09753432 0.020025387 -0.29224268 0.22161908 0.0004801876 -0.03940971 0.2445768 -0.03070728
ethical.a.02 0.049219895 -0.17864077 -0.012839322 -0.16042729 0.06800608 -0.00036240398 -0.02035989 0.08866078 0.116488874 -0.03462897 -0.013159832 0.1099029 -0.036227442 0.0811518 -0.025779964 -0.32141927 -0.20996225 0.21284236 0.18362433 -0.022919694 0.054490212 -0.017600743 -0.050764665 0.08031796 -0.18017514 0.109275304 0.2562542 -0.0008685651 -0.0118598575 0.019003592 0.12366064 0.059048146 -0.2591147 0.059491362 0.20069207 0.44784448 -0.031988606 -0.10507131 -0.03396993 0.20638448 0.0538217 -0.35970247 0.017325165 -0.045804165 0.08823305 -0.36273262 0.08482528 -0.07839161 -0.55651563 -0.0771211 0.1080477 -0.013429783 -0.046188567 0.14387348 0.39629334 0.062739596 0.016077219 0.025168063 0.014524859 -0.021430856 -0.01418452 0.054548223 -0.24158752 -0.02846617 -0.07764042 -0.17082086 0.42563742 0.026120823 0.12781914 -0.074936144 -0.010401678 -0.26076433 0.03812191 -0.07623901 -0.07155505 0.020221325 -0.11934577 0.00378242 0.28738415 0.2983318 -0.34100723 -0.010392796 -0.07101116 0.007710934 0.082254596 -0.023329774 -0.02906356 -0.007155243 0.01395736 0.07748924 0.2037271 0.15547381 -0.44929054 0.030380225 -0.0042211246 -0.07840278 -0.09151791 0.04440952 0.0035651762 0.012702115 0.12278476 -0.20909359 0.17709547 -0.042056933 0.0111297 -0.045420643 -0.29783124 0.42278486 -0.16609614 0.0051141623 -0.5446016 0.078974165 -0.02526203 -0.03338402 0.032580722 0.22272205 0.3380012 0.02698602 -0.046187695 -0.016845362 0.05065611 -0.023214001 -0.40022 0.022875795 0.06702942 -0.14381272 0.031297896 -0.03397067 -0.24187498 -0.058191765 -0.42191026 0.109868646 -0.03633539 0.044083495 0.030218434 -0.09064944 -0.00050735974 0.09233774 -0.037164584 -0.42554346 0.002886619 -0.012346842 0.044851337 -0.33064494 0.20937103 -0.070586376 -0.16730556 0.22321025 -0.26446256 0.013280863 -0.21789628 0.107006796 -0.007608083 0.14501834 -0.23556702 -0.04910213 -0.052393015 -0.03787604 -0.17582259 0.016503239 -0.050275307 -0.10447111 -0.07866807 -0.20210263 0.07188665 -0.33467698 0.029708356 0.106979474 -0.004598761 -0.22748755 -0.123501725 -0.485459 0.047042083 0.35517615 -0.029960267 0.10573079 -0.061144877 -0.68241256 -0.008918053 -0.0035493965 0.08297381 0.022772934 0.119637564 -0.3041298 0.42860025 -0.16616909 0.3570787 0.03963035 -0.036235187 -0.2013537 -0.11396434 0.14867634 0.27438584 -0.03881379 0.15023664 0.33177105 -0.020077668 0.009925196 0.6294753 0.33640972 0.096380256 -0.018823609 0.29665312 0.08075097 0.024694355 -0.19784743 0.058918696 0.15927789 -0.17343394 -0.17785408 -0.20844471 -0.021158978 -0.07868229 -0.040872786 0.023172151 -0.04248072 -0.15481848 -0.1905469 -0.031960137 -0.15835279 0.35193974 0.03221423 0.0082979305 0.10303475 0.11251808 0.08562838 -0.051877562 -0.42433944 0.18636997 -0.29394302 0.007898002 -0.028422663 0.105839185 -0.008216699 0.06198155 -0.15558638 -0.032343905 0.2265056 0.187324 0.029396892 0.0047754548 0.18608272 -0.045801 0.012152393 -0.015085501 0.04542194 -0.014362032 0.12894954 -0.1063339 -0.13584363 -0.010597842 -0.24811764 -0.088613205 -0.10948361 0.10024445 -0.22378641 -0.10543555 -0.22854815 -0.32283297 -0.0019485366 0.06038236 0.12635155 -0.040464457 0.017116517 -0.044825353 0.26564956 0.39424545 -0.014384052 -0.063723624 0.02109515 -0.019210463 -0.014623326 0.09259925 0.08186045 -0.102561384 -0.13146664 0.014406202 -0.030049292 -0.02335464 -0.07444912 0.41401726 -0.21751891 0.28123733 -0.023140147 -0.20371008 -0.34561276 0.2570952 0.08220313 0.17288275 0.23843701 0.020198377 0.041902024 0.004499942 -0.067005254 -0.20815137 0.011428993 0.21840923 -0.04935083 0.2088228 -0.0004135971
bureaucratic.a.01 -0.10674596 0.023368528 -0.05992155 0.21578638 0.09221174 -0.1247103 0.120284915 0.051262915 0.023453005 0.0032862497 -0.013541654 0.039535623 0.008544835 0.0177003 -0.09082912 -0.15228862 -0.4662139 0.14884369 0.021337671 0.07324515 0.13675195 0.0041208477 -0.09062437 -0.039393716 -0.16608267 -0.01212261 0.16379789 0.04889152 0.2150803 -0.3413764 -0.17661989 0.0021924702 0.21364473 -0.0817173 -0.0014369426 0.15016195 0.19414064 -0.11025771 0.041381147 -0.05081608 -0.017097997 -0.44730324 -0.0401084 0.06833709 -0.047209755 -0.38042107 -0.014560726 0.116413124 -0.40054676 -0.12745732 -0.029494248 0.033249505 0.027880015 -0.05422972 -0.008453602 0.027290778 0.1395467 0.050956357 -0.08378891 -0.060127802 0.06693701 0.3642511 -0.15441994 0.0946362 -0.074533336 -0.014777412 -0.1700946 -0.1073708 0.07264827 0.2538696 -0.2568319 -0.19880246 0.019377457 -0.18321604 -0.047336753 0.11764616 -0.15360196 -0.25654316 -0.038523745 0.39259946 -0.31792474 0.024195742 -0.043243095 0.12620881 0.16381186 -0.009681441 0.016022833 -0.07911734 0.042763807 0.3545432 0.2949966 0.29796046 -0.021762187 -0.19174197 0.00017629849 0.082702 0.17869073 -0.5309451 0.072831 0.028174637 0.06558782 -0.28245795 -0.063384734 -0.40720275 -0.08377284 -0.25658122 -0.077571206 0.49257785 -0.24129252 -0.0012217051 -0.2938296 -0.027927333 -0.043173622 -0.10253037 -0.056057107 0.18497548 0.18573987 0.047853235 -0.032986585 0.0027155953 -0.068460055 0.0073246364 -0.34055528 -0.084615745 0.0010292848 -0.17517583 0.16393049 0.013959066 -0.5051357 -0.097362325 -0.22203702 -0.11982154 0.041951865 -0.1263715 -0.012468076 -0.26521307 -0.13878575 0.09938851 -0.17122641 -0.35896644 0.047318645 0.058260582 -0.061035402 -0.09260392 0.025229339 -0.18797964 -0.042743612 0.107496075 0.16163039 0.27663198 -0.039480746 -0.081199706 0.079590105 0.058824122 -0.1509265 -0.3953511 0.06611886 0.08943845 0.45845982 -0.20903854 0.2963857 0.08642843 -0.28550142 -0.31557778 -0.02411475 -0.58785874 -0.03599569 0.020409264 0.0036735462 -0.51266307 0.16257112 -0.0016628813 0.01722563 0.35314524 0.01424622 -0.06269557 0.011698131 0.10492761 -0.029995972 -0.40772307 0.03997467 0.0028064458 0.33871126 -0.353811 0.34916857 -0.14276804 0.21028422 0.21923593 -0.05789087 -0.36377385 -0.03567016 0.026816174 0.2470965 0.12705828 -0.006711713 0.3941362 0.03714427 -0.14775375 0.40181094 -0.17878452 0.023224154 0.0029008964 -0.42649648 0.0018831769 0.033438463 0.27206117 -0.01607922 0.333118 0.06433387 -0.027101155 -0.3932667 0.034821905 0.032373734 0.034808222 -0.020101594 -0.0073475773 -0.026151866 -0.1293364 0.04737431 -0.09425534 0.06803173 -0.04957981 0.0023083617 0.26909542 -0.15472801 0.11539754 0.0047939983 -0.59596163 0.030291226 0.07523253 -0.14634746 -0.0014154513 0.007344099 -0.024502221 0.02164506 -0.06400364 0.16172121 0.23878631 -0.0002448455 0.04079297 0.03102597 -0.058738865 -0.73707104 0.14896218 -0.021942137 0.25817677 0.14893651 -0.01223765 -0.1366569 -0.015227704 0.20554131 -0.30338213 0.010851624 0.14416207 0.02103177 -0.05798812 -0.0991054 -0.25276735 -0.30234042 0.24874303 0.09267713 0.13122475 0.0409484 0.111823246 0.033110347 0.3125422 0.43466964 0.27790466 0.044440597 -0.12037534 -0.040292636 0.041300293 0.15116724 0.048012637 -0.094829194 -0.034806445 -0.2081189 -0.049456637 -0.015552688 0.04129022 -0.034851156 -0.48658267 -0.045890886 -0.10072559 0.072116144 -0.44725284 0.15888603 -0.09733367 0.025508758 0.46117395 0.08984795 -0.15592313 -0.1762589 0.012874417 -0.35232538 -0.13030252 0.18589973 -0.034066416 0.46749654 -0.029860169
grotesque.s.01 -0.21950765 -0.0773186 0.015577249 -0.19447419 -0.09396967 -0.32794413 0.48719853 0.025930254 -0.12768483 0.31384683 -0.007833046 0.1845793 0.039327323 0.12140894 -0.030390196 -0.16026033 -0.46437222 0.18594757 0.02181527 0.05012983 0.1940642 0.15339728 -0.15035251 0.13194454 -0.16801679 0.013203092 0.2532571 0.003997138 0.08008955 -0.072126746 0.3502608 -0.47332305 -0.10044483 -0.1129534 -0.06616433 0.14290455 -0.19840498 -0.03691151 0.31085357 -0.01969598 0.00741554 -0.27929446 -0.27974397 0.055141732 -0.086965576 -0.17019972 -0.011801929 0.077343136 -0.61233073 -0.09659079 0.042854086 0.056703668 8.51124e-05 -0.1340548 0.055189002 -0.09583898 -0.20273723 0.013522826 0.020915216 0.12654093 -0.03857517 -3.72125e-05 -0.2707157 -0.012786747 -0.30403352 -0.20590648 0.36283985 -0.026081398 0.60690176 -0.17811745 -0.1658147 -0.10735677 0.17948073 -0.0648648 0.031551853 0.102072515 -0.15538558 -0.08293977 -0.0584404 0.34954333 -0.47917974 0.043757156 -0.2696156 -0.07144545 0.23620804 -0.0019760998 -0.026470149 -0.11341078 -0.10494008 0.015682481 0.11443549 0.09324356 -0.06479395 -0.11440412 0.032144357 0.18853173 0.021996915 -0.13222413 -0.03637989 -0.10043642 0.060671706 -0.5259129 0.0037712606 0.034361877 -0.36591694 -0.1189248 -0.027202649 0.3782395 0.03868008 0.008625376 -0.48239547 0.21920845 -0.10154918 0.04526431 -0.024245646 0.10843851 0.16715477 0.050314575 0.015523196 -0.009480798 -0.26261455 -0.0053646364 -0.0052012037 -0.020106066 0.27018374 -0.566349 0.6074885 -0.0621112 -0.23341005 0.08590854 -0.5072786 -0.10436419 -0.023308212 0.17916739 -0.03932006 -0.56149864 -0.006187543 0.109960414 -0.15259701 0.06855116 0.054525796 0.032514762 0.004714822 -0.109593876 0.5648177 0.02592293 -0.19439872 -9.496384e-05 -0.066776186 0.047311895 -0.13636227 0.0009278342 -0.22653879 0.04975822 -0.24921073 0.22762214 -0.04817044 0.038773734 0.15664396 0.25611505 0.12632273 0.05546621 -0.06276075 -0.20163888 -0.04658055 0.024516037 -0.046617012 -0.4188212 0.022097152 -0.103606 0.19852185 0.095705144 -0.025297439 0.39966354 -0.14628063 0.2532059 -0.055837173 -0.030077612 0.005863611 -0.043163538 0.29889646 0.0414711 0.0046360297 -0.24190523 0.53460896 -0.0072349748 -0.045030687 0.048499692 0.037504606 -0.5563265 -0.09298766 -0.029001137 0.28241485 0.012501385 0.0008529681 0.4058759 0.049039356 -0.23339428 0.5235675 -0.22180015 0.595077 0.16149731 0.104025304 0.0017415826 -0.03144673 0.28533456 -0.11944868 0.07737744 0.29745275 -0.13851708 -0.0668385 -0.015523089 -0.09419874 -0.037247077 -0.05249414 -0.03637963 0.3667829 0.013669009 -0.060236666 -0.11573142 0.12336514 0.3144298 -0.12995428 0.26719 -0.112263076 0.06937608 -0.58856666 0.072680406 -0.001926155 0.050123647 0.0020934597 0.10235983 -0.0022601672 0.70377296 -0.122726895 -0.067070544 -0.053540595 0.40357867 0.23640658 -0.04376866 0.022534568 0.045703974 0.026641047 -0.06911332 -0.25428244 -0.12994216 0.23519638 -0.12646781 0.02943787 -0.47097343 0.22600953 -0.108523615 -0.0051112743 -0.056276724 0.16806671 -0.12344877 -0.045910668 0.05266262 -0.4676665 -0.14603963 -0.024145525 0.11096203 0.07993083 0.17989917 0.060820658 -0.13000786 0.28210446 -0.13806054 -0.03149431 0.05987253 0.104828894 0.13892913 0.047370266 -0.002881166 -0.43525437 -0.029277036 0.06587863 -0.28264737 -0.40491825 0.12705964 0.112972766 -0.23590809 -0.07441416 0.6354553 0.02167756 -0.45322815 0.40288645 0.16281617 0.16131513 0.35340822 0.037720386 0.097531505 0.5008667 0.03327671 -0.22683574 0.12879446 -0.065562226 -0.048358228 0.5702796 0.062864095
exotic.s.02 -0.25337896 0.3618372 0.0060944776 0.12283725 0.0028156121 -0.046671815 0.17543158 0.00880753 -0.15255758 0.40112066 -0.32309484 0.11114845 0.2279328 0.59343827 0.093319856 -0.18514441 -0.1842773 0.15301904 0.25244737 0.20374522 -0.21476454 0.06546487 -0.0997133 0.010228475 -0.2074689 -0.009020882 0.31478456 0.2611454 0.24813563 -0.22418544 -0.09912293 -0.08174172 -0.061703246 -0.010932537 -0.04327221 0.2631108 0.17550217 -0.113040656 -0.14517184 -0.1967481 -0.045381434 -0.41400477 -0.2784938 0.23642984 -0.34001806 -0.032732338 -0.1095134 0.3622455 -0.51581323 -0.032832943 -0.388345 0.3500471 0.24570884 -0.15850331 -0.300941 -0.045487367 -0.102221645 0.065285325 0.23948158 -0.18555376 0.26735967 -0.10470333 -0.54322517 -0.062912755 -0.1811921 0.26304737 -0.16535412 -0.06503721 -0.1573157 -0.13838027 -0.09183928 0.13400207 0.21638736 0.09274563 0.037961423 0.2754775 -0.51954854 -0.17996556 -0.14759901 0.437063 -0.44060883 -0.16898875 -0.45199975 0.16059084 -0.1065632 -0.20759317 -0.009770885 -0.18181734 0.09522594 0.05797243 0.19013026 -0.11840903 -0.08572903 -0.27667764 0.1358333 -0.2637023 -0.278112 -0.10800779 -0.33479473 0.17431502 0.1796028 -0.4102249 0.109713234 -0.6219787 0.10460587 -0.05001995 -0.006358264 0.3323724 -0.22696768 0.077909715 -0.36666268 -0.03448584 -0.18800238 0.11014395 0.10577912 0.11365202 0.0074240738 0.17756455 -0.0909076 0.024105145 -0.11760251 0.005953597 -0.3382166 0.36344972 -0.08081878 -0.6803235 -0.22085036 0.05399361 -0.40960845 0.20070097 -0.5853261 -0.018926375 -0.10874308 0.14541282 -0.093492284 -0.28943294 0.13678537 0.036790386 0.26542622 -0.10931174 -0.008817671 -0.05775498 -0.40120423 -0.09227323 -0.06995202 0.11275463 0.16742285 0.14129236 -0.40022522 0.30752334 0.2521338 0.19335164 0.09044981 0.49592993 -0.01439208 -0.08627327 -0.16886702 -0.0031337296 0.18751368 0.12698536 0.32056203 0.07461606 -0.20835914 -0.32099742 0.024565205 -0.08205272 -0.14417544 0.07538117 0.0515074 -0.50642127 0.036392543 -0.0143841645 0.17708568 0.10350029 -0.040143177 -0.027349928 0.16375203 -0.009659616 0.22527662 0.27961433 0.5019616 -0.027852127 -0.06980565 -0.2006122 0.68717885 0.15103778 -0.07760804 0.4201811 -0.17777453 -0.4340108 -0.028387256 0.13386053 0.28773612 0.24174944 -0.11067531 0.4973529 0.098550975 0.031114528 0.5644775 -0.007894895 0.06622608 0.03230757 0.18373506 0.463997 0.13482496 0.26116475 -0.10700269 -0.013356429 0.29344106 -0.08584822 -0.53355217 0.06849386 -0.26180667 0.2779009 -0.4220446 0.23155211 0.14669442 -0.0025649474 -0.056321863 -0.046755772 0.12866408 -0.08055028 -0.017642725 0.07299929 -0.1443222 0.11610985 0.14423467 0.31923062 -0.18919958 0.03892932 0.3395923 0.38361216 -0.029987821 0.15993394 -0.10220291 -0.11333984 -0.26998395 0.1506177 -0.025658391 0.039995834 -0.060298618 -0.24596934 0.142778 0.1138599 -0.014475429 -0.03281735 0.1669687 -0.05644541 0.23738304 -0.041900247 -0.028218584 -0.325526 0.13035114 0.3390856 0.0962668 -0.1817586 -0.21183665 -0.1968626 -0.5836724 -0.21175286 -0.21691719 0.06712381 0.10020204 -0.09668381 0.12753314 0.24111618 0.59886736 -0.025957009 0.126926 0.21593875 -0.21410836 0.21950008 0.018696873 0.16069737 0.133626 0.04353046 0.21044981 -0.08981254 0.23828647 -0.11826803 0.28110412 -0.06476273 -0.20204231 0.056381777 0.3112713 -0.5893298 0.30311167 -0.2080435 -0.046122193 0.3968646 -0.24111108 -0.14379318 0.17501238 0.035694305 -0.52217335 0.06015568 -0.2446725 -0.13866481 0.24803059 -0.19879034
high.a.01 0.07327948 -0.01991605 -0.050076142 -0.04791071 -0.059439063 -0.21901685 0.23893932 -0.029781146 -0.19556065 0.0860486 -0.018448446 0.18933868 0.17278095 0.51192796 -0.02951443 -0.23899607 -0.38997304 0.05638414 0.010799048 0.026181448 0.026712595 0.2671449 -0.0051084342 0.13219085 -0.18204519 -0.08773979 0.44743186 0.071625404 0.23979083 0.06390819 -0.25826877 -0.45472974 0.15304309 -0.020342447 -0.33708966 0.2009138 0.41701224 -0.030191667 -0.010107607 0.034958504 0.17742658 -0.34018907 -0.22143027 0.15312104 0.10072759 -0.23596378 -0.029229626 -0.18316023 -0.36090133 0.07109568 0.18930395 -0.1554866 0.11309445 -0.11031279 -0.047496736 0.27660587 0.28313667 -0.19339924 0.1265191 -0.02448457 0.25404075 -0.035348907 -0.11468558 0.61376625 -0.0058980393 0.06376596 -0.1161295 0.030388193 -0.17882167 0.27575168 0.022902718 -0.36902997 -0.073824614 0.13399789 -0.03696814 0.26784447 -0.34498537 -0.741137 0.13923761 0.44283012 -0.64499146 -0.0066316742 -0.1592753 -0.07804347 -0.08633758 -0.08079806 0.11563542 0.022509802 0.021122532 -0.012520107 0.3394912 0.14805396 -0.2698742 -0.34052366 0.10728479 0.13553332 0.08127266 0.15447703 0.050835125 -0.04455507 -0.045198984 -0.49452597 -0.060157195 0.026406411 -0.13155963 -0.28853253 0.023835948 0.31721762 -0.2483857 0.013752965 -0.35245693 0.04005514 -0.2977258 -0.3392608 0.06988232 0.13775639 0.5254449 -0.08581389 -0.027371043 0.008919967 -0.084684186 0.010507473 -0.06849592 -0.07354047 0.088531405 -0.2869585 0.11745854 -0.012250806 -0.38182837 0.026276823 -0.4792775 -0.083508596 -0.019495716 -0.19081256 0.090392984 -0.28599253 -0.15715796 0.05624074 -0.014483183 0.046436563 0.041899834 -0.068819754 0.50892687 -0.11638531 0.32135123 -0.02661955 0.19115403 0.004065288 0.03463874 0.22107707 0.034769762 -0.037840214 0.02279212 0.32880926 -0.11718434 -0.042667925 -0.020044744 0.107148536 0.08608182 0.10508524 0.09448195 0.099076904 -0.030244406 -0.086789 0.04510453 -0.014553817 -0.08808594 0.081664085 0.15533821 -0.35697868 -0.054770656 0.0182705 -0.009660392 0.057712737 0.08303512 0.05052239 -0.13195431 -0.04237471 0.03926525 0.073775254 0.051114164 0.0035389978 -0.4052573 -0.35615265 0.6620259 0.06858784 -0.035985205 0.5516791 0.16713008 -0.28485838 -0.35514894 -0.046236057 0.1662747 -0.037425674 0.049428493 0.33688176 0.12097483 0.12940124 0.31568104 -0.39283675 -0.025556913 -0.11911084 0.02518326 0.056669425 -0.1503027 0.09875994 0.04994727 0.22157194 -0.027123524 -0.10160181 -0.41006246 -0.06358018 -0.4250494 0.0045725424 -0.07682223 -0.027995365 -0.0060729226 0.020714227 -0.267673 -0.16436799 0.013599034 -0.21623275 0.05675261 0.019534416 0.260907 0.5160498 -0.13986115 -0.32085118 -0.39875883 0.1734186 -0.07934491 -0.16113244 0.19594556 0.025992163 0.0037786125 0.008061912 0.032362103 0.27981237 0.0009349909 0.052814662 -0.046517145 0.2149599 0.034137994 0.3742057 -0.2747018 -0.014497143 -0.10320628 0.13556214 0.030976828 -0.10821455 0.022088148 -0.1966049 0.012636908 -0.07509363 -0.03851237 -0.099586494 -0.114811234 -0.07849495 -0.38358608 -0.16742711 -0.048313655 0.43337402 -0.059277207 0.20403197 0.13118054 -0.046485692 0.29183057 -0.022245705 -0.25362253 -0.029504156 0.09560256 0.26331097 0.033978753 0.011074996 -0.23924245 0.37249607 -0.03717721 -0.12851836 0.07252681 -0.10858965 -0.038865518 -0.09415026 0.32652774 -0.03502234 -0.26211208 -0.21405679 0.3877921 0.10517243 0.17546025 0.17948766 0.0013734807 0.021421054 -0.009700919 0.30367246 -0.30419675 -0.3066947 -0.012600554 -0.16847019 0.24705599 0.012083816
social.a.02 0.0070412853 -0.054095395 -0.038045358 0.084383786 0.017990196 -0.041901022 0.094343826 0.38358206 -0.03162614 0.013220142 0.08499173 0.030109372 0.022165595 0.00042982856 -0.05544731 -0.09779803 -0.46940586 -0.060093082 0.14534913 -0.06588051 -0.026049754 0.10254021 0.044352934 0.04537032 -0.0062403562 -0.016547455 0.24269761 -0.002465808 -0.022465205 -0.047037374 0.0457493 0.07507397 0.11915428 0.0061336863 0.5164155 0.18255207 0.22177142 -0.034337196 -0.030178271 -0.093292266 0.045623235 -0.1912039 -0.12606314 0.010186978 -0.20611438 -0.14216831 -0.05183652 -0.007373084 -0.3066248 -0.0145325875 0.07073537 0.022484126 -0.11353217 0.05164383 -0.08049032 -0.0010125113 0.61180574 0.09871874 -0.029263036 -0.08428047 0.009565527 -0.08234657 -0.10072563 0.4496693 0.039227277 -0.16258349 -0.032754514 0.025699591 0.012718883 0.008085413 -0.18609835 0.17515448 -0.032665014 0.027151855 0.0013780602 0.03036055 -0.05880662 0.017969206 0.05909434 0.06688867 -0.21278155 0.071082726 -0.09569465 0.2548998 -0.068147495 0.027436472 0.00942777 0.07990887 -0.64379185 -0.045844167 0.34744594 -0.02073025 0.055403117 -0.09314422 0.064472355 -0.0105513735 0.05114277 -0.12839842 -0.02529429 0.38080677 -0.07366143 -0.42063484 -0.0072262343 -0.09344505 -0.13497964 -0.037070625 -0.041787118 0.34526908 0.0053510917 0.009619829 -0.6096636 -0.039164674 0.02065398 -0.035672788 -0.09908104 -0.6841305 0.45230833 -0.02773812 0.029321413 -0.030755624 0.07200087 -0.007284583 0.11710593 0.20261773 -0.07024604 0.03833078 0.049434762 0.08798492 -0.029784312 -0.0062812255 -0.53302634 0.009922432 -0.047935247 -0.07089581 -0.16040422 -0.10508493 0.049937434 -0.02471168 -0.033046376 -0.075571924 0.026738998 0.16279297 -0.17809762 0.007347888 0.055367816 0.30776724 0.003467297 0.03173995 0.060855087 0.1625752 0.103430726 -0.081981085 0.0117613375 0.064289846 -0.018925412 0.0074848435 -0.0023772179 -0.03897309 0.026355583 -0.013848858 0.03706986 0.04010162 -0.11089811 -0.10021294 0.012069132 -0.0057735574 0.04697577 0.011456302 0.013005702 -0.28469405 0.44441304 -0.074888125 -0.04711555 0.040342752 0.110823676 -0.02561986 -0.10760831 -0.009465081 0.017834708 -0.11435209 -0.014321823 -0.05819745 -0.029564692 -0.34924868 0.42559788 -0.05477587 -0.031678274 0.044197004 0.05457433 -0.29734683 -0.14968392 -0.009546696 0.44188893 0.0051088333 -0.078691475 0.36711305 0.004104238 0.06643766 0.42621672 0.04982175 0.060251065 0.007719637 -0.012860733 -0.006919291 0.015583413 0.01045877 -0.027602268 0.1459638 0.7223018 -0.004512677 -0.23385434 -0.048272975 -0.16953349 -0.0045873444 0.05711457 -0.061014928 0.064360894 -0.0854004 -0.04841238 -0.05232962 -0.021249257 0.08397245 0.27324796 0.025086584 0.031113546 -0.24602853 0.016239094 0.0029561052 -0.093751825 -0.005581452 -0.13632259 -0.08546856 -0.004552344 0.0055209077 0.04096368 -0.04132017 -0.0077264206 0.40262654 -0.2045898 -0.031716853 0.061030317 0.042245146 -0.11248923 0.04525432 -0.059603993 -0.05883311 0.01591335 -0.027716046 -0.080278896 -0.18809795 0.006034321 -0.09801551 -0.05456505 0.033187762 -0.17376696 -0.027693499 -0.101567395 -0.08391381 -0.4501986 -0.020310089 0.030562496 0.2790433 0.23000884 0.053333294 -0.0113889715 -0.018819347 0.37006694 -0.04228109 0.025695683 -0.1768445 -0.018499844 -0.013212496 -0.015993562 0.0079316525 0.018016243 0.027363364 0.02246184 -0.16573066 -0.020390173 -0.16818266 0.2916223 -0.1625077 -0.14948496 -0.031077554 0.07075507 -0.14700502 0.15274149 -0.14746797 0.3507761 0.19716239 0.3712908 0.017573372 0.007558993 -0.028549362 -0.23475458 -0.57146066 -0.28892758 -0.032159727 0.10351031 0.028151948
easy.a.01 0.05516346 0.12554574 -0.23275556 0.26832888 0.18643688 0.0814139 0.07072795 -0.55253196 -0.3093318 -0.034805402 0.1710144 0.33780783 0.10620253 0.10422359 0.40510917 -0.783384 -0.2558799 0.01913598 -0.053709924 0.12052558 -0.22411333 0.07579514 0.0004364485 -0.21236646 0.086968526 0.4570251 0.2815847 -0.07857548 -0.020760827 -0.33744192 0.09933475 0.43349317 0.013236102 -0.7043257 -0.030051405 0.28895608 -0.029677965 -0.0580191 -0.024481533 0.25495633 -0.006676572 -0.30598518 -0.4061854 0.1454472 -0.0893601 -0.35873568 0.08688923 -0.232694 -0.6254365 0.024770902 -0.023330064 -0.06808438 0.026693245 0.18210027 -0.28862667 -0.17031911 0.4917387 -0.06403845 -0.42331457 0.07801948 0.020467158 0.22696154 0.0027002918 0.06767572 -0.017548809 -0.10286929 -0.08518419 -0.018875513 -0.17773491 -0.16943423 -0.14543046 -0.08300557 -0.117222436 0.38160875 0.1956968 0.17502329 0.029448623 -0.13263184 -0.004688232 0.45823696 -0.3758557 -0.06278833 -0.09577246 0.051959574 -0.0904282 -0.009807273 -0.10563888 0.09235868 0.3497545 -0.030812945 0.25118056 -0.19491193 0.28486428 -0.30434602 -0.028694602 0.37956342 -0.17567831 -0.038860295 -0.04832511 0.0034515616 0.1142652 -0.1469956 0.04502183 -0.23066534 -0.005835269 -0.057115614 -0.103905134 0.28701454 0.18509392 -0.10253005 -0.37158036 -0.065960765 -0.013250657 0.012242698 -0.08012196 -0.062553875 -0.017972441 0.0113090025 0.36876145 0.11401968 0.065244064 0.20343637 -0.44556874 -0.1645512 0.22419332 -0.34446213 0.21811889 0.09722908 -0.07292308 -0.0508257 -0.5205686 -0.14182246 -0.07528768 0.0009736984 0.22420558 -0.0050209127 0.14005318 0.04941341 0.16818064 -0.082242 -0.0757952 0.011159357 0.33304843 -0.079349756 0.24007092 0.04813008 0.34270287 0.1637429 -0.16930161 0.15471911 -0.007933843 -0.13735771 0.06791433 -0.19255239 -0.032801807 -0.36398524 0.0129788695 0.046813063 0.075694576 -0.25502226 -0.05894385 -0.16872312 -0.15991303 -0.08497635 0.08207732 -0.026901744 0.28561395 0.48155275 0.015140708 -0.43841606 0.05385524 -0.031486608 -0.14956135 -0.123217694 0.054467864 -0.14910233 0.2761008 0.034763906 -0.015268687 -0.08377275 0.11825731 0.11707948 -0.17252862 -0.58402807 0.73054373 -0.040210437 -0.15631558 0.16962822 -0.21949387 -0.55856216 -0.13789035 0.04675143 0.43650526 -0.29769796 -0.15978248 0.49009913 -0.2714965 -0.33645877 0.66295445 -0.27758545 0.03391855 0.51517814 0.02290355 0.25865442 -0.3879702 0.77234 0.027783131 0.18423103 0.49935305 0.010614992 0.050170425 0.0055696224 -0.07004596 0.11447274 0.0023259309 -0.124116994 -0.08685232 0.044026993 0.0641037 -0.06551841 0.26963356 -0.05341433 0.07185666 0.28224832 0.11603863 0.1353561 -0.011029616 -0.25393036 0.13769796 0.062179692 0.11274193 -0.20546627 -0.068250194 -0.18975095 0.10265901 0.11641018 -0.046850163 0.060734775 -0.028401585 -0.091359496 -0.0874749 0.050790314 0.09096234 -0.052284785 0.08464995 -0.109167404 -0.33663478 0.10380062 0.061960038 0.060254265 0.060310654 -0.36594436 -0.74385935 0.0010417829 0.048000548 -0.014313397 -0.03604821 0.10135844 -0.50378567 -0.5206772 -0.2666049 -0.29003212 0.1365609 0.17051642 0.044964563 0.06010951 0.46763697 0.4012343 0.54863966 0.05781835 0.005261372 -0.2618207 -0.18575317 0.15681536 -0.08426682 -0.060359377 -0.12649946 0.027868971 0.34144956 -0.19984585 0.24735487 -0.62112427 -0.12807187 -0.27120817 0.170717 -0.22311726 0.3465901 0.19486299 0.2091512 0.5177675 -0.18340325 0.18417212 -0.11265145 0.034682903 -0.45537642 0.16363461 0.55452615 0.020069428 0.11446944 0.10324435
poor.a.03 -0.095051035 0.4111734 -0.13776086 -0.026823772 -0.2768593 0.083718 0.40160602 0.08999111 -0.14531362 -0.028211053 -0.050934877 0.3660169 -0.055701885 0.35038853 0.16841817 -0.48778686 -0.55973953 0.08267735 0.07608711 -0.022615781 0.1183904 -0.14287367 -0.11287971 -0.04666465 -0.035483737 -0.0984469 0.22279206 0.09210278 0.07661391 -0.0861547 0.011500826 0.081441484 0.4914613 -0.081084095 0.006978283 0.1670567 0.047650676 0.007956507 -0.0132873105 -0.052035213 -0.017229622 -0.13859755 -0.26390654 0.12833576 -0.19043183 -0.22371478 0.05372821 -0.0862281 -0.15700085 -0.04659126 -0.17120999 0.40344897 0.052112635 0.16434446 -0.054807413 0.25401577 0.25194618 -0.23410484 0.1796117 0.034722675 -0.00087431143 -0.18023632 -0.6062392 0.0046451297 -0.0953471 -0.00012173696 -0.062635645 0.10286967 0.03315494 -0.12189106 -0.11619221 0.04322902 0.08531616 0.044451226 0.0057565644 0.088540986 -0.3832943 -0.080726 -0.0056574997 0.30285898 -0.30201718 -0.038716108 -0.33460796 -0.2365926 -0.056902826 -0.13990879 0.1311574 -0.2817368 -0.18968083 -0.14754686 0.14282502 0.04017825 0.046520695 -0.76464254 0.07044142 0.03799435 -0.31710857 -0.03333259 0.101374276 -0.012232466 0.102553494 -0.297985 0.011570254 0.0069518737 0.021467788 -0.1994556 0.09443384 0.3595352 -0.16096225 -0.1155428 -0.4037636 0.0163887 0.16243453 -0.003989287 -0.057152346 0.0010126329 0.8766713 -0.21123932 0.019122848 0.039295197 -0.060251616 0.03473572 -0.075843826 -0.039419714 0.0071326704 -0.07369973 0.1959871 0.04917094 -0.17411907 -0.13470379 -0.39479977 -0.15813838 -0.06609748 0.043222535 0.15065464 -0.28469363 -0.12336574 -0.021516565 -0.0014613341 -0.14802955 0.069465995 -0.0072895675 0.09277259 -0.21498528 0.45831347 -0.005070602 0.061305627 -0.0016037311 -0.010633431 0.17116784 -0.23668945 0.0035357224 0.0032124922 0.012645205 -0.2075067 0.016990624 -0.077301554 -0.13804054 -0.21482408 0.03870739 -0.04653592 -0.04038227 0.23998658 -0.16626641 -0.0049337763 -0.09983861 -0.050726146 0.4207828 0.0369924 -0.38652986 0.046810646 -0.04505665 0.0015520853 0.06217821 0.031699948 0.10797107 0.16817379 -0.047486186 0.23010588 0.22575973 0.090125315 -0.15466034 0.08755805 -0.37064064 0.53823155 0.114300065 -0.022744516 0.27699065 0.19180334 -0.3478474 -0.1555034 0.00044321537 0.25526562 -0.14382008 -0.1831254 0.49946803 0.17701825 0.050981816 0.61037 0.081528254 0.23995574 -0.02624734 0.20939006 0.0008440578 0.18280666 0.02430862 0.0620329 0.13217127 -0.0077977455 0.038816754 -0.32656568 -0.05605579 0.010491979 0.046808332 -0.17025293 -0.0071737794 0.33859032 0.11136135 0.0368316 -0.08394137 0.009925354 -0.04912868 0.013114327 0.26870814 -0.24464758 0.32477596 0.05751385 -0.035984304 0.1114933 0.03754064 0.22856767 0.32933939 -0.2499921 0.02603687 0.08868063 -0.18144354 0.0725143 0.39205372 0.0682581 -0.083794706 0.020406915 0.034121145 -0.24028634 0.2658246 0.02427378 0.036225636 -0.04651079 -0.05911247 -0.05250784 -0.016987693 0.04962615 -0.29739034 -0.2746745 -0.56162035 0.27310392 0.33281454 -0.1940444 0.115167975 -0.48650214 -0.047901675 0.13645639 0.36613163 -0.47367233 0.3013782 0.012863057 0.056977153 0.60689193 -0.22313818 0.2634349 -0.25258538 0.032448214 -0.12418828 -0.049593024 0.050522856 -0.27934903 0.052062403 0.21771152 0.04324265 -0.1511143 -0.035684004 0.05813822 -0.08784302 -0.3755881 0.06619888 -0.23281567 -0.57943 0.5065619 0.118872285 -0.14140014 0.2258952 0.18323068 0.03504737 -0.046065092 0.040073164 -0.3377641 -0.21603547 -0.10768526 0.015857408 0.40179476 -0.046773855
inactive.s.10 -0.30295426 0.33688813 0.076055355 0.4637252 0.030034 0.04691142 0.270827 -0.11499392 -0.19945504 -0.041307934 0.07441266 0.099634714 -0.093100674 -0.072187595 0.14502847 0.19115958 -0.7883935 -0.012798706 -0.05973994 -0.13414115 0.14341891 0.01248081 -0.20071733 0.0026452632 -0.19617228 -0.4178049 0.44345382 0.072737485 -0.082552195 -0.2079758 -0.40403953 -0.1455222 -0.166888 -0.008271123 0.4683492 0.16647553 -0.0042726453 -0.04545117 0.05906302 -0.019847365 -0.043840446 -0.459278 -0.15616386 0.006757216 0.19049294 -0.4864084 0.099494636 0.034766037 -0.3279199 -0.0850047 0.18653718 -0.020315453 -0.050138153 -0.15595625 0.07759256 0.004692872 -0.0074209766 0.07224403 0.03288364 0.11078659 0.3162449 0.11911727 -0.2714183 0.045648385 0.20115265 0.11928603 -0.049323343 0.0901726 -0.038173154 -0.015022181 0.09500547 -0.0026345355 -0.11340133 -0.22445783 0.22604503 0.37453696 -0.27350268 -0.075545184 0.021190863 0.4881368 -0.26472548 0.10427055 -0.12119327 -0.2800384 -0.02048214 -0.012509283 0.11845023 -0.14549944 -0.24492316 0.025302984 0.45143738 0.5454243 0.091655575 -0.59111756 0.005874407 0.11049165 -0.06512218 0.054803107 0.083454005 0.0215381 0.15822898 -0.47406986 -0.20198046 0.20505856 0.20780055 0.18812607 -0.00925185 0.37840027 -0.16788639 0.09347646 -0.30907628 -0.15232106 0.062354133 -0.012679344 -0.10716738 -0.07452704 0.42547458 0.026562655 0.30786368 -0.087527916 -0.27699298 -0.109821714 0.01721438 -0.1553016 0.3565578 -0.49867728 0.12464403 -0.013331728 -0.1941351 -0.060563024 -0.27266815 -0.177573 -0.14289226 -0.035083503 0.015314869 -0.4025234 -0.0690988 0.23716275 0.0059597455 -0.02249843 0.064449355 0.02137635 0.48453966 -0.35979605 -0.15298006 0.282416 -0.101020746 -0.051338505 0.050554134 0.02218203 0.11481801 0.04521501 -0.14162011 -0.056529414 -0.17555606 -0.056570634 0.28612512 0.14374085 -0.13005954 0.1304202 0.0095380405 -0.35892278 -0.3766462 -0.18350355 0.025409712 0.08068138 -0.20091997 0.084131956 0.26173714 -0.484082 0.07877489 0.050862793 0.071920834 0.1517296 -0.073698826 -0.13991882 0.33027625 -0.064034715 0.21286957 0.35125807 0.35136083 0.038746554 -0.13863285 -0.5497914 0.5824258 -0.031945806 -0.07054278 0.3645249 0.11324642 -0.35160396 -0.25664103 0.09306772 0.4188193 0.34031639 0.00088039326 0.46644878 -0.284947 0.018832108 0.56715786 -0.10020235 -0.04404964 0.0476623 -0.4961394 0.013644054 -0.102272294 0.43729123 -0.048327055 0.30790746 0.019162495 -0.10297694 -0.19540007 -0.31696442 -0.10837642 -0.062102284 0.14493272 0.052146167 -0.10565053 0.0470952 0.094119206 -0.3072935 -0.030936224 -0.12784821 0.34465927 0.4718832 0.12693131 0.017752672 -0.04026709 0.056674764 -0.1941085 0.18350275 -0.11041261 0.22747913 -0.23039417 -0.19256754 0.11784075 -0.056713693 -0.14474078 0.2237742 0.15903187 0.0765848 -0.12858894 0.16441225 0.011108622 0.04901163 -0.15185188 0.17359076 0.0012403814 -0.009138644 0.27798587 -0.007212626 -0.0100218365 -0.25299397 0.025263017 0.15118608 0.03715063 -0.07313087 -0.5396576 -0.01591675 -0.43522897 -0.04647527 0.10672576 -0.04394709 -0.0747799 -0.121807955 0.13214028 0.08441904 0.35110742 -0.0314682 0.041794166 0.019687751 0.040998787 0.08841267 0.16242446 0.1143167 0.1852238 -0.041863557 0.33319792 0.18270919 -0.030282846 -0.17730658 0.062185474 -0.18834497 -0.020304428 0.035338055 -0.072224095 -0.36344203 0.365184 -0.22659032 0.12270342 0.5719243 0.11562893 0.022340236 0.050783522 -0.27112314 -0.48797828 -0.18067259 0.039278664 -0.06516306 0.06276162 -0.31934315
abundant.a.01 0.04888581 0.2742319 0.21777505 -0.0012034803 0.25943142 -0.08115776 0.18139793 -0.008158989 -0.13026483 -0.22729906 -0.162499 -0.049644183 -0.41953257 0.028717425 -0.42609686 -0.28892046 -0.47029725 0.115608044 0.09876126 0.025163235 0.0258561 -0.02662818 -0.46695936 -0.40281242 0.024466459 0.2279665 0.7782691 -0.037025567 0.024866303 0.3035378 -0.45250565 -0.12693201 0.25627744 -0.063402 0.16083191 0.1625445 -0.0072148796 0.18141793 0.15325621 -0.2560328 0.23430431 -0.3750605 -0.2523334 0.16399083 -0.21741006 -0.18841022 -0.030024374 -0.10254484 -0.26326358 -0.010922757 -0.32774568 -0.08237534 0.11345966 -0.22430174 -0.03257736 -0.043142617 -0.5488188 -0.26394677 -0.0027643002 -0.06326116 -0.046824824 -0.6201207 -0.15692462 -0.121048406 -0.20347334 0.09533673 -0.0071335826 -0.376883 0.063531466 0.07734696 -0.036720708 0.054818273 -0.065244555 -0.045379005 -0.062396888 0.08023894 -0.60981625 -0.36457127 -0.079079665 0.58584684 -0.1037603 0.037466694 -0.09774585 0.021602252 -0.20511647 -0.07149463 -0.048068672 0.25148952 -0.7656336 -0.29959533 0.74633133 0.09165078 0.056339584 -0.07282048 0.78846043 -0.1360297 0.26653984 0.06002868 0.05824429 -0.24105403 0.040106684 -0.17094475 0.18263678 -0.10014945 0.07205205 -0.070799 -0.03641423 0.24802205 0.11994702 -0.20564337 -0.259242 0.21364605 -0.00021003034 0.17332488 -0.045048926 0.34278387 0.08478515 -0.16939992 0.4448133 -0.100807555 0.0168169 -0.0010394349 0.05729646 0.61577284 0.2234991 -0.38479903 0.039370213 0.13726597 -0.344652 0.031949103 -0.45276102 -0.017985784 -0.07726115 0.031512048 -0.14910884 -0.38944885 -0.1306744 0.074063204 0.08297414 0.0009426608 -0.034696113 -0.23353879 -0.3224442 -0.071614966 -0.0079419315 -0.23364298 -0.076213725 0.018612228 -0.0301368 0.008551151 0.24710467 -0.041086093 0.013992468 0.023594627 -0.22092317 -0.069806755 0.22040075 -0.030716347 -0.05281666 -0.063820176 0.17223404 0.03231739 -0.3100538 -0.0142864445 -0.10094301 0.16064629 -0.056949686 -0.13880166 -0.09158886 -0.7753676 -0.14002219 0.10855256 0.09677275 -0.024425669 -0.055217605 -0.296336 0.005359813 -0.12952954 0.17441782 0.4750985 0.08992244 0.042468887 -0.3213605 -0.583473 0.72337395 0.32536587 0.05546938 0.09470602 -0.1059704 -0.39865974 -0.21137382 -0.056261756 0.32211196 -0.06990413 0.05120266 0.39206514 -0.153205 -0.3569363 0.5123579 -0.05663611 -0.041660473 0.43077374 -0.10140076 0.0322025 0.039538786 -0.12420444 -0.07667334 0.33472198 0.046959665 -0.0051273615 -0.35941276 0.09002841 0.6939378 -0.008255476 -0.13774675 -0.043806117 0.059745148 0.25726724 -0.0569607 -0.19310646 0.024881892 0.093809396 -0.052885517 0.4548716 -0.04064112 -0.035577282 0.037688788 -0.1188683 0.049033556 0.22225529 0.24458453 -0.3355914 0.02072903 -0.033990834 0.21321122 -0.10529552 -4.0384253e-05 0.24695607 0.07886462 0.047577966 0.23501232 -0.03475789 -0.0035573572 -0.0033379295 0.041050196 -0.112417966 -0.17070173 0.3108239 0.41123995 0.11962218 -0.10868008 -0.2932188 -0.10843625 -0.0010262907 0.054184955 -0.14359237 -0.16112249 -0.25527555 -0.53120416 -0.11802207 0.087002754 0.36441982 -0.20293947 0.19664647 0.12925492 -0.026191644 0.31357652 -0.0944672 -0.053046618 0.23127338 0.3055763 0.0823131 0.3017489 0.35185802 -0.13260926 -0.09757446 -0.10473418 -0.12944847 0.087590635 0.038706746 -0.06105718 -0.21761143 0.13761662 -0.04360999 0.029203827 -0.37402397 0.423818 0.06618706 -0.006923793 0.3431779 -0.18978226 -0.13820522 -0.10223143 -0.19359359 -0.5342331 0.053504594 0.097802795 -0.119063914 0.004902155 -0.08046316
green.a.03 -0.05573105 -0.18781786 0.019763539 0.2805553 0.11604769 -0.22210574 0.25294563 0.058065582 0.004831007 0.04663446 0.09130529 0.096318536 -0.05116264 -0.18017046 -0.19977021 -0.020363132 -0.23938617 -0.27856678 -0.06366909 -0.03444963 0.17258617 0.14205791 -0.11498054 0.6763231 -0.0982006 0.119749784 0.4681528 0.068008 0.16095966 0.050314948 0.27074605 0.061981175 0.09038039 -0.019272447 0.1826519 0.17164809 -0.12292352 -0.056245994 0.24095626 0.19477327 0.09670653 -0.461785 -0.20651068 0.0070111975 -0.048450112 -0.15957361 0.0814599 0.046028003 -0.3303787 -0.07132966 -0.0068462505 -0.056151308 0.38768 -0.1352805 0.012570953 0.088361114 0.031405184 -0.04639888 0.076522596 -0.07452195 0.060525425 -0.084539965 -0.33516783 -0.0034403426 0.019007891 -0.027728545 -0.016593855 0.011103238 0.48912284 0.13908349 -0.11239256 -0.03482577 0.015169678 -0.11055128 -0.06247951 0.4375964 -0.5568621 -0.3100019 0.6990514 0.49088284 -0.21736845 0.021811122 -0.14482105 0.07324158 -0.42109597 -0.014585836 0.059812527 -0.006800449 -0.053092547 0.055269286 0.382326 0.15137017 -0.039563823 -0.019067023 0.1118161 0.0075761266 0.33636668 -0.18512592 0.0142609095 0.6895208 0.2641972 -0.18355756 0.033210825 0.092020616 -0.20664418 -0.32510203 0.031053117 0.38589394 0.27061644 0.017494492 -0.5547938 0.08866654 0.13561694 -0.36778426 0.025588997 -0.25317746 0.23335205 -0.012844792 0.37122083 0.33688942 0.054776177 0.0020300895 0.15487058 0.016590852 0.10040894 -0.27154756 0.31933528 0.07362557 -0.26005402 0.00977439 -0.50559825 -0.06639383 0.0796507 -0.010617564 0.06042056 -0.4602894 -0.08064452 -0.119932026 -0.0153672835 -0.014326595 -0.034804005 0.12082193 -0.041358564 0.014333388 -0.16972701 0.08070499 0.09227911 -0.17668389 0.03238294 0.15083411 0.18325223 -0.058351792 -0.0110204015 0.10819211 -0.5385892 0.06790607 -0.0017362708 -0.026752384 0.14342478 -0.33857173 -0.15055609 -0.069968484 -0.24054007 -0.34294415 0.0061080228 -0.039689377 -0.14907406 -0.027574357 -0.059543073 -0.594781 -0.018070318 -0.0026376175 0.062001754 0.055529863 0.017294688 -0.19790056 -0.059533637 0.021615135 -0.11965997 0.15747578 0.1403106 -0.16151087 0.010372994 -0.6641423 0.34748158 -0.13810438 -0.13617618 0.18214747 -0.037113886 -0.63491327 -0.067803375 -0.021377325 0.29350087 -0.0170046 -0.008511594 0.3328237 0.7897729 -0.0070474795 0.74844944 -0.17527944 0.015334265 0.08281758 -0.14753662 -0.3751301 0.53201026 0.17146282 0.3755537 0.19973046 0.5384251 0.01331505 -0.029917011 -0.056934584 0.35366663 0.12373371 -0.016518747 -0.07019185 0.008147344 -0.05432777 -0.0041419943 0.09500047 -0.095804475 0.042754404 0.08198169 0.26164845 -0.1709068 -0.104789265 -0.09669765 -0.07160357 0.046745908 -0.40150526 -0.06761211 0.033730038 -0.06813226 -0.026687209 0.079113625 0.30303028 -0.040686477 0.07861303 -0.001871099 0.0054807696 -0.058240496 0.011127193 0.025635036 0.08618769 -0.01577109 0.09387258 0.5443525 -0.04486962 -0.028352119 0.06976523 -0.071839735 -0.38299295 0.054698545 0.41601977 -0.09189991 -0.12170963 -0.25946057 0.07443198 -0.16108239 0.16223475 0.2239849 0.025172345 0.019058604 -0.09648413 0.11320556 -0.0077311527 0.3209483 -0.043810572 0.024652012 0.15866598 0.023627415 0.0014188667 0.0077449307 0.055108644 0.32058662 0.010453064 0.008068954 0.26729143 -0.032057747 -0.3858543 0.19592406 -0.057397783 -0.007850684 0.1482739 -0.033620287 -0.357959 0.39319193 -0.14854929 0.18565026 0.706188 -0.069031514 -0.006133299 -0.36028415 -0.1396849 -0.38045982 0.31614935 0.19757411 0.019882489 0.10274416 -0.021516217
urban.a.01 0.017861763 0.1637187 -0.15140724 -0.17240825 0.12001579 -0.2618188 0.44251534 0.051128972 -0.31439576 -0.05109647 0.054351676 0.12945144 -0.01803611 0.01692354 -0.17167702 0.013906899 -0.28486133 -0.03194191 0.089991234 -0.85932875 -0.28370488 0.12371034 0.042971052 0.27380386 -0.015017109 0.057647765 0.48753607 -0.29893076 -0.03424967 -0.31081477 -0.13717379 -0.055756412 -0.24559121 0.026809342 -0.020839795 0.21084692 0.052589584 0.017905097 -0.033202842 0.0014432749 0.49878162 -0.4193024 -0.23945557 -0.17583585 -0.13890344 -0.2738841 0.017751606 -0.23805022 -0.3782955 0.2552303 -0.077959225 -0.019771393 -0.055546597 -0.04964126 -0.010537026 0.00022127967 0.11494505 -0.0011067984 -0.012302393 -0.08549198 -0.081095904 -0.009648396 -0.20448913 -0.17374392 -0.29391783 0.016676474 -0.012250067 0.0024248685 -0.08421109 -0.16888691 -0.019867895 -0.16913119 -0.08732101 -0.018299576 -0.028974475 0.12498966 -0.20300062 -0.056766193 0.008074094 0.19409701 -0.12502943 -0.132929 -0.10677551 0.0063356 -0.040114146 0.033218373 0.019272592 -0.04781807 -0.08962952 -0.10944353 0.30985898 0.10672172 0.36041215 -0.024385072 0.03996222 -0.028414918 0.030440578 -0.04545144 0.0048401933 0.47486186 0.2458216 -0.34917912 -0.14570692 0.100065164 -0.058156494 -0.046169393 0.024195569 0.33568326 -0.08405847 0.018011764 -0.24742773 -0.070273064 0.04315509 0.010887832 0.49784112 -0.15855704 0.3666537 0.09201167 -0.16664436 -0.03114823 -0.06348865 0.0574121 0.057363797 0.08025981 0.029201547 -0.12844932 0.26640937 0.069273435 -0.116189115 -0.03534927 -0.66279685 0.0709713 0.017583268 0.029826349 0.015448354 -0.087402195 -0.018279696 -0.03577843 0.045964498 0.041182872 0.0890861 -0.009412765 -0.0063143745 -0.10599038 0.20215462 0.015130893 -0.08820496 -0.11861628 0.16980635 0.1189629 -0.18654783 -0.02720476 0.017592086 -0.10772757 -0.21170315 0.028232973 0.14606078 -0.055959344 0.029323636 0.146195 -0.008177407 0.031088555 -0.43529704 -0.2907896 0.011511095 -0.0010026832 0.022362424 -0.0065318868 0.13058089 -0.32540205 0.004359118 0.0596111 0.082824335 0.025934821 0.011411229 -0.027767623 -0.08588833 0.16440037 0.120962776 0.08258819 0.075994864 -0.032226957 0.06882815 -0.37405622 0.50494987 0.10241173 -0.06809033 0.09756967 0.027907949 -0.24293719 -0.18565492 0.08765167 0.34897345 0.011033574 0.037826672 0.2846057 0.028693818 -0.29110074 0.6176154 0.09101142 0.01510016 -0.081848525 -0.09197242 0.18384442 0.15913841 -0.006126734 -0.016060637 0.33397642 0.042971715 -0.27402684 -0.44790953 -0.21496296 -0.15873133 -0.039137494 -0.03251282 -0.06988557 -0.0065470794 0.013235036 0.042153865 -0.082640216 0.040344536 0.009560681 0.080418505 0.1948476 -0.016419828 -0.20784506 -0.08356252 -0.037240405 0.055000562 0.030154675 -0.19060527 0.13074677 0.10274889 0.026591908 -0.0005258154 -0.047484737 -0.053461667 0.52528584 -0.18799184 -0.011565905 -0.4776866 -0.03002456 0.056972742 0.028815955 0.02237916 0.028010428 -0.15751599 -0.058197506 0.026065005 -0.08995201 -0.015602108 -0.34356767 0.0154481735 -0.20267254 0.24352932 -0.07280534 -0.26405066 0.25154522 -0.0141101675 0.08555398 0.45067114 0.044664785 0.22840407 -0.012631334 -0.06140407 0.14119445 0.44876876 -0.017427614 0.028547384 0.006217983 0.13201812 0.22234395 -0.08149413 0.03447924 0.07040423 0.050185695 0.29728255 0.51347053 0.025362752 0.28138843 0.21591283 -0.060483962 -0.054120354 -0.12859641 0.1563854 -0.50869197 0.42343825 0.08818125 0.108654596 0.31621435 0.5236403 0.00385509 0.01778477 0.061028328 -0.18930764 0.067303136 0.16340984 -0.105444655 -0.039144956 -0.17016861
exact.a.01 -0.0013521714 -0.016196953 -0.026573544 -0.0068523674 0.03569695 -0.09622989 0.42635977 -0.27037656 -0.02167634 0.05594532 0.0069794534 0.06948093 0.05957478 0.13739835 0.0035435695 -0.42676398 -0.2755569 -0.1546888 0.012448531 -0.19101563 0.008629209 0.007765281 -0.4880064 -0.028105032 -0.12687156 0.023789013 0.6161664 -0.014833704 0.14382707 0.17815405 -0.056091025 -0.2835291 -0.019538134 0.051309012 -0.3930153 0.1447101 -0.0914192 -0.006790026 -0.043029603 0.09114255 0.14190009 -0.063426815 -0.16772097 0.047209717 0.034471203 -0.125166 -0.12489935 0.05047837 -0.43583393 0.22804138 0.048342656 0.081856534 0.38667274 -0.15017915 -0.0052642887 -0.056028113 0.1625156 0.021081332 0.038024094 -0.0048505096 0.00094995456 -0.26770365 -0.10087224 0.033710815 -0.05707524 0.035015903 0.027161011 0.008036011 -0.006826875 0.11463832 -0.07346525 0.048795953 -0.02517495 -0.09531771 0.020616356 0.09446405 -0.11658699 -0.23725417 0.09392927 0.6237595 -0.0039829807 0.052763533 0.02297512 0.07535852 0.26231405 0.041589577 0.0031409906 -0.31018 -0.011977243 0.016906073 0.3611137 0.032791603 0.0015658131 -0.74898964 0.05036767 0.029607175 -0.62436783 -0.018846225 0.054903436 -0.061769746 -0.07191816 -0.10934561 0.06779437 -0.006070167 -0.5073696 0.026597407 0.08414655 0.1702973 -0.0010084907 0.39262512 -0.021601925 -0.014218835 0.080504835 -0.011162036 -0.008515026 0.06884139 0.2166337 0.091576315 -0.21459228 -0.01681472 0.061993495 0.013547328 -0.0438961 0.045333914 -0.4918853 -0.15417375 -0.1311389 -0.004174633 -0.2885673 -0.06996188 -0.22530077 -0.14721346 -0.10577709 -0.057482004 0.039462548 0.13462543 -0.00519573 0.010447064 -0.2472449 0.061579686 -0.07764993 -0.23757917 -0.011505082 -0.1232289 0.036611617 -0.044528414 0.1920732 0.097853266 0.016231794 0.65782696 -0.12757447 -0.05270213 0.004513927 0.0020150635 -0.8318611 -0.021247543 0.25512695 -0.021128226 -0.054502517 -0.3288039 -0.01861381 -0.010635009 -0.30025417 -0.094546504 -0.2847134 -0.09377228 0.003787267 0.075494014 -0.0365498 -0.11355925 -0.122879006 0.06720866 -0.009134107 0.11541816 -0.013920714 0.53657204 0.0012279265 0.22614281 -0.38647708 -0.024767362 0.009087751 -0.15307066 0.011076056 -0.19545202 0.3701737 -0.39474294 0.05453207 -0.09332703 0.051848516 -0.47260982 0.016999815 -0.051871635 0.15068085 -0.0056952783 -0.013931767 0.22930868 -0.19717589 -0.055260204 0.2844777 -0.010225039 -0.0965348 -0.094578676 -0.03838811 0.029247714 0.069111854 -0.37146485 0.051292803 -0.010468263 0.1480227 -0.058998894 -0.67277795 -0.16141239 -0.011923166 -0.024264818 0.09693262 -0.015739864 -0.075646654 -0.18291228 -0.12899482 -0.10171931 0.23528336 0.10650383 -0.09287015 0.007652622 0.03385998 -0.030494608 0.043504894 0.101332076 -0.04283338 -0.12912168 0.045869023 0.026518278 0.011413869 0.10126973 0.0054561542 0.141953 0.48587945 0.44401106 -0.018017074 0.05541722 0.052266464 0.04380252 -0.00074668886 0.11753586 -0.021875415 0.114180975 0.07116063 0.097141065 -0.23156263 0.342488 0.033360887 -0.08648315 -0.1242023 -0.0781385 -0.07919142 -0.013030586 -0.04099449 0.0048526805 -0.11017244 0.048152175 0.040934823 0.4125319 -0.09380718 0.24333341 0.0057944725 -0.04425315 0.014379197 0.42774668 0.03389767 -0.33350727 0.014989831 -0.16513708 0.021769794 0.055793103 0.055279724 -0.010766429 0.09456356 -0.04056693 0.015460601 -0.44181672 0.48757005 -0.14868559 0.2759667 -0.09302823 0.035083994 -0.3350529 -0.0021600577 0.5789893 -0.05349355 0.30349445 0.011376274 0.040134754 -0.16260488 0.0147659965 -0.354256 -0.44593996 -0.0072441706 -0.0066524367 0.11830593 0.019586448
