1000 300
old.a.01 -0.03296279 -0.012827935 0.14466175 -0.14640865 -0.0019402181 0.025734546 -0.018395172 -0.010584314 0.06919458 -0.2351157 -0.23363216 0.10325465 0.02016018 -0.11621192 0.011587771 -0.004410774 0.12221113 0.031803533 0.1508895 -0.0970535 0.030281357 -0.20086966 -0.06492448 0.06158369 -0.2242587 0.032995723 0.03493107 -0.07663258 -0.14077704 -0.0038049754 0.1303636 -0.1135091 0.08043622 0.087762214 0.12738065 -0.11814612 0.13284047 0.1030191 -0.00035562992 0.18922421 0.047879655 -0.060785074 0.060187284 -0.028420728 0.13758777 0.010215731 -0.10134093 -0.0674306 0.02114679 -0.093485765 0.075764425 -0.08523563 0.025749037 -0.03367847 -0.1058954 -0.07032983 -0.09022261 0.061168324 -0.010953331 -0.09778264 -0.021346364 -0.04693968 -0.0906574 0.110440575 0.130891 0.09991379 0.16593145 0.062448338 0.0230957 0.09218236 0.04578246 -0.0050416887 -0.0027445853 0.18814722 -0.05988356 0.056584705 -0.043831877 -0.05271587 -0.013041211 0.0142276455 -0.10958367 -0.009411416 0.0688776 -0.0016187854 -0.1431 0.038370725 0.047192257 -0.049214594 -0.091326185 -0.119607404 -0.07645717 0.057911813 0.14926967 -0.0907353 -0.08786539 0.034553293 0.16426308 0.09837946 -0.113290474 0.026058143 0.09352938 -0.037917994 0.113639414 0.00891902 0.19052196 -0.13878839 0.052745447 -0.04206186 0.116428785 -0.018276034 -0.1298594 0.1020459 0.07540429 -0.13510993 0.11962893 -0.16189337 0.13789345 -0.07904496 -0.05628897 0.012959624 -0.016680272 0.016949736 0.1405442 -0.08049448 -0.16146706 -0.12554578 0.15222725 -0.07301933 -0.16176437 0.092665546 -0.16568209 -0.06571948 0.016265618 0.0620214 0.081234716 -0.006436065 -0.07046629 -0.035828445 -0.07499395 0.13830282 -0.06337349 -0.028256616 0.078952715 0.08940995 0.10075236 0.016003804 0.017780783 0.11099587 0.008517399 -0.018689465 -0.1113716 -0.010652782 -0.09838035 -0.1328351 -0.029805869 -0.16947429 -0.057298057 0.058766935 0.023367519 0.20944814 0.12147989 0.07782724 0.06338915 -0.17091194 -0.16282496 0.10686531 0.10675603 0.060174495 -0.093334295 0.013345462 0.050099153 0.097224735 0.15135242 0.14232558 -0.021573389 0.029303052 0.011345728 0.070102185 -0.0595153 0.05167173 -0.07193461 -0.016161159 0.0911108 0.06942304 0.04428422 -0.089962244 -0.029007098 -0.108781315 0.07113942 0.025502697 0.09121089 -0.052318636 0.02940817 -0.01936969 0.08908667 -0.082994156 0.061880425 -0.15615615 0.007501506 -0.11291313 -0.05327965 0.022252455 0.16242412 0.002444512 -0.04391973 0.0065816157 0.044872217 0.13957165 -0.16232254 -0.039068576 0.10737629 0.09198065 -0.07732449 0.10081673 0.012341436 0.03559182 0.075794116 -0.0517286 -0.15101771 0.009424272 -0.028978283 -0.08538765 0.09786172 0.09214205 0.1443952 0.11352635 -0.027097408 -0.02038212 0.09101332 -0.08847545 0.09483676 0.031281594 0.0374064 -0.05722134 0.06382601 -0.0028800038 -0.07135275 -0.02067338 -0.13331784 -0.13296472 -0.030336795 0.083158664 0.15279983 0.100482784 -0.12559846 -0.03600958 -0.14006776 -0.013878344 0.16555654 0.0059339385 0.107676946 -0.11346307 0.06110667 0.027079925 -0.08735961 0.015344793 0.07057401 -0.04925168 -0.07729267 -0.07528688 -0.009335557 0.13069811 -0.06117507 0.17988148 -0.0055573033 -0.13596481 -0.16186829 0.09180814 -0.22571547 -0.12730381 0.033908397 -0.14756797 0.009555498 0.10518507 0.028671915 0.061871123 -0.013996426 -0.025378903 -0.013263617 0.1583696 0.024742557 0.12488399 0.113637306 -0.03374964 -0.15496613 0.018362572 -0.031057654 -0.09060359 0.029692156 -0.080173284 0.019598942 0.1046609 0.10401514 0.105941534 -0.020022267 0.048577584 0.037503667 -0.0081113195 -0.06542568 0.15242887
tidy.a.01 -0.01632071 0.016324254 -0.08925943 0.01777431 -0.021638183 0.0150127355 -0.08316059 0.13643044 -0.1455461 -0.10693741 -0.04051772 0.012270278 -0.09375092 -0.0058802576 -0.03682196 -0.026652114 -0.08332328 0.061113283 0.010005005 0.03928204 -0.06795629 0.041212466 -0.023056025 0.014284035 -0.06903867 -0.042316332 0.117145 0.0021522383 -0.0040431465 0.09080526 -0.01629066 -0.07638954 -0.049783207 0.072732806 -0.04642727 0.09827006 -0.06256078 -0.07250295 -0.053631026 -0.083078705 -0.14645782 -0.044446815 0.06885939 -0.08303763 0.08267951 -0.0668156 0.0622162 -0.03869595 -0.05531183 0.034626953 0.04695425 -0.07887659 -0.025412384 0.04798743 0.0172248 -0.0553239 -0.02270143 0.011525643 0.15188026 -0.023725832 -0.05047606 0.049926598 -0.08560634 -0.053127125 0.13414715 0.16885555 -0.03909977 -0.022362519 0.025761621 0.07256427 0.05049132 0.0050910353 -0.07079352 -0.09598734 -0.0046065766 -0.009504042 0.0022210209 -0.004678836 0.037970915 -0.040995177 -0.08459431 -0.08833585 0.004805909 0.09916656 0.001566387 -0.11357258 -0.04460482 -0.05660829 0.047205303 -0.113382086 -0.023597466 -0.21075472 0.0044010626 -0.01678072 -0.057144534 -0.050656807 -0.09292312 -0.014362903 -0.047948427 0.05381909 -0.088633806 -0.0702079 -0.05210077 0.049953673 -0.05876396 0.012016154 -0.059857797 -0.058626886 0.10805692 0.0638577 0.080667965 0.07145633 -0.041618418 -0.068109736 -0.085199185 -0.1654158 -0.019342126 -0.03048156 0.05532018 0.1581215 0.14515159 0.034431856 0.15955663 0.057997562 0.09132075 -0.015525637 0.058447637 -0.01095477 0.06395041 0.12319765 0.06903832 0.16506682 0.0026749421 -0.06180821 0.10441845 -0.03463973 0.10908047 0.0125144515 0.024223015 0.048068374 -0.045138016 -0.19319494 -0.10675391 0.11807691 0.10231057 -0.049052335 -0.20297661 -0.037013117 0.016210852 0.07606873 0.012234846 -0.10789814 -0.08387741 0.07700101 -0.006025766 0.030772917 0.06859011 -0.06924571 -0.07456439 -0.12245765 -0.045937642 -0.056438345 0.0041717486 -0.1399053 -0.017439114 -0.043362137 -0.011939584 -0.021614537 0.09746211 0.027105197 -0.12750335 0.09913221 0.07772793 -0.096802905 0.1567824 -0.031267248 0.037893794 -0.06804036 0.062228654 -0.026576856 0.06809302 -0.057904985 -0.054455813 -0.055499956 -0.11795229 -0.021622669 0.05183614 -0.09600847 0.039152745 -0.04245505 0.01703676 0.15618275 -0.030464647 -0.039268326 0.07228238 -0.08946666 0.06036426 -0.07402915 0.08222758 -0.011508025 -0.14737718 0.030361654 0.08971418 -0.033250254 -0.006877807 0.0779992 -0.010993716 0.16667967 -0.06479675 -0.06929759 -0.05252663 -0.009750681 -0.1131371 -0.0898291 0.0977339 -0.060994036 -0.13836719 0.049490403 0.13541065 -0.17201696 -0.0157684 0.08727627 -0.0037181494 0.009026032 -0.08965798 0.018590333 0.07330889 -0.07827146 -0.040737823 0.007781438 0.013921436 -0.05668393 -0.008355386 -0.024606971 0.093850724 -0.16563512 0.01240888 -0.10032602 0.053462014 -0.13149685 -0.049863163 -0.004805475 -0.018721873 0.04596288 0.10260662 0.1176463 -0.094684266 0.049104463 -0.0056552137 0.07120857 -0.0168887 -0.10642501 -0.048268035 -0.058105715 0.010630002 -0.035104405 0.048793066 0.069091305 0.15385516 0.09392252 0.11203855 -0.14134404 0.14291117 0.013923666 0.09367447 0.042471286 0.12359479 0.10941025 0.078914165 -0.047834516 -0.17677538 -0.12789977 0.19688135 0.02152428 -0.09792415 -0.03272947 -0.15407617 0.09055431 -0.013779604 0.022548204 0.049968626 0.006961116 0.003963211 -0.037180163 -0.0555523 -0.04252353 0.0029409863 0.09255548 0.06097806 0.008608446 -0.04491868 0.02855288 0.045046896 0.045128684 0.043615654 -0.0494304 -0.10417911 0.067743406 -0.03984739 0.020717198
available.a.01 -0.07574221 0.018845124 0.06152532 -0.0010467562 -0.08605699 -0.14297943 0.10298378 -0.10587072 0.03031692 0.034176823 -0.18441355 0.11466246 -0.06715318 0.0011869615 0.012961496 -0.0974195 0.06647963 0.032365065 0.031263623 0.101356104 -0.010005289 -0.1389853 -0.031898662 -0.11218804 0.1249624 -0.07077003 0.015265611 -0.008122662 0.14748524 0.12853946 -0.087893 0.104296245 -0.08427747 -0.053069167 -0.08582116 -0.15527141 -0.047592167 -0.2634448 -0.20214051 0.10046793 -0.12541711 -0.07453723 0.16903205 0.021199496 0.03852422 -0.111004256 0.12149081 0.09048322 0.11845372 0.009609641 0.17080581 -0.0052250787 -0.10611107 0.03341832 0.064762145 0.112086475 0.14633274 0.13375767 -0.0153445555 0.0943933 0.086002365 -0.011449041 0.1227731 0.005512752 0.06190704 0.1343764 0.15317649 0.047606915 0.028236477 0.11537039 0.04640516 0.029650329 -0.16401418 -0.14305213 -0.023935905 0.095010765 -0.16419649 0.07878818 0.06251441 0.10557736 -0.010898761 0.030057864 -0.08034639 -0.08758662 0.016416967 -0.10068361 0.09820244 -0.07596719 -0.11210805 -0.092221975 0.057218168 -0.050868075 0.10050986 -0.005298789 0.14713234 0.02100003 -0.062032048 -0.14643095 -0.15278067 0.0402286 0.011564956 -0.009578244 -0.03949348 -0.11676823 -0.049492728 -0.08584761 -0.024088206 0.055063076 0.011574554 -0.103640705 0.081664085 0.01891563 0.13437709 -0.13832177 0.044354994 -0.099108696 -0.13343303 0.019469192 -0.0044869175 0.0067896266 0.074764684 0.090035655 0.10973658 0.064459674 -0.08348779 -0.18721303 0.0040058144 0.05170923 0.06716012 -0.121710286 0.077995345 0.07151015 -0.032833528 -0.003960382 0.07524272 0.043454062 0.010389429 0.011648735 -0.017112823 -0.10148467 0.047897436 -0.02426834 0.0059562754 0.17054315 0.04147242 0.04619644 -0.012104554 -0.15412053 -0.07638359 -0.08845883 0.15067181 -0.06394243 -0.12470943 0.20498851 -0.11886388 0.06696509 0.05901068 -0.035286 0.064464696 -0.07160878 0.057509493 0.0021409453 0.116347045 -0.04834238 0.048160378 -0.044590674 -0.06430352 -0.0495313 -0.020332672 0.0854872 0.09510245 -0.098320246 0.0020149536 0.00023930102 0.0561834 0.056679916 -0.03937423 -0.15508045 -0.026638968 0.19092675 0.0116140805 0.046899598 0.1570616 -0.09900839 -0.15843743 0.04671427 -0.0916877 0.077309564 0.09083386 -0.16245168 0.06859774 0.064359665 -0.12536429 0.013312296 -0.044096567 0.047932304 0.006406577 0.1391776 0.0132421935 0.1501922 -0.05163061 0.045674115 -0.02417424 0.18670695 0.006967659 0.15722008 0.13232179 0.09809156 -0.035216272 0.107705615 -0.077626325 0.023983676 0.099915355 0.13792619 0.06839652 -0.041419193 0.0759781 -0.036489993 0.046384607 0.104051486 -0.06357351 0.053528216 0.06234434 0.13579336 -0.13622373 0.12804003 -0.0728904 0.036911942 0.039825786 -0.14800441 -0.07225106 -0.21838245 -0.1102417 0.18589444 -0.025403474 0.07533304 -0.042622227 -0.065487206 0.17385973 0.07927137 0.09632247 0.027466603 -0.045158975 0.050375413 0.0016111593 0.09430636 -0.11284733 0.1237943 -0.006304727 0.04157962 -0.07447433 0.030511547 0.03982557 -0.113296516 -0.0479068 -0.09365267 0.148087 0.09717061 0.1822139 -0.012138734 -0.15372914 -0.043553866 0.13853084 0.11329249 -0.18037994 -0.091253996 -0.06319484 -0.13101868 -0.30410552 0.0608777 0.07266403 0.09531928 0.17943199 0.19354497 -0.16770479 -0.113159984 0.021513535 0.04324536 -0.09254811 0.0780145 0.012883501 0.07070107 0.13758042 -0.09619665 -0.008942484 0.077635765 -0.08579167 0.03632529 -0.14290479 0.09507953 0.08359298 -0.027221045 -0.056395967 0.073585324 -0.016107915 -0.023133134 -0.104162395 -0.067061946 -0.056414846 0.06342544
warm.a.01 -0.053437326 -0.087677024 0.04594398 -0.0142471 0.030953562 -0.10074887 -0.16022077 -0.250079 -0.12489984 0.018431682 0.042988144 -0.057566382 -0.12031676 -0.0107896 0.013956166 -0.13894701 -0.013020232 -0.14981717 -0.07280885 0.1878836 0.021673322 -0.09751653 0.062452395 0.052034996 -0.03623259 -0.10338275 0.0048532346 0.01429118 0.029236896 0.22949752 -0.12016075 -0.043496214 -0.033743437 0.0048819594 0.13187172 -0.17753918 0.12111276 -0.07133945 0.22488812 0.010039796 0.13105974 -0.11722721 -0.05928896 0.10545646 -0.03092217 0.1583872 0.11768374 0.11983085 0.058259893 -0.046984065 -0.03459956 0.025996352 0.0044594132 0.05396998 0.08148661 -0.09222423 -0.1435213 0.09380331 0.005821365 -0.04932044 0.10930223 0.14014149 0.054601725 0.009958841 0.023109617 -0.070415035 -0.020815967 0.008464089 -0.21866004 0.064749345 -0.009005046 0.09223149 0.14545952 -0.016145978 -0.054399032 -0.101775154 -0.07268494 -0.09364261 -0.096666254 -0.14964142 -0.00020294898 -0.062318277 0.10871807 -0.023317143 -0.015937883 0.10297478 0.12713273 0.13900574 0.18096718 -0.10892946 0.009025427 -0.17544197 0.05405157 -0.2820846 0.049625594 -0.12010133 0.20831269 0.06974141 -0.016127657 -0.06433487 -0.0048527177 -0.07075032 0.0078476975 -0.007023922 -0.11803105 0.110660434 0.055514704 0.05196449 -0.08911166 -0.02763152 0.0580734 -0.038776025 -0.08359702 0.058547914 -0.024531757 0.08939607 0.12745212 0.06343051 0.15097012 -0.049011696 0.10103277 0.029015105 0.1393687 -0.07088254 -0.06615582 0.14607166 -0.09161716 0.015700828 -0.114666626 0.06765642 0.085087635 -0.07059926 0.16704525 0.09166317 0.049962685 -0.05078891 -0.08138327 0.123680726 0.03762625 0.03654253 -0.12664644 0.14955151 -0.057708595 -0.107435316 0.103369705 0.13874803 0.08858957 -0.018879544 0.14840615 -0.103237495 0.05506581 -0.08215617 0.048897233 0.14118156 0.051538996 -0.15372908 0.10277713 -0.0038064858 -0.07719596 -0.1335638 -0.02074589 0.05277002 0.1749374 0.09222481 -0.046253555 -0.077664316 -0.016012909 -0.09863331 0.048650064 -0.123956576 0.052391924 0.14337327 -0.02947169 0.06793247 -0.016827988 0.12596954 0.0020624842 -0.0673809 -0.13744316 -0.12092807 -0.08303867 0.07396213 -0.21348472 -0.23226021 -0.09657377 -0.032543648 -0.010189037 -0.043976482 0.019808184 0.1565713 -0.09815691 -0.16401699 -0.07296454 0.006321682 -0.15879509 0.043647725 -0.07602759 -0.11685599 0.15610398 0.06471629 -0.029091373 -0.15878156 0.031540148 -0.029035922 0.087099716 0.17729133 0.017582985 0.024150303 0.020331327 -0.10928894 -0.1645479 -0.045221083 0.126473 0.20142524 0.008113642 0.19305389 0.034283444 0.12497774 -0.104805484 0.06635027 0.084114715 -0.12759708 0.102137856 -0.044581834 0.06394347 -0.17784326 0.16888382 0.019005856 -0.07205093 -0.010731701 0.18081029 -0.058421403 0.1113323 -0.12827472 0.029450227 -0.06708868 -0.1994769 0.12786564 0.021920027 -0.12953785 0.051619682 -0.061759062 0.10358909 0.029314693 0.23126052 -0.060594104 0.12793994 -0.1389531 0.122927554 -0.010356961 -0.056521107 0.094036594 -0.034692526 -0.08184248 0.15060505 0.11119385 0.16916126 0.073234804 -0.15937078 -0.061676737 -0.0063742055 -0.050508417 0.14306362 -0.0058902246 -0.026634226 -0.13312966 -0.035302997 -0.010155528 0.015051389 -0.16712065 -0.012305415 -0.029646078 0.18182704 0.07681585 0.046277773 0.043576792 0.11169734 0.16908766 -0.024868242 0.08843773 0.028295185 0.11773239 0.031120662 0.021472018 -0.06383785 0.09931119 0.033213086 0.08983217 0.043154337 -0.1262314 0.12210815 -0.09097236 0.13530129 0.03346715 -0.05024819 -0.20083432 0.025878333 0.15914436 0.13265051 0.097962335
strange.a.01 0.04616202 0.12359915 0.013478864 -0.032012615 -0.081426114 -0.10051509 -0.01878742 0.16248812 -0.024192888 -0.04308744 -0.15048055 0.10812946 0.011515871 -0.021271253 0.11477987 0.10174911 -0.033147715 0.04895768 -0.05630249 -0.04785201 -0.013753212 0.0041202605 -0.030028403 -0.0383437 -0.0019996807 0.035310976 0.003478936 -0.009743877 -0.02581853 -0.06334547 -0.1310074 -0.04914138 0.104975276 -0.114823446 0.027391441 0.17776786 0.10493439 -0.011931773 -0.19443442 -0.019172758 0.065077886 0.010364145 -0.06338836 -0.20004953 0.10421986 -0.11702211 0.00940657 -0.07463841 -0.08947331 0.006698571 -0.09840071 -0.06480567 -0.034152754 -0.0027301866 0.113843694 -0.09107001 -0.06910792 0.036126096 0.04548908 0.0213155 0.048304252 0.262813 -0.081583165 -0.02628134 0.054742426 0.04657337 -0.08026792 0.02155116 0.02431832 -0.11791776 -0.022033576 0.037988864 -0.13496695 -0.055345718 0.047665264 0.012190587 0.0126026645 0.033354722 0.059164684 0.040935095 0.11024123 -0.16785611 -0.021293202 0.084298156 0.060360298 -0.09702486 -0.15306257 0.107233495 0.099538304 0.02313957 -0.05026949 0.03758066 -0.15174396 -0.09625332 0.020513108 -0.01265582 0.13298574 0.086364545 -0.14442644 0.07522815 -0.23995729 0.12229676 0.08847544 0.010895966 -0.04607331 0.038315464 0.20160899 0.009889182 0.15302135 -0.061598774 -0.003268392 0.06762542 -0.008492745 -0.025828937 0.06859644 -0.039177984 0.05343118 0.1427132 0.13241923 0.14751711 -0.018622942 0.06686581 0.006268727 -0.014500314 0.0833173 0.09337082 -0.07358351 -0.19648091 -0.07848896 0.013104127 0.0853766 0.052806247 -0.039692078 0.0048653805 0.06768736 0.025209203 0.049946755 0.02385834 0.17716318 0.047766067 0.06332128 0.020709988 0.027429601 -0.116993025 0.12646373 0.08899158 0.10798975 0.071761444 0.022126613 0.055266082 -0.11704754 0.039739 -0.14524214 -0.015434152 0.00999527 -0.14072819 -0.18176249 -0.023006773 0.034388587 0.13641448 0.051785935 0.09823546 0.033788808 0.031882554 -0.001365941 0.045245536 -0.0275487 -0.028317356 0.049695026 -0.119448856 0.015898518 -0.034685344 0.14554736 0.023305455 0.22781307 0.035123188 0.009200707 -0.049020298 0.026611207 -0.03538383 -0.02388017 -0.03204551 -0.048785023 -0.070788965 -0.0918959 -0.041302055 0.13788553 -0.0036708238 0.15547238 -0.19230929 -0.05226028 -0.013206811 0.0018267169 -0.12726857 -0.0023177264 -0.13415653 0.018496998 -0.034695566 0.00823607 -0.032779135 0.12929778 0.1291609 -0.06619306 0.09825894 -0.050631892 0.06036156 -0.0837612 -0.022479743 -0.033107895 -0.036566377 0.07212795 0.0082992 -0.015528543 0.062521465 0.05238065 -0.000523441 0.038441483 0.008610897 -0.19306803 -0.052258067 -0.06073988 -0.022045983 0.1455722 -0.09424612 -0.14697213 -0.039537102 -0.040824134 -0.029367015 -0.049003784 0.0087706195 0.08456065 -0.0012752833 0.045115847 0.06991576 0.048820816 -0.020066164 0.01734397 0.10073531 0.013983092 0.00830659 -0.12006658 -0.13128564 0.015508167 0.09367586 0.07225789 0.04749854 -0.07588185 0.077141255 0.04497638 -0.0051678494 0.026079673 0.080876455 -0.021483066 0.18328263 0.019766813 -0.07163835 -0.11238326 -0.0043804813 -0.02998973 -0.076900415 -0.019193543 -0.031084185 0.22096403 0.07032263 -0.05253892 0.079895794 -0.042170614 0.07290321 -0.056180213 -0.1264013 0.10436914 -0.024457758 0.057636082 -0.14446771 0.010199776 -0.029983612 -0.052546814 0.22968182 0.053130243 -0.08323052 0.05743058 -0.018968977 0.0023405268 0.08535258 0.016619008 0.0360296 0.061549507 0.041918747 -0.09977689 -0.067611024 0.08589343 0.05113912 0.12164955 0.0031926467 -0.07706909 -0.08419563 0.07597506 -0.032651644 -0.05123008 -0.039239846
odd.a.01 0.003386573 0.07134817 -0.09298688 0.028351642 -0.045709085 -0.071790546 -0.07643972 -0.13020992 -0.115186445 -0.11058268 -0.074531004 -0.03760571 0.13231216 -0.02691166 -0.019344937 -0.073084444 0.03590656 0.05301033 -0.030280713 -0.034402557 -0.061261017 -0.012125625 0.11603132 0.060375378 -0.023412623 -0.06716087 0.082742795 0.03988922 0.015808988 -0.048449237 0.08654315 -0.03986962 0.07491782 0.028337782 0.13143903 -0.0037173613 -0.056342676 -0.13334653 -0.13899736 0.00023835698 -0.0076990207 -0.10833613 0.08369505 -0.15824524 -0.059507646 -0.04967045 0.049218938 0.02497538 0.014543779 0.06695407 0.10203643 -0.08209299 0.074719094 0.057962604 0.009551806 0.086524576 -0.18940507 0.05784551 -0.03037971 0.013270841 -0.06338241 0.05168209 -0.13468558 -0.086960964 0.0129114315 0.038172595 -0.016887613 -0.006897189 -0.0013849854 0.014897209 0.002455834 -0.04615823 -0.027821071 0.044540092 -0.029291753 0.050222788 -0.07916678 -0.07015558 0.08509943 0.1412654 -0.06354811 -0.14376454 -0.08997857 -0.042494416 0.07984973 -0.072009705 -0.047291562 -0.010163597 0.10158396 0.0027623088 0.046461575 0.07307947 -0.0067532826 -0.014430469 0.08138163 0.19438966 0.024096811 -0.0032274101 0.0076380703 -0.041491892 0.05764717 -0.07973106 -0.031906653 -0.093228914 0.076621205 0.0760316 0.013916167 -0.029690094 -0.041519474 -0.08427464 0.051520854 0.028661378 -0.014759697 -0.010030184 0.09802642 0.029217852 0.061963916 -0.00980418 0.09567396 -0.03764513 -0.033180036 1.5963878e-05 0.07755579 -0.011059389 0.011865568 -0.050810613 0.08465869 -0.17974824 0.048678648 0.029615544 0.026655428 -0.037708607 -0.046725992 -0.027612107 0.08807176 -0.06196235 0.1580547 -0.073363215 -0.014575631 0.15044114 0.15288031 -0.12705578 0.0017580538 -0.12163622 -0.11010058 0.0517463 0.046279952 0.02212728 -0.022695582 -0.08442481 -0.024792975 -0.0038144835 -0.1914702 0.052519023 -0.012843894 -0.049493093 -0.108361244 0.11212671 -0.053757906 -0.0010630295 0.06442811 0.037343286 0.15459071 0.051299058 0.037064776 -0.022593042 0.11081806 0.10186893 0.055564363 0.045866583 -0.065349974 -0.07752488 -0.0045970543 0.013647026 -0.0956914 -0.0036451365 0.012456572 -0.060438372 0.093064845 0.03301107 -0.01322751 -0.021974036 0.108974285 -0.015343091 -0.067898735 0.037728153 -0.12555775 -0.038820565 0.19710788 -0.05816869 0.051379185 0.064840615 -0.025852533 -0.0032523044 0.007426353 -0.06961988 -0.07761309 0.01276971 -0.08833808 0.11018178 -0.020366998 0.020637756 0.004473853 -0.0131688565 0.021709947 0.009088249 -0.12886737 0.14679386 -0.033272523 -0.018027276 -0.11006029 -0.013276869 -0.05502635 0.0299515 0.079342246 -0.007341476 0.013739831 0.04329802 0.08206081 0.022321464 -0.009745254 -0.01097647 0.11091988 -0.019073246 0.015526284 0.04640097 0.047486488 -0.016881425 0.101463296 0.010443818 -0.08096504 -0.008139208 -0.04032971 0.14361328 0.025984375 -0.025651643 -0.017138567 0.04854835 -0.034647815 0.10292167 -0.07655092 -0.049099024 0.007706267 0.1135495 0.12921703 0.016077505 0.0065111704 -0.04322334 -0.025927791 0.06511137 0.08229326 0.049054034 0.09038867 -0.04258487 -0.09341309 0.079283744 -0.09762648 -0.0029236919 -0.04673549 0.05959124 -0.016855735 0.044961184 0.042244043 -0.0081028845 -0.067048855 0.0014432227 -0.051081486 0.010585717 -0.10602596 -0.015332747 -0.03231012 -0.02937154 -0.12871677 -0.070129715 0.027565394 -0.12489717 -0.044165835 -0.047073577 -0.09039051 0.0027954758 0.12187577 -0.066698164 -0.017490666 -0.0061527924 -0.029951582 -0.058470324 -0.060669616 0.034466956 0.12849438 0.064020745 0.13511659 -0.012189992 0.08607251 0.00238451 -0.09294911 -0.0047080982 -0.18085125 0.025899516 0.10554634 0.12637801
impermanent.a.01 -0.09059371 -0.043329347 -0.069821775 -0.109289296 0.13789375 -0.07301969 -0.13081653 -0.09675357 0.029393863 -0.021019151 -0.057891488 0.07336755 -0.09501982 0.033381943 0.13851508 -0.012302313 -0.019353691 -0.016829029 0.018695444 -0.04838916 -0.01727548 0.05210575 0.12120618 0.08955702 -0.043759216 -0.11101372 -0.06705745 -0.064474836 0.010613458 0.0148652 -0.07458245 -0.047175948 -0.021693245 0.07049641 -0.14664748 -0.044144552 -0.021127453 -0.07750298 0.07594789 0.13571301 0.04980822 0.021577932 -0.012694309 -0.14255011 -0.12335745 -0.10454641 0.067072526 0.17334324 0.012473956 -0.031004677 -0.016537638 0.0124149695 0.26312447 -0.060259983 0.03848076 -0.07077275 -0.023835031 0.020387428 -0.02718703 -0.15328072 -0.035565276 -0.006944045 -0.03958204 -0.12731704 0.09220754 -0.023036031 -0.017544923 0.051591977 0.08689441 0.04581645 -0.025464408 -0.046821848 -0.05482302 -0.12107918 -0.015742283 -0.078667 -0.03955846 0.024824157 0.15611959 0.0970077 -0.061166964 -0.023807114 0.007607635 0.18026622 -0.13062 -0.01969012 -0.19025773 0.054291856 -0.07270144 -0.10533005 0.19094764 -0.09476795 0.11728867 -0.16812146 0.008361169 0.18946575 0.054449372 0.1255463 -0.05434674 -0.118516944 -0.13023321 -0.030196046 0.009099061 0.04802343 -0.010296593 -0.06547934 -0.020716624 -0.06753361 -0.06988984 0.03925334 0.1561126 -0.1322327 0.17511913 0.009126771 0.0060199397 -0.121657394 0.10265113 -0.0013563253 0.060672484 -0.008820488 -0.11698497 -0.06178948 -0.10456206 0.032281477 0.12674367 -0.08115379 -0.05375097 0.012397177 -0.05468685 -0.005983751 -0.011823185 -0.13093922 0.021229874 0.04325303 0.079688445 0.05362837 -0.11616147 0.047665637 -0.19520393 0.060780026 -0.044100333 0.032573078 -0.1843664 0.03799891 0.01709499 -0.1319609 -0.089975946 0.011635084 -0.069989 -0.021600135 -0.07952723 0.103360474 -0.04557244 0.07679463 0.13987112 -0.038772874 -0.12409113 0.08761477 0.030644085 -0.004016805 0.048612185 0.008183789 -0.05100472 -0.10717009 0.09929319 0.17882712 0.09504046 0.040700343 0.07573929 -0.020163532 -0.105314046 0.013869272 -0.11786721 0.11433848 0.059127327 -0.09196997 0.085706346 0.083253786 -0.15850665 0.06683368 -0.014239321 0.025366003 0.027693825 -0.15917835 0.0011037337 -0.09323426 0.10103958 0.021530751 -0.09734744 0.12152939 0.094686516 0.016831057 0.0955757 0.06284425 -0.059029244 -0.0046294197 -0.09710037 -0.06498266 0.09063674 0.07452388 0.08721535 0.09306322 -0.100945845 0.07308295 -0.038288392 0.0071770134 0.09457073 0.19908135 -0.0026278682 -0.18570288 0.020149056 -0.050467618 0.013369659 -0.033575755 0.08784197 -0.046140283 0.10151202 0.032207783 0.0053931777 0.15384555 -0.11862072 -0.08586535 0.22046693 -0.07207011 -0.03501119 -0.16696784 -0.08101174 -0.021026509 -0.09049963 0.10681389 0.0382861 -0.08895747 -0.1166329 0.036832936 0.12874655 -0.23544204 -0.14218046 -0.15175726 -0.046779577 -0.046866484 0.1142233 -0.08885702 -0.026346488 0.018083502 0.13205378 0.048164953 -0.15506461 0.18457325 -0.08108501 -0.13178797 0.010810449 0.033931 0.02230954 0.0019323305 0.10786934 0.018365178 -0.01173325 0.07169871 0.10942886 -0.0076798773 0.17996167 0.0826746 0.05466827 0.054863494 -0.07652184 -0.0750519 0.04252332 0.06706831 0.061675012 -0.103421815 -0.077890776 -0.01753263 0.017068455 0.099131696 -0.05145272 0.06074404 -0.043976177 -0.09611897 -0.010558128 -0.05273813 0.19366077 -0.1284604 -0.08040036 0.050947715 0.05653698 0.10399085 -0.21051608 0.022621844 -0.056335118 -0.08175565 0.033060975 0.0014219722 0.075703725 0.20091495 0.092478596 -0.064549886 0.021385072 0.15656564 -0.04359044 -0.01780658
sensitive.a.02 -0.06151385 -0.06170843 -0.1812602 0.09683595 0.14064947 -0.04109701 -0.1361716 0.00019956677 -0.13070476 0.060515687 -0.029450266 -0.12709649 0.108193345 -0.1151315 -0.0025568113 -0.14837688 0.048399247 -0.05722756 -0.19122973 -0.010077277 -0.013683397 0.07373245 -0.08080883 -0.08373907 0.0849646 0.10147186 0.05271085 0.11090319 0.05832622 0.048247177 0.007347355 0.08347255 0.0191849 0.06825486 -0.061231926 0.039075024 -0.081946775 0.029965026 -0.05597971 0.011829362 -0.04804047 -0.06846223 0.0018190967 -0.11916893 -0.03425382 0.06819567 0.09873661 -0.026394466 0.084839016 0.048457388 -0.09961069 0.03289176 0.037015807 -0.08194524 -0.16100994 0.045950234 0.057243794 0.06436116 -0.046184056 -0.065213 -0.13748151 0.09465764 0.02999964 -0.031835884 0.086321235 0.028976055 0.04693393 0.0041541313 0.02733655 0.12528054 0.005070646 -0.015052407 -0.009004128 -0.036075026 -0.112245634 0.093685165 -0.00084719225 0.16563109 -0.14100963 -0.07898766 0.10681851 -0.022140803 -0.008629916 0.08462951 -0.0031383154 -0.061658435 0.10234751 0.012063476 0.09848918 0.106930815 0.055958875 0.07046522 -0.08930133 -0.024795597 -0.17113483 0.007634126 -0.09003977 -0.008757668 0.06267361 0.025512328 -0.101232775 -0.0881617 0.030254925 0.04643351 0.062776424 -0.020979233 0.14248994 0.07362471 0.015924536 0.02709772 0.009514053 -0.034144606 -0.08849235 0.052271634 0.07778383 0.0070423493 0.07127016 0.056413524 0.022385867 -0.00087522226 0.034314934 -0.084589675 0.06214978 -0.043590724 0.054913502 0.06932079 -0.010397929 0.0137584815 0.049617525 0.11792417 -0.1278606 0.078476876 -0.0064045507 -0.0039796797 -0.029648043 -0.06868343 -0.024925353 0.11185614 0.07607013 -0.07682364 0.0018934929 -0.1165553 0.06790387 0.071943775 0.09650337 0.06465964 -0.05274444 0.0082035335 0.07499868 0.044413287 0.03206728 0.07061592 -0.093532555 0.022618115 -0.010878822 -0.0485988 0.14346254 0.0047653047 0.0041428567 -0.22261782 -0.07729018 -0.07512275 0.061261583 -0.06626293 0.05079395 -0.06630874 -0.0023653994 -0.040148403 -0.17899233 0.12190813 -0.11982954 0.16840585 -0.011092087 -0.07437252 0.119093835 -0.01557009 -0.02911382 0.06944351 0.099063314 0.08818304 -0.0043847524 0.0066686026 -0.059657786 -0.016003031 -0.12350172 -0.16204824 0.08636381 -0.013716417 0.11369741 -0.054927185 -0.1048522 0.12022912 -0.035189595 -0.10827482 -0.026418796 -0.093862474 -0.10097158 -0.05310811 -0.12218052 0.11994653 0.006200316 -0.043751985 -0.007539497 0.011861514 0.033468883 0.0764844 -0.01300612 -0.041626442 -0.03310675 -0.047185224 0.033303663 0.058838096 0.10214369 -0.0054329275 0.06364822 -0.06382666 0.09620567 0.12315824 -0.14904836 -0.02397112 0.10514616 0.032610837 -0.10868426 -0.10152034 -0.06611546 -0.060662575 0.14503899 0.041923933 0.068589196 0.09201252 -5.3681484e-05 -0.0019812998 -0.056778308 -0.19905916 -0.08268966 -0.13616505 0.07626432 -0.10221029 0.062257275 -0.08786003 -0.11922328 0.16391216 0.008379955 -0.05045502 -0.020758498 0.10203008 0.065849006 -0.016334128 0.010406869 -0.07284481 -0.11783583 -0.12513709 -0.06505135 0.09937404 -0.11261954 0.07110484 0.07340111 0.117367245 0.13005035 -0.017411822 0.0008539497 0.110737905 -0.06839682 -0.0007488085 0.08326939 0.0157905 0.026062345 0.01548533 0.006714031 -0.023042617 0.013836526 -0.04967667 0.1810411 0.084778205 -0.12902743 -0.07116023 0.040533964 -0.03970501 -0.0059026643 -0.02447078 0.055743825 0.05015004 -0.09995883 0.025605658 0.019109214 -0.007298097 0.09118661 -0.042946745 0.10214978 0.038852427 0.14105873 -0.041546796 -0.01040698 0.05981538 0.1554054 -0.020781167 0.08539015 0.046577696 -0.037039947 0.0655405
fat.a.01 0.050359424 -0.016372576 -0.006117998 -0.033589236 0.015175283 -0.14124085 -0.042138852 -0.040041536 0.10228623 -0.04907955 0.12417972 -0.0874073 0.00032929148 0.044583637 -0.004201178 -0.07150201 -0.013157244 -0.10839964 -0.062033348 -0.10233103 0.072334945 -0.006013121 0.016926171 -0.051917728 -0.108040884 -0.032486342 -0.0059259217 0.18647312 0.03082215 0.048016306 0.15919125 0.014738514 0.0883011 0.010165634 0.06183755 -0.08848394 0.11903869 -0.05337049 -0.09009955 -0.012723791 -0.07096362 0.064807616 0.10870563 0.022839278 -0.028661627 0.07527066 -0.09562448 -0.015017316 0.109531805 0.070597574 -0.003083583 -0.085087456 -0.050930623 -0.09230133 -0.039943576 -0.034865417 -0.028549105 -0.013058662 -0.11407721 0.08303568 0.124896035 -0.0070586177 -0.055125788 0.0046969815 0.13860828 -0.078683555 -0.08829573 -0.0002860067 -0.14695853 0.0004592843 -0.007956289 0.056295708 0.034871444 0.037767332 0.034089774 0.023606827 -0.15319379 -0.058178045 0.07031119 -0.016578099 0.035379045 -0.019506365 -0.04897131 0.037766837 0.062835656 -0.03663079 0.087436 -0.0023084013 -0.00623904 -0.0030857653 0.06682528 0.0014113894 0.082192816 -0.059348457 0.013693809 -0.0032719844 0.0893566 0.030840578 -0.085875385 0.032343514 -0.040298287 0.09885488 0.06098968 -0.07603555 0.012360621 0.08645233 0.053953994 0.016879648 0.08246161 0.017989041 0.068962835 -0.05602226 0.059653718 0.020904139 -0.07614711 -0.08353226 0.23569527 -0.040715612 -0.0704936 -0.053187218 0.10908471 -0.076698005 0.03578427 -0.04304618 0.18606658 -0.043881975 -0.01947502 0.06397088 -0.10112029 -0.0024360619 0.06753508 0.088489145 -0.08130447 0.036900375 0.14022067 0.08243413 -0.0016958173 0.036137912 -0.05774655 -0.020947373 0.12614748 -0.007151559 -0.070139095 -0.07415839 0.10321395 0.10398042 0.048064657 -0.01621924 -0.054527484 -0.01347542 -0.08914247 0.06360195 -0.08769763 0.02770303 -0.084450774 -0.1008722 -0.13022518 -0.10544472 0.12090158 -0.015669283 0.016360013 -0.08044553 -0.1664716 -0.03822186 0.21163204 0.20078842 0.13390502 -0.027481548 -0.088408604 0.113150656 -0.03786003 -0.091373034 -0.0010610725 0.04279168 0.109744236 0.12852022 -0.010750374 -0.014570285 0.027633125 -0.06520717 -0.057907365 -0.0131863775 -0.09349745 0.04942098 0.009161632 0.061586685 -0.03281708 -0.0012162351 -0.043673303 -0.018763578 0.07963308 0.015477815 0.11465418 -0.018597888 -0.03818738 0.013957664 0.124943905 0.0067003835 -0.078313045 0.18275745 -0.008679484 -0.09570712 0.14751767 0.030656533 0.030190226 0.015429853 0.049051408 0.040666126 0.030823335 -0.0048349164 0.02896977 -0.06308569 -0.16931956 0.0763786 -0.080529116 -0.036022086 0.13140196 -0.06545806 0.0844629 -0.15236926 0.07837481 0.097475685 -0.024666293 -0.06494104 0.09166741 0.016959356 0.090247184 0.029166486 -0.029375665 0.02332955 0.08767265 0.04351951 -0.03449536 -0.083152875 -0.07062047 -0.001206272 0.0154196555 0.043604698 0.032972433 0.14542358 -0.03609811 -0.10645613 0.014598912 -0.037675798 0.012107541 0.048581745 0.043713145 -0.100079514 0.045611065 0.007241097 -0.07942959 -0.033125047 -0.018321224 0.042191964 0.021974908 0.089215145 -0.08084281 -0.036579814 0.04171892 0.1400212 0.03238479 -0.08616223 -0.08088785 -0.123755544 0.070866406 -0.16460067 0.086262755 0.044001523 -0.009535748 0.036741138 0.14446391 0.029984597 0.044242468 -0.085879706 0.045535386 -0.12837256 -0.0003579816 0.04186735 0.09008706 -0.11701647 -0.1288241 0.05542396 0.06200445 -0.03608738 -0.0161409 -0.04470615 -0.059213877 0.11741732 -0.061888274 0.08519768 0.087946385 -0.009446807 -0.027345898 -0.071597725 0.066280015 0.040042456 0.09694004 0.036983017 0.028099822 -0.088487655
outer.a.01 0.08655809 0.03111956 -0.0016622291 -0.09253104 0.054486733 0.042432457 0.054926626 -0.015385899 -0.031865995 -0.09086635 -0.028019791 -0.04105064 -0.08044236 0.018167997 0.048067383 0.012975534 -0.014920303 0.025624515 -0.046730082 0.03552269 -0.023510708 -0.020612612 -0.05439269 0.057965364 0.005630112 -0.055089306 -0.0032975855 -0.058647536 0.07276749 0.000441037 -0.1187989 -0.10317996 0.023051636 -0.011419965 0.0054266686 -0.064371035 -0.0010406751 0.045439444 0.010406906 -0.0013591895 -0.004663017 -0.040542368 0.06333408 -0.017852569 0.05680123 -0.048317157 0.059163652 -0.039052397 0.031198015 -0.002208052 0.07282402 -0.036674395 0.11093885 0.027856393 0.05802985 -0.023064587 0.028576134 0.006646713 0.0024792254 -0.10144842 0.08050403 0.08347572 -0.007613845 -0.015319808 -0.06158397 -0.00972656 0.014626595 0.075758524 0.016718782 0.031166393 0.049334086 0.08390179 0.01567266 0.08649039 -0.117544375 0.06416347 -0.03632857 -0.03380711 0.076794036 -0.078284085 -0.12382128 -0.046591654 -0.032831535 0.13171329 -0.061475385 -0.028312122 0.024458798 -0.07101431 -0.1222124 -0.1093756 0.09250951 -0.04172674 -0.055016134 -0.034872066 -0.11768249 -0.04204257 0.027353216 -0.039669886 -0.033576842 0.029294947 -0.05872339 -0.031658657 0.12569869 0.025260191 -0.0020224622 -0.005394383 0.010365761 -0.046487786 0.020904388 -0.04449873 -0.034641124 -0.06833517 0.079811305 -0.0033975581 -0.07283842 -0.03686629 -0.05429294 0.034945305 -0.13987233 -0.0753245 0.0023009593 0.15676618 0.13772197 -0.09833061 -0.06549286 0.040439673 0.01915539 -0.044601787 0.013444713 0.020360455 0.060041443 0.041580807 -0.08312344 -0.07803659 0.15970987 -0.08380065 0.024629412 0.00018825363 -0.0180341 0.08309966 0.01840695 0.016792314 -0.07738894 -0.043055482 -0.050230667 -0.0122146895 0.07598866 0.024376037 0.07761454 0.07279476 0.0941693 -0.031674378 -0.07741787 -0.053235196 -0.0852125 -0.12105859 -0.07506418 0.18550275 0.13422951 -0.08487426 0.026684912 -0.009487346 -0.04032917 -0.023314241 0.079758696 -0.038983934 -0.047429062 -0.012974641 -0.07120691 -0.034613945 0.119194604 -0.032990944 0.09391228 -0.0889371 0.06791751 0.076626495 0.016886713 -0.02873598 0.13628626 0.027873049 -0.115724444 -0.12597243 0.014041664 0.051628143 0.010671224 0.02714086 0.07997239 -0.051357564 -0.035081584 -0.06973912 0.07131088 -0.029123265 -0.04726543 -0.009831481 0.034915015 -0.060324553 0.02423194 -0.025917174 0.0010444124 -0.12847646 -0.16739602 0.024425726 -0.03957205 -0.017717263 0.04172038 0.03279827 -0.05255537 -0.05018757 -0.041550316 -0.035817087 -0.008483579 0.15435605 -0.033044845 0.00089365564 0.0042084213 0.028219497 -0.0616685 0.13289785 0.026401129 0.039392266 0.15597753 -0.08929182 0.0715365 -0.06369936 -0.04243313 0.13098869 -0.07839978 -0.056786746 0.044837896 -0.0059306244 0.06921708 -0.018607438 -0.055305038 0.16964036 -0.08256454 -0.09638413 -0.008254672 0.03545472 0.11001174 0.1230271 0.023612803 -0.03645354 0.015278227 -0.030440127 0.041990057 0.12906492 -0.0230047 0.15867917 0.06957357 0.09325852 -0.0464801 -0.019177457 -0.0033996552 -0.069208175 0.103600964 -0.074059255 -0.0426747 -0.042590488 0.07195137 -0.052007947 -0.069811955 -0.13409062 -0.015491968 -0.047050368 -0.053901754 0.016547186 0.0299727 0.048545863 -0.047069397 -0.06268521 0.079158 -0.18173343 0.22893812 -0.0018589062 0.005582823 0.050948534 0.032526795 -0.0069585308 -0.111158475 0.07043188 -0.0049541243 0.078643575 -0.08622574 0.1610963 0.060649123 0.10778224 0.15010256 0.07859854 0.0837266 -0.039409105 -0.10192195 0.09500029 -0.012501603 0.046089757 0.11059371 -0.04966145 -0.052075334 -0.0068051494 0.10391561 0.064281896
plain.a.02 -0.16232635 -0.006680914 -0.06051925 0.05001251 -0.12079633 -0.085766785 -0.22210132 0.009804479 -0.008936943 -0.038454864 -0.0026404574 0.040817343 -0.01820596 -0.14416151 -0.035052933 -0.04221961 0.033810597 -0.19779663 0.15321851 -0.06398358 -0.081721805 0.017010296 0.13571891 -0.12758529 0.18621495 -0.009367022 0.060913097 0.062248893 -0.022575947 0.089495294 -0.038335223 -0.0027770197 -0.0126112355 0.081714675 -0.0023965256 0.010753388 -0.08642095 0.10258989 0.056498166 0.021702899 0.12766749 -0.074378885 -0.046100162 0.06952971 0.10704954 -0.13738008 0.12133048 0.01264357 -0.029176584 0.04292266 -0.09853845 0.005566477 0.052954443 -0.10022521 0.0423926 -0.16976307 -0.10589922 -0.032833233 -0.14657973 0.050690673 -0.02694026 0.051271934 0.020068398 0.021519462 0.046678513 0.107732244 -0.037296694 -0.01404513 -0.033508122 0.0863906 0.017859073 -0.075426295 0.007727906 0.039873615 -0.040794663 -0.012032393 0.029659534 -0.026092459 0.05226909 0.11281284 -0.026483068 -0.057319913 0.018813735 0.12200269 -0.012521982 0.06483611 0.055659257 -0.011348616 -0.108064815 0.025072584 0.0679732 0.0486105 0.08231453 -0.17171527 -0.011370253 0.047129426 0.046638217 0.12324133 -0.07501991 0.018467229 -0.101050906 -0.04395594 0.017225543 0.055156104 0.09316116 0.03661755 -0.015518864 -0.09726283 0.13985708 0.0051624733 0.08074417 -0.07767208 0.045956146 0.051362857 -0.042370412 0.06828758 -0.008792596 0.087585606 0.0883673 -0.054104757 -0.00088616204 0.019164005 -0.028316706 0.0128219295 0.0110106375 0.075975 0.013577877 0.04805185 0.10812144 0.07032851 -0.0050043175 0.098847285 0.034111656 -0.018195892 0.008237274 -0.047644835 0.01354095 0.119959116 0.16748114 0.0464575 0.027658325 -0.038369242 -0.03665872 -0.05997481 0.035694152 -0.049377967 0.08896073 0.108105965 -0.0018803114 -0.021702977 -0.09183055 0.014461395 -0.0112264985 0.0486973 0.12724759 0.044677846 -0.052834876 -0.07401796 0.09545387 -0.05568756 -0.14322995 -0.038517624 0.10594053 0.02406274 0.09540722 -0.034270447 0.011414047 0.012244683 0.0048070066 -0.08042161 0.099659 -0.11788675 0.05995953 0.013980664 0.11288197 -0.04975553 -0.16926442 0.10818114 0.057467394 -0.005963094 -0.11303705 -0.061486933 0.062849425 0.036129408 -0.060791466 0.017395772 0.037086856 0.19243997 -0.029843392 -0.12552932 -0.07933466 0.04118185 -0.07590648 0.06351075 0.02173187 -0.0007798461 -0.048301283 -0.047115747 -0.06636112 -0.00769129 0.10306036 -0.06263989 -0.0009919663 -0.010426399 -0.058140542 0.15367258 0.044645466 -0.11310481 0.10224443 -0.086014085 -0.12479327 0.1432418 0.062135767 -0.10461133 0.083980374 -0.11061234 -0.012050667 0.12843004 -0.2052446 -0.024539413 0.050199773 0.10348851 -0.07124088 -0.021297684 -0.013949931 -0.14031063 0.20848547 0.18668742 0.02763532 -0.11281271 0.021552727 0.010241469 -0.031541325 0.0072599305 0.02756629 -0.06151448 -0.037787486 0.08103339 0.074132994 0.08051662 -0.088893324 -0.044455633 -0.008532777 0.052063476 -0.110440925 0.10150075 -0.072274074 0.07292004 0.13561097 -0.009722535 -0.03411122 -0.04824924 -0.11720194 0.028455352 -0.08983909 -0.0040477817 0.024066461 -0.003363682 0.035713542 -0.106605954 0.103839114 -0.036139436 0.13112137 -0.03356643 0.0007446801 -0.06324752 -0.030258678 0.050178323 0.028422339 -0.069045536 0.04589926 0.06121656 -0.03492781 0.006590721 -0.09392632 0.025822146 -0.016403316 0.08258455 -0.12518868 -0.1287305 -0.017067973 0.09552557 -0.08468765 0.044997115 0.02460307 -0.015468141 0.08507315 0.056080814 0.05999069 0.02233177 -0.023222249 0.14325248 0.080154486 0.07433085 -0.041003242 0.027443307 0.10919861 -0.16820234 0.08136595 -0.062272824
structural.a.02 0.0867112 0.10982753 -0.17942648 -0.21036534 0.120236404 -0.14205049 -0.02105195 0.014311159 -0.0042724493 -0.05345464 -0.19584103 -0.110148646 0.058963433 0.013262412 0.10858694 0.17904839 0.01369966 0.10570466 -0.076175734 -0.014504203 -0.047780547 -0.18876687 -0.045553666 -0.05321104 -0.06320863 -0.040551294 0.0108343465 -0.004077143 -0.07966268 0.1192903 -0.03184825 0.04045797 0.062694244 0.07173858 -0.068575144 0.0018601831 -0.01966614 0.07597571 -0.0005005378 0.031020539 -0.13326754 -0.1614932 -0.028828325 -0.13000706 0.09484711 -0.04150741 0.072738506 0.010285034 0.007868291 -0.14116184 0.026316706 -0.056852225 0.067622535 -0.025943886 0.117793605 0.021882407 0.06659911 -0.05940235 0.03279609 0.08048523 0.05486955 -0.031913433 -0.048816748 -0.0057196426 -0.04063684 -0.08676848 -0.007799549 -0.09941335 0.012286884 -0.09658751 -0.012138907 -0.0063451882 0.04288167 -0.0076913773 -0.14459176 0.10427262 0.004839754 0.023640024 -0.17149583 0.1042265 0.0057439352 0.040782228 0.0020101278 -0.116857566 -0.05541387 -0.02931577 -0.013916684 -0.017077314 0.07694018 0.17724575 0.0140185105 -0.03049881 -0.18006995 -0.047344312 0.16574493 -0.18202516 -0.113790125 -0.0042666993 0.017023891 -0.061658334 -0.005067109 -0.08713838 -0.03441341 -0.0012178934 0.092778936 0.0045774793 -0.059124585 -0.13179219 0.036475178 -0.014248192 -0.019172225 0.08288109 0.1789639 -0.066253185 -0.14384745 0.10373433 -0.15900162 -0.1584152 -0.08593814 0.006211966 0.08835675 0.13413738 -0.018761082 -0.08787273 0.0109884115 -0.0061252667 -0.04015714 0.020805856 -0.0507848 -0.019376496 -0.044342536 -0.07082005 -0.015506491 -0.1119429 0.014804167 -0.0040189903 -0.009057551 -0.041087117 0.021238972 -0.035567343 0.0591224 0.12171956 0.012083118 -0.086409114 0.132101 -0.11666658 0.043088112 0.014803864 -0.118353136 0.014357641 0.06784676 -0.013820554 -0.09792207 0.010629178 0.026473159 0.008105716 -0.14387085 0.005949268 0.0049434234 -0.014129753 -0.023517072 -0.046259765 -0.021020709 0.13317944 -0.029200751 -0.09820796 -0.036652323 -0.057984132 0.1055683 0.021430168 0.14533289 0.16871007 -0.033291247 -0.03767225 -0.008375992 -0.034528356 -0.05984599 -0.13973582 -0.048567373 -0.13856179 0.11012718 -0.11807366 0.016090961 0.1735838 0.06729591 0.06666394 -0.04353476 0.043005873 0.011088908 -0.03638257 -0.021122368 -0.071937226 0.18620151 -0.021955818 0.08241918 0.060214095 0.13001873 -0.07449598 -0.09813343 -0.0050016725 -0.045874428 -0.04681976 -0.004412522 0.068905964 0.15397173 -0.02574735 -0.08628101 0.045395844 0.10068895 0.03709932 -0.005034267 0.039975777 -0.059519183 -0.15033056 0.16888052 -0.09941448 -0.15667954 0.026584284 0.08236392 -0.082823366 0.002259267 0.02092892 -0.03250961 0.090866834 0.068401486 0.11599412 0.025343282 0.08125692 0.14864647 0.14680845 -0.049706925 0.18090561 0.0021916714 -0.1434302 -0.22317442 -0.12541951 -0.01593187 0.0530736 -0.0963617 -0.0969809 0.06388996 -0.027126675 -0.070297495 0.011515029 -0.02332501 -0.03157628 0.099240564 -0.20886523 0.02059979 0.13056849 0.012575615 0.093586035 0.08512818 -0.13962951 -0.12695679 0.21382853 0.077718414 -0.06343837 -0.11821156 -0.10742345 -0.022729486 0.0006688029 -0.17492288 -0.013908395 -0.019722618 -0.043421715 -0.044996366 0.06354403 -0.010175536 0.07930609 0.04581608 -0.07049804 0.15112261 0.026015561 -0.08309107 -0.17088895 0.13092053 -0.0007919957 -0.062993504 0.033483632 0.027610702 0.048625972 0.019050984 0.011743445 -0.12208379 -0.027162002 -0.12159269 0.118329026 0.02282388 0.012206147 0.04983658 -0.05568168 -0.019950137 0.08055326 -0.06523758 -0.08334064 -0.0066093947 -0.121156275 -0.116288066 -0.081081584
objective.a.01 -0.07098464 0.015090421 0.06594623 -0.046580784 0.015520846 0.028712114 -0.03443219 -0.103619464 0.115906306 0.18681729 -0.060639277 -0.04219633 0.10156245 -0.068047635 0.053493965 -0.15866448 0.101522654 -0.043642767 -0.0514746 0.15675603 -0.10054653 0.040656377 -0.010133431 0.0002056522 0.079258226 -0.029870687 0.10132575 0.11900372 0.14675713 0.19094895 0.19064237 0.14378922 -0.20564364 0.04072711 0.039649025 -0.2327851 -0.036588233 -0.108328916 0.12160073 0.14959982 0.040624287 0.14757544 -0.18951891 -0.044154916 0.03853758 0.008807569 0.09334011 0.058122367 0.075711355 0.015285637 -0.22331505 -0.039737448 0.0742681 -0.017952353 -0.18920062 -0.10031895 0.13274956 -0.047744237 0.0015855953 0.014125741 -0.022109164 -0.039697252 0.005331429 -0.0563881 -0.10024232 0.04488525 0.17772278 -0.12787434 0.14271952 0.06241562 0.13996555 0.03582793 0.03883224 0.007369852 -0.14825793 0.029271374 -0.031384736 -0.12887812 0.109420106 0.0018062065 0.0058401506 0.02504293 0.17410561 0.015813272 0.018806195 -0.17795342 -0.112766385 -0.109512515 0.024027778 -0.06585912 -0.037608936 -0.055790555 -0.0020301484 -0.07515222 -0.15633656 -0.012393833 0.053195544 0.063286334 -0.24348602 -0.028959386 -0.16525227 0.0144522255 -0.0043282714 -0.05795571 0.16575049 0.012767224 0.06035478 -0.040889736 0.12860191 -0.014674447 -0.0354507 -0.040887494 -0.004398252 -0.07624072 -0.084181085 0.053775176 -0.12541859 0.015823672 -0.024231976 -0.009869221 -0.04475153 -0.008085255 -0.16953407 -0.0077256667 -0.14230941 -0.12853113 0.07669577 -0.12774426 0.007112141 -0.21043706 -0.039483663 0.09725008 -0.045798723 -0.040165626 -0.054211646 -0.056728207 -0.12133521 -0.08297771 0.21771276 0.0027647906 0.008670554 -0.00072510063 0.12975611 -0.051125206 -0.04696111 0.06502754 -0.06417323 0.12452061 -0.017318686 0.045570068 -0.028652664 0.22404453 -0.02904062 0.09432612 -0.032045025 -0.22079995 -0.13802476 -0.04206967 -0.090312205 -0.099047065 0.13833967 0.14799312 0.08078224 0.13307273 0.080576025 0.04889226 -0.0269279 0.16659868 -0.04844221 0.06212291 0.13853951 0.013069034 -0.11000999 -0.02172753 -0.049332205 0.016949002 0.028138883 -0.010304686 0.030649722 0.17772442 0.017872283 0.06609469 0.07359013 0.0506634 -0.045234956 -0.10789697 -0.0058464776 -0.11970591 -0.06108972 0.19318028 -0.071486264 0.07204638 -0.20848295 -0.11035749 -0.002143959 -0.09865789 0.016099354 -0.11515074 -0.008160418 -0.07392265 -0.047863398 0.07253285 0.047875308 -0.0024244383 -0.19257452 -0.08040654 -0.23231941 0.046154175 -0.19848306 0.08149709 -0.04030884 0.15153742 -0.16151662 0.09940007 0.03381074 0.018401742 0.17215422 -0.037800126 -0.11036699 0.05391292 -0.04396147 -0.014491005 -0.141392 0.19437973 -0.058116466 0.16094646 -0.14683795 -0.031072835 -0.0024836408 -0.021377878 -0.0034375405 -0.017361911 -0.05112568 0.097953364 0.11203213 -0.046481244 -0.15199898 -0.010420541 0.16349652 -0.060990468 -0.19249682 0.08014624 0.14940089 0.018826779 0.09444184 0.045184873 -0.10383992 0.086319365 0.16827866 -0.12776694 -0.16926388 -0.0838122 0.031945787 -0.02325337 -0.24573399 -0.020660935 -0.048261046 0.09239972 -0.09618344 0.20042874 0.045517955 0.12571886 -0.013664323 -0.17077468 0.03407825 0.12771103 -0.024345402 -0.08585618 -0.0557152 -0.1616327 0.049778488 0.00618836 -0.09342237 0.12624586 -0.1736453 0.04471274 -0.01785946 0.1263576 -0.1486516 -0.06326604 -0.19166851 0.08377583 -0.011998936 -0.046335477 0.098060064 0.0485032 0.14135644 0.10658622 0.041636884 -0.051627852 0.032482766 0.050407235 0.11993645 0.15266815 -0.087923676 0.08575508 -0.022549756 -0.0009032505 0.22182459 0.10292143
ambitious.a.01 0.010530291 0.063584566 0.008599674 -0.045578122 -0.05750763 0.052155126 0.09671747 0.088251784 0.050061397 -0.13976124 -0.08173148 0.09565556 0.011019664 0.017913623 -0.059660487 0.20528615 0.0526967 0.05790998 -0.012424711 -0.072367676 0.0011707783 0.0028563968 0.0005135638 0.14103518 0.14132491 -0.05503999 0.14669694 0.20336546 -0.114254184 -0.0586276 0.07607025 -0.039216135 0.01564078 0.13888122 -0.030264998 0.06161013 -0.08721428 -0.09869191 -0.053248737 -0.0052979616 0.036900382 -0.03971394 0.043329865 0.066835955 0.091972366 -0.14250666 0.010804673 0.111097455 -0.14706527 -0.028725386 -0.030561466 -0.10455062 -0.059001 0.00034633928 -0.06045924 0.08036447 -0.11342697 0.025105752 -0.04905072 -0.03937993 -0.1413424 0.018863592 -0.095773384 -0.14215936 -0.06053521 0.01255912 -0.06882841 0.0744513 0.004811522 0.17913663 -0.00010587445 0.12447942 0.08939537 0.10589673 -0.11299795 0.11536598 -0.06560796 0.11664893 0.124541 0.049563576 0.018339982 0.029756872 -0.09138562 0.0021139914 0.02767652 0.014005136 -0.1471486 -0.09334776 0.060525574 0.0541359 0.1685606 0.054230135 0.17305206 0.005321808 0.0050205886 -0.11624544 -0.011729484 -0.102760375 0.06422411 -0.15280338 -0.05575621 0.112389356 0.05281675 -0.10237879 -0.0010439701 -0.05661783 0.17544611 -0.03514914 0.092426874 -0.16938035 0.004864504 -0.032592848 -0.034677785 0.035214603 -0.0030993158 -0.06146678 -0.081260115 0.12034414 0.0056917714 0.05514898 0.036559246 0.04338873 -0.048762947 -0.08351987 0.12719932 -0.16734329 0.07821253 -0.053912543 0.016735798 0.03151466 0.022034174 0.048618905 -0.009810584 -0.00715251 0.04983843 0.0644596 -0.016411552 0.07416341 0.063862 -0.021741098 0.015744505 -0.11871254 0.13258521 -0.009459669 -0.16308828 -0.099667996 -0.11638125 0.013777763 -0.19499613 -0.03680774 -0.14322713 0.012254098 -0.11475288 -0.027703095 -0.054207377 0.04176685 0.13051806 0.11197049 0.07651256 -0.10648922 -0.00025810272 -0.11721415 0.01668234 -0.06928437 0.060149264 0.040695164 -0.0032581172 -0.057910245 -0.10016274 -0.051866733 -0.090910606 -0.20007262 0.07763776 -0.01242262 0.014359223 0.1679232 0.111833476 -0.014247135 -0.09042723 0.021781713 0.026920779 -0.14739475 -0.033083357 0.010328299 0.048345964 0.040874597 -0.057333898 0.011507962 0.071616344 -0.19123542 0.19922496 0.09991718 -0.14874156 0.18854743 -0.011049252 0.028195905 0.08863932 -0.05260375 -0.005267079 0.028662527 -0.10752104 -0.02413495 0.020513933 -0.05908723 0.00076855597 -0.014579089 -0.01908526 0.1528163 0.05077137 -0.023111427 0.06553579 -0.023973478 0.036146715 -0.011940512 0.006017541 0.106248245 -0.061837688 -0.090240195 -0.004945006 0.023804542 0.04138969 -0.051367905 0.03672555 0.09837754 -0.043296408 0.09999223 -0.18285863 0.058564596 -0.011735194 0.050287783 0.12070485 0.034984622 -0.08728304 -0.05896111 -0.045798264 0.013628538 0.056148686 -0.036768753 0.07349833 0.06808541 0.039735407 0.054126978 -0.049938753 0.079868846 0.07820118 -0.00066113175 -0.013017122 0.16767995 0.02687241 -0.12129994 -0.063820444 -0.045780614 0.092857234 0.042956796 -0.08410361 0.031820282 0.08736208 -0.1560791 0.17111334 -0.093528286 -0.06463019 -0.06998866 0.0014865347 -0.012796445 0.02276146 0.007550228 -0.0050319866 -0.03774856 -0.014199363 -0.12881239 -0.09949367 -0.02748692 0.11499517 -0.010019613 -0.11714636 0.07991911 -0.005221149 -0.026211498 -0.009454615 -0.054716427 -0.0733588 -0.012892171 -0.033178344 0.04151103 -0.015576034 0.011260619 0.03497054 -0.17449264 0.14747845 0.06968473 -0.018566199 -0.021695018 0.080286406 0.026929406 -0.10943969 0.17571451 -0.025409995 -0.10008957 0.043687347 -0.123460054
mobile.a.02 -0.049681887 -0.04562369 0.109694086 -0.0669907 0.015281454 0.041793782 0.03293998 -0.18040748 -0.1839399 0.01557725 0.003973343 -0.032076366 -0.010062484 -0.04652557 0.0856471 -0.05731355 0.12738945 -0.07588871 -0.0010491527 -0.032730058 -0.0608994 0.041181017 -0.082859635 0.06393123 0.0013952014 0.0048902924 0.06467607 -0.06442063 0.049406007 0.13265812 -0.08239647 -0.013095308 0.065147676 -0.06533693 -0.0076162126 -0.059175003 0.06561326 -0.034813493 0.017483026 -0.013581266 0.01886499 0.0938198 0.06053359 0.044993788 -0.0025739712 0.047515057 0.045104362 0.18145004 -0.1029357 0.0745624 0.037021708 -0.09696815 0.02099152 -0.043822132 -0.055143427 -0.027937595 -0.07910601 0.0010033075 -0.011865701 -0.07162996 0.17332177 0.011265367 0.102468856 0.07354782 -0.094732046 -0.07754326 0.096714 0.063304625 -0.004105995 -0.018469997 0.031133456 -0.09498716 0.07060411 -0.030571012 0.02340476 0.05394472 0.10329794 -0.04262934 -0.026122265 0.06847989 -0.09351574 0.031454924 0.025515847 -0.051913127 -0.03442937 -0.031624656 0.015474067 -0.013870834 0.017908338 -0.051228076 0.058979582 0.043343086 -0.013096441 0.034032606 0.053578146 -0.029890422 0.055178586 0.045221575 -0.11175141 0.02369618 -0.049884744 -0.08023603 -0.012756245 -0.034734536 -0.016368525 0.19605288 0.02181185 -0.058427628 0.11842241 -0.12189355 -0.02963755 0.09671915 0.10015253 -0.122443445 0.06857341 -0.053634845 -0.058583505 0.0011142232 -0.035560086 -0.0035448156 -0.11170551 0.101486675 -0.059308868 0.022347381 0.10494899 -0.08970479 -0.04561318 -0.020620016 -0.03930606 -0.03288765 -0.18740958 0.027060024 -0.09413529 0.06357528 0.030461447 -0.1374874 0.01735971 0.17707783 -0.046195313 0.15429907 0.012981059 0.0069926935 -0.060935397 0.032046694 -0.12182004 -0.07119778 0.050185177 0.03410968 0.023398202 0.037814323 -0.057229385 0.041605625 0.011292933 -0.024497299 0.054432392 0.15178452 -0.048985757 0.15613388 0.08541976 0.02553215 0.029400567 -0.017445017 0.027631205 0.04707069 -0.09728916 -0.03265195 -0.15950501 -0.0711309 -0.124945164 0.15426123 0.018628698 0.066315144 0.050610464 0.062366515 -0.0036438874 -0.109708354 0.08897592 0.031917915 -0.025724756 0.06308619 0.06604196 0.06570065 -0.02008939 0.12324504 -0.038132627 -0.059457585 -0.037333325 0.12838043 0.10858803 -0.13459884 -0.09967397 0.013250518 -0.06812468 0.018002227 0.09732557 0.039080676 0.022685839 0.10363535 0.025690004 -0.008017279 -0.0129043115 -0.07755975 -0.10133225 0.11529133 -0.02817247 0.02379071 -0.1619208 -0.04833136 -0.04721604 0.018300923 -0.060706407 0.06586938 -0.024287648 -0.031369686 0.06624016 0.08366924 -0.070893615 -0.07297359 0.090806074 0.037576266 -0.057795394 0.00868359 0.10236883 0.088884965 0.02756968 -0.0771872 -0.03287287 0.057292677 0.0150309615 -0.020052811 0.015572832 -0.06004647 0.1994876 0.07213066 -0.039509915 0.081318915 -0.061633583 -0.019431056 -0.040789273 0.08801617 0.03517313 0.05470758 0.08761755 -0.053523913 0.010953321 0.12451388 -0.026951123 0.06488846 0.052854825 0.114976466 -0.06491943 -0.12846528 -0.021098103 0.048825018 0.06348923 -0.13939142 0.044482417 -0.058144126 0.07255042 -0.19006181 0.15877865 -0.0445177 0.0056801336 0.038881253 0.050644662 0.046021372 0.017923009 -0.10061221 -0.06165768 -0.06782829 0.026417028 0.052188322 0.010463299 -0.09092234 -0.12643784 -0.05336804 -0.08058197 0.11152151 -0.001868678 -0.06723866 0.00032143807 -0.108326174 0.05275489 -0.096224755 0.05526774 0.05061675 0.12789664 -0.040715415 -0.0601431 -0.0015297876 0.10492064 -0.05411826 0.0039364034 0.13314204 -0.02295106 -0.0038866615 0.052407023 -0.03821151 -0.04577425 0.10691946
ethical.a.02 0.13212231 -0.046147365 0.05411126 0.06617692 0.0877194 -0.14243892 0.039391406 -0.014798539 0.09590002 -0.0005077934 0.09646995 0.10952689 0.09470596 -0.10144196 0.08602064 0.027823705 0.0189106 -0.05108885 -0.14856859 0.046811875 0.22903855 -0.033811808 -0.02099313 0.160498 -0.13264614 0.10890553 0.25561354 0.002845422 0.07245353 -0.05361434 -0.059293408 0.05304175 0.041126784 -0.03300897 0.037349764 0.15277424 -0.24492243 -0.08147271 -0.021728918 0.074487224 -0.10162014 0.076319054 -0.09837575 -0.12641874 -0.120329455 0.05135058 -0.17844427 -0.19129628 -0.05030167 -0.07670894 -0.21458142 0.15833141 0.08176143 0.11306214 -0.009565017 -0.02785916 0.05788817 -0.10798407 -0.108460665 -0.036096536 0.090632014 0.046850737 -0.063297875 0.009482606 -0.07768051 0.12309057 -0.08590344 0.04633677 0.053887777 0.021388711 0.080132075 0.1417094 0.07279551 -0.047942057 -0.16775021 -0.10730771 0.111100785 -0.18479073 0.05015392 -0.1436274 0.03824208 0.0439787 -0.19488001 -0.10190458 -0.033182066 0.008941942 -0.052916665 0.009370769 -0.06936616 -0.060100492 -0.00024978965 0.030483916 -0.011136468 -0.04296508 -0.01893325 0.034413215 -0.021205485 -0.07211219 -0.17779367 -0.1780622 0.087444656 -0.0050246194 0.12745313 -0.039015733 0.23133647 0.024576664 0.12229341 0.13459411 -0.010853528 0.114516 0.04381279 0.048510246 0.025997007 0.08134442 0.078051835 -0.1813166 0.050869167 -0.14562199 -0.02396885 -0.025206884 0.053058174 -0.16464843 -0.057746645 0.23265988 0.012027679 0.012729525 0.013539431 0.017130734 -0.22186811 -0.14642599 0.15791306 -0.022944737 -0.12562329 -0.02495214 -0.10772346 -0.10485646 0.11815594 -0.13494743 -0.19171727 -0.045689892 0.09004326 -0.024226401 0.0066839163 -0.077795185 0.026352135 0.14371426 0.067458615 0.10063415 -0.16189249 -0.17636588 -0.006137891 0.20689872 -0.050236832 -0.14261083 0.1567146 0.005421543 0.06899837 -0.051928844 0.0031685797 0.13199319 -0.11906866 0.009047308 -0.036986932 0.00904063 -0.27256197 0.026040873 -0.11389722 0.10798178 -0.051028453 -0.038542453 -0.103580475 -0.11238125 -0.09694768 -0.08456355 -0.14992544 0.0019720052 -0.016172627 0.10067945 0.098052636 0.10431371 0.081534415 0.0837665 0.10656079 0.025419546 -0.076109365 -0.08703906 0.08151997 -0.036655072 0.05505145 -0.08164127 0.16195428 0.053021006 0.00019204387 0.13630629 -0.22598112 -0.17060378 -0.045273233 -0.1846862 0.037749264 -0.074113496 -0.020527234 0.12641338 0.12891169 -0.0035732442 -0.0785488 -0.016803667 0.12642118 -0.032554157 -0.03477745 -0.10516566 0.0848396 0.1624471 0.03229296 -0.0731281 -0.21021953 0.128487 0.12174862 0.049059283 -0.020379474 0.049442515 -0.065379865 0.091708444 -0.04331903 0.09625457 -0.035399854 0.08998922 0.005573601 0.046916276 0.0730912 0.15936196 0.041450303 0.009807977 -0.06121971 0.0024252185 0.048491735 -0.11809368 0.18237443 -0.24102347 0.02673029 0.0027501897 -0.038751744 -0.040576167 0.09445638 0.025722543 0.035439856 -0.04607545 0.12610552 0.062342353 0.034936137 0.0862926 0.047612935 0.05464943 0.053786315 -0.19689247 0.043951374 0.06159232 -0.039890274 -0.039959718 -0.0665554 0.1082491 0.01976018 -0.056916814 0.16422449 0.07589107 0.05088748 0.23528624 0.09797013 -0.099103436 -0.06962883 -0.077156894 -0.10759032 -0.03390101 -0.0049634613 0.14858466 0.10486322 0.19053599 -0.053612083 0.14772172 -0.005644466 -0.16405898 -0.18323617 -0.11172928 -0.06759015 -0.08998553 -0.0041011204 0.17750724 -0.0066746175 -0.09469944 0.1058402 -0.04796454 -0.02076893 0.049792796 0.13052385 0.024316216 -0.101850964 0.009423777 -0.048952863 0.19800447 0.16341153 0.14703615
bureaucratic.a.01 -0.07867571 0.08564932 0.053951964 0.0014667175 0.20405957 -0.059614707 0.003863278 -0.19973418 0.05947818 0.07143269 -0.15766458 -0.004886282 0.051092423 0.18324362 -0.0016240408 -0.13233593 0.091901086 0.009640028 -0.07520027 0.08385554 -0.00052118645 0.20158604 -0.05322449 -0.080257356 -0.07625673 -0.039397966 0.013084869 -0.07972229 0.09712298 -0.052342944 -0.16496614 -0.108761035 -0.01799742 0.037183814 0.03965622 0.01921984 -0.032328315 -0.06395015 -0.07072861 0.12227291 -0.0048100897 -0.111911036 0.16066916 -0.016372388 -0.1205797 0.09009149 0.1464619 -0.048972867 -0.0068919645 -0.015024193 0.1045172 0.007789913 0.09822701 0.00077098777 0.07760134 -0.037336137 -0.031692445 -0.027203262 0.019307375 -0.017823774 0.05376971 -0.0706459 -0.08442665 -0.07149113 0.102733746 0.03139546 -0.017322494 0.1362529 0.12866712 0.010817963 0.11715318 0.15455224 -0.03600745 -0.16115871 0.05277472 -0.08980192 0.049326863 0.13893919 -0.0046228906 0.044988908 -0.1237005 0.08901577 -0.03265369 0.076408245 0.12146961 -0.048892453 -0.11288999 -0.013604985 -0.2127849 -0.10214833 -0.10594198 0.026942683 -0.0037427354 -0.07730059 0.14276268 -0.004174185 0.1085745 -0.0985662 -0.041922342 -0.023546252 -0.014048823 0.029147523 -0.08053257 0.038822856 0.05140412 0.08415537 0.14902374 0.12990652 0.009576771 0.120403156 0.16000845 -0.026055336 0.2363119 -0.015810126 0.17650162 0.1454829 0.013620067 0.11243774 -0.06794339 -0.0026652399 0.010666204 0.02289046 -0.13775249 0.0882748 -0.032890547 0.05578304 -0.014437989 0.09262518 -0.15476298 -0.05845434 0.18385811 -0.038677666 -0.04635355 0.07817117 0.08209869 0.13137107 0.08639299 -0.06558951 -0.13600753 0.1568051 -0.094007485 -0.14040792 0.09445117 -0.15404706 0.006074649 -0.003062278 0.037689637 -0.15271679 0.043076735 0.042048685 0.10120351 -0.07485956 -0.10685622 -0.041388117 0.028119998 -0.0036250437 -0.0710728 0.04203135 0.055493504 0.04006372 -0.0016049905 0.119475685 -0.08548874 0.11506072 -0.10257907 -0.02753164 -0.13483305 -0.05287136 0.19545361 0.103962116 0.06208442 -0.16566008 0.0023699466 0.09244891 0.035420172 0.0042831083 0.0364151 -0.19443618 0.111186676 -0.13256547 -0.021294858 0.107112795 0.10630294 0.10747729 -0.013262713 0.09536889 -0.049403507 -0.08327899 0.11455738 -0.0064350027 0.14234573 0.035167195 0.13644934 0.09288132 -0.09923785 0.043921217 -0.01341317 -0.061164394 -0.09629101 0.04407443 0.16349247 -0.08873396 0.11879255 -0.07528216 0.17617382 -0.10654822 -0.0729968 -0.133926 0.050991267 0.1023447 -0.10778905 0.11997111 -0.022225253 0.0244643 0.020049691 -0.07600636 -0.09484392 0.0041060126 -0.016375681 0.022099664 0.12057315 0.1059613 0.11046893 -0.028439457 0.13370849 -0.0122657465 -0.051271867 -0.023781793 -0.008187266 0.15802282 0.09045113 -0.0016322323 0.14711568 0.15662326 -0.114362024 -0.056665555 -0.04137733 0.036837425 0.048496153 0.03173392 0.048139475 0.110825814 -0.096123956 -0.07242005 -0.1036121 0.23254828 -0.088359125 -0.11922378 -0.020080285 -0.037796803 0.10682564 0.10691591 0.031679302 0.01359833 0.053987168 -0.10513899 -0.16554746 0.06390029 -0.1855449 -0.019495325 -0.04011963 -0.099936314 0.067578696 -0.08002437 0.016626647 0.0659781 -0.024512557 0.09458861 -0.13924207 -0.106156304 0.05912507 -0.09751319 -0.03454088 0.10161996 0.16396089 0.018694742 0.21041141 0.012918645 -0.08926477 0.15241344 -0.18671364 -0.027894521 -0.056185663 -0.02157556 -0.0055910195 -0.054901082 -0.08737424 0.069154955 0.0951941 0.008730847 -0.1496849 -0.12093901 -0.14706407 0.07780231 0.013879365 -0.17749956 0.029542675 -0.13468559 0.047601346 0.062331513
grotesque.s.01 -0.08936758 0.032933578 -0.043375883 0.10072585 -0.10105836 0.031465884 0.043420363 0.09965046 -0.16558237 -0.049660146 -0.012085178 -0.092933066 0.040790338 -0.062378906 -0.048515484 0.04448392 -0.03736922 0.02411491 -0.111597314 -9.8772485e-05 0.056621887 0.15839556 -0.0041895206 -0.13701169 0.110511154 0.002727501 0.05420586 0.08137932 0.007689852 0.10527259 -0.065940626 -0.028710954 0.038225353 0.083697096 -0.00050456816 0.12684867 -0.0061903372 -0.10822918 -0.14324768 0.103758715 -0.08180008 -0.063527934 -0.044191573 0.032774985 -0.13841976 0.016591836 0.074422196 -0.019068308 -0.07920513 -0.048248917 0.00046431134 -0.021946048 0.018520733 -0.033533853 0.06313585 -0.16934462 0.01248668 0.17552567 0.18493249 -0.11122298 0.007071391 0.17139268 -0.018178305 -0.049606293 0.017851742 -0.034723658 -0.049027577 -0.10459389 0.017107839 -0.06888226 0.11056446 0.08064823 -0.03280967 -0.029220736 -0.12940697 0.12098227 0.12965648 0.02189507 -0.013982956 -0.07902504 -0.0048799166 0.049490143 -0.05544735 0.1293922 -0.14545503 0.08225739 0.09165313 -0.031021543 0.04472811 0.08433814 -0.019766305 0.013336681 0.08308673 -0.16698681 0.15608244 0.005786472 0.014928113 0.03977593 -0.1441618 -0.05266034 -0.081949994 -0.024818098 0.026707731 -0.088126875 0.15378132 -0.007358112 0.11225812 -0.016918069 -0.015250485 -0.031580318 0.01940259 0.029155677 -0.08726159 0.09692007 0.089268014 0.02075974 0.1302465 0.029560458 -0.027018763 -0.08010856 0.11623032 0.08982789 -0.019557731 -0.014951304 0.094076775 -0.079528034 0.010455649 0.016337655 -0.09692052 -0.083675504 0.02400849 0.103048526 0.04320798 0.010810483 0.018121477 -0.014651556 0.12412808 0.07795696 -0.05454749 -0.022281593 0.024886776 0.048980173 -0.13785659 0.02970238 0.09454206 -0.0031855248 0.112624355 -0.077516034 0.088519536 -0.104300685 -0.12927149 -0.078557126 -0.05807729 -0.03513029 0.032408006 -0.03392059 -0.07869473 -0.18020909 0.08092158 -0.09675408 -0.1448005 -0.16552539 -0.04670222 0.0420703 0.14098741 -0.074401245 -0.081508 0.16505048 0.06024283 0.015518754 -0.017940577 -0.019348174 -0.050282534 -0.008119944 -0.047976106 0.044269476 0.049532484 0.021137664 0.098582625 0.03987676 0.013705764 0.12531297 0.009752187 -0.071331464 -0.110859826 0.17830953 -0.07592657 0.020384993 0.0055137435 -0.10479666 0.02750709 0.020311596 -0.029043676 -0.091310695 0.024158286 -0.05493613 0.083283685 -0.00832861 -0.110589914 -0.15663862 0.026114315 0.012215455 0.08151821 -0.09277989 -0.08085383 0.10035067 0.06414215 0.15879744 -0.09498812 0.06600083 0.12096068 0.018130757 0.06288724 -0.12341471 -0.033494957 0.027102573 -0.062485408 0.0041261152 0.0618478 -0.08333383 -0.10452847 -0.016841587 0.12733603 -0.10814767 0.11467151 0.10616639 -0.062863864 0.051282976 0.026709022 0.06898104 -0.0007134458 0.028856881 -0.037215378 -0.115531035 -0.13298777 -0.108885765 0.11421735 -0.027597927 0.09070618 0.12113511 0.064558916 -0.066188864 0.05309007 -0.052527778 0.060691506 0.08151653 0.07093167 0.056940265 0.07155385 -0.05344614 -0.13537098 0.0054556197 -0.12565199 -0.064344764 0.111438744 0.094282 0.024121711 -0.101312555 -0.10987824 -0.12690419 0.06063808 -0.15897664 0.031492095 -0.13366048 -0.016034182 -0.0972677 0.061514113 -0.0076447558 0.07374969 -0.09117935 -0.031726327 -0.10184193 -0.04496233 0.12847893 -0.052508302 0.017496547 -0.012774543 0.071042776 0.043813996 -0.06150966 -0.032471962 0.05814849 0.04958179 0.045572724 -0.06848517 -0.009067669 0.02835999 -0.04746107 0.09373724 -0.10269789 -0.039315626 0.15315002 0.11910034 -0.060789097 -0.025044754 0.004154658 0.1051844 -0.026112312 0.18776833 0.036362898
exotic.s.02 0.019638104 0.022350932 -0.018990297 -0.12197539 -0.038244437 -0.100900374 0.108719155 0.0014816007 -0.030456863 -0.10986445 0.019260239 -0.02194667 -0.112728655 -0.17125621 -0.09690379 0.09074692 -0.02064534 0.00927476 -0.1809665 -0.033271845 -0.011055693 0.0064718174 -0.019189343 0.018369956 0.09403931 -0.003580159 -0.040285487 -0.05374642 0.11310133 0.079885185 -0.031314854 -0.048960127 -0.06423281 -0.06738371 -0.044817884 0.037743174 -0.019260965 -0.028635751 0.047153246 0.006377701 0.05826166 -0.013785867 0.09295115 0.08538259 0.116240144 0.016072568 -0.03179444 0.082175285 -0.0009188769 -0.00752773 0.047660682 -0.021866351 -0.050452713 0.085451506 0.0544571 -0.04265132 0.054598294 -0.014493841 -0.052745696 -0.045652136 -0.01736789 0.05713898 -0.0072905035 0.007504434 0.002594867 0.035415877 0.0189526 0.031544384 0.079006895 -0.043488823 0.049081244 0.09043005 -0.013737315 0.0155501 0.07390446 -0.003170177 -0.03905596 0.009441357 -0.035288382 -0.034802746 -0.019559108 -0.1716673 0.0027958048 -0.0016385344 -0.040482093 -0.0040912232 0.020414766 -0.11328634 -0.053631146 0.09414779 0.010483362 0.051005937 0.031367563 -0.14715673 0.024458997 0.0910201 0.027380463 0.10928403 0.038118366 -0.022045782 -0.012017524 -0.009151248 0.06839507 -0.069909975 -0.09799276 0.100282595 0.07596087 -0.043838784 -0.044706002 -0.00094877457 -0.03520065 -0.04685092 -0.031410288 -0.0035616653 0.02961928 0.019987984 0.032015417 0.12752153 0.0030787457 0.062045176 0.071484484 0.0092221005 0.043326814 -0.00093522907 0.034621652 -0.034951285 0.067129344 -0.073106244 -0.014436037 -0.041195896 0.05594369 0.14113958 -0.058725365 -0.042618297 0.011116742 -0.025548296 0.06299827 0.074117094 -0.03944204 0.044027995 0.09257771 -0.0018573082 -0.046126954 0.030667812 -0.024457067 0.097560994 -0.0095239105 0.09478706 -0.024621457 -0.060545646 0.04683993 -0.039266072 -0.0649443 0.029537804 0.07720896 -0.0006213868 0.059137013 0.025214367 -0.09803037 -0.13048302 -0.01969112 -0.00156614 -0.1681924 0.00083313935 0.0745691 0.12367583 0.00087283354 -0.00039005312 -0.043978345 0.04116985 0.14287208 -0.047242455 0.05321793 -0.05974126 -0.018121287 0.05317832 0.012414955 -0.066859215 0.05389144 0.0035303012 -0.07110597 0.011177636 0.033633217 -0.05138041 0.011548096 0.034125023 0.04982502 0.17702116 0.05784479 0.03809547 -0.09807943 0.059666343 0.019747727 -0.060264647 0.030534446 -0.06709686 -0.032615405 0.09194065 0.04412678 -0.015253117 -0.0005737698 -0.091822736 0.030576272 0.082062505 0.13955995 0.070781805 -0.050996292 -0.0852986 0.052290432 0.0007220966 -0.013482578 0.12992834 -0.0043505565 0.060222343 -0.05937185 -0.07702055 -0.0026046499 -0.028966764 -0.0016306943 -0.0014531492 0.07798855 0.067076355 -0.043833964 -0.13123535 -0.044071697 0.011122338 0.061681848 -0.018454224 -0.08542505 0.12974966 -0.064211145 0.069846496 0.040088054 -0.03398167 -0.028678332 -0.08236959 -0.023829889 0.018774671 -0.033628155 0.013798534 0.10580371 0.060182486 -0.07186098 0.10261759 0.03762106 0.03785811 0.03486778 0.053103585 0.012675777 0.013954897 0.044561703 0.016775103 -0.088536024 0.01157721 -0.012101723 0.10698939 0.07175398 -0.023348982 0.015530165 0.030110756 -0.15489641 -0.018305507 0.018963777 -0.13641472 -0.0063357074 -0.013693832 -0.011040332 0.15971938 -0.029384943 -0.072031446 0.05551951 -0.08978695 0.054716557 0.07511011 -0.08240628 -0.0900244 -0.0045800665 0.107606515 -0.006172706 -0.053997874 -0.013694954 -0.049483184 0.0130259525 0.021802627 -0.093489714 0.008284136 0.04046136 -0.09175848 0.058809053 -0.025278578 0.07750308 0.0028529097 -0.008914117 -0.047002856 -0.019487105 0.08790719 0.001995216 -0.0535725 0.043426927 -0.027551787
high.a.01 0.11297436 -0.040434025 0.06743188 0.11883433 0.04612978 0.14666143 0.034375243 -0.000109108536 -0.03581745 -0.13243999 0.14554474 0.083519734 -0.010516386 -0.056609996 0.0491848 -0.018877506 -0.1436568 0.203554 -0.16594027 -0.086511895 -0.07428371 0.14106941 0.112356536 0.13840389 -0.00833273 0.009149095 -0.029708873 0.15345232 -0.00053033733 0.10671343 -0.10882853 -0.11226302 0.023847869 0.048295185 -0.09544393 0.13844284 0.0005118736 -0.13905439 0.087757684 -0.09200654 -0.041003622 -0.17156401 -0.004364535 0.06605248 -0.06259037 0.0108858375 0.020287612 0.26198658 0.10093756 0.049189743 -0.08456987 -0.14643069 -0.0797547 0.09193649 0.023606615 -0.054804314 0.16528398 -0.0043610353 0.100829326 -0.120999366 0.13896495 -0.035795636 0.09134386 -0.15244877 0.06822459 0.08457674 -0.009034429 0.0366746 0.055469733 -0.08969807 0.13241535 0.07828155 0.06850198 0.07424492 0.13174452 -0.096153125 -0.04157027 -0.047162298 -0.02992661 0.06468145 -0.13033216 0.08170031 0.016845366 -0.026286557 -0.083672985 0.010417946 -0.15976068 -0.12814754 -0.018719118 0.10641516 -0.04340551 0.081938036 0.07977458 -0.021127857 -0.06646872 0.07369881 -0.108043335 0.0013131653 0.058994167 0.009710201 -0.074335136 0.13001089 -0.025314461 0.07521754 -0.16020696 0.061013557 0.18442482 -0.022541057 0.019919584 0.114863776 0.10044932 0.04132397 0.22433071 0.109769434 0.21586224 -0.045274578 -0.060591094 0.11905086 -0.07902179 0.014012149 -0.004400389 -0.008117114 0.15163614 -0.16581805 0.22804575 -0.035025302 0.21122174 -0.0219578 -0.1622207 0.010656893 0.15917015 -0.07964283 -0.09796825 0.021932783 0.07377677 0.0719 0.04336147 0.05460907 0.04357483 0.05316739 -0.1516143 0.019300973 -0.012383737 0.06402005 0.062642656 0.107871495 0.1931161 0.038508043 -0.08696849 -0.21200824 -0.03419241 0.1751129 -0.05598047 -0.09662988 -0.10920189 0.07691944 -0.13703907 0.07667182 0.038710788 0.13667983 -0.047289107 0.0058039976 0.16044742 0.062030144 0.029551152 0.059042513 -0.045488823 -0.035524387 -0.07992459 -0.05616925 -0.07447692 0.028800204 -0.050393924 0.13362642 -0.062214512 0.10864982 0.07304341 0.023015281 -0.19640519 -0.011999116 0.00091517565 -0.023335632 0.05026806 -0.010529584 0.069405496 -0.092407644 0.07260951 0.0045199557 0.066258796 -0.14204867 -0.06727328 -0.1222302 0.011014042 -0.12148947 -0.08364387 -0.15281336 -0.049344506 0.07848111 0.025792234 -0.10111708 0.02170252 -0.06803602 -0.10738586 0.0027418812 0.035383936 -0.08512319 -0.07939026 0.112869374 -0.012083063 -0.09251753 -0.055338904 -0.02206019 0.032522045 0.10222244 0.0016427734 0.077861756 -0.14259623 0.0018212332 -0.1895359 -0.19313027 0.0892912 0.09921731 0.17454422 -0.06780131 0.08823462 0.0976185 0.05765016 -0.0028485297 -0.0012020982 -0.01842378 0.020084968 -0.027446749 -0.020852149 -0.032129284 -0.014341773 0.06597879 0.077305265 -0.11041812 -0.09477987 -0.032706134 -0.08262038 -0.11893016 0.1797609 0.023050256 -0.001358198 -0.12670505 0.06158309 0.06660864 -0.06855238 0.042277977 -0.019093692 -0.09745206 -0.1896845 -0.1580328 0.09209147 0.16222458 -0.0770669 -0.15479998 -0.0030419335 -0.046614535 0.10358973 0.020839782 -0.15779603 0.09101827 0.048118476 0.0853972 0.10146358 0.07056072 0.062439024 0.06922212 0.029668916 -0.11261495 -0.0027196587 -0.053766474 -0.024939327 0.075970694 0.04530954 0.18478324 -0.09495037 0.022605484 0.06493795 -0.12156043 -0.018214941 -0.15943396 -0.0057209902 0.18525885 0.0458289 0.0074833333 0.2388168 -0.116069466 -0.08682264 0.14292142 0.036431342 -0.11704803 -0.08070374 0.059983816 0.05093821 -0.040839605 0.051260296 0.07776295
social.a.02 -0.011338359 -0.01551257 -0.10343944 -0.0010646062 -0.1609032 -0.014828932 0.0106036505 -0.012472298 0.08420315 -0.1539679 0.17965749 0.16506895 0.13603109 0.015725147 -0.15560098 -0.08990071 0.13868713 -0.02789698 0.00083796744 0.12417789 0.08985192 -0.011887499 0.15213093 -0.05338759 -0.16889553 -0.08159436 0.08498322 0.028012611 0.2121171 0.12507339 0.07770641 0.18287185 -0.18368192 -0.060911965 -0.107783295 -0.03940756 -0.1877385 -0.06309656 0.0377547 -0.07488144 0.0006834005 0.23705518 0.1112016 0.06741512 -0.051080957 0.016839389 -0.17098945 0.09786802 0.12276794 0.18326494 -0.15731598 -0.14284685 -0.116524994 -0.32742733 -0.15827952 -0.0061499197 -0.08801889 0.108219944 0.12661071 -0.15109925 0.08781913 -0.23459315 0.08118104 -0.10272891 0.020570291 0.16516048 -0.025627706 0.018432526 0.010056407 0.17447016 -0.004535899 0.09906539 0.0691271 -0.23821962 -0.015926575 0.029394548 0.027707322 0.07774624 0.13777396 -0.05227465 0.16047896 0.13050397 -0.12095803 0.20707685 -0.0014332656 -0.070550315 -0.12584972 -0.030703072 0.08277063 0.19574173 -0.056173045 0.0755898 -0.03793777 0.14466932 0.062414296 -0.08737735 0.06571946 0.18117979 -0.019706784 0.11089521 -0.091723524 0.038871016 0.1284548 -0.23349158 -0.09459469 0.13668446 0.010856042 -0.09285921 0.11486376 -0.112629205 0.07760985 0.006754079 0.014673816 -0.17386591 -0.12717532 0.193348 -0.05985846 -0.18503952 -0.05892906 -0.15813705 0.12869312 -0.1453225 0.008929931 -0.006178031 0.039261226 -0.03707922 -0.036147233 -0.009474254 -0.1268733 -0.0112964995 -0.018576864 0.1369262 0.1071801 -0.037614953 0.14017585 0.04200566 0.10818188 -0.029033419 0.04479975 0.079879686 0.07909318 -0.038761236 0.16064925 0.16073619 0.09600715 -0.09523196 -0.12392944 0.039717637 0.09700117 0.13129896 0.01894912 0.043346502 -0.073215716 0.16204731 0.027735962 0.09927547 0.08918784 -0.062387858 0.023515789 -0.16730794 0.017175926 0.14115058 0.14466338 -0.042337973 -0.21668403 0.16286711 0.063749224 -0.021807365 0.034470983 0.13846965 -0.19571413 0.0034896645 0.005378767 0.07278258 0.0963978 -0.05612894 0.058210377 0.056962624 -0.18371405 0.049429584 -0.12556925 0.1575925 0.07650282 0.2063159 -0.022716893 0.064891376 -0.09841508 -0.112251155 0.0036913373 0.045361206 -0.09379418 -0.14781933 -0.2426116 -0.009422982 -0.045490038 -0.08074183 -0.07958346 -0.0006228478 0.08580031 0.22158772 0.07140377 0.07804626 -0.07293841 0.024190791 -0.0835511 0.09240884 0.10881926 -0.019550178 -0.0748423 -0.105165176 -0.048185762 0.17986935 0.23795214 0.08234014 0.08230987 -0.14792846 0.050243113 -0.081515014 0.016612504 0.0041855434 0.12448019 0.042991586 0.057038806 0.093246624 0.08503946 -0.08541077 0.06144535 -0.014273479 0.08542097 -0.058357507 -0.118019715 -0.13350767 -0.23331176 -0.119070694 0.1478621 0.028087849 -0.27862978 -0.086766325 0.05961041 -0.038638633 -0.1314313 0.0558658 0.06477133 -0.04143424 0.073039874 0.1673227 -0.014128984 0.09812872 0.19661552 -0.09606755 0.17820902 0.109426856 -0.013542625 -0.043698598 -0.18192121 0.004088802 -0.02049647 0.1467812 -0.16802782 -0.023650136 -0.008814542 0.16065246 0.19834948 0.06329815 0.007227596 0.13621108 -0.020608274 -0.11973329 -0.09216764 -0.21129182 -0.044460125 -0.094652325 -0.09965158 0.121880755 0.11700241 -0.09501427 0.09329895 -0.113654435 -0.111007065 -0.18129483 -0.073338516 0.06431629 0.071733005 -0.059745483 -0.019493628 0.0644994 -0.20023221 0.04031423 -0.17583859 0.20080021 -0.17096837 0.010813809 -0.011334275 -0.05713119 -0.06280063 -0.011129168 -0.021091899 -0.04001415 -0.08525802 0.031830847
easy.a.01 -0.1324245 0.11043305 -0.028166845 0.040955544 0.03871274 0.027134491 -0.13823414 0.024902746 0.04808357 0.12947823 0.04714044 0.124724105 -0.011096805 -0.20566441 0.119060196 -0.16153848 -0.04760134 0.08506061 -0.16050373 0.067444235 0.0945036 0.073067196 -0.019968066 -0.0351482 0.07060541 0.11681035 0.0035666577 0.012458336 -0.020697627 0.027851477 0.07454775 0.09883475 -0.008076007 -0.059727177 0.0018464434 0.12525125 0.033057846 -0.14429758 -0.031977914 -0.076590896 -0.14505994 -0.19598947 0.022466809 0.07695602 -0.1614157 -0.0011066349 0.15029319 -0.040228114 0.10216405 0.0116481325 -0.096634455 -0.08963177 -0.0750643 -0.16417377 0.15731491 0.16463847 -0.011642907 -0.1011811 0.029079018 -0.1205307 -0.065137886 -0.13185437 -0.09501217 0.0934218 0.04937263 0.01131429 0.1522035 0.016331935 -0.099038176 -0.122511506 0.14402598 0.13412897 0.079595 -0.010320322 -0.021231893 0.07343097 0.054496586 -0.00047290017 -0.09044164 0.07943438 0.015673371 0.073080674 -0.0261273 -0.046392802 -0.009478326 0.0589833 -0.07883608 -0.0010777346 0.066325404 0.0016767293 -0.07236477 0.13589548 0.015167368 -0.08633297 0.042961888 -0.011501575 0.15065497 0.008254842 -0.081206076 -0.06636963 0.05513565 -0.02342247 -0.060320683 -0.04281258 -0.120655306 -0.087443165 -0.14393276 -0.07529592 -0.024714433 0.05426051 -0.09936202 -0.065363884 0.16576359 0.0902132 0.09917002 0.019281717 0.104474805 0.06536275 -0.110622495 -0.046275843 0.016434744 0.082672656 0.05898239 -0.029078797 0.012237483 -0.0246045 0.17946479 0.051672034 -0.19400878 0.05214748 0.023259372 0.09135582 -0.07715312 -0.08073856 -0.0020687622 -0.26346055 -0.056541093 -0.16255625 0.14765716 0.07604633 0.072942905 0.04149605 0.109113984 -0.032982502 -0.114381544 0.037755534 0.061063994 0.09191408 0.14742307 0.07481588 0.07851562 0.14667179 0.037189487 0.16214868 0.093847156 0.054758217 -0.08969648 0.040980604 0.15095907 -0.14374289 0.0022163317 0.016748356 -0.0019246562 -0.00073197955 -0.08868654 0.03547138 0.03268795 -0.068344526 -0.17302833 -0.07851923 -0.0463054 0.12590209 0.18371813 0.115700364 0.011643673 0.081944145 -0.12599061 -0.016877526 -0.039058678 0.17554908 -0.03064592 -0.09929801 0.09074969 -0.11255313 0.018370654 -0.041997995 -0.026806924 -0.022728734 -0.0032039646 -0.09425586 0.010974905 0.15337415 -0.013530166 -0.1300517 -0.11478518 0.122061215 0.11136994 -0.10861242 -0.120447844 -0.03310391 0.0015552624 0.11378045 0.009032421 0.08731886 -0.04649752 0.0074220356 -0.09077114 0.13043605 0.09287594 0.0275484 -0.13338836 0.034826297 0.09030055 0.04931771 0.026673859 -0.06357349 0.061464757 -0.07589195 0.030743154 0.066508435 -0.075498104 -0.118694544 -0.09505741 -0.03347737 0.080637924 -0.0011281695 0.22829163 -0.024625085 0.019428527 0.096655816 -0.034357343 -0.009489709 -0.02387812 -0.073121935 0.19283994 -0.010968945 -0.063749276 0.09381917 0.11704715 -0.016864572 0.08012154 -0.08951403 0.123796105 0.067370564 0.021554573 0.15203221 -0.10777424 -0.10772216 -0.16184318 0.025182616 0.066504486 0.08345183 0.04025304 -0.04004305 0.032699093 -0.04610982 -0.00020635578 -0.035599343 -0.045003183 0.03727798 -0.07512063 -0.020487921 0.016206142 0.0057037165 -0.041167915 -0.056205377 0.039408043 0.0670391 -0.013341837 -0.075128205 0.00065365445 0.07645047 -0.08842825 -0.05232148 0.023370212 -0.12227529 0.05712368 0.07310344 -0.11853425 -0.24649045 -0.036217432 -0.25741264 0.0053803734 -0.023773303 0.16132578 0.02378703 0.081475906 -0.15743671 0.06348936 -0.05212825 0.011832797 0.052613985 -0.049452413 -0.086640395 -0.03663338 0.0022225727 -0.08531755 -0.011843478 0.07347897 0.013050057
poor.a.03 -0.11789248 0.05538169 0.05679615 0.054394916 -0.01049425 -0.042912364 0.06612345 0.09404873 -0.046976388 -0.042620678 -0.106405236 -0.08477789 -0.14535446 -0.026911978 -0.058925446 0.2054413 -0.11964727 0.14512044 -0.10125066 -0.1299763 0.15131865 -0.18463585 -0.026326725 -0.16210197 0.16857783 -0.079923384 -0.13671738 -0.029420722 0.036354516 -0.05238487 -0.09915017 0.0662424 -0.0990508 -0.007544033 -0.05571956 0.06752435 -0.12771375 0.1087223 -0.07141696 0.022314755 -0.095290564 0.14451075 0.04812172 0.09642681 0.0013481319 -0.17999572 0.029871088 0.07743097 -0.066148564 -0.008841664 0.07965552 -0.14293726 0.08429197 -0.14990965 -0.010743032 -0.06310172 -0.0063534025 0.034700807 0.10025158 -0.07016762 -0.026447162 0.049345247 -0.010600733 -0.06425553 0.09608551 -0.06867555 0.03654105 -0.009907132 -0.06671856 -0.14227256 0.08333308 0.06886863 -0.06251215 -0.12317083 -0.04857768 -0.036416315 0.033710808 0.0124130165 -0.02985391 0.13858634 0.10375723 0.06268803 -0.06477569 0.08900027 0.0716056 0.016703464 -0.12719868 0.064809225 0.025689432 0.035995666 -0.005723129 0.05554589 0.059957772 -0.103606895 -0.012248227 0.04812941 0.019894728 -0.058096074 -0.030663481 0.05189395 -0.026518062 0.11254278 -0.012284389 -0.012265793 0.055912495 0.037288077 0.08774819 -0.12536268 -0.11260064 -0.19452107 0.053925704 -0.033827607 0.0373339 -0.15821871 -0.053654097 0.1018321 0.062322073 0.0074037933 -0.111715995 0.026278835 0.07016693 -0.0050446363 0.094459966 0.07950907 0.0025195666 -0.10423014 0.022929361 0.026313473 -0.07331535 0.113099 0.006714209 0.032452475 -0.0034265842 -0.08189457 0.1078583 0.08221133 0.07913338 0.062649764 -0.023448959 0.03464176 0.13003185 0.032138363 -0.11474306 0.009988359 -0.03082061 0.03383998 0.036405385 0.01769867 -0.05170589 0.07627651 -0.06165409 0.04990383 0.0018986126 0.08461609 -0.073752135 -0.021162618 -0.09238647 -0.12765335 0.087532096 -0.058598362 0.029143149 0.112318926 0.0576841 0.032392967 0.076322004 -0.056704048 0.059085477 -0.05142932 0.03504493 -0.064147785 0.2027145 0.036530677 0.062246844 0.0135957785 0.09021694 -0.045389447 0.12214091 0.059831824 0.09747319 -0.0019805627 -0.086274974 -0.10904374 0.15690078 0.06257836 0.012292379 0.068367206 0.0042340746 0.11242978 0.06032516 -0.18344621 0.13378042 -0.10265687 -0.0062650875 -0.01865439 0.02809118 -0.015031866 0.12450163 0.006412017 0.012297673 0.05239889 -0.031113353 -0.021661207 -0.020527855 0.07486114 0.14634311 0.12500107 0.04475882 -0.009391326 0.008833097 -0.042036228 0.1762576 -0.03458567 0.053464446 -0.093060054 -0.053874988 -0.11078985 0.062019385 -0.017304469 0.003970265 -0.044089433 0.05282336 -0.098961204 -0.027541602 0.014477432 -0.002763083 -0.016675262 -0.040352866 -0.11739769 0.08886512 0.06525204 0.1439727 -0.052280266 -0.0067044194 -0.058420215 -0.08246202 -0.027498173 -0.1220681 -0.0032670281 -0.089330696 -0.023360057 0.058433697 0.008893784 -0.020730065 -0.07806982 0.0077394503 0.2679508 0.05925639 -0.010923509 0.1446954 0.15201731 -0.086762935 -0.05438262 -0.0679918 0.14613649 -0.037430502 0.12033687 0.11124257 0.05413681 -0.04123742 -0.14516136 -0.04625642 -0.04786659 -0.028426776 -0.034015965 -0.08746619 0.053007763 0.09660287 0.098891206 -0.012418088 -0.019434508 -0.09767325 -0.031944413 -0.03547923 -0.053415988 -0.036406547 0.03561505 -0.1513454 0.103108376 -0.02012421 -0.04277358 0.06617832 -0.031333953 0.036469724 0.123279005 -0.011756222 -0.01483036 -0.01099029 -0.06508177 -0.05263006 0.118019104 0.10692459 0.07391039 0.063036755 -0.078576095 0.020612348 -0.008097705 0.043106716 -0.006124817 -0.034295086 -0.13816617
inactive.s.10 0.05518598 -0.04369399 -0.13883929 -0.104036324 -0.023277976 0.011582329 -0.026735857 0.0871538 0.0039643873 -0.04075527 0.016553303 0.11774877 0.033211354 -0.023382114 0.020176979 -0.07262034 -0.05357458 0.13259499 8.5839914e-05 0.061710883 -0.020439006 0.04306374 -0.06411982 -0.07935891 -0.06261914 0.06620014 -0.07199281 -0.0076275473 0.050450813 -0.020678291 0.103688255 0.022715231 0.06562624 0.010539496 -0.041723184 0.019606894 0.06228866 0.090285555 -0.06503903 0.016771065 0.004962554 0.04075518 0.07029903 -0.01255829 0.08680046 0.1201789 0.13745025 0.08583379 -0.037031572 -0.1666447 -0.1361212 0.013597435 -0.12362289 -0.012037491 0.015632786 0.017774701 -0.07594966 0.038779322 -0.10689792 0.07887654 -0.06953151 -0.0027704048 -0.015397752 -0.038888417 0.045589354 0.034864042 -0.04580839 -0.03320404 0.08428848 0.047861893 0.112795286 -0.04485671 0.047438893 0.027947225 0.02248697 0.15660104 -0.23450373 -0.08944605 0.07194362 -0.042957347 -0.07155501 -0.014588801 -0.06715231 0.002158106 -0.014047856 0.06335561 0.13292083 -0.031211615 0.058862224 -0.110108405 0.032966964 -0.17518657 0.065139875 -0.049536187 -0.12595335 -0.007042646 -0.038222995 -0.012780067 -0.0028018677 0.111581594 0.117493056 0.04034539 0.08322294 -0.036301274 -0.009924158 -0.021642653 0.07349859 -0.064783745 0.07384924 -0.01636868 0.087824576 0.004683248 -0.07388129 0.10715515 -0.10266013 -0.12099619 -0.108118646 0.06227813 0.09333587 -0.15745921 0.05512067 0.08580444 0.051836547 0.124957815 0.0014195882 -0.12627676 -0.044894394 0.04140373 -0.018940117 0.047662225 0.010311132 0.06552589 -0.029620832 -0.09050859 0.09981121 0.14871578 0.079944484 0.1547097 -0.047145493 0.086558394 -0.07900887 -0.01124076 0.049772695 -0.16747615 0.066678375 0.0020933205 0.062582426 0.01423288 0.123599134 0.06700996 -0.04089119 0.035928663 -0.05605542 -0.07141664 -0.057596777 0.010152156 0.0073156063 -0.05721143 -0.0321563 -0.16024612 -0.07886125 -0.06171873 0.072185785 0.04472279 0.18254285 0.0047164094 -0.016446728 -0.034694467 -0.039884247 -0.11919938 -0.0536866 -0.033936877 -0.002692805 0.054676894 0.011699599 0.08007279 0.05094982 -0.004711164 -0.03794481 0.05878761 -0.14492212 -0.12011414 -0.03757257 0.017534059 0.0040076845 -0.15441878 0.098349914 0.043555427 -0.027807286 0.025434477 -0.07723387 0.07958112 -0.060549505 -0.1102053 0.08548386 -0.04751849 -0.039199196 0.0060658613 -0.18927172 -0.04364279 0.14343488 0.021526113 -0.08129099 -0.07606495 0.045192808 -0.07023522 -0.1109127 -0.09338023 -0.065589726 0.025257595 -0.20544317 -0.007721828 -0.04226236 -0.0061955466 0.08839279 -0.058208875 0.023331191 0.015025956 -0.009273157 -0.01621867 0.1057423 0.040356733 0.05194102 -0.09584429 0.0008191909 0.07017303 -0.035789404 -0.030258026 -0.019006701 -0.07537889 0.24637784 -0.06247131 -0.07756441 -0.16375676 -0.0722134 0.03034151 -0.09334013 -0.10086659 0.099492185 -0.018130641 -0.047097854 -0.0030728835 0.072267234 0.13327216 -0.043276764 0.06742248 0.0181274 0.12819436 0.0067221383 -0.06735928 -0.1295731 0.023034966 0.038333792 0.055842426 -0.007140539 0.1408511 0.03499615 -0.053846687 -0.07932233 -0.0061685215 0.0076121283 0.0034700076 0.006086565 -0.001066203 0.0765259 -0.016284337 0.09124659 -0.022992702 0.079558186 -0.016683683 -0.10357731 0.022090286 -0.060557194 -0.04366771 0.112355806 0.0545976 -0.05513629 0.045058955 -0.031541325 -0.0059422706 0.07931427 -0.018577887 0.15449053 0.09374765 -0.11206098 0.0065599126 0.13955247 -0.015861707 0.08879315 -0.034911867 0.016544316 -0.020457769 -0.0074968887 0.045475487 0.040851545 -0.016228143 0.045966666 -0.08494211 0.009422381 0.09937751
abundant.a.01 0.12180851 0.15870321 -0.00580805 0.010499914 0.041503724 0.11480093 -0.10873906 0.0910011 0.11531826 0.055826284 0.048643433 0.08524973 -0.011812296 -0.074008 0.04090371 0.04629572 -0.04517213 0.14152235 0.068950325 0.06728133 -0.1119288 -0.02248755 -0.035819344 0.07712383 0.011447034 -0.19825865 0.0485989 -0.0124599645 0.11330361 -0.012196316 -0.129619 0.0726349 -0.11248964 0.056367062 -0.10431254 0.019748442 0.09684462 0.073615335 0.14908965 0.119813316 0.094661534 -0.19475943 -0.01441849 -0.032227542 -0.061408274 -0.13552523 0.033869475 0.096691 -0.14010978 -0.073650174 -0.12432966 0.016263006 -0.101866364 -0.11555546 -0.118152186 -0.17637004 0.01767164 0.067579746 0.020670703 -0.13192818 -0.1469272 0.083510205 -0.044309814 0.1432475 -0.16800547 0.048771095 0.0074790358 -0.078901954 0.11652455 0.17058653 0.21874428 0.08876843 -0.083458945 -0.051192533 -0.06697026 0.0037909094 -0.067365594 -0.029330814 0.035009876 -0.004426064 0.11113021 -0.037562236 0.109180674 0.04456914 -0.015681209 -0.10028232 0.03439924 -0.08164039 -0.05816721 -0.09780973 -0.06376259 -0.016037088 0.048758578 0.071095616 -0.09416221 -0.16658531 0.013188557 0.06705126 -0.035451524 0.041085545 -0.002599697 0.19226654 0.08532146 -0.030835303 -0.06778638 -0.064103395 -0.078241915 -0.16261692 0.096461505 -0.0037917795 -0.057732183 -0.040008593 0.061755255 0.05165022 -0.04611246 0.053259004 -0.027389158 0.053802505 -0.07430762 0.055705674 0.047854666 0.13558288 0.09714705 -0.11090398 -0.078326 0.022814512 0.18616347 0.08689696 0.06394517 -0.13262066 0.12976357 0.028420152 0.09146212 0.19445778 0.10760522 0.0934116 0.027860304 0.053258944 0.16611752 0.039734248 0.1661217 0.11520625 0.06827576 0.012854026 0.081403725 0.01798356 -0.06292822 -0.10558923 -0.114039235 -0.088161506 0.09385132 0.09005375 0.057837494 -0.01311788 0.21568097 -0.014966894 0.016188538 0.013520505 0.0055909976 -0.18337034 -0.09737941 -0.0121677695 -0.123732954 0.039600674 -0.050988898 0.07555459 -0.0073379017 0.04529136 0.1017322 -0.016943164 0.13526227 0.017492935 0.029493531 0.12214265 0.033728905 -0.0026626193 0.075079784 -0.016682236 0.081977114 0.122683056 0.15855604 -0.0044742473 -0.06088544 0.036938485 0.13191956 0.08208543 0.056222092 0.10687585 -0.050305992 0.11446684 0.0051697562 -0.10136677 -0.056503072 -0.117224395 0.010971625 -0.06441142 0.17702347 -0.061261542 -0.003093982 0.054042205 0.04375407 -0.1375099 -0.003323644 -0.033866417 -0.022581374 -0.10408036 0.0011683503 0.06076051 0.05615579 -0.09620166 0.108769566 0.13392588 0.022003742 0.0114988545 -0.028861564 -0.1252075 -0.012134719 -0.00042545464 -0.1383172 -0.046875432 0.092083134 -0.09553015 0.04227832 -0.016680505 0.055985224 -0.030195104 -0.06156141 -0.12095883 -0.23621088 0.025039375 -0.123470716 -0.022917775 -0.04607271 -0.04934851 0.013874532 0.060914975 0.051447023 -0.0036359916 0.05826771 -0.06739993 0.07440227 -0.15958472 0.045947913 0.11133748 0.08990375 0.07353617 0.06102277 -0.013425739 -0.14064173 0.028057635 -0.06787347 0.09877772 -0.06107009 -0.108656466 -0.0045488137 -0.06339486 0.09211073 -0.009835828 -0.05583019 0.09639583 0.10843553 -0.078908876 -0.095782906 -0.03513174 0.017725231 -0.09426729 -0.06434132 0.053485923 0.03245812 -0.06977522 0.0040916437 -0.040190816 0.108589716 0.042777937 -0.04040079 -0.05810099 -0.11390291 0.030987699 -0.050447848 -0.0028956607 0.15750922 -0.091036886 -0.06387622 -0.10040795 -0.06429332 0.11385875 -0.13005835 0.14351708 0.10260005 -0.08133898 -0.02278209 -0.12789792 -0.012327353 -0.03086003 -0.11733069 0.15822332 -0.091255866 -0.0072657503 0.029431753 -0.052647866
green.a.03 0.08663512 0.05232007 -0.061934974 -0.058034148 -0.11223454 -0.014966744 0.120909706 -0.052817874 -0.04617627 -0.016311897 -0.077367194 0.07851233 0.11310804 -0.11902671 0.03284899 0.02147724 -0.18592593 -0.007965369 -0.017115546 0.0015021146 -0.053889323 0.051435806 0.016483018 -0.027335543 -0.03265907 0.083000936 -0.113089874 -0.06405837 0.07596977 -0.05054763 -0.02212587 0.03075196 -0.080960445 0.058789745 -0.11918131 -0.15125966 -0.008228362 -0.14826879 0.070850134 0.07572315 0.024282087 -0.063374594 -0.005495578 -0.060685042 -0.010074618 0.014423606 0.15537007 0.041289803 0.036180396 -0.010037027 0.035390083 -0.06719758 -0.1470265 0.033265233 -0.11168492 -0.03250858 -0.077920675 -0.04560225 -0.097254284 -0.04158903 0.14670944 -0.020558815 -0.06968889 0.044676546 -0.0020956183 0.11959845 0.09296011 0.10772366 0.17457959 0.0027851555 0.05356183 0.0913185 0.15890291 0.06904198 0.19801454 0.0037013707 -0.095367566 -0.08768628 0.051885124 0.062096585 0.011519019 -0.008127445 0.051320665 -0.0658813 0.142608 -0.12031424 -0.084770046 0.008910812 0.019040637 -0.043353356 0.045206886 -0.040140256 0.022584356 -0.19809385 0.07301595 0.099680424 0.056196533 -0.066701904 -0.10082169 0.036718033 0.14214969 0.048377488 0.015663259 0.022405058 -0.12125749 0.05318762 0.029284494 -0.009563329 -0.13857414 0.04592699 -0.10442733 0.049364414 -0.01586321 0.08021999 0.011042591 0.15501295 0.017496996 0.048697554 -0.007732655 0.055465303 -0.011186307 -0.16766278 -0.08367095 0.013149607 -0.07406253 0.03950947 0.017070737 0.016704306 -0.18287548 -0.000633143 0.275503 -0.054146647 0.19223017 -0.010711037 0.1581734 -0.009440801 0.179195 -0.08480881 0.0803406 0.034598008 -0.08189275 -0.058896188 -0.13402165 -0.10041928 -0.031258367 0.21511577 -0.13284019 0.14347556 0.14829768 -0.06630265 0.0072717755 -0.045292083 0.025914975 0.0422606 -0.06738376 0.09247219 0.047630247 -0.047982633 -0.17703106 -0.039493788 0.0531186 -0.08526022 -0.07021407 0.14550476 -0.11513759 -0.06997852 -0.00897261 0.07157651 0.034430612 -0.093943276 0.026496848 -0.07678491 0.03436437 0.2155621 0.061798893 0.057099577 0.021155788 0.1308474 -0.012919078 0.033078402 -0.004105783 0.039480712 0.057148162 0.112529814 -0.052445482 0.079419434 0.04403412 -0.13438515 -0.06379733 -0.023506952 -0.01208531 0.09794677 -0.029839493 0.08609118 0.059948597 -0.03007969 -0.0619354 0.061678417 -0.14173089 0.09966974 0.017002221 -0.031454496 0.0987582 0.12897173 0.20509759 -0.026212245 0.08696599 0.018227948 -0.18410112 -0.024913568 0.004870585 -0.1297321 0.0035055596 0.14979483 -0.098826736 0.09368072 -0.054157063 0.08423656 -0.007352722 0.0800996 0.06662707 0.11761794 0.06283537 -0.03451875 -0.1451708 -0.029148664 -0.1238807 -0.088689774 0.021298124 -0.08436897 -0.09225911 -0.050507277 -0.07339359 0.002113425 -0.025709921 -0.048248783 0.015895987 0.039764013 -0.021355156 0.08684555 0.17265928 0.0073113497 0.09872892 0.090287276 -0.02109173 -0.052950505 0.046930376 -0.007393809 0.022401884 -0.0003859679 0.09883826 -0.12800148 0.06575621 -0.04250938 -0.041295182 0.14212476 0.031881478 -0.17253444 0.029572092 -0.11486063 0.100549765 -0.047396872 0.16942239 -0.024654614 0.083725385 -0.10875392 0.0893951 0.16501643 0.03668437 0.056807302 0.099149264 -0.11272869 0.010385868 0.085167624 0.06975562 -0.029727546 -0.00909419 0.018891342 0.033238545 -0.07209781 0.092612766 -0.096786454 0.011326545 -0.11857927 -0.12947232 -0.13818853 -0.101632066 -0.057132635 0.14024323 -0.024294818 0.032983683 -0.028298307 0.002739672 0.021588888 -0.029449778 -0.06312948 0.016799347 0.046165757 0.09345529 0.12029364
urban.a.01 0.09751422 0.044899683 -0.18782383 -0.020960173 -0.11286411 0.018506456 0.0028358488 0.21054669 0.104671106 0.11850282 -0.08511139 0.118006766 0.007136563 0.11599777 -0.123041525 -0.09576655 -0.15438882 0.03062253 -0.0073544993 0.07608856 -0.11102462 0.07340148 0.03015108 -0.053463515 -0.25158617 0.081973605 0.0339323 0.05102676 0.011490222 0.096199095 0.016911712 -0.009167111 0.05760635 -0.039831113 0.12409526 -0.02301134 0.037994836 0.002900051 0.1213812 -0.00736076 -0.11275296 0.10160589 0.18427493 -0.02024622 -0.12503777 0.16655234 0.093042575 0.090190835 -0.14351973 -0.030982202 -0.024817862 0.019691573 -0.111248635 -0.10953837 -0.067143 -0.18801808 -0.1120158 -0.15798578 0.035407223 0.07597473 -0.039508946 0.14024892 -0.0472794 -0.041718874 0.094529085 0.21597837 -0.05072466 -0.12001866 -0.040960044 -0.015468967 -0.089476295 -0.009695166 0.17106372 0.03596633 -0.07761462 0.038567312 0.09251093 -0.02550145 0.25467646 -0.016644558 -0.11082091 0.008082712 -0.04385731 -0.0077830995 0.13509302 -0.09670435 -0.059469573 -0.1165636 0.04615216 -0.15250309 0.08169316 -0.14540039 -0.081475936 0.099899694 -0.1977835 -0.04946143 0.17344402 -0.014308056 0.006673612 -0.14807159 0.019082574 0.01030881 -0.0781504 -0.021974543 0.061283298 -0.09240086 -0.022266155 0.026775358 0.05550246 0.13358496 -0.03279303 -0.0009187039 -0.049526453 0.10561729 -0.11686996 0.11718086 0.1477686 -0.061096698 0.09632476 -0.14012197 0.050442513 0.02355417 0.0006655721 -0.084730774 0.1156166 0.123623654 0.042820983 -0.007970929 0.06815964 0.033500582 0.05547978 0.012801068 -0.0024035568 -0.09268892 0.014702653 -0.17677392 -0.05818805 0.072542585 0.0039243945 -0.009632355 0.09995886 -0.1511663 -0.13729534 -0.005072263 0.07347274 -0.11439076 -0.016277803 0.14479 0.054244284 -0.080453984 -0.052886285 -0.0013147909 -0.028742338 -0.20817436 -0.001072209 0.019452993 -0.19794586 -0.042448603 0.057738096 -0.1095231 -0.043652933 0.010849629 0.06735839 -0.08674342 -0.032216057 -0.15443453 -0.037461895 -0.14617306 0.033537127 0.010912914 -0.11706591 0.022727272 0.18529081 0.013118567 -0.04749413 -0.037322804 0.005272932 -0.015417577 -0.023578899 -0.10817187 0.057284445 -0.14468138 0.018493313 -0.058018576 -0.025717359 -0.041962154 0.10599538 -0.0978017 -0.043024383 0.025445482 -0.009334484 0.1407095 0.11432951 0.017873863 0.093537964 -0.014567059 -0.13454579 -0.19715022 0.0707861 0.19933188 0.08366965 0.117794 -0.17734176 0.06937039 -0.074267045 -0.20129387 0.101602495 0.12211833 0.088406265 -0.10416858 0.12163992 -0.0139637245 0.039547797 0.10517719 0.0142750535 0.025316536 0.05307445 0.022201741 -0.08709626 0.01918527 -0.0645334 0.017107183 -0.0068867533 0.031174758 -0.09633116 0.19012097 -0.066182345 -0.057270497 -0.07500985 -0.06376944 0.13387336 -0.0062928894 -0.048486628 0.041903976 -0.040651526 0.06499647 -0.06505939 -0.12330091 0.02580525 0.09083962 0.0036967197 -0.12704648 -0.033214744 0.03656461 0.14475192 0.19329728 0.023354774 -0.032923285 -0.21298443 0.17082658 0.09022181 0.042096112 0.040270142 0.06420902 0.12510884 0.006423416 -0.16108103 -0.041220818 -0.11892281 -0.11972639 -0.08403444 -0.031014951 0.07770739 0.011400017 0.0863097 -0.077678785 -0.13760462 -0.021464778 0.09301799 -0.08140107 0.034156356 -0.06131424 0.04129322 -0.13854699 0.093582146 -0.10467264 -0.1198181 -0.05505025 0.04672676 0.039409813 -0.08111992 0.040816344 -0.21490613 -0.08946601 -0.110524535 -0.038249645 -0.12524599 -0.1227659 0.12136258 0.14851727 -0.0810455 -0.05770038 0.057673868 -0.0505864 0.0152680585 0.099364646 -0.05738935 -0.10417614 0.07962138 -0.123309426
