1000 300
old.a.01 0.272687 -0.120283164 0.010003753 0.009317138 -0.063549176 -0.009090398 -0.16919418 -0.11240938 -0.15493606 -0.12794822 0.07292859 -0.17469712 0.007322287 -0.0399471 -0.030941539 0.045905057 0.4334056 -0.04913605 -0.021909187 -0.04016503 -0.09772768 -0.13699898 0.099181496 0.033441044 0.22762083 -0.08325721 -0.20582552 0.11081368 -0.10060019 0.040251795 0.001860073 -0.032363642 -0.007260633 -0.12605739 0.04309812 -0.13305241 -0.0011017842 0.008594906 -0.02905679 0.011715531 -0.024717566 0.36207968 0.37495196 -0.45025223 -0.14702965 0.09299877 0.04677183 -0.06685967 0.15709904 -0.04585555 -0.019751817 -0.020097375 -0.08573627 0.047418337 -0.40279466 0.029865341 -0.16917454 -0.033046745 -0.070328966 0.0094971955 -0.039410386 -0.036006138 0.124907486 -0.075765595 0.047099728 0.01566196 0.17798015 -0.012948484 -0.022220634 0.010059096 0.015095455 0.015456432 -0.3994687 0.23459372 0.034411546 -0.060559258 0.054428592 0.13636309 0.09163827 -0.25094333 0.33906013 0.012126841 0.1843276 0.024167605 -0.03595331 0.03310587 -0.03926013 -0.11609557 0.04958327 -0.32816595 -0.44595382 0.05309692 0.01590267 0.04374696 -0.02706315 0.55546 -0.009812449 -0.011044457 -0.031210992 -0.025985288 0.019817114 0.11309074 0.10414514 0.043750905 0.005492587 0.027808005 -0.050776243 -0.3367759 0.0057165483 -0.04816944 0.35311997 0.10059991 0.019528305 0.02005822 -0.17961496 -0.02047897 -0.027673846 -0.180765 -0.056218084 0.05101823 -0.0073437616 0.010286142 0.013720265 -0.21086933 0.34523287 0.24972206 -0.8607671 -0.12415621 -0.04930565 0.022355948 0.29448345 0.017504113 0.025089674 -0.14761505 0.029674433 0.15653016 0.06605428 0.014289129 -0.007862854 -0.033154827 0.005142621 0.12956747 -0.03508653 0.10537506 0.0071862387 -0.33214247 0.21121827 -0.20230678 -0.008993911 -0.1250803 -0.02966552 0.15366119 -0.03728585 -0.0040797694 0.22786315 0.068738446 -0.06426008 -0.02915489 0.009390966 0.05874166 -0.2659255 -0.011321247 0.24508734 0.13250889 0.058130454 -0.21871962 0.023115331 0.021550063 -0.021565331 0.41413 -0.0018273297 0.036216795 0.018351888 -0.045128573 -0.14706223 -0.12344476 -0.00030256103 0.039148554 -0.012878465 -0.23514023 -0.11200775 -0.16239908 -0.06759919 0.3173092 -0.37822405 0.03275546 -0.007964777 -0.047735196 -0.019655462 0.27655005 0.1516006 -0.025039481 -0.17426012 0.04915067 -0.038181704 -0.2768355 0.06966094 -0.03989823 -0.4794567 0.020629289 -0.2943862 0.09509841 -0.036046047 0.06210701 0.09153051 0.16386198 -0.061746866 0.076382436 0.002666017 0.19413139 0.27803755 0.113430135 0.021438854 -0.0100676995 0.18151236 -0.32502684 0.014806118 0.093283206 -0.03408241 0.06609761 0.022883475 -0.014645493 -0.04042244 -0.45201457 0.08007467 -0.091662616 0.02211936 -0.07764176 0.0065396107 -0.0026319353 0.09708043 0.023974197 -0.13268785 -0.10802464 0.042007424 0.016715163 -0.04314807 -0.18577781 0.14733438 0.003202013 0.23588419 -0.009165469 0.03226799 -0.010065529 0.14515725 -0.04171908 0.20442547 0.027021151 -0.11806564 0.010724229 -0.0024529793 0.2042057 -0.027025824 0.27209482 -0.09120587 -0.015245425 0.078369565 0.053340975 0.17976654 -0.15206067 0.014411864 -0.030006558 -0.0016552928 -0.10248982 -0.011047666 0.011974374 -0.36206695 0.016234916 0.034358047 -0.037765272 0.014312007 -0.067063384 -0.111003034 -0.049296845 0.028356079 0.013061412 -0.16443235 0.022630263 -0.0072207605 -0.049284175 -0.008445127 0.032457903 -0.03255144 -0.39041868 0.030535996 0.56468284 -0.3277185 -0.24869776 -0.101809986 -0.25436506 0.017378496 -0.028829347 0.0029132464 -0.089248545 0.3802114 0.013191997 0.19974856 -0.13978839 -0.19712715 0.0066163484
tidy.a.01 -0.062332116 0.09894584 0.039538804 -0.045124974 0.06696828 0.047157507 -0.18567212 -0.028607262 0.053222384 -0.028905248 0.010349666 -0.041824836 0.036456753 0.033760905 -0.17945583 0.20027383 0.19073044 -0.5617425 -0.028220829 -0.1139845 0.14924358 0.23743698 0.047047272 0.16966245 0.14216693 0.049944222 -0.33859447 -0.054033462 -0.33791655 0.06555354 0.036527622 0.025340734 0.013636724 0.012079972 -0.25667983 -0.17238836 0.3337352 0.046118222 -0.020096967 0.07185249 -0.008362518 0.08761931 0.01283314 -0.07471207 -0.03421464 0.17665155 0.04884031 0.008413354 0.31741098 0.01918467 -0.029534068 0.026968652 0.060294043 -0.06847409 -0.0024446242 -0.01874962 -0.3808411 0.068508774 0.006286534 -0.029790882 -0.111668184 0.050111763 0.1837682 -0.015596281 -0.09226436 0.064108 -0.18552963 6.385903e-05 -0.22400181 0.093032695 -0.010931899 -0.05665738 0.0060994714 0.011314501 -0.004259369 -0.091466025 0.21391276 0.08440067 0.21545033 -0.2991495 0.27189675 -0.06880116 0.17133695 -0.014422443 -0.22634007 0.27478433 -0.008300336 -0.21847363 0.043302856 -0.017135862 -0.25100583 -0.10733757 -0.3162416 0.1441748 -0.03755058 0.031942487 0.31203216 -0.01564769 -0.032662798 0.004215832 -0.33680412 0.25825197 0.005252172 -0.20734143 0.041330595 0.039469782 0.005574373 -0.4432018 -0.040953703 -0.13809782 0.1867083 0.027960544 0.021787599 -0.07740815 -0.080116086 0.1100801 -0.20346068 -0.08442084 0.017323956 0.04428186 -0.013940911 -0.06600536 0.022028007 0.06733697 0.030461442 0.38067248 -0.053259373 -0.24890041 0.068901315 -0.022834407 0.39286944 0.13348469 0.019054784 -0.006967499 -0.009558378 0.15269446 0.07680101 -0.1251591 0.023052523 -0.022131078 0.10955391 -0.10811482 -0.021346996 0.25896043 -0.29817325 -0.00029077276 -0.046717577 0.07140256 -0.5660196 -0.044296835 0.44851258 -0.14140502 0.043701652 0.013784658 -0.013175552 -0.04481298 -0.10247207 0.006489418 0.01971694 0.13211451 0.056528278 -0.017273732 0.13766222 0.13871199 0.015781049 -0.010286633 0.11177171 -0.042366773 -0.011681283 0.124554865 0.060380712 0.10664216 0.10290278 -0.24362521 0.32966632 0.18698204 -0.08325413 -0.0500673 -0.36577857 0.20775972 -0.038490515 -0.046189003 -0.12597874 0.2110134 -0.3007534 -0.075388685 -0.008819879 -0.035696402 0.39679888 0.32782736 0.096176654 0.041944694 -0.32172665 0.19823076 -0.009055475 -0.32155254 0.10933343 -0.012004549 -0.4887793 -0.0444261 0.032412264 0.04873272 -0.014688198 -0.07434625 -0.021199849 -0.037356243 -0.47365052 -0.14976093 -0.20608598 0.031082967 0.25724757 -0.017172836 0.11662715 0.058122706 0.008985393 0.016255656 -0.113371804 0.07549167 0.17002779 0.198789 0.0031468195 0.07173097 0.029874993 -0.12581818 0.062512696 0.1907714 -0.13801025 0.13127169 -0.039250143 -0.12904215 0.17001005 0.09570405 -0.027534282 0.017559623 0.028962832 0.14384753 -0.031220187 -0.17106582 0.2901965 -0.050547175 0.023383878 -0.0003567876 -0.018906316 -0.12095671 0.10590502 0.19976746 0.014141453 0.15949903 -0.031133143 -0.257802 -0.008431975 0.028154312 0.021646319 0.10914532 0.2669582 0.1015105 0.470135 0.021293404 0.31770664 -0.042219162 0.06331944 0.3593584 0.033301577 -0.026100691 -0.07471539 0.058037985 -0.14735019 0.033741925 -0.02299873 0.03674078 0.36805627 -0.034624055 -0.1622741 -0.22170162 0.061817396 -0.09092386 0.03895862 0.18898736 0.040485486 0.100454204 -0.2437286 0.05313935 -0.26965517 -0.010449835 0.3060594 0.3427707 -0.44312924 -0.15835674 0.32000557 -0.33417946 -0.35102704 0.059447043 -0.0026068327 0.49793798 0.19282931 0.0361975 -0.051542424 -0.03280639 -0.13827306 -0.03360451
available.a.01 0.13640137 -0.08693525 0.012870485 0.15114748 -0.052353475 0.49978745 -0.22866698 0.0025676973 -0.019220402 -0.42024583 0.0996828 -0.08961113 -0.24289127 0.0024497737 -0.22732988 -0.02058439 0.29272157 0.0005935282 -0.00896554 -0.16198957 0.0024418097 -0.0052562254 0.079108134 0.10343466 0.070426226 0.034507886 -0.30496627 -0.04808685 -0.03243232 0.07039205 0.057787333 0.13884844 -0.012490389 0.3598201 0.06847335 -0.04331297 -0.003106569 0.4029291 -0.06504905 0.21511059 0.0044156513 0.09341952 0.051624134 0.025524601 -0.106052026 0.13533033 0.030035155 0.013981662 0.28719577 -0.036065873 0.0033280205 0.02512111 -0.07387744 -0.08435365 -0.10172614 0.01888192 -0.033840176 -0.0032578306 0.012586252 -0.018192993 0.0016772071 -0.06894949 0.033522557 -0.18203731 -0.122420155 -0.012126709 -0.051835448 0.11278539 0.025055218 0.022070153 0.13992812 0.07002612 -0.053044766 -0.27130127 -0.011752683 -0.12019351 0.3160219 0.032446384 0.0023673188 -0.12175141 0.22715318 -0.026268134 0.1449944 -0.20197323 -0.05886697 0.08125398 -0.027571324 0.0068365075 0.020879405 -0.00084788614 -0.1715102 -0.017223783 0.06407052 0.15276472 -0.3348157 -0.07597754 0.23895134 -0.011433309 -0.2570386 -0.06410486 0.09404747 0.5442793 -0.10207965 0.2116837 0.69378144 0.026143996 -0.021710044 -0.23419558 -0.023086438 0.014412707 0.3260541 0.015979297 -0.015517109 -0.07826505 0.014005149 0.15401286 -0.06306969 -0.018809823 -0.08821207 -0.35152808 0.07809504 -0.005882947 -0.042899285 -0.028992077 0.07676779 0.12161263 -0.03032068 0.12610593 0.1124253 -0.046774693 0.2397633 0.04187317 -0.030900704 0.0044781133 -0.11512606 0.18680009 0.046938907 -0.0178871 0.23133133 0.0057326253 -0.0044679544 -0.09306944 -0.15867282 0.29823354 0.05799844 -0.045244377 0.02084325 0.18532278 -0.13895915 -0.11488147 0.077718824 -0.10746851 -0.0074377116 0.06727617 0.19397442 -0.020436762 0.043112025 -0.14748463 0.03269398 0.27735502 0.0029763696 0.045781463 0.043316845 0.19589691 0.53753096 0.016388642 -0.024460154 -0.05102078 -0.005523462 0.12664303 0.2120169 0.07636335 0.014652771 -0.3642614 0.0082091475 -0.3802022 -0.017729573 0.022845048 0.009791133 -0.077143185 -0.12548758 0.03499626 0.036226828 0.34064895 -0.5270686 0.14604945 0.29858354 -0.17059568 0.36258364 0.47731903 0.046068184 0.0175474 -0.1556489 -0.029187903 0.005899471 -0.3824478 0.043056313 -0.12613232 -0.33880654 0.08756834 -0.15069816 -0.05014544 -0.0022835874 0.04622877 0.006390087 0.00097100635 0.014259848 -0.27667126 -0.1243715 0.062123105 0.36387113 0.054118473 -0.011124023 -0.029493708 -0.035187718 0.022997286 0.021664362 0.017702702 0.05287399 0.02816868 -0.072538234 -0.026952166 -0.015758378 -0.098976634 0.08217578 0.19525325 -0.12556227 -0.04558884 -0.023970613 -0.12952341 -0.011351984 -0.014699859 0.35324454 0.05045 0.07497156 -0.24056907 -0.02505584 -0.12917106 -0.05511452 -0.06635093 0.04195537 -0.05212516 -0.031089345 -0.0074284924 0.01925723 0.07364623 -0.014282995 -0.1821008 0.04275379 -0.04482788 -0.027967766 0.2656644 -0.057234734 -0.0026440087 0.20989046 0.22542785 0.08186642 0.03145476 0.721099 0.01822162 0.058600884 0.17746875 0.017519468 -0.15010111 -0.014874563 0.29974097 -0.11617999 0.0029316444 0.0003891017 0.030056158 0.057471514 -0.018920327 0.03548551 0.12824038 0.056266017 -0.016728036 0.01275139 -0.040414754 0.1556657 -0.014506595 -0.027429005 0.19358361 -0.11185253 0.019754427 -0.009850282 0.27953365 -0.33069456 -0.24704342 -0.019595487 -0.516308 -0.0295641 -0.009238194 -0.08919633 -0.004275201 0.39402005 -0.028957365 0.0027419624 0.008463324 -0.31802547 0.0551808
warm.a.01 0.07938704 -0.0075223604 -0.026019696 0.052606687 0.15359333 0.081654586 -0.061270766 -0.02782318 -0.16136521 -0.09577047 -0.027554149 -0.10361037 -0.0662546 -0.017523559 0.07575044 0.45548528 0.53745776 -0.107350215 -0.05069499 -0.023057178 -0.2906087 -0.06288655 -0.0421777 -0.077198446 0.15581638 0.018498585 -0.34273693 -0.08976932 -0.04523503 -0.09773597 0.02612118 -0.09176293 -0.04709587 -0.045192517 -0.043284677 -0.84667486 0.30003855 0.018905068 -0.09413158 -0.23358059 -0.45155856 0.34745067 0.12952363 0.007972574 0.0034215765 0.29335436 0.05065055 0.16450715 0.53049475 -0.0055495426 0.22789857 -0.026567727 -0.039843164 0.06073211 0.07487075 -0.03506926 -0.020938456 -0.02174506 -0.16522384 0.0189477 -0.0040206746 0.038354553 0.12046749 0.024473015 -0.11358568 0.11524299 -0.10856612 -0.0218786 -0.053007256 -0.040651884 -0.01748087 0.020648833 0.026541535 -0.011504946 -0.03367436 -0.07193557 0.2335792 0.15012772 -0.10323828 -0.16893072 0.6908649 -0.3092305 0.11466612 -0.24068744 0.053769566 -0.04722071 0.05315719 0.27506095 0.02191756 0.13588259 -0.2800362 0.13455467 -0.059364855 0.31729433 0.006571746 0.0061551933 0.3638258 0.038907286 0.012413201 0.040397603 0.067578726 -0.049553484 -0.03712472 0.026598912 0.042882092 0.3784828 0.081600375 -0.11150512 -0.0486084 -0.34041473 0.26805553 -0.1063831 -0.012755702 0.025886929 -0.03219098 -0.081798 -0.40646046 0.0567199 0.018057173 -0.029879196 0.016145423 0.035930764 0.060101606 -0.27697757 0.02348157 0.08510175 -0.2573352 -0.10520574 0.13893418 0.013319075 0.39240098 0.017737448 0.008934651 0.19702156 -0.2530605 0.2905781 -0.034437507 0.07642827 0.032916103 -0.2513079 -0.15205638 0.2047374 -0.4025091 0.15311986 -0.16755514 -0.07980994 0.039008223 -0.042113714 -0.056484524 -0.15154578 -0.005733517 -0.12640712 -0.05444923 -0.094059356 0.5507294 -0.022877917 -0.04556992 -0.04187119 0.14870273 -0.2655893 -0.065652154 0.04905421 0.19608784 0.16076913 0.13573018 0.20348114 -0.060919333 -0.3467656 0.0077720494 0.1697321 0.029158842 -0.033585604 0.1939671 -0.27255088 -0.0026827273 -0.011212038 0.1284636 -0.17705217 0.018113866 -0.012162301 -0.20226529 0.010683113 -0.0454006 0.2482239 -0.5384114 -0.027704455 -0.18810523 -0.07373894 -0.10252934 0.407861 0.15103477 -0.028989855 -0.38682023 0.3299317 -0.06513302 -0.13320756 -0.050346 -0.16766085 -0.36040673 -0.5282976 0.04162787 -0.33744356 -0.20031226 0.004156702 -0.004924591 0.107155226 -0.21422145 0.021872105 0.07428835 0.24836679 0.38802096 0.048478086 0.001152844 -0.23592433 -0.0389155 -0.25687075 0.044615857 -0.024728421 -0.12202287 0.20623696 -0.07561433 -0.3926586 -0.01640874 -0.15221281 0.05620818 -0.036632366 0.05187152 0.23319381 0.06055314 0.031272527 -0.2556258 -0.061633352 0.17231518 -0.21027988 0.048325017 0.0063561336 -0.085006475 -0.17536579 0.06974593 -0.023991557 -0.0691894 -0.017189074 0.7144312 0.063273765 0.16358954 0.027971562 0.08347622 -0.010275581 0.0087223165 0.2766697 -0.026472248 0.17970516 -0.20697445 0.008283557 0.017682992 0.07418133 0.10289087 0.06294886 0.30117112 -0.014109181 0.016664693 0.19997336 -0.004326528 -0.07167774 -0.0058480636 0.014901572 -0.24276215 0.13939337 -0.0047128405 -0.084915355 -0.0649396 0.057625204 -0.24631791 -0.019247781 -0.0016598525 -0.07276442 -0.023409026 -0.049938474 0.038485233 0.027561551 -0.23592079 -0.0803786 0.021477982 0.051202316 -0.2323578 0.3045609 -0.16153505 -0.090309605 0.0016782776 -0.2966226 0.044811357 0.012643741 -0.32242242 -0.0020622518 0.4099126 0.028486371 -0.01531033 0.01156736 -0.14761136 -0.10288213
strange.a.01 -0.024021516 -0.14309774 0.11253928 -0.20409267 0.20441817 0.1262969 -0.16917726 0.30000693 0.1011044 -0.094723664 -0.05902449 -0.00033989415 0.08993588 0.24718761 -0.08782315 0.24424434 0.63350445 -0.013776386 -0.27423212 -0.04641452 -0.3006324 0.0021300681 -0.27016643 0.012157371 0.03185642 -0.123322375 -0.64417595 -0.1959929 -0.25151843 -0.09287741 -0.15468171 -0.28580087 0.4004139 -0.071463965 -0.0065388507 -0.07881382 -0.13323674 -0.086988464 0.04611441 -0.17947677 -0.10231859 0.19797978 -0.17126735 -0.09136193 -0.04107382 -0.19173482 5.6563054e-05 0.056968752 0.32432693 -0.6062258 0.035455275 -0.026361812 0.07501166 0.3171014 0.021926159 0.06088426 0.0906661 0.12782282 0.15557164 0.040360842 -0.025283549 0.080771126 0.0409599 -0.57558846 -0.172159 0.2441344 0.070586294 -0.16395585 0.017622475 -0.14982517 0.007932174 -0.013466726 0.099095315 -0.006126602 0.035087727 0.0895409 0.30194062 -0.01902082 0.13015355 -0.4045434 0.2581438 0.044084758 0.2970685 0.057386693 0.043925837 -0.011631737 0.07835878 -0.27170014 0.11565849 0.07038725 -0.460655 -0.03018465 -0.00771227 0.113609135 0.043145142 0.056543384 -0.47365734 -0.31842634 -0.4195092 -0.08159697 -0.1097713 0.33419558 0.15567097 0.11797936 0.22668816 -0.09520872 0.07343995 0.16274361 -0.18671519 -0.06970798 0.20014706 -0.024768032 0.046404343 -0.016678205 0.33882245 -0.005257872 -0.058211304 0.2068941 0.039251506 -0.0027830119 -0.14231083 -0.07148198 -0.08163386 0.05963887 0.19127351 0.044366755 -0.16518442 0.0027168985 0.2658436 0.06250264 0.6102334 -0.051963396 -0.20001553 0.022937562 -0.03496115 0.601826 0.0020906245 -0.106420115 -0.067781396 0.13077985 -0.04060877 0.08401293 0.14287707 0.08359228 -0.23473015 -0.018607615 -0.02366865 -0.007977104 -0.25550374 -0.11604553 0.05701141 -0.04210404 0.20847087 -0.074597985 0.13564506 0.045829616 -0.34527746 0.035684023 0.022847252 0.041612666 0.022505736 -0.05278362 0.08244357 0.035703495 -0.05882417 0.30580246 -0.035983 -0.20567043 -0.011933647 0.4379534 0.010914261 -0.0521958 0.04608395 -0.3224528 -0.011244524 0.07522882 -0.13227893 -0.16523737 -0.10278617 0.2557714 -0.6716336 -0.07681411 -0.11842992 0.27976936 -0.4525219 0.20818608 0.04391358 -0.20771898 0.33416894 0.4231058 0.16795498 -0.016349278 -0.004474006 -0.05038332 0.108958855 -0.23254873 -0.23928744 0.09268477 -0.7350148 -0.052782673 0.2700768 -0.08596679 -0.16484548 -0.073347144 0.19388291 -0.11318874 -0.028539298 -0.13384445 -0.38453367 -0.23086059 0.20683974 0.062687896 0.011584348 -0.028474912 -0.046083793 0.014966107 0.032939464 -0.06064603 -0.0041151056 -0.08337794 0.09787018 -0.10894403 0.0063365055 -0.0072126375 -0.16663204 0.18610397 -0.010982006 -0.012564213 0.42437297 -0.23729664 -0.05689248 0.38401338 -0.20256895 -0.026131218 0.08306699 0.12942538 -0.26950866 -0.4782977 -0.12716961 -0.108158186 -0.03659714 0.12090802 0.20200196 0.009410977 0.16969934 0.059939846 -0.01600796 -0.025213892 -0.0015689146 -0.1272671 0.04933718 0.37351066 -0.33513156 -0.041307565 0.01576873 0.06444936 -0.21345226 -0.10752524 0.35603705 -0.3885271 0.05158387 0.39745036 -0.12451746 0.11580796 0.041647688 -0.1712807 -0.030577771 -0.23222236 -0.17767736 0.16628693 -0.13420106 0.010251856 0.006842307 0.05194561 -0.0010728729 0.3790834 -0.03861087 0.19122627 -0.3496892 0.05047643 -0.1803514 0.2538572 -0.03911752 -0.05261051 -0.054899257 0.31331715 0.00399146 0.4531665 0.23183495 -0.43749338 0.24955113 -0.16849686 -0.12502368 -0.11288793 0.48444262 0.008909141 -0.2551366 0.04258767 -0.33156312 0.13621947
odd.a.01 0.33931196 -0.13496368 0.050157435 0.2786982 0.066193074 0.3696192 -0.31963757 -0.071125835 -0.13572565 0.14361478 0.17033136 -0.33603048 -0.12305217 -0.047626443 -0.2764128 0.2695844 0.45324534 0.043804012 -0.04596376 -0.2917202 -0.60502756 -0.21682177 0.004707431 -0.13407719 0.13182317 -0.103518166 -0.2880657 0.038082156 -0.13497011 0.12257167 0.2637871 -0.11119396 0.6499811 0.19143675 -0.21985888 -0.21808307 -0.032998327 -0.110501885 0.14089257 -0.09432799 -0.39171794 0.10350374 -0.00084247394 0.33968976 -0.40941095 0.21398728 0.084484205 -0.028300583 0.42182615 0.2979062 0.13198827 -0.026940146 0.34569633 -0.10141099 -0.1481659 -0.041906144 0.2517101 -0.3055465 -0.0952782 -0.18076596 0.26419857 -0.6090807 0.123317674 0.29856315 0.2932324 0.02563168 -0.0612612 -0.12899952 -0.09105313 0.016557788 0.25486434 0.36374152 0.08554886 0.17565145 -0.10861165 -0.046512205 0.43713418 0.22003011 0.15076476 -0.28933194 0.4264072 0.08634717 0.36879227 0.24417886 0.1325183 0.22368209 -0.10871741 0.12137852 -0.11084427 0.015283652 -0.39988536 -0.31257567 -0.09755605 0.03678964 0.096069746 0.03847731 0.30647242 -0.16456157 0.034582116 0.16537899 -0.26870558 0.37161228 -0.12099849 0.057692852 0.19975989 -0.026922787 0.12503709 -0.45005897 -0.05695754 -0.23744196 0.30438715 -0.297998 -0.33950493 0.08226371 -0.02697629 0.5600445 -0.28233695 -0.016083399 0.1924647 -0.33221596 0.09604094 -0.0374016 -0.007371749 -0.009756001 -0.3214042 0.15939969 -0.117269784 0.062964216 0.2600952 -0.116303526 0.33829287 0.040039938 0.20227203 -0.1358453 0.19936985 0.23146698 0.09408231 -0.05550628 -0.12301462 0.022558782 -0.03291704 -0.0055849976 -0.32869047 0.38665822 0.030836325 0.16008537 -0.064402595 0.40176478 -0.13368686 -0.34738138 0.17539027 0.028421082 -0.058408637 -0.102518864 0.26500726 -0.035006147 0.46724308 0.04984137 -0.33808586 0.2585932 0.012592314 -0.0068554366 -0.05298809 0.3675786 0.06445128 -0.12395129 0.234792 -0.38086897 -0.107261516 0.20260298 0.063177235 -0.019358678 0.035545457 -0.28833106 0.041891918 -0.07786214 0.16764991 -0.0301713 -0.3441088 0.056573354 -0.29285994 0.10086478 -0.2287044 0.31165668 -0.51940674 -0.8075576 0.22158994 0.062543355 -0.1804869 0.48261198 0.38096255 0.14246945 -0.2243547 0.323821 0.2393143 -0.16565685 0.012756407 0.15508184 -0.33339632 -0.074565835 0.19155052 0.13767128 -0.14065553 0.1566216 -0.33393687 0.049457133 -0.2297547 -0.08107607 0.13597395 0.029348059 0.25948343 0.16959125 0.007245505 0.011893255 0.11341447 -0.12684505 -0.03402608 0.059849802 -0.04244309 -0.0030182374 -0.6909197 -0.12492908 -0.10814886 -0.31535596 0.524115 0.07301194 -0.124186635 0.6334338 0.055562843 0.056359354 -0.34680226 0.17691936 -0.13852796 0.36395872 0.26494172 -0.1498528 0.0945022 -0.32768247 0.1572135 0.16820213 0.28777465 -0.5038421 0.49541587 -0.0059453864 0.07122039 -0.005235663 0.14664598 0.066801496 -0.06997524 -0.37748542 0.08346874 0.07054596 0.08127931 0.36946672 0.37306982 -0.057314336 0.18843858 0.046511576 0.47638685 -0.18670017 -0.021260621 0.18280137 -0.28790537 -0.13986887 -0.19371134 0.031933878 0.01970033 -0.6751652 0.111096606 -0.047985494 -0.18719012 -0.02134548 -0.2736454 0.13590051 0.019742738 0.17310937 0.26210433 -0.11441449 -0.27089277 0.19283515 -0.14169379 0.084284164 -0.28100336 0.124871254 0.066441774 0.30724555 -0.28282592 -0.06237461 0.34080064 -0.40731582 -0.110739045 -0.01867188 -0.035468057 0.23318589 0.4986454 -0.034665387 -0.23891915 -0.06981187 -0.16270919 0.04682995
impermanent.a.01 -0.038692664 0.0047830404 -0.07850308 0.079247355 -0.006122061 0.0055712396 -0.11579981 0.17986473 -0.28678665 0.0459574 0.12872614 -0.17482828 0.031078653 0.07752447 -0.01438725 0.04230622 0.49705166 0.01310066 -0.32410708 -0.115751244 -0.02385677 0.009025967 -0.0038487967 0.057431884 0.00047403402 -0.020603195 -0.19870538 0.07183655 0.094287105 -0.1176863 0.23130417 0.045220725 0.078309014 -4.4102882e-05 -0.37929934 -0.11778289 -0.26447293 -0.020162735 0.0028194592 -0.14904377 0.02682198 0.25077772 0.26196322 0.038757376 -0.07933019 0.29042518 -0.0070284256 0.15834393 0.28563902 0.013848135 0.23769626 -0.021360662 -0.11906274 0.023796648 -0.016617944 -0.032840554 0.07828428 -0.03686109 -3.0000318e-05 -0.04638407 -0.35504237 0.18082939 0.08239623 0.003544641 -0.024037585 -0.013966634 0.25426722 0.029098356 0.023510152 -0.026558995 -0.02532851 0.08481122 -0.06273781 -0.006437125 -0.18546234 -0.23314811 0.148448 0.12834907 -0.059684828 -0.31957388 0.047563244 0.068168 0.3222487 0.121111825 0.10743965 0.11595318 -0.00051541143 0.14062658 0.0045231082 -0.0025558013 -0.20870754 -0.015400408 0.28615552 0.1883965 0.0013398917 -0.008494494 0.2682265 0.070304714 -0.036419008 0.025911342 -0.039476786 0.1352656 0.027959798 0.07015929 0.013294489 0.038637202 0.3003322 -0.1998834 0.21144699 -0.03818382 0.39101392 0.028100122 -0.04076832 0.12110369 -0.010977228 -0.026186634 -0.05915499 0.006882643 -0.013995591 -0.08811225 -0.025176702 -0.019806223 -0.039226785 0.016456712 -0.44122413 0.0170951 -0.082787536 0.08052463 -0.028065689 -0.035529796 0.5383061 -0.1270679 -0.05639103 -0.30092028 0.04320778 0.26975265 -0.027545493 -0.0460892 -0.19381486 -0.008744782 -0.13434875 -0.05789968 0.13070919 -0.072977416 0.08965425 0.06511238 0.053234935 -0.15200002 0.15807438 -0.062190447 -0.08758273 0.16434263 -0.03455275 0.023415627 0.015443693 -2.4063062e-05 0.031585425 0.06436858 -0.029820623 -0.29547298 -0.048462402 0.11973193 0.13147102 0.15579697 -0.027921155 0.056813404 0.021916768 0.009215225 -0.046694107 0.30213517 -0.066742204 -0.1399733 -0.012997416 -0.14123316 -0.024856832 0.0023372434 0.08786539 -0.03384507 0.06628915 -0.27290726 -0.22678211 0.028974123 -0.01809895 0.21668068 -0.46097443 -0.15313053 0.07511723 0.028205525 -0.06035441 0.22355057 0.30786827 0.010847293 -0.39978382 -0.007365935 0.02019831 -0.19317813 -0.014896245 0.0044664107 -0.3942813 0.015260207 0.14201452 0.08077672 0.13804716 0.066256136 0.0019335983 0.19797663 -0.12615773 -0.0616379 -0.0016935198 -0.078696586 0.2016788 0.04059104 -0.051204845 0.052391507 0.024952175 0.04448803 -0.02692202 0.03266232 -0.19416073 0.043603614 -0.055326723 0.111537956 -0.056573533 -0.26167747 -0.08504829 -0.12942876 -0.0028886877 0.018029144 -0.054567475 0.05934286 -0.053737815 0.05047069 0.028711578 0.039503276 -0.029191107 -0.32124308 -0.07180987 -0.18876988 0.2090495 -0.047406107 0.20147951 -0.26103023 0.015868511 0.003920934 -0.06412802 -0.07627185 -0.013692722 -0.049302887 -0.0638162 0.01702625 0.22250786 0.09577288 -0.020994872 0.028863933 -0.06226078 0.07561198 -0.027630402 -0.033552907 0.5910876 -0.054566026 -0.059696548 0.07952932 -0.2506393 -0.07915123 -0.0441296 -0.029285073 -0.14908676 -0.2821292 -0.00019443443 -0.009817449 -0.0053064567 0.041652758 -0.035739988 0.04260709 -0.20712425 -0.016938902 0.015608417 -0.10629271 -0.29768363 0.18430133 -0.05876145 0.111969754 0.03132231 -0.034953475 0.014611573 0.14682949 -0.20495111 0.1017952 -0.111217976 -0.32051194 0.04729117 0.01290002 -0.006633027 -0.17980957 0.51228654 -0.0135235675 -0.0091526145 0.01061922 -0.31431538 0.12595525
sensitive.a.02 0.014222866 -0.061498336 0.3270758 -0.02251278 0.0264479 -0.22725171 -0.078911714 -0.07355956 0.3496951 0.14678334 0.06114167 -0.31957492 0.062025774 0.011441085 0.057646878 0.08801114 0.51979953 0.17205866 -0.11410624 -0.16924137 -0.3806319 0.042322114 -0.03221565 0.08899496 0.28762454 -0.02808723 -0.44720122 -0.18103443 -0.08376978 -0.021625929 -0.25322244 -0.0878001 0.05970636 0.013422162 0.33481845 -0.25350633 0.09937574 -0.2014825 0.0881899 0.063791975 0.046182588 0.2688904 -0.021064933 0.06488354 -0.007957093 0.253042 -0.08932445 -0.026514204 0.3837157 0.276942 0.0099781025 0.043189507 -0.12196538 0.2014558 -0.058419507 -0.014778259 0.007265333 -0.008776483 0.0560459 -0.036510125 -0.033864032 0.20931093 0.2541164 0.045961216 -0.014747732 0.4380249 0.09784765 -0.013635893 -0.0020344965 -0.056967232 0.1011033 0.17657778 -0.021715112 0.060329456 -0.10668906 0.017890744 0.20079513 0.17444168 -0.12887053 -0.1600341 0.16544957 -0.027467163 0.20442317 0.045387145 0.2601186 -0.089211546 0.051958356 -0.11491085 0.038594335 0.0037067584 -0.15310645 -0.11926957 -0.24694806 0.09212568 0.025086023 0.050286487 -0.0715301 0.0872837 -0.037974603 0.15729104 -0.042002343 0.057029635 -0.03207695 0.06279638 0.054871276 0.027135404 0.21309559 -0.22247362 -0.15557364 -0.2453013 0.3134735 -0.05982654 -0.04748723 -0.20282245 0.047465928 0.0043207174 -0.06904176 0.019824559 0.13905384 -0.03802952 -0.008288274 -0.03507438 0.37667555 -0.18062462 -0.24500827 0.20029657 -0.6061177 0.055126037 0.2724313 0.047112647 0.53136766 0.08962665 -0.065412045 0.42436138 0.07182521 0.36702833 -0.072057255 0.051893733 0.0007880958 0.33599344 0.053116087 -0.42579553 -0.03661577 0.1624771 -0.070441075 0.010266587 -0.003828106 -0.048698403 -0.11016421 -0.15098138 0.5704576 -0.028164739 -0.06196584 0.0021293054 0.3159328 -0.03305362 0.008025106 -0.053953696 -0.008627687 -0.034932144 -0.0047651436 0.05730891 0.26884085 -0.09750895 0.053884223 0.11502667 0.061663266 -0.013474194 -0.31048158 0.28668994 0.02802397 0.017596036 0.32362753 -0.09009396 -0.04669502 -0.0709489 -0.044381663 -0.28224543 0.010036569 -0.11431023 -0.30428246 0.24743798 0.16624185 0.2648988 -0.20896186 -0.0654008 -0.117823705 -0.11203542 -0.03185607 0.3804371 -0.0061049196 0.1085817 -0.20794538 0.024385603 0.100659505 -0.3266949 -0.036036793 -0.0029825831 -0.38515297 0.004897365 0.21397986 -0.016427591 -0.27070382 -0.0076648975 -0.03365852 0.04466776 0.27173266 -0.224602 -0.044171046 0.13195412 0.12667131 0.023372954 0.04135714 0.0326869 -0.16042505 0.108089946 0.030717568 0.06016043 0.1426243 0.2555004 0.032143045 0.008110054 -0.009649803 -0.13853943 -0.025234189 0.02196781 -0.056784187 0.04243396 -0.063713 -0.059778955 -0.00051289867 0.49173564 -0.23981859 -0.10207722 -0.2068046 0.077445194 0.102118686 -0.32812977 -0.15940034 -0.10841311 0.080515176 -0.29865897 -0.06505698 -0.01598261 0.08453697 0.022099303 -0.083382286 -0.041793834 0.071997724 -0.14266132 -0.04666379 0.17791271 0.07300455 0.0054479954 -0.06301771 -0.10696434 0.142562 -0.22831707 0.27368617 -0.07041236 0.02887175 0.034227937 -0.022452762 -0.042489953 0.005430513 0.010717149 -0.44508293 0.22102031 -0.16321605 0.14435153 0.06929086 0.01809585 -0.13575211 0.0037749263 -0.00045817753 0.005331831 0.009073676 -0.021010974 0.05474414 0.049816027 -0.11000727 0.17596895 -0.119772546 0.040603 0.07431493 0.27012026 -0.27382532 0.024794942 0.0423982 -0.49047053 -0.040014952 -0.054086257 0.0039979736 -0.085014895 0.19397761 -0.039081756 0.20775768 -0.056833945 -0.06451502 0.03345244
fat.a.01 -0.09182507 -0.012831451 0.14655422 0.11725213 0.007688453 0.1271926 -0.08605633 -0.07632819 -0.026714705 -0.1263968 -0.014152969 -0.1551069 -0.079424895 0.03457584 0.008695103 0.08470683 0.27190655 -0.017690815 -0.20880513 0.022826128 -0.089388154 0.21910757 0.0013750388 -0.10923417 0.17530197 0.14107148 -0.43022487 -0.0672602 -0.06684107 -0.011816062 0.22064401 -0.050508305 0.027879184 -0.10828285 -0.009204813 -0.11550171 0.006288156 -0.010509867 -0.016159061 0.018885916 -0.6085121 0.1311931 0.07251671 -0.09691057 -0.09519965 0.17600739 0.121295795 0.03658936 0.27921942 -0.01281912 0.011921692 -0.06122355 0.021422166 -0.03011772 0.05769062 -0.07501905 -0.0036267235 -0.4068213 -0.085603654 0.029228924 -0.0032560108 0.028561695 0.12864281 -0.32929927 -0.085535266 0.018560871 -0.0031489339 -0.2884285 0.006355416 -0.004650864 -0.0022287157 0.08648418 -0.2728197 0.038644843 -0.009974283 -0.1477693 0.19834067 0.019407906 -0.23051742 -0.39140972 0.26591662 -0.02357438 0.21888617 0.03409388 -0.048479043 -0.0051026284 0.022433199 -0.20345105 0.05088897 0.03457298 0.06304975 -0.14382026 -0.109671235 0.19946124 -0.07935645 0.019377379 0.022917569 0.020631177 -0.066117145 -0.119367406 0.08879376 0.47231027 0.011079904 0.026991384 0.135821 0.010830652 -0.002824651 -0.4133695 0.012813689 -0.0058829705 0.41308755 -0.041338675 -0.002570866 0.38220668 -0.23741968 0.14878587 -0.20603834 0.004096297 0.05190723 0.056260504 0.0067921914 0.06829197 0.20617887 -0.020561289 -0.08985495 0.19584069 -0.027411427 -0.06299172 0.25942686 0.031900633 0.45080924 0.08033577 0.2589951 -0.086037956 0.02158521 0.27005818 0.018488854 -0.013205361 0.034492373 0.010574366 -0.04897266 0.12692362 -0.2269944 0.13358574 0.039398614 -0.029189574 0.22146434 -0.5002092 0.020716576 -0.11625287 -0.027379261 -0.098052345 0.0019349696 -0.16322988 0.12614073 -0.10133322 -0.101643614 -0.015158153 0.08492164 0.11327397 -0.30403814 -0.01780684 0.270696 0.16354741 0.18413049 0.0781892 -0.39852867 -0.029548638 0.22630207 0.3399297 -0.019556439 0.20405535 0.0130992085 -0.16413169 -0.021188715 -0.23099877 -0.028608846 0.1385399 0.006876489 0.025784684 -0.10540324 0.08155395 -0.11545108 0.19966732 -0.25638738 -0.05181392 0.130091 -0.13112527 -0.06741569 0.4173921 0.2345696 -0.06744577 -0.342747 0.10319075 0.037201315 -0.31713575 0.14044234 -0.073074654 -0.47706488 0.040147223 -0.002093593 -0.03554678 0.11328079 -0.038529426 0.011573123 -0.072885066 -0.005421316 -0.4837667 -0.21942309 -0.0015167592 0.24828303 0.024219736 -0.027484937 -0.063086 0.3751961 -0.053989496 -0.026290901 0.0077571343 -0.03743771 0.070045575 -0.17146426 -0.044169284 -0.006913061 -0.15736006 -0.08404513 0.2144266 0.08495453 0.1749446 -0.08370379 -0.06176225 0.07432439 -0.044001095 -0.027798668 -0.09112771 -0.081062354 0.024827326 0.013456057 -0.42221057 -0.16188633 0.023278562 0.15298204 -0.3046708 -0.0038378413 -0.14705914 0.09211005 -0.1771889 0.07955688 0.009970262 -0.00095722824 -0.019196818 -0.043494217 0.3315873 0.14184555 -0.06813679 -0.010031695 -0.04958013 0.31038353 -0.11394451 0.45197645 -0.103347376 -0.064326376 -0.017347896 -0.09366059 -0.16647568 -0.0011331203 0.036368895 -0.2508639 0.0051421826 0.06957553 0.074117966 0.04748545 0.12176274 -0.054830566 0.051101644 -0.030044772 -0.021917796 -0.0075609656 -0.104606114 -0.038892798 -0.043593302 -0.17026289 0.11831066 -0.013082585 -0.12885694 -0.082501344 0.38305664 -0.1766739 -0.0814756 -0.03020653 -0.51455915 0.056993585 0.002999427 0.13183223 0.003476537 0.2245767 -0.04932661 -0.041232854 0.044050716 -0.2972757 0.17054951
outer.a.01 -0.0842098 0.036770828 0.09730727 0.036472 -0.05398225 -0.1363007 -0.41401124 -0.09283818 -0.120074555 -0.041775193 -0.12374028 -0.086374655 -0.068662174 -0.048755657 -0.12798469 0.06367712 0.20132934 -0.048729647 0.03078995 0.02569511 -0.07314579 -0.15598397 0.08201342 -0.35623312 0.03171461 -0.017167475 -0.33512482 -0.4222276 -0.24529442 0.026487578 -0.18134789 -0.13207495 -0.032744206 0.060874633 -0.028766358 -0.2751536 -0.0549605 0.012114474 0.06098084 -0.058559407 -0.20835556 0.14694256 0.24130514 -0.03865552 0.0022852009 0.008496169 0.04213908 0.16741633 0.097645864 0.039399315 0.07944907 0.0033143966 0.12528373 0.12643465 -0.4103929 -0.20387824 -0.18226661 0.29365042 0.0049523264 -0.035151657 0.036745146 -0.0441017 0.1857955 0.019301292 0.07203269 0.5319986 0.3787877 -0.1051199 -0.015756827 -0.24364845 0.15545791 0.049113266 -0.028687041 -0.027357403 0.034098744 -0.29229927 -0.004478249 0.05856181 0.1282567 -0.15210378 0.2709505 0.05500414 0.16679257 -0.14619038 0.19376901 0.2234366 0.032938372 0.17058744 0.06465402 3.8555812e-05 -0.24621475 -0.044196058 0.089960404 0.11259419 0.10144156 0.0025745255 -0.27067244 0.08810447 0.07817894 -0.016647574 0.020662567 0.27346152 -0.02457097 0.07547976 -0.072223686 0.035631765 0.12622233 -0.3992211 0.20664144 -0.037408818 0.5624416 -0.033671144 0.027774125 0.08366239 0.06534131 -0.46427736 -0.12008645 0.2018059 -0.026753634 -0.051491264 -0.029613372 0.06480344 0.1695778 0.014523892 0.13373996 0.1767811 -0.10253999 0.019672085 0.19875257 0.0015521607 0.12154507 0.033820253 -0.040729765 -0.29384595 -0.0839825 0.44103825 -0.09706068 -0.18367702 -0.013182791 0.07856588 0.006189977 -0.05030244 -0.035646144 0.17888199 0.033817213 0.12496409 -0.1948742 0.046730213 0.16876613 0.031207234 -0.14981166 0.17233925 -0.019096047 -0.11957301 0.19832587 0.002941609 -0.09835069 0.08685526 0.13729721 -0.104812734 -0.034282275 0.14968833 0.11811548 0.1670338 -0.000105144754 -0.041623317 0.018104726 0.00970652 -0.12294359 0.20752464 -0.06378703 0.07266536 0.04414774 -0.3291644 0.34138206 0.053762298 0.024016475 -0.0933538 -0.08580208 0.09274293 -0.06141126 -0.0030307476 0.043957625 0.5174894 -0.469618 -0.06735918 0.028589502 -0.16796108 -0.38992152 0.35136798 0.17620273 -0.059533577 -0.4170266 0.22562121 -0.15263419 -0.16783142 -0.10333954 -0.09047288 -0.5282658 -0.19980444 0.35130915 -0.11143623 -0.32509682 -0.020751482 0.007874811 -0.14863917 -0.15258776 -0.076719366 -0.06674645 0.15136054 0.33842707 -0.022449324 -0.15808293 0.010900143 -0.051543124 0.016038945 -0.09231213 0.031251956 -0.088902816 0.19080128 -0.040698316 -0.04094578 -0.046476826 -0.38142392 0.038727395 -0.03171047 -0.00060023647 0.020080524 -0.019218022 0.09074252 0.00011472091 0.34098324 -0.12588696 0.015855867 -0.024035137 -0.09130088 -0.029118504 -0.3426269 0.0071262945 -0.039937355 0.00069208036 -0.18046792 0.055622205 0.0050519663 0.09110058 -0.060918704 0.113581456 -0.025276622 0.061281864 -0.0069900383 0.13669346 0.41591957 0.038288392 0.16095342 -0.18583558 -0.018345965 0.123201646 -0.14076048 0.7071993 0.090158485 -0.03993904 0.061048016 0.012141671 -0.14980264 -0.043575797 -0.13453767 -0.32833907 -0.54707086 -0.007028885 -0.2683343 -0.01191266 0.014869766 -0.006207898 0.09463032 0.24789837 0.19304827 -0.16116686 0.025220998 0.2074093 0.026047416 -0.086139575 0.13666366 -0.053863235 0.035391424 0.012718975 0.27202004 -0.55370855 0.20567696 -0.06676707 -0.3570996 0.3364841 -0.07632174 -0.07667764 -0.27613544 0.20773248 -0.2027912 -0.040082898 -0.016614698 -0.12341858 0.11013172
plain.a.02 -0.10471713 -0.07888324 -0.054628994 0.03688927 0.050796557 0.02449753 -0.19682209 0.11282822 0.021155177 0.003527911 0.0015159464 -0.072420456 0.045713775 -0.14660886 0.018194646 0.21968123 0.33218816 0.026960172 -0.12168536 0.042206813 0.027139718 -0.011889078 -0.0067378553 0.13121206 0.15303303 0.0010955987 -0.3281335 0.034922585 0.012888211 0.06579787 -0.040824987 -0.074361175 0.14931688 -0.01333112 -0.12445339 -0.2011315 0.047908567 -0.05472909 0.018726831 -0.08650154 0.070893385 0.41904026 0.05705387 0.046278916 -0.0837721 0.33950457 0.0005078403 -0.028125452 0.12395298 -0.020698829 0.016925184 -0.149715 -0.18044183 0.007576298 -0.6032551 0.043058988 0.2577468 0.008568568 -0.08114143 -0.05699386 0.041831166 -0.10449698 0.23443235 0.043840103 -0.05191722 0.01178461 0.025478264 0.0038259546 -0.0074049365 -0.120062456 0.024436543 -0.18144368 0.01895066 0.081239775 -0.0036894514 0.08714076 0.154059 -0.016356632 0.026408274 -0.32599103 0.24713795 0.008491629 0.1595041 0.1172375 -0.034822512 -0.12620765 0.06570714 0.15438151 -0.0062686894 0.060257 0.09464993 -0.012291292 -0.24773219 0.15995488 0.13757885 0.32158262 0.23017989 -0.012719493 0.006980285 0.12118881 -0.074108064 0.2199759 -0.1464278 -0.04164236 0.03890115 0.030743795 0.08587801 -0.23507555 -0.15317267 -0.21142653 0.5277571 0.07474925 -0.058546957 -0.07006843 0.041916907 0.14116795 -0.15634046 0.042047836 -0.26149794 0.015437808 -0.0052214107 -0.04886285 -0.058770504 0.10729891 -0.0051226984 0.14160739 0.051332053 -0.040956877 0.2311597 -0.29575315 0.27813646 0.16569962 0.05639788 -0.14365578 -0.0018755638 0.43869686 0.029786406 0.017382696 -0.110951826 -0.06408864 0.029904721 -0.048956074 0.041766588 0.20917256 0.11905457 0.017410794 -0.032263666 0.055040967 -0.100834146 0.11059941 0.14577289 -0.025680348 0.008010361 -0.004344587 0.3680448 -0.062503114 -0.07107051 0.16432534 0.08035006 0.17991625 0.10628754 0.2500092 0.13356195 0.19546883 0.2604112 0.076797985 -0.17948094 -0.117102034 0.029814938 0.18929146 -0.02568011 0.45932892 0.01981018 0.00046326392 0.101802275 0.033939287 0.120168254 -0.21041201 -0.10010543 -0.09758479 -0.1772912 0.11742815 0.14355482 0.26486278 -0.3768023 0.24811064 0.0061823763 0.16973375 -0.021429904 0.39106953 -0.025247619 -0.022272442 -0.29853633 -0.08295351 -0.0043172184 -0.4586199 0.07193246 -0.08743958 -0.5753664 -0.2311613 0.022085024 -0.019624176 -0.1353118 0.27942237 -0.20382036 -0.014337524 0.031374875 -0.16638903 0.08171394 -0.07305029 0.048815176 0.38894647 0.01255669 0.0512802 -0.0070593674 -0.10990407 0.031112973 -0.12065995 -0.21628295 -0.081678055 -0.016459191 0.020840863 0.06739174 -0.2919688 -0.020936536 0.050020896 -0.07562555 -0.18650737 0.07384829 -0.0063805925 0.23724322 -0.20473164 0.037563793 -0.029901823 0.28223205 -0.30385923 0.12565275 -0.21437597 0.02633997 -0.03404082 0.04656025 -0.0102077015 0.128073 -0.0051237307 0.032675423 -0.01182766 0.04021386 0.117113814 -0.034793958 -0.1279785 0.117541194 0.8354567 0.120775424 0.28367007 0.048542745 0.015959928 0.28573826 -0.13689928 0.4283288 0.030490058 0.06261799 0.026589096 -0.07292213 0.07421713 0.033286992 0.06473309 -0.32038453 -0.1864795 -0.38596663 0.22304034 -0.07468442 -0.1364119 0.0027646213 0.032853696 0.08777022 0.017646132 0.0018638235 -0.007605879 -0.058879226 -0.041640494 -0.64007866 0.0647826 0.084352806 -0.02575038 0.01865609 0.44117168 -0.20902325 -0.08118985 0.03875947 -0.21138407 0.2757774 0.23605394 -0.0024891493 -0.0575766 0.40632337 -0.08554476 0.15428612 -0.33564943 -0.07722453 -0.052175753
structural.a.02 -0.0032510625 0.24051319 0.059776846 0.036486965 -0.008304825 0.02018304 -0.22998329 0.3476631 -0.13076 -0.13276547 -0.0088380445 -0.32698795 0.00032014653 0.047173698 -0.14015265 -0.056121815 0.3356108 -0.023803052 0.006639484 -0.06999875 -0.3077549 -0.24367362 0.09311207 0.3548499 -0.078668855 0.18334123 -0.3558729 0.23793215 -0.041671637 -0.045373768 -0.103028476 0.2546907 0.4642566 -0.05559183 -0.1990883 -0.059095662 0.046699982 -0.22207877 0.014087964 0.4686063 0.240446 0.35035342 0.05973195 0.027966943 -0.0065794648 0.34458184 0.35340437 0.061703056 0.25105226 -0.0070929294 -0.06466876 -0.13057658 -0.3210759 0.012023144 0.22993645 -0.05223657 0.18486223 -0.046719655 -0.03828896 0.0058154226 0.087597825 0.0011584391 -0.14609681 0.016104901 0.4179622 -0.14140274 0.051877566 -0.025966069 0.061296582 -0.19093283 -0.061206207 -0.14578724 -0.16517119 0.42262673 0.106934555 -0.25892583 0.53721434 0.15230995 -0.25888568 -0.32644916 0.20973064 -0.10898528 -0.10988205 0.09982095 -0.076593086 0.056195766 -0.086333424 -0.13084829 -0.05331883 0.005336656 -0.26568282 -0.11424543 -0.26611885 0.36466387 0.17985186 0.06420334 -0.19437736 -0.11533556 0.028071757 0.074647106 -0.15925312 0.5071957 0.06512981 0.091363914 0.018898143 -0.20028967 0.18754157 -0.48176137 -0.22276868 -0.034875877 0.6193891 -0.0780705 0.17076841 -0.12746526 0.11318988 -0.02596334 -0.1676573 0.023258567 0.0927737 0.332931 -0.07030332 -0.0145882545 -0.07525839 0.094662964 -0.025211675 0.46663278 -0.18652244 0.017421756 0.2130209 0.025510702 0.4771558 -0.06454982 0.049065825 -0.27430502 -0.073501654 0.10561805 0.11409105 0.06149962 -0.009309873 0.0188719 -0.11445824 0.19528246 -0.05283805 0.12283868 0.043196555 0.026508223 0.5160644 -0.061923917 9.6544645e-05 -0.11426862 0.16003317 0.020580249 -0.0013903463 0.1175324 0.11062418 -0.11249866 -0.21226132 -0.026771877 0.21853514 0.15229528 -0.11767856 -0.28458533 0.10017484 0.2891752 0.00060828397 0.022590268 -0.0012845122 -0.13583909 0.16264135 0.46463978 -0.05104662 -0.053903233 0.1472378 -0.41742703 -0.003209663 -0.0045933984 -0.04487696 -0.02720548 0.0083543295 0.020538831 -0.35659298 -0.082656726 0.12705629 0.31164512 -0.31736073 0.21188334 0.09625506 -0.08675436 -0.1268253 0.32906356 -0.009460101 -0.0005101291 -0.4393724 -0.0034883963 -0.03429085 -0.2865938 -0.14220196 0.11283759 -0.7012563 0.102842845 0.030051101 0.008270947 0.08902712 -0.1734131 0.1840632 -0.08070291 0.08834526 -0.2081703 0.033636026 0.06408194 0.08753878 -0.20060834 -0.4603564 -0.0056691933 -0.21317422 -0.013241183 -0.034928538 -0.101044044 -0.01801973 0.23724672 0.054495152 0.2985728 -0.052068077 -0.30720872 -0.13039488 -0.18298045 -0.17870289 0.0075347964 -0.12476782 0.15406288 0.040510695 0.011957368 0.50832784 -0.21527457 0.0030516612 0.048922475 0.04949602 -0.42132747 -0.39189222 -0.046839356 0.055149183 0.023578875 0.054511223 -0.27364898 0.2090849 0.47326213 -0.1675555 0.1166031 -0.20650077 -0.13132297 0.11542618 0.29144445 -0.08171696 -0.04669609 0.0011533685 0.06977612 0.02064458 -0.25318375 0.29177496 0.00039781048 -0.07409628 -0.29012915 -0.17142223 -0.06807957 -0.038596928 0.09658926 -0.11719831 0.055832267 -0.0048857154 0.010099202 -0.040994626 0.08020848 -0.035726007 -0.06432148 0.00076352246 0.032821618 0.091904625 0.31102902 -0.23761207 0.054722957 -0.036756467 0.09648446 -0.305286 -0.13379914 0.046375904 0.38038105 -0.32018113 0.095124766 0.051007736 -0.1654283 0.007881871 0.009206968 0.41029608 0.036891643 0.112530574 -0.28443515 -0.0038510503 0.029439427 -0.30713663 0.13342229
objective.a.01 -0.11043834 -0.09593155 0.053102817 -0.044211768 0.40197945 0.05235809 -0.2909661 -0.28616846 -0.041732013 -0.04968434 -0.23889203 -0.15295129 -0.08810492 0.019449014 -0.008606185 0.103539005 0.25669095 -0.011968168 -0.084714554 -0.009696279 -0.045268983 0.016486406 -0.018372297 0.07193629 0.028792093 -0.14452597 -0.42637458 0.021447958 -0.31321982 0.057202045 -0.15199383 -0.11585182 0.17683573 0.031926043 -0.043380074 -0.20702848 -0.02101281 0.03469736 -0.002466268 -0.025611985 -0.01747094 0.36479223 0.1293559 -0.020175425 -0.19961023 0.45833302 0.030874327 0.021138018 0.2854395 -0.016626237 -0.07330738 0.14365734 0.0086655095 0.070503 0.008212035 0.024487175 -0.03792537 -0.015404653 -0.04238206 -0.053148467 0.011081535 -0.0036348037 0.09463584 0.027774576 -0.02131926 -0.007996032 0.042382568 -0.0043747583 -0.047739413 -0.037911218 0.014946838 -0.02174139 -0.028723234 -0.34761074 0.019255597 -0.0458374 0.15387323 0.10531973 0.033891354 -0.516483 0.2533079 0.057121355 0.20990029 0.04871544 0.28313655 0.09456823 -0.049742285 -0.11294666 0.03389701 0.0121486075 -0.036827724 -0.49857607 0.037329603 0.1747235 0.10075439 -0.022737699 0.07951573 -0.0027756637 0.012588558 0.0003667303 0.046259843 0.44487253 -0.07409363 0.09561542 0.058078956 0.4854887 -0.11683612 -0.30520335 -0.12926146 -0.0025187158 0.20928031 -0.21832357 -0.0047275713 -0.07697566 0.120055236 0.08190151 -0.13208993 0.014733314 0.05531018 -0.05276375 0.035048675 0.037323564 0.014075815 0.02675141 -0.015767455 0.12141144 -0.07972143 -0.056508385 0.040534712 -0.016457574 0.5091159 0.04715897 -0.014758696 0.289321 0.021467594 0.04091555 0.06975108 0.07197195 -0.06084949 -0.074147455 -0.14535649 0.027642392 0.0540221 0.115070716 0.013546717 -0.04435065 -0.006480974 0.059364844 -0.26829532 -0.19690236 -0.03466583 -0.1915391 0.5484105 -0.23831359 0.11984029 0.021929171 -0.061883017 0.03567583 0.19336286 -0.0051996512 0.17700472 0.031196259 0.2047363 0.20601396 0.08556735 -0.13577725 -0.3002166 -0.10379664 0.011473162 0.1536686 -0.12542078 0.052438438 0.0099180285 -0.1142475 -0.027601803 -0.030252436 -0.00986638 -0.0005339176 -0.09905377 0.22672388 0.00036116067 0.37194932 0.12443786 0.16078019 -0.3786258 -0.12053202 0.032190107 -0.1417946 0.14321151 0.46871188 0.26251376 -0.03517653 -0.31283265 0.10054674 0.015524079 -0.16306534 -0.4345113 0.18996473 -0.41366217 0.022522569 0.0377419 -0.230525 0.053459395 0.02126023 0.0008150303 -0.12395173 -0.06885229 -0.294964 -0.049913757 0.07048458 0.13772066 0.17638658 0.01171164 -0.039554447 0.102427155 0.085512996 0.061099138 -0.073984034 0.28116712 0.11588816 -0.045742776 -0.04336642 -0.06302356 -0.21853673 -0.13919014 0.030881353 -0.011274596 -0.13761091 0.32035685 -0.07041449 -0.33970255 0.11074437 -0.007887807 -0.023601402 0.029014494 0.21679758 -0.0073691667 -0.40088236 -0.13446681 -0.011323804 0.25389823 -0.47644466 0.034849994 -0.026880803 0.101271436 -0.034350175 0.12602322 -0.015622111 -0.044138372 0.0036261887 -0.058399886 0.38089058 -0.15859815 -0.043902222 -0.19396748 0.14234088 0.051670954 0.26327154 0.24546549 0.029253576 0.008199176 -0.020471007 -0.02408966 -0.06048499 0.0033039553 -0.007957812 -0.22943285 0.123070635 -0.030269315 0.091935836 0.0023549127 -0.11495813 -0.05822882 0.13226897 -0.09714575 -0.02214727 -0.014415946 -0.08000593 0.07736888 0.088735364 -0.3786315 0.100431465 0.095102705 0.01718232 0.51747835 0.2630368 -0.57005984 0.13942973 -0.025378408 -0.094703004 0.015381974 -0.007137771 -0.08603227 0.011027887 0.23659453 -0.13176821 0.47011945 -0.06804187 -0.096390374 0.056926955
ambitious.a.01 0.54616785 0.30446625 -0.03883899 -0.060354915 0.056912344 -0.056776468 -0.12724645 0.10567239 -0.14075376 0.02756375 -0.07793692 -0.16958489 0.052075215 -0.078030966 -0.076185 0.30594164 0.14854886 -0.028370183 -0.030765433 0.04199253 0.15633728 -0.09550437 -0.006990937 -0.027847098 0.109088995 0.0019156389 -0.1524357 -0.5278745 0.060916275 0.08150339 -0.11839159 0.35450003 0.010561041 0.21679008 0.25388318 -0.0971663 -0.075675584 -0.056488875 -0.06126038 -0.041210998 0.036540702 0.41076362 0.2714997 0.0338661 0.113606356 0.19836411 -0.005172746 0.03412302 0.20639011 0.15249085 0.11103899 0.039438136 -0.22852865 0.18077902 0.17272206 -0.0038218424 0.026491093 0.002780651 -0.010622582 -0.02987962 -0.0031262548 0.0063854232 0.09976645 0.07816697 0.0322047 0.009876804 0.01741255 0.02445896 -0.12366626 -0.020094896 0.012955713 0.067044154 0.0024397734 -0.020742044 -0.078366786 -0.17979206 0.038499177 0.11487534 -0.04326898 -0.42937034 0.041341852 -0.046924252 0.14204702 -0.0026731065 0.0023288117 -0.019238876 -0.030649899 0.07335795 -0.0019266913 0.057539772 -0.29011324 -0.011995773 0.06088112 0.06953676 -0.0092620505 -0.11742221 -0.08363098 0.13287827 -0.019876987 0.019869829 0.38869292 0.13387537 0.04755798 -0.007734406 0.051082335 0.0402972 0.020913161 -0.18400797 -0.044045433 0.17950903 0.28672794 0.07565985 -0.07680162 -0.1433195 0.009819736 0.0083900755 -0.076761596 -0.011636963 -0.01656648 0.0052749445 0.024507841 0.0062393527 0.112199925 0.14300565 0.08151439 0.15732165 -0.042332504 0.028083501 0.14465864 0.19981436 0.22863904 0.3037218 -0.023486087 -0.1381883 -0.033821944 0.34062958 -0.02394258 -0.034606926 0.007147581 0.042192504 -0.16842756 -0.00067350204 -0.04761658 0.13824102 0.076375514 0.1902396 -0.16614223 0.12790631 0.068848364 -0.007180829 -0.1757792 0.11425068 -0.044063497 -0.24529341 0.038388457 0.020506812 0.09040671 -0.46277222 -0.1092935 0.038641322 -0.18768395 0.020984644 0.066341795 0.17457251 0.0033737563 0.01605861 0.031437088 -0.04515312 0.1555946 0.246633 0.009170221 0.021001153 -0.023855012 -0.30869812 -0.049653172 0.03719082 0.010033746 -0.13287032 0.025099874 0.07361399 -0.36633864 0.16134648 -0.18829067 0.29468608 -0.22095987 -0.03120399 0.054560963 -0.08266887 -0.035046283 0.41543964 0.030788084 -0.01272184 -0.14473942 -0.0653873 0.06974296 -0.30227327 -0.06259175 -0.039587412 -0.53738135 -0.26320606 -0.011140203 0.018634984 -0.021431437 -0.14634517 0.045278646 -0.13489617 0.010758547 -0.04072464 -0.011701316 -0.025062174 0.111373015 -0.055898786 0.2481239 -0.055621084 0.04843416 -0.035221346 -0.1185318 0.09624021 -0.024690846 0.23578213 -0.06552928 0.08304586 0.0036372954 -0.1362658 -0.04988398 0.25109717 -0.0022206847 -0.10133316 0.054318756 -0.08377166 -0.47341773 -0.417535 -0.04040213 -0.087460324 -0.078344315 0.01684849 -0.02365921 -0.25857064 0.012406428 0.035318647 -0.029037295 0.0323902 -0.02780609 -0.034528602 -0.048770275 0.1514432 0.08314497 0.026401239 -0.09279732 -0.0033592035 -0.048918333 0.34746483 -0.09423644 0.06902622 0.046715297 0.043602034 0.064658046 0.1958616 0.3211091 0.07149131 -0.009711495 -0.00015077733 -0.15402815 -0.024630057 -0.01744336 0.02536875 -0.22089683 -0.026867205 -0.002328723 -0.12732501 0.01729778 -0.09474302 -0.04265661 0.11211849 0.0018363605 -0.5351995 0.021584788 -0.276111 0.062421944 0.028254755 0.043720145 0.061437834 0.046051834 0.024314506 -0.022657972 0.04858516 -0.21917114 0.05611607 -0.24878062 -0.3863736 -0.008377415 0.007946234 0.09914332 0.05522622 0.33046687 -0.18541014 -0.02986342 0.013635847 -0.101852134 0.007925397
mobile.a.02 -0.08946734 0.014831882 0.108526126 0.033626877 0.050414305 0.12521808 -0.16581337 0.067914195 0.12937722 -0.057819244 -0.02376009 0.03153863 -0.0027192861 -0.024247235 -0.21518883 -0.015616603 0.23971704 -0.0069683944 -0.4671843 0.13919272 -0.039834276 0.009421189 0.028897041 -0.026297372 0.058947757 0.105418086 -0.3878093 0.0857849 -0.107273005 0.16682564 0.15735497 -0.21904315 0.19585314 0.009523533 -0.009382475 -0.2547203 0.07676039 -0.035237245 -0.053867355 0.031190852 -0.105651885 0.62948006 0.12637517 -0.03201416 -0.13872345 0.14103647 -0.00033659616 -0.019816337 0.30868307 0.12551922 -0.4119264 0.058973264 -0.0029713993 -0.00083919003 -0.011565128 0.122261874 -0.27450606 -0.033373795 0.12250247 -0.013907227 0.09947504 -0.20215157 0.15907651 -0.07480659 0.07751693 -0.08930277 0.035008635 -0.08152402 0.082757175 -0.22466816 -0.12607536 0.013051969 0.028849395 -0.47188205 -0.04191351 -0.075776234 0.17274864 0.04697766 -0.01646165 -0.18317838 0.07412131 0.002378448 0.12413146 0.13944073 0.22737911 -0.03312813 -0.0004555595 -0.08633148 0.065334804 0.04258259 -0.31283945 0.23568949 0.29724777 0.05030238 -0.50938565 0.15918757 -0.035905823 -0.051576808 -0.059649713 0.078786135 -0.013023848 0.04665154 -0.055995032 0.34969178 0.049244314 0.06573892 0.12285354 -0.319228 0.26911604 -0.11118904 0.3493827 -0.30534232 0.054287963 -0.0506072 -0.018276973 -0.043004937 -0.1532533 0.034667168 0.16313726 0.06790733 0.0056138528 0.15833892 0.0012430303 -0.08746885 0.025711339 0.05697763 0.021320045 -0.075444385 0.13647476 0.10606839 0.26116025 0.16930643 -0.031023059 -0.02115616 0.01993102 0.5291235 0.0123750735 -0.02431489 0.13430734 -0.060724944 -0.009562836 -0.31315842 -0.16281998 0.15987024 0.009827203 0.040283557 -0.27488023 -0.0015768606 -0.067491524 0.18075706 -0.05305104 0.012120988 0.030596778 -0.06754859 -0.019563636 0.050010074 0.23971587 -0.0015844355 -0.11285451 -0.075935096 -0.0021724193 -0.21423347 0.041780893 0.08069646 0.041403625 0.028216435 -0.13414165 -0.01247104 -0.1284749 0.35906118 -0.007544278 0.017915873 -0.053577192 -0.37870303 0.025915029 -0.10676081 -0.3076478 0.2593544 -0.2324589 0.032964468 -0.2465493 0.045469746 -0.08852418 0.33311763 -0.34573027 0.059937853 -0.034251574 0.023527864 0.36958936 0.32538182 0.11494965 0.037610114 -0.17294706 0.06291895 -0.025178095 -0.68994904 -0.15593764 0.17199102 -0.7400517 -0.05360448 0.3686756 0.38199577 0.005276921 0.022192046 -0.01813769 -0.0780568 0.06772251 -0.14298126 -0.070016876 0.032594923 0.20196284 0.05584349 -0.2167902 -0.012941534 -0.051706947 -0.19017738 -0.31722695 -0.024536286 0.012392539 0.09643517 -0.11547216 0.017585365 0.1753188 -0.33713228 -0.010845379 0.31511298 0.039267935 0.098422915 -0.08564648 0.34154013 0.04708598 0.2229337 0.09710653 -0.02187311 -0.17296773 -0.13472952 -0.14077817 -0.26368466 -0.086805 0.093212344 -0.20304428 0.032960404 0.2902386 -0.070333906 0.0885444 -0.18876196 -0.08048968 -0.19736284 0.07316458 -0.120706335 -0.03081552 0.34370697 -0.051171843 -0.08054336 -0.06390767 -0.05585435 0.14363235 -0.19917741 0.1521237 0.107734516 0.06362911 -0.39322704 0.07827021 -0.10511491 -0.06130763 -0.04214916 -0.23717606 -0.052312437 0.04220003 0.031748362 -0.0033183957 -0.015304551 -0.044100072 -0.122572385 0.20513324 0.04470486 0.1306496 0.15608591 -0.09578535 0.012496394 0.09343605 -0.022685263 -0.09492712 0.08632883 0.05466024 0.47329777 -0.17145671 -0.05717811 -0.07737161 -0.20953755 0.18477051 0.022689955 -0.051643446 0.13400693 0.2356063 0.47671902 0.39890033 -0.091234736 -0.23651871 0.14126599
ethical.a.02 -0.039634388 -0.09679016 -0.0059955777 -0.033883173 -0.020569572 0.08792249 -0.18443352 0.06787535 0.06756525 -0.16644512 -0.01315096 -0.2618967 0.027023457 -0.010475773 0.11438021 0.16382533 0.3395623 0.08720539 -0.13271812 0.028605703 0.029878065 0.046017643 -0.07672859 -0.011941981 0.23796377 0.11041619 -0.21555096 0.013020731 -0.09844685 -0.043025248 -0.407478 0.19890843 0.045548458 -0.029143091 -0.03341728 -0.19888736 -0.042890254 -0.06855294 0.022284064 -0.3602018 0.017262924 0.2841319 0.060362875 0.0061429185 0.055456065 0.17473699 0.0041638655 0.09150286 0.3038678 -0.0049158614 0.011519602 -0.068889275 0.027630568 -0.42496923 0.104490966 0.0036603971 -0.091268025 0.20582122 0.031843577 -0.06847221 0.0016425059 0.040616717 0.0470841 0.003737767 0.18000567 0.0022110664 -0.09781109 -0.036230445 -0.06942812 0.0016227961 -0.0063262684 0.12772715 -0.049577754 0.021595642 0.065167606 -0.054137763 0.109787054 0.12204866 -0.05509226 -0.39952946 0.27687535 0.044184398 0.06426428 0.020790003 0.0028394065 0.0506561 -0.0042873323 0.26982749 -0.07532892 -0.036342107 -0.09426957 0.042398408 0.010008412 0.08700166 -0.043098383 -0.032650422 -0.06979706 -0.06551771 -0.038101766 -0.0070372634 0.012183632 0.25782895 -0.009970187 0.006449186 0.040124495 0.084410496 -0.06893405 -0.10473456 0.105976656 0.003944847 0.40982282 0.0015987209 -0.093501 0.06295249 0.1163374 0.006970235 -0.39768535 -0.030323986 0.066993676 -0.14933568 0.08341967 -0.017856402 0.19649197 -0.13051158 0.21147197 0.28391153 -0.18134569 -0.027338682 0.16295771 -0.022436576 0.4170013 0.1011528 0.008830416 -0.010027569 -0.032389626 0.22014232 0.06738276 -0.031522255 0.036249775 -0.014023498 -0.14290704 0.09101639 -0.03477148 0.14650662 -0.040194094 0.11483459 -0.13526805 -0.000306029 0.30588412 0.08832942 -0.03397539 0.086187854 -0.015396403 -0.045308575 0.015545778 0.03922696 -0.02781015 -0.43764412 -0.3090107 -0.0055577178 -0.036706477 -0.003698246 0.45328268 0.09501902 -0.0077455733 0.05758704 0.02153642 -0.25691235 -0.046449944 0.10391901 0.06649229 -0.02656863 0.057650194 -0.10363414 0.07918448 0.098141916 0.12180783 0.0021207612 -0.022001376 -0.22555996 -0.12796377 0.015420869 0.08974177 0.22388858 -0.19567722 -0.08280473 -0.012148037 -0.111450516 -0.09393354 0.30178142 0.05158425 0.008965538 -0.26885983 -0.01762393 0.033662952 -0.4501107 -0.029463122 -0.027652748 -0.36810663 -0.05640593 -0.0946437 0.004087454 -0.02216521 0.017120387 -0.026113652 0.022940893 -0.020954842 -0.14131176 0.019123992 0.034492396 0.22160919 0.0418544 0.23358084 -0.087217644 0.007745659 -0.009859918 -0.27843326 0.024762645 0.006404177 0.08226158 -0.15058368 0.07162111 0.28272495 -0.061836407 -0.09908985 -0.2386002 0.026429225 0.004064739 -0.0746289 -0.017494947 -0.028911095 0.09664981 -0.010394839 -0.028026905 0.4473529 -0.048479248 0.02186936 -0.34217545 -0.013544825 0.028085537 -0.00586409 -0.002525601 0.053086597 -0.040175047 0.08232461 -0.011192003 0.0010961796 -0.06551251 -0.011693807 -0.09486813 0.0011326227 0.38974866 0.011206258 0.0010211909 -0.031804465 0.05385184 0.110778004 0.06626799 0.107121386 -0.16630441 0.033991132 -0.03333121 -0.02009205 -0.110977516 0.0050983117 -0.19547148 -0.29357472 0.18190268 0.019958869 0.054660544 0.021665001 0.10780217 -0.065129615 0.047121275 -0.16163792 -0.029690374 -0.22607389 -0.119646035 0.18950965 -0.13874738 0.027883256 0.09256203 0.07645059 -0.026450837 -0.11843466 0.36342597 -0.066942625 0.002416282 -0.0978559 -0.19462903 0.05747849 -0.025800323 -0.02999832 -0.09202317 0.03767769 -0.0073082987 -0.06094891 0.0015847863 -0.11220326 0.06571918
bureaucratic.a.01 -0.027726343 -0.501733 0.020217774 0.22061673 -0.03712416 0.097193375 -0.33616167 0.096464366 0.15601556 -0.026952785 -0.03803613 -0.09060913 0.0094455425 0.019630648 0.11591457 0.011763217 0.23447913 -0.10461016 -0.10260344 -0.09603378 -0.20856085 -0.27363342 0.041509572 -0.0023867318 0.06289482 -0.28238654 -0.5167176 -0.17717382 -0.049620338 -0.00785056 0.18494715 0.21747792 -0.1867858 0.18597114 0.30350757 -0.06954876 0.037884377 0.0976883 -0.0095705185 -0.06484219 -0.19363402 0.32666725 0.2521342 0.017646346 -0.072174415 0.2648281 0.063436225 -0.0057236413 0.3736471 0.1949298 0.27856746 0.13266473 -0.17919396 -0.073671766 -0.20937176 -0.09752252 0.030991212 0.0005452343 0.135251 0.05061794 -0.03826274 0.10720988 0.46212003 -0.072956696 0.04630526 0.018326694 -0.054221373 -0.044529155 -0.1722961 0.15640591 0.25307366 -0.13748083 0.17565706 -0.08023279 -0.044890728 -0.040181935 0.22758953 0.18560944 -0.033784922 -0.3342435 0.5207598 0.117526576 0.2555222 0.29096147 -0.026461797 0.097548634 -0.042975206 0.12793192 0.25902176 0.015169183 -0.076079145 -0.039630625 0.019308843 -0.029230405 -0.12126801 -0.020033402 0.02291222 0.11336597 0.08188756 0.02266617 0.14385808 0.2514796 -0.065571226 -0.14705974 0.10283024 0.013404218 -0.13241138 -0.34681365 -0.15078875 0.3104309 0.37856975 -0.023155848 0.008956036 0.012911902 0.20116247 -0.40720785 -0.19688813 0.03768107 0.24535432 0.019303923 0.008867098 0.29848534 0.098960705 -0.23839678 0.19132641 0.38033298 -0.046980076 0.0038679335 0.22118276 0.04439638 0.34258026 0.16821505 0.028909469 0.17954929 0.031154364 0.25793508 0.009647718 0.0136744315 0.14799204 -0.083651125 0.054473873 -0.24182925 0.14623573 0.09464234 -0.20106903 0.36296096 -0.065419644 -0.49730358 -0.098120406 -0.0321499 0.032474168 0.27065423 0.08971974 -0.2392352 0.10376309 -0.03145615 0.065925896 -0.08128044 -0.16643439 0.106636465 -0.09666848 -0.056036834 0.08964275 0.08480278 0.002009264 0.045050945 -0.008426402 -0.072818354 0.1791298 0.4128716 -0.192809 0.049523912 0.0010668364 -0.085780635 -0.004735131 0.27694917 -0.16069968 0.057327725 0.012485664 0.035487104 -0.11187005 0.025332626 -0.022523908 0.27808538 -0.38321942 -0.04400664 0.052724183 -0.06883745 -0.010429271 0.21792614 -0.077242225 -0.11450245 -0.43167636 0.083995864 0.13944146 -0.27751994 0.11885928 -0.013331474 -0.40443796 0.021132564 -0.014368432 0.09571766 0.07500762 -0.0039089154 -0.011540629 0.00295149 -0.11335624 -0.36890993 0.03851884 0.1996278 0.15343907 -0.07505542 0.014027528 0.038103443 0.060517445 -0.056814246 -0.02684949 0.056120753 0.06460455 0.09145502 -0.07255299 -0.02612487 0.03849454 -0.1826066 -0.07481325 -0.028474582 0.10429319 -0.051041223 -0.009235087 0.026339544 -0.010708107 -0.17501755 0.16970393 -0.17945533 -0.067065865 0.012352451 0.013623406 -0.3249856 0.038695816 0.13041264 0.026249131 -0.051456656 -0.056102168 -0.025384318 -0.10299726 -0.04676803 0.08954207 -0.011017704 0.024177754 -0.18540987 0.013760805 0.1371743 0.051599063 0.19170505 0.006103751 0.1882077 0.12284338 0.2861472 0.41375414 -0.06683628 -0.08382817 0.16897713 0.034153637 -0.043086 0.05917824 -0.56181085 0.05880927 0.0013601831 -0.0050186045 -0.0076838774 0.08569426 -0.09419552 -0.10979743 -0.02814385 0.19921377 0.0667849 -0.008698731 0.027211374 0.23058254 -0.010529013 0.030835848 0.15501554 -0.019989556 -0.32551655 0.02849563 0.15224607 -0.25859922 0.025472887 -0.02170646 -0.39799848 0.14214645 0.016773704 0.02641138 0.3079998 -0.017786251 -0.23832826 -0.18994357 -0.00679837 -0.103486 0.16614419
grotesque.s.01 0.05175472 -0.528381 -0.025574028 0.3860233 0.069350034 0.18548544 -0.25182837 0.015309475 -0.22557402 0.030752951 0.049874812 0.042521153 -0.09057092 0.034821663 -0.07111925 -0.038281985 0.26635984 0.21869832 -0.08980681 -0.040623967 0.1017313 0.021513028 0.031003168 -0.0593064 0.3303882 -0.32977676 -0.46809223 0.06657393 -0.0049637016 -0.15034173 -0.09080443 0.03845877 -0.03105641 -0.098726645 0.00055935397 -0.32630107 -0.028168663 0.35232776 0.02416859 0.0026633602 -0.11467395 0.41274065 0.23293063 0.11497362 -0.09018605 0.3643937 0.17083763 -0.042122398 0.517856 0.022571798 -0.030805945 0.019374501 -0.2237815 -0.14002454 0.034575604 0.038167242 -0.32045794 -0.044063814 0.23000295 0.07531273 -0.025048053 0.16114454 0.38278815 0.011960777 -0.10461708 0.08249953 0.024496805 0.046404805 0.29381293 -0.051056683 0.0017597919 0.057456076 -0.035987403 -0.29434484 0.0011240012 -0.3855357 0.15104695 -0.053712256 -0.20486051 -0.3478185 0.27003703 -0.050006524 0.15046836 -0.25062785 -0.046148907 -0.2773536 0.07446889 -0.20673418 -0.017570663 0.010875581 -0.58643675 -0.102672055 0.22836569 -0.0050708624 -0.10023572 -0.053365517 0.12404526 0.03682916 0.014289946 0.01688641 -0.07864828 0.2448139 -0.17852548 0.06709216 -0.073626295 0.033780757 -0.06564014 -0.28128925 -0.01657295 -0.23825996 0.45098934 -0.04038353 -0.019164428 -0.04852726 -0.42319337 -0.00949454 -0.2405239 -0.003270314 0.36864847 -0.008428533 -0.017933734 0.28896078 0.3059419 0.2944124 0.057499327 0.3825318 -0.21288763 -0.16733183 0.07624007 0.009190195 0.31548297 0.029625747 -0.018216822 -0.034754656 -0.18882129 0.34093556 -0.055519044 -0.071193375 0.1647053 -0.09632244 -0.1343884 0.29119214 0.02613857 0.30937758 0.25472748 0.07913442 -0.052350137 0.030738126 -0.4000674 0.058309667 -0.06668012 0.0001254364 0.021459686 -0.119361475 0.21668416 -0.166825 0.09123677 -0.14801323 -0.17987505 -0.027752357 -0.03030096 -0.051899772 -0.031245826 0.33317944 0.00031441468 0.018915873 0.08950572 0.029173631 -0.11321464 0.41312712 0.17140625 -0.0064822733 0.5317918 0.08955955 0.040878437 -0.0023744777 0.14044525 0.12291258 -0.052158885 0.2775903 0.087171465 -0.047367502 -0.17163984 0.144421 -0.5101607 -0.01797598 -0.011658501 -0.13961416 -0.18318954 0.38449872 0.49523064 -0.068864964 -0.34021294 0.04069925 0.042532858 -0.37668848 -0.03823851 -0.0474692 -0.288636 -0.016154312 0.15494336 0.021072213 -0.0884623 -0.2121737 0.010078746 -0.028038854 -0.050670467 -0.177767 -0.18397406 -0.090347335 0.18340439 -0.068260446 -0.12675722 0.010888307 0.41043115 0.066083744 -0.03605149 -0.014489375 0.024846092 0.017652282 -0.06582035 0.06222819 -0.18756616 -0.12453775 -0.25800565 -0.08691767 -0.05588886 -0.026730862 -0.01310261 0.222315 0.02285671 -0.011123564 -0.36665195 0.11262698 -0.056669287 -0.06019677 -0.22009796 -0.18190338 -0.03497192 -0.15486994 -0.22555186 0.029499086 0.09406228 -0.348589 0.1475155 0.0024543193 -0.023104807 -0.06447324 0.034892835 0.32855806 -0.03471615 0.38118893 -0.09761842 0.009876915 -0.59341896 0.23629117 0.01173552 0.011518667 0.18577702 -0.03990539 0.05995447 -0.0069580832 -0.0006174111 -0.1653444 0.07775134 -0.24854852 -0.37935516 -0.08898762 -0.023471098 -0.10941448 -0.18832113 -0.10686276 -0.0543418 0.06428128 -0.082384765 -0.043275427 0.042057987 -0.65198255 0.39137706 0.18712997 -0.0871965 0.18339144 -0.013697098 -0.35982567 0.060101192 -0.12051494 -0.5281597 -0.23650207 0.03342169 -0.85766757 0.00089779485 -0.15622367 -0.027842263 -0.07717162 0.26236123 -0.35423276 -0.20659469 -0.016688988 -0.22141553 -0.108434595
exotic.s.02 0.05774905 0.006778068 -0.081057616 0.048013892 -0.04125514 0.13865197 -0.33255902 0.4011787 -0.20078772 0.09905239 0.032462645 0.02837848 0.013148451 0.025217364 -0.09962274 0.24358656 0.26849508 0.0020927466 -0.14141715 -0.018427148 0.06942031 0.11165872 -0.1392342 -0.41256344 0.10674083 -0.07413602 -0.30525053 0.059247747 0.043215916 -0.058925144 0.21103145 -0.31197864 0.5965327 0.039213415 -0.15125442 -0.13793546 -0.06908237 -0.021568697 -0.055085994 -0.29644677 0.023437463 0.4157085 0.19676742 -0.061698753 -0.0436053 0.1977039 0.011983492 0.15278722 0.17928037 0.13583383 -0.30672166 0.09022233 0.06347825 -0.25551897 -0.044824123 0.012354922 0.31519637 -0.105080985 0.2611621 0.009468241 -0.038796313 0.080225684 0.052634012 0.013291821 -0.0061247125 0.012459023 -0.11827475 0.020283436 -0.120452374 0.024094744 0.1140028 0.2969176 -0.002130444 -0.19048022 -0.032977168 -0.15108074 0.35137987 0.21490833 -0.009457379 -0.2727317 0.2474119 -0.0024264231 0.16338815 0.08053749 0.23882829 -0.051917296 -0.053542852 -0.0866844 -0.047755577 0.023000907 -0.2881709 -0.084382094 -0.18871674 0.26691777 0.33081147 0.039634544 -0.26535586 0.05533001 -0.021767642 -0.057274736 0.124429554 0.30684316 -0.15091838 -0.14826086 0.10008168 0.0013883662 0.1701307 -0.26110348 0.24927099 0.0028196296 0.3529306 -0.1984059 -0.037341133 -0.20526946 0.10876061 0.047153864 -0.18951379 -0.015854528 -0.086475454 0.1259291 0.03829744 -0.2435993 0.30289847 0.271667 -0.19391906 0.33608472 -0.071726516 -0.43493703 0.43724924 -0.08623828 0.4193201 0.09372498 0.0001651058 0.1159621 -0.020518372 0.26066735 0.06968544 0.027999103 -0.17198355 0.01005768 0.03574941 0.24232773 -0.011607126 0.2508192 -0.011617791 -0.005137826 -0.47339883 0.01129381 -0.099140085 -0.088318795 -0.03340051 0.07744535 0.03610708 0.06113479 -0.07286608 0.071460545 -0.077911414 -0.34011722 -0.19274269 -0.62380624 0.30225444 0.30444044 -0.16499187 0.1929709 0.032566004 0.022104608 -0.11681184 0.10970926 0.29370123 0.2704074 -0.184462 -0.25185668 -0.14831424 -0.25999653 0.05840365 -0.20501123 -0.014584431 0.10808368 0.05926376 0.0149912285 -0.08497302 0.0068597114 0.04230706 0.28136992 -0.4640386 -0.0023853597 0.12651244 0.0043286923 -0.50161755 0.22709142 -0.025865478 0.028874228 -0.23059833 0.057094615 0.049860597 -0.19930515 -0.03291002 -0.24040036 -0.4845949 -0.07857703 0.025989266 0.19117528 -0.15980583 -0.037986103 0.0014152261 -0.2404369 -0.19742706 -0.24529466 -0.08065751 0.1938362 0.14128764 0.13406906 -0.27128386 0.0069216914 -0.27738503 -0.05897729 0.0904278 -0.010931954 -0.03835718 0.20120016 -0.02803428 0.22051474 -0.06998708 -0.19443706 0.069506854 -0.23719127 0.012901837 -0.062759124 -0.15414213 0.48871985 0.08832292 -0.14015745 -0.01294133 0.018379223 0.3435176 0.054217275 0.016974736 -0.30361742 0.2034372 -0.0101215355 -0.12736608 -0.023408538 0.24631496 0.087562196 0.12822202 -0.061130922 0.17263927 0.061489 0.19968659 0.049722064 -0.0863156 0.20835884 0.100713395 0.5705187 0.46018577 -0.081686236 0.06368013 -0.16895686 0.25282788 0.08301992 0.46076548 0.17015156 -0.003101288 -0.01073421 0.014630056 0.035775453 -0.3582862 0.06286105 0.07621862 -0.04146191 -0.037167776 -0.03771379 -0.008235245 0.11576554 -0.05398175 0.009498638 0.26190746 -0.013707034 -0.08452949 -0.35108048 0.09097314 -0.05384257 -0.16540483 0.058577288 -0.04081862 0.48966724 -0.04973036 0.056166768 -0.037258353 -0.2695485 0.002142275 0.019069469 -0.06534201 0.06298055 0.17158926 0.054949448 -0.12402667 -0.1006763 -0.18612716 0.013742623
high.a.01 -0.027703555 -0.0055827936 0.2121559 0.026105769 0.08616026 0.015264606 0.0029378901 0.0026548882 -0.031420857 0.04769037 0.021483282 -0.05181635 0.0133367665 0.07252202 0.020283772 0.07799356 0.65937835 -0.060769666 -0.067204915 -0.0015973453 0.09571328 -0.11220682 -0.051712114 0.0033697418 -0.016996779 0.07995333 -0.1786778 -0.060727246 -0.006807535 -0.011520957 -0.032070503 0.26968148 -0.06744747 0.81524044 0.010381499 -0.029011592 -0.038647033 0.121348724 0.010820985 -0.01047565 -0.046190467 0.022505447 0.13946742 -0.05638373 0.010320362 0.42401975 0.017284531 0.07183195 0.055314176 -0.02192714 -0.0051338137 0.00434349 -0.012267035 -0.039393727 0.0015392648 -0.030511543 -0.0077749444 0.0331373 0.00035037266 0.0045235376 0.0013919033 -0.12861651 0.037301537 -0.1759377 -0.015549416 -0.051687077 -0.25695857 0.12346731 0.115839854 0.003240146 0.24095424 0.004477476 0.05311385 0.07566146 0.05794315 -0.12955809 0.07972694 -0.024322247 -0.022084784 -0.08945223 0.0363977 -0.056596547 0.4817199 -0.0054634092 0.018464431 0.21594898 -0.025699422 -0.0023336378 0.21467744 0.05095512 -0.21858001 -0.055239372 0.026839748 0.54045415 0.013352189 -0.0017980229 -0.014030286 0.048836898 -0.052769747 -0.011466344 -0.008033654 0.04962998 -0.107222416 -0.019576645 0.026326798 -0.015852643 0.06803115 -0.05496659 -0.023681168 0.036567505 0.08105019 0.015883034 -0.050397217 -0.009236415 -0.004503148 0.039370082 -0.07947485 0.036773354 0.22645317 0.022108175 0.19261865 0.0029361434 0.0954486 0.09686726 0.03589515 0.0408797 -0.063768975 -0.0021959965 -0.018541181 -0.013718193 0.25907895 0.08933437 0.03943224 -0.0356074 0.010865695 0.15375419 0.02655828 0.0053894483 0.37996867 0.0019730877 -0.00608214 0.013810255 0.002050057 0.055577517 -0.07983129 0.24807936 -0.048616186 -0.02157736 -0.24691059 -0.018181348 0.024300566 -0.15530927 0.014512718 -0.04667582 0.684587 0.03370647 0.024248421 0.053036507 0.15198824 0.008557107 -0.010369192 -0.029597152 0.19075912 0.21630073 -0.026553253 0.030271813 -0.1655424 -0.023822377 -0.06771468 0.09561998 -0.078268714 0.08648918 0.012329493 -0.116673306 0.10284858 -0.016215712 0.18425407 -0.026365172 -0.04757515 0.027363284 0.020983621 0.011403607 -0.012434545 0.4235493 -0.0970437 -0.48415804 -0.35914207 -0.017122889 0.39151245 0.5208494 0.02658045 -0.06327677 -0.07554526 0.024496904 0.5724731 -0.30833164 0.11495415 -0.11308805 -0.5425785 -0.34389907 -0.022487003 -0.028642213 -0.058327943 0.034815654 -0.04948668 0.0057761003 0.033655897 0.07369495 -0.011790049 0.027592395 0.48894045 0.02012801 0.08121519 -0.03451086 0.11319356 -0.1062581 -0.17329799 0.034725424 -0.0014103829 0.14540973 -0.028786771 -0.15845887 0.047361437 -0.22426985 -0.060037687 -0.12214773 0.018925864 0.3512225 0.054415006 -0.37622926 0.05198629 -0.060863398 0.009808257 0.16257437 0.06801931 -0.12177693 -0.325626 -0.23636334 0.07280786 -0.030002056 0.57477623 -0.008775284 0.0825568 -0.014445326 0.032458406 -0.06437224 0.22527592 0.059504386 -0.050658684 0.014847078 -0.005530448 0.07223022 -0.051759463 0.22846119 -0.19886807 -0.20189588 0.2204287 0.0018957828 0.23781103 -0.10878209 0.010252535 0.12587056 -0.015877344 -0.0015266998 -0.014307763 -0.013215812 -0.35781357 0.0014254731 0.0018626029 0.12977645 0.04631999 0.23064834 -0.0037861073 -0.011418737 -0.11515328 -0.10724904 -0.047678415 0.03836287 -0.026947489 0.008225878 0.0045145433 0.05725764 0.019426849 0.03441843 -0.020552838 0.13737005 -0.52271473 -0.07923154 -0.07885625 -0.3283456 -0.006015569 -0.0015109505 -0.0012183773 0.3944639 0.47670528 -0.03907365 -0.021383243 -0.18158205 -0.0133124525 0.009891791
social.a.02 0.14532042 0.079427436 0.028552046 -0.06413738 0.010509638 0.035893068 -0.27159083 0.01664432 -0.10895333 -0.0032124715 -0.00076403515 -0.19682923 -0.040564083 -0.1222272 0.08192662 0.31445214 0.5062356 0.06126896 -0.057665266 -0.25164583 -0.18055716 0.03464837 0.04382141 0.112928964 0.054405577 -0.025963394 -0.14873599 -0.010016365 -0.16017388 -0.06647914 -0.010206146 -0.031938568 -0.16628546 0.069342114 0.012268714 -0.043936934 -0.041423257 0.014044393 0.012679848 0.07734588 -0.01235778 0.19358869 0.050267927 -0.19215026 -0.03082645 0.13272735 -0.031446204 -0.33625612 0.26800007 0.0042100544 0.046259943 -0.16370742 -0.033983562 0.037528772 0.051719595 -0.049354076 0.031801883 -0.09471498 -0.110114045 -0.0005789447 -0.0058569396 0.0035302325 0.29061297 -0.031935085 0.029474113 0.010346456 -0.018150412 -0.0017226381 -0.04092624 -0.07004954 0.061320677 -0.23213433 -0.06929943 0.00041913486 -0.026345102 -0.060324635 0.09281751 0.1759269 0.12845255 -0.5421855 0.21007106 0.0055546486 0.23651536 -0.16029455 -0.111877516 0.004084621 -0.04144243 -0.09621701 0.005879648 -0.22332124 -0.121679895 0.02430124 0.1781473 0.16684477 -0.036913667 -0.053150807 -0.03349113 0.018825505 -0.034324296 0.28038877 -0.03290711 0.17300422 -0.2259634 0.022920094 0.019344596 0.019458316 0.20296064 -0.29444572 0.00982516 0.043402594 0.5015759 -0.014905044 -0.014276826 0.020756625 0.057317074 -0.067534305 -0.28636155 0.22492261 -0.19813375 -0.077558696 -0.010342685 0.0066941213 0.02806191 0.0150695 -0.012587286 0.36392263 -0.14218786 0.024614865 0.22921059 -0.059636313 0.3769908 0.043234967 -0.0050580623 -0.005977504 0.06756881 0.11174853 0.10139704 0.014451046 0.005157076 -0.009261622 0.0062877294 -0.13371956 -0.22802934 0.18810937 0.011226036 0.008899277 -0.0021186057 -0.0048042214 0.18233071 -0.022655627 -0.015224492 -0.011291515 -0.0060194368 -0.078180835 0.040218413 0.24352337 0.07021987 -0.0339216 0.0029313269 0.14868613 -0.44058952 0.072284445 0.14449354 0.080048636 0.07971957 0.0052138246 0.04471769 -0.0016157278 0.03866272 0.43318972 0.036226533 0.0043633124 0.04487631 -0.038467802 -0.044024933 0.08146656 -0.031881906 0.0962177 -0.03212079 -0.028146513 -0.07072392 -0.029401148 0.058745597 0.3689196 -0.1797339 0.059143618 0.023235122 -0.02577181 0.0124667715 0.2503091 0.017538877 -0.04527612 -0.047838353 0.23143214 0.13416445 -0.25415164 0.026884677 -0.1570828 -0.43923452 0.145152 0.006765301 -0.093715064 -0.015605738 0.20189935 0.0097035 0.18827449 -0.034072414 -0.058725856 -0.03621714 0.008186621 0.04409327 0.043052983 0.061747674 0.05535047 0.04085413 0.026858332 0.015082216 -0.07348399 0.058202002 0.15518287 -0.025966845 0.1969408 0.021792123 -0.08877927 -0.06089211 -0.11473061 -0.04504083 -0.01600536 0.011198904 0.0028310686 -0.20050381 0.041427266 0.04021294 0.06273532 -0.059088506 -0.009981189 -0.017253583 -0.20441763 -0.015829705 -0.008575305 -0.24370173 0.031626303 0.018278839 -0.09752939 0.036166415 0.038989276 -0.11653356 -0.049275033 0.022453345 -0.15090096 0.011500078 0.23517905 -0.013538067 -0.13821726 0.39940816 -0.0028646812 0.13735284 0.23454307 0.3188027 0.009641126 0.11859008 -0.111275695 0.032538306 -0.00949145 -0.011038499 0.25659612 -0.12946413 -0.07154053 -0.013900055 -0.009713581 0.060729004 -0.04947719 -0.024110438 -0.08271519 0.0903131 0.019112471 0.03984684 0.29779664 0.035843115 0.22765468 -0.024013897 0.06231416 0.06760385 -0.04372399 0.06601173 0.3415495 -0.14856666 0.0142599605 -0.012566399 -0.22633883 0.12738335 0.028993696 -0.0056971465 0.009518972 0.17892063 -0.011577778 0.007438826 -0.045605212 -0.08441298 0.032238606
easy.a.01 0.00016456838 -0.22120525 -0.22388713 0.010184359 0.030557236 0.5592192 -0.08674262 -0.019201549 0.06537834 -0.058526613 -0.046218954 -0.10418049 -0.009588405 -0.00059668743 0.05588043 0.18362103 0.12324956 0.03333751 -0.0456708 0.0043285876 -0.03445871 -0.02777108 0.04547328 0.055812404 0.05782812 0.032413892 -0.4566892 -0.051719703 -0.096545674 0.07209012 0.05118659 0.202576 0.024085691 0.20726869 0.1626119 -0.11629434 0.042751607 0.056042347 0.0005722945 -0.024260223 -0.18095051 0.30494097 0.08056557 0.012549049 -0.0445561 0.3541899 -0.0027469206 -0.03329001 0.12783916 -0.0054706065 -0.55253977 -0.047180865 -0.14037958 0.030432878 -0.011307985 -0.061151486 0.005137527 -0.011918862 -0.009178355 -0.03152862 -0.001209607 -0.27804232 -0.13027252 0.059071906 0.0288349 -0.025860915 0.010039618 0.13599414 -0.035910055 -0.13189945 -0.015515244 0.23314038 -0.012785334 -0.20918353 0.006054715 -0.3574331 0.1212907 0.1250644 -0.071282186 -0.29729807 0.31446576 -0.073909506 0.32133615 0.029332038 -0.0015450808 0.06838596 -1.0869473e-05 0.36785436 -0.07304992 0.1279044 -0.22453897 -0.1522127 -0.026851404 0.07558928 -0.0019822796 -0.03673551 -0.015649093 -0.10995572 -0.044307236 0.048696313 -0.04101527 0.2457087 0.2295701 -0.016124409 0.03133275 0.06901139 -0.008727982 -0.21024662 0.010477437 0.017333228 0.26323178 -0.1338423 0.08983667 -0.018434657 -0.046257883 0.03963475 -0.45569846 -0.022219643 -0.011367154 0.029372316 0.06358619 -0.00016842972 -0.12725215 0.06519722 -0.048225403 0.1596216 -0.2683324 0.20434016 0.17876267 0.0137743605 0.34750584 0.20117752 0.23286068 -0.042878997 -0.047504634 0.39390534 0.0043836376 -0.09210731 -0.1123522 0.49476105 -0.040371645 -0.060101215 0.021298526 0.15114263 -0.12506075 -0.08527009 -0.080372676 -0.025875157 -0.070654176 0.025283959 0.31335863 0.04508653 0.097302064 -0.053844616 0.08125199 0.008228552 0.031756647 -0.020797404 -0.01654788 0.07943544 -0.014556162 0.0843562 0.0801124 0.21071756 0.015045613 -0.022887418 -0.29012594 -0.06452712 -0.059650633 0.14917767 0.06253746 0.010898207 0.1014662 -0.22299345 0.10300792 0.05543996 -0.09670099 0.058817413 -0.0144373 -0.16658178 -0.056177814 0.005072588 -0.0075520766 0.11925945 -0.52987397 -0.015755223 -0.24469405 -0.34393623 0.042705588 0.3530534 0.39920363 -0.078907475 -0.16322345 -0.0004306876 0.07589455 -0.2562115 -0.10665179 0.029349715 -0.43938893 -0.0019035934 -0.038499296 0.1040923 -0.13480628 -0.00627525 -0.0012444454 -0.010118043 -0.026529912 -0.14477614 -0.052932303 0.36565018 0.07573948 0.023295756 0.14251554 -0.04052195 0.14266919 -0.2955689 -0.011345305 -0.025220381 -0.21163976 0.019574633 -0.032085177 0.002568617 0.11579326 -0.09569849 0.037167072 -0.14027163 -0.022611728 0.004954068 -0.03352058 -0.022943702 -0.019974666 0.007011111 0.1598394 0.0037555387 0.0324747 0.24561554 -0.012949573 -0.25411937 0.02232635 -0.08013675 0.014149376 0.015533853 -0.03596131 0.09081378 -0.010059008 -0.15610151 -0.030381093 -0.006950309 -0.058470044 0.036696743 -0.17791091 0.25996515 -0.05585773 0.17272303 -0.05042078 0.14679693 0.18715869 0.42789635 0.338154 -0.050185323 -0.023106579 0.0760593 0.025740368 -0.45842412 -0.02277646 -0.17541929 -0.09063015 0.009378197 0.029616078 0.071635015 -0.23849337 -0.22157604 -0.019783333 0.022857707 0.045299515 0.002471496 -0.020284068 0.0380076 0.24935871 0.01057427 -0.04483431 0.09626086 0.1899783 0.008627917 0.041445166 0.12356589 -0.20911099 0.17264588 -0.21475676 -0.27268955 -0.35937178 -0.2778858 0.047680106 0.028179778 0.16719621 0.27678874 -0.04857896 0.024427483 -0.19126822 0.019832632
poor.a.03 0.043480206 0.037581217 0.044725094 0.012350766 -0.017973024 0.04777846 -0.429351 -0.006336272 -0.0078093177 -0.011560161 0.027989388 -0.02925378 -0.03788838 0.031898726 -0.08869665 0.29404178 0.048513655 -0.015290593 -0.034285102 0.13718417 0.010269849 -0.04833142 0.01973274 -0.010883543 0.03021919 0.0283106 -0.15824483 0.036184777 0.08015037 0.008120149 0.05480078 -0.16995004 -0.016248265 0.024555132 -0.15464969 -0.090947695 -0.010476522 -0.037845347 -0.0010341178 0.30850062 -0.07867422 0.0862279 0.102350004 0.015041165 -0.3513072 0.18368681 0.043268636 -0.01985196 0.10214526 0.009573351 -0.04447047 0.002462646 -0.0018644821 0.02290594 -0.21035486 -0.46758488 -0.025792742 -0.014285764 -0.0020356101 0.04247448 -0.09936362 0.15638578 0.17405644 -0.029534385 -0.18238059 0.0092514865 -0.020897832 0.0184763 0.00998879 -0.06341348 0.09006064 -0.2423673 -0.07976578 -0.014009829 -0.19686657 -0.01311499 0.43822408 0.20225517 0.16995998 -0.11587601 0.1485609 -0.53003806 0.1468324 0.06934688 0.031375963 0.021439346 0.030189084 0.124525584 0.0006121802 0.013939953 -0.020836001 -0.20528156 0.10170439 0.0091512455 -0.27377507 -0.0005032252 0.21863422 0.014706315 0.00150187 -0.008324967 0.009312396 0.31926093 -0.04119167 0.003082883 0.17561822 -0.02107263 -0.033086598 -0.20608632 -0.033290118 -0.104323 0.3325552 -0.038160115 0.013722737 0.3047446 0.0031699715 0.0033277525 -0.05126574 -0.05708055 -0.014698996 -0.10445224 0.0065662446 0.0099393865 0.020753197 0.2332852 -0.039460976 0.29466534 -0.04158005 -0.026776105 0.3646542 -0.017338663 0.19403574 0.13501607 0.03241272 -0.04651907 -0.061735462 0.49978423 0.057611194 0.0024220685 0.0726592 -0.25855708 -0.031019654 0.008618644 -0.015099448 0.027624713 0.015065763 -0.04957543 -0.00070614024 -0.054113247 -0.00043362574 0.13923766 -0.019448016 -0.14535847 -0.018079704 -0.038865793 0.047936115 -0.01428566 0.012561212 0.008487549 -0.05713082 -0.16206887 -0.0002822031 0.0597342 0.0978725 0.8959337 0.020337148 0.020244066 -0.12192886 -0.017248724 -0.15592313 0.2331143 -0.0061546154 0.015366337 -0.004890031 -0.03913025 0.024360955 0.030240119 0.03782778 0.030748911 0.064776115 0.04215965 -0.5978748 -0.0024790037 -0.025219647 0.4379518 -0.11363261 0.05837377 0.0093215 -0.037611626 0.022145534 0.30865714 0.11091266 0.10880535 -0.24388392 0.024313584 -0.0014171692 -0.16972639 0.009544798 -0.2951296 -0.15175569 0.018516101 -0.07812846 0.018267155 0.041090757 0.05174435 0.0010561785 0.07578682 -0.019804642 -0.039956104 0.021030517 -0.16801494 0.35133424 -0.014698549 0.32490382 0.01283479 0.051846474 -0.016680691 0.05159146 -0.016229127 0.0066198595 0.06696998 -0.05736536 -0.029561887 0.026688483 -0.31867626 0.027632786 0.04712957 -0.02588372 0.07863061 -0.257697 -0.00031846474 0.012206908 -0.03299865 -0.024576383 0.10598012 0.041737445 -0.0071842964 0.01383566 -0.15826824 0.018007256 -0.01935765 0.0064642103 0.016833384 0.029510994 -0.020962145 0.027045637 -0.029845186 -0.06645582 -0.027845081 0.024472654 0.0992956 0.01938965 0.27624926 0.03400399 -0.116468556 0.039456923 0.055616252 0.11039749 -0.0005287593 0.45291227 -0.018957043 0.002051201 -0.10951419 0.04750427 -0.078444324 0.034161445 0.10167259 -0.029978957 -0.07311546 0.050687738 0.037248943 0.019819954 0.08517308 -0.009199441 0.0027708658 0.030768357 -0.0048608463 0.045243107 0.012899038 -0.111735485 -0.09194673 -0.0001062011 -0.0059546256 -0.39923793 -0.056645226 -0.0085206125 0.29325947 -0.05419195 0.018463362 -0.026807273 -0.09426222 0.20858769 0.0118024545 -0.040365342 -0.04639171 0.24606763 0.032341056 -0.044053074 0.01817202 -0.80812985 0.03649763
inactive.s.10 -0.00035560358 0.038786437 -0.0055108233 0.11567871 -0.036017403 0.22703114 -0.30553025 0.068771526 -0.0052620363 -0.048377063 -0.26655474 0.07205911 -0.027357247 0.19470003 0.06955962 0.38256457 0.2490134 0.065506995 0.024388395 0.030188866 -0.03031975 -0.11069475 -0.10451076 -0.086267605 0.16225165 0.30675596 -0.22740115 -0.2509076 -0.086386554 -0.08491734 -0.02110986 0.20514156 -0.0031774242 -0.023730213 0.060211334 -0.29108012 0.108590275 0.2176317 0.09069787 0.028569508 -0.009435627 0.2705668 0.19454686 0.010317243 -0.014534072 0.27997395 0.16352375 -0.17719749 0.38447964 0.10548898 0.016081892 -0.021310756 -0.0021663466 -0.044354532 -0.00614783 0.0038654413 -0.058254752 0.03035205 0.14200753 -0.036263376 0.09886911 -0.13677168 0.1287597 -0.39658087 0.014034801 0.049356557 -0.2057728 -0.029456144 0.14306898 -0.88570833 0.022087308 -0.118968606 -0.11696702 -0.0064983033 -0.057622053 0.024041766 0.32948515 0.09342426 0.19291058 -0.38054606 0.17293118 0.009098285 0.22687794 -0.044460844 -0.0122722685 -0.021425571 -0.14950243 -0.0089863585 -0.08011226 -0.17857918 -0.32215184 -0.35892144 0.32519814 0.021310333 0.036805954 0.17447744 -0.009797088 0.073709264 -0.02798276 0.12634255 0.18093406 0.12732786 -0.33724385 0.24001601 0.028129727 -0.014095362 -0.011053869 -0.2869374 0.33062083 -0.39090583 0.35745153 0.004992412 0.16399814 -0.16568978 0.15226376 0.34263137 0.102406114 -0.05817205 -0.094691515 -0.028882246 -0.0127827125 0.32443097 -0.029582646 0.24929327 -0.048967965 0.35746452 -0.011259532 0.011614662 0.2038984 0.064182475 0.56032586 0.18356992 -0.015487899 0.045090504 0.032323025 0.23881772 0.007261154 -0.06720474 -0.019059794 0.0637435 -0.028590089 0.26896313 -0.044428147 -0.050055873 0.021623328 0.030496396 0.044492457 -0.088296086 -0.004366603 -0.18053016 -0.0173469 -0.02766716 0.020756321 0.12554476 0.30150914 0.3572048 -0.02079794 0.017561613 -0.23454058 0.04821464 0.055686116 0.018620567 0.13564536 -0.053419806 0.40275598 0.080335595 0.05180165 -0.17204854 -0.15846923 0.29078403 0.14256142 -0.02669502 -0.022598127 -0.156237 -0.092626266 0.106507204 0.17097297 -0.03872434 -0.049594652 0.094132185 -0.07677089 0.010124922 0.19961298 0.24171315 -0.7055629 0.038515374 0.071573354 -0.23084961 -0.080628134 0.11128179 0.08597481 0.051177863 -0.06858132 -0.031119537 0.0127942925 -0.17032409 -0.02217852 0.019039087 -0.36214986 -0.0054866234 -0.15205222 -0.15073898 -0.18355083 0.060107663 -0.09637376 0.28104377 -0.020520117 0.01785909 -0.015948843 0.062729865 0.32532427 0.11655476 -0.074066125 -0.052019563 -0.015293782 -0.03261955 0.022348655 0.11444427 -0.0001823532 0.009202149 -0.005665566 0.14416826 0.024679562 -0.22290285 0.07243588 -0.30760992 0.007471636 0.27957442 0.026288984 0.015698617 -0.08800198 -0.008787776 -0.06754862 -0.015183302 -0.11439873 0.004418924 -0.027188603 -0.23414585 -0.070123084 0.032605797 -0.06811912 -0.091513366 -0.018161017 -0.0046905554 0.04327141 -0.02269504 -0.024892846 -0.04482404 0.19982101 -0.10429741 -0.047422722 0.12742534 -0.15056305 0.26190722 -0.047640953 0.004851007 0.24187396 0.31848854 0.2098735 0.10310256 -0.06224545 -0.1808085 -0.0146106 0.053857904 -0.1049898 0.02216854 -0.55869967 -0.05449606 -0.021601057 0.008128327 -0.09525343 0.023545085 -0.027675437 0.08245019 0.05044408 -0.018875211 -0.033326264 -0.08909039 0.055599548 -0.0706013 0.0029374696 0.052037425 0.067912236 -0.005211785 -0.02192969 0.40085506 -0.35718057 0.031672515 0.11873318 -0.41628247 -0.06847664 -0.09843378 0.046183832 0.040844303 0.3414384 0.016357062 0.07226722 -0.008202587 -0.27042705 -0.061616294
abundant.a.01 -0.11093052 0.05496803 -0.03940397 0.23327154 -0.038530443 0.23280698 -0.015064465 -0.10872516 -0.015918426 -0.28841603 -0.022763392 -0.08579546 0.08218905 0.027795866 -0.06574412 0.001538032 0.2509741 -0.036619652 -0.0077842358 -0.10035904 0.060036086 -0.019685805 0.0092937285 0.104220964 0.025624223 -0.06876643 -0.116351396 -0.16249071 0.091827184 -0.07394027 0.00407255 -0.038595565 -0.033781122 0.59973866 0.11511482 -0.053060662 0.0151668005 -0.061655253 -0.010912763 0.072250314 -0.075161435 0.21396278 0.15311468 0.16208509 0.015074641 0.18534236 -0.03172303 -0.08370006 0.25800645 0.24933939 0.0146230245 0.10536631 -0.05392352 -0.063210435 -0.34740084 0.06509423 0.060663044 0.002234127 0.009169781 -0.07364757 0.113752365 -0.072058454 0.05857583 0.099586144 -0.08316524 -0.011652142 0.33163345 0.3041541 0.0060718264 -0.01840233 0.0035950402 0.027871283 -0.15183483 -0.47514942 0.06626337 -0.34222072 0.18531933 0.04221206 0.0012976852 -0.11212215 0.44260955 -0.030980261 0.20019838 -0.13178122 -0.04921231 -0.072326444 -0.12828773 0.21677001 0.0172969 0.020813018 -0.4514302 -0.0102391485 -0.19376898 0.18632814 -0.053943727 -0.032790728 0.11385882 -0.019720107 0.0573475 -0.13161308 -0.18792106 0.15102178 -0.10559436 0.11400786 -0.11855833 0.047743615 0.038647536 -0.059972413 0.3772238 -0.015613136 0.2696918 0.390545 -0.19118339 -0.04259485 -0.04651827 0.107113756 -0.16906677 -0.011702547 -0.045263555 -0.23396957 -0.06266143 -0.13249671 -0.28745928 -0.22791371 0.13829572 -0.1981868 -0.0004073855 0.0347471 -0.050051697 -0.2634244 0.3829769 0.16253488 0.025072243 -0.05801055 0.013317047 0.1606654 0.17538548 0.12374229 0.3559698 0.049722396 0.106409505 -0.09500316 -0.24049813 0.6678741 0.09821395 0.040549327 0.024175746 0.06906417 -0.07039983 0.034324653 0.25426993 -0.30400312 0.004286058 -0.13564745 0.46931034 -0.07562574 -0.017916046 -0.012396112 -0.118956424 0.119236305 0.03285212 0.03229317 0.03251349 0.12014258 0.45600712 0.041110437 0.041976497 0.033302173 -0.045488268 0.03667808 -0.0120293135 -0.050115637 -0.061431833 -0.51441747 0.02235749 -0.0124254795 0.0041936813 0.025099928 0.29813895 0.28249896 0.006347474 0.031882823 0.005134328 0.30013436 -0.5487364 0.032350104 -0.16299808 0.067742005 -0.07388959 0.37471187 -0.04627275 -0.09345202 -0.13936858 0.057406645 0.060615316 -0.34797275 0.07503787 -0.31765038 -0.21627228 -0.11549194 0.111509755 0.028241092 0.0019392199 -0.044433244 0.005876381 0.021622095 0.048788425 -0.16363917 0.044543266 0.01169805 1.1035427 0.26731786 0.11604049 0.03346079 -0.061582003 -0.005447061 0.08454413 0.0754476 -0.13968952 0.051410675 -0.06353338 -0.05744861 0.17756747 0.020203333 0.41710472 0.38600868 0.04646061 0.013822975 0.015870534 -0.1827705 0.32598272 0.019316768 0.081129186 -0.012043142 -0.13017945 -0.11141294 0.0783368 -0.30418372 -0.01979523 -0.051088136 -0.031623453 -0.055950794 -0.032268662 -0.09949374 0.15701452 0.0114652375 -0.083570436 0.043275464 0.14884138 0.14613473 -0.064314395 0.2721497 0.0041192193 -0.033993952 0.1987242 0.25303861 0.038619798 -0.15034975 0.5885308 -0.111527696 -0.04883466 0.12854475 -0.07410442 -0.07398819 -0.029054645 0.13129501 -0.11975881 0.050755415 0.041098457 0.28791162 -0.284091 -0.19209763 -0.015811713 0.011626948 -0.008282877 0.066669464 0.01070759 -0.0272296 0.14432225 0.041192852 0.14326979 0.19717409 -0.25530586 0.078705765 0.023349775 0.21273825 -0.15452394 -0.2636309 0.00088471745 -0.29553062 0.06702824 -0.001825897 0.047820795 0.042499274 0.5246903 -0.12197063 -0.25265872 0.046397734 -0.0011706171 0.0070083174
green.a.03 0.046119098 0.0679072 0.18389702 -0.2869323 -0.010507998 0.13068238 -0.18725666 -0.3713338 0.0047729365 -0.32803622 0.2375356 -0.29065067 -0.3212504 -0.060750116 0.118980445 0.19150777 0.43401167 0.15735868 -0.35810268 0.11098762 -0.26573598 0.3922575 0.36322165 0.21583144 0.19306655 0.12567843 -0.351192 -0.1363692 -0.039467536 0.049710207 0.015035822 -0.17335354 0.15157245 0.060064763 0.013819463 -0.42415568 0.040417984 -0.077035144 0.04123231 0.051056404 -0.05382141 0.12559988 -0.010722972 0.10754124 -0.0724004 0.5668837 0.07063311 0.15798846 0.42293394 0.18341073 0.19820674 0.021579957 0.04782465 0.15972579 -0.32201886 0.093157366 -0.02279245 -0.22590125 0.06742397 -0.23774442 0.089407705 0.23574348 0.07029957 0.058540463 -0.34618786 0.119829096 0.14793366 -0.05070959 -0.01643192 -0.29586804 0.19907533 -0.15097512 0.0574907 -0.33298758 0.01788667 -0.039292697 0.3896241 0.31581804 -0.22416833 -0.24565203 0.10366905 0.08498349 0.23877977 0.07226328 -0.34565112 -0.0583976 0.18675545 0.24084322 0.13737981 0.21525945 -0.32818246 -0.2540395 -0.13109384 0.40729395 -0.08012728 0.016765447 -0.0044129035 -0.39465272 -0.24183424 0.021396516 0.18502092 0.083193175 -0.03425717 -0.09624938 0.082301885 -0.10098893 -0.07301914 -0.6790959 0.39205506 -0.020044962 0.6010508 -0.14842011 -0.23685594 -0.03819078 -0.016331168 -0.10104404 -0.08063125 0.33726814 0.34759265 -0.07228647 0.16614681 0.12302333 0.420582 -0.12631252 -0.10511233 0.29504547 0.0061019887 -0.09054481 0.27249798 0.08601732 0.34663463 0.2397456 0.013441191 0.17974249 -0.027047465 0.24627791 0.19194041 -0.00036465668 -0.27328923 0.058009747 -0.06477375 0.00876049 -0.076932766 0.14841191 0.20349608 0.14269575 -0.19316871 -0.011192884 -0.270432 -0.026261646 0.20058425 0.061248668 -0.08349659 0.016112007 0.059554763 -0.027509013 0.06693354 -0.018832726 0.16892399 0.080742754 -0.10062352 -0.11265316 0.5652809 0.12644766 0.6832774 -0.1298737 -0.03066663 0.04511275 -0.056398988 0.44245154 0.08469798 -0.054949142 -0.023758003 -0.107790664 0.21389252 -0.15716754 0.1411974 0.12773147 0.07221156 -0.06743117 -0.16560353 -0.16376577 0.21994889 0.37308353 -0.19450238 0.060848102 -0.051771183 -0.22742264 0.30896056 0.13504435 0.28581157 0.14547804 -0.5863396 -0.0011294726 -0.094857275 -0.65890557 -0.107688524 -0.36550048 -0.17825869 -0.17969498 0.11983494 -0.14021024 -0.078928344 -0.2721301 0.43785107 0.29118747 -0.13446745 -0.42174494 -0.6288942 0.15669432 0.39736524 0.31752262 -0.01847068 -0.07562664 -0.15115213 0.06660052 -0.13708685 0.06055013 -0.1465674 0.17169264 -0.031358823 0.0914053 0.021204704 -0.10864405 0.07817248 0.17204049 0.022895606 0.055735655 0.20060018 0.30671525 0.014156686 0.0035532485 0.070470884 0.076208845 -0.12536196 0.0070581553 -0.29119185 -0.51289976 0.023653593 0.0002567226 0.02057076 0.12498494 -0.24700546 0.16968904 0.3441891 -0.04989753 0.012718834 -0.198873 -0.03901214 0.0029326822 0.077483885 0.150274 0.30730203 0.11819404 0.043816958 0.048817154 -0.021165546 -0.14427087 0.40243936 0.1942238 0.12011504 -0.01065708 -0.12871343 0.12634264 -0.057831556 -0.029423093 0.098940894 0.0035227959 0.3603726 -0.16623734 -0.06646278 0.53452724 0.041257985 0.09836868 -0.33601043 -0.012554016 0.054608796 -0.4184129 0.049544476 -0.33876428 -0.5027341 -0.035181142 -0.29177344 0.067954905 -0.3029519 0.6134377 -0.6308521 0.20147078 0.118918486 -0.22023748 -0.2670713 -0.014681022 0.07343044 0.19185881 0.13180682 0.33046758 0.0030261949 0.15384199 -0.13025214 -0.029898558
urban.a.01 0.008962954 -0.011964248 0.44442338 0.0025049364 0.08879148 0.040548027 -0.21304995 0.113265 0.11402647 -0.119219854 0.00091273425 0.018084899 -0.018724827 -0.052998465 -0.06790794 0.2721365 0.19450358 -0.07503755 0.018960042 0.01736505 -0.29843277 0.28919414 -0.010817112 -0.061104015 0.043099757 -0.05220178 -0.3269818 -0.00067980005 0.006088126 -0.04107869 -0.065194696 -0.121026225 0.034726433 0.026944488 0.025337923 -0.28231207 0.22184168 0.11595251 0.057675615 0.037638165 -0.05398383 0.31644252 0.16531606 -0.044978883 -0.0020750999 -0.013087201 0.07240787 0.17903098 0.10961566 -0.14265265 -0.01398717 -0.02691896 -0.33189556 -0.06913042 -0.14619206 0.08427888 -0.05077591 0.0063473503 0.052125815 0.059447907 0.052546773 -0.18134494 0.14471754 -0.026751593 -0.051334634 -0.07001532 0.14406528 0.04240107 -0.0007345796 0.055610117 -0.13874698 0.0055858265 -0.042181622 0.015720392 -0.03068125 -0.03729542 0.097774394 -0.037802275 0.029494759 -0.26660088 0.17326114 -0.06914906 0.34801677 0.327762 -0.055789366 -0.05552018 -0.05530128 -0.28879288 0.032094453 -0.056286264 -0.2547037 -0.09648214 -0.047197472 -0.041527584 0.012382772 0.0070718564 -0.04883968 0.010954137 0.0014408105 0.09960428 0.0018603397 0.09665462 -0.0058202883 -0.022154257 0.07244229 -0.024937317 -0.05107534 -0.48473787 -0.034570623 -0.12651955 0.3234645 -0.10504443 -0.05539495 0.021883726 -0.039991762 -0.23527871 -0.122382805 -0.015158117 -0.052725803 0.07771529 0.03542579 -0.029563598 0.17193824 0.11625345 0.10956269 0.6031956 -0.057032783 0.013132242 0.16739462 -0.027265813 0.2963654 0.0054635354 -0.20831707 0.05262405 0.090945564 0.3688976 0.06341206 0.04509856 0.06441549 0.07128486 -0.053499673 -0.15397733 -0.24312524 0.056386326 -0.072005264 0.2713353 -0.024151307 -0.13257998 0.052756466 -0.048715457 0.25438252 -0.016420987 -0.007443372 -0.022595339 0.028820662 -0.01691894 -0.014505615 0.053847283 -0.27285683 0.17751019 -0.20625913 0.007833356 0.09908895 0.15187383 0.08845635 0.03176696 0.039806563 0.061139967 -0.19143255 0.49794796 -0.11856942 -0.025770316 -0.016639464 -0.0296236 -0.0385501 0.10064405 0.030751469 0.36295196 0.04226997 -0.06324447 0.008796317 0.13818063 -0.38885912 0.3021412 -0.297375 0.04155272 0.07220123 -0.07680453 -0.08625817 0.15130971 0.027320307 -0.21403952 -0.2227356 0.07274299 0.08559633 -0.37560213 -0.004346194 -0.00022269292 -0.4781324 -0.0021827174 0.06360631 0.021359328 0.051015288 0.11744238 0.0057076183 0.10160539 0.048499223 -0.32503143 0.014861522 -0.026575807 0.1570294 0.026258802 0.0303957 -0.0023878333 0.0043663583 -0.067441635 -0.018442733 -0.15214382 0.067914724 0.35807687 0.013533856 -0.049599756 0.18254392 -0.06174615 -0.07853532 0.016082035 0.0019472727 -0.09457477 0.063522816 0.022182038 0.0064769075 0.046226576 -0.020241946 -0.013130494 0.03782371 0.02115528 -0.06090915 -0.3590529 -0.050348945 0.07437331 -0.06870267 -0.015508937 0.0031978842 0.007983069 0.064412005 -0.019687394 0.084492296 0.06921644 0.06284085 0.10577725 -0.0024638493 0.21082048 0.0475217 0.25570813 -0.010755705 -0.034885727 0.1101527 0.015694447 0.07721752 0.113803886 -0.061391436 0.057042472 0.40426302 -0.25529054 -0.24608608 0.0480441 -0.1600546 0.026335873 -0.22033562 -0.37279996 -0.07432873 0.01996543 -0.49092612 -0.105921626 0.07881094 0.00662557 -0.049284905 0.04784085 -0.3264758 -0.0067826123 0.069721885 0.006978535 -0.14601447 -0.02260959 0.018317677 0.24211974 -0.21061161 0.03734846 0.305085 -0.033605367 0.38525936 0.111516304 -0.06780885 0.1076745 0.115242966 -0.21513484 -0.15883894 0.043150127 0.043515205 -0.06546244
exact.a.01 -0.033446386 -0.011569128 -0.016942676 0.3806936 0.037095997 0.12373522 -0.22403018 -0.0454218 -0.04130257 0.011710159 -0.012711436 -0.3976507 -0.009371315 0.028450914 -0.10808468 0.03047799 0.18846664 0.034436617 0.012116464 -0.104868725 0.25801054 -0.103540346 0.044393066 0.036828402 -0.013802992 0.003640277 -0.19847223 -0.019299056 -0.041981284 0.0051995246 -0.19139767 -0.3585134 0.0028195898 -0.014304032 0.21116322 -0.16590865 -0.14100403 0.02743411 0.0030714078 0.04031572 0.032126494 0.3652675 0.07297256 0.00510195 0.03101146 0.13700068 0.020221043 -0.40730846 0.12802625 0.064413875 -0.03524546 -0.008379873 -0.032028116 -0.3316925 -0.18971203 -0.12573661 0.044922933 0.011159056 0.036703784 -0.06576714 0.021270435 0.008484787 0.12706192 -0.03582858 -0.036533628 0.07531264 0.0062849536 -0.059271153 0.0138271395 0.015540079 -0.00845453 -0.33600366 -0.097415045 -0.10264811 -0.018518684 -0.3837242 0.035245072 0.10223208 0.04837826 -0.20285681 0.29846185 0.02712352 0.11290301 0.062445093 -0.0094393175 0.010768046 -0.025899949 -0.07645982 -0.033294767 -0.030851513 -0.36331043 0.018643573 -0.14508462 -0.07431809 -0.048875183 0.03600964 -0.031490136 0.018782947 -0.0015685882 -0.017848818 -0.1846193 0.13775724 0.06977255 -0.036229465 -0.003389861 0.04516545 -0.28850356 -0.079794444 0.22872907 0.037689056 0.46073043 -0.061057467 0.0018477031 -0.044204693 0.11297508 0.036256578 -0.005683274 0.039619148 0.0011374246 -0.0043287026 0.0077125803 0.0047120973 -0.039782934 -0.018849 -0.15684941 0.12997286 -0.070849955 -0.027432738 0.14344637 -0.0015231491 0.27937612 0.025668845 -0.017187018 -0.04910278 -0.0076233973 0.34270197 0.26591888 -0.08833255 -0.023050612 -0.004215448 -0.010840883 -0.3070139 -0.07598373 0.16295515 0.050085858 -0.16336349 -0.036418483 0.0020687087 -0.055808444 -0.44147748 0.22948435 -0.20660318 -0.02281816 -0.091386065 -0.0010067984 0.011742157 -0.04060417 -0.02192684 -0.071034245 0.25284424 -0.01392316 0.04693661 0.3322051 0.012303245 0.025065504 -0.11363244 -0.04949534 -0.0064109033 -0.2849667 0.3317306 -0.08658812 -0.074480064 0.004048536 -0.1244103 -0.021125102 0.14301112 -0.10971016 0.062573425 -0.01256816 0.17861097 -0.14927898 0.0033216365 -0.004750861 0.4484287 -0.30759364 0.012749863 0.001785514 0.0039256522 0.4625449 0.23742875 0.054901846 -0.038706176 -0.44174942 0.40632194 -0.07542019 -0.40735525 -0.11819887 -0.030965647 -0.50244534 0.00443913 0.04818493 -0.3453109 -0.018090421 -0.009720845 -0.028383143 -0.17530099 0.043251272 -0.09125206 0.049467575 0.0431277 0.23773079 0.018276228 -0.032394193 0.036452096 0.12845567 -0.04380365 -0.18924528 0.0048138807 0.22182639 0.021271994 0.036049973 0.0015656798 0.5212464 -0.047311846 -0.03791723 -0.018184766 -0.060513988 0.0073968195 0.1005852 -0.026265865 -0.04451476 0.01113477 -0.19998568 0.06095288 0.049153563 -0.037249602 0.015184013 -0.18729521 -0.068051554 0.049288422 0.04148952 -0.046858873 0.007767433 -0.25619668 -0.04342246 0.5345318 0.01015036 -0.0252364 0.039212964 -0.349599 0.041132573 0.04010439 -0.10663669 0.18007623 -0.09631916 0.08429938 0.029312095 0.047886714 0.09309596 0.09260881 -0.03899465 -0.1359102 -0.15030095 -0.122226626 -0.017623829 0.04691875 -0.3510561 0.087713934 0.020133026 0.2285234 -0.008549159 -0.1305618 -0.05119022 0.05525347 -0.046756625 0.036518026 -0.050938245 0.35132372 0.08719874 0.023363862 -0.11955286 0.018874511 -0.04890164 0.041403703 0.008619198 0.06112587 -0.6723055 -0.026295042 0.13447067 -0.23835804 -0.10955363 -0.013407878 0.13471863 0.010052447 0.33465207 -0.19215335 -0.05840703 -0.13555819 -0.045826063 0.022614507
