1000 50
old.a.01 0.23193693 0.0720415 -0.14392082 0.12068136 0.23644917 -0.17413257 0.07231872 0.13517398 -0.008628874 -0.1821071 -0.17413014 0.15243626 -0.22328775 0.03673444 0.24035703 -0.098515674 0.046476405 -0.04208656 0.24384128 0.032586686 -0.2501635 -0.3199045 -0.047507145 -0.15769541 -0.21025203 -0.14099562 -0.18552363 -0.014178292 -0.18512891 -0.1427913 -0.21676002 -0.23159507 -0.15484352 -0.40247762 -0.16482583 -0.22006573 -0.088137425 -0.16212787 0.04160475 0.09491353 -0.16328943 -0.30031088 -0.21637855 -0.16788185 0.061971467 0.009534951 0.027929813 0.1638867 -0.14054579 -0.024705563
tidy.a.01 0.054714985 0.17754929 -0.2809173 0.012391733 -0.021578632 0.23720323 0.23290755 -0.012479588 0.15670587 -0.0987382 -0.06577305 -0.1424156 0.08030892 0.05413914 -0.060539164 0.16350254 0.14511758 0.12978037 -0.21836348 -0.13752307 0.03750778 -0.04927508 0.06656081 -0.064124614 0.28047425 0.2076178 0.15086545 0.113374256 0.081951626 -0.0411469 0.14051834 0.010076638 0.18018705 0.15261862 -0.06587209 -0.11628752 -0.07020587 -0.048276447 -0.12794837 -0.05762327 0.253101 -0.070952654 0.22766326 -0.009031183 -0.030704223 0.13613896 0.22943641 0.1651691 -0.028890489 -0.17337333
available.a.01 0.118448526 0.13566045 0.04915651 -0.097972184 0.043663565 -0.24399467 0.0977675 0.09724599 -0.15049607 -0.10786218 -0.12672763 -0.1733712 0.035659913 -0.12197253 -0.012435348 0.13504376 -0.16034345 0.15821566 -0.003291146 -0.13226208 -0.004088872 0.2903177 -0.14348729 0.14584033 0.17350127 0.042905863 -0.11977612 -0.02035065 0.030155754 -0.10892899 -0.049518663 0.16370422 0.16759862 0.12670314 0.10302748 0.16734913 0.059728406 -0.055521317 -0.037657585 -0.18433294 -0.02288855 0.16102912 0.23096444 -0.07516187 0.11782282 -0.16711044 0.17493041 0.16755784 0.21609566 -0.14749596
warm.a.01 0.056784686 -0.037737604 -0.19193523 0.10660044 0.11128743 0.0072671473 0.18324997 0.035463154 0.033757795 -0.13775498 -0.015460361 0.089166015 0.10219455 -0.03465207 -0.14581145 -0.23494379 0.005815567 -0.08123674 0.048524573 -0.039230675 0.04834546 -0.23467454 -0.029574249 0.29198736 0.0001340957 0.071942896 0.03506034 -0.06591441 -0.15269896 0.028303536 0.2310234 0.24089004 0.15724158 0.009340584 -0.14234576 0.083209194 0.11239857 -0.17410073 0.12903887 -0.12465929 -0.120043054 -0.15337339 -0.038037647 0.05177279 0.13221774 0.022563659 -0.0012228277 0.05433755 -0.069017105 0.19769463
strange.a.01 0.08503773 0.25171876 -0.12756577 0.24399073 -0.25314763 0.20502186 0.06958454 0.13537356 -0.037377812 0.044695184 0.002890749 -0.13576102 0.1396597 0.114311755 0.06358927 0.08318861 0.18782595 0.018622842 0.05223134 0.028749192 0.03861178 -0.12908888 0.05391317 0.27260727 -0.07880465 -0.117769554 -0.23458794 -0.04067811 -0.1218287 -0.034526035 -0.010327228 -0.14376415 0.10020003 0.024712693 -0.03572091 -0.2538149 0.10574553 -0.06157648 0.183854 0.051107414 -0.13121018 0.06834117 -0.082632266 -0.06358934 -0.21415745 0.109143786 -0.053048007 -0.36483082 -0.043424617 0.09755744
odd.a.01 -0.13832258 0.03084656 -0.0972859 0.17064515 0.15789351 -0.0036785614 0.036034416 0.12352003 0.104344375 -0.123051375 0.13023166 -0.17131117 -0.11464531 -0.11669354 -0.05041212 0.14819397 -0.014351218 0.09732295 -0.0475747 0.05376089 -0.036645822 0.0722038 0.033324968 0.07474867 0.18802594 0.014203001 0.16335632 -0.15948091 -0.1027199 0.1878019 -0.12668368 0.15089373 0.0058779633 -0.14483808 0.16855581 -0.28508672 -0.089316 0.136882 0.20683087 -0.17481126 -0.06757862 -0.118218265 0.05749114 0.08498026 -0.03326768 -0.020487279 0.03158622 -0.068640314 0.1315703 0.1849761
impermanent.a.01 -0.08259147 0.107067436 0.1575329 0.15987505 -0.22233129 0.16590244 -0.009532203 -0.0710926 -0.04467372 0.12895118 -0.21201715 -0.17172536 0.05199767 -0.17130347 -0.0146061545 0.005320129 0.22429547 -0.19106437 -0.17335801 0.27813774 -0.2980717 -0.09969632 -0.20783265 -0.23139021 -0.18377225 -0.13409917 0.026268354 0.05759481 -0.094943926 0.061408523 -0.2928536 -0.20829758 -0.014194998 0.07762593 -0.15055008 0.1573993 0.26880765 -0.1330601 -0.09078979 -0.11668342 0.13891909 0.108034484 -0.028387163 -0.26488382 0.14552335 -0.13659199 0.06266865 0.18819122 -0.23154932 0.0070021967
sensitive.a.02 -0.13267499 -0.25442782 0.2122781 -0.019740757 -0.06030976 0.17121947 -0.17020072 -0.10869049 -0.2630982 0.0796195 0.04879216 0.14398867 -0.0652641 -0.03734579 -0.06855878 -0.1938984 0.055546295 -0.066161096 -0.01123485 0.23639274 0.1590272 0.0963929 0.28066763 -0.09489307 0.02699434 0.107019074 0.1071127 0.05867507 -0.002357667 0.2894501 0.067874625 0.036691427 0.053601116 0.20432226 -0.040709585 -0.17311633 0.035904117 0.1886433 0.09945245 0.021276226 -0.15484743 -0.15097576 -0.20076826 0.18551056 -0.07901476 0.24543104 -0.06542027 0.14731435 0.2241733 -0.14509939
fat.a.01 -0.13879383 -0.23740797 0.13431141 -0.10307365 0.15507135 0.13122478 -0.16692725 -0.14273256 -0.078752995 -0.10753522 -0.005306961 0.23288698 -0.10910692 -0.14414114 0.22421195 0.07210761 0.22446564 0.26552585 0.1690213 -0.047567394 -0.064010225 -0.267459 0.13160911 0.3211116 0.20397283 0.17104265 -0.049141373 -0.2529584 -0.117262185 -0.057323642 0.11966832 0.16700463 -0.058250885 0.10746903 -0.020729132 -0.17239784 -0.01714081 0.2705564 -0.14140826 -0.05313977 0.20244181 -0.27898082 0.027273284 -0.10774125 0.100997806 0.16586535 0.24400145 -0.08265048 0.03896672 -0.13626482
outer.a.01 -0.29303154 0.18156354 0.2983771 -0.17507714 0.107154325 0.27506858 -0.11692491 0.07885004 -0.09258199 0.16682413 -0.12756693 0.13988234 -0.040003125 0.08227423 -0.34962934 0.10891867 -0.07072008 0.15427679 0.011997894 0.08632325 -0.09098302 0.14796512 -0.12217547 0.022609508 0.08553564 0.08049431 0.048998095 -0.03832933 -0.013761289 -0.1194991 -0.04523807 -0.09598952 0.026283013 -0.15901922 0.32133552 0.1350021 0.14026071 -0.15912172 -0.19259569 0.23128483 -0.24485095 0.074209884 0.3520202 0.062223163 -0.25138855 0.06867576 -0.043429837 -0.27205798 -0.17445709 -0.066273354
plain.a.02 0.025294933 -0.14687996 -0.19788785 -0.074008234 0.024734013 0.19144292 0.002448802 -0.035949364 0.17909132 0.12457146 -0.07352846 -0.13028553 0.25904083 -0.2496569 -0.06842037 0.08916861 -0.2742892 0.05288564 -0.07195538 -0.27107292 -0.11917354 -0.09516365 0.030151596 -0.08172598 0.32965392 -0.0010473264 0.23914596 0.11917703 -0.13908264 -0.42666027 -0.25086188 0.08287922 -0.13410245 -0.14069082 -0.08813101 0.06356469 0.123492815 -0.01668538 0.058455743 -0.18587247 0.24676245 -0.04415489 -0.018178537 -0.105189964 -0.15435138 0.04609149 0.040389687 0.18722263 -0.09540817 -0.25601324
structural.a.02 0.14301746 0.13746947 -0.3292741 0.13858531 -0.0400492 -0.08618485 0.1263606 -0.01151039 0.084895045 0.06703855 -0.045503523 0.02985044 0.021574939 -0.09220429 -0.19682439 -0.18293022 -0.07811113 -0.0055048354 0.1514151 -0.218836 0.065763466 -0.027047927 -0.043166626 -0.017006945 0.0988962 0.16367738 -0.063188024 -0.047391087 0.056735173 -0.11110566 0.018481225 0.08596461 0.07284972 0.113842785 0.2229561 -0.030572234 -0.29346687 -0.10028412 0.08790322 -0.04924549 -0.10373989 0.09572613 0.38368243 0.15488577 0.13966924 -0.17296875 0.18565662 0.20436367 -0.008440178 0.13452908
objective.a.01 -0.08628126 -0.30137113 -0.17468059 -0.024032867 0.39314038 -0.14796199 0.14310113 -0.114030264 0.16666259 -0.007363173 0.053102497 -0.14250694 0.066679716 -0.053627647 -0.021900522 0.1456941 0.20256583 -0.036058683 -0.009021369 0.15566133 0.21287277 0.0128563205 0.15850136 -0.19087839 0.0028009457 0.0732198 -0.038011983 -0.2878903 0.12961794 0.16576523 -0.12472084 0.07668261 -0.081068866 0.1693684 -0.15877436 -0.19105417 0.18444137 -0.051214486 0.086894915 0.19208191 0.2661314 -0.203604 0.011959882 0.039597753 0.04780359 0.10135841 0.19787338 -0.01638548 0.2550119 -0.013846984
ambitious.a.01 0.030802522 0.3149235 -0.15443528 0.25703362 0.002143594 -0.28360936 0.1491053 0.1582035 0.34467915 0.15338318 -0.21021578 0.059698712 0.23795752 0.23597035 -0.14792529 -0.035481986 -0.23261811 -0.24938267 -0.11120982 0.38246855 -0.12232225 0.18517946 0.16024858 -0.17931615 -0.08021452 -0.26096168 -0.041675802 -0.030905202 0.19740711 0.286682 -0.06186817 -0.3267874 0.07981428 -0.25005147 -0.28426996 -0.08964901 0.2150759 -0.33491144 -0.14896396 0.17269059 0.04904658 0.13690136 -0.17012952 -0.106863916 0.15385789 -0.072197154 -0.29502812 -0.2188368 -0.20151237 -0.23011677
mobile.a.02 -0.15869132 0.09104692 0.027774125 -0.07194608 -0.09678474 -0.034720723 0.120285414 0.088334344 -0.122695826 0.22022536 0.30412042 0.02638667 0.21298899 0.22237875 0.08972696 0.16091412 -0.10978058 -0.12810403 -0.12902923 -0.14966293 -0.27965063 0.21315552 0.15933855 0.09288587 -0.30671224 0.22938813 -0.047904853 -0.049925614 0.09744565 -0.17836158 0.15881646 -0.019458508 -0.14798526 -0.062050253 -0.151313 -0.101303965 -0.07225849 -0.18875828 -0.12050093 0.23265202 0.045563094 0.09375003 0.17126204 0.35293862 0.19720215 0.2355099 0.12988767 -0.043368623 0.112058334 0.14476658
ethical.a.02 0.1819888 -0.111659825 0.06980031 -0.3656701 -0.046651702 -0.045885913 0.005889544 -0.19963615 -0.22936952 -0.07950198 -0.20154355 -0.20264737 -0.20026672 0.010990546 -0.019195113 0.18158334 0.17771026 -0.092723586 -0.2024148 0.31625482 0.026512511 0.07978358 -0.19010301 0.030156087 -0.30089018 -0.19671986 0.0041390364 -0.14824805 0.17109881 0.31247482 0.077697754 -0.29332557 -0.0019882408 0.14364314 -0.27835354 0.11152944 0.27830598 0.0672301 0.09572473 -0.13174248 0.091012165 -0.25620425 -0.3150926 -0.42276996 0.40471417 0.2031755 -0.34788603 -0.10588627 -0.05364403 -0.18068591
bureaucratic.a.01 -0.06835194 0.041678317 -0.13582526 -0.08642313 0.33911338 -0.20375744 -0.123849645 -0.09619002 -0.13673644 -0.10642679 -0.14621663 -0.16597857 0.3047914 -0.018056683 0.22182037 0.011655401 -0.1697383 -0.15974975 -0.07787888 0.23114906 -0.081769496 0.2900762 -0.19387121 -0.19857973 0.24211298 -0.17130688 -0.11373159 0.015338189 0.14130086 0.14730169 -0.1925837 -0.0260311 -0.09543832 0.15890239 0.17531283 -0.20384625 0.1948899 0.24890274 -0.029510796 0.08838752 0.15191713 -0.18299022 -0.03526616 0.005728722 -0.05633603 -0.27105826 -0.39857003 -0.08767394 0.1095366 -0.22067435
grotesque.s.01 0.13758594 -0.09680751 -0.18755715 0.12475324 -0.12421974 -0.02921502 0.10693505 0.03780949 -0.07292611 0.1613816 0.059364196 -0.17352048 0.17515022 0.08574063 -0.16743915 -0.05875477 0.05234522 0.104864135 -0.044932235 0.20859866 -0.06782366 -0.107588366 -0.111428075 -0.115253575 -0.2346869 0.11129099 -0.19940166 0.041019503 -0.028651863 0.044950888 -0.06517983 -0.022418886 0.26988876 -0.21709636 -0.07978952 -0.16473652 -0.0342583 0.011526873 0.027603911 -0.23928577 0.035574365 -0.27391404 0.12188486 -0.060136165 0.06774044 -0.1233169 0.053290244 0.010435905 0.11209584 0.11019337
exotic.s.02 -0.14505574 -0.1543745 -0.10886419 -0.1434551 -0.11423422 0.12741138 -0.09817432 0.16214104 -0.0045086266 -0.027567768 0.033953488 0.052344117 0.10045271 -0.1821666 0.24951404 -0.013194236 0.07751969 -0.27276844 0.051904794 0.16428725 -0.025340445 0.0032600262 -0.00596087 0.23398255 -0.089153364 0.11869551 0.13088758 -0.13856585 -0.35073784 0.153376 -0.1075928 0.09226336 0.16554736 0.0037304268 -0.07921541 -0.14135537 0.11368091 0.09119203 -0.02828813 -0.29123884 -0.102005966 0.09161093 -0.017826742 0.011717895 0.105779596 -0.25544903 -0.00903979 -0.0032841624 0.21911307 0.20829894
high.a.01 0.15522484 -0.10886489 -0.17586426 0.078655645 -0.13272016 0.26429045 0.101155646 -0.11146064 0.007705852 0.2690004 -0.1505293 -0.09152323 0.13459624 0.017486516 -0.18547605 -0.0036969366 0.07851315 0.15379284 -0.17712738 0.0032843994 0.08282584 0.09553047 -0.30160806 0.07225263 0.16868913 0.028917406 -0.07790023 -0.15450838 0.10697756 -0.23671935 -0.08077153 0.043561947 0.22780104 0.03825525 -0.08064314 -0.025579758 -0.09251912 -0.21768029 -0.1862836 -0.15248992 0.2819982 -0.042302597 -0.30372402 0.29237488 -0.14519313 0.0040014144 0.10890918 0.053197127 -0.19034395 -0.05175367
social.a.02 0.029686652 -0.19342788 0.3659548 0.07044145 -0.022862846 0.28029668 -0.22369836 0.292075 -0.21943001 -0.2333139 -0.37207723 0.031784613 -0.2037018 -0.008259481 0.30457708 -0.035519328 0.23341706 -0.20590837 -0.18532158 -0.0111233005 -0.18136644 0.04852288 -0.097287305 -0.11352727 -0.32036936 -0.20188297 0.24959932 0.07153106 0.31257918 0.3200421 0.018779242 0.011505857 0.07904503 0.19692652 -0.058263533 0.21007346 0.19740385 -0.20713313 0.09741473 -0.022436054 -0.16927186 -0.28453577 0.2786458 -0.22417785 0.2892213 0.101429015 0.1252596 0.12825136 0.01918061 -0.2628344
easy.a.01 0.07923612 0.015236323 0.156462 0.18713528 0.06780268 -0.013177941 0.24378388 -0.2219164 -0.10522826 0.04895525 0.119702876 0.10888037 0.0629415 -0.15010254 -0.1316312 -0.19306287 0.12056738 0.0086253835 -0.018429516 0.049127497 -0.2575978 0.023146445 0.18079065 -0.12638979 0.2061742 -0.040792223 0.007708636 -0.28729185 -0.23478189 -0.13169722 -0.16136016 -0.21210383 0.13248421 -0.0014763448 0.1980931 -0.122655675 0.008924866 0.044216678 -0.1741314 0.1376227 -0.07934807 0.18629144 0.16469133 -0.31283036 0.27301818 0.13570789 0.03790785 0.06417898 -0.26166025 0.0204699
poor.a.03 0.034743674 0.027875854 0.18044339 -0.1414038 0.003065952 -0.08404123 0.07026738 -0.32654455 -0.28542382 -0.2932335 -0.12924764 0.08043641 0.32973436 -0.056634203 -0.036685187 0.3079863 -0.008115063 -0.20312108 -0.07003003 0.24562378 -0.2245005 -0.1853343 -0.07077215 0.116314225 0.14752923 0.19241177 0.0143062 -0.20441504 0.1353867 0.193268 -0.21057074 -0.09199465 0.33460683 0.24550465 0.078213155 -0.008344792 0.16709025 -0.16498734 0.027754735 -0.05024572 0.1270505 -0.0005147081 0.17514864 -0.25539282 0.3371466 -0.29681247 0.15195806 0.15866274 -0.19221276 -0.24248601
inactive.s.10 -0.22341074 0.08112322 -0.0543658 -0.12750494 0.042431056 -0.111401275 -0.12685196 0.16914797 -0.20162387 -0.10389212 -0.060336165 0.23154616 0.124669075 -0.16839741 0.06351282 -0.033320747 0.27138555 0.1405873 -0.07392525 -0.2445928 -0.1804604 -0.01675582 -0.12415006 -0.13477492 0.009371472 0.31479743 0.062762305 0.19977511 -0.13687456 0.051467746 0.079029895 -0.05218922 0.09586287 0.09000016 0.16482404 -0.2620176 0.09968971 0.17142 0.23004036 -0.14590451 0.11960449 -0.17831363 -0.1275608 -0.05732249 -0.07610024 0.054562904 0.08208528 -0.012181887 -0.03566402 0.25196314
abundant.a.01 -0.035031866 0.07364651 0.21367097 0.066893816 -0.08187581 -0.18071961 0.010124107 0.13626352 -0.20370357 0.1581872 -0.07528797 -0.1564474 0.14849156 -0.1324749 0.0048116897 0.15635675 -0.2698748 0.121211715 0.2623743 -0.11114042 0.025231676 -0.15067777 -0.18060118 -0.019930582 0.01793699 -0.0008387479 0.0011183526 -0.0005578386 -0.033167575 -0.1308315 0.024730014 0.05820619 -0.044288542 0.15584348 0.15963432 0.11775825 -0.18849713 0.10681138 -0.16947357 -0.10954318 0.12708499 -0.027560975 0.043233566 0.15895118 0.052747265 -0.2654382 0.14811023 0.25896055 0.21867062 0.057543147
green.a.03 -0.12870641 -0.090161614 -0.01624123 0.08137959 0.013811388 0.02406623 0.08078774 0.07325342 -0.005346601 0.03711552 0.1922155 -0.035759773 0.21268448 -0.10189426 0.006498854 -0.051174227 -0.029467475 0.06390682 -0.12445972 0.087277174 0.078991264 0.06434672 0.037321683 0.03651715 -0.090806745 0.18143871 0.17948727 -0.03952048 -0.04381446 0.21127547 0.23317978 0.01823249 0.06589322 -0.16752782 0.04041528 0.11032561 -0.1913694 0.16388191 0.116252504 0.15767367 -0.038335405 -0.027351333 0.11965793 0.16186616 0.10726161 -0.07672502 -0.06958883 -0.16978337 0.052933574 -0.016048001
urban.a.01 -0.057665475 -0.26599023 0.026870538 -0.123246 -0.16507936 0.08433423 0.209625 0.13508002 0.0062622023 0.059068754 -0.3155392 0.13618949 0.13164315 0.20536678 0.1861939 -0.15479484 -0.031552244 -0.17734328 0.12591626 0.0390264 0.075248495 -0.21395363 -0.1597504 -0.027169384 -0.16215311 0.036475763 0.055990808 -0.21928303 0.28771013 0.13496669 0.15493788 0.020588951 0.26499453 0.3056265 0.38931465 -0.24693206 0.19027673 -0.117861345 -0.17351651 0.29698017 -0.17293346 -0.094128415 0.07066115 0.02968969 -0.014299405 -0.13403933 0.28516302 0.10154721 -0.039718967 -0.09492966
exact.a.01 0.24606279 -0.114638284 -0.23111647 0.116446406 0.021972958 0.04228902 -0.028689638 -0.035956554 -0.0126627665 0.099678904 -0.23273183 0.06172923 0.26987413 0.30654925 -0.18267626 0.12416668 0.10547151 -0.2660943 -0.055435088 0.0016511511 0.09604125 0.23485386 -0.033726893 0.28039533 0.061128765 -0.11667565 -0.0949462 -0.0072605284 -0.19058105 0.26859835 -0.28131452 -0.26840764 0.037410818 0.3103808 0.19901471 0.12939733 0.058088504 0.11400786 -0.035564475 0.03134939 0.19550471 -0.2462468 -0.25467396 -0.10619099 -0.18874241 0.01547116 -0.037150044 0.21745189 0.117410384 -0.35233054
thirsty.a.02 0.07701763 -0.34397173 0.08695396 -0.00014783893 -0.08519007 -0.14632536 -0.06424308 -0.04669991 -0.114716634 -0.112194985 0.17414004 -0.041998934 0.18082629 0.10269777 -0.1379938 0.038878884 0.03178686 -0.09671721 0.2563249 0.10389989 -0.07949419 0.04420287 0.0044927048 -0.03814948 0.19809516 0.034681033 -0.15302892 0.04346496 0.17807883 0.14429337 0.34115595 0.16342603 -0.12385752 0.0971385 0.16564004 0.21786398 0.11189475 -0.21259268 -0.04864624 -0.11046 0.07963245 0.21234491 0.24742687 0.09940897 0.107832596 -0.17701401 0.05207878 -0.28889737 0.04733808 0.19609714
operational.a.01 -0.04609657 0.12514994 0.16986984 0.077917404 -0.17501527 0.04247669 0.16443032 -0.16742422 -0.118726775 -0.14261238 -0.098339535 -0.014812299 0.002786272 0.017028147 0.19000998 0.080683574 0.005611552 0.11905206 0.13903503 -0.051588915 -0.026598176 0.21621417 0.027894372 -0.21637967 -0.067733645 0.2893574 0.20718123 0.017048268 0.149431 -0.26554823 -0.09187353 -0.0907419 -0.039097466 0.08458003 0.20441829 0.22709645 0.13633123 -0.23157027 -0.208418 0.09852912 0.2952678 0.10490131 -0.39654362 -0.1835925 -0.28939578 -0.04501348 -0.17619786 0.075695604 0.045938578 -0.07102745
vocational.a.01 0.19966705 -0.23071194 0.1916865 -0.16658601 0.12522082 -0.06037361 0.052413687 0.09531991 0.25959945 -0.10462467 -0.059111144 -0.18207489 0.22058775 0.2378667 0.1301678 -0.22636381 0.17294492 0.058106266 -0.05059113 -0.13849825 -0.13809161 0.03816374 0.09544535 0.035046477 -0.058499526 -0.074555695 -0.23229729 -0.212262 0.18799831 0.24956901 -0.018882193 -0.07479728 0.050882977 -0.10514504 0.10770365 0.063514866 0.13344416 -0.16937119 0.003676321 0.053135052 -0.113365576 0.24557394 -0.08856405 0.002075314 0.13259925 0.060334202 0.23678283 -0.11508555 0.033121925 -0.054743208
potential.a.01 0.11093285 0.13087445 0.16635647 0.33785138 0.024723012 -0.0476637 0.09314799 0.12623352 0.23119922 -0.19573691 -0.10196918 -0.00128037 -0.1099264 0.20895989 0.03596271 -0.14379922 0.16280673 0.1265081 0.12679042 0.23501693 0.085360184 0.012408341 0.07914983 0.12942198 -0.18604705 -0.22111988 -0.1618072 -0.21463373 0.09952197 0.16167523 0.012182911 0.1448391 -0.052458707 -0.1025446 0.027756631 -0.12866892 0.01712517 -0.044233374 0.07526036 -0.104422756 0.0067511555 0.109234914 0.077819906 0.2315057 0.13437349 0.10113584 -0.024705471 0.1303931 0.15490678 -0.12760158
personal.a.01 -0.1795628 -0.1300055 0.26665914 -0.25830695 -0.11088646 0.10393184 -0.25212067 0.19554235 -0.10249412 -0.14223926 -0.29023328 0.04301591 -0.111635864 -0.010398965 0.107879594 -0.3818646 0.34708074 -0.25118047 0.04319735 0.22916497 0.26755413 -0.123854384 -0.16064227 -0.07469435 0.018273026 -0.06017209 0.08328781 -0.4416094 0.03193368 0.1707293 0.025159204 -0.30265108 0.065222956 0.26191345 0.18168277 -0.27846357 0.2644082 -0.0113404 -0.2658432 0.22641554 -0.05783375 0.16856581 -0.3398857 0.1079559 0.27242044 0.029724913 0.1055737 0.2637654 -0.14056927 -0.35013333
covetous.s.01 -0.33904433 0.12669651 0.046939645 0.09555687 -0.1238814 0.1280357 -0.20701067 0.01597106 -0.16390558 -0.19407019 0.0058634896 -0.119102366 -0.054660946 -0.14445065 0.10131633 -0.07308287 -0.084691174 -0.20390213 -0.38951248 -0.27199802 -0.101980716 -0.20772372 -0.10942132 0.18282597 0.060873523 0.044416167 -0.14196698 -0.21327403 0.10837169 0.14681551 0.06874495 -0.11572287 0.2229069 -0.020641373 0.021849917 0.08826143 0.11689974 0.041731387 0.091019236 -0.08712031 0.17818059 0.23659135 -0.13201357 -0.0042640823 0.2757629 0.018252505 0.035946112 0.28173727 0.14601034 -0.14205281
rich.a.01 0.21740021 0.16298865 0.088611424 -0.17781265 -0.17299199 -0.28632712 0.31270525 -0.12014426 -0.010677992 -0.018640753 -0.241135 -0.009536527 0.15860142 -0.03261842 0.05789587 0.28104103 0.06264531 -0.121605374 0.09205748 0.20316471 -0.17925327 0.18314779 0.05104613 0.06332235 -0.24893953 0.028409014 -0.32991162 -0.10677757 0.11013435 -0.22984502 0.025838621 -0.21464966 0.17202027 0.038300592 0.25774843 0.06428206 0.18755607 -0.27978945 -0.10106293 0.21309982 0.04776135 -0.12504968 -0.089987755 0.2011567 0.15374835 -0.0037046168 0.029320678 -0.14822425 0.10421827 -0.03461589
first.a.01 0.095219135 0.31344336 -0.17864802 -0.08460107 0.090183854 0.036031954 0.14023107 -0.122508235 -0.105152175 -0.20209993 -0.17409928 0.04648743 -0.011530036 -0.049615014 0.13098598 -0.1519603 0.10541646 0.28226328 0.14509849 -0.123655535 -0.10832785 -0.22371106 0.15691517 0.17021409 0.08292735 -0.069701605 -0.03852708 -0.17033395 -0.16589381 -0.05416165 -0.14887561 -0.21346013 -0.201029 -0.33345723 0.03025184 0.015565118 -0.05781017 -0.034449387 0.022269221 0.13766362 0.079926334 -0.07288312 -0.15096167 0.03284156 -0.08827775 0.045352727 -0.0121415295 0.1813052 0.034419034 0.0021557093
negative.a.04 0.022117259 0.079374306 0.057628784 -0.28912765 0.03518453 0.06723886 0.15933542 -0.19095804 -0.042103015 0.34701344 -0.13947216 -0.26968476 -0.19025065 0.17849237 -0.3335744 0.110462494 0.13088843 -0.09468786 -0.052986205 0.00808206 0.16129231 0.041249096 -0.17471305 -0.22134215 0.035747122 -0.12967388 0.1635704 0.11384934 0.2099473 -0.079297446 0.21058607 -0.15417545 0.035392027 -0.26960346 -0.2981643 -0.31258422 -0.09231641 -0.053313397 0.18147577 -0.059573855 -0.2534209 -0.018081442 -0.23145303 0.02875115 -0.073914945 0.15886079 -0.020746566 -0.075040035 0.054031074 -0.25786686
daily.s.01 -0.007551109 -0.16818365 0.2844026 0.032838166 0.26175833 0.15259843 0.027799664 -0.16147162 0.0628376 0.14198925 0.05475885 0.08721312 0.10041856 0.1196119 -0.085813075 0.32588208 -0.057871174 0.07848514 0.05038187 -0.14310738 -0.04409902 0.13793802 0.020454327 0.12094713 0.07198473 -0.049102407 0.10547686 -0.08171095 -0.008054397 -0.16322075 0.032566804 -0.13009612 -0.16484788 -0.21998663 0.21726733 0.07953844 0.09843511 -0.17193696 -0.06955098 -0.17082061 0.22140585 -0.03474815 -0.10516734 0.2128116 0.17509879 0.09365354 -0.111416325 0.039580286 0.10184662 -0.054778155
adequate.a.01 -0.044330478 0.27230954 -0.09757525 0.0046329256 -0.011158028 0.06365648 0.021127041 -0.07272687 0.02749191 -0.10799728 0.10081469 0.063433655 0.18819182 0.15045747 -0.0039770724 0.22508584 -0.2553569 0.06618404 -0.21953395 0.09388265 0.14415915 0.07626655 -0.07596797 0.025869202 -0.22182554 0.074530885 -0.11709464 -0.0355452 0.1995358 -0.022989228 -0.17847663 0.13267203 0.010383658 0.1037851 -0.048412338 0.2274686 -0.12347018 0.28605503 -0.16565028 -0.08754999 -0.052950434 -0.1311365 -0.13432428 0.07347354 -0.026147848 -0.07145267 -0.02889611 0.17010944 0.11227449 -0.020148069
sweet.a.01 0.10895294 -0.17516868 -0.006088246 0.04463861 0.16534929 0.24904528 -0.040564865 -0.030783914 -0.08592144 0.044499334 0.38255382 -0.010382963 -0.01679737 0.05764015 0.030926729 -0.1254682 -0.025606796 0.20637178 0.1319325 -0.05466833 -0.0051512835 0.052926425 -0.095536485 0.013949592 -0.083263084 0.036237713 0.057978008 0.0060787443 -0.074423544 0.12915972 0.07892928 0.15103456 -0.03269025 -0.31548947 -0.06637842 0.09755697 -0.03951694 -0.061554972 0.025503507 -0.13591391 -0.016161615 -0.08577391 -0.05901691 0.2184067 0.20281693 0.14498788 0.08379287 -0.07068345 0.006600117 -0.083715655
wet.a.01 0.013239239 0.055042926 0.18983908 0.0044462355 0.046651486 0.14667478 -0.19979131 0.14059618 -0.1682364 0.19173786 -0.06710128 0.09790413 0.27874917 -0.28128037 -0.06333225 0.307782 -0.026256692 0.18699828 -0.1564248 -0.14470133 -0.17288646 0.040940072 0.14861934 0.05570543 0.1285884 0.006027713 -0.10707097 0.1302973 -0.21049899 -0.015297022 -0.0668175 0.23344874 0.016128872 -0.20380282 -0.16856009 0.07557138 -0.100594856 -0.24145982 0.05887236 0.1264955 -0.19315912 -0.053489227 0.32799864 0.1704528 0.05544999 -0.096356265 0.13505948 -0.02978644 0.12522863 -0.16630822
discreet.a.01 -0.20056266 -0.06447599 0.07230677 -0.28981617 0.13438664 -0.13464168 -0.14814731 0.14747299 0.2467535 -0.012047486 -0.082148455 -0.041264087 0.058702953 0.12192419 0.02659055 -0.34663242 0.014439996 -0.27487925 0.105438694 0.15035933 0.2296052 0.11243965 0.067468815 -0.051036976 -0.048765693 -0.06543181 0.28367737 -0.2677693 0.02558003 0.04913268 -0.010552701 -0.20439823 -0.119259074 0.2763535 -0.23294102 0.09762684 0.087685175 -0.115792595 0.15246795 -0.20162624 -0.05894571 -0.16805847 -0.057644576 0.22317553 0.317013 -0.21716458 0.10653146 0.06107089 -0.18066077 -0.16456152
qualified.a.01 0.23520333 0.15840003 0.23957546 -0.16964369 -0.05766337 0.010398318 -0.019560896 0.030514326 0.10794965 0.040247872 -0.2670112 -0.15315107 -0.10995141 0.15818833 0.010248505 -0.032613613 -0.09851171 0.25784528 -0.29478338 -0.0760514 0.58161706 -0.011259748 0.1690859 -0.2480869 0.22974627 -0.19987449 -0.02971471 -0.0050946106 0.118565656 -0.040929265 -0.22808987 -0.18620883 -0.07339255 0.3081461 0.101101846 -0.22353226 0.034737308 -0.1474557 -0.019700063 0.33030975 -0.0063928897 0.21351317 -0.19013219 0.08156204 -0.08499679 0.09966168 0.09127077 -0.10944249 -0.016736243 -0.0067241974
unfortunate.a.01 -0.054461934 -0.052163783 0.28014046 -0.14080147 0.14366998 -0.10518647 0.08507508 0.053580943 0.1348312 0.0014494696 0.31320903 -0.092980385 0.15362175 -0.17623886 -0.0746553 -0.25279346 0.20523275 -0.1836644 -0.19595675 0.2535328 0.3992588 0.04725859 0.24529345 -0.16109492 -0.041362703 -0.145149 -0.007983547 0.11011481 -0.050291747 0.2268563 -0.21553333 -0.21580249 0.023033315 0.03218724 -0.003296177 -0.044928852 -0.09283928 0.14535698 -0.037366908 -0.3609097 -0.18734673 -0.050001435 -0.15313065 0.06300713 0.17089032 0.12585011 0.14624465 -0.08567866 -0.18955994 -0.22165877
civic.a.01 0.063720495 0.31002516 0.06030123 -0.060724754 -0.033756737 0.01514434 -0.16237284 0.030408395 0.02880471 -0.13496643 -0.13852715 -0.14732584 0.21324521 -0.28113374 0.09565488 -0.21851616 0.020301852 0.16143359 0.012410591 0.08853002 0.0042216936 -0.22234805 -0.18008585 -0.17969534 -0.042009216 0.03791567 0.124371655 -0.3241746 0.37702245 0.10471705 -0.12311268 -0.08496876 0.14099613 0.055203103 0.20924322 -0.108133934 0.2460541 0.18566366 0.14784333 0.040768243 -0.11355806 0.11392639 0.022692183 -0.010491119 -0.05396253 0.044343926 0.0105804885 0.079833 -0.19183305 -0.26285544
alike.a.01 -0.11915788 -0.14863496 0.012287999 -0.20659491 -0.0585359 -0.14073159 0.18954952 -0.048636332 0.20424077 -0.09973989 -0.08809193 -0.1754624 -0.21829386 -0.16078413 0.08272296 -0.07670381 -0.050315194 -0.13130075 0.13971618 -0.04674473 -0.16115594 -0.12608168 0.22942531 -0.2516312 -0.08784094 -0.24830313 0.0548395 -0.10421102 -0.02097586 0.14837617 -0.29996777 0.06306806 0.07969854 0.12990488 0.17532414 -0.17277247 0.05810467 -0.011113284 0.115846984 0.11426934 0.06452135 -0.028258683 0.035840794 -0.10830204 0.23890053 0.051778924 0.21585187 0.09669938 -0.05560107 0.20142308
effective.a.01 -0.07161518 0.22315286 -0.043449998 -0.05036298 -0.20811413 0.3410404 -0.13741921 -0.27241573 -0.15507434 -0.106784314 -0.24723588 -0.11621336 0.079983875 -0.0008601615 0.097563215 -0.13680251 -0.06737388 -0.15547185 -0.022093445 0.1333785 0.14486988 0.32397583 -0.015422273 0.08508682 -0.119401015 0.1405836 -0.05828418 0.098169506 -0.20618582 0.079609275 -0.1538643 -0.10846307 -0.2394537 0.22979626 0.160887 0.032769088 0.09013237 0.11799057 0.10005856 -0.09760181 0.32282436 -0.008199763 -0.030024711 0.13954197 -0.18789051 0.23393111 -0.083241545 0.1319525 -0.12589693 -0.24018893
autochthonal.s.01 -0.22826225 -0.08040664 0.031127268 -0.093738146 -0.097871 -0.01763458 -0.07215755 0.15265715 -0.11183323 -0.085366234 0.05308316 0.15821226 0.022751207 -0.018890012 0.076261744 -0.23393367 0.2213671 0.009207918 -0.10054135 0.04175221 -0.11056821 0.1786097 -0.08429179 -0.13095285 -0.16286 0.15429725 -0.16352645 0.04747756 0.03194382 0.3556844 -0.005968424 -0.106407456 -0.014932582 0.21637553 -0.108434625 -0.2010996 -0.15686275 -0.066523716 -0.06900992 0.026763568 0.15130678 -0.18131556 -0.09292671 0.19093582 -0.035271157 -0.25820872 -0.19284858 0.04376467 0.20802513 -0.08220597
laic.s.01 -0.04208763 -0.060366414 -0.083306454 -0.060302522 0.029741619 0.10378836 0.06503699 -0.23412478 0.27562153 0.15679532 0.044765983 -0.11356002 -0.06688497 -0.13798568 0.2488438 0.19600566 0.16238624 0.08152534 -0.049646266 -0.009073556 -0.03330349 0.042380307 -0.19009377 -0.18206431 0.12868224 -0.1107212 0.013829212 -0.09401637 0.3261426 0.04619289 0.17359285 -0.19004208 0.15505536 -0.15149762 -0.21125944 -0.019035403 0.08680218 0.079144545 0.23090453 0.014154262 -0.111596435 -0.10595718 -0.28939834 0.0050298027 0.19904366 -0.020203296 -0.181083 0.15798247 0.15634312 0.07099022
firm.s.03 -0.031004367 0.31901106 -0.20557585 0.18932717 -0.39984968 0.14466812 -0.0062116617 -0.4929293 -0.043262873 0.29715326 -0.1298515 0.29686624 -0.15197025 -0.4869082 0.115883745 -0.2900066 -0.10010468 -0.20556587 0.116371416 0.1390723 -0.06017466 -0.06518266 0.2194443 0.016383577 -0.42014676 -0.29647708 0.220989 -0.02231293 -0.11439125 -0.17808568 -0.08505615 -0.22815067 -0.1310215 0.031000657 -0.03897197 -0.11322901 0.33882108 -0.09295274 -0.28431296 0.196043 -0.33184835 0.36211792 -0.22107506 -0.33361286 0.1587055 0.16280337 0.21013132 0.360236 -0.32003623 -0.030647136
weak.a.01 0.11745607 0.12366052 -0.07389955 0.049857758 0.0058100345 0.18347418 0.115449 0.096477896 -0.12865391 0.40911 0.09162491 0.2789643 -0.1242385 -0.05926179 0.21690121 -0.25973323 0.12568104 -0.23796348 -0.08527502 0.18709578 0.1549435 0.15221228 -0.115188144 -0.18184175 -0.2706406 -0.22876172 -0.2527533 0.18561694 0.19593711 0.040616367 -0.078561164 -0.3727325 0.021049554 0.27903673 -0.4145182 -0.08828007 0.09573389 -0.055700358 -0.13776195 0.25497675 -0.03268282 -0.07070155 -0.3412978 -0.22557408 0.038307767 0.15366155 -0.12065526 -0.0064344183 -0.18470421 0.10083068
outdoor.a.01 -0.14730655 0.07701437 0.013853718 -0.30079827 -0.15871306 0.12655298 0.22610047 -0.019905647 0.12103006 0.04067446 0.04464128 0.06996141 0.276637 -0.03440746 0.11014962 -0.195293 -0.2321084 0.12742159 0.24565251 -0.23897497 -0.07316268 -0.09358043 0.014422907 -0.15521693 0.06547022 0.05921277 0.035274524 0.13383076 0.2550061 0.0012319112 -0.046478424 0.029645726 -0.14590578 0.118112914 -0.1613471 -0.15054864 0.056242127 0.07112121 -0.1052185 0.016456652 0.007874947 -0.16076557 0.101491354 0.08295972 -0.05969713 -0.10024872 -0.22035901 -0.22557397 0.059581712 -0.07224527
sad.a.01 -0.09677966 -0.025514955 0.08526106 -0.20418116 -0.103352994 0.06863015 -0.02166391 0.110738486 0.09636964 0.05959103 -0.029986918 0.08699553 -0.13550447 0.13687553 -0.252233 0.09045749 0.19777624 0.025005102 -0.044510473 -0.12758505 0.02930293 -0.09324559 0.037121367 0.34378245 0.08316574 0.0334325 -0.11960569 -0.30738202 -0.10753636 0.13222638 0.1216526 -0.1101111 0.24258289 -0.13694163 -0.24554938 -0.19684447 -0.20488857 -0.12774011 0.17890413 0.051919937 -0.02034691 -0.1812473 -0.14452262 0.006341134 -0.06263337 0.14351375 -0.16045715 -0.013438065 0.064432435 -0.026853755
comprehensive.a.01 -0.1568855 -0.07343506 0.30184847 0.07344458 -0.09676819 -0.1541326 -0.042852506 -0.059680693 0.15931562 0.08424553 0.08723967 0.116908826 -0.20920382 0.093249075 -0.035507765 -0.06991588 0.03897755 0.11620991 -0.10585298 -0.033328325 -0.2593152 0.15295282 -0.093309365 0.10411361 0.16061547 -0.21188949 0.17715344 -0.2647014 -0.09230395 0.18101549 -0.24249989 0.006972868 -0.056626953 -0.15617695 0.12572047 0.13114387 -0.2966807 0.017452821 -0.043862507 -0.09121893 -0.06204906 -0.0047291387 -0.05376726 0.061457157 0.08550847 -0.072565205 -0.09572881 -0.17549631 0.21186426 0.06818599
impressive.a.01 0.14475222 -0.03312977 0.05540887 0.34281474 -0.353377 0.2279504 0.057141125 -0.06827687 -0.2636603 0.30944073 -0.06684144 0.2653668 -0.22363181 -0.20046605 -0.3244245 -0.1769117 0.1209813 0.101654254 -0.20177639 0.18854913 -0.24126768 -0.06124853 -0.061068926 -0.051761266 -0.0829096 -0.17395146 -0.27522185 0.02417076 -0.09883251 0.30558738 0.012395663 -0.31652603 -0.20108628 0.3796044 -0.19598252 -0.1620154 0.068444364 -0.113570735 -0.11495139 0.04215518 -0.14726926 0.311458 -0.28915924 -0.1903161 -0.13877425 0.056002796 -0.016593613 0.20291501 0.2099512 -0.008266574
constitutional.a.02 0.14790402 0.012586052 0.13751325 -0.035084505 0.19401152 -0.080248185 -0.08472946 0.12865683 0.19092704 0.061861992 -0.06632803 0.10838231 0.013152023 -0.21988182 0.33235022 0.02036225 -0.1462592 0.05756113 0.056647718 0.039273817 0.21466297 -0.0908493 -0.0070412764 -0.1644025 -0.1213356 -0.23516719 -0.028316235 -0.10926556 0.15064368 0.18797426 -0.23052171 0.020687934 -0.04918929 0.1708438 0.11265427 0.08154697 0.024586558 0.03655154 0.04196539 -0.04104217 0.20697424 -0.073981 -0.15063082 0.06901646 0.28217152 0.19575202 -0.24318117 -0.09970273 -0.027974894 0.03551221
violent.a.01 -0.12262148 0.045907907 -0.2181577 -0.23793456 0.016286688 -0.07604454 0.12464623 0.12902738 0.19191542 -0.059973907 0.17431206 -0.077289976 0.18324697 -0.17274715 -0.24441619 -0.18003915 0.01315715 -0.10757842 -0.27391857 0.3272274 -0.13398525 -0.078942075 -0.10224506 -0.15672411 -0.11724869 -0.30671895 -0.1840203 0.055421393 0.1578652 -0.039340887 -0.28766698 -0.25023577 0.3298918 -0.21047653 -0.20698762 0.05168925 0.17057815 0.010454907 -0.07238886 -0.016560426 0.1460556 -0.02465463 0.11370398 0.0170224 0.010770297 -0.07764486 -0.21622272 -0.1646957 -0.20916171 -0.058328267
marine.a.01 -0.1040868 -0.03508921 -0.008055444 -0.012009605 0.0032446836 -0.16890565 0.30839074 0.06859698 0.015355977 -0.21650663 0.14497623 -0.036837354 0.29917818 0.26473352 -0.011420895 0.10432666 -0.17698546 0.016818747 -0.019300697 -0.023498742 -0.07403266 -0.20593877 -0.023111213 0.13243717 -0.07002889 -0.03987143 0.058614157 0.10074174 0.07742181 -0.04090099 -0.10355466 -0.1722161 0.17387503 -0.290243 -0.18063074 -0.09544629 -0.17460994 -0.10761026 -0.004301141 -0.03299489 0.029497836 -0.20016748 0.13075234 0.38694367 0.009927666 -0.116836265 -0.08988388 -0.16601232 -0.025542296 0.022629997
junior.a.01 -0.02966469 0.03778892 0.14678575 -0.16487144 0.051653232 0.07172071 0.06504023 0.16417126 0.06609244 -0.061527696 -0.0044195303 -0.0907375 -0.02533447 0.12660973 0.12787925 -0.09087371 -0.108872674 0.047202997 -0.043635868 -0.19930473 0.11370205 -0.30118486 -0.0028559852 0.021197092 0.11266318 0.20413898 0.12980683 -0.25964823 0.16613762 0.13389483 -0.13002062 -0.08630932 0.15926781 -0.25913435 0.24661405 -0.036631837 -0.07586726 0.09175505 0.23057206 0.12039077 0.02249579 0.21168062 0.276382 0.24692973 0.077902846 -0.015232338 -0.08855959 0.101784274 -0.026852017 -0.10121713
loyal.a.01 0.044345994 -0.0036552874 -0.0332094 -0.18745698 0.094104424 -0.07878413 -0.17811559 -0.31788772 0.036037676 -0.13778989 0.117179655 0.2661991 -0.06655623 -0.18182233 -0.0172516 -0.23390706 0.02659204 -0.09919289 -0.26749688 0.19173118 0.0713851 0.11260085 0.0792357 0.33792406 -0.053838305 0.030673161 -0.09848265 -0.09670518 0.015451103 0.15356044 0.17447922 -0.06414949 0.2325236 0.15056325 0.22159655 -0.16720647 0.020858796 -0.2617455 -0.025949804 -0.0741895 0.13975212 -0.025247386 0.06331019 0.23551196 0.20016842 0.07426361 0.097517155 0.014392677 0.048234254 0.060694683
ashamed.a.01 -0.094133265 0.085956454 -0.24321465 -0.16578142 0.04252687 -0.040471543 -0.08449386 -0.2717831 -0.06957247 0.06359966 -0.07757887 0.057416923 0.15898654 -0.23578194 -0.08425414 -0.00793779 0.209963 0.05557892 -0.23430035 0.22542484 0.14438966 -0.16450542 0.07699859 -0.27512947 -0.28547907 0.24639152 -0.18474068 -0.09316915 0.16585657 0.32183945 0.019803777 -0.26695663 0.226487 -0.19835134 -0.19081365 -0.14823046 -0.007947349 -0.007315204 0.06477497 -0.19299325 -0.03709011 -0.06904127 -0.09034567 -0.09099619 0.17927542 -0.24303745 0.021942487 0.21010497 -0.21881577 -0.085763596
cooperative.a.02 -0.009049124 -0.031651735 -0.038190845 0.14766186 0.119717665 -0.0015233618 0.06936723 -0.24134588 -0.0720669 -0.24061596 -0.1968572 -0.29884622 0.30613557 0.08819057 0.19073175 -0.05508774 0.037628297 0.0847518 0.06368557 0.18312299 -0.08406948 0.19823712 -0.07843674 0.027225915 0.12949046 -0.22133483 0.027573088 -0.1008433 -0.10826286 -0.08249148 -0.2097536 -0.23798549 0.011851543 0.073121205 0.20656933 0.10021973 0.17984153 0.24170996 -0.22050396 -0.0983983 -0.10290074 -0.09370314 0.14236915 -0.007555849 -0.025857305 0.0775986 -0.20979768 -0.017718082 -0.18714522 0.18740125
harmful.a.01 -0.23492156 -0.06363763 0.07188392 0.15972254 -0.17745812 0.07061771 0.03594255 0.016073842 -0.11420731 0.35167933 0.074849285 0.10777232 0.051682066 0.02742739 -0.35680902 0.18414134 0.16634512 -0.07712068 -0.12178316 0.1447564 -0.13688746 0.13887407 0.16246691 -0.21955578 -0.30856526 -0.2107848 -0.2502972 0.1662688 -0.12771389 -0.10289259 -0.06227599 -0.20852342 -0.09022517 -0.04610824 -0.15241009 -0.2528352 0.21098603 -0.17692992 0.015758224 0.22791997 -0.020698931 -0.33274776 0.13065605 0.11940872 -0.24092934 -0.07825604 0.14739071 -0.11770119 -0.08557131 -0.22925693
political.a.01 0.24675879 0.1652024 0.2317115 -0.18037233 0.039034408 -0.0999583 0.2889936 -0.0886661 -0.111254446 -0.25555536 -0.12437651 -0.16453095 -0.029735923 0.15354484 -0.2531969 0.077279724 0.28611895 -0.10763889 -0.037692714 0.104518734 -0.06164937 0.15572256 -0.29182228 -0.033931103 -0.10530115 -0.03348235 0.081698895 0.07554289 0.12037579 -0.11631796 -0.27971172 -0.1528135 -0.019661957 0.04544519 0.0891379 -0.116398424 0.011396487 0.24017401 0.20430271 -0.15835764 0.17249471 0.13255647 -0.3862762 0.23241371 -0.124098994 0.077879034 -0.10422224 -0.040629853 -0.046532404 -0.32209083
appropriate.a.01 0.12832505 -0.08966013 0.03366649 -0.046738844 -0.13104723 -0.08370613 -0.0763055 0.22600824 -0.18550454 -0.22845209 -0.17422713 -0.16479728 -0.19308037 0.07807653 0.14081699 0.09319184 0.2244734 -0.12639464 -0.13383436 0.048773218 0.021057643 0.31416243 -0.11186013 0.0503486 -0.0011266769 -0.08792399 0.31644374 -0.2905215 -0.12905337 0.288972 0.083825134 0.008928044 -0.022864172 -0.08636586 -0.2255134 0.06255754 0.08809986 0.2194971 0.099098936 -0.096966594 -0.1533644 -0.04055985 -0.20018248 -0.000795896 0.07249514 -0.2521242 0.13751847 -0.049154263 -0.031905785 -0.20859604
even.a.03 -0.054097872 0.111786366 -0.05556215 0.147133 -0.06592691 0.08567154 0.08042035 -0.16077997 -0.21890035 0.23237856 -0.063853785 0.22456798 0.14347221 -0.05053036 -0.020672707 0.23374493 0.2677131 0.098282866 0.08846456 -0.036884125 -0.023623731 -0.38812494 -0.12749003 0.18514273 0.11729723 0.21446723 -0.15919401 0.10821308 -0.15100795 -0.19325978 -0.015562429 0.14923096 0.014350968 -0.17922819 -0.064410165 0.075419694 0.17435338 0.05289834 -0.07098258 0.07080249 0.0019454262 0.06748854 -0.09173994 -0.045195956 -0.24617252 -0.17773585 -0.05505765 -0.15103321 -0.016790826 0.055944625
vacant.s.01 -0.12624814 -0.14635865 -0.14235961 -0.21124737 0.07096075 0.008102052 0.047372606 0.06559456 0.026045797 0.15119533 0.120339766 0.04864355 -0.053940356 -0.06902397 -0.25720584 -0.021001536 -0.08193769 0.07221026 -0.17675 -0.10124436 -0.036162928 -0.033372905 0.06559534 -0.06824388 0.108553275 0.11295464 -0.03480514 -0.16253433 0.08164973 0.118823074 0.017224053 0.09752622 -0.10484589 -0.08896556 0.008772087 0.065276965 -0.040615834 -0.016724657 0.037563406 0.061896175 0.106752664 -0.1855162 0.12431773 -0.025250632 0.18081228 0.04538378 0.03787785 -0.2287677 0.1150376 0.23177847
muggy.s.01 -0.1136177 -0.069250315 0.18730308 -0.09589014 0.2491329 0.1845041 0.079835035 -0.13804653 0.109129764 0.044874508 0.24383244 0.028719818 0.09458647 0.10325378 0.042053044 0.084425874 -0.2463797 0.13905852 0.03919948 0.025328137 0.0359255 0.15079242 0.0323076 0.09265892 0.16175993 0.104468346 0.10330288 -0.14314175 -0.032083124 0.06355592 0.007835771 0.17140116 0.13392693 -0.24897055 0.12196514 0.00046106236 -0.1835645 -0.034789458 0.08338677 0.22910607 -0.038203515 -0.11073067 0.052230783 0.12827761 0.023306064 -0.061864413 -0.18235098 -0.07948903 -0.079121344 0.040490955
complimentary.s.02 -0.0020024902 0.013837682 -0.0105079925 0.10148636 0.08634069 -0.25784817 0.12251036 -0.043041382 -0.098796114 0.1410465 0.11299465 -0.23073016 0.06796568 0.060128525 0.084366456 -0.15305427 0.061503056 0.18377605 -0.25212955 -0.0071566976 0.15055612 0.2134364 -0.11202144 -0.035819918 0.059917502 0.068900764 -0.23318426 -0.04019699 -0.042638775 0.1265378 0.063223585 -0.15219066 0.10443462 0.12767683 -0.058769777 0.13717358 0.0310658 -0.06725618 -0.07699018 -0.43974444 0.016499398 0.056300834 -0.18234128 -0.026210321 0.17781803 0.14351112 -0.123979725 0.050660446 0.06249325 0.15533072
critical.s.04 0.17362174 0.0013956298 -0.19861878 -0.09598386 0.16656114 -0.10832082 0.17875862 -0.098037824 -0.12551415 -0.29844028 0.14951998 0.07441985 0.09184445 0.30304012 0.31752414 0.12537104 0.055244274 -0.05286131 -0.13571328 0.13485003 -0.09205429 -0.27898845 -0.2613997 0.17967372 0.24673618 0.2141123 0.06324068 -0.14384319 0.089072324 0.13329598 -0.07805107 -0.09702189 0.06203286 0.23999944 0.21365985 -0.11959312 0.12339774 -0.079541154 0.09259045 -0.13395551 0.023435518 -0.13645053 -0.18769012 -0.30366546 0.16996385 -0.19515494 0.08683098 0.21375051 -0.1278299 -0.22177397
ordinary.a.01 0.13581493 0.001691826 0.3415746 -0.2518414 -0.08689767 0.1356137 0.19982423 0.37121123 0.1645895 -0.08178745 -0.19918407 -0.019715916 -0.2121981 0.115104236 -0.05001684 0.10188957 0.2093217 -0.21468543 0.18477248 0.15264682 -0.1254457 -0.07154227 0.14507419 -0.004502324 0.27644098 0.12866317 0.115859196 0.07176792 -0.08065559 0.113904715 -0.08232598 -0.10221328 -0.11824484 0.20073944 0.09888214 -0.34069753 -0.054629378 0.08331822 0.050396413 -0.031785864 -0.082369655 0.09889056 -0.13778907 0.079647385 0.16978042 -0.2517132 -0.22830926 0.24747765 0.1282245 -0.16977173
empty.a.01 0.052299205 -0.11948996 -0.11166611 -0.033334076 -0.2039902 0.053978465 -0.055603683 -0.2283317 0.09001398 0.06317088 -0.19244553 0.14901981 -0.14514005 0.027881801 -0.032792076 -0.1309807 -0.18849589 0.028380029 0.010432097 -0.0373327 -0.15790954 0.15021381 -0.009167669 0.11287744 -0.25630054 0.24431889 0.18151724 0.10546165 -0.07313188 0.14138485 -0.081287935 0.1408638 0.0875255 0.012166036 -0.01016762 0.0037834165 0.0633693 0.11151466 0.29646757 -0.23195678 0.15513696 -0.24037409 0.20130485 0.17195863 -0.08933503 -0.028369574 0.024942404 0.010009824 -0.087835036 0.07949421
well.a.01 -0.12612079 0.031550348 0.11459351 0.23075768 -0.14358868 -0.1304461 0.13130079 0.103051536 -0.06498519 0.1249053 -0.01451525 0.1456287 -0.06647312 0.08867608 -0.37788078 -0.23384114 0.11706219 -0.0475375 0.094572864 -0.23738325 0.12174523 -0.0049590035 0.08528133 -0.10912588 0.21358457 0.041592002 -0.050629526 -0.21895826 0.073770635 0.03877544 0.095687255 -0.15882038 -0.074393936 -0.09762214 -0.11950765 -0.25074837 -0.31351724 0.07743434 -0.1130613 0.19614993 0.05880196 0.023687763 -0.039549645 0.10919866 -0.108226 0.17424795 0.10849304 0.19615182 0.003334083 -0.14493968
invisible.a.01 -0.017728107 -0.09055864 0.27030793 0.1326255 0.07731583 0.10889092 -0.14394483 0.07345886 0.29384363 -0.077352 -0.08849042 -0.024379794 0.07416512 0.14370343 -0.122164994 -0.08087321 0.032221116 -0.089216314 -0.044890985 0.20034115 0.1809193 -0.04407326 0.028563712 0.08170855 -0.11595046 -0.03964328 0.03474983 -0.07086912 0.17038164 0.09399672 -0.063937604 -0.022459067 0.07009464 -0.12270153 0.027861264 -0.09689321 -0.110710554 0.060581304 0.069456354 -0.12811257 -0.08787601 0.020999456 -0.1429495 0.10918031 -0.2380011 -0.022260487 -0.09562876 0.14864518 -0.030174464 0.36871824
decisive.a.01 -0.052483875 0.22236429 -0.124363326 -0.15330604 -0.24195246 -0.004955121 -0.17936327 0.20962325 0.0143293785 -0.22544956 -0.28233042 -0.034070835 -0.057834413 0.083868645 0.25736573 0.13611178 -0.081481636 -0.17025335 0.039094247 0.2640997 0.15096487 0.037888344 -0.092338845 -0.09071622 -0.12129497 -0.02459488 0.19750573 -0.1270024 -0.14006141 0.28902298 -0.14288601 -0.27248156 -0.2937225 0.061730582 0.09347901 0.02331747 0.08563875 -0.02743407 -0.0352121 -0.09697162 -0.03522305 0.008514032 -0.27375522 -0.003277553 -0.0604261 0.016218873 0.08456376 0.13561556 -0.15841286 -0.15413474
major.a.02 0.13743313 0.093706876 0.11732202 0.08785028 -0.10998721 -0.12990305 -0.16235183 -0.031150004 -0.16059722 0.059239298 -0.1287756 -0.08942246 -0.15401931 0.00071438006 0.024318224 -0.35287094 -0.19950695 0.056928422 -0.3126955 -0.14401345 -0.15530653 0.16431169 -0.2417583 -0.081636176 -0.1602917 0.1873553 -0.25445879 0.04216874 0.10402182 -0.035268825 -0.2783411 -0.103329115 -0.0530817 0.21573961 0.17465681 0.06529372 -0.069219396 -0.05393555 0.044713404 -0.19510718 0.051080275 0.16826731 -0.21528426 0.030070042 -0.116906 0.21821402 -0.12393149 0.06076606 -0.0027360024 0.07027035
warm.a.02 0.07468455 -0.05567242 -0.18253209 0.048786562 -0.22855712 0.11211706 0.042471215 -0.021944508 -0.13948376 -0.091507316 -0.1119718 -0.18250261 0.24894266 -0.113043346 -0.1929018 -0.17766754 0.00021946031 -0.08124714 -0.02006 -0.11553931 -0.22433603 -0.21828447 -0.07144172 -0.09768449 -0.16732931 -0.19803524 -0.26621044 -0.21952887 0.06914024 0.037778992 0.14167187 0.14299399 0.023016216 -0.062256403 -0.12670372 -0.049117673 -0.07404279 -0.21648732 -0.002989567 -0.15792549 0.060292028 -0.11887332 -0.20254791 -0.02548981 0.0017265141 0.23642804 -0.17947711 0.09451717 -0.15796693 -0.030878855
cultural.a.01 -0.09223301 -0.08287344 0.10966464 -0.14639403 0.33502203 -0.012961426 -0.01922809 0.10049101 -0.1411606 -0.1259769 0.049885966 -0.05774018 0.18226638 -0.09200997 -0.3194628 -0.06750274 0.0483586 0.078751005 0.09584903 -0.15775312 -0.105597675 -0.072204925 0.063102454 -0.17617115 0.23689705 -0.0822007 0.120153844 -0.18685266 0.016803134 0.08374657 -0.16462241 -0.18324341 0.006053456 0.14481694 0.15197496 -0.1273759 0.037300464 -0.0998069 -0.02538829 0.1457494 0.02498523 -0.0711307 0.13128197 0.12713265 -0.058929574 0.1369252 0.22618017 0.02515231 -0.20386396 -0.03797955
liberal.a.03 0.09672133 0.19300245 0.038901377 0.07635244 0.20129824 0.03752729 -0.2472247 0.023880202 0.075661525 -0.15456675 -0.094638914 -0.14155906 0.3717814 -0.058920864 0.24710324 -0.10287904 -0.058314525 0.1250256 -0.13965465 -0.023674577 0.013585402 -0.09855041 -0.11466782 -0.15651365 0.09343116 0.14714882 0.21901445 -0.4171358 0.10789637 0.07891299 -0.07566531 0.015313091 -0.013298753 0.12380824 0.0053518005 0.14626639 0.06335595 0.10347885 -0.049577553 -0.04699109 0.20862332 -0.19631068 0.01938454 0.03284504 0.11474334 -0.24274369 -0.044374507 -0.016502244 -0.24169476 -0.17128631
proud.a.01 0.15665707 0.11723948 -0.14946619 -0.1707661 -0.088344835 -0.10319038 0.20584887 0.07582419 -0.087646864 0.21260884 -0.16880566 -0.24985664 0.12239645 0.0035730978 -0.12963577 -0.12481214 -0.1955772 -0.28368533 -0.033773497 0.10249211 -0.29729408 -0.036463305 0.06680357 -0.0038056176 -0.19589299 -0.17875247 0.1329255 -0.026628762 0.12377425 0.13965248 0.03473965 -0.16082731 -0.098218836 0.15005536 -0.33598077 -0.07053757 0.15648125 0.090889014 -0.12092634 -0.26219437 0.15386933 0.22601557 -0.22744928 0.1250745 0.27199852 0.0053346083 -0.37636673 0.12955445 -0.012271592 -0.1272251
accurate.a.01 0.35817444 -0.040280264 -0.17726232 -0.10169343 -0.05430896 0.036562085 0.04442059 0.1376704 0.042722747 0.07500211 -0.09438308 -0.015464995 -0.11842657 0.11035817 0.1754351 -0.12525894 -0.18878521 -0.10710265 -0.082259856 0.25751513 0.3020987 -0.088552795 0.16314039 -0.057821847 -0.27022555 -0.35666734 -0.13392301 -0.19690764 0.13906348 0.044693667 -0.16613339 -0.13765994 0.045604795 0.20182863 -0.19363467 -0.041664276 -0.088276476 -0.13621227 -0.153122 -0.09306699 -0.1430335 0.32612208 -0.17265104 -0.29882327 -0.07458639 0.18916178 0.25731885 0.15641981 0.23544525 -0.21447141
controversial.a.01 0.20124042 -0.07359056 -0.24902038 -0.15014946 -0.019150529 0.026531486 0.056234036 0.1994455 0.22928444 0.04358664 -0.15882598 0.106621 -0.24774005 0.03419219 -0.08809886 -0.102765046 0.19805922 -0.016078018 -0.090043955 0.023553155 -0.05939057 -0.056562886 -0.017247625 -0.24200965 -0.1916001 -0.18925132 -0.18688647 0.072095424 0.21979536 -0.14565893 -0.30573493 -0.16576044 0.08482111 0.00066212117 -0.16601211 -0.06257498 0.13497762 0.1366947 -0.04947211 -0.10171645 -0.031051347 0.2751802 -0.3575652 -0.20870842 0.11543351 -0.011682825 -0.3181908 -0.07994086 0.120176606 0.00035090873
abstract.a.01 0.0015589197 -0.006153708 -0.05724501 -0.24344288 0.18996269 0.16698964 0.058273137 0.081914626 0.08868271 0.19020757 0.22950068 0.07155857 -0.11494617 0.052983496 -0.05368532 0.013190877 0.13062097 0.0026112369 0.1025078 -0.1419532 -0.096055195 -0.004670527 0.17245078 -0.060343716 0.10440149 -0.03756208 0.07612631 -0.059244756 -0.0162178 0.08845041 -0.16782343 0.014249309 -0.042308938 -0.024529522 0.09775207 0.013498104 -0.094196774 0.12665534 0.33650175 -0.03972146 -0.13867252 -0.010097602 0.041593906 -0.19809158 -0.21498899 0.14780694 -0.2127445 0.004097157 0.1994505 -0.028549567
constructive.a.01 0.045608725 0.22164598 0.29307422 -0.118204914 0.28247544 -0.1372411 -0.21269733 -0.1811738 0.24697003 0.219498 -0.16992284 -0.11137562 -0.1660389 -0.13235924 0.19638255 -0.11250892 -0.012945425 -0.09042151 0.030459013 0.0106877955 0.12400384 0.001096563 -0.1753367 -0.0627098 0.08312346 -0.21996288 -0.12614857 0.027715351 0.30889565 0.26107392 0.14206411 0.0153376395 -0.0039493917 -0.27411208 -0.12990355 -0.01227263 0.10136481 -0.15792641 -0.092308745 -0.22284678 -0.0013725775 0.09107544 0.0023202335 -0.015321004 0.11311819 0.10510832 0.14954782 0.14266925 0.048571568 0.024559513
well-defined.a.02 -0.031570967 0.24204886 -0.08184093 0.3276193 0.124361835 0.1303488 -0.21990313 -0.045996368 -0.0065991953 0.20321843 0.05572357 -0.1778166 -0.28868946 0.0654074 0.10947887 0.043710068 -0.09678775 -0.24713461 -0.13216206 0.14024875 0.12836505 0.35051796 0.0389112 0.10319615 -0.026073497 0.23693526 -0.2100895 -0.1952826 -0.15703279 -0.034575835 -0.12446312 -0.06698885 -0.15985033 0.16474546 -0.107132785 0.14221258 0.09187097 0.19176437 -0.15298234 -0.030670613 0.196064 -0.022936355 -0.14663525 -0.2860149 -0.14913869 0.39263365 0.0021180378 0.13550806 0.07187391 -0.31127635
alone.s.04 0.09941216 0.09006745 0.15331951 -0.029196389 0.050211325 0.12591575 -0.013596242 0.29803243 -0.09654458 0.24326377 -0.18184131 0.020326188 0.09381426 0.12480634 0.17429642 0.046799224 -0.12253708 -0.22215964 -0.037671898 -0.06461625 0.06138775 -0.0023251453 0.15297754 -0.12518954 0.12073277 -0.17029575 -0.010370129 0.0053476505 0.17468435 0.34534743 -0.004774774 -0.017155634 -0.25581372 0.15943916 -0.06691437 0.105996184 0.12871756 0.2120891 -0.103152774 0.1009164 -0.1601117 0.10471397 -0.01996558 -0.0325062 -0.21978581 -0.22793086 -0.03713734 0.14951624 0.3794344 -0.1346596
official.a.01 0.2694892 0.35599867 0.18842332 -0.084117666 -0.21220379 -0.26872665 0.06503647 0.055882316 0.121731065 -0.12166263 -0.2713665 -0.09938014 0.21744727 -0.12950003 0.13105614 -0.21919854 -0.35748976 0.0026579532 -0.04319605 0.1393419 -0.3025131 -0.17481682 -0.2083893 -0.36754504 -0.12379293 -0.33588064 0.30429918 -0.10915392 0.2874609 0.0012803092 -0.20256156 -0.21102436 0.067002505 0.24320076 0.14702968 0.04378547 0.27675292 -0.11564345 -0.22704913 -0.12737203 -0.1643738 0.22509558 0.06817798 -0.045239713 -0.1489097 -0.2976112 0.16386078 -0.13182776 -0.1971755 -0.2877967
rough.a.01 -0.14164355 0.27119166 -0.19118963 0.00106868 -0.25190443 0.15884966 0.10604905 -0.25674948 0.07339014 0.03794158 -0.19888382 0.14612116 -0.10291953 -0.03664882 -0.26917318 0.07605502 -0.23959859 -0.18175147 -0.3610315 -0.0832324 0.013401315 0.19303776 -0.1348808 -0.12940846 0.044564568 0.23253024 -0.08804994 0.15261212 -0.064160116 -0.011036317 0.00094586523 0.04744312 -0.07731182 -0.0072098626 -0.11920428 -0.039917268 0.13047475 -0.04739975 0.031529956 0.08105692 0.12681198 0.19848645 0.2084584 0.12096752 0.11275675 -0.11127048 0.1922325 -0.099753976 -0.11210291 0.34378517
weekly.s.01 0.1451499 -0.08384905 -0.052092895 0.027297573 0.24742518 -0.043937553 0.04297856 0.09666537 0.08773538 -0.0027020536 0.23339295 -0.17610142 0.15352972 -0.106109284 0.09774004 -0.05066282 0.076169446 -0.037465 0.11261123 0.08716218 -0.09507319 -0.16556202 0.21192981 0.15789758 0.018081037 -0.15242347 0.0035898292 -0.2899934 0.21070379 -0.034928095 -0.03788778 0.08870504 0.069200344 0.03682008 0.21605782 -0.12475707 -0.37218815 0.21757902 -0.038905315 -0.06013795 0.14512801 -0.18516915 0.12865411 0.15364295 0.04166166 0.025401393 -0.1420991 -0.2295487 0.02875241 -0.032427
continental.a.03 -0.09835359 0.20055783 -0.10440478 0.021443967 0.26459813 0.1260222 -0.07318906 0.032404434 -0.016303303 -0.04393352 0.10827019 -0.1474563 0.060517423 -0.16111669 -0.024873355 -0.052313723 0.0018071941 0.12202174 0.06785786 0.03466987 0.007042473 0.041048408 0.063781574 0.03980843 -0.045331188 0.15158607 -0.103250846 -0.04799734 0.107865855 -0.07641326 -0.03662443 0.24646598 0.042046938 -0.110436685 -0.19511984 0.09414226 -0.20626728 -0.03986422 -0.017914414 0.026173959 0.329895 -0.23677325 0.030299531 0.06591826 -0.107700795 -0.30926505 -0.019984888 0.038299 0.14928487 0.09135382
dynamic.a.01 -0.035469607 -0.021480914 -0.00631878 -0.010614756 0.18276212 0.06509761 0.20306368 -0.12397103 0.0014882917 0.04338949 0.0496444 0.031903293 0.0776772 -0.011951487 -0.26967767 0.22805762 0.19406794 0.06830735 0.067108065 -0.2358997 -0.03591454 -0.12650514 0.09103567 -0.13439958 0.050422046 -0.13128687 0.002604573 0.006059965 -0.038520716 0.22568066 -0.111208506 -0.0071597504 -0.15253723 -0.031089371 -0.018559126 -0.06846913 0.08243895 0.012856882 0.08621008 -0.19510946 0.049782895 0.04178793 -0.18006082 0.0671087 -0.17891192 0.09403634 0.14617947 -0.03684607 -0.015958061 0.092366606
artistic.a.01 0.21004549 0.22289611 0.1463539 0.12949339 -0.13940445 0.14042978 0.09792409 0.22080196 0.06679163 -0.21390776 0.19296424 -0.10567159 0.140564 0.08248883 -0.11452872 0.013993507 0.082236715 0.1360055 9.9634635e-06 0.046986204 -0.18641229 -0.12912284 -0.021025632 -0.0137275765 0.107127264 -0.24549583 -0.21766667 -0.12360333 -0.21731691 -0.1691477 0.08097505 -0.17425641 -0.28995067 -0.06788723 -0.040369418 -0.046764262 -0.045503803 0.14871335 -0.19728398 -0.032648157 -0.21828088 0.084333226 -0.029668208 -0.02945033 -0.19657618 0.1633509 0.042683974 0.0837686 -0.045701195 0.17335847
acrimonious.s.01 -0.22335617 0.16168389 -0.1591066 -0.1677422 0.025145888 0.20342942 -0.07991843 0.013482443 0.046659395 -0.022131763 0.107916005 -0.14093044 -0.08366016 -0.23080948 -0.19752672 -0.17577411 0.07265508 0.013802955 0.0019506693 0.004818501 -0.08725379 -0.092900254 -0.063595995 0.09668451 0.07076108 -0.27166322 -0.16100538 -0.05772362 0.21576092 -0.0009894952 -0.07011053 0.036882278 -0.017923886 -0.415203 0.089868315 -0.07183104 0.084895775 0.20970437 -0.096571274 -0.07272545 0.07521308 -0.032312397 0.09399734 -0.02585688 0.33199778 0.095022134 -0.045950294 -0.076133884 -0.12358427 0.009333091
uncomfortable.a.01 -0.13054572 0.2936498 0.009655575 0.2963155 -0.07954934 0.26643178 -0.27833524 -0.10585845 0.012475542 0.20630978 -0.24845862 -0.029760124 0.09391028 0.047454845 -0.24912864 0.061560158 0.11397743 -0.2922508 -0.03418793 -0.026990227 -0.038115658 -0.0018605888 -0.2605682 -0.25138393 -0.19817801 0.09148581 -0.14854242 -0.11552606 0.046743296 0.09528137 -0.12313071 -0.1177023 0.24662077 -0.12565401 -0.10228237 0.16558535 0.19659035 0.07823144 -0.036117297 0.15372235 0.02264576 0.2637548 0.19833049 -0.12987117 0.15014648 0.020483168 -0.30227754 0.087352216 -0.19759028 0.2045511
gradual.a.01 -0.07454012 -0.056361597 -0.12636828 0.14518921 -0.17205842 -0.08145729 0.014884087 0.01577267 -0.11304137 0.15480292 0.07753916 0.30425683 0.18841459 0.05746393 0.03503911 0.20249607 -0.026389783 -0.06774808 -0.029380862 -0.0955609 0.29312998 -0.033885535 0.12098384 -0.08748558 0.24719116 0.15065666 -0.013536301 -0.1461257 0.046872154 -0.13960233 -0.017065 0.24830455 -0.07267556 0.0564861 0.26627666 -0.22813192 0.0059368894 -0.078435235 0.03006582 -0.2370927 -0.3420643 0.12984733 -0.0734472 -0.16943544 0.09982575 0.11513192 0.02011633 0.17434718 -0.06797852 0.097634636
assertive.a.01 0.09257165 0.032739755 -0.19701931 -0.22869354 -0.041576248 0.008967304 -0.16846792 -0.06584044 -0.08784896 -0.07360121 -0.014381234 -0.15085971 0.025483722 -0.033327807 0.111436896 -0.1575699 0.3157215 0.05723854 -0.16649786 0.090694904 -0.151566 0.10891814 -0.10726243 -0.045558304 -0.20758817 0.025147365 0.21795008 0.16514634 0.21712641 0.19669905 -0.16101322 -0.36519966 -0.016692828 -0.00010970753 -0.17009415 0.16773073 0.25004423 0.046564706 -0.15842004 -0.33981925 0.107882895 0.05323404 -0.03555553 0.07428233 -0.062305164 -0.05727469 -0.17074093 0.044462204 0.28896594 -0.11579824
free.a.01 0.11168332 0.23233731 0.2958909 0.24512112 -0.09370524 -0.28755963 0.12929168 0.09639965 0.1949058 0.20114993 -0.19502905 0.061166268 0.04815847 -0.16440924 0.23543355 -0.0692639 -0.11308121 -0.19099845 0.0427138 0.19201429 0.27256557 -0.15337181 -0.038117133 -0.23332763 -0.111249365 -0.022967497 0.09095937 0.06964968 -0.15893061 0.11224027 0.06414601 -0.1677471 -0.25736246 0.16292323 0.16490792 -0.09648553 0.33381578 -0.15402316 0.2643611 -0.2006391 0.12213747 0.25335434 -0.10238067 0.05680811 0.11610181 0.135572 -0.25336373 0.2650674 -0.25729957 0.17858584
incapable.s.04 -0.20568837 -0.10711251 -0.054988384 -0.020369325 0.049307995 -0.063903295 0.07901076 -0.043915212 0.05620326 -0.2840736 -0.089374684 -0.13547575 0.10551551 0.0034508996 -0.14949648 0.07241238 0.030323315 0.019097546 0.24194282 0.18079293 -0.18801542 -0.015144243 0.13422583 0.052686177 -0.031971566 0.040006015 -0.04684185 -0.011014939 0.17428763 0.21843587 0.16427067 -0.14314327 0.12195909 -0.12009471 0.110567026 -0.012497548 -0.107961684 0.1591619 0.026628232 0.067540325 0.08349509 -0.0998451 0.07063581 0.18768622 0.14377202 -0.1539362 0.03212266 -0.1436524 -0.00572067 0.23799646
obvious.a.01 0.010665779 0.010468409 0.053773537 0.24480279 0.20888422 0.16637523 -0.08650141 -0.19886053 0.058225174 0.0738575 0.12330433 0.15734361 -0.07153808 0.03307634 0.08799169 -0.07986356 -0.055938516 -0.15289345 0.16640233 0.185104 -0.073903695 0.0366054 0.0790822 0.15529497 -0.21847267 -0.055864226 0.059007846 -0.34280637 -0.1088591 0.0004927946 -0.1878519 -0.11038241 -0.0033444632 -0.0691393 0.11896615 -0.15307784 -0.30282193 0.28162467 -0.016650513 -0.1845129 -0.13432555 0.083745435 0.17173727 -0.09411894 0.16385666 -0.005102657 -0.05300362 -0.056970503 -0.1071047 -0.12884086
religious.a.02 -0.05799626 0.18100666 0.108870976 0.022340482 0.2118486 -0.15106973 -0.17637333 0.1847954 0.19580993 -0.036278073 0.055199977 0.15139173 0.27064997 0.10995415 0.14490637 -0.13626322 0.037709985 0.14368947 -0.12437928 0.12489549 0.076159865 -0.011325199 -0.10878122 -0.30182263 -0.065986544 -0.18208839 -0.030533116 -0.370144 0.14367433 0.1933573 -0.21128206 -0.30467877 -0.11964937 0.15772818 -0.06374861 -0.117912635 0.18595259 0.011785258 -0.11389913 0.0014503384 0.07606988 0.11877805 -0.050640944 -0.16728199 0.15118988 0.093354665 -0.21172638 0.1019244 0.0028628465 -0.18252072
busy.a.01 -0.12739536 0.048071742 -0.012317045 -0.051002134 0.037264753 -0.15499938 0.02844151 -0.10495546 0.07327497 -0.15011151 -0.2016969 -0.047057025 -0.25136468 0.21666846 -0.24381329 -0.264982 -0.06624524 0.016508669 -0.4055572 0.04930791 -0.16561587 -0.07919421 -0.027966425 0.049529746 -0.04696911 0.078061365 -0.0028702095 0.14807267 -0.050236315 0.15212262 0.14242692 -0.110198446 0.02868574 -0.031570457 -0.026765363 -0.04532189 -0.1805007 -0.035723187 0.14899795 0.012010823 -0.06596059 -0.057745963 -0.19545715 -0.08217041 0.008739556 0.10308045 0.036829162 -0.13193129 0.04055985 0.2331213
residential.a.02 0.016866412 -0.008447478 0.11499205 0.07353915 0.0873263 0.029618798 -0.21139891 0.095465235 -0.06844913 -0.15532982 0.12800854 -0.13308325 0.032602593 0.2222808 0.08816812 0.062513515 -0.16427968 -0.13575596 0.14141119 0.08638717 -0.26995924 -0.18982565 0.020056795 0.18722191 -0.08839845 0.14254399 0.21002395 0.14023487 0.14960375 0.16563317 0.14391148 0.16716331 -0.14710824 0.040418904 0.009739146 0.17851394 0.043783583 0.06255801 -0.038094148 -0.036754873 0.035424214 -0.14005476 0.3052511 0.16427855 0.17570688 -0.13762793 -0.117663726 0.07638665 -0.099747024 -0.0891662
lost.a.03 0.15143047 0.1936715 0.14865252 -0.0076857572 0.14145562 0.12757617 0.30262658 0.23746717 0.08825349 0.14052387 0.038472503 -0.055868704 0.18749523 -0.08722277 -0.08262556 -0.22381392 0.34247217 -0.17433283 -0.19749339 0.24392985 0.21003893 0.04562997 -0.21854307 -0.19584744 -0.38841155 -0.29711714 -0.29014415 0.040585157 0.22372465 0.032041527 -0.14258505 -0.10781031 -0.122266345 -0.12399615 -0.25298175 -0.0808409 0.13960963 -0.016778406 -0.14336075 -0.10769965 -0.11607773 -0.19346158 -0.116030596 0.12824142 0.1722722 -0.013134894 0.10995852 0.14052553 -0.24576561 0.026524184
reliable.a.01 0.17171727 -0.023189763 0.07284499 -0.16931958 0.27345 -0.046973214 -0.13167496 0.13481066 -0.22570698 0.013929407 -0.33647162 0.08736033 0.17879356 0.09742586 0.060588323 0.15176381 -0.09633866 -0.33228594 -0.21927251 -0.059303515 -0.082986414 0.39504924 -0.090383045 -0.15937707 0.1209742 -0.17131597 0.066783875 -0.109447554 0.2784271 0.07880398 -0.16058473 0.11024708 -0.14683576 0.30704114 -0.28896475 -0.24565272 0.19619648 -0.007284968 0.056166273 0.16265969 0.01999013 0.30665505 -0.02441283 -0.13703555 0.19548619 0.13096942 -0.26173604 0.20867194 -0.05093863 -0.2785471
desirable.a.01 -0.14938582 0.15309328 0.15070528 -0.068051964 -0.1271919 -0.3688993 -0.033927497 -0.25202847 -0.019938607 -0.23833704 0.30672473 0.2380568 -0.124481164 0.09733257 0.0020206186 -0.16811256 0.19787943 -0.039904002 0.06573901 0.15016346 -0.100325115 -0.0874183 0.06813716 0.12877356 0.24112733 -0.09369307 -0.061756786 -0.15959173 0.24060021 0.038543668 -0.17658809 0.013422129 0.11554024 -0.046137735 -0.12521361 0.03259126 0.046512123 -0.06469912 -0.18827587 -0.2310068 -0.21208254 0.24896514 -0.08264094 -0.14375724 0.18775633 0.08853516 -0.14198372 0.04533146 -0.030567044 -0.06409727
cosmopolitan.s.03 0.07601813 -0.12734264 -0.09115511 0.16418394 0.14721023 0.14658788 0.12738328 -0.15884382 -0.25511733 0.020531261 -0.2792026 0.03943619 -0.16109127 -0.044864465 0.13833332 -0.028215926 -0.26402637 -0.02619026 -0.12921113 0.094934694 0.11492322 0.20495206 -0.09949834 -0.13803336 0.008249253 -0.21277748 -0.15179978 -0.20661622 0.03347858 0.063855335 -0.2022758 -0.05882509 0.23210792 0.13812505 0.044227473 -0.26639554 -0.09693423 0.32136375 0.14657356 -0.5051997 -0.22446485 0.22912723 -0.316502 -0.21992081 -0.38685822 -0.15183552 -0.16051659 0.099143684 -0.06473285 -0.2489819
irrelevant.a.01 0.009329014 -0.102163844 -0.010086788 -0.09980187 0.04786896 0.010977934 -0.1977108 -0.05576525 0.09337637 0.050065745 0.2880555 -0.012973605 -0.18889928 0.09465162 -0.05376386 0.054561734 0.08130259 -0.02139568 -0.09386148 -0.02752574 0.09273451 -0.058179777 0.0020902825 0.28957728 0.067680456 -0.08065075 0.017655462 -0.043935496 0.28778553 0.12448077 -0.12827602 0.15364455 0.12089901 -0.25834548 0.17434199 0.05869558 -0.114393115 0.03517983 0.18972954 -0.14169218 0.031635527 -0.06505107 0.13990945 -0.18726358 -0.07658086 -0.0026877117 -0.035831176 0.0028769101 0.15953213 0.062110636
subjective.a.01 0.13006526 0.1811454 0.041784696 -0.08129532 -0.2245391 -0.045623805 -0.17707257 0.22940439 -0.11512905 0.019930648 -0.11707995 -0.20622577 0.11396894 -0.35683057 0.08088158 0.0675002 0.09631267 -0.05444409 -0.29666942 0.25323066 0.005602338 -0.0036561347 -0.155494 0.1902404 -0.17551905 0.056701586 0.11070943 -0.0794729 -0.29044798 0.13942653 -0.09760416 -0.15204479 0.01589293 -0.028426088 0.01877476 -0.1505387 0.011857827 0.087233774 0.03917118 -0.14185908 -0.030170213 0.09924185 -0.17015967 0.08695992 0.16760322 0.071539186 -0.16210599 -0.030276554 0.09012303 -0.06273513
alert.a.01 -0.16701676 0.23599969 0.1657145 0.01733067 0.061608344 -0.08180513 0.055834003 0.18656345 0.053443447 -0.09919688 0.27669314 0.025056563 -0.11429762 0.21494193 0.04047212 0.13718632 0.0017519065 0.10044677 -0.33687714 0.13527349 0.032025833 -0.0746572 0.032112367 -0.12300883 0.064884685 -0.046873942 0.018487783 0.03298131 0.13815829 0.1556316 0.061818946 0.029827617 -0.03143717 0.0027235853 0.02979458 -0.008527024 0.15124819 -0.03549148 -0.1547311 -0.09656956 0.13516901 -0.06569165 0.12298983 -0.10402482 -0.060056053 -0.15499085 0.016070258 0.22642401 -0.024667364 -0.17246683
firsthand.s.01 0.09977283 -0.2961123 0.009624786 -0.36529604 0.305954 0.23158725 -0.2264469 0.25166264 0.20943217 0.1989395 -0.11057042 0.18687215 -0.40235388 0.21863864 -0.09511425 -0.13987689 0.22436719 -0.18717676 0.116174966 0.048395474 0.25638244 0.04081384 -0.08224786 -0.060148124 -0.014111886 -0.28453556 0.17283398 -0.046772636 0.18130916 0.06842025 -0.0026402937 -0.0136996815 -0.21359275 -0.20034693 0.19367602 0.0701606 0.2013539 0.025310691 0.24829085 -0.15302692 -0.19424124 0.19575693 -0.23379964 -0.16036472 -0.036646567 0.13686113 -0.09395505 0.014707063 -0.081750825 -0.26264843
traditional.a.01 0.06325419 -0.02221684 -0.024734598 0.24326463 0.2202814 0.21210082 0.0561326 0.16901465 -0.26138678 0.05649164 -0.07564516 0.14193216 -0.07559373 -0.16641046 -0.013309202 0.0027410123 0.09426393 -0.050433442 0.078911334 -0.29048002 -0.3865151 -0.19101335 0.17922544 0.06204684 0.13109702 -0.21621078 -0.10058346 0.048815604 -0.2929333 -0.15118296 -0.177605 -0.25547877 0.09304218 0.16005558 0.07243752 -0.17572612 0.12999617 -0.2249835 -0.05107124 -0.045752276 -0.0892779 0.02710151 -0.21151589 -0.01840234 0.10232796 0.07862244 0.30084023 0.04090566 0.18044114 0.32614294
dangerous.a.01 -0.20749421 0.31518415 -0.27451628 -0.24448259 -0.19859213 0.24638401 -0.20928545 0.18060093 -0.18182902 0.145868 -0.18317741 0.27274632 -0.19509253 0.11590521 -0.2672157 0.103196755 0.07086817 -0.3302595 -0.26422963 -0.098517016 0.18178031 0.27038506 -0.10163007 -0.37172842 0.056757495 0.35350102 -0.43569693 0.29370847 -0.246209 -0.27793851 -0.050417095 0.17187577 -0.22162113 0.13847765 -0.04323631 -0.39953122 0.30113602 -0.111540325 -0.41960052 0.21133603 0.012752862 -0.22343369 0.29914325 0.029314602 -0.238422 -0.24944657 -0.2783003 0.21330732 -0.16180778 -0.45880428
square.a.01 0.16820475 -0.0039968593 0.19019829 0.068944 0.04780794 0.016891662 0.03796296 0.10936067 0.056750104 -0.052540407 -0.0883237 -0.29230303 0.04044639 -0.13963035 -0.014086118 -0.02998387 -0.29021835 -0.07382747 0.1144002 0.02718123 0.08514282 -0.04305643 0.19055055 0.029728658 0.24230792 0.07954171 -0.04565944 0.047654882 0.07184966 0.22641033 0.30000064 -0.027460828 -0.018649617 -0.14524499 0.11657318 0.011862575 -0.09034657 0.06918891 0.07000771 0.06425307 0.057114158 -0.074599594 0.20017947 0.13397542 -0.07679395 -0.11741166 -0.18736951 0.1448542 0.16963544 0.109356314
solar.a.01 -0.10122327 -0.26317662 -0.11263974 0.06367031 -0.053624954 -0.120469555 0.10766017 -0.087797344 0.28332642 0.12661204 0.10384362 0.022160733 0.22411628 -0.003391579 -0.24050449 0.14007491 -0.04118319 0.1764449 -0.07058927 -0.028514594 -0.017914744 -0.10124567 -0.19434112 -0.09773868 -0.072971225 0.12153431 0.11016568 0.08584974 0.06152967 0.11240646 0.0578514 -0.03695109 0.16980317 -0.28983366 -0.21186844 0.20062171 0.009749777 -0.009441633 0.056352038 0.07591028 0.18236153 0.044387013 -0.11131004 -0.024956137 -0.13290715 -0.22891483 -0.26043025 -0.15891887 -0.008477798 0.26275027
seasonal.a.01 0.11832862 -0.19814382 -0.09687578 -0.15199389 -0.014093321 0.24680828 -0.067168556 0.1034378 -0.30701125 0.14548527 0.19758862 -0.04901463 0.09068519 -0.12920906 -0.13628747 -0.1238052 0.037095096 0.20696765 0.012392641 0.10118517 -0.0447228 0.0347665 -0.14768106 -0.28152618 -0.11615993 -0.23003183 -0.1589661 0.23246036 -0.1366377 -0.2518585 -0.117053725 0.22623342 -0.059392225 0.05275621 0.037299253 0.32978645 -0.045433573 -0.020158239 -0.054988068 0.034829065 -0.12360617 -0.12507617 -0.15596944 0.00069444574 0.15621743 0.04376086 -0.025060816 -0.23794927 -0.164888 -0.14467636
illegal.a.01 -0.24678364 0.060234047 -0.11036908 -0.28179482 -0.12104148 -0.077801175 -0.12968959 0.087043256 0.0959191 0.14690442 -0.26717278 -0.02770179 0.27615038 0.150547 -0.12174349 0.07956528 0.1233993 -0.065432996 0.14826591 0.19878586 0.18585254 -0.0009008334 0.08362525 0.22181612 -0.29326463 0.17129453 -0.16788457 -0.12403176 0.16474102 -0.05141639 -0.16102931 -0.30430394 0.123905495 0.27551 -0.15743984 -0.20862417 -0.010741271 -0.1503052 0.2224947 -0.310466 -0.18167214 -0.108007066 -0.07948497 0.048853166 -0.075961985 0.17274606 0.00741738 -0.10934082 0.03299865 0.088090435
acute.a.01 0.03679291 -0.15556498 -0.038960755 -0.08349363 0.04388385 0.22186778 0.013253157 -0.027636105 -0.0219641 -0.054923918 0.17495735 0.07506321 0.117553994 0.08271478 -0.034052864 0.056361873 -0.14192457 -0.00049737294 0.021271305 -0.16477197 0.091787614 -0.35153195 0.06838852 0.027396994 -0.22165999 0.06531541 -0.044657324 -0.06854851 0.09218332 -0.02670269 -0.19464612 -0.23014459 -0.011534505 -0.021683503 -0.020106439 0.11085628 -0.1281674 0.054544456 -0.0054540257 -0.17897399 -0.029642839 -0.26489317 0.055427853 -0.120520145 -0.08072648 0.081766084 -0.27328482 0.06362584 0.065570034 0.001683187
statistical.a.01 0.17212886 0.1393893 0.23675136 0.060286995 0.21527088 0.18738586 0.016456492 -0.07513558 0.058793996 0.05513662 -0.05035035 0.12965903 0.080558725 -0.079638526 -0.2295112 0.122494005 -0.13493554 -0.1331894 0.08361934 0.12563545 -0.13808432 0.01408543 0.15168409 0.12298597 0.15313238 0.18715191 0.20504934 -0.10088788 0.31369373 -0.014104655 0.047746245 0.033050958 0.101842165 0.03770133 0.011643421 0.033388708 0.051124044 0.04873329 -0.08773713 0.16588837 0.080118716 0.22022031 -0.010093944 -0.20524669 -0.11347105 0.016448995 0.11968821 -0.022987572 0.31894365 -0.069238536
equivocal.a.01 -0.013048912 0.059828628 0.1731446 0.02658878 0.071345754 0.22372341 0.08372637 -0.2140016 -0.17056933 -0.20517553 0.19221735 -0.13599277 -0.24986844 0.2487987 -0.23792243 -0.009087121 -0.019945776 -0.002953311 0.0001246562 0.17856763 0.29046717 0.09436771 0.046367243 -0.119382404 -0.019691141 -0.06600037 0.006516612 -0.008903413 0.09557076 -0.010366802 -0.013060213 -0.18999936 0.2269678 0.015152509 -0.21376061 0.21707372 0.08704406 0.07707476 0.052651655 -0.28018075 0.115385 0.15445282 -0.2678685 -0.22624697 -0.071467675 0.07106368 -0.21029104 -0.21052472 -0.10417953 -0.2005804
complete.a.01 0.38068116 0.08905283 0.12761816 0.10501385 0.0022579897 -0.17939177 -0.21387248 -0.24313888 0.13103886 -0.315769 -0.046464603 0.12825823 -0.12868406 0.14956743 0.21755752 -0.083983004 0.20843102 0.124674425 -0.05345838 0.11942061 -0.16826487 -0.23802556 0.090032324 -0.069208786 -0.0879287 -0.22625592 0.11610817 -0.4125948 -0.13891858 -0.039103348 -0.09868779 -0.22470358 -0.1285653 -0.074005485 -0.20125934 -0.029064635 -0.19046031 -0.028247578 0.030274715 -0.13757907 0.07076803 0.1761483 -0.23086709 -0.010055079 -0.1160011 0.1631023 -0.2841551 0.2023201 0.024346726 -0.11993843
color-blind.s.01 -0.16411388 0.10335573 0.0061433013 0.15455541 0.21284111 -0.14624271 -0.0820049 -0.02546561 0.17279235 0.0050724274 0.16323785 -0.036178693 0.092464305 0.008287294 -0.10295869 0.102344856 -0.17151695 0.15978074 0.012732192 -0.03553533 0.09200593 -0.10042784 0.020484218 0.04066883 0.03581199 0.01178034 0.19549218 0.028221862 0.21003011 0.061367843 0.17365326 0.03614071 -0.15866819 -0.10658409 0.055325877 0.11686478 -0.03883136 -0.03516517 -0.0038462197 -0.13590938 0.18999244 -0.036731742 0.088819966 -0.05140159 -0.007565299 0.028683761 -0.06261701 -0.16122217 0.0008302596 0.2666079
digital.a.01 -0.0628234 -0.075390324 0.09570809 0.06607336 0.24734095 -0.008133914 0.17215654 -0.2224286 0.2778113 0.21127938 -0.032623217 -0.17809035 0.001833594 0.17751367 -0.17390615 0.1607324 0.0073833195 -0.08077178 0.0747731 0.19232737 0.097148724 0.12626533 0.096430406 -0.01859357 0.010681129 0.26707867 0.23034571 -0.18830054 -0.025694134 -0.038716104 0.074790634 0.063455254 -0.07319553 -0.2790629 0.05768882 -0.11030937 -0.19154017 -0.026414739 -0.074113026 0.011014114 -0.11541074 0.00888946 -0.07815581 -0.0800587 -0.057835937 -0.15272062 -0.054665774 -0.103275195 0.17890413 0.10609408
toxic.a.01 0.009161362 -0.0329816 0.07322941 0.03514503 -0.0051015904 -0.036054816 -0.08025181 0.1267233 0.14459836 0.06330071 0.40625662 -0.067494266 0.03164738 -0.06567421 -0.08494683 -0.026719369 -0.22665878 -0.072689205 -0.08597904 0.13418874 0.12605299 -0.14084855 0.041664027 0.05982755 -0.16160676 -0.06092143 0.0548521 -0.07846183 0.09164836 -0.065033026 0.03880384 0.00077081803 0.19077286 -0.0317184 -0.0027374972 -0.02929688 -0.013255169 0.07672909 0.31597647 -0.019857489 -0.065091684 -0.22141725 -0.027682682 0.15354802 -0.1620441 -0.028537143 0.024103127 -0.25430876 0.025090199 0.016046388
concluding.s.01 -0.18543321 0.20951653 0.34453586 0.28534633 -0.268161 0.026807446 -0.07995521 -0.063690215 -0.12949623 0.28705356 -0.08380432 0.0049710874 -0.10315394 0.41255403 -0.033488024 -0.3705603 -0.039951697 -0.24127315 -0.10707254 -0.057886634 -0.07466342 -0.09844963 -0.24865878 -0.16988815 0.31440678 0.09862211 -0.16619593 -0.10968468 -0.021525916 0.20434274 -0.34164748 -0.1343401 0.29284686 0.0049957386 0.011598962 -0.017263243 -0.2340521 0.17508551 -0.25401893 0.1636011 0.0062334444 0.29418653 0.07792467 0.11624203 0.25140166 -0.29007015 -0.12503427 0.12779842 -0.06031269 -0.23888962
tough.a.03 -0.19509336 0.14360799 -0.021436969 0.09307216 -0.05173992 0.120721206 0.0034649577 -0.08836606 -0.005397003 0.23860633 -0.13004886 -0.108529516 0.25254977 -0.07704958 0.2645018 -0.038223937 0.0009816032 -0.053839825 -0.21938288 0.11755439 -0.21148485 -0.13065156 0.24386296 -0.19455132 -0.24455696 -0.07884483 -0.16874945 -0.01837481 0.24884094 -0.19031674 0.09621266 -0.097237244 0.0705794 -0.12719227 -0.21192767 -0.17986766 0.15501411 -0.12292658 -0.014414871 0.04976832 -0.11011588 0.14774835 -0.31682324 -0.26174292 -0.06294261 -0.1324325 0.08823226 0.19422439 -0.0020870778 -0.05176994
complex.a.01 0.16578227 0.13224828 0.0073941685 0.0834462 0.05214064 0.07137073 0.0076339087 -0.14871728 0.39820313 0.22496304 0.09072461 -0.29144496 -0.08040355 0.16196623 0.228252 -0.042994913 0.025511255 -0.16716103 0.057785653 0.06153116 -0.03843828 0.22448958 -0.09900199 0.22497915 -0.026237434 0.08656584 -0.09824338 0.073078685 -0.0060613146 -0.104956254 0.09029968 -0.02460708 -0.1282095 0.06714866 -0.27453953 -0.1534437 -0.011508715 0.048190452 0.10406481 0.14335273 0.23081614 -0.02972565 0.102533504 -0.18819255 -0.14758572 0.19041015 0.009006421 0.009479821 0.1632642 -0.32267022
part-time.a.01 0.07214411 0.03315857 0.21503715 0.21627915 0.10849951 -0.076357275 0.1420731 0.011985425 -0.103433505 0.16374801 0.09136094 -0.04765462 0.029862406 0.25091878 0.050270714 0.044826142 -0.12701893 -0.037395157 -0.118984856 -0.0036482122 -0.044268373 -0.014479071 0.10129522 0.21562955 0.027265463 -0.08151425 -0.02881623 0.029927779 0.23808333 -0.14766236 0.16256596 -0.09429508 0.09169922 0.006400956 0.107588865 0.065579884 -0.09849342 0.124997675 -0.0034800423 -0.022991065 0.1545334 -0.2519566 -0.0030979295 0.22547877 0.062257838 0.20373274 0.042252026 -0.25684044 0.10920047 0.13625488
steep.a.01 -0.027755365 0.029132953 -0.07261544 0.13691215 0.08521015 0.05669295 -0.09574333 -0.057871263 0.19091724 0.11840791 0.19486669 -8.742113e-05 0.040311396 0.04603473 0.012884198 0.10129926 0.0501347 0.26247633 -0.12730055 -0.07241581 0.0082788365 0.14083996 -0.07175288 -0.02244717 0.078743204 0.13365622 0.08858153 -0.22530659 -0.0292211 0.091250174 -0.03813601 0.021709848 0.046416726 -0.06698511 -0.12060408 0.0025691956 -0.2459139 -0.032883864 0.079771765 -0.10519698 0.20283502 0.016411308 -0.119774185 0.1753489 -0.20556167 0.01656581 -0.36437267 0.0609066 0.18096873 0.15836802
human.a.01 0.13160211 -0.21266955 -0.112603895 -0.52678585 -0.24014127 -0.29355663 0.0473206 0.11458954 -0.13304469 0.14201975 -0.15762062 0.35720715 -0.23491359 0.09900304 -0.35169968 0.109631054 0.09380816 -0.22727749 -0.02728842 0.076619804 -0.1803837 0.13648306 -0.29298025 -0.34672594 -0.15006283 -0.3437663 -0.28930992 0.1336932 -0.23512235 -0.014089328 0.13702403 0.13043463 -0.4077267 0.16912523 0.15100825 -0.05456232 0.4375491 -0.2770169 -0.25752047 0.21634668 0.08276527 0.11003241 0.037482273 -0.18841125 0.18855156 -0.45271167 -0.08310377 0.30271465 0.021269202 -0.08164108
happy.a.01 0.12539196 -0.088339336 0.06389152 0.17801774 0.11335641 0.07922373 -0.29081014 0.29653156 -0.033240326 0.19168141 -0.16269471 0.056621473 -0.12501106 0.066934995 0.09790524 -0.22163022 0.16086347 -0.005434028 -0.022258494 0.16424125 0.19516774 0.19912118 -0.25488976 -0.34721863 0.06403983 -0.19894388 -0.056346033 -0.4093696 0.06956746 0.33772942 0.02224996 0.030197537 -0.15815412 0.12704828 0.07119231 -0.22772443 0.21524547 -0.14637467 0.19441456 0.06614432 0.08370072 -0.07953057 -0.21646376 -0.062364955 0.19478968 0.12407592 -0.18162902 0.23047033 -0.16992554 0.016114147
handy.s.02 0.1457655 0.063514404 -0.03617962 0.11577177 0.107043944 0.18172038 -0.21943644 -0.0024607924 0.10668485 -0.04121865 -0.01087406 0.14070791 0.27215704 0.029788427 0.1082056 -0.1380659 0.058114186 -0.03209263 0.14444841 0.14488508 -0.048350025 0.16674134 0.16987689 -0.14008781 -0.04522922 0.15861222 -0.19169961 -0.26497898 -0.03956391 -0.1759061 0.19969308 0.07387521 -0.22790219 -0.030304192 -0.021125898 0.32919487 -0.17822734 0.34296545 -0.08725685 0.32260582 0.022407632 -0.18108681 0.12683295 0.11855131 0.102370374 0.10682035 0.24017543 -0.035103474 -0.073870495 -0.16696842
standard.a.01 0.40319094 -0.19524568 0.09339356 -0.028265027 -0.05838726 0.3529539 0.14818534 -0.05319964 0.20300053 0.4353968 -0.19602644 0.076992214 -0.22033921 -0.044437658 0.13002442 -0.0057741655 0.28046614 -0.2702664 0.17403853 0.28411672 -0.33338326 0.39226854 -0.13424999 -0.059654433 0.3365444 -0.12578396 0.30703476 -0.1216604 -0.28433597 0.074278876 -0.20498505 -0.14109996 -0.26420227 0.09201513 -0.2049237 -0.45145223 0.2009062 -0.0049349433 -0.11024769 0.124239415 -0.26069057 0.1098768 -0.10529237 -0.17157309 -0.17405891 0.11096865 -0.0626405 0.32045245 0.17879964 -0.33511052
extraordinary.a.01 0.0888311 0.191752 -0.14384776 0.022425346 -0.16156848 0.3071686 -0.02414346 -0.03258082 -0.19276507 0.22977746 0.13803844 0.044937585 0.13346532 -0.28614533 -0.03168012 -0.12729457 -0.048689034 -0.15192384 -0.18321468 0.28783906 -0.18346013 0.13556224 0.03831521 0.05127896 -0.2596374 -0.18053076 -0.12806453 -0.15498857 0.18987516 0.17702545 -0.1917573 -0.19827488 -0.1932411 0.096548036 -0.20872512 -0.09573613 -0.25654474 0.16502202 -0.13374238 0.20286493 -0.117015146 -0.048159577 -0.10209018 -0.085311316 -0.059100006 0.09249998 0.038901586 0.19834282 -0.013589402 0.20513749
wrong.a.05 0.07252462 -0.2292042 -0.18862772 0.020432001 0.29243335 0.12411587 -0.18815762 -0.03714247 0.07996546 0.24134499 -0.23005535 0.229179 0.041685633 0.109730005 0.12452873 0.09497809 0.034685448 -0.09036219 0.05587834 -0.29443383 -0.08381712 0.24383706 0.036319472 0.0669438 -0.18329784 -0.29560572 -0.12946674 -0.2823487 0.20811544 0.030981451 -0.16814657 -0.24028225 -0.1717035 0.12651157 -0.045479026 0.074244544 0.03157366 0.0031718588 -0.21518853 -0.089430846 -0.1389279 0.1389242 0.0046350793 -0.19970769 0.05758511 0.22654988 -0.21109214 0.1069626 -0.23648222 -0.250001
ill-famed.s.01 -0.12884009 0.0326553 -0.14505515 -0.20809 -0.0129489675 -0.09595947 0.030108903 0.247477 0.07421382 0.050100196 0.051536895 -0.17724432 0.19606097 -0.05011207 -0.16500643 0.09724816 0.055838373 -0.1858829 -0.09368609 0.2837309 0.06739766 0.18563344 -0.14054622 -0.25608563 -0.30501425 -0.21265978 -0.14883725 0.015105317 -0.11376576 0.17935857 -0.016286626 0.032555226 0.23349172 -0.21780175 -0.24337867 0.21129897 0.10299162 -0.1305817 -0.16162732 -0.12013696 0.14427075 0.15371901 -0.23338094 -0.044118054 0.09183791 -0.044219073 -0.063820064 -0.15939413 -0.09967901 -0.0576843
chronic.a.01 -0.23065838 0.009844289 -0.2672733 -0.028741695 -0.06334242 0.06742093 -0.07635138 0.023793817 -0.014140136 -0.121041894 0.18562542 0.11944562 0.05298361 0.064332545 -0.18836784 0.12939315 0.00027973918 0.14781275 -0.19702102 -0.040484786 0.08759915 -0.06959181 -0.081206955 -0.07965405 -0.09472984 0.045500215 -0.0439154 0.0006293963 0.1409158 0.008508405 0.085082665 0.022718674 0.014632891 0.10340947 0.021702493 -0.08334026 -0.049828168 0.22873789 0.035390995 -0.0027696954 -0.27438092 -0.23808312 -0.049197067 0.1270951 -0.058599927 -0.16841672 0.021071764 0.18464698 0.040816527 0.2134498
hot.a.01 0.039258793 0.20986585 -0.16919956 -0.16326794 -0.020498946 0.2729094 0.10055523 0.009163237 -0.1783951 0.31749976 0.008358948 0.06419358 0.24505542 -0.06281093 0.12081514 -0.144422 0.15047397 -0.17536665 -0.07546784 0.2551564 0.013756268 -0.03441972 -0.0771899 -0.025710091 0.118335426 -0.010345542 -0.040954456 0.2111107 -0.27461013 -0.18770406 0.04171746 0.15800567 0.06835396 0.08743836 0.00534817 -0.22599809 0.12499322 -0.23515731 0.35774493 0.18495679 -0.22604403 -0.03471011 0.25035262 -0.015032869 0.0907973 -0.015889375 0.05272984 -0.13144708 0.30223864 0.28946665
flat.s.12 0.123983845 -0.14727515 0.25168353 0.2749535 0.10423763 -0.17189388 0.21560974 -0.025427008 -0.12137625 -0.24218063 0.24452086 0.113236316 -0.252738 -0.30259272 -0.01695608 0.102655634 0.19508292 -0.047209095 0.14280628 0.16614968 0.039582804 0.07344097 -0.042177014 0.2222192 -0.21830708 0.13888437 0.04716177 0.14601818 0.016841128 -0.30609742 0.12559798 -0.112415746 -0.14536196 -0.056513727 -0.20946051 -0.14098734 0.17711973 -0.061827872 -0.23327512 0.26189244 0.0011603974 -0.17280449 0.07802741 -0.12547155 -0.2941446 -0.025091626 0.16469243 0.07675951 -0.123333775 -0.005077572
optimistic.a.01 -0.13392244 0.10264442 0.00389442 -0.20720954 0.12693319 0.021838699 -0.07104015 0.085505486 0.07845341 0.08298178 0.14967455 0.015906367 0.10872585 0.0963712 -0.13929603 0.05246298 -0.16504556 -0.06330314 -0.06999148 0.12516078 0.13586764 -0.2696939 -0.009040683 -0.10803148 -0.06697266 -0.010079927 -0.20564686 -0.12250266 0.13952793 0.21516033 -0.084140144 -0.121937096 -0.10855061 0.05439041 0.19323745 -0.078893304 0.034549434 -0.085912295 0.27251956 -0.15149862 0.07006069 0.13457711 -0.05662371 -0.026474547 -0.012670559 0.07061195 -0.012371746 0.1372623 -0.23560376 0.09652045
uneasy.a.01 -0.23928046 0.21494673 -0.053064127 -0.13260105 -0.078647286 0.05698204 -0.2738711 0.037099853 -0.09906712 0.11150364 0.06282156 0.088884875 0.06900252 0.2285481 0.21466766 0.06789074 0.3477888 -0.28495473 -0.23841342 -0.31364125 -0.0026932736 0.26761934 -0.008355827 -0.054449007 0.21543819 -0.25594783 -0.23867807 0.19104409 -0.04736853 0.24767068 -0.20955089 -0.137131 0.09372957 0.18965924 -0.30501774 -0.19245714 0.3560951 -0.33406368 0.33408642 0.16028847 -0.15896527 0.22405031 -0.28833774 -0.12846057 -0.1000387 0.14302929 -0.14632197 0.12679987 -0.21474469 -0.3048158
heavy.a.01 0.20532063 -0.06364231 -0.34307495 0.031595375 0.0017231171 0.22838277 -0.12986192 -0.036556665 -0.18813825 0.17206234 -0.040649157 0.24808097 0.12795722 -0.20498702 -0.23549488 -0.01954343 0.16148551 0.4403683 -0.15101075 0.034751736 0.20756756 0.16615838 0.12293094 -0.08327414 -0.046469934 0.19931357 -0.25949165 0.105150335 -0.20992863 0.07743948 -0.020956244 -0.10995612 0.13032202 -0.10692128 0.07277253 -0.21038678 0.29316375 -0.11214958 -0.04181123 -0.057440303 -0.10409217 -0.20710129 0.061558854 0.020400137 -0.24409683 -0.107283525 -0.093184315 0.09835994 -0.032984037 -0.17080325
retired.s.01 0.10488758 -0.21491334 -0.12281408 0.15566248 0.1448484 -0.08010197 0.08742251 0.04266539 0.1272105 -0.16482879 -0.19548118 0.1044768 -0.09710909 0.16218552 -0.1185621 -0.106778644 -0.028824432 -0.046055082 0.08528458 -0.079420716 -0.07776358 0.109634496 0.036736738 0.023610666 0.15344402 -0.117187075 0.2343712 -0.31885588 0.35946032 0.024019787 0.035071854 0.18535362 -0.060147844 -0.15457769 -0.2285752 0.22516379 -0.13791797 0.22579218 0.18647063 -0.10449177 -0.034169886 -0.03792278 0.04268576 -0.06920568 0.10166611 -0.04213318 -0.1721912 0.0006500689 -0.08946 0.33202624
ample.s.03 0.08686385 0.19103852 0.08562949 -0.012750862 -0.09442468 0.07273709 -0.10438131 0.14753067 -0.13416566 0.086761355 -0.1557781 -0.036082473 0.07180778 0.028898735 0.06505495 -0.1621623 -0.41280296 0.1183469 0.018327462 0.073396504 0.1180332 0.06765968 -0.16611567 0.15182954 -0.07150958 -0.14578155 -0.18188815 -0.0018910802 0.054828268 0.13475177 0.09181469 -0.27238372 0.33180687 -0.0030946136 0.2338689 -0.27332833 -0.03245252 -0.02885499 0.041675095 -0.24499342 0.079698406 0.083484106 -0.0149309235 -0.025351344 -0.09782608 0.044968568 0.15441656 0.1304039 -0.16599144 -0.19932665
drawn-out.s.01 -0.038818497 0.09355012 0.11125326 0.195835 0.36229646 -0.118712254 0.13097022 0.09803914 -0.06524516 -0.17788589 0.19599803 -0.19304663 -0.005808428 0.0017315336 -0.14166415 0.05376313 0.06158233 0.045326114 -0.23040433 0.16849902 -0.10690865 -0.032164972 -0.04935312 -0.31767178 -0.30077386 0.06820536 -0.3400138 0.16671157 0.23763777 -0.14981687 -0.13289039 -0.23889573 0.012634392 -0.07507662 -0.040742178 -0.07914785 0.053683996 0.014000059 -0.050605413 -0.2567829 0.16341068 0.014861711 0.20106068 0.1435792 0.046621513 -0.10953802 -0.10867239 0.108824134 -0.12703584 -0.037677158
cosmetic.s.01 0.088447876 -0.037636485 -0.17090215 0.019006148 -0.010000661 -0.038096357 0.052128892 -0.03221949 0.09468686 0.0026152553 0.061597254 -0.051621594 0.16275163 -0.033108823 -0.042138986 -0.22446597 -0.12521994 0.039208613 -0.04916394 0.0071598734 -0.09783332 0.14756411 0.2006465 0.15179767 0.024007361 -0.05769538 0.1663475 -0.059899822 0.06294812 -0.037099876 0.16531168 0.078527875 0.012423357 -0.20812282 -0.0075262086 0.12913767 0.061700992 0.050131418 0.012727458 -0.13884439 -0.07801041 -0.22903448 0.04355587 0.16326204 -0.0026277136 0.23264848 0.06887424 0.0048137014 -0.047847334 0.33738518
responsible.a.01 0.19853649 -0.026401453 0.13443047 0.040988434 0.110050015 -0.005488397 -0.22211799 0.1850483 -0.120260775 0.19931212 -0.19039834 0.33537796 -0.19734237 0.20398101 0.3077548 0.043093193 0.04890175 -0.00323605 -0.23240836 0.08852445 -0.0057332213 -0.123712 -0.19744535 -0.27669176 0.025119707 -0.20024753 -0.00046096437 0.09432944 0.09476287 0.049781054 0.011432945 0.063666016 -0.11806509 0.19766596 -0.07676939 -0.14623435 0.0622707 0.28893772 -0.14722517 0.09258907 -0.31148276 0.33386153 -0.1658954 -0.2878074 0.027558312 -0.06776997 0.29219282 0.17137061 -0.26056266 -0.34103075
electronic.a.01 0.026731547 -0.01788283 -0.038461197 0.17987204 0.12818006 0.04157245 -0.06749444 -0.14698908 0.24816999 0.20618837 -0.019855905 0.03021771 0.105221495 -0.053492237 0.060357716 0.08771806 0.10548939 0.30744568 0.010735699 -0.118128926 -0.0335646 0.17471454 0.042665716 0.10527889 0.10219081 0.0746479 0.012240479 -0.23351781 0.010016885 0.09863387 -0.105550945 -0.07592985 0.050804425 0.014429541 -0.16833875 0.14096157 -0.09178174 -0.08914757 0.13068247 0.091302946 -0.022974594 0.017675117 0.15136546 0.13635504 0.20072728 0.06292598 -0.029875945 -0.11538178 0.30541748 0.06104207
solid.a.03 0.13296154 0.046185605 0.018248634 -0.00016539132 -0.02906503 0.14290516 -0.23749037 -0.05412486 0.017071135 0.102421425 -0.033076286 0.0720705 -0.03471801 0.16530436 0.07521245 0.2586101 0.079918824 0.04213182 0.2781148 -0.08172895 0.057116736 0.051628526 -0.19300547 0.27917787 -0.033952687 0.14141737 0.1283402 0.111728236 -0.20460826 -0.1438672 0.13346225 0.03815443 0.0155076245 -0.15239063 -0.005178246 0.15287954 0.08299396 0.04265515 -0.106844045 -0.105751544 0.24195933 0.0027619717 -0.18598208 -0.008589206 -0.17090589 -0.119162515 0.02041729 -0.3057986 0.06619719 -0.09372729
quantitative.a.02 0.15166476 -0.20197625 0.21758534 -0.12660298 -0.07187636 0.08388627 -0.13776577 0.009288326 -0.037957497 -0.114642136 -0.08890709 0.19572945 -0.1426685 -0.11354064 -0.041123178 -0.18873206 0.1292821 -0.1007785 0.07640821 0.03246934 -0.1417511 -0.20053561 -0.18147807 0.17675985 0.1545095 0.24805483 0.07220835 -0.26046616 0.3910612 -0.022041474 -0.16393422 -0.193707 0.17725803 -0.08295692 0.1852404 0.095498614 0.1193531 0.08502968 -0.22097531 -0.13645418 0.2185492 -0.12472202 -0.27758992 -0.02807973 -0.16261452 0.030327214 0.070947506 0.22632454 0.1345566 -0.30883166
valuable.a.01 -0.04936945 0.27363414 0.07822441 -0.0055397497 -0.0378068 -0.12438403 0.0638796 -0.13507046 -0.23521794 -0.14754662 -0.24124935 -0.12314096 0.20584837 0.13946366 0.041947257 0.1388912 0.038616978 -0.25126538 0.11193359 0.05576837 -0.3009188 0.016795738 0.018803747 0.12772463 0.09257324 -0.16654466 -0.08953358 -0.0009785154 -0.092087574 0.1911011 -0.19463445 -0.36161625 -0.23290703 -0.16232358 0.18126291 -0.148561 0.14794676 0.12957567 -0.0649208 -0.15592243 -0.041870706 0.23856646 -0.20428279 0.24052222 0.02551678 -0.1657031 0.16185778 0.1758981 0.20746228 -0.1373561
stupid.a.01 0.20209764 -0.19812962 0.1467586 -0.27883425 0.38193768 -0.14457105 0.002849302 0.04621432 0.006837906 -0.026916247 0.055894706 -0.19716136 0.12400432 0.0071835965 0.096963935 -0.11497118 -0.120301306 0.08883278 -0.02524056 -0.16770358 0.11831281 0.09806425 -0.02122681 -0.030096957 0.074061275 0.08917138 0.12299775 0.022054862 0.0007010819 0.26354095 0.17209943 -0.07568003 0.065670505 -0.055333573 0.12395525 0.052067053 -0.00882972 -0.13717975 0.0319716 -0.018166222 -8.2990795e-05 -0.053669006 -0.20328869 -0.076808654 0.07732002 -0.106006525 -0.22532171 -0.076544635 0.19723088 0.12998286
subject.n.06 0.05936041 -0.14753948 0.07217624 0.016671572 0.009814811 0.06126519 0.08578292 0.10418911 -0.040210884 -0.08359909 -0.0013390521 -0.15888572 0.030285483 0.057782967 0.15891692 0.15214644 0.020579766 0.013736974 0.13218407 0.11843049 0.18077625 -0.19409357 -0.053462926 0.21493657 0.2049377 -0.16311455 0.14426385 -0.33452916 0.18160191 -0.0043527987 -0.0153173385 -0.045273513 0.10945011 0.012463706 0.15777227 -0.0393143 -0.32879227 -0.108484246 0.016531039 -0.061801687 -0.10778376 -0.017160133 -0.044562593 -0.28004307 -0.06402316 0.15789942 -0.026938474 -0.15908237 0.03337491 -0.09761158
prize.n.01 -0.10424508 0.02871648 0.126223 -0.001013822 -0.10608642 -0.102116734 -0.12626852 -0.24426506 -0.11375622 0.037624337 0.21312864 -0.069851704 -0.12218907 -0.039804574 0.046091747 -0.043581095 -0.0068299053 0.044198107 -0.17290261 -0.037982907 -0.08597729 0.040779684 -0.1814766 0.15719353 0.022647802 -0.075330764 -0.11616693 -0.28942347 0.048200972 0.0967421 0.09515902 0.030384878 0.06701088 -0.13259758 0.23989624 0.07565613 -0.024310382 -0.0703698 -0.09899378 -0.18476632 -0.14323975 0.07682529 -0.059029635 0.24137852 0.087294236 0.012026315 -0.012116393 -0.34119847 -0.08786746 0.31691942
cup.n.02 0.07824757 0.032441273 0.03169851 0.06891323 0.03835163 -0.031098576 -0.047724623 -0.057867203 -0.03521766 -0.011279968 -0.042259045 -0.08580649 0.124010146 0.0062803137 -0.10920673 0.0034053638 -0.22132292 0.11333087 0.11812673 0.1487487 0.06639771 -0.046021547 0.019934047 0.19692987 -0.018481128 0.24834 -0.17166467 0.05155137 0.22431129 0.026192473 -0.039000366 0.13709652 0.090407535 -0.095666766 0.01744715 0.12034481 -0.112860665 0.19757268 0.0624765 0.03247535 0.067710236 -0.12559089 0.1694894 0.2243269 -0.1714752 -0.10381937 -0.17282355 0.1523816 0.039429225 0.13970046
university.n.01 -0.03373293 -0.03324424 0.014706421 -0.11539808 0.21509305 0.080446616 0.14774215 -0.0011960865 0.07855496 0.095846124 -0.10446511 0.066977635 0.013722633 0.12743276 0.017358076 0.05678726 0.051947527 0.17232317 -0.079476714 0.26549515 0.30224463 -0.23129049 0.30840725 0.11952177 0.071575455 -0.08184945 0.18402597 -0.003105178 0.2618772 0.107581705 0.12915839 -0.089380905 0.14620796 0.021177035 0.05581098 0.09147227 -0.1071203 0.040634215 0.064766854 -0.07031267 -0.27164164 0.19294555 -0.19840682 0.019218514 -0.12960231 0.0698712 -0.08604637 -0.22969294 0.09742114 -0.08893711
library.n.05 0.048898492 0.11649195 0.15736909 0.14669226 0.1507556 0.21710476 0.06766154 -0.07484807 0.107499 0.052687746 0.3075331 -0.056149945 -0.08151222 0.07091949 0.12372944 0.26002523 -0.046028037 0.007276367 -0.05203714 0.23411486 -0.01042804 -0.08455758 0.17150845 0.19260472 -0.16085488 0.20600732 0.039148536 -0.08841277 0.12666872 -0.09776995 0.1350728 -0.017959572 0.24447444 -0.13664642 0.03363103 0.11971123 -0.070881665 -0.0085990485 -0.0456872 -0.18250161 0.107657105 -0.18632342 -0.09544911 -0.015519627 -0.13875541 0.06161017 0.050960094 -0.04347539 0.0030253374 0.13874544
competition.n.03 0.032643702 0.1359543 0.08503014 -0.03494444 0.20056044 -0.25572062 -0.056138944 -0.0076345103 -0.23091105 0.10774993 -0.10084916 0.08598572 0.31241417 -0.23880646 -0.13108608 -0.22397159 0.10976814 -0.03403259 0.060072515 0.23834312 -0.35162878 -0.026374165 0.10442376 -0.12964892 -0.06320164 -0.27733934 -0.2266585 -0.22474414 -0.003218994 0.25561905 -0.16047102 -0.20543405 0.22015232 -0.19471416 -0.2886989 -0.08768606 0.19338264 0.14723599 0.10255369 0.0962206 0.015322457 0.06590747 -0.20964527 0.1809992 0.000868111 -0.03596148 -0.053795103 0.15500945 -0.1410666 -0.23330365
legal_profession.n.01 -0.008103299 0.12143484 0.027792906 0.1950859 0.15114453 0.0057147983 0.03597572 0.031343285 0.10022132 0.14643562 -0.12262657 -0.13002653 0.10304651 0.061670743 0.08756499 -0.015944298 -0.07229783 0.07038393 -0.049701758 0.049469054 -0.13040794 0.02929978 0.20285487 0.30789304 -0.07282338 0.020454563 0.0038144074 -0.09466525 0.19089575 -0.024484346 0.14243643 -0.058139596 0.056642286 -0.3370935 0.20907745 0.07167891 0.05605271 0.18152952 0.05712484 -0.008610267 0.0014676986 -0.10141147 -0.17413647 0.17515574 0.1516181 0.06486737 -0.026494108 -0.19272071 0.1299367 0.098246016
percentage.n.01 0.008524615 -0.04387845 0.044693407 0.09401699 -0.08357801 -0.06529809 -0.01868727 0.02311585 -0.011022565 -0.23372889 0.17656836 -0.04858393 0.25210842 -0.10318925 -0.046732727 0.09508594 -0.23894966 0.14868078 -0.15735868 -0.29813313 0.030175388 0.103622675 0.28954908 0.06960827 0.14646864 0.00926994 -0.13915841 -0.07142093 0.10638756 -0.0014458081 -0.09918989 0.32096136 -0.03696394 0.022991003 0.12151489 -0.0054630493 -0.3439418 0.0626734 0.18882653 0.15153058 0.12711567 -0.074433364 0.12197741 -0.05898567 0.030738387 -0.0044654286 -0.10344075 0.009814724 -0.17787606 -0.016067049
finger.n.01 0.046935 -0.10870818 0.024881776 -0.036604773 0.1510664 -0.041261822 0.041346736 0.12236099 0.10381266 0.13612826 0.22973451 -0.2365836 -0.050715998 -0.07015725 -0.036425702 0.017831473 -0.022471445 0.2463531 -0.055410344 0.06710571 0.12094881 -0.019657575 0.12516655 0.02664659 -0.032691218 0.1472762 0.114138104 0.058566596 0.04269362 0.16510856 0.17093788 0.1473685 0.021422755 -0.32575405 0.034817252 -0.052410558 -0.19684516 0.10826477 0.14568344 -0.011076647 0.02490138 -0.03786622 -0.035484564 0.15512721 0.06842715 -0.05865389 -0.039480798 -0.076618485 0.052586984 0.15772335
manner_of_speaking.n.01 0.06959624 0.27021328 0.185875 -0.19998877 -0.28860506 0.010928514 -0.11019779 0.23738748 -0.19527572 -0.21737638 -0.08898868 -0.23417038 0.09076749 -0.22370052 0.050280906 -0.0024370013 0.135304 0.12651818 -0.1337541 -0.15150261 -0.21014929 0.17732507 -0.28941125 0.20666128 0.18230246 0.07380651 0.19296274 -0.3444637 0.18120725 0.39529184 -0.27265483 -0.013504403 -0.13155994 -0.021265473 0.008270064 -0.067257985 0.1171741 0.19714414 -0.18784507 0.0659564 -0.06541682 -0.16298063 0.15283813 0.10862687 0.05462959 -0.22306332 -0.031417653 0.14803497 0.085115865 -0.13989078
presence.n.01 -0.17569593 -0.09887744 -0.16272801 -0.06593395 0.046578757 -0.2036155 -0.18404518 -0.1337053 -0.04546191 -0.017345255 -0.115633205 -0.033206798 -0.034522176 0.017581781 0.22059184 -0.18476607 0.10702304 -0.040331353 0.2911137 0.1449865 0.23939191 -0.14301595 -0.1666808 -0.050712712 0.10160581 0.086317286 -0.05772623 -0.3433044 0.00011366539 -0.055224925 -0.0045381454 -0.0966508 0.22910324 -0.11717992 0.12534338 -0.0006325423 0.018728307 -0.050961077 0.065304875 -0.2664095 -0.08449838 0.045052163 0.24702547 0.117872186 -0.087299585 -0.055703953 -0.02408095 -0.09765284 -0.086133294 0.0034443326
campaigner.n.01 -0.021251634 0.08580155 -0.0024345678 0.09059168 -0.09692527 -0.13305508 0.089301705 -0.12354357 0.12474245 -0.0894356 -0.20889449 -0.1933386 -0.07110333 0.06977449 0.12043557 -0.016171606 0.005307349 -0.05679616 -0.16166298 -0.05751668 -0.117291406 -0.12855314 -0.10740549 -0.0892025 -0.024674665 -0.067096174 0.18193883 -0.122079805 0.11601566 0.04900763 -0.064220615 -0.200456 -0.09282883 0.027345477 -0.18854219 0.011224439 0.063307956 -0.07585438 -0.056486916 -0.2161043 -0.19046007 -0.1737184 -0.22830406 0.108732544 0.2395154 0.15470347 -0.09004003 0.21758042 0.10737803 -0.07351076
gentleman.n.01 0.032742284 -0.15043505 -0.029581007 -0.06897503 -0.18187487 -0.044831444 -0.11503599 -0.0700764 0.014835838 -0.11183966 -0.064388365 0.0114021385 0.19008712 0.1281477 -0.015547045 -0.21717227 0.2742956 -0.08915101 -0.117364764 -0.08946836 0.10225762 -0.33292142 -0.0037328163 -0.024854444 0.17870387 -0.2887495 0.20071979 -0.12420744 0.17780875 0.11527968 0.0880569 -0.0337916 -0.02448348 -0.0271423 -0.07897241 0.19457798 0.10697573 0.0035531889 -0.0921997 0.18969432 -0.05102598 0.21565087 0.041366715 0.081900716 0.20983323 0.10388461 -0.28906733 0.06506074 0.089713685 0.28702787
pension.n.01 0.18704435 0.033970542 -0.045322146 -0.067797594 0.04482604 0.07098805 -0.14034961 -0.30740133 0.019277135 -0.102125034 0.012131575 -0.19152409 0.170879 -0.0746524 -0.10565744 0.18697034 -0.20706047 0.00807648 0.11877614 -0.07264793 0.003819729 -0.07933905 0.11287159 -0.17652471 0.023559557 -0.21359368 -0.004710046 -0.3743165 0.37085947 0.074810885 -0.15012336 -0.076884724 0.12172474 0.16022666 -0.12000201 0.009276775 0.080592185 0.06666958 0.048019063 0.17168978 0.12277454 -0.29995018 0.19220856 0.4347899 0.17287117 0.09670394 -0.053677704 0.06552667 -0.16117498 0.041081604
weather.n.01 -0.06045513 0.086930044 -0.15485491 0.03893914 0.007822487 -0.019248823 0.22425054 -0.085523665 0.16907875 0.072044946 0.12847447 0.05554806 0.121462196 0.122630045 -0.19688869 0.17193304 -0.0037623795 -0.090313055 -0.0034438646 -0.12228146 0.10533269 -0.19710268 -0.088454634 -0.07776177 -0.023062354 0.10202804 0.06360183 -0.040440276 -0.02594243 -0.016324168 0.056298994 0.19851853 0.23269512 -0.1060361 0.084650345 -0.114014976 0.07106735 -0.01347725 0.065272704 -0.034971137 0.21108449 -0.13053475 0.010787987 0.021651467 -0.23316653 -0.03981834 -0.07437965 -0.17285435 -0.09369629 -0.016813904
youth.n.03 0.13334991 -0.16289066 -0.004593975 -0.014885198 0.011539271 -0.062064588 -0.18766542 0.10516584 -0.1619062 0.14185694 -0.015742686 0.24481311 -0.008879549 0.041677076 -0.074427344 -0.047659766 0.040761 0.14860311 0.10393717 -0.1324364 -0.10150031 -0.22780935 -0.08963928 -0.06302388 -0.28814927 -0.35084787 -0.104448475 -0.16891424 0.09088969 0.22978076 0.24620655 -0.12757488 -0.14492059 0.0052214325 0.008068635 0.27062106 0.011178522 0.012744115 0.114872195 -0.07042779 -0.052458484 0.18626267 -0.23229255 -0.2865123 0.3832372 0.17267196 0.076171145 -0.09810885 0.12601401 0.012177363
