1000 50
old.a.01 -0.34405434 0.98110646 -0.36921912 -0.4238764 0.7986336 0.601817 -1.4354632 0.069466025 -0.21960364 0.006811193 -0.06335248 -0.21093187 -0.6394594 0.40899578 0.71189326 0.17688309 -0.49917376 0.47074237 0.20822735 0.53389645 -0.76576793 0.89746183 -1.1474848 0.40208313 0.20185532 -2.6795633 -0.23662496 0.3018631 0.252383 -0.065115884 2.817713 -0.7495896 -0.17195202 0.9843115 0.6946309 0.59622586 -0.21120247 0.64991784 0.66197956 -0.54230213 -0.2522136 0.24764411 0.111358576 0.4426071 0.6880945 0.08035212 -0.051956262 -1.0105754 0.12830266 -0.7852059
tidy.a.01 0.6315288 -0.12458702 -0.5635109 -0.8489979 1.0304412 -0.11968823 -0.14270972 -0.52303433 -0.17152193 0.117440134 -1.5295644 -0.7280227 0.16581166 -0.15295523 0.20869587 0.17294337 0.7568143 -0.019380804 0.7957682 -0.5974472 0.35781825 0.22370918 -0.54341024 0.48732755 -0.108775355 0.44423446 -0.4527777 1.28231 1.0408854 -0.6858539 1.3477792 0.48063937 0.20882472 0.7015142 0.37010923 0.81326914 0.12232045 0.68174714 -0.08764193 -0.9260869 0.040591948 -0.4577228 -0.028421896 0.8402325 -0.6724801 0.13605347 0.2904628 -0.28207144 1.0602618 -0.3785813
available.a.01 0.55149895 0.381987 0.4801511 0.085067905 -0.16779667 -0.17224647 -1.068809 -0.949974 0.5332926 0.10803426 0.3798035 0.27278712 0.6411146 -0.33309487 0.88442516 0.55281526 -0.5919351 0.21896014 0.2672882 -1.1116033 0.6338268 -0.28271624 0.46738663 0.748905 -0.28833827 -0.5487592 -0.40815055 -0.30404216 0.40963322 -0.1800519 3.8522203 0.023389582 -0.26122952 -0.58440274 0.8064683 0.66763806 0.6795401 0.3572138 -0.30835164 -0.42423636 0.84162 -0.13146952 0.25924495 0.59537 -0.2598314 0.21972251 0.09220378 0.6631164 0.024347052 0.41779357
warm.a.01 -0.17464367 1.3797954 -1.2925825 -0.17819227 -0.12081239 -0.62114686 -0.38484251 0.8386533 0.005724458 0.08621752 0.030771837 -0.22880675 1.6709296 0.56482494 -0.026906228 0.90149987 -0.2916274 -0.06647278 -0.59696966 -1.1638002 -0.41698843 0.72634476 1.1150931 -0.40610868 0.8543466 -0.45771185 0.0762463 1.7884539 1.1862097 0.7989636 2.9365704 0.84974486 -0.075123996 0.45284873 -0.14812909 0.14448772 -0.43276897 1.0217674 -0.16936037 -0.7455748 0.118214704 0.37401247 -0.39622778 -0.13582075 0.43476054 0.8563437 -0.05452586 -0.57910615 -0.613772 0.060805865
strange.a.01 1.4298173 0.8086716 -2.2251441 0.7520437 1.3488523 1.0721287 -0.13667798 0.45923123 -0.25953448 0.68626356 -0.6881794 0.5277816 0.2151137 1.0360525 0.99524844 -0.077348776 -0.22720498 -0.27382013 -1.4246708 -1.9574226 -0.46412233 0.9620593 0.12886034 -0.007844351 1.6590132 -1.9515334 -2.311812 1.192319 1.9240781 0.09113127 4.5222616 -1.0285475 0.31364802 -1.9303615 0.5053495 0.2345349 -0.21416022 -0.39102444 -0.77806336 -0.28131813 -0.5212241 0.37601194 -0.28880286 1.2895364 0.8349937 0.38714525 0.7287793 -0.1522379 0.20286739 0.68607545
odd.a.01 -0.5045973 0.43761802 -1.3333299 0.22236575 1.1797799 1.1074255 0.71907 0.14500913 -0.13603894 0.27510956 -0.5056525 -0.88434505 -0.5608845 1.4836719 0.44366232 -0.11367341 1.1289132 -0.5705807 -0.21498306 -2.2268784 -0.26803112 -0.16089106 0.30910587 0.27546623 1.5717925 0.12821603 -1.5196971 1.8129781 1.8933307 0.2719576 3.7937083 -0.19996288 1.333013 -0.7032886 -0.13645636 0.5461189 -0.026963895 1.7776484 -1.0549093 -0.22654982 -0.88322157 -0.29965627 -0.40809253 0.9268482 -0.16578326 -1.2493317 1.4696257 -0.179105 0.67624307 0.4283202
impermanent.a.01 0.7647813 0.049617637 -0.82307535 -0.21503386 0.005806586 -0.51764333 0.71151525 0.44240922 0.34687072 -0.2718341 0.36636528 0.118076876 1.3667262 0.114315435 0.64898217 1.1230588 0.30566067 -0.019269276 1.3458997 -0.8394586 0.07932214 -0.36561975 -1.6720994 -0.631702 -0.06804068 0.80464983 0.40802732 0.33632416 1.4504534 1.1147211 2.3846383 -0.6631337 0.020596938 -1.2635443 -0.22920553 1.9527858 1.5539225 -0.16700399 -0.5744554 -0.4135462 -0.6166543 -0.67836356 0.2452782 1.4834633 -0.2693482 -0.83089954 -0.14411005 0.36654133 -0.025572224 0.10898535
sensitive.a.02 0.255775 -0.2634918 0.13649619 0.28682965 0.7458065 0.21824196 0.3684251 -0.1033764 0.44224182 0.41705868 0.1454931 0.030212719 0.80761486 0.87629384 -0.065369084 1.0589168 -0.1456071 -0.22657682 0.47616646 -0.16782252 0.4673844 0.38400593 0.4153047 -0.14961508 0.5413581 -1.4601136 0.146459 0.64225024 1.0769923 0.095677316 2.797246 -0.7343128 0.6025871 -1.2353085 -0.085291855 0.22209875 -0.3502359 0.19251373 -0.78326946 -0.3572279 -0.16819364 -0.1648319 0.85181427 0.71369517 0.7424462 -0.11833765 0.30011398 0.9156243 0.1095271 -0.00908816
fat.a.01 -0.24794275 0.50814885 0.37516624 -1.0802133 0.64007986 1.5872885 0.6148933 -0.99337626 0.80601335 1.0271208 -0.23198928 0.33682838 0.69443023 0.4563492 0.32653117 0.093898185 -0.25592834 0.22636111 0.060563166 -0.50687987 0.029561438 -0.6902055 2.433401 0.6835772 -0.80765676 -0.90346825 -0.634158 0.9988155 1.499358 -0.38660046 2.5490327 0.63161224 0.24935453 1.2909949 0.18381605 0.060902804 0.3560352 0.97116566 1.4168577 -0.13869952 0.20600139 0.12208192 -0.034778442 0.5116176 0.8207006 0.4742867 -0.49415106 -0.7079779 0.66870666 1.065659
outer.a.01 0.73848855 0.7709147 -0.35415938 0.24055302 0.5166905 0.80296886 0.7483894 -0.4052012 0.72638816 -1.0242459 0.113271914 -0.21903877 0.47663254 1.453271 -1.4157169 1.3622644 0.4574939 -0.061329897 -0.6910682 -0.33251366 0.34664014 -0.41924974 0.3853047 0.04790318 -0.29903165 -0.9066499 -0.45320025 1.796736 1.0152261 -1.0378518 2.6281557 -0.3020238 0.2954138 -0.6428287 -0.5082675 0.5450769 0.21668962 -0.12040423 -0.37472233 -0.15812159 -0.2812014 -0.13958469 0.36945716 0.2067011 -0.89215124 0.21804085 0.6761305 -1.536733 -0.15692401 -1.0043849
plain.a.02 -0.40580612 0.6579995 -0.99409485 -0.33708245 0.40147367 -0.21508625 -0.09791391 -0.410194 -0.58607215 -0.88623184 -0.8104288 -0.2408532 1.3283019 -0.8298933 -0.46811265 0.58242786 0.35920826 0.66844815 0.041875508 -0.5211587 -0.39812687 0.030525403 0.6542659 0.64465714 0.31481043 -1.182962 -1.1978573 2.1756635 1.3356048 -0.71990085 2.2462707 -0.7086045 0.12929596 0.26008636 -0.08842573 0.6749248 -0.6207301 0.054355714 0.09169562 -0.29078138 0.87877357 0.3454484 0.44771934 0.45484042 -0.22514473 0.2732723 0.312447 -0.29514518 0.6707631 -0.7537919
structural.a.02 0.7552564 0.46315035 -0.017239658 -0.32688975 -0.35270378 1.4653561 1.0308927 -1.0271972 -0.1933299 -0.31846336 0.35990483 0.27492115 -0.87087375 0.34162125 -0.7724173 0.5268094 0.22879004 0.019649934 1.0327034 -0.7237399 -0.012770636 -0.95676285 -1.0790632 -1.3782544 0.43880445 -0.04691642 -0.7284992 0.05084531 0.24032524 0.44693086 2.840516 -0.4878566 0.36372462 -1.1104727 0.006960351 0.8917823 0.3146205 0.47829112 0.9316978 0.51471186 -0.7622243 -0.87032735 0.27505183 -0.0040462185 0.0989848 0.3898611 1.0134927 1.2450801 0.20246877 -0.17271674
objective.a.01 0.47503492 0.09782556 -0.15341882 -0.52049726 1.0814205 -0.15338111 0.953054 -0.20150511 0.59645224 0.09034293 0.40317383 0.2521033 -0.5889521 -0.12028163 -0.60333717 0.036255892 1.07686 -0.28469798 0.46288803 -0.079012215 -0.04886036 0.26868755 -0.11780695 -0.24587423 0.6573234 -0.90316415 -0.78779876 -0.30860043 0.42624176 0.546153 2.5782895 0.0470721 -1.0722034 -1.3911192 -0.17329784 -0.4265002 0.08879815 0.5478186 -0.86437714 -0.5036012 0.34260756 -1.3005717 0.35143828 0.073231384 -0.79774654 -0.35650426 0.44727114 1.585906 1.0361624 0.6083067
ambitious.a.01 1.2275615 -0.028046895 -0.16906093 -0.84510845 -0.06896965 0.37668028 -0.65392774 -0.7369886 -0.16583796 1.2236112 -0.7851897 0.029889114 -0.15660758 0.9701059 -0.078351155 -0.3631809 1.1799642 0.7579569 0.40275216 -0.014784711 0.5055092 -0.013959922 -0.9828621 -0.3125186 0.7983129 -1.2828466 -0.26953146 0.0061016963 0.0114082955 0.33673373 2.2854176 0.14419577 -0.852116 -0.26901287 0.06447111 0.020951435 -0.42462364 1.2884429 -1.2263578 -1.2295966 -0.7908581 -0.5567187 0.053903926 -0.34788102 -0.14245152 -0.096979015 -0.07700788 0.5952804 0.3944381 0.94142854
mobile.a.02 0.70532626 -0.6946879 1.6646628 1.1269722 -0.04842305 -0.13586167 -0.9424275 -0.8486995 0.95019144 -0.038332175 1.1811738 -0.4549965 0.28505808 -0.04651905 -0.62141085 0.6636711 -1.2653688 0.6742077 -0.41407728 -0.5665394 0.47729257 -0.23849154 -1.0170088 0.61113334 -0.1858033 -0.9420162 -0.06276266 -0.6960343 0.4017674 -0.12800328 3.0742898 0.41030502 0.11737647 0.1894002 -0.11367252 0.2353673 0.17918952 0.087385885 -0.7811672 -0.4329723 1.2710782 -0.18344888 -0.13053209 0.5456557 0.5200757 -0.10026321 0.12519565 -0.41220972 -0.21365571 0.1925581
ethical.a.02 0.07236527 0.3464566 -1.1624417 -0.48150742 0.34973913 1.2265584 0.86557883 -1.0970217 0.6512737 -0.2984535 -0.7109843 0.6628692 -0.6833275 0.050571017 -0.29338825 -0.088456176 0.389722 -0.09196526 0.6055723 -0.6386999 -0.12761328 0.6021542 -0.27940348 -0.651713 0.4686815 -1.3412507 -0.35660043 0.10694347 -0.053821478 0.6433052 1.6530597 0.14456052 -0.25325295 -1.3021591 -0.90843874 -0.18313777 -0.28221774 -0.21617545 0.11419047 0.16859618 -0.24927188 -0.92804754 0.4993481 2.536714 -0.013757263 0.18408377 -0.07818663 1.2926569 0.5530672 -0.25260863
bureaucratic.a.01 0.32654327 -0.9584279 -0.71683115 -0.019377109 -1.0568728 0.20772351 1.308856 0.25766438 -0.17777444 -0.57916945 -0.67866975 0.15524551 -0.902303 1.0188181 0.08782445 -0.63611466 -1.266849e-05 0.23365334 1.4961209 -1.0569615 -0.24542809 -0.5952331 -0.97322613 -0.41091746 0.21358667 -0.88283825 -0.4980059 0.7118477 0.97035253 0.98662674 1.8938662 -0.16775702 0.13006492 -0.059150934 -1.3370823 1.3060684 -0.5832292 0.47874367 0.23359345 0.1307428 -0.5951693 0.14364767 0.33298704 1.7705562 -0.52340776 -0.7210313 0.42216069 0.74812067 0.122434996 -0.41404015
grotesque.s.01 1.0009874 -1.5133193 -1.445915 -0.8471796 0.7827108 1.6269906 2.366619 -1.719674 0.099348165 0.77772456 -1.115443 0.16826823 -0.07717739 1.0198728 1.6141177 -1.4572775 -0.014555577 0.5290755 -0.7254202 -0.59116685 -1.2591913 -0.54042625 0.055249214 -0.7403662 0.6919259 -0.7704962 -3.103477 1.5515038 1.9921042 -0.1756155 1.0747759 -0.42888898 0.13033192 -0.948649 -1.8789481 2.2631602 0.4439901 -0.8622458 -0.9826591 -0.67389494 -0.97260004 0.14150918 0.23777173 1.0011411 -0.29336333 0.2075175 0.80837435 -0.49131048 0.9217012 -0.43226424
exotic.s.02 0.94888335 0.52168715 -1.5898052 0.43879005 0.30773738 0.322759 -0.7203789 -1.1225666 0.21804076 1.1389799 0.08874448 0.7380611 1.6697785 0.47603425 0.5914895 0.58517563 0.39572442 0.5387013 -0.5771242 -1.1668664 0.13917337 -0.047436066 -0.13007888 0.4923064 0.45365888 -0.47704068 -0.6688354 0.48696283 1.1775602 -0.5091137 2.0753124 -0.085725896 0.39769858 -0.33815828 0.8113531 0.8497775 -1.0496747 0.27834368 -0.8688598 -0.42395884 -0.28530324 0.24220172 1.0260293 0.7894897 1.3168807 0.27432945 0.57859707 -0.46038303 0.3400742 -0.30156258
high.a.01 -0.6347042 1.2342654 0.19113 -0.76599157 -0.09092121 -0.016741375 -0.16428615 -0.6067414 0.5260644 0.42559597 -0.26346156 -0.66326654 0.1841832 -0.5937976 -0.47191525 0.37227583 -0.2691328 0.3728851 -0.781704 -0.62715214 0.08625635 0.091096126 -0.4005182 -0.26591033 -0.47446737 -2.006803 0.48260486 0.51578856 0.025575237 0.11033976 3.5963244 0.050781786 0.58274436 -0.8133643 1.174452 -0.3074524 -0.07419543 0.14621456 0.6146126 -0.43860275 -0.65662605 0.37809744 0.18281265 0.46384877 0.1158608 0.05471171 0.7749334 -0.530929 -0.13456224 -0.059211817
social.a.02 0.0020594574 0.94250584 -0.40567696 -0.42145908 0.019326258 1.0243692 -0.0018005094 -1.2903235 -0.56447124 -0.019844303 0.06931104 -0.19807523 -0.18932556 -0.03087518 -0.2345542 -0.5018924 0.22393426 -0.17086755 1.3225548 -0.020027893 -0.08057286 0.3841881 -0.7777189 0.27567208 0.5677198 -0.96447486 -0.53457 -1.1937888 -0.40225986 1.1119593 3.6438417 0.9050852 -0.30359873 -1.6864421 -1.5729934 0.29173994 -0.8063962 0.09761296 0.38851494 0.07205805 -0.45421228 -0.30554202 0.052524596 0.6427531 -0.075445265 -0.11184333 -0.2882689 0.10739684 0.82915485 0.20478368
easy.a.01 0.085169174 -0.20220183 0.24979973 -0.10487677 0.29660064 -0.15977657 -0.28121457 0.2231549 -0.023200274 0.79188603 -0.62253004 0.2750942 -0.13015579 0.14313146 0.07471149 0.18315442 0.7188716 -0.50659126 0.16216762 -1.1247283 -0.4887398 0.18100274 -0.03445493 0.44249207 1.2242872 -1.5078868 -0.4556852 0.116473086 1.3807179 -0.8353217 3.2551925 0.5027392 -0.61406463 0.002617198 0.28626934 0.16937749 0.046106506 0.8775182 -0.22866765 -0.9696098 0.4419218 0.074703954 0.21807915 0.7722286 0.30127242 0.24651599 0.72984195 -0.014654121 0.6458039 0.5687179
poor.a.03 -0.5305283 -0.3019087 -0.23784456 -0.87042475 0.14860353 0.17852251 -0.55041766 -0.073130034 0.15978916 0.42360637 0.105792806 -0.20256177 0.4674623 -0.75140077 0.39262095 0.111123785 0.31091896 -0.18436944 0.49920753 -0.4840332 -0.39396754 0.39683613 -0.31601498 -0.057124253 0.59922945 -1.2957171 -0.29999596 -0.28302065 0.6775324 0.6106132 3.831093 0.8485925 0.5643958 -0.3666318 0.021329932 0.47908142 -0.31689882 -0.07963019 0.6964652 -0.6688495 -0.88245386 -0.01585278 0.7472536 0.5644022 0.32747787 0.2551498 -0.55420125 -0.04946754 1.0398731 0.007406367
inactive.s.10 0.8488253 -1.4581972 1.4053465 -1.8032527 2.836624 -0.71111506 0.09052375 1.2572633 0.1479709 -0.9128697 1.7752728 -0.47059962 -0.2676908 1.9673086 0.65285623 1.1811826 -0.3465476 0.537557 -1.2675986 -1.4278402 -1.9659134 0.20474668 1.6979761 0.658619 0.048913818 -1.4630829 0.5365595 2.7612855 2.888454 1.7418766 6.7401834 -1.4356489 1.8413866 -2.3664813 0.116462596 1.7591057 1.5413636 0.38068885 -0.6572443 -1.5176729 0.05437354 -1.7879403 -0.061098613 2.8428588 -1.7089456 -0.09875345 -0.07528303 -1.0050989 -0.85620934 -1.2608299
abundant.a.01 0.40808785 0.7726266 -0.5495227 0.1695235 0.56500363 -0.30674753 -0.428204 -0.2782744 1.3748524 0.90538186 0.28277987 0.32713583 2.0441554 -0.4628044 -0.14699967 0.61372787 1.191106 0.3051712 -0.11901008 -0.58303785 -0.33707172 -0.88378924 0.8231396 -0.53050786 0.60722923 0.117303714 -0.35565725 0.69451135 0.97402793 0.7152957 2.1938884 -0.20520887 0.8750451 -0.76913035 0.41744447 0.7381161 -0.9858388 0.7189833 -0.20066105 -0.26214954 -0.42316982 -0.054124553 -0.20002316 0.41108 0.42736462 0.1509006 -0.35803524 0.012010269 0.0689475 -0.5065986
green.a.03 -0.41585952 -1.0893089 -2.3189552 -0.6886621 2.6110754 2.6467547 -0.8222078 -1.9856619 -0.6923019 1.1733654 -0.099812776 0.3743911 4.136197 0.016284468 -1.5085014 0.030562457 0.7415724 0.70549566 1.0824233 -2.0008674 -3.0030613 -2.1899679 3.5078213 -0.5466634 0.45666796 1.4202335 1.5577257 3.4699814 2.3887436 -1.699204 2.5708475 -0.4109911 -0.556491 -0.51080716 1.1091402 0.86770123 -1.4886317 0.85269713 -0.6325005 -2.5164945 -1.5831745 -2.394573 -1.5682758 -0.38467473 4.0806084 -0.2433892 0.037789296 -1.2304223 2.7802787 0.00862082
urban.a.01 -0.17219034 0.38765037 -0.027034078 -0.36579454 -0.5355673 0.09161433 -0.63648266 -1.3083853 -0.11891015 -0.01238028 -0.14284706 -0.9569621 0.42557132 -0.21166693 -0.50202507 0.21597034 0.91859776 0.5294698 0.30335304 0.3990561 0.07982569 0.094259575 -0.9334445 0.86642486 -0.26546353 -0.31607822 -0.71234286 -0.24347313 0.41314846 0.48481995 3.196529 0.25230673 0.48658264 -1.6226118 -0.14268908 0.8660673 -0.28256664 -0.17362271 0.26161557 0.31182113 -0.94389325 0.07330566 0.29778886 -0.046846554 -0.1792823 0.17345434 -0.24215877 -0.61809146 0.70049196 0.16275468
exact.a.01 1.3150076 0.4861337 0.21826908 -0.03585072 1.1948957 0.24304472 0.38942772 0.23889358 0.23765601 -0.4760759 0.21992332 -0.06508455 0.10413692 -0.4224972 0.911258 0.6501299 -0.24175906 -0.94651294 -0.012147656 -0.4464603 -0.124821894 -0.54797363 0.09445067 0.21660042 0.84216076 -0.7488592 -1.6840643 0.059601225 0.84863865 0.17470282 2.3486452 -0.7987178 -0.65114594 -0.86837584 1.0136122 0.0150339175 0.89357364 0.122495525 -0.50861186 0.33503976 0.3246125 -0.388768 0.09711131 0.34619626 -0.49557078 -0.7086342 0.990789 1.3052765 0.692714 -0.055010844
thirsty.a.02 -0.11774808 -0.47287494 0.45963252 -0.43359154 -0.065457426 -0.7337233 -0.15801679 0.47461897 0.80173707 0.7657539 0.5765832 0.16086316 1.3020858 0.25657585 0.37426344 0.769561 0.22333273 1.593921 0.26953918 -0.46650088 -0.5274656 0.2483089 1.1186118 0.4487848 1.01323 -0.5583181 -0.24773435 1.0808593 1.3456994 -0.094854996 0.5749774 0.9571452 0.21034159 0.66123956 -0.25250226 0.18364996 -0.49126202 -0.29523888 0.3921532 -0.33415493 -0.33983323 -0.25672013 0.16275562 0.5114817 0.8835082 0.20368117 -0.58869916 -0.40773872 0.070788346 -0.3033419
operational.a.01 1.4084587 -0.08537596 0.4480682 -0.078636624 0.037590634 -0.41979277 0.35697162 -0.30479902 0.9253042 -0.8318345 0.74366075 0.36380005 -0.91932696 0.060805116 -0.6493354 0.2918081 -0.37317976 0.80434585 -0.5495371 0.1426978 0.12572531 -0.47228357 0.0020122777 -0.7107747 -0.28498498 -0.7038113 -0.4890096 -0.4459259 0.5982361 1.0911326 3.0369694 0.06464433 -0.088492356 -0.8095017 0.8333691 0.6454877 0.72481024 0.6214988 -0.8300951 0.34371698 -0.2357293 -1.0415994 0.2463126 0.07289607 -1.0505965 -0.21799158 0.41250896 1.2323943 -0.32468268 0.8534951
vocational.a.01 -0.6558946 0.7642982 -0.6536729 -0.66641194 -0.23255906 0.0141049195 -0.27792713 -0.44266793 0.49583027 -0.550141 0.29983404 -0.36636707 1.0366893 -0.600213 -1.2008785 0.045862533 0.035085596 1.0825194 0.977906 0.23368856 0.8296364 0.6605526 -0.6183679 0.26773873 -0.03392289 0.014798616 0.75494677 -1.3045478 -0.89953804 -0.3886607 2.4088595 0.9812943 -0.09744877 -0.8841474 1.3776748 1.1304145 0.07220135 0.98168606 0.7447468 0.0013504954 -0.7462427 -1.1032559 0.29411706 0.8123757 -0.1537368 -0.7597704 0.8768368 0.7949435 0.15839912 0.4680893
potential.a.01 2.3744757 0.6395151 1.2477286 1.0890012 0.33626845 0.9995999 0.367169 0.89392346 1.0210425 0.5491572 -0.26199433 0.31698793 -0.48025337 0.2812651 1.230541 0.6787249 1.3786892 -1.1369004 -0.58834064 -1.5350341 0.34250703 -1.4982768 -0.20860302 -0.142904 0.19797868 -3.1593695 -0.5253125 -0.76694816 1.0521166 0.74212056 6.285279 0.7499061 -0.40075758 -2.6580992 0.4687106 -0.061802715 -0.33713707 -0.2474834 -0.8082625 -0.92176384 -0.909915 0.3412667 0.284613 0.9384989 0.7480023 -0.34693483 0.07479473 2.1184082 0.399667 0.26354578
personal.a.01 0.02475842 0.9984603 0.27673072 0.17439911 0.78245336 0.48266003 -0.20813978 -0.30723336 0.05500796 0.33291385 -0.36899036 0.7902529 -0.57794625 -0.68420035 0.65564096 -0.41525948 -1.0172031 -0.34723997 0.76427823 -0.60095614 0.35480905 0.6319262 -0.5080584 -0.71163106 0.38850117 -1.6491907 -0.8409524 -0.81439656 0.65068865 0.3921968 3.0801284 0.59883946 -0.0025763821 -0.7437314 -0.23898426 0.32604754 -0.5384405 0.42545277 -0.59776324 -0.38133562 0.62376153 -0.09939445 -0.18371074 1.24915 -0.16206415 -0.4500968 -0.3539926 0.337682 0.050920263 0.11592641
covetous.s.01 0.9543375 -0.10969088 0.034505468 -1.3134043 2.0326605 1.5231643 1.7553751 2.7767768 -2.6767309 2.2058237 0.71204686 1.2907963 0.712698 1.4814159 -0.57352906 0.97168916 0.3811794 1.6567063 1.1446296 -0.95057905 -1.1650435 2.318167 0.8462433 1.6415689 2.2881386 -1.276254 -1.5833048 1.5897365 1.1858046 -0.2938997 -1.3426577 1.8980978 2.3030832 -1.2411578 -0.8932738 -0.19216642 -2.2823093 -1.0973322 -0.43189228 -2.5940065 -0.039921574 0.6446511 -0.9712001 1.3553201 1.5515147 -1.5115663 -0.7337328 -1.5941178 0.34948504 -0.5055051
rich.a.01 -0.12806581 0.81996644 -0.5719475 0.53956205 0.97571844 0.14303404 -0.691416 -0.09325996 0.12521017 0.76588464 -0.18196552 0.3364109 0.84729695 -0.06731424 0.28993684 0.31510207 1.5196333 0.0014316381 0.5824143 -0.16784677 -0.27851853 0.09326362 0.50060356 0.057880227 -0.3197816 -1.0146115 -0.42084843 0.39613435 0.9084132 0.057023916 2.7540164 -0.27233532 0.41289887 -0.14810398 0.3136023 0.51172 -1.7890438 0.58404726 0.14758572 -0.37868458 -0.25259817 0.9135 0.34139922 -0.36734623 0.03773702 0.34509033 -0.7520501 -0.34130678 -0.4602017 -0.15460956
first.a.01 -0.10746302 0.48433754 -0.39398348 0.10663279 0.3270276 0.45559308 -1.2622951 -0.070982665 -0.13663927 -0.17836165 0.38309705 -0.06645177 -0.6213882 0.4062787 0.6462636 -0.52391917 -0.35312632 -0.14660504 -1.5634954 0.27726224 0.13345034 -0.18717524 0.017886372 -0.04462471 0.16537726 -1.6458681 -0.28470713 -0.5860709 -0.38170537 -0.1936503 3.6456766 -0.14623241 -0.43062416 0.050237373 0.48167354 0.020196637 0.7011578 0.6076122 -0.22274876 -0.5001292 -0.14336753 -0.33347237 -0.47718132 -0.37740654 -0.43512613 0.33954453 0.17429122 -0.30539757 0.014895636 -0.14366888
negative.a.04 0.12478365 -0.17032924 0.37226573 -0.28374454 0.46141636 0.82807153 0.87600034 -0.41450268 -0.17108496 1.2477387 0.13735917 0.008143555 -0.22035703 -0.31449604 0.2898134 0.38628873 -0.028555611 -1.034115 -0.4972803 -0.7510067 -0.010465281 -0.4032001 1.125883 -0.29131722 0.6706934 -1.1911745 -0.8411021 0.7321275 0.74944323 0.62039083 3.1371706 0.45827365 1.0633554 -1.5644267 -0.96533394 -0.80116653 -0.25852385 -0.4703387 -0.52002454 -0.68245083 -0.13822326 0.04635771 -0.26361164 0.54846907 0.34660107 -0.29703456 0.27090606 1.1611794 1.0724576 0.59444916
daily.s.01 0.052609235 0.7079105 -0.17550804 -0.22531168 -0.41075468 -0.8171906 -0.5148248 -0.08474905 0.5637635 -0.13000655 -0.23695579 -1.0399742 0.22393699 -0.28166756 1.0310576 -0.635272 -1.106357 0.11819167 -0.4334443 0.3698706 0.73944056 0.1274488 0.8334806 0.8442165 0.19539012 -1.401454 -0.61548597 0.49554288 0.41815463 0.72210675 3.5985262 0.15684336 0.37066987 0.9435709 -1.3267354 -0.33971393 0.14946744 -0.19199581 0.5109042 1.0417641 1.210952 0.2701994 -0.20071204 0.38663676 0.32399794 -0.5047528 -0.62538373 1.106957 0.29109874 0.52150065
adequate.a.01 -0.27508584 0.5544159 0.071081735 -0.84169 1.5078347 0.34964788 1.650748 0.024684599 1.8029294 0.48028183 0.71733904 0.041205198 1.2474262 -1.2615741 -0.02004574 0.2379548 1.1466339 -0.18252951 1.1663696 -1.9887687 -0.10222695 0.1809565 -0.10566878 -1.0440252 -0.008493823 -1.1047105 0.13180439 -0.5664954 1.2145544 0.89709777 6.083377 1.0528712 -0.3951166 -0.93412215 0.4923917 0.40991324 1.1351116 0.7503025 -0.13087182 -0.6684968 0.54625875 -0.8026324 1.0811118 1.2578017 -1.9261937 -0.45108855 -0.61698675 1.6714762 0.056899726 1.0677253
sweet.a.01 -0.36598083 0.548344 -1.6932893 -0.2118521 1.4444822 0.5975347 -0.19617055 0.15552098 -0.30690342 1.4100949 -0.4839619 0.33439988 1.001878 -0.2231117 0.54659444 0.3129412 -0.3194528 0.36468986 -0.5350428 -0.83368737 0.14192471 0.36765334 1.5328692 -0.22745015 0.29702502 -0.6609323 -1.2327925 1.3600436 1.7062095 -0.45916638 2.5879037 -0.39711657 0.0060441 1.3978055 0.79573214 -0.50330514 -0.44610414 0.29354042 0.6762306 -1.3454723 -0.11846155 -0.25113824 -0.738987 -0.6411635 1.0690286 0.9060177 0.40336454 -0.80199873 0.058331195 0.4987776
wet.a.01 -0.56438804 -0.006527618 -0.70283717 0.17022981 -1.0158874 -0.31388825 -0.5099858 -0.110243 0.64385074 -0.602598 0.18041411 -0.13208953 0.5777911 -0.12133124 0.5332541 1.4261168 0.13159636 0.03613777 -0.45856127 -1.6653596 -0.51397693 0.71416557 1.2911724 -0.10817471 0.44210613 0.4177762 -0.2799772 1.8677125 1.8674109 0.6114497 2.7203236 -0.22973748 -0.30636746 0.5775703 -0.21752858 0.7253817 0.2335728 0.6893211 0.8784788 -0.6042491 -0.36001697 -0.19342327 0.15706226 0.72469544 0.6129241 -0.14161834 0.547517 -1.6741247 0.62126744 -0.36120394
discreet.a.01 1.0786293 0.14342561 -0.99632204 -0.25963187 0.4930192 -0.28340557 0.5613703 -0.07814663 -0.33755228 0.55346864 -0.4281088 -0.036304012 0.23170117 0.4433577 -0.17609932 0.21178 -0.3339461 0.027321352 0.4870687 -0.8265552 0.029325875 0.97999233 -0.31505898 0.21538165 0.086943135 -0.4483667 -0.323907 0.77385694 0.7361525 0.28367385 0.9937045 0.024473256 -0.09711489 -0.08767159 -0.07634048 -0.117533214 -0.27607498 0.18375188 -1.3031523 -0.6060627 0.6641201 -0.12795128 0.1966997 1.2087215 0.16226746 -1.0556084 0.46216705 0.27583072 -0.2514404 0.15535368
qualified.a.01 -0.594822 0.11471465 0.114097774 0.028365709 0.4497475 -0.03495238 -0.2834754 1.2184203 0.099825025 -0.42637417 0.93231136 -0.12792525 -0.1365321 -0.18895951 0.6729423 -0.31288165 0.78003144 0.19399264 -0.32356095 -0.9746026 -0.62869763 -0.36958176 0.16727227 0.8677113 0.19637026 -1.1088816 -0.022837132 -1.2488437 -0.8541116 -0.02166269 2.2307584 0.9643182 -0.5834819 -0.71478516 0.8165893 -0.04512603 0.6898909 1.5081983 -0.32763726 -1.2842337 0.1388801 -0.8816053 0.62992686 0.73537487 -0.61344534 -0.2694236 -0.2404056 0.39798614 0.6251162 0.32299638
unfortunate.a.01 0.6804625 -0.44866776 -1.2210948 0.2748261 0.58048886 0.62650186 0.5502961 0.9857753 -0.31405008 -0.0382134 -0.3862775 0.3008792 -0.5925101 -0.43212274 1.0455067 -0.024447145 0.2723296 -0.26095724 -0.20016675 -0.34158978 -0.7052974 0.18590832 -0.16827908 0.07902458 1.4928524 -1.1198153 -1.2300931 0.38550112 1.1106428 0.27707514 1.3672968 0.11616599 0.18293539 -0.66604996 -0.39120966 -0.14185688 0.45755416 -0.42087346 -0.5066095 0.014710393 -0.5684796 -0.17858495 -0.234887 0.48425087 0.13172442 0.08521458 -0.12129729 1.0311209 1.1999867 0.57012945
civic.a.01 -0.11421445 1.1085457 -0.3191838 0.13195491 0.11259182 0.52985185 -0.48279515 -0.6721089 -0.68032116 0.22505596 -0.08826895 -1.047867 -0.18556696 0.13107996 -1.0477375 -0.5769168 0.01663187 1.2942344 0.7960032 -0.8512068 0.14917956 0.3713449 -1.6329002 0.26716238 -0.6549337 -0.6718326 -0.42734548 -0.23803 -0.55085814 0.14616705 1.9534943 1.2116979 -0.8004944 -1.3683385 -0.65229654 -0.42858145 -0.008698738 -0.3545923 -0.0047639497 0.34163263 -0.29177758 -0.9433071 -0.59997433 -0.10729219 -0.18802181 0.42962116 -1.5166672 0.042558413 0.35739458 0.19240546
alike.a.01 1.2629383 0.13466331 -0.24237068 -0.84158796 0.3710281 1.0280468 -1.6630441 -1.1294245 -1.6163497 1.0921217 -0.33877525 0.48119974 0.52915597 0.52117676 0.5104362 0.5881719 0.74751043 0.23793042 -0.11787257 -3.1061847 -0.8019552 0.43290126 0.17506911 1.3224372 0.27543476 -3.794301 -2.8340068 0.014785592 0.44982535 -1.0700642 8.18266 1.0472293 0.30523565 -1.745729 0.10538472 -0.1724751 -0.8128167 -0.76189107 -1.3849512 -0.4127432 -0.5522641 1.0763364 0.4279555 1.7382054 2.1675375 0.8482629 -1.0717691 0.040229984 -1.0366821 0.09667682
effective.a.01 2.3326309 -2.6303782 -1.025881 -1.8304797 -0.23427153 -0.5733113 3.1439114 -0.47337112 1.8640635 3.7865949 0.056778003 0.21933836 2.0209858 -0.78922194 -1.0973301 0.008772394 1.3232012 0.9029626 0.49015686 0.178346 -1.4911841 0.5613883 -0.76786596 -1.0093932 1.1189861 -0.014366755 0.68802845 -1.0207648 2.8124704 1.6660379 3.1657488 -0.19016373 -0.76877385 -0.9938294 1.2074779 0.47469512 1.9560239 1.5449106 -2.578351 -0.027719676 -0.33366233 -0.2581662 0.5570547 2.9928563 -0.05155476 -0.01060102 -0.503457 1.7550744 -0.054522716 2.6270075
autochthonal.s.01 0.8392453 -1.1193162 -2.7986014 2.4140005 -0.14513308 2.569686 -0.31351942 -2.0595903 1.3145964 -0.67164284 1.8335228 -0.6203977 4.830376 -1.928539 0.22753178 -1.3396118 1.1078247 2.176298 -0.00638591 0.28085995 -4.6353807 -1.2849283 0.5776748 1.3685031 1.766564 0.16153048 -0.3256437 -1.1247675 -0.50369513 1.4203326 4.1334667 -1.319436 -0.37270823 -0.9437777 -0.7606171 0.5886226 -2.334612 -2.2325974 -2.2479732 0.47668907 -1.8503426 -0.7529397 1.3444144 1.4934454 0.24008965 0.92606694 -2.0398111 0.25280645 0.48599726 -2.8888886
laic.s.01 0.82838947 0.37130558 -0.2656998 -2.1849854 1.4441814 0.41860268 0.10635838 -0.7841702 -1.0767488 0.04103084 -0.37363207 -0.73445934 -0.6758308 0.8903861 -1.2787409 1.0018988 0.45502612 -0.91168696 1.9743503 0.27722645 -0.58316654 0.59714925 0.1642921 0.45242333 -0.66948944 -2.2876954 -1.4016571 -0.29069144 -0.32254547 0.6081075 4.654332 0.2184232 -1.3511945 -0.07537339 -0.8081925 0.11658651 -0.24199545 0.06289468 -0.18425351 0.9749472 -0.6975805 -0.5289679 -0.56504244 1.7678037 0.13852672 0.7744888 -1.8446584 -0.51541054 -0.34488216 -2.1677003
firm.s.03 -0.08935818 -0.23181166 0.36706594 1.0004023 1.0494891 0.45018545 -1.1541603 -0.07046872 0.02617639 0.41936508 0.31238198 0.14560446 -1.1887362 -0.46512648 -1.5367843 0.020881087 0.32004392 -0.3328348 -0.32678548 -1.4817613 0.901125 0.5100103 -0.98003966 -1.5887269 -0.77016366 -2.847957 -0.18134484 -0.2274828 -0.28378645 1.1643281 6.4821754 -0.21152733 1.1064006 -0.48413622 -0.5813116 -1.7585267 -1.6236151 0.1689691 0.6629748 -1.4028763 0.580633 -0.28598595 -0.02450152 -0.30942085 0.7572079 0.07939046 -1.1156695 1.1553162 -0.23487243 0.9692462
weak.a.01 -0.26778784 -1.1482358 0.598914 -0.49367386 0.34460068 -0.33380154 0.3508038 0.429676 -0.2517827 0.5598086 0.71721476 0.08256809 -0.34581292 0.30233368 -0.37113148 0.47693822 -0.28787082 -0.79791486 0.35728925 -0.5084634 -0.5369485 -0.46928802 0.04670158 -0.28666547 -0.055534184 -1.1177064 -0.098826565 0.4396498 0.70751315 1.2132345 3.2738488 0.13337407 1.4047437 -0.30627707 -0.1877305 -0.16426611 -0.6036077 -0.06040927 -0.39084825 -1.0672313 -0.58226526 0.021170385 0.12722936 0.0881795 0.56509084 -0.064776696 -0.09475351 0.22726503 0.6979054 0.06776604
outdoor.a.01 0.117226936 1.964625 -0.86140776 0.6525578 -0.23775893 -1.8116112 -1.4954107 -0.25660196 0.63370115 -0.35072592 -0.7750498 -2.6855345 0.3857548 0.6005285 0.56319684 0.9924575 0.76588225 0.8027019 -1.3878183 -1.7195148 1.5058051 1.0097594 -1.4052764 1.1103777 -0.73707664 -1.6151186 -0.214245 0.92964953 0.74297523 -0.46137545 5.3758965 0.5444585 -0.15209836 -1.068609 -0.47930488 1.3352923 0.8274551 0.9602338 -0.043770537 0.57576346 0.32058606 0.25480676 0.113311425 1.4652207 1.323641 0.2652274 -0.42231143 -2.1875792 -0.4154564 -0.5738545
sad.a.01 0.24052478 0.61508274 -0.9067563 -0.282795 0.90063006 -0.4871896 0.78308666 1.1699116 -0.92914534 0.58535266 -0.5066124 -0.5318875 -0.3582195 0.035834868 1.275319 0.13260137 -0.14594638 0.5033524 0.46410674 0.16425425 -1.1716254 0.8030178 0.15351878 0.69883704 1.1470953 -1.1330254 -2.0104728 1.3698065 1.2247946 -0.17350598 1.9507695 0.17083523 0.5922683 -0.033907257 -0.2930764 0.24256937 0.4899344 -0.5781652 0.44615495 -0.35384816 -0.6535962 -0.024393754 -0.2999743 -0.2929216 0.066916615 0.75230813 -0.18719819 0.34491372 0.117008 0.6036638
comprehensive.a.01 0.3102821 0.5788533 -0.81533974 -0.4350024 -0.42449918 0.13076241 -0.34352404 -0.8246221 1.5142703 0.1893609 -0.6645029 -0.2415164 -0.0063035004 -0.23766038 -0.52513707 -0.095033444 0.48034245 -0.52011716 1.1894338 0.6031768 0.42179558 0.116480984 -0.5723952 -0.4395197 0.29835206 -0.6945452 0.1096585 -0.3427329 -0.063029125 0.055488832 3.1569824 -0.5536104 -1.3126721 -0.8778377 0.33104452 0.013936684 0.536799 0.6549102 -0.43122002 -0.6263507 -0.1421142 -1.6034708 0.260112 -0.14504182 -0.16261955 0.6778995 0.6584456 1.7707533 0.1936098 0.61224544
impressive.a.01 -0.33098513 0.5131267 -0.21501996 0.21083334 0.6149791 -0.30672687 -0.41520205 -0.021648606 0.08398623 0.978171 -0.6266242 -0.6211807 -0.5950472 -0.09446544 -0.012520009 -0.7265318 0.64103377 -0.41836745 -0.7858778 -0.6057091 -0.7459006 -0.026073514 -0.59829336 -0.77088386 0.5422876 -0.23480897 -0.6792382 0.13395283 0.01868831 -0.11199244 2.599867 0.47078684 1.0655688 -0.25362098 0.49412623 0.6243605 0.3390289 1.503002 -0.85700583 -0.978413 0.0062329494 -0.29288143 -0.41281226 0.0038533828 -0.22606151 0.5123425 0.35544813 0.20921779 0.14501268 -0.18541382
constitutional.a.02 -0.64418155 -0.028542874 -0.92245555 0.012509747 0.3457625 0.7463194 0.85080814 -0.15136003 -0.19376543 -0.33275005 -0.34913453 -0.09598189 -0.0109099075 0.35795692 0.0678114 0.40771303 0.09159389 -1.2619487 0.97705966 -0.141394 0.19611624 0.22645456 -0.6668734 -0.6300283 0.12399564 -2.1081803 -0.074215405 -0.96067095 -0.39321566 0.75020945 2.4698596 -0.55231726 -2.382852 -1.078088 -0.3880714 -0.56092227 0.46257713 -0.05976965 -0.30159494 0.26906818 -1.0052948 0.0017298494 0.19234441 1.2309823 -1.8071415 0.9079767 -0.58538 0.23976949 0.024232809 -0.6832527
violent.a.01 0.37902722 -0.9440985 -0.3038353 -0.23946685 -0.4830841 0.46159628 1.052014 -0.104995534 -0.64995575 1.181049 -0.5091071 -1.2708807 -0.5207501 0.11513315 0.65837526 -0.6656234 0.03158989 -0.08870065 -0.65293175 0.36986935 -0.37578255 0.5006507 0.35622317 0.73742145 -0.3049669 -1.33174 0.20008782 -0.31664875 1.0708475 0.908469 2.8587663 -0.3496445 -0.16845082 -1.491503 -0.52721447 0.37635863 -0.42092416 -1.785945 -1.1913028 0.18652959 -1.1396197 0.63799137 -0.16838399 0.13828084 1.2429663 -0.48542404 -0.20621167 -0.50566447 0.26731062 -0.13107276
marine.a.01 0.60578406 -0.0474405 -0.3797736 0.80092883 1.0629406 -0.82620406 -0.7088579 0.13361959 1.0744469 -1.8156377 0.6103059 0.8280757 1.1739309 0.58567196 -1.1285655 -0.38258815 0.2979834 0.7387396 -1.7795187 -0.25824952 -0.3308715 0.06639678 -0.035499807 -1.2528169 -0.4317138 -0.9432252 -0.1164008 -0.43960404 0.21206355 0.74409586 2.1538546 -1.2381405 -0.07061884 -0.63239324 0.8572067 0.61929095 -0.34390333 -0.60334086 0.5354562 0.23628266 -0.50499994 -0.45053193 1.0313641 -0.035070825 1.1263057 -0.21232015 -0.1568377 -0.48336533 -0.2104845 0.61742777
junior.a.01 -1.7928755 1.0475177 -0.14105593 0.19014582 0.32777825 -0.20330617 -0.42113772 0.19357273 -0.45896724 -0.7282432 0.6766343 0.23954889 -0.6831828 0.3923043 0.10713131 -0.055458087 0.17815633 1.0494016 -0.6737483 -0.48224422 -0.70370865 -0.07271904 0.08405513 0.5836929 -0.5116785 -1.4583358 0.3124363 -0.67345226 -1.1928222 -0.19813037 2.2307203 0.69505227 -0.25532427 -0.51573986 1.0920198 0.6275219 -0.11250067 0.7348755 0.3995852 -1.1063937 -0.8402331 -0.16549875 -0.04290372 0.2137474 -0.021893345 -0.104148835 0.44128653 -0.73460233 -0.05018824 -0.16528237
loyal.a.01 0.5945162 -0.48568138 0.70328027 -0.9682174 1.3170514 -0.94505775 -0.31625018 0.93410283 -1.3175335 -0.176111 0.05393904 -0.39084196 -0.059584986 -0.2833657 -0.6949095 -0.043693796 -0.009541431 0.7285387 0.7659909 -0.46919653 -0.92579526 0.602256 0.22019866 0.7756319 -0.7116368 -1.5596303 -0.26548973 -0.5363539 0.2714757 1.1220187 1.9623693 0.36528102 -0.58811 -0.18445034 -0.036278524 0.36517447 -0.82459503 -0.19208501 -1.6783028 -0.5514733 0.5025232 0.47302523 -1.2212223 0.4373985 0.4020429 -0.40227184 -1.7677401 -0.8019282 -0.7863884 -0.13164724
ashamed.a.01 -0.006944829 -0.93870896 -0.45359147 -1.1629422 0.7095868 -0.19467197 0.37716612 0.8112853 -0.9455628 0.005371426 0.059812717 0.29173413 -0.20220765 -0.4078458 1.0880691 0.7694342 0.04234943 0.78679913 0.8976445 -0.34010863 -0.90668434 0.9732712 0.7128456 0.5094904 1.319072 -1.6534983 -1.10575 0.9981533 0.91367525 -0.65013653 0.47396353 0.7945664 0.1333654 -0.38482052 -1.0684208 -0.38534448 0.43076298 0.048985027 0.114489876 -0.748273 -0.38196534 -0.67008597 0.3668215 0.91132134 0.3444651 0.4058265 -1.1987437 0.108684696 0.46522573 0.5189481
cooperative.a.02 0.33596954 0.18036227 -1.3012671 0.505905 0.3516941 0.05876343 -0.7608099 -0.21425976 0.52675635 0.16894495 0.29090837 -0.018966895 0.52354085 0.32807136 -1.201942 -0.15201622 0.36951426 0.88666147 1.2862291 0.093564026 0.5791776 0.115507476 -0.27802366 0.023671662 -0.120773084 -0.42970133 0.6543476 -0.1583935 0.40344423 -0.4090858 2.7115483 -0.116359025 -0.6254863 -0.41088834 -0.3770817 -0.4500461 -0.9818734 0.59247875 -0.26848438 -0.057652548 -0.38074178 -1.8067706 0.1169183 -0.17947085 0.56939507 -0.08227471 -0.5237154 0.84982616 -0.0132390475 0.60789937
harmful.a.01 0.41267598 -0.3120084 -0.033688452 -0.38373646 -0.10848999 1.0104996 0.7208747 -0.81630826 0.5605614 1.6613059 0.46355164 0.46875587 0.8287178 0.41597298 0.3318975 0.65626544 0.7713438 -0.24206385 0.049828455 -0.6532634 -0.29774326 -0.4050205 1.1000121 -0.44809055 0.07968635 -1.0082546 0.049125116 0.46009782 1.928617 -0.028965184 1.6472304 -0.04315647 -0.21692853 -2.2188156 -0.83801514 0.2070771 0.14953844 -0.026423592 -0.16239174 0.4768061 -0.45989758 -0.37364006 1.178137 0.80214715 1.2287515 0.37523025 -0.94277 0.4482118 0.98355204 0.58859783
political.a.01 -0.18399465 0.38572952 -0.37573624 -0.020653674 0.30213907 0.4876993 0.42892274 -0.07379333 -0.79080546 0.075119786 -0.80513346 -0.36946523 -0.7356625 0.6954682 -0.22422856 -0.461136 0.85068446 -0.38727197 0.5615256 0.044272542 0.21106605 0.4724517 0.22432533 -0.19015181 0.07523321 -2.2429106 -0.5848682 -0.4949217 0.0635415 1.5663227 3.5176136 0.19336413 -0.91128343 -1.4053197 -1.1411548 -0.0782609 -1.4639456 -0.19958729 -0.5270095 -0.12048983 -0.767834 0.39525333 -0.6008886 0.6125744 -0.18482608 -0.235915 -0.62038463 0.5909268 0.027859306 -0.47408876
appropriate.a.01 0.5332211 -0.069484785 -0.8900107 -0.42823365 1.0551175 -0.21281871 0.94790614 -0.29902175 0.23640448 0.14490251 0.09191085 0.718642 0.65631956 -0.14426358 0.19324906 0.65572125 0.11417196 -0.3322555 0.9033954 -1.1811804 0.33069125 0.16305229 -0.18276373 -0.22547661 0.37782997 -1.0205144 -0.3822663 0.02270905 0.37889233 -0.21446955 3.1478634 0.21042104 -0.7530147 -1.2405804 0.2591794 0.2436239 1.0017205 0.2742981 -0.7483241 -0.37004444 -0.0153445685 -0.40671432 0.41373232 0.85787433 -0.04833963 -0.28088146 0.16873662 1.0809227 0.49579713 1.1996553
even.a.03 0.4197462 -0.050766468 0.22805214 -0.5343597 0.39315337 0.19383557 -0.59641063 -0.043008685 -0.33976698 0.4808834 -0.18596755 0.09672568 -0.14521731 0.080719404 0.87977725 0.645002 0.055078097 -0.18903407 -0.26386195 -1.2302206 -0.29832938 0.0737619 0.28673166 -0.07580649 0.42362642 -2.2658544 -0.7890583 0.49504015 1.0722471 -0.18137166 3.7830455 0.6277506 -0.092898354 -0.3618548 -0.0719815 -0.00085263455 -0.13929357 0.35333276 -0.25979146 -0.57013994 -0.4524377 0.36397076 -0.003327846 0.8418829 0.15789883 0.0881059 -0.098769 -0.10974595 -0.23023209 -0.040959504
vacant.s.01 -0.13220799 0.10878266 0.6326522 0.10124042 1.2669683 -0.89911646 -0.27176812 0.14756109 -0.56770706 -1.2144395 -0.3526781 -0.55756205 -0.26380977 0.41135976 0.92235947 1.3187675 -0.08065121 0.42511275 0.16212212 -0.9323675 0.103257656 -0.60003054 -0.51873946 0.2157936 -1.501521 -0.54265815 0.13877462 0.7808714 0.577032 1.0409033 1.5276893 -0.094322935 -0.025149489 -0.8242251 -0.14860982 0.93893844 0.0895049 0.65012586 -0.15498467 -1.2027584 -0.39915815 -0.12179591 -0.6354815 1.3728728 -1.1766094 0.06707485 -0.98604774 -1.6674483 0.05034 -0.53578204
muggy.s.01 -0.71084666 -0.17038375 -3.0503807 1.1674275 -2.070362 -1.8587213 0.8363274 1.453507 0.88960886 0.80690295 -1.7033015 -1.6860561 1.8987435 2.9068136 1.286113 1.2219929 -1.8075262 0.23519869 -0.74006504 -1.5047939 0.16466738 2.4191246 2.9916663 0.077242896 0.982412 0.9688049 0.43727925 4.7941875 3.8670259 1.376027 2.1047313 -0.2283412 -0.07360653 0.4059731 -0.20366672 1.3078829 -0.24636737 0.5329407 0.46996415 -0.6453432 -1.5698754 0.9695412 -0.10628766 0.55965596 1.6322087 1.6286252 1.9337072 -1.7190572 -0.27940995 0.21042041
complimentary.s.02 0.93327504 -1.022411 -2.024507 -1.426525 -0.06736375 -0.44960892 1.0794393 -0.5065775 1.5620453 4.630472 -1.2647412 0.18449633 3.5694292 -0.26245797 1.7982078 -1.0137545 -0.1797985 -1.2370378 2.92341 -0.8647951 0.24934861 1.539014 0.083058275 1.647215 0.13049252 1.0634811 1.815136 2.1622376 5.278507 -1.8747939 3.4193816 2.202902 -0.26618198 1.1730984 -1.1742802 1.2589 2.1096618 0.7110302 -2.9251883 0.66919124 3.3645794 0.71588904 1.1895115 3.3287675 -2.1007702 -1.7720689 -0.64914435 2.0711002 0.13902095 2.525629
critical.s.04 0.88678545 0.42080405 0.085007675 0.022318933 0.5762881 0.60649234 -0.040850617 0.6100999 2.0285587 0.8336494 -0.052524086 0.0011191018 -0.5567277 0.5772627 -1.3564342 -0.17887081 1.1511745 -0.8955621 0.96115893 0.22342311 -0.04032022 0.23056658 -0.18755782 -0.5260386 1.2671635 -2.30613 -0.5423566 -0.08028351 1.182481 0.7043433 6.0326624 0.47314605 0.45347863 -2.0921586 -0.2665083 0.82178307 -0.33113074 1.0938486 -0.69347334 0.026519062 0.12259106 -0.44733155 0.11051263 -0.39984772 -0.38446414 1.0102444 -0.5839379 2.0300033 0.7500496 0.1586374
ordinary.a.01 0.25852987 0.0035434088 0.10778055 -0.92900044 1.3765833 -0.026042799 0.4612019 -0.03856405 -0.4500781 0.24262567 0.2710347 -0.10036279 0.89808553 0.18406789 0.4326155 0.075012736 -0.024141148 0.12429434 0.14346948 -0.9958232 0.32057813 0.22559713 0.0664387 0.68939173 0.55620605 -0.9867003 -0.93118674 -0.5079871 0.7544855 0.28544056 2.5405333 0.58787066 -0.2362548 -0.3795556 0.08297199 0.16879131 -0.029537328 -0.32231584 -0.06331391 -0.029676452 0.14496683 -0.04543553 0.5893974 0.82586205 -0.047023617 0.14302142 -0.18039691 -0.057320744 0.3624704 -0.37191206
empty.a.01 0.5009107 0.17732751 0.5324213 -0.90800655 1.0996767 -0.34892753 -0.64263487 -0.07442035 -0.021733651 -0.28203693 -0.5657756 -0.7499783 0.091559514 0.6771529 0.54809237 0.49795273 0.33628297 0.19124086 -0.15994501 -0.985893 0.2057579 0.1358435 -0.054014172 0.2914911 -0.20558731 -0.7295493 -0.10107617 1.8710451 1.4198359 -0.2765233 2.3746805 0.18840118 0.13936915 0.2762942 -0.16430761 0.8988023 0.72021556 0.411875 0.36177266 0.15773547 0.33507052 -0.07804779 -0.06320451 0.87241757 -0.29010317 0.39324144 -0.51317096 -0.5483527 0.22558297 -1.0077461
well.a.01 0.3409935 0.35258788 -0.31047735 -0.3211912 0.2631781 0.2926822 -0.57391256 -0.29232746 -0.0894572 0.25064433 0.086199075 0.31303197 -0.16729303 0.11753449 0.15397666 0.24696538 0.5751143 0.33976203 -0.23228763 -0.7081868 0.0488455 0.17286746 0.45710295 0.1506279 0.087199345 -1.6640618 -0.69727874 0.06693371 0.2243975 -0.26663813 4.15639 0.3739247 0.10590788 -0.5681673 0.22431 0.3962926 -0.1736548 0.5997571 -0.14720663 -0.1888885 -0.0016551748 0.15489747 0.107682765 0.17583345 0.18343863 0.21858199 -0.24092527 -0.18625274 -0.18690866 -0.10254365
invisible.a.01 0.2760579 0.11947252 0.5040245 -0.54475576 0.66816765 0.5455806 0.48944655 -0.7300703 0.18734023 0.50805926 0.5932225 0.44440264 0.23728693 1.1020008 0.079995096 0.53980064 0.1460951 0.08344415 -0.32848296 -0.4350198 -0.5627024 0.1179705 0.07122246 -0.1255657 0.72260046 -1.0308285 -1.0451801 0.8911227 1.6126659 -0.48918417 1.5909501 -0.48240316 -0.012885529 -0.9224714 -1.2133672 0.6567527 -0.053177364 -0.4104595 -0.38938028 -0.5370381 0.30714476 -0.048184123 0.327959 0.6717167 -0.38566306 -0.4028131 0.3090027 -1.0706798 -0.1255793 -0.5503212
decisive.a.01 0.17944367 -0.678154 -0.21350361 -0.13227162 0.59421164 0.11552489 0.907102 1.420638 -0.4971716 0.4956665 -0.6485285 -0.699015 -0.8225545 0.16341515 -0.6297897 -0.6637687 1.039358 -1.3771315 -0.9005863 -0.21452317 -0.56353074 -0.5677752 -0.3720684 -0.7706586 0.72098535 -1.3053412 -0.28740594 -0.3794373 0.616079 0.29786944 2.2975192 0.753964 -0.94586027 -0.393512 -0.12663966 -0.058894165 0.15768823 0.9770364 -0.9231716 -0.7665238 -0.24997179 -0.22163212 -0.45634824 -0.39327237 -0.2429128 0.52700984 0.49732223 0.6280774 0.5704266 0.11046327
major.a.02 0.21048349 0.39238378 -0.11582378 0.9671459 -0.2834285 0.09940338 -0.57918113 0.16995277 0.18594788 -0.187462 -0.20299758 0.1308462 -0.9317792 -0.02527951 -0.076826416 -0.46090958 0.37211725 -0.27262473 -0.4456102 -0.06859816 0.46179384 -0.9373227 -0.34696764 -0.12726378 -0.53903204 -1.4817809 -0.6308173 -0.8429011 -0.063414074 0.6374831 3.8945725 0.078930855 0.57917213 -0.5169784 0.26215583 0.2299728 -0.26270732 0.094302095 -0.25147897 0.63755286 -0.88885033 0.21844792 -0.21258342 -0.30467278 0.20214789 0.1976818 -0.66212815 0.6293596 -0.08933206 0.17977795
warm.a.02 0.06664633 1.2920706 -1.2769746 -0.28061864 0.013056791 -0.49268883 -0.3742286 0.8376561 -0.0892255 0.14366381 -0.06942953 -0.06821637 1.5900022 0.5588212 -0.0025501482 0.76113653 -0.31565538 -0.0066798516 -0.3791408 -1.3250207 -0.49285218 0.8231612 1.0558729 -0.45318684 0.9789418 -0.4986336 0.06672793 1.5971045 1.3025599 0.8486593 3.0127316 0.91564465 -0.16806544 0.26113054 -0.3716706 0.16305302 -0.53126335 0.9899067 -0.19067858 -0.913603 0.21186401 0.28247502 -0.29673976 -0.028627364 0.4683002 0.79945326 -0.1197218 -0.4490997 -0.6026755 0.11052534
cultural.a.01 -0.19899988 1.7388197 -1.4708791 0.7210467 0.4318918 -0.22429319 0.14046648 -1.3443048 -0.2713332 0.439192 0.2770832 -0.323563 0.365813 0.07409101 -0.25936985 -0.12238341 0.47637868 -0.24642567 0.5626867 0.62173927 0.37581027 0.2768192 -0.9427516 0.052021105 0.22107002 -0.8355762 -1.5548645 -0.6813906 -0.030495416 0.22222014 3.1739275 0.57109004 0.09433965 -1.8646897 -1.2581029 0.36191386 -1.186694 -0.03944217 -0.6025331 1.0736533 -0.33994395 -0.09306107 0.4435465 0.1294457 -0.22621308 0.19925027 -0.34732553 0.235396 0.120839894 -0.72230357
liberal.a.03 -1.0953293 0.08270796 0.0680598 -1.233644 0.013493165 1.2506411 -0.5319556 -0.4825001 -1.629773 -0.05925958 -0.35060716 -0.6454807 0.17731445 0.9443428 -1.0788405 -0.066726446 0.61648256 -0.43655303 0.43117666 0.14004524 -0.1783145 0.0633738 0.18877643 0.6556058 -0.01889399 -1.9167973 -0.29053923 -0.38879535 -0.8620303 1.2444004 2.3592103 0.08956026 -0.57108676 -0.98174626 -1.3634471 -0.9913123 -0.5742188 0.49735165 -0.17794918 -0.48198667 0.043956295 0.016234107 -0.6130341 0.77769464 -0.3227409 0.32590273 -1.4670291 -0.15379725 0.73174703 0.18622498
proud.a.01 -0.5497809 0.27208608 -0.52269554 -0.69075745 1.5690093 -0.57531995 -0.7001065 0.40713328 -0.28067923 0.20876333 0.1529705 0.22444205 -0.07549914 -0.26429567 0.3044756 -0.051955815 0.73802775 1.0841687 0.19398059 -0.45404866 -1.119287 0.8507608 -0.51618165 0.018901229 1.1763879 -1.8111804 -1.498498 0.16242753 0.41112036 -0.48856866 1.8176652 0.8906132 -0.013478257 -0.07784738 -0.4113965 -0.37759596 0.07177998 0.39550865 -0.6992259 -1.1020714 -0.18111977 -0.74274474 0.016637322 0.36718017 0.103960216 0.4194559 -1.3499956 -0.019305589 -0.14735097 0.5429174
accurate.a.01 0.07087165 -0.80878836 0.61696 -0.37750554 0.74789643 -0.22726105 0.014300342 -0.41418663 0.8065944 0.42663813 0.1485605 -0.37321943 0.37678352 -0.077801265 -0.1337097 -0.2385766 0.15320751 -0.77726394 -0.37021858 -0.6225438 -0.4079951 0.13496299 0.37850857 -0.39658764 1.3973368 -0.5635744 -1.4152476 -0.08943702 0.70566624 0.021355588 2.3738675 -0.9933213 -0.014235413 -1.1712741 0.8062087 0.22317754 0.9537309 1.1632572 -0.8328801 -0.085875235 0.6394237 -0.059555117 0.24420784 0.50304204 -0.6113684 -0.41651624 0.76192874 1.6435859 0.8751606 0.7132908
controversial.a.01 0.036478892 -0.10790035 -0.62430423 0.174115 -0.4973859 0.92508966 -0.35722116 -0.39330453 -0.08944909 0.8149027 -0.7502811 -0.19760889 -0.21733506 0.48036668 0.583455 -0.099376924 0.28533933 -0.65632355 -0.2246817 0.38673943 0.34652352 -0.18241026 -0.8791052 -0.38557807 -0.17042981 -2.1053784 0.48202366 -0.04198472 -0.35484856 0.42399517 2.2635255 -0.84373516 -1.023691 -0.5667332 -0.43431732 -0.028796861 0.5806151 0.19009517 -1.2859054 -0.5631385 -0.13040115 0.35650688 -0.27525946 0.430195 0.09893325 0.1810817 -0.4067629 0.9359931 0.080215685 -0.25875756
abstract.a.01 -0.14903972 0.36879653 -1.0958865 -0.45203206 0.8348939 0.53933346 0.42836738 -1.7707293 -1.8295187 1.0621184 0.22464304 -0.0132951625 -0.1216303 0.36315688 0.24313791 -0.35740146 0.27335954 -0.50938183 -0.029362416 -0.9599757 0.04894799 0.061490413 -0.694955 -0.27102983 0.3705421 0.16377406 -1.3149618 0.11568856 0.6813923 -0.260065 1.8288862 -1.4177742 -0.25003138 -1.8396424 -0.6169188 -0.064254515 -0.1531602 0.871815 -0.38553593 0.13957834 0.7622958 -0.6602957 0.77988833 0.7649843 -0.048366 0.07173502 0.9741853 -0.09468617 0.21921808 -0.09238352
constructive.a.01 0.62886006 0.53691745 -1.5295378 0.3195469 0.66950136 -0.23959693 1.217715 0.7399484 -0.76130587 1.0303453 -0.27339494 0.38314414 -0.4569529 0.25204885 -0.80507064 -0.049033362 1.1678959 0.06725948 1.0905024 -0.4459019 0.5884844 0.9576018 0.43402937 -0.04096014 1.1820087 -0.41157115 1.1168805 0.25808847 0.3167279 0.3475759 2.6520278 0.06909921 -0.73301744 -0.9347549 -0.46800134 -1.0938308 -0.4790383 0.81987315 -1.2331371 0.010657246 0.31773683 -1.2698923 -0.06971436 0.014205033 0.28372988 -0.33068335 0.116308354 1.7480997 -0.016570129 1.0472262
well-defined.a.02 0.6438774 0.23334736 0.046858024 -0.13634795 0.32280397 0.31077367 -0.18763891 0.2900077 -0.14199647 0.004090493 -0.28173846 -0.10281718 -0.53372914 -0.039697092 -0.15144356 0.47343445 0.5083024 -0.85751045 -0.08464477 -0.90564996 -0.44301757 0.42352918 0.20606796 -0.4839762 0.5087739 -1.6732489 -0.12526383 1.2613223 0.623889 -0.034760363 3.2082758 -0.08338001 -0.6924064 -0.80423397 -0.0572108 -0.44413212 0.2776771 0.20940395 -0.4339058 -0.19706771 0.29935774 -0.025086382 0.21429177 0.1469261 -0.26999837 0.06914778 -0.30967602 0.70728505 0.46824542 -0.32796812
alone.s.04 0.050880436 1.9728975 -0.79091674 0.6738293 2.9470034 -0.8342897 1.5177754 -0.71425056 3.097639 4.00188 0.50957125 -1.5476003 0.67448354 -1.6739119 1.4084166 -0.8349428 1.9006377 1.0884374 -0.3085857 0.32383242 -1.4992173 1.6699727 -2.082765 -1.5315638 3.0083435 0.43266124 -4.050056 -0.81469804 3.622819 2.358265 4.7023454 0.40336648 1.9560665 -2.882074 0.2174575 1.8750534 -1.2886326 1.0865036 -3.098915 -0.79223907 -0.47207886 -1.6334416 0.3410638 1.7798144 -3.3034317 -0.37774956 0.8471584 2.132716 -1.3562064 -0.6165098
official.a.01 -0.1601216 0.3841863 -0.06850823 0.6928062 0.65345675 -0.7323056 -0.42343193 0.0039927373 0.42706573 -0.98587847 0.2846795 -0.2554331 -0.27828962 0.06588873 1.0311536 -0.0910769 -0.77722895 -0.1911691 0.29539025 0.16634214 0.29129714 0.048413515 0.22278342 -0.27729937 -0.0674775 -2.17011 -0.38266578 0.13008042 -1.0366945 0.27945527 3.3713276 -0.31282735 -0.54724807 -0.2781821 -0.34905577 0.18660907 0.56509197 -0.5142367 -0.5560608 0.3119664 -0.06600635 0.31282705 -0.08514886 -0.65260994 0.2133762 -0.61462605 -0.9666745 1.5893232 0.64648783 -0.46916038
rough.a.01 -0.37762636 -0.17550825 -0.7437732 -0.37094685 -0.25459915 0.053058196 -0.5542831 0.01698046 -0.034570724 -0.4179215 -0.5082063 -0.15828076 -0.060971424 0.49671578 0.08507953 -0.1651312 0.5953986 -0.4995442 -0.43384868 -0.9887105 -0.8530952 0.4777947 0.5183359 -0.2757531 0.8795262 -0.48300877 -0.41006374 1.3418711 1.2808905 -0.03644347 2.848333 -0.93213904 0.07364988 0.49193034 0.27610496 0.5956238 -0.338588 0.34914783 -0.11166358 -0.7744957 -0.5057879 -0.09929805 0.4942895 0.2286885 -0.09711992 -0.715862 1.153214 -0.21855366 0.40410078 -0.31880313
weekly.s.01 -0.89343673 1.0733556 -0.15842059 -0.48076698 0.063252255 -0.8499565 -1.5485328 -0.5548708 0.6892526 0.0066884942 -0.5567023 -0.8958744 0.3511743 0.59065145 1.0730237 -0.5145006 -1.1227666 -0.29428503 -0.17575784 0.10404151 1.2334948 -0.013082945 0.7607223 1.2140672 -0.17747696 -0.7638098 -0.94330126 0.30794775 -0.45748112 1.0214664 3.001241 -0.00038242186 0.23216154 0.5523131 -0.79225653 -0.4047326 -0.027658738 -0.27424067 0.13725695 -0.015741203 0.74470335 0.1329437 -1.0033721 0.19192219 0.3467976 -0.23423782 0.23158506 1.1368328 0.32500356 0.7669693
continental.a.03 0.20588325 0.5511299 -0.7335934 0.630692 -0.71530783 -0.13102576 -0.62887156 0.03708095 0.03941785 -1.556285 0.84963363 0.1186701 -0.16303343 0.53673965 -0.2559215 0.44946104 -0.22227275 0.4269467 -1.4134743 -1.0846877 -0.0451182 -0.59417015 -0.01733629 0.5126231 -0.74402267 -0.58804935 -0.6561089 0.35160315 -0.01024889 1.0470262 2.0290475 0.21574803 -0.097197704 0.52859277 0.040958386 -1.0490469 -0.96154815 -0.03387435 -0.17372201 0.31873214 0.04946658 -0.2795816 0.90443105 0.36887115 -0.95897895 0.6849759 0.20238219 0.18968633 -1.0848405 -0.24247226
dynamic.a.01 0.34891528 -0.00093071593 0.052093215 1.701133 0.30123827 0.1126863 1.5400465 -1.8158375 -0.33728984 1.1963178 1.5426359 0.36866742 -0.51375043 1.4839813 -1.3573561 0.6837033 -0.1708824 0.49427393 0.6074263 -1.6388211 -0.71399814 -0.4772163 -1.2337859 0.48819026 1.7866669 1.0523273 -0.97225195 -0.68951756 1.6645133 2.3960266 3.918042 -0.9806776 -0.3025489 -2.6406114 -0.11386421 0.5962855 -0.8777003 0.59903634 -0.21165216 1.6196347 0.043786712 -0.08543063 -1.284326 2.376307 -1.4831457 -0.2620379 2.5033581 0.42745784 0.7430425 0.36231616
artistic.a.01 -0.47983018 1.4207296 -1.6538874 0.11848681 0.7335104 0.42263305 0.18652259 -0.332925 -0.29979008 1.1001055 0.7814908 0.33844095 -0.6868929 0.28373277 -0.19666211 -0.3006226 0.78995234 0.40538818 -0.026288021 -0.6083059 0.8384368 0.7713036 -1.0691147 -0.5168352 0.24901074 -0.2800575 -1.4858984 -0.6125428 -0.3173936 0.082698844 2.1171415 0.19321509 0.5977908 -1.8271366 -0.5232034 0.351499 -0.4810831 1.1603181 -0.5111919 0.12660474 0.16501848 -0.27989614 -0.31566918 -0.11724745 -0.6766534 -0.3885808 0.057879817 -0.32703665 -0.6200558 0.28007358
acrimonious.s.01 0.80414116 -0.04494023 -2.6860783 0.70003694 -1.1272256 2.5416083 0.28410882 2.3722806 -2.165531 0.18416078 -2.1322584 -1.1292795 -1.1882166 0.21741708 0.95278096 -0.16455796 -0.72978437 -0.6625866 -0.019459086 -0.5090302 0.36792913 0.7232323 0.6545086 0.05442926 -0.17345206 -1.4494714 1.0245273 1.2224241 1.6597909 3.41574 3.0299473 0.025947358 -0.147542 0.37593845 -1.0142308 -0.83280474 -2.90494 -0.17056225 -1.045605 -1.6750809 -0.9680475 -0.4285518 -1.4340208 1.7311931 0.6163407 0.7300486 0.029043194 0.6872436 -1.6748718 -1.0947716
uncomfortable.a.01 0.41911206 -0.11222192 -0.53339034 -0.5082392 0.9356053 0.44085073 0.3913086 0.51473355 -0.85829884 -0.13388842 -0.42468336 -0.24595936 -0.106618196 0.63786566 0.58766973 0.667715 -0.15720919 -0.06991783 0.5287537 -0.9508125 -0.47506636 1.1807137 0.20854978 0.33570856 1.2055285 -1.1174964 -0.14021942 1.1283618 1.008834 0.21614872 1.428198 0.64157695 0.56437546 -1.0141858 -0.5099467 -0.050940245 -0.2774263 0.27551675 -0.7861009 -0.6660848 -0.46278968 0.039708827 0.17155667 1.2631084 0.14249368 0.07618759 -0.08454074 0.26377663 -0.107381314 0.73607475
gradual.a.01 0.6864068 -0.18550673 -0.5573384 -1.5123957 -0.50046104 0.1677709 0.2584687 -0.20038673 0.41484463 0.68654466 0.5007212 -0.7204914 -0.029288674 -0.029826872 -0.21586558 0.83710593 0.43245026 -1.3141176 0.44954017 -0.27479225 0.15398632 -0.9135441 -1.2419605 -1.1162953 0.7880433 -0.20987207 -0.30394876 -0.004405745 1.1118082 1.5902171 2.562522 -0.11709904 -1.0138355 0.25054482 -0.40130353 -0.80543816 0.090673946 0.123120815 -0.47568646 0.22725525 -1.2258189 -0.7801592 -0.62113464 -0.4491884 0.07016657 -1.2602146 1.465229 0.47051477 -0.2993569 0.21041073
assertive.a.01 -0.08044651 -0.5887396 -1.221778 -0.7375071 0.903295 0.14180334 1.026449 0.019294461 -0.5876598 1.0093013 0.21943653 -0.19655153 0.6343106 1.2617966 -1.0259365 0.4176717 0.03496036 0.5650964 1.004021 -0.3887461 -0.4898715 0.34227535 -0.2501473 0.16333476 0.268862 -1.1773725 0.22713675 0.7942862 0.43428805 0.41973615 0.87136126 0.61225444 -0.07414361 -0.56949204 -0.42411682 -0.18466544 -0.85516137 0.8951877 -1.3939459 -1.1356454 -0.2784767 -0.20064935 0.30148557 0.014935506 1.03588 0.4576741 0.0070457826 0.72344214 -0.3422478 0.94054574
free.a.01 -0.3311083 0.4631322 -0.022454824 -0.3531022 0.21947311 -0.21266203 -1.0360684 -0.39964798 0.67747325 1.0629022 0.24272946 0.17296164 0.08955379 0.4730281 0.39727736 0.09017474 0.6470151 -0.77031857 0.14634123 -0.14730102 0.06644553 0.16421439 -0.057724804 0.51631844 -0.21930274 -1.6783406 0.6512317 -0.34544975 0.75306886 -0.6225584 3.6027846 0.7059913 -1.3657211 0.062339652 -0.44197902 -0.095118865 0.36502677 0.19148049 0.07804289 0.067807 0.69913465 0.09415221 0.039973803 0.6694607 -0.12677854 -0.04404931 -0.076063655 -0.10632627 -0.009438412 -0.24278471
incapable.s.04 0.6795229 -3.3169158 -0.18887363 -1.5501482 0.90036374 0.40849006 2.0177586 1.2878542 -0.64316046 0.566665 0.10288204 1.1224579 -0.4858092 0.9701252 -0.28437442 -0.26205027 0.5807918 1.875172 1.8679124 -0.44911736 -1.0265037 1.3179388 0.5594672 0.26247004 0.9196936 -2.2554326 0.08988156 0.17476578 0.9979861 0.72837603 2.1625729 -0.58377975 -0.019270197 -1.9168917 0.09681031 1.5160815 0.83244115 0.8335845 -1.0709735 -1.1580638 -0.94460523 -1.1157624 0.5690351 2.267578 -0.19896714 -0.4324701 -2.041066 0.36320698 1.7843597 0.5408507
obvious.a.01 0.47158346 0.60887855 -0.34504893 -0.066531606 0.41747433 0.9322382 0.18533401 0.26524705 -0.24387899 0.7893066 -0.1945091 0.3861755 -0.35549447 -0.31858847 0.10943551 0.3276373 0.36612105 -0.35903746 0.17264666 -0.8585588 -0.8030557 0.0062063187 -0.16380815 -0.08464789 1.0311557 -1.6212549 -1.3248065 0.8381816 1.2300893 -0.108813986 2.2408762 0.45198604 0.41187647 -1.2300066 0.0050268425 0.025720974 -0.03427261 0.16942427 -0.8509828 -0.41946322 -0.012012715 0.29284778 -0.34045395 0.72335166 0.06652321 -0.016923508 0.104817465 1.0900524 0.52379763 0.16755633
religious.a.02 -0.27538273 0.51945996 -1.2664636 -1.1778427 1.4514912 0.45885426 0.25786078 -1.1429325 -0.25581437 0.6368527 -0.38727045 -0.5642543 0.32288992 -0.1718754 -0.33192676 -0.028979853 -0.124807246 -0.8650527 0.76032406 0.5107506 0.22485036 0.6293018 -0.2578331 0.4340582 -0.26389277 -1.7207226 -0.8601378 -0.9483923 -0.08002325 0.40247387 3.2657108 0.3822394 -0.5459824 -1.2351358 -0.91060793 0.061250433 -0.21220814 -0.7154378 -1.0875543 1.5486774 -0.34375146 -0.039049096 -0.5312163 1.7275393 0.41989902 0.47278348 -1.0321016 0.108564794 -0.43604794 -1.1563444
busy.a.01 0.6884596 -0.11191554 -0.20469913 -0.7739419 0.08503714 -0.8949423 -1.1098912 0.23314331 0.3882765 -0.15668662 -0.98500204 -0.6019709 -0.6351002 0.47482872 -0.051157217 0.03582713 -0.03726696 0.61852163 0.30232033 -0.4814991 1.3659422 0.5987093 -0.18322113 1.018714 0.74643916 -1.1653705 0.044929292 0.78492534 1.2118849 -0.5522035 2.5115547 0.9652141 0.30306002 -0.5927531 -0.07381334 0.6842451 -0.15015627 0.7035363 -0.26002142 0.82228595 -0.78777695 0.046400297 -0.22530502 0.3811031 0.3973775 -0.19896553 0.14841315 -0.48639217 0.6764634 0.3018417
residential.a.02 1.0166159 0.6477654 0.4948278 -0.40251282 0.24250029 -0.16292396 -0.8144508 -0.97129095 -0.11465226 -0.016521346 -0.57131755 -1.3006477 0.56354976 0.0023753466 -0.49800524 0.95742697 0.24020867 0.7304038 0.17662248 0.07296356 0.8486641 -0.23032811 -1.705085 0.56387866 -1.0768099 -0.38568443 0.4854402 0.28816825 0.895862 0.47644132 3.4645457 -0.47039834 1.0880126 -0.7666968 1.1190953 0.97748363 0.19105557 0.03949146 0.09969012 0.2963651 -0.73449403 -0.27453187 0.4339817 0.9796628 -0.13091248 -0.24002647 -0.13486135 -0.4993306 0.66179484 0.15338239
lost.a.03 -0.42111352 -0.17731787 0.58987635 0.6461016 0.7471558 0.31755725 -0.6256752 0.66573876 -0.79799986 -0.09782313 0.15154943 -0.19207522 -0.64549977 -0.6167098 0.57370555 0.046083592 -0.34324348 -0.3604935 -1.2904656 -0.1215466 -0.30711898 0.1359324 0.12620461 -0.54029435 0.09613572 -1.553764 -0.27396208 -0.66493964 0.45757458 -0.107834734 3.0677705 0.55930007 0.2268223 0.22736697 -0.057843793 -0.2369703 -0.33375138 0.22343774 0.53142583 -1.1124473 -0.07221869 -0.40068942 0.3181422 0.16112766 -0.2269722 0.46653128 -0.5967872 -0.7858261 0.33250526 -0.5721111
reliable.a.01 0.047359988 -0.45031166 1.9146394 -0.06825145 1.1804901 -0.6463065 -1.1232198 0.6274389 0.9067354 1.2487154 0.73857445 0.29538915 0.74571866 1.0718014 -1.1787478 -0.34778872 0.82820165 0.43544507 1.437832 -1.1307636 -1.8375213 -0.4205218 -0.42066053 0.53341115 1.1020564 -0.63299674 -0.3809136 -0.15906557 1.961769 1.8384485 3.3788574 -0.7161034 0.8674815 -0.66462046 1.2871652 0.7326049 -0.077913076 2.222389 -1.1626327 -0.47054097 1.394434 0.23778369 -0.31683502 1.1295029 -0.35410026 -0.20800044 -1.0324222 2.4680367 0.85131127 1.7378591
desirable.a.01 0.6866543 0.19078311 -0.14587595 -0.21677122 0.9816239 0.19671299 0.35755363 -0.22652017 -0.25689653 0.6665725 0.3023316 -0.16274686 1.0304943 -0.24069698 -0.030095644 1.2541012 0.7863523 0.095282786 0.52575696 -0.84344965 0.03963345 -0.61913943 -0.40657815 0.5529578 0.16335757 -0.1569437 -0.55517966 0.23112199 1.3227406 0.31677228 1.6731633 0.39059353 0.33774677 -1.0073799 0.86281025 -0.24190848 0.047349017 0.83821875 -1.0515012 -0.49240187 -0.58641666 -0.5368938 0.54299366 0.7910178 0.07153159 -0.2519095 -0.23782766 0.4270627 0.911188 1.0514513
cosmopolitan.s.03 1.8568614 0.9003593 -3.197145 0.5695852 3.4272695 -1.6382787 -0.6315482 -3.7410648 1.408134 0.5195956 2.021122 -0.15181507 -1.5460571 0.21358998 0.533009 -0.927927 -2.0162246 0.5421102 -0.15749976 0.63941824 1.0694677 0.7577935 -1.6273322 0.92049974 -2.1312644 -2.4371479 -3.1842847 -2.1874056 -1.8299803 2.8496428 9.907428 1.8528258 0.5280687 -3.0363557 -2.9776292 -2.513252 -0.88394904 -0.7741807 -1.5579865 1.6908011 -0.33212826 -1.2753685 -0.4500519 0.2435108 -1.9326353 3.1057887 -3.0738492 0.9222476 -1.8814803 2.0389056
irrelevant.a.01 -0.065425195 -0.69222057 -0.20646589 0.06558 0.6450047 0.39358708 0.4438788 0.10414102 -0.5878198 0.43015954 -0.44080153 -0.10419823 -0.10415608 0.22926815 0.8422385 1.0429814 0.24344224 -0.14175665 0.863621 -0.05855931 -0.22506973 0.19243148 0.3962299 0.24441509 0.8171794 -1.1201607 -0.73330325 0.8018752 1.2794867 0.2933588 1.2608058 -0.8974953 -0.052574806 -1.0662704 -0.43506837 0.059734806 0.5524797 0.6643682 -1.067346 -0.49856696 -0.041637216 -0.35227942 0.041538578 1.4129876 -0.6483663 0.30963206 -0.40016335 0.9355855 0.5370875 0.5089149
subjective.a.01 -0.18274304 -0.06554766 -0.896351 -0.17247324 0.6488836 0.49484396 1.562793 -0.27383605 0.20872658 0.85261315 0.363243 0.08908619 0.15379873 -0.17573056 -0.101433985 -0.019357286 -0.063455105 -0.1736839 0.43176693 -1.0794466 -0.4981559 0.9980597 0.5791715 0.17636561 1.2152569 0.13690443 -1.7426821 0.058490362 0.20877872 0.64729315 1.4629034 -0.13623852 0.25861338 -1.7425482 0.13122413 -0.30992466 0.28935385 0.478679 -0.32907397 -0.5889785 0.34509888 -0.74610376 0.54192114 1.7820325 -0.96050566 -0.27381274 0.7777748 1.3932139 1.3412488 0.59416425
alert.a.01 0.91534287 -0.96213365 0.5696449 -1.9835995 0.91041064 -2.45307 0.6754627 1.0034297 1.5592297 -0.8957952 0.69782704 -0.037191868 0.8719746 1.7088823 -0.45453763 0.9805786 -1.1597358 -0.75733703 -0.5334043 -0.534272 -0.8310589 0.9688284 0.3240536 0.033881474 0.24767862 -1.8722924 0.6895041 1.3997864 0.7835588 0.80924386 3.0576115 1.6344143 0.40991825 -1.7692906 -0.5315873 1.0571715 0.9945596 -1.7573644 -0.56926525 -0.99958384 -0.59489787 0.4503969 0.7522986 0.7114822 1.1655208 0.12482336 0.54023474 0.42473644 0.6963387 0.010276754
firsthand.s.01 0.7572022 0.12711526 -0.15459268 -0.35185567 0.5274851 -1.0578802 -0.31030142 0.58317715 0.6367894 0.17164324 -0.18213148 0.04178399 0.096825 -0.79674774 0.96956426 0.018259032 -0.35530925 -0.37312952 0.3640811 -0.24128494 -0.16933946 1.1836253 0.06607269 -0.5278755 1.4583943 -0.8694585 -1.6727574 -0.25345957 0.81563234 -0.0366083 0.8447023 0.4258319 -0.02532237 -1.5817109 -0.0859353 0.46931505 -0.96860623 0.123945974 0.19938006 0.1579832 -0.3769809 0.03880889 0.117608875 0.78654873 0.31460917 -0.42667812 0.8603776 1.1426198 -0.27746576 -0.06769299
traditional.a.01 -0.5404324 0.41856593 -1.6805924 -0.17448494 0.26762816 0.24404365 -0.59224206 -0.86314636 -0.32932147 0.32626334 0.2794572 -0.38792562 1.1921408 0.39979738 -0.7829712 0.36583278 -0.33221003 0.11809075 0.45563123 -0.7978022 0.33999223 -0.2917119 -0.5303154 0.34730384 -0.14489532 -1.0656713 -1.3417008 -0.2595485 0.1710746 -0.11764892 3.6901608 0.5337321 -0.5871869 0.52026826 0.123650506 0.4692803 -0.61055136 0.18443744 -0.9106221 0.41839617 -0.058248788 0.05633912 -0.44856048 0.79721856 0.7005219 0.29575628 0.18543887 -0.32333997 -0.3322179 -0.8292155
dangerous.a.01 1.1781812 -1.6877844 -0.1942896 -0.29953912 -1.6411102 0.588872 0.4194453 0.25840768 1.3153228 1.2460477 0.27398527 -0.21373262 -0.056549076 0.4696538 0.71966004 0.85276264 1.3673325 0.52882767 -0.02925266 -0.96151006 -0.7697511 0.5825932 0.24244887 1.0241195 0.8409008 -2.3175795 0.2041382 1.196364 3.3052082 0.8486962 3.8769603 -0.8705451 0.11761323 -1.8214636 0.30633536 0.36204535 1.0359116 -0.040928934 -1.0946014 0.8467971 -1.5793434 -0.25207326 2.6627712 1.3045878 1.3442854 0.06506803 -1.4546499 -0.36379865 1.6714842 0.40924895
square.a.01 0.76743007 0.98477805 0.5869518 -0.4202933 1.3190087 -0.22510648 -0.26422212 -1.4163018 -0.32763648 -0.51151615 -1.0024236 -2.255834 0.17137659 -1.0272305 0.32280076 0.49675286 0.82510746 0.697926 -1.3263521 -0.6168217 0.9031432 0.0012868074 -0.7468742 -0.4717088 -0.2401957 -0.30182138 -0.18010674 1.1958259 0.119832166 -0.6709815 2.760462 0.043831315 0.0035764356 0.16397451 -0.9426086 0.1397936 0.6887569 0.2224059 0.15728632 0.47794813 0.36816546 0.23047046 -0.45692962 0.15459073 -0.9557216 -0.31184807 -0.251469 -1.5147798 -0.5630358 -0.86669546
solar.a.01 1.2898867 1.3016536 1.4967155 0.799279 -0.38456774 -0.08878002 -0.22083102 -0.8247165 0.053501483 0.9463092 0.6361576 -0.16622122 1.2700355 1.4378172 -0.4501642 0.83236164 0.048156913 1.047611 -0.8953869 -1.2118152 0.35970247 -1.0987123 -0.07129499 -1.0587091 0.5716725 -0.096749954 -0.37796956 0.065419115 0.5890608 0.65029365 2.2950385 -0.21359807 -1.0240567 -0.909935 -0.4427996 0.21467456 -0.049629256 0.66968817 0.59668607 0.3629635 -0.17687991 -0.15779541 -0.47882473 0.7880114 -0.13162093 0.28040248 0.3784436 -0.6867328 -0.38702017 -0.45478407
seasonal.a.01 0.26765764 0.27109495 -1.0189106 -0.23665743 -0.71056545 -0.21198513 -0.85962605 -0.20649606 0.90506524 -0.04887076 0.28591612 -0.4532547 1.6872364 -0.27617845 0.72114253 0.15001655 -0.39286178 -0.50954294 -0.54570365 -1.009551 -0.061841782 -1.3379258 0.25657174 0.11262828 0.5760001 0.7819142 -0.8107316 0.2067738 1.3832091 1.008234 2.7984483 0.84744835 0.76587737 0.09433998 0.011935372 0.527724 -0.12772793 0.09863613 0.36622658 0.60887086 -0.9222681 0.42195255 -0.49521902 0.33438846 0.7389635 -0.13208303 0.9221617 0.49468783 0.19166715 0.5163002
illegal.a.01 0.28145593 -1.1390612 0.012579308 -0.045353275 -0.281551 0.6415678 -0.3010591 -0.5085647 1.0682671 0.8005125 -0.19349654 -0.22757506 0.6459977 -0.42485395 1.1673542 -0.6704127 0.7560553 0.014037828 0.102097444 -0.44778138 0.67884517 -0.48021933 -0.0937954 0.30718327 -0.6221343 -2.1641715 0.9326793 -0.33991274 1.1260359 -0.4147234 2.9092386 -0.5142446 -0.9704713 -0.5715416 -0.3035962 0.5341911 -0.0019745205 -0.27956647 -0.85174793 0.35285333 -0.342731 0.22090177 1.2069292 1.2242652 0.35674664 -1.4350597 -1.104749 0.26302356 0.5807944 -0.78925264
acute.a.01 1.535349 0.5170465 -0.39174587 -0.7347691 -0.63596267 1.4428197 1.809105 0.38998935 1.0092105 0.4031798 0.08846239 -0.21419011 0.43856472 -0.08778413 0.013543251 0.37408212 -0.84989274 0.15015121 -0.10940088 0.7768682 -0.7856078 0.35206947 0.6562049 -0.035955925 0.55507547 -0.9654679 0.1526875 0.6304917 0.5127964 1.780539 2.749938 0.59405905 1.5354514 -0.5596075 -0.3459417 0.7977135 0.39779517 -0.22938918 0.8489942 -0.343805 -0.32634476 0.42127496 0.024151629 0.8218173 1.197629 0.686286 0.17405985 0.81571877 0.534986 0.17650601
statistical.a.01 -0.29948035 -0.23150575 -0.6287166 0.43163022 -0.30828413 0.19199328 -0.17225899 -0.9068613 0.5554961 -0.11459058 0.57644874 -1.3675206 0.28497782 -0.7205252 -0.3223546 0.15281087 -0.08971215 -0.35607636 -0.24735853 -0.36793604 -0.6112574 -0.9914986 0.051123545 0.385902 -0.12928733 -0.55299985 -2.4579325 0.5377079 -0.33741927 -0.25155166 2.2761495 -0.5955582 -0.046616297 -1.5145742 0.16748573 -0.28067592 -0.08091184 0.91040456 1.3048931 0.8151835 0.12185145 0.17380615 -0.020813746 0.49138555 -1.3420448 0.10697067 1.4291512 2.415294 0.8969565 0.20517671
equivocal.a.01 0.74342924 -0.59715843 -1.2703333 -0.96251094 1.1711825 1.0903631 1.961757 0.26419452 -1.7985861 1.4975337 -0.4997211 -0.117691346 0.94540364 -0.00012622934 0.0099735735 0.38048053 -1.0716196 -0.6426343 1.0584749 0.104506716 -1.7023928 1.4571298 1.3797529 -0.07892946 1.7517115 -0.8575717 -0.80152845 1.8614043 0.7695794 0.52662396 0.9539472 -1.7428011 0.6249835 -1.8736881 0.40759525 -0.78679585 -0.055049494 0.27583632 -2.33775 -1.8388865 0.4886922 -1.0542636 0.90879875 1.6799139 -0.51981527 -0.5474794 0.93345153 2.4299622 0.5247719 0.24536788
complete.a.01 0.5067741 0.5103059 -0.32255197 -0.16104548 0.22771403 0.3298686 -0.13131407 0.062598705 0.48908976 0.25579065 -0.16846994 0.026379757 -0.4917892 0.24103089 0.54864925 -0.15264258 0.1979705 -0.32356557 -0.07634278 -0.43650526 0.2723315 -0.19304048 -0.3951726 -0.5427778 0.32269016 -0.7050954 -0.93589014 -0.27196842 0.40154812 -0.30165234 3.5119212 -0.29772648 -1.050511 -0.09934272 0.07400076 0.62975836 1.1934503 0.32705113 -0.06287765 -0.30415475 0.10215753 -1.1167989 -0.2874972 0.260929 -0.709912 0.23633242 0.70961106 0.5089155 -0.30908793 -0.17821343
color-blind.s.01 0.11263523 -0.021634629 -0.091572076 -0.095800065 0.1109899 0.13870253 -0.06034332 -0.1725877 0.027742282 0.21438275 -0.06620153 0.04503392 0.12721717 0.094310604 0.1299074 0.18816938 -0.14899035 0.032646008 0.054875474 -0.22516555 0.1337189 -0.045162655 -0.040934574 -0.081962034 0.114451915 -0.15292136 -0.038629957 0.21554004 0.16301548 -0.080645606 0.13374935 -0.092715 -0.056735225 -0.14039484 -0.002839223 0.11892449 0.18696204 0.029586669 0.024940182 -0.16622232 0.037440687 -0.05582346 -0.020863082 0.26189366 -0.010828582 0.091622315 0.16348113 -0.018136743 0.040221658 -0.09193487
digital.a.01 -0.046902753 0.07771999 1.5127829 0.6204908 -0.33520338 -0.04879537 -0.6406966 -1.5427538 0.90537906 1.3218329 1.0828508 0.15037967 0.16316576 0.9584155 -0.31466946 1.0182259 -1.0885928 0.21840298 0.10202468 -0.51715237 1.3674368 0.22554033 -0.27009004 0.33838633 0.15778038 -0.6358859 -1.1412926 -0.5817602 0.662689 -0.7189595 3.345485 -0.21029016 0.10580322 -1.0807308 -0.59863925 0.50705713 0.17286366 0.10872621 -0.54218346 -0.87688166 1.5290736 0.071204215 -0.44935754 0.35768354 -0.8829779 0.41301194 0.9627647 -0.068509035 -0.47695073 0.065989956
toxic.a.01 1.1898835 -0.28456652 0.20643502 -0.27563888 -0.7762432 1.0378646 0.15100218 -0.19137289 0.54668546 1.2914528 0.49618593 0.5135905 1.000425 0.735952 0.70063996 0.35488597 0.5862062 0.8694055 -0.64275 -0.56829464 0.14969581 -0.68400806 1.3341957 -0.67567843 -0.8842591 -1.146901 -0.08691981 1.5401871 1.3933958 0.16267833 1.7957807 -0.8268006 0.25516233 -1.1306956 -0.04123617 1.0401689 -0.173798 -0.5605159 1.6195072 -0.31036875 -0.38795292 -0.5307197 1.2435032 0.38020733 1.3341991 0.25556597 -0.71134305 0.36713073 0.9058625 -0.46844476
concluding.s.01 2.1807704 1.5354403 -1.1161826 1.4970421 0.0459228 0.12223114 -1.5016656 1.4758596 0.92336696 -0.34247166 -0.59914017 -1.7685069 -2.8404255 0.41694522 2.905639 0.17205188 -1.7748991 -1.6731144 -3.5179074 0.42841756 1.4396304 -0.47291884 0.095333956 -0.95711184 -0.006433301 -4.481818 1.519961 1.2034541 -0.08448781 -0.57053095 10.425736 0.5936044 -0.8200844 0.26805514 0.9164905 -0.8954215 3.1056554 1.356514 -1.0945963 -0.6892103 -1.2696619 -1.7207748 -0.22092359 -0.4848801 -1.2024733 1.1961783 0.8288628 1.1875905 -0.3784082 -0.62680125
tough.a.03 -1.8012587 -1.7517322 -1.1877218 -1.2376422 -1.4638388 0.19043325 0.90978163 -0.6091888 -0.6116862 0.003039485 -0.82876956 -0.2679776 -1.352611 0.5951748 0.2593654 0.7516722 0.21764566 -0.9965381 1.184761 -1.0271221 -1.1186926 0.68009675 -0.9677001 -0.74295247 -0.45706093 -3.2477803 1.3751632 1.6890322 0.4578518 -0.0038031964 3.0588439 0.5851139 -0.6134802 -0.25904799 0.15523161 0.17139219 0.3160437 0.9144911 -2.07602 -2.0362086 -1.1353093 0.37265828 1.6467187 0.50371665 1.0934815 0.3151201 0.6861803 0.96809816 0.04263775 0.24336207
complex.a.01 1.6300495 0.621978 -0.60847694 0.9720969 0.44320258 -0.14811574 0.6885297 -0.4486637 -0.26126233 0.47231323 -0.49528328 -0.39114597 -0.3910309 0.31788257 -0.21437679 0.7116885 0.53068554 0.95434004 0.16747485 -0.135867 0.4304345 -0.26907453 -0.76537144 0.044783045 -0.4875468 -0.72552586 -0.39057654 0.36182594 0.4829899 -0.14814119 3.3055599 -1.3066541 0.13731235 -1.2243644 0.6638684 0.43651053 0.094722904 0.55668193 0.045799773 0.6239011 -0.49976385 -0.52664125 0.20585302 0.9032163 -0.0006078371 0.4607862 0.36163443 -0.05264928 -0.1925522 0.1623944
part-time.a.01 0.36841568 -0.15384534 -0.048594557 -1.0973893 -0.102384396 0.0894229 0.25367418 0.8567748 0.17168438 0.1985797 -0.5919037 -0.42809656 0.248259 0.9017961 0.034591153 -0.6645296 -0.055038266 0.27611527 1.024853 -0.7564338 0.9332194 -0.049328282 -0.7925884 0.5003311 0.28743586 0.5955171 0.43193337 -0.13857593 0.5952097 0.4571327 -0.72787535 0.43027186 -0.2571195 0.26064184 -0.40203646 0.37993482 -0.25149015 0.6991655 0.4631071 0.4768062 0.1421631 -0.059110902 -0.5574197 0.82829475 -0.044407703 -1.0963918 0.7608977 0.15567325 -0.19972536 0.4227471
steep.a.01 0.6490892 0.4883823 0.36825612 -0.6948986 -1.1048915 0.16740853 -0.51513433 0.22130372 -0.013811691 -0.010574736 -1.0461806 -0.79631567 0.06433619 -0.54938674 -0.30021113 0.7589179 0.6666984 -0.9095724 -0.52958596 -1.8178526 0.11527295 -0.71913743 -0.81992227 -0.2781891 0.3555453 -0.48180184 -0.3426941 1.5204455 0.90029895 0.6334252 2.9273689 -0.49074623 1.1093106 0.746726 0.6973565 -0.53634775 -0.76075256 -0.072860315 0.19702107 -0.86167306 -0.8645649 0.15792798 0.4786059 0.67759126 0.22305097 -1.476599 1.4856284 -0.448188 0.9668082 -0.82251
human.a.01 0.55965364 0.20220122 -0.5156282 0.13434264 1.221637 1.1131655 0.8846295 -0.98474234 1.6618966 0.34614083 0.8000272 0.03745108 -0.009533525 0.5387542 0.5988813 -0.22296447 0.5712385 -0.4167636 0.32578388 0.064464144 -0.9320552 0.75309944 0.44059464 -0.65107983 0.8688304 -1.8897258 -0.52163637 -0.4917988 -0.27057806 0.016210962 3.290925 -0.3310489 -0.8751377 -1.6950754 -1.3721557 0.22447208 0.065733515 -0.12236909 0.06321741 0.24578735 -0.5434749 -0.12746018 0.6713371 0.6474477 0.7136846 0.36994225 -0.45324263 0.032338783 -0.3260469 -0.62806565
happy.a.01 0.074162446 0.23633136 -0.6432089 -0.450359 1.1306491 -0.546862 -0.8044659 0.60639924 -0.5638665 0.5104905 -0.034085266 0.22595122 -0.2007259 -0.06676388 1.234634 0.26825607 0.5587704 0.3707257 -0.05948888 -0.72789717 -0.4549562 0.9444158 0.25510532 0.54644644 1.2063496 -1.0273815 -0.81853175 0.30942613 0.76603574 -0.61426604 2.4895837 0.9897672 -0.2794594 0.52704036 -0.1649691 -0.4052017 0.35535878 0.14900118 -0.33115968 -0.7563626 -0.3970024 -0.36882812 -0.6397123 0.08010664 0.33545253 0.036722578 -0.45736882 -0.39868045 0.07857949 0.85723495
handy.s.02 -0.4493887 0.40205395 0.5094053 0.16187432 0.6464349 -0.22709118 -0.19174163 -0.2589452 0.2811384 0.26445183 -1.0148808 0.89103156 0.5872453 0.22579636 0.21954106 0.2650532 0.034390148 0.06349799 0.15977864 -0.60904264 0.41377902 -0.36446613 -0.096023455 -0.031635974 0.98185307 -0.8222564 -1.0782038 0.1278897 1.273252 -0.936233 1.0768025 -0.1836089 -0.0061500175 0.5794084 0.5969797 0.98328507 0.38573638 0.88309544 0.007826568 -0.64053553 1.0519189 0.33759215 -0.44856107 0.87891734 0.42150146 0.0835812 0.88407654 0.09246068 0.40646416 0.6405507
standard.a.01 -0.9141413 0.26800555 0.16176657 -0.17192565 -0.26766497 0.21212982 0.24068768 -1.6107857 -0.01907115 0.05105837 0.65856934 0.18880045 0.1842548 0.009961029 -0.32970887 0.47764254 -0.8966952 0.209061 -0.1193928 -1.2590197 0.23719144 -0.15591264 -0.36826026 0.22486591 -0.095922664 -0.9835481 -0.53282034 -0.048061725 -0.19352591 0.51058424 3.548591 -0.5875385 -0.09438515 0.18178196 0.92975926 -0.43493754 0.93880916 -0.05020324 -0.32035196 -0.27639008 0.8924652 -0.026912902 0.5465763 0.77718556 -0.41617104 0.32214025 0.65524393 0.57617146 0.4820631 0.26982865
extraordinary.a.01 0.4385781 0.7368009 -0.9716904 -0.28025928 1.2781976 -0.16793284 1.0701809 0.40732864 0.39976144 0.57021815 -0.39829755 0.18128255 -0.1413677 -0.09025972 0.45848113 -0.47441357 0.14036047 -0.19859274 -0.4787162 -0.9105241 0.5070955 0.15900989 -0.389233 -1.2065091 0.49550512 -1.014719 -1.1994311 -0.25703713 0.21428315 1.0186034 2.2582052 0.7457463 -0.21017049 -0.98487073 -0.20722497 0.06422177 -0.07604208 0.2920358 -0.51997954 -0.42622063 -0.36447495 0.057936724 -0.24533986 0.15471181 -0.46184322 0.16628985 0.10796593 0.59131056 -0.051351532 0.14578268
wrong.a.05 0.1968603 -0.7131583 0.25539607 -0.74832803 0.7169845 0.12691271 -0.082158364 0.1345565 -0.28833824 0.11190327 -0.48750466 0.5444031 -0.81575274 -0.13742582 0.49210307 0.4483696 0.33653104 -0.31978595 -0.015295803 -0.5472609 -0.5308944 0.5222765 0.45319825 0.27054206 1.3874851 -2.4265707 -0.97157246 0.71329314 0.90880203 -0.92780805 2.3110967 0.026851943 -0.32930744 -0.6717463 -0.36840048 -0.57107264 0.31005344 0.27527568 -0.06069979 -0.2794893 -0.043916922 -0.1447331 0.34300166 1.0192126 -0.0065119853 0.038212884 -0.03526435 0.50743055 0.95495725 0.628664
ill-famed.s.01 0.2157929 0.13380471 -1.0381979 -0.1968258 -0.55467004 -0.5902836 0.73480636 -0.049945507 0.059376217 0.7781953 -1.2740548 -0.21671091 -1.174633 0.64299154 1.716473 -1.7536988 0.11093104 0.8655378 -1.3016629 1.4646478 -0.19412087 -0.79378355 -0.30020154 0.86492383 -2.320215 -3.3267288 -1.6724147 0.39142537 1.166379 0.09872257 1.8488747 -1.9730955 -0.26188895 -0.9462828 -0.33871803 1.7166574 -0.11817172 -1.5630645 -0.98364973 -0.27378172 -1.093739 0.8394881 0.068374746 0.5690353 1.475292 -1.2330451 -0.06717302 -1.7900891 0.061224803 -1.0674481
chronic.a.01 0.7178445 0.5541932 0.024202546 -0.9669312 -1.7584659 1.9192518 1.2430152 0.19263647 0.9035625 0.58338964 0.29733297 0.05019005 -0.23208153 -0.72434837 0.7587333 0.5760878 -0.75012755 0.28169212 0.7306156 0.49407274 -1.0442752 -0.27594647 0.61661416 0.27978286 0.24380514 -1.2636989 0.21504942 0.005559536 0.820069 1.6944188 2.6680288 1.1262554 1.1283721 -0.43925726 -0.3056133 1.290616 0.18690374 -0.016784843 1.4797829 -0.4870191 -0.7296573 0.21594399 -0.25335035 1.3989036 1.4905802 0.24117808 0.09819598 0.6892817 0.30999216 0.106203295
hot.a.01 -0.6349993 0.7601196 -0.049070045 -0.00077419437 -0.63045913 -0.15059456 -0.8017292 0.22087781 0.3875464 0.64027655 -0.31100342 -0.26526022 0.64928323 1.3351421 0.4247094 0.42794448 -0.027927233 0.5093237 -0.91546065 -1.1522189 0.29093373 -0.006439907 1.5671052 0.6422456 0.019130781 -0.78517294 -0.58138955 1.321374 1.5969858 0.37237626 3.0387878 0.16107145 -0.16420077 0.42603225 -0.074873306 0.19748159 -0.13099267 0.3019581 0.5751014 -0.653098 0.16800737 0.1129496 -0.106835954 0.160745 0.79059637 0.5838599 0.12670103 -0.7794195 0.064582385 0.19991979
flat.s.12 -0.06688812 -0.018660601 0.2825866 0.012277147 0.48347571 -0.0742151 -0.20379305 -0.49405673 -0.12125878 -0.34545153 -0.28361097 -0.634097 0.28389236 0.3672717 -0.32511735 0.7777391 -0.041439828 0.05315291 -0.40155643 -1.6124631 0.29567662 -0.16200615 0.13980213 0.13787009 0.19076765 -0.4685891 -0.19537413 1.6406529 0.36591747 0.3157315 3.2974498 -0.57901394 0.9505452 1.2477599 0.050107546 -0.5726362 -0.040323038 0.72217655 0.14114772 -1.0065019 0.045213383 0.057162426 -0.00653947 0.75850016 -0.15204276 -0.16791964 0.4594571 -0.96522486 0.48450848 -0.37562925
optimistic.a.01 0.53858584 -0.4857834 0.080230616 -0.63623357 0.75455576 -0.85181004 -0.7208781 0.15505248 -0.77627057 0.68001664 0.0735897 -0.22287206 -0.47282022 0.15792838 0.4394929 0.7668543 0.3089356 -0.35205334 0.53677595 -0.7220461 -0.59481895 0.6712318 0.23361184 -0.5555347 1.3020724 -0.76424354 -0.2860242 0.9732811 -0.18072724 0.67371076 2.34947 0.05485221 0.23919918 -0.29791912 0.051626902 -1.5454912 -0.22105893 0.47540626 -0.64597845 -1.1861845 -0.9383258 -0.55096453 -0.0732863 -0.31537905 0.42292628 -0.094898075 -0.110514306 1.5444905 0.24142346 0.84764117
uneasy.a.01 0.50577784 -0.3946492 -0.7622068 -0.25388324 0.734256 0.45143914 -0.013349008 0.982177 -1.0501133 -0.15158209 -0.0632437 -0.5240565 -0.4781284 0.62270707 -0.05551963 0.92910516 -0.1764211 0.063425966 0.8411198 -0.12916291 -0.2336545 1.4839282 -0.15934308 0.29533792 0.71966565 -0.6076966 0.2643214 0.7398907 1.3112562 1.1430875 1.5265427 0.3282012 0.04235397 -0.07546653 -0.50366247 -0.8316846 -1.2129431 -0.44390094 -0.93209743 -0.6085448 -0.83292854 -0.86911815 -0.12310266 0.30411342 0.020720655 0.22014016 -0.37782848 0.3536101 -0.87622565 -0.20390922
heavy.a.01 -0.12440714 -0.46260372 0.20244788 -0.30714703 -0.93981516 0.121821865 0.19044122 0.6635647 0.032945786 -0.17187859 0.062250957 -0.48700127 0.16533618 -0.020894976 -0.47629574 -0.018384224 -0.14053755 0.4807676 -1.2660719 -1.4337109 0.31819934 -0.35740408 0.305519 -0.8682561 -0.34834075 -1.3219429 -0.5846297 0.8338323 1.5154814 0.7353996 3.7901855 0.042610772 0.6116994 0.42946288 0.15356752 0.8841359 -0.095151015 -0.36273623 -0.14080243 0.087580435 -0.16594788 0.3902937 0.2751895 -0.5548298 0.9970504 -0.22832859 -0.24595922 -0.1357641 -0.26664522 -0.31285545
retired.s.01 -1.1575135 0.10588927 -0.30219242 -0.1347954 0.5321966 0.20414989 -1.3390576 0.8146808 -0.53976655 -1.0903563 0.7252334 0.21504058 -0.6697212 0.46813625 0.70871216 -0.42336202 -0.38355753 0.86890554 -0.6982468 0.046032988 -0.55594635 0.32602733 -0.30937013 -0.08188173 -0.35852745 -2.0005865 0.49246377 -0.87388 -0.3591491 0.78656894 2.017427 -0.4285752 -0.3778768 -0.14654204 0.52960926 0.5176293 0.22616917 1.0451745 0.6357194 -0.29310536 -0.28937823 0.5165346 0.21490093 0.1405341 -0.017717037 -0.12721854 -0.7927936 -0.51385033 -0.5493242 0.53564346
ample.s.03 1.216134 0.043650754 0.8259622 -1.240416 3.1144953 0.58403045 -0.43483213 1.5101761 1.4928893 1.0653572 -0.20180951 -2.335386 3.5671551 -1.3055348 -1.0851517 0.24100308 2.3464785 -1.0006856 0.37341216 -1.6067884 0.563629 -2.2424965 -1.658721 -1.4094425 -0.90364915 -0.8803357 -1.3670626 0.7837267 1.0905982 1.3335668 5.231998 2.131863 2.2102702 0.1899594 -0.13998549 1.0638838 -2.1588078 0.48605242 -0.5988847 -1.8314508 0.73905563 0.63329554 -1.1398787 0.5595045 -1.5845094 -1.6678655 -0.94087374 2.8582444 -0.5678767 -1.0737742
drawn-out.s.01 2.3706179 -0.08000067 -3.0420065 -0.035730734 -3.277889 0.9307173 1.0491543 4.2189302 0.23193496 0.3183533 -2.3940403 -1.2988908 -1.4670616 0.8272944 2.3113492 -0.8337822 -1.8915702 -2.8806195 0.1263206 0.04337888 1.0293801 0.14566848 -0.829625 -1.7903091 0.6598146 -2.7948592 2.03684 0.080964394 2.58259 5.265841 9.689464 -1.1487781 -0.5380527 0.11018085 -0.92390275 0.32001302 -0.6439501 -0.5349709 -1.3386552 -1.393984 -2.7357476 -0.43518317 -1.6579629 2.3760343 -0.44992343 -1.3951875 2.4607153 1.7302934 -2.9492233 -0.2530192
cosmetic.s.01 0.9545762 1.3542354 -3.9008746 -0.043699015 -0.09379187 2.3254097 0.5378338 -3.5007203 -1.6970924 0.4968284 -0.622041 0.47251314 3.056074 0.07722566 -0.41059235 1.1936496 0.107440986 0.83233786 1.6089408 -3.111254 1.7470247 -2.084642 -2.1385481 -2.2570627 -0.6362266 0.4595968 -2.3737292 2.139929 0.79280496 -1.2117344 4.261833 -1.1414113 1.7617756 -1.0539216 0.4674346 3.764725 0.55266786 3.955824 -0.8435167 -0.06274589 0.10882185 0.13331594 0.9580492 1.4727641 2.4944036 0.28677717 0.4755264 -0.09634494 0.055297483 -1.4172276
responsible.a.01 0.8122185 -0.77519697 -0.03708147 -0.3025488 0.7195086 0.5807391 0.123722255 -0.102145344 0.78404546 -0.24644963 0.23862293 0.27451345 -0.5916479 0.087293945 -0.0057178545 -0.3506484 0.5933204 0.4599677 0.32555813 -0.1354539 0.3852534 0.120661244 0.17473501 0.027022429 -0.5380272 -1.7458879 -0.37612283 -0.6450898 0.2575548 0.3718703 3.0408397 -0.24664362 -0.4938678 -1.5510782 0.09530642 0.5792962 0.31342322 -0.3166297 -0.1586453 0.5431947 -0.6652512 -0.28877357 0.25576302 0.1461721 0.14163162 -0.24441177 -1.0777382 0.57145524 0.47480658 0.33624056
electronic.a.01 -0.654899 -0.64764905 0.8857167 0.7159368 -0.42571273 -0.2641065 -0.592048 -1.146978 0.9096963 0.9524281 0.7604556 0.25489745 0.30820507 1.1871258 -0.4154559 0.14100645 -1.3012466 -0.31496447 -0.036543332 -0.9951235 1.6688644 -0.1792282 -0.782275 -0.008289568 0.012639957 -0.8765216 -0.90941983 -0.6388029 0.53826 -0.5795152 3.0913482 -0.60360724 0.23545343 -0.58749545 -0.361463 0.47407132 0.26236218 -0.23756307 0.013466048 0.030321972 1.2298855 0.15135531 0.24370627 0.78375673 0.19511773 0.28981102 0.85762453 0.43554464 -0.38923866 -0.03312859
solid.a.03 -0.46491826 0.4645242 0.37176198 0.23144534 0.81298894 0.44426382 -0.23743394 -0.02798111 0.036132224 0.69516593 0.10580133 -0.29396933 -0.45658302 1.0327296 -0.7567718 0.22676922 0.6572709 -0.047369927 -0.22720022 -1.0860118 -0.2873658 -0.30317056 0.36609837 -0.99429226 -0.16134873 -0.45590383 -0.12493736 0.906213 0.87198687 0.24147527 3.1996229 -0.213335 0.35271388 -0.2842249 0.18391912 0.19442505 0.09250145 1.324308 0.21461554 -0.82872254 0.112869404 -0.6285216 -0.45909512 0.14855379 0.017961485 0.061867543 -0.06232069 0.4616384 0.18090974 0.1609849
quantitative.a.02 0.18994497 -0.39001927 -0.052790027 -0.43881795 -0.37096316 0.34793037 0.7095863 -1.7363625 0.022291536 0.5652701 0.4829426 0.53242624 -0.06626003 -0.43569884 -0.71936125 0.91521615 0.9445436 -1.0563022 -0.36236888 0.052689895 0.5674046 -0.87043816 -0.09626556 -0.7238291 0.33659396 0.030615417 -0.34023464 -0.3688438 -0.54579604 0.016925143 1.5916206 -0.6729566 0.13030614 -0.76716983 0.3038637 -0.33907935 -0.08443029 1.0573611 -0.022973666 -0.14061046 0.39758903 -0.423153 0.55612576 0.872186 0.5453057 -1.326062 2.2940996 2.194406 0.7446916 0.7943101
valuable.a.01 -0.08995026 0.47865987 -0.022153746 0.6042608 1.3592348 -0.09300296 -1.0375097 0.09239749 0.71460074 0.7899599 0.27363488 1.0307484 0.5669875 -0.14066753 0.28259885 -0.16991787 0.928921 -0.008437733 -0.059056975 -0.2437055 0.14857744 -0.45020527 -0.09003573 -0.9010808 0.14339939 -0.94168884 -0.5262037 -0.7139387 1.1086808 -0.59563774 2.3867178 -0.023570314 0.4889428 -0.9118064 0.6455348 1.103908 -0.7565259 1.3276367 -0.40407157 -0.62767196 0.3261252 -0.40768868 0.6071377 0.84400153 -0.33066097 0.22170128 -0.67712116 0.97392756 -0.040570192 -0.3318518
stupid.a.01 -0.42078826 -1.120502 -0.3663957 -0.6650206 0.32583046 0.39001122 0.3693459 -0.63813436 -1.0960537 0.6854974 -0.9301885 0.8630432 -0.16168325 0.36525267 1.0198812 -0.062400185 0.7401271 0.6305205 0.13805549 -0.5128946 -0.77712435 0.66489697 0.54671466 0.46390224 1.4210873 -1.7571172 -1.2322385 0.83200043 1.6834843 -0.8810939 1.5837218 0.14445135 -0.35027406 0.19252522 -0.5779158 0.17931145 0.48165932 -0.32164985 -0.412721 -0.7049311 -0.3888851 -0.21173322 0.3794024 1.1189198 0.69848305 -0.14173232 -0.22989264 0.35680032 1.502229 1.206279
subject.n.06 0.8026434 0.30237314 -1.392783 0.38081917 0.4846304 1.617264 0.685272 0.02553981 0.52661157 0.04796886 -0.6428449 0.83899295 -0.53874713 -0.07286178 2.2133777 0.043707762 -0.6083901 -0.9722211 0.016232155 -0.8413072 0.77291036 0.1656401 0.43364775 0.12561277 -0.15711722 -4.3483505 -0.9088751 0.32949904 0.23932211 0.24624284 5.524855 -1.9874085 -0.5683765 -2.3735745 0.22258638 -0.55973196 0.33876514 0.04830975 -0.38640395 -0.43119282 -0.2429945 0.47880664 0.87362146 1.9176869 -0.48702827 -0.29083118 0.23531336 1.0613959 0.025012374 0.4262514
prize.n.01 -1.5338173 3.5911052 -0.48646602 0.26575544 1.3618635 0.9364028 -0.8335911 -0.7853018 1.3170856 1.556574 0.1451875 0.6874863 0.33285996 -0.2087115 2.0779784 -2.220931 2.2302685 0.7490712 -2.1391969 -0.3197501 1.8451359 0.17848024 -0.39899826 -1.9531596 0.5023985 -2.700304 -2.9261084 -2.4034393 -3.6697717 -0.52144134 3.3929584 0.41053832 -1.5474191 -1.0300313 -0.7199336 -0.20131166 0.44975615 1.4734657 0.16211309 -1.98386 0.93783486 0.6144075 -1.2685695 -1.3960203 -2.1856673 -0.71717626 -0.73518026 0.40726045 -0.94200367 -0.3610552
cup.n.02 -0.34485266 0.55708355 -0.62209016 1.1133208 0.68914235 0.8348182 0.15921994 0.968931 0.72184575 0.32330564 -0.52836394 -0.52243394 -0.48165166 0.23153116 1.679834 -1.1143249 0.8402288 0.79761314 -1.9471425 -1.1971256 -0.097273305 -1.14063 1.1718504 0.23337844 -0.14839981 -0.5063214 0.11742831 1.1959108 1.1972038 0.77397144 1.3891783 1.0283103 -1.0925698 1.7569239 -0.29604152 1.066953 -0.62181985 1.7750183 -0.52139693 -1.9053663 1.2041664 -0.45790845 -0.88599366 -0.25492442 0.056112904 1.3493865 0.51303214 0.97404057 0.35280955 -1.7217587
university.n.01 -1.1532156 1.3413072 -0.8056453 -0.4867581 -0.30320632 -0.5106072 -0.89159465 -0.5421995 -0.22062378 -0.35161382 0.48085043 -0.51583755 0.15005696 -1.1461059 -0.42076454 0.30759007 -0.04981121 1.0009757 -1.0579605 1.3941952 0.73911214 0.67744344 -0.17060412 0.026610903 -0.03871171 -2.6165214 0.0620938 -0.84935886 -2.1152914 -0.9350531 2.7256863 -0.14018096 -0.19780391 -2.2316146 -0.034291144 -0.009692373 -0.08806113 1.1719366 1.6565775 0.68098897 -0.23548235 -0.16634433 -0.23215072 0.3565641 -0.07415523 0.42259893 0.44600844 0.32544094 -0.4830724 -0.03533232
library.n.05 0.18449064 0.9636004 -0.049549747 -0.5362816 0.499182 -0.76954085 -1.1939412 -1.2891774 0.7058699 -0.3558505 -0.30604878 0.32268223 0.58098173 -0.5666343 0.21163245 0.2405231 -0.38054672 0.5079307 0.59140056 0.18901648 1.3712535 -0.023418086 -0.7527905 0.22206302 -0.26084816 -0.9432228 -0.63903314 -0.28317147 -0.9981216 -1.06916 2.3574104 -0.9630668 0.097552665 -1.5160168 -0.36899194 0.94462085 0.5064821 0.7084836 0.55133516 -0.23221241 1.0314251 -0.47460508 -0.29364356 0.5753027 -1.1391671 1.1256508 0.045552112 -0.5454673 -0.4505384 -0.23587342
competition.n.03 -1.5798635 1.1992086 -1.6346409 2.5730221 -1.2317355 1.1519042 -0.44984752 2.1180449 -0.81366026 0.14841004 0.03876386 -0.9598236 -3.4881766 -0.33566597 0.7583798 0.0493273 0.93918735 -0.12815116 -1.6439843 -1.1178344 -0.895441 -0.7404456 -0.39473584 0.7910434 -0.21425924 -3.7302842 -0.19312352 -0.25471973 0.042935867 0.49758196 5.888928 2.1094232 0.65964514 -1.1240344 0.107072435 -0.79102534 -1.7725078 1.7641844 -2.1549864 -2.313667 -1.0463077 -1.5877064 -0.6614407 1.5549033 0.25797477 0.78108704 0.50572455 0.607197 -0.95862305 -1.112799
legal_profession.n.01 -0.96739 0.40420413 -0.822783 -0.3958651 0.31300077 -0.096760705 -0.3917817 -0.09704325 0.032129012 -0.09317872 -0.20993833 -0.18421465 0.07222858 0.91745305 -0.039324146 0.14270677 0.06175806 -0.21817322 -0.29549563 -0.9084874 1.2165172 0.113434836 -0.3837816 0.96651816 -0.92008466 -1.639672 -0.029289862 0.38595355 0.037908413 -0.39682844 2.2533796 -0.43378395 -1.0621113 0.28433126 0.32030252 -0.22410326 0.64392924 0.049634263 0.75832343 0.41927847 0.17046863 0.60276854 -0.116209574 0.74218845 0.042986896 -0.1963262 -0.069338955 -1.0145032 1.011524 0.004431327
percentage.n.01 -2.8085687 0.15638396 5.363425 0.28725046 2.6825125 1.7376125 -0.9036202 -3.0689225 -0.69287604 0.56924284 0.6524052 -4.6967278 1.671018 -1.6700718 1.4289197 0.36420494 -2.1352563 -1.9990996 -2.321031 -0.35482708 1.598172 -2.5118735 1.5540357 -0.84727985 -0.7758402 -1.3086431 0.65420705 -1.132444 0.6163816 2.901305 8.571975 3.4116259 1.0210648 2.6641614 0.56497514 -4.1026607 -1.8834757 0.20811626 2.5071037 -1.9719266 -2.151175 -0.72758913 1.6404985 -0.6821273 -1.3764071 -1.2245551 0.43877214 1.1535512 4.2631035 0.69282424
finger.n.01 -0.4798745 -0.33179232 -0.25313842 -0.36848605 0.6572572 0.7949627 0.28670105 0.37626994 0.60244465 -0.077107966 -0.16446489 0.21754166 -0.47151652 0.5268395 -0.4400364 0.47353038 -0.31267777 -0.8217486 -0.10448844 -0.55147135 -0.15508069 -0.033869036 0.8763515 -0.2306769 0.59500307 -1.8448044 -0.29960328 1.2382017 0.6454145 -1.4506649 2.447224 0.22328408 0.3624424 0.77684844 -0.4870837 0.4967447 -0.041099723 0.16134682 0.42656687 -0.011720004 0.23060447 0.39805698 -1.0675241 0.8123939 0.61233777 -0.25951356 1.1361874 0.012828118 -0.16161236 -1.0582587
manner_of_speaking.n.01 -0.4737065 0.03412293 -0.74821734 -0.4917662 0.7727734 0.24571277 -0.6860568 -0.86836046 0.6421478 0.9884681 -0.7422494 -0.30488038 0.5942484 0.18974534 -0.39107206 -0.19404858 -2.6283946 -1.0410804 -0.4121209 -0.87784445 1.7835395 1.2748675 0.18198182 -1.2817858 1.3395525 -2.4405813 1.577951 0.3412693 0.82359755 0.868502 5.66203 0.002488675 -0.6986967 0.098166 0.25764942 -1.1196481 1.2531674 0.74175596 -1.2561486 0.5120292 0.56387454 0.32451183 -0.9545577 0.32379836 0.4604281 0.9658267 0.07950001 1.1455638 0.12511541 1.0237999
presence.n.01 1.0720845 0.3452464 -0.14123435 -0.13038792 0.829899 -0.18122569 0.07279347 0.45266706 0.27764627 0.19313078 0.6354617 -0.23139337 0.29983404 -0.1200339 -0.14585999 0.74597317 0.2913152 -0.24377035 -0.102474645 -0.56410474 -0.5803868 0.12784448 -0.1383615 -0.1619342 -0.08068902 -1.5381129 -0.32317066 0.31520674 0.46301368 0.419002 2.8659751 0.18591185 -0.11465837 -1.1645178 -0.16508414 0.16490932 -0.2693208 -0.3028426 -0.8827596 0.0015977125 0.058361236 0.33096603 -0.13307442 -0.23815738 0.54284203 -0.12072409 -0.25024003 0.38470984 -0.8142396 -0.4238633
campaigner.n.01 -1.8574541 1.2943333 1.0429624 0.28510654 1.021144 2.430691 -0.5918038 0.039078232 -0.025654485 0.24035709 -1.2804059 -1.0621774 0.19284123 2.1618836 -0.10626753 -1.7403107 2.2273536 -0.5924397 0.66514 -0.4564464 -2.3281367 0.41753313 0.78128743 -0.7450695 1.3096793 -5.0950003 0.6580319 -1.2160457 -2.899302 2.9094372 3.082021 -0.10846207 -3.790833 -2.930486 -1.5627584 -1.9536177 -0.5970208 2.0746367 -1.4000589 -3.6279316 -0.7496675 2.0990233 -2.2853363 -0.54451436 -0.3125946 -1.0340153 -2.8706946 -0.9951207 1.8352919 1.8748804
gentleman.n.01 -0.614706 0.5359445 -1.3500772 -0.91681683 1.4230471 -0.36967474 -0.48019227 0.5269601 -0.6450217 -0.170321 -0.19620125 1.0883442 0.6831828 0.18730478 0.25631484 -0.46892613 0.11486068 0.8349586 -0.12773696 -0.4732937 -0.35569444 0.8614191 -0.24339409 0.56707424 0.6129849 -1.3715159 -1.2042528 0.08847229 0.5317529 0.2517923 0.88392586 -0.6475812 -0.5472812 0.50864714 0.5435103 0.045708034 0.08177926 -0.18974797 -0.21016894 -0.9344852 0.3795349 -0.15547872 -0.26243478 0.71513987 0.07408596 -0.4904798 -0.4631374 -0.44484186 0.53900385 0.49336666
pension.n.01 0.30727202 0.13658173 0.6494872 -1.0477306 -0.48406962 0.82715154 -0.2936605 -0.03731351 -0.01272472 -0.36666068 -0.17324848 0.7162013 0.3863658 -0.14014803 0.35862458 -0.2964033 0.045038715 0.45182586 1.2090396 -0.7452787 0.63729054 -0.90632486 -1.0065753 -0.8712694 -0.9887152 -1.289281 -0.2573824 -0.6671851 -0.23086283 0.96651155 2.442741 0.7930966 -0.050006364 0.56633335 -0.2922445 -0.047208104 -0.319768 -0.3495136 1.378903 -1.1596323 -0.7722723 -0.4451487 0.82553154 1.1489725 -1.526435 -0.8392746 -0.770437 1.0823821 0.2908121 0.67683685
weather.n.01 0.32935163 0.30430603 -0.6692503 0.037365504 -2.5955048 -1.5781173 -0.72263974 1.0794554 0.9662139 -0.94861823 1.0603808 -0.4031822 0.78180856 0.4157327 0.8188293 2.0569642 -0.27766785 -1.3356106 -1.0387251 -1.8157512 -0.9240368 1.0733535 0.92326295 -0.52791256 1.5750852 -0.93034375 -0.96807677 1.3096769 2.7143981 3.0517025 6.8532667 0.24297994 0.11251988 -1.6928041 0.19064282 0.05019167 0.32944888 0.20442708 0.02568304 0.021899687 -1.6886234 0.22422573 1.9879757 0.4430613 0.8008492 0.12517071 0.44359243 0.5375987 0.6031849 1.0626107
youth.n.03 -1.0160261 0.8142654 -0.88716704 -0.63718396 0.29888374 -0.11690693 -0.3648938 -0.07895634 -0.15269142 0.3551295 0.7516138 -0.4484987 -0.3014602 -0.02358296 0.052009866 -0.78083307 0.57397133 1.1013271 -0.23440461 0.51078343 -0.3339405 0.7374482 -0.14874394 1.2648503 -0.5101242 -1.0790429 -0.13829826 -0.7769644 -0.87984025 0.21259938 2.6953735 1.2256347 -0.41032088 -1.4301785 -0.48702952 0.5018681 -0.25886047 -0.31538072 -0.10343126 -0.5956695 -0.44814184 -0.89594066 -0.45117342 -0.13294892 0.6669698 -0.05991582 -0.48723716 -0.29246107 0.35279083 -0.0399895
screen.n.04 1.2307338 -0.24144483 0.6877311 -0.91821194 -0.22567117 1.2864617 0.6350778 -2.296364 2.2168896 0.3698674 -1.3656855 1.449599 -0.64096093 1.4307888 0.6072131 -0.2730223 -0.15558596 0.16266388 -0.0034056322 -0.34279147 2.3147435 0.7643449 1.434035 -1.3879961 -1.4473783 -3.587932 -1.2878007 0.5841301 3.292778 -1.1829088 6.857128 -1.3862664 -1.6863452 -2.7706075 -1.0268533 3.9066298 -0.48493776 -0.1760252 -2.385265 -1.8079218 2.0297375 0.6755764 0.819299 0.56892157 -0.19976555 -3.016738 1.9736087 0.7757803 -1.1459807 0.42964938
expert.n.01 -0.34362283 0.4104403 -0.4656397 0.37597764 0.4036294 -0.1684918 -0.27145115 -0.58653796 1.076615 -0.5225973 -0.0027495993 0.4136197 -0.1242245 0.5549988 0.14194906 -0.1429781 0.51177925 0.15145093 -0.02242605 0.0693078 0.28927633 0.6066326 -0.40651828 -0.30239463 0.29087391 -2.0126143 -0.54782677 -0.7497419 -0.9876192 0.30850494 1.9234394 -1.0315124 -0.31005108 -1.1863033 -0.108222045 0.3923949 -0.17084023 0.6405993 0.7504794 0.17776096 0.21426752 0.56807876 0.76238185 0.33914474 1.4770323 -0.069415495 0.31826067 1.0823581 0.13928503 0.7433352
cat.n.01 0.46152696 -0.45425218 -0.59701437 -0.11809461 0.2416261 0.5916894 -0.65090615 -0.72007406 0.7378832 -0.20450707 0.34652987 0.7673506 0.9377203 0.5571394 0.43876645 0.40323505 -0.10180997 0.6077902 -1.2846115 -0.3133467 -0.52635986 0.07870544 0.3602883 0.5189674 0.62377965 -1.2897351 -1.1613326 0.4595983 0.27783236 -0.81440276 1.5661765 0.3440625 -0.28983352 0.83685493 -0.29062945 0.344825 0.19734079 -0.4348245 0.33144724 -1.0854642 -0.06831259 0.4631269 -0.43197146 0.76131153 0.9797102 -0.31129256 0.58574665 -1.2708563 0.767326 0.11159291
urine.n.01 1.8492808 -0.30564502 -1.4390516 -3.7877336 -2.451654 -2.6687303 0.26180807 -0.22900727 4.902955 3.6915329 1.5069646 1.8563324 1.8017845 -0.47448134 0.43140912 1.4144033 2.4498458 0.5821926 -0.5798005 -2.4317472 -2.4294944 -0.26214647 6.3437715 0.5464594 -0.07776746 -1.1080896 -1.9219398 5.90939 0.99684876 -2.1854925 3.2318563 1.2944456 -3.1916823 1.3645484 -0.15044254 1.5319471 1.1742287 0.97886705 5.0507493 1.1192303 0.18968184 1.0050311 -1.6290863 0.9477034 -0.22127135 0.44508862 1.1994675 -2.27918 2.1913605 -3.9328015
expectation.n.01 -0.5971602 0.867805 0.8524684 -0.8538071 1.7808325 -2.1983247 -0.80934227 -0.023409883 -0.23006766 1.48161 0.29329124 -0.05627151 -0.82634044 -0.8944231 0.9604978 2.0194075 -0.5297425 -1.656409 0.5358736 -1.2610228 -0.11527125 -0.8274718 -1.4323996 -1.3687608 0.9695547 -2.0310612 -1.0055466 1.8907353 1.2737837 3.2725966 5.9518433 1.2396535 2.3196495 -1.5864165 -0.34079012 -2.965381 -1.4975289 -0.68805075 -1.0741872 -3.5490506 -2.0191026 -1.6504331 -0.2302601 -0.019283706 -0.09268156 0.4909084 0.71188056 3.0251112 1.0913895 1.1285614
index.n.05 -2.9412284 -0.6320297 0.89370257 -0.24948704 2.9447355 -0.42730567 0.75860256 -2.4027567 -0.4248498 -0.1671969 0.5322933 -1.254897 -0.9837506 -0.12086154 -1.1155263 1.3885407 -2.8250465 -2.3892 0.6636415 0.4671066 0.6594525 0.6202985 0.50763464 -0.80925393 0.77600837 -0.5197641 0.00228853 0.95399165 0.6308249 -0.5696149 3.964939 0.5166519 1.4998648 0.81952226 -1.2842618 -0.8597199 -1.3210791 -0.3744584 1.514053 -0.041542277 0.13440196 -1.3143576 -0.25217623 1.627251 -0.6580478 -0.004570633 2.7205179 0.19572811 1.10142 -2.0481865
territory.n.03 0.23858179 -0.33113718 -0.068861805 0.22019868 0.024485135 -0.35215238 -0.41376182 1.0198574 0.3882528 -1.5306202 1.2552851 -0.84767133 1.8775705 -0.6146009 -0.70514625 1.7183601 2.0707467 -0.42434454 -0.91806364 0.65746725 -0.92291963 -0.6070315 1.300938 -0.642948 -0.0033694636 -2.0349476 0.008598773 0.6229261 2.0927014 1.1299396 5.7641964 -1.7268149 -1.5662552 -1.0321757 -0.12686375 0.99008095 -1.6831069 0.31450632 -0.4841407 -0.0743058 -0.38381165 -0.35391915 1.6439971 -0.112937726 -0.71972585 -0.69800687 -0.06550938 -0.44432938 -0.2535767 -2.121954
floor.n.02 0.55256826 2.367122 0.8307437 -0.7689771 2.8290267 -0.83710283 -0.57212657 -1.200807 -0.053777903 -1.8940735 -2.8202345 -1.7578772 -1.9783278 2.4230554 0.87340164 -0.12273663 -0.17309389 -0.07977888 -0.925827 -1.4843935 1.8683286 0.4516044 -1.5929495 -0.15786274 -0.33931673 -2.7371883 -0.88041514 2.278625 -0.06670188 -0.2040911 10.567684 -2.4060225 1.7352679 -1.0719061 0.5250939 2.2378192 1.6129816 0.63998723 2.1236482 -1.1573118 -1.1404886 -0.52820855 0.07865262 0.76410353 -0.93416774 0.63514984 2.121357 -2.7561016 0.78937703 -0.5016567
cigarette.n.01 -1.0800807 -2.2747304 -0.8411604 -2.1128974 1.6689558 1.4949391 1.0818195 -2.3459873 2.2597916 0.6893223 -0.54097337 1.2276702 -1.622852 -0.08416936 1.1065356 1.5445616 -0.20298219 0.5125784 -1.1053662 -1.2695765 1.4476112 -0.04544837 1.2738664 0.5284718 -1.8135707 -3.6827438 -0.7486926 2.3659894 1.3178735 -1.2520331 1.0560929 0.9525403 0.28478107 3.2137585 -1.1478779 -0.858567 0.7057607 -0.87243646 0.7785145 -0.76127046 1.3252156 0.8366071 -1.4706196 2.2064128 2.2946494 -0.54058796 0.16533393 -0.91877735 0.15317182 0.21800223
sales_talk.n.01 -0.2612935 -0.18263754 -0.7267153 0.46469218 0.50498277 -0.37127307 -0.32458115 0.76322204 -0.3139757 0.43833902 -0.1660117 0.39951596 -0.48795223 0.38587958 0.022718556 -0.087435536 0.59771985 -0.41527122 -1.1867479 -1.2785263 -0.86562014 -0.40341455 -0.012986234 -0.2897963 0.7127322 -0.96326715 0.853529 0.8932213 1.3170462 -0.9918101 3.1940308 0.47824484 0.40646353 0.37156373 -0.059132844 0.21827765 0.5865175 0.65713143 -0.15020391 0.14817996 -0.077123664 0.05916081 -1.2002771 1.3672731 -0.2641957 -0.12058457 0.6292724 -0.1912577 -0.2504183 0.45630816
