1000 50
old.a.01 -0.047388643 -0.0052211266 -0.022541564 -0.018459797 0.029457593 0.060748786 0.008806159 -0.0018480377 -0.08085208 0.014151288 -0.021816652 0.07615025 -0.008903707 0.034087036 0.06332825 -0.041557156 0.039673682 0.11080279 -0.019672303 0.005765823 -0.050758664 0.06815224 0.0032043515 0.02102076 0.0033271392 -0.06320629 -0.040045153 -0.038899627 0.006020598 0.0318172 0.03174085 0.06612248 0.056215063 -0.026312314 -0.013147666 0.018301297 -0.09246609 0.006684197 0.01818541 -0.095456146 -0.06025013 0.025598042 -0.073684186 0.033240605 -0.00011223799 0.05424967 0.048048645 -0.084528685 -0.059708826 0.049022574
tidy.a.01 0.043728895 0.004992308 -0.007237699 0.008058967 0.042183734 -0.021364486 -0.0607866 -0.009927909 -0.024854403 0.010382699 0.018671438 0.021323418 -0.06020529 0.05910369 -0.033329006 -0.014073939 -0.002910523 0.03464837 -0.00078092987 -0.043359682 -0.007375968 -0.00077681645 -0.02471432 -0.022088815 -0.014147254 0.010515192 -0.011372021 -0.036380224 0.037016504 -0.075938635 0.0030529813 -0.059842065 -0.009663184 0.0016300939 0.05078792 0.013962533 -0.012527721 0.062911205 0.007213266 -0.04249197 -0.022084262 -0.07608419 -0.055031437 0.021790562 -0.018838266 0.04772105 -0.00026667892 0.0009067775 -0.029130783 -0.039817616
available.a.01 0.010613551 0.058949385 0.02212493 -0.031040067 0.0008973831 0.017265946 -0.060360536 0.006865872 0.052749816 -0.017782569 -0.018761205 0.01471245 0.025540803 -0.0717628 0.0026890377 0.020782907 0.04147686 -0.020915741 0.07592584 0.029090537 0.10870018 -0.002252252 -0.0067385207 0.017721755 -0.057300195 0.0005057205 0.02800715 -0.01864089 0.049193297 -0.02445064 0.026718838 0.004693616 0.0065745427 -0.031821497 0.024516936 -0.004062313 0.015089778 -0.07695737 -0.032979894 -0.03458204 0.03634284 0.012930769 0.031480502 -0.00121568 -0.04237722 -0.05544091 -0.004055363 -0.028234223 0.011437377 0.055717357
warm.a.01 -0.006914123 0.04569408 -0.01779699 0.10835153 0.019022265 -0.062102385 -0.0646282 -0.006023144 0.008373126 0.03573961 -0.01842654 -0.036253847 0.03378736 -0.022034753 0.0064368937 -0.034720395 0.018305622 -0.0017913729 0.01726456 -0.019679954 0.012024794 0.0051321 0.06286224 0.015761157 -0.020300623 0.012871915 0.0055988366 -0.028378645 -0.037430145 0.015287796 -0.0032211847 -0.032008093 -0.070778854 0.04405749 -0.0433558 -0.03910355 -0.07453038 -0.012168705 0.080879726 -0.0425152 0.04955008 0.025053447 -0.081247404 0.0066713137 0.048163075 0.061613865 0.007716314 -0.07505152 -0.0077439696 0.0061365226
strange.a.01 0.012888658 -0.011470144 -0.08836012 0.0029690717 0.019624125 0.013612998 -0.029492233 -0.030237831 0.009777308 -0.0069168145 -0.04323843 -0.025251094 0.032854315 0.034953903 0.0324506 -0.0123112695 -0.013650925 0.019957185 -0.05341168 -0.0015126158 -0.09261356 0.05673357 -0.010519986 -0.06271012 0.025145948 0.0400111 -0.026979405 0.016105337 0.018982382 -0.044935867 0.023570435 0.021938484 0.016803145 0.00472549 -0.0071490123 0.009293567 0.004504639 -0.033449583 -0.017937219 -0.02447112 -0.030405384 0.030346455 0.029859183 0.006711105 -0.015413612 0.04202767 0.023707265 -0.019311417 0.056708474 -0.0270824
odd.a.01 -0.008572588 0.018805256 0.015692359 0.02053126 0.005397944 -0.012027547 0.0029542032 -0.0023858654 -0.0099309115 -0.029240208 0.09941088 0.014888583 0.008175769 0.05700817 -0.019271838 -0.022076724 0.0021095523 0.031093892 -0.04165546 -0.02439145 -0.012873624 -0.005776441 -0.003725935 0.03688721 -0.040671047 0.026613392 0.024635151 -0.033306837 0.0049322704 0.007765075 -0.023946345 0.00762757 0.012292855 -0.021525687 -0.027740689 -0.017509773 0.03610535 -0.013559391 -0.012575834 -0.01147758 -0.05306315 -0.053133972 -0.016745817 -0.036007646 -0.03633641 0.030855974 0.0062393 0.03089695 -0.013010309 -0.02506334
impermanent.a.01 0.06393113 -0.028143674 -0.029966086 0.048084628 -0.045378953 0.089941725 0.032213602 0.003135172 -0.025590925 0.024493134 -0.004139999 -0.041817725 0.03160436 -0.008079291 0.05174289 -0.043556977 -0.023006894 0.023808561 0.021779398 -0.008770176 -0.04988063 0.014653743 -0.08913948 0.014090225 0.008268442 -0.028379666 -0.023156006 -0.02434799 0.027302032 0.030922163 0.031139357 0.0056427266 -0.00522116 0.054070435 -0.055007692 0.02478365 0.071523376 -0.09857151 0.0009162043 0.013048756 -0.032290068 -0.023134679 0.0033788579 0.019568127 -0.07590633 -0.024018813 -0.025942674 0.0318135 0.027495429 0.01911833
sensitive.a.02 -0.025435356 -0.030739542 -0.04717256 -0.055034056 0.0065320274 0.0055982475 0.017984143 0.04440726 0.008381706 0.020490665 -0.0344281 -0.03156419 0.04525322 0.03791611 -0.012216464 0.06916812 -0.0040872116 0.00833692 -0.009387297 0.013740873 -0.05008224 -0.011229393 -0.025099238 -0.07444708 -0.006083677 -0.003328587 -0.024271246 -0.021861035 -0.027425973 -0.01622631 -0.017986026 0.037971884 0.008483572 0.020244353 -0.02614624 -0.0057287333 0.01502669 -0.07180641 0.023470178 0.029464187 0.021943303 0.07078089 -0.045708343 -0.004842404 0.08116625 0.04137336 -0.0073166885 0.04507747 0.00522866 0.012565182
fat.a.01 0.014900405 -0.071189314 -0.041666538 -0.066995524 0.075524874 -0.0040358086 0.031967655 -0.0021158233 -0.04547742 -0.04610152 -0.060969938 0.08892854 -0.00518288 0.033440284 0.0243738 0.09731822 0.025120053 0.009530606 -0.025437841 0.013569457 -0.018652407 -0.061141167 0.060856458 -0.022216335 -0.06564162 -0.033147685 0.09657707 0.03198412 -0.0043203365 -0.02611856 0.0040180464 0.014072637 0.073153995 0.09447056 -0.011520448 0.006322522 -0.019405857 0.026906027 -0.011282462 -0.0028711797 0.010565973 -0.01384345 -0.0127212405 0.019909015 0.11392027 0.10178912 0.05191422 -0.038937002 0.0009772166 -0.001121224
outer.a.01 0.03327744 0.06520781 0.0049980762 0.06307165 -0.028162098 0.011515988 -0.016963873 -0.07968602 -0.07825674 -0.0226258 0.022550588 -0.018162522 0.008627407 0.00042587437 -0.026425732 0.023094825 0.015013436 0.054814983 -0.012345021 -0.034935225 0.018052408 -0.013261484 0.030119192 0.05096395 -0.039048817 -0.0014490758 -0.019646464 0.01434958 0.053925354 0.019300843 0.005454022 -0.037816986 -0.03119993 0.009791561 -0.012480969 0.05249024 0.04826497 -0.025163349 -0.016858857 -0.0048394008 -0.047822997 0.0018547537 -0.022439746 0.04705324 0.008934041 -0.04613179 0.022530485 -0.0058424375 -0.047505517 -0.027865106
plain.a.02 0.027475046 0.079319865 -0.03292891 0.02635717 0.020477584 0.017773915 0.028806902 -0.098338775 -0.034574486 0.04359447 -0.0008389987 0.0263203 -0.028698362 -0.041233897 -0.019844986 0.026777415 -0.019548114 -0.03939591 0.009824287 -0.043764465 0.0050750263 0.019433333 -0.08565341 -0.008023003 -0.059107624 -0.043357603 -0.038981464 0.06867171 0.03853097 -0.07445967 -0.015337428 -0.08268668 0.0015565393 0.049772613 0.0028149302 -0.00948398 0.018921077 0.013239858 -0.023241237 -0.08423221 0.10039455 0.011599992 -0.05374577 0.021439504 0.029874893 -0.036225118 0.051125355 0.0080277575 0.05013254 -0.017638411
structural.a.02 -0.06848337 0.0482401 0.008388527 0.046264585 0.023356887 -0.042053957 -0.02831854 0.008633791 -0.005849804 -0.01872629 -0.038879674 -0.04267162 -0.030827064 0.03684547 -0.06921103 0.03583064 -0.0032267554 0.02869152 0.020430421 0.027133202 -0.005552752 0.051502522 -0.06926979 -0.018284192 -0.039866935 -0.023445345 -0.0104151415 0.077338666 -0.018511908 -0.0027673417 0.009852061 -0.0075575784 0.027522607 0.020105392 -0.07083858 0.027199566 0.0029997812 0.05229497 0.0047713546 -0.04010768 -0.00013534266 -0.05082853 -0.0019907977 -0.03290585 -0.005513534 0.062493395 -0.004400487 -0.011989066 -0.0024788296 0.053660247
objective.a.01 0.035751272 -0.020284524 -0.02350345 -0.055237755 0.0504864 -0.045969877 0.05290128 -0.01877668 0.07411119 0.0140983295 0.062237944 0.017106012 -0.04144541 -0.051539417 0.004135431 0.030692108 0.047549076 -0.034859914 0.073378295 0.022829363 -0.01659538 -0.031023117 0.018584484 -0.10974863 0.022828422 -0.05937947 -0.03972471 -0.03789863 -0.02918211 -0.024820289 0.019961048 0.024532314 -0.06673009 -0.02117457 -0.011995651 -0.056722738 -0.035883453 -0.037721727 0.08249848 -0.00795224 0.0062752436 -0.019516181 0.004099568 0.021517519 -0.103807285 0.0545921 0.08402339 0.08553447 0.0048397705 0.044182595
ambitious.a.01 0.0028350828 -0.0025588865 0.025349522 -0.005132335 0.0061183413 -0.07649104 -0.10113147 0.019947484 0.020082843 -0.032126863 -0.015602841 0.01837101 -0.10494228 -0.058923505 0.027913453 -0.04733764 0.07076018 -0.10042092 -0.0154254725 0.019051602 0.027393697 -0.0016453019 0.047739632 0.010446821 -0.08429861 -0.048945095 0.0008059144 -0.058090184 -0.035268214 0.026345821 0.051790554 -0.0065743164 -0.1072491 -0.05064755 -0.026559623 -0.05559204 -0.006010614 0.04811607 -0.008657154 -0.03942172 -0.06750198 -0.00895893 0.00934245 -0.024949888 -0.06337056 -0.0062609892 -0.017726861 -0.045468725 -0.01978337 0.060024463
mobile.a.02 0.013537512 -0.056444805 -0.08746497 -0.031907827 -0.03323912 -0.09070472 -0.055624872 0.04044752 0.05526755 -0.015824396 -0.0137097025 0.05906603 0.040351216 0.03865251 0.025525423 0.020772949 0.0026468514 0.005346905 -0.070624664 0.033736203 -0.011900078 0.06309399 0.09789459 0.02363022 0.034437582 0.029526616 0.025454363 -0.005346202 0.02774868 -0.014245593 0.05965186 0.06907764 -0.06933249 -0.0034509755 -0.0049160384 0.07255789 -0.04890161 0.01450411 -0.044694714 0.0032605384 -0.07161839 -0.012488661 0.01757529 -0.018609291 -0.020021642 -0.028417282 0.101149805 -0.023018941 -0.037317723 -0.0041567865
ethical.a.02 0.046554726 -0.08403123 -0.05707888 -0.05638475 0.045920886 0.10402188 0.0066961916 -0.021175304 -0.002003577 0.05316262 -0.06956413 -0.002794989 -0.059991084 0.09850873 -0.06940779 -0.045336157 0.08994394 -0.04459028 0.0404185 0.00534488 0.063260525 0.022382328 -0.013909787 -0.045732584 -0.026038045 -0.12513173 -0.0100364005 -0.077598765 -0.004516398 0.044474654 0.037367795 -0.08764041 -0.12033227 -0.07061633 -0.11361995 -0.007917635 -0.013977007 -0.027782153 0.0014760826 -0.02050893 -0.05975606 -0.069280654 0.035663664 0.11028349 0.04302883 0.017096655 -0.07685042 0.18849699 0.039324217 0.050663605
bureaucratic.a.01 -0.02166531 -0.04444875 -0.023180831 -0.033473913 -0.058341637 -0.027640056 -0.07155097 -0.035279337 -0.031152543 0.01193999 -0.0040495936 0.0067379875 -0.00023623333 -0.05396966 -0.033506624 0.022863943 0.005294719 -0.052092943 0.04690975 0.08666129 0.033689424 -0.034322254 0.019361457 -0.013307677 -0.032755025 -0.006130395 -0.0079958495 0.0028595563 -0.044827245 0.036539532 0.041962806 -0.02973179 -0.084354445 -0.030457973 0.026653124 -0.054962352 0.0057163057 -0.009176869 0.007147099 -0.00011853916 -0.012009216 -0.01667679 0.03458705 0.00018306094 -0.0652585 -0.0078771785 -0.067925125 -0.041148037 0.016259562 -0.004873483
grotesque.s.01 0.06453699 0.030401599 0.009621741 0.032879855 0.03486801 0.047804687 0.03079203 -0.016764654 0.05701506 0.0725381 -0.019634292 0.08719579 -0.08141968 0.0959608 0.022838088 -0.040004402 0.079769716 0.024405688 -0.016596148 0.095405705 0.009031764 -0.02764944 0.07170159 0.04333758 -0.044839144 -0.043290485 -0.01690049 -0.022336058 -0.03532223 0.004610941 -0.065345846 -0.05266786 0.04261691 0.006090659 -0.031634875 0.06859483 0.005184811 -0.047171667 -0.06320555 -0.039275955 -0.068230845 0.06493679 -0.0061635496 0.024778398 0.042466674 0.0034744823 -0.02364091 -0.0030597525 0.03651611 -0.08661969
exotic.s.02 0.002453273 0.033544805 -0.044420723 0.028001701 -0.0049074804 -0.04997875 0.006157789 -0.04507447 0.0052108797 0.048936784 -0.031519476 0.0057796906 -0.020241655 0.06005309 -0.027844207 -0.04000712 0.00096627924 -0.0086807 0.00034473458 0.06616759 -0.057117447 -0.01924588 0.0019830458 0.01320077 -0.0074951537 -0.010397055 -0.032480117 -0.014962785 -0.038261585 0.02129246 0.021438325 0.005918836 0.005459777 0.00834057 -0.07251958 0.016091805 -0.030486101 0.046361875 0.0097997235 0.043658324 0.048053876 0.02398196 0.016977085 -0.010307746 -0.016341237 0.016118446 0.041914538 -0.026862705 -0.03289397 0.01128094
high.a.01 0.007287114 0.082970284 0.08460122 0.0018738803 -0.0038915297 0.03679548 -0.0063493014 -0.03572057 0.013909966 -0.014190004 -0.07160011 -0.09126755 0.07109328 -0.08704476 -0.0100084655 0.05195158 -0.054562546 0.032936774 -0.108169466 0.007427857 0.016410118 0.00019568155 0.005726625 -0.012480927 -0.050836984 0.024041655 0.02334596 0.028836653 0.042648867 0.118585356 0.056676336 0.03993106 0.03131778 0.03478251 0.013273141 -0.09224553 -0.0069562793 -0.0071678804 0.019554771 -0.004498723 0.014179659 -0.0012350482 0.058337595 -0.04293129 0.021884736 -0.028386986 0.031314995 -7.620618e-05 0.014863245 -0.0121347
social.a.02 -0.042528145 0.021536577 -0.11894273 -0.007233257 0.017442608 0.018447647 -0.019738417 0.008181312 -0.09892165 0.005631538 -0.071145155 -0.05794913 -0.008115482 0.0009950965 0.03738321 -0.04062255 -0.016541494 -0.012829657 0.017866012 0.021212224 0.04791993 0.015385559 -0.10258862 0.08243638 0.013437184 -0.0005259127 0.031469055 0.06325037 -0.023035536 0.063033916 0.0406064 0.014556627 -0.08659318 -0.051452816 -0.04519866 -0.09471684 -0.049841378 0.010912993 -0.040595613 0.01952073 -0.012770294 0.012906731 -0.033292037 0.016424796 0.029661585 0.004535624 0.0013419952 -0.036873866 0.024729216 0.042252082
easy.a.01 -0.005924002 -0.008961918 -0.0355409 -0.00068282156 -0.06365791 0.0017635633 -0.0011928967 0.024490206 0.024760121 0.03943476 0.04626284 0.0105608 -0.024719449 0.021888196 -0.0052837776 0.033595085 -0.0524176 0.023343416 0.045763943 -0.059104003 -0.0018465524 0.029768642 -0.070951514 -0.028550223 0.021872347 0.012449952 0.043342944 0.029507726 0.033496022 0.016612468 0.020556193 0.040767856 -0.008388821 -0.007734178 0.044639155 -0.0006851128 0.0071550813 -0.049413253 -0.023519188 0.07160001 0.07369119 -0.041568372 -0.033453822 0.015636303 -0.040534478 0.054438256 -0.0143897645 -0.029837266 0.05472272 0.019169776
poor.a.03 -0.035145033 0.07138147 0.06616842 -0.072730996 0.0048432075 0.0544397 -0.013251272 0.022190042 -0.02323218 0.020093145 -0.035280854 -0.07877657 0.027267689 -0.00045410005 0.042629484 -0.07472583 0.065442614 -0.049490254 0.042438895 -0.07221032 0.027082006 -0.089633144 -0.034138013 -0.0017135978 -0.05463713 -0.023589576 0.01330059 -0.026838595 -0.019327749 0.04466319 0.02382975 0.01770063 -0.019305252 0.035211105 -0.0332336 0.054387223 -0.044476327 0.035868872 0.08416341 -0.07786115 -0.038604792 0.05243648 0.034801874 0.03337991 0.006742188 0.0012138332 -0.08981816 -0.044338454 0.058854386 -0.08195308
inactive.s.10 -0.038888056 -0.008076979 -0.030334784 -0.047860287 0.061886787 -0.041953765 -0.0146240825 0.003495302 -0.033319138 -0.06302171 -0.0018100908 0.018246097 -0.009081815 0.02577567 0.001499256 0.076384075 -0.015721219 0.021790456 0.042916894 -0.01831063 -0.05717806 0.012277613 0.0771389 -0.08545661 -0.013095753 0.055100136 -0.0062169414 -0.011136987 0.060556468 0.024981432 -0.0009852247 0.0355111 -0.003604952 0.011662955 0.02636939 -0.028620457 0.033260223 0.05179335 0.017845303 0.011217608 -0.003655767 0.021101337 0.051302202 0.012759725 0.016255673 0.023334889 0.026972216 0.035832644 -0.0075898655 0.0005013497
abundant.a.01 -0.014550761 0.0098112635 -0.060574107 -0.01220377 -0.023413246 0.08970206 -0.011615268 -0.026179526 0.002874542 0.0051287906 0.006270528 0.010519813 0.056651715 -0.016358037 0.03913608 0.020430882 0.027181469 -0.037364826 0.032583505 0.023840355 0.029221524 -0.031473402 0.04404631 -0.021904217 -0.04510224 -0.00077021006 -0.022753857 -0.007539987 0.037363496 0.03450001 0.054129273 -0.0032958207 -0.0009485462 0.071370974 -0.016233947 0.0058968123 -0.017571088 0.004810825 0.00978573 0.0630715 -0.033273622 -0.0128465025 0.072624154 -0.03110393 -0.03566964 0.026595496 -0.039044175 -0.056306966 0.007895479 0.007701255
green.a.03 -0.0024714195 0.018117215 0.012303049 -0.03129705 -0.027824612 0.049577296 0.017895775 -0.01573129 0.031559724 -0.05151324 0.0051688245 -0.01632615 -0.0034095778 0.03553642 -0.018661562 -0.018090546 0.030755837 -0.016680995 0.061256204 -0.013165534 -0.01750255 0.0055142245 0.009453182 -0.04955995 -0.025906153 -0.005582773 0.007482498 -0.003431809 0.016587934 -0.042215053 -0.020087712 -0.033696488 -0.014496073 -0.014142652 0.0028568446 0.000757586 -0.06457925 -0.022301635 0.041712325 0.018621933 0.030644791 0.04268217 0.034416016 0.0018422479 -0.011345013 0.050969347 -0.012501159 -0.007859591 0.02025834 0.06522207
urban.a.01 0.010334649 0.016725162 0.009808824 -0.096040905 -0.04401441 -0.018627329 -0.01939031 -0.016715376 0.046167504 -0.064559974 -0.01378775 -0.034223236 0.034502793 -0.0022211291 0.025608625 -0.00030250053 -0.013179992 0.038846593 0.03996793 0.010339954 0.07963676 0.06251526 -0.02783319 0.020556675 0.024145523 -0.09769098 0.06326786 0.044998948 -0.008425722 0.014532873 0.060277272 -0.0774662 -0.035241183 -0.03451648 -0.088927194 0.08442624 -0.027153973 0.053072855 -0.0151571315 0.058983535 -0.07385295 -0.06862515 -0.00806866 0.026658207 -0.003436435 0.01806062 -0.04400729 0.045335248 0.05834038 0.011881516
exact.a.01 0.018092196 -0.0062587187 0.019272048 -0.020860216 0.028397856 0.007863286 -0.025924813 -0.05209798 -0.03387906 -0.009760513 -0.021498377 0.017088803 0.045023143 -0.03113282 -0.049855378 0.0029666452 -0.055874206 -0.061734386 0.06447845 -0.07360639 -0.036235355 0.03862777 0.03651387 -0.045419585 0.047515243 -0.00524496 0.015707044 0.024004808 -0.03637286 0.00832804 0.032326877 -0.00962286 -0.036183722 -0.059152715 0.071242616 -0.09785607 0.004761394 0.06748738 0.01603617 0.02941992 0.025438357 -0.011575251 -0.002133326 -0.018901568 -0.05564561 -0.011075269 0.07708659 0.02048553 0.06588418 0.05231859
thirsty.a.02 0.06174031 0.027378457 -0.03721699 0.024286957 0.00027636008 0.023849662 -0.06545987 0.019013569 0.0104097165 -0.003985438 -0.020683385 0.015117253 0.08728818 -0.031590324 0.036203872 0.020685807 -0.021341586 0.10718768 0.051597606 -0.009917366 -0.002359278 -0.016656324 0.051961116 0.0031704616 0.027575726 0.038394846 -0.0072872653 0.026561858 0.015939103 -0.010718695 0.0294313 -0.012072672 0.032579344 0.009403925 -0.0046523805 0.012470325 0.012093632 0.05228826 0.053959977 0.08558991 0.04959614 -0.001647668 0.03053966 -0.021410499 0.10110394 0.016176766 -0.019584442 -0.0679436 0.01804442 0.03975393
operational.a.01 -0.033466596 -0.03611682 0.024723528 -0.0052929977 -0.030801611 0.04094454 0.024819918 -0.10022458 0.078877725 0.040808264 0.0013756733 -0.015058542 -0.0074245827 0.002307322 0.043227006 0.010922345 -0.048393775 0.016337078 -0.0156709 -0.039057057 0.018506477 -0.014316382 -0.055898253 -0.029957335 0.0032752021 -0.05137577 -0.027706793 0.038735025 -0.0014067505 0.0170076 0.035233703 0.0061484366 -0.018924434 -0.019980593 0.03362321 0.052454356 0.067763135 0.056373183 0.05575825 -0.010978135 -0.035945367 -0.028446555 0.053970713 0.06103629 -0.009674146 -0.02869563 0.06417659 0.0134415 0.06662725 0.0073272525
vocational.a.01 0.008274433 0.02334328 -0.03224116 -0.066547334 0.0014171015 0.0139561845 -0.041408077 0.022815721 -0.03162176 -0.041581094 0.05307394 0.04890901 0.018372009 0.020561492 0.03379778 -0.06525511 -0.050669484 0.04090591 0.041908443 0.016770294 -0.027076358 0.014651776 -0.01602477 -0.018526923 -0.04081535 -0.020288922 0.004424796 -0.015602069 -0.01866869 -0.07794105 0.022393258 -0.020348098 -0.056059964 -0.08415133 -0.0069565433 8.132451e-05 0.039787382 0.021406166 0.0075138663 -0.0018937227 0.051747236 -0.03309741 -0.0055299522 0.051056523 0.009330708 -0.065712675 0.030055547 0.044984553 -0.037190184 -0.016920984
potential.a.01 0.005338422 -0.013441202 0.03806808 0.02009902 -0.013470746 0.028991664 -0.012129998 0.014766778 -0.06006852 0.010083784 0.0212263 -0.002261751 -0.04593663 -0.07621911 0.025468402 -0.052717786 0.044710547 0.033620324 -0.022031188 0.0071622483 -0.010481909 0.00039202994 0.0056299446 -0.03599685 -0.0374284 0.004784742 -0.03211208 0.0062574353 0.012085641 0.014340137 -0.004067695 -0.020367349 -0.062184006 -0.02033278 0.043477777 -0.047834218 0.046558723 -0.01282822 0.005317435 0.043374512 -0.023616163 0.0033350263 -0.0051314565 -0.0150612695 -0.060239516 -0.047342334 0.013441966 -0.021569336 0.071211696 0.012813193
personal.a.01 -0.05149165 -0.009144321 -0.026227105 -0.034016043 0.114378564 0.020152943 0.047311608 -0.020918548 -0.09428754 0.039385606 -0.011308415 0.05748799 0.015404331 -0.057144504 0.018783553 -0.055721793 -0.029118907 0.017678507 0.058824398 0.031932443 -0.071609765 0.1000763 -0.07245709 0.0037410052 0.04797063 -0.035937935 -0.054998253 -0.029191816 -0.0354967 0.022062313 0.052030828 -0.037707545 -0.029765967 -0.0060484093 -0.050017383 -0.0083251465 -0.080268025 -0.031735808 -0.025996212 -0.018701185 0.03195937 -0.0020925594 -0.060041394 0.0048423866 -0.0078409705 -0.039792623 -0.032877352 0.050777443 -0.008983944 -0.017334126
covetous.s.01 -0.005423721 0.011733492 0.052247323 -0.022156902 -0.040872756 0.057387404 0.040727478 0.041405275 -0.05027999 0.027377399 -0.023553079 -0.014763332 -0.03690663 0.02235262 0.053274464 0.018244183 0.049999874 -0.02454803 0.061300762 0.030618016 -0.08481394 -0.005342159 0.027635394 0.0068667633 0.0073738135 -0.038904823 -0.0032243577 0.019973187 0.036759507 0.026407031 6.5533095e-06 0.056267027 0.013589846 0.004339542 0.010053585 -0.024741484 0.004402971 0.006713312 0.030113649 0.03178797 0.019381044 -0.003906915 -0.0007515335 0.036936246 0.11585672 -0.03497369 -0.022952816 0.024586856 0.0053769816 0.064080216
rich.a.01 0.040349633 0.012907767 -0.021778697 0.0018365341 0.058348693 -0.0046881763 0.009455879 -0.033402972 0.059547067 -0.052986532 0.022150643 0.047380257 0.053938 -0.033664826 0.10455433 0.050760712 0.09223645 0.010723506 -0.0073993145 -0.01948901 0.046791203 -0.07238776 -0.09950795 0.0070522483 -0.060902275 -0.028069148 0.059018496 -0.059796184 -0.011981972 0.043042228 0.0024436302 0.068715334 0.047160733 0.0064602694 -0.033995885 -0.021666473 0.023284934 0.01815619 0.013806171 0.026133008 0.013454236 -0.021246083 0.014915147 0.008540505 -0.036343228 -0.056438904 -0.0740354 0.034626696 0.03387267 -0.015387409
first.a.01 0.013903938 0.06705746 -0.024678469 -0.04119929 0.0036597105 -0.07749449 0.007292234 -0.0055900263 -0.026243504 0.016874965 0.03669805 0.057866298 0.030804943 -0.028537948 0.013647448 -0.063414924 0.012282351 0.041410714 -0.010619689 -0.035559826 -0.084007196 0.008929204 0.02973843 -0.0091229975 0.061099287 -0.019724602 -0.030184459 -0.054229375 -0.029421179 -0.057355937 0.09409882 0.018403733 -0.08144505 -0.037910096 0.06373777 0.029524246 0.02867167 0.021548785 -0.034751803 -0.03136586 -0.0259757 -0.010184725 -0.030797454 -0.06266825 -0.040055383 -0.00462834 -0.054672364 -0.017230302 -0.00444266 0.04269334
negative.a.04 0.053215686 -0.05545231 -0.033749934 -0.0110403 -0.017364854 0.019282626 0.047269087 0.041429374 0.0016007307 0.048597775 -0.029304696 0.030706871 -0.059039533 -0.061708406 -0.008847045 0.005741487 0.03544062 0.0007555026 0.008943026 0.014157706 0.044799533 0.021581255 -0.04847362 -0.019544022 0.040120617 -0.027765194 0.0005851185 0.06315207 0.02726589 -0.047256954 0.017340753 0.01950675 0.03076246 -0.03475399 -0.0865831 -0.08180164 -0.028773267 -0.08356547 -0.02744149 -0.033447444 -0.023274193 0.017173577 0.028031472 0.03197749 -0.0031433695 -0.044429004 0.051841713 0.04336318 0.002632118 0.0020297195
daily.s.01 -0.009134362 0.04888658 0.0050359215 0.021802742 -0.04414274 0.0010548083 -0.02316663 -0.042409644 0.060165517 0.000930898 0.043765604 -0.10385221 -0.011161006 -0.006310013 -0.01108053 -0.008765512 -0.021679625 0.06910675 0.046316337 -0.044525083 0.06610352 -0.03506999 -0.01634359 -0.10760615 0.018384775 0.0070813578 -0.02893505 -0.028096458 -0.044454418 0.021337636 -0.013941882 0.05226326 -0.03356636 0.040131878 0.06076472 0.0031876788 0.020188585 0.058646645 -0.027412884 -0.005593247 -0.026815584 -0.06805893 0.053027067 0.025189439 0.010821559 -0.0175395 -0.0058809444 -0.023097627 0.0023952457 0.018842656
adequate.a.01 -0.0029894034 0.03336988 0.0785925 -0.08017817 -0.084452026 -0.0023365093 0.068649575 0.014483965 0.034440946 0.049297813 -0.0017162417 0.03888173 0.008401096 0.0139544625 -0.053497918 -0.011693084 0.006842012 0.03132141 0.006658722 -0.013740493 -0.041450083 0.014492607 -0.06867272 -0.026385367 -0.021414785 -0.03876577 -0.033817265 -0.034164242 -0.026361665 0.006048706 0.027452549 -0.014958024 -0.004759454 0.029496523 0.016268488 0.0094669 0.0057022534 -0.019893443 0.042340886 -0.015773831 -0.024533186 -0.027479688 0.12317031 0.031686336 -0.025891084 -0.007177766 -0.060718648 0.06182323 0.07221823 0.026759956
sweet.a.01 0.041555047 0.037382618 -0.026302641 -0.02851942 -0.016242731 0.04253344 -0.011167745 0.014274115 0.03097603 0.04072059 0.07227727 0.026231674 0.068564646 -0.09726777 0.018532945 -0.016119469 0.029559473 0.02657356 0.0024275081 -0.023501556 -0.07084161 0.0034568573 -0.007782014 0.019786475 0.01933069 0.0339785 0.033195943 0.02801409 0.030694913 -0.06540135 -0.008139862 -0.015053991 -0.029127367 0.031377204 -0.013754511 -0.06009749 -0.011491922 0.021638973 -0.04556417 -0.043369506 0.06268153 -0.002012468 -0.011180903 -0.010381419 0.042215068 0.027382689 -0.010439335 -0.03998721 0.028613882 0.055478793
wet.a.01 0.054328162 0.003143244 0.02021892 -0.030746654 -0.02502319 -0.005484408 -0.03767063 0.030952528 0.028222883 0.014201842 -0.003206208 -0.024994425 0.028657239 0.07595626 -0.011100008 -0.04626237 0.03506512 0.00863486 -0.08847358 0.0057499446 0.017004296 0.0013126036 0.049188554 -0.08037764 -0.009824094 0.0070214337 -0.031544656 0.0741897 0.008384551 0.0058801305 0.0109974155 0.038123854 -0.024007063 0.01499522 0.051454235 -0.004756945 0.0029845717 0.033021487 0.08022183 -0.013761002 -0.04134908 0.03750077 0.05742475 0.0020402519 0.031165248 0.021567985 -0.016384812 -0.03254331 0.04005185 0.076385185
discreet.a.01 0.02900862 -0.011356402 -0.008582811 -0.015477935 -0.045947205 -0.03565343 0.012237297 0.0011155251 -0.07603372 -0.02541575 0.035213213 0.017661057 -0.010238075 -0.033711288 0.06997095 -0.032219414 0.023005394 -0.009732511 0.0095484145 -0.037809778 0.016326368 0.025404576 0.010803065 0.0137144 -0.060195494 0.0014420679 0.041474514 0.0021149658 0.047189098 -0.07308776 -0.00871696 -0.025343038 -0.050493337 -0.027807005 0.001984151 -0.017438773 0.028507046 -0.017535577 -0.0062833 0.017214786 0.030103335 -0.011957485 0.039829403 -0.015371019 0.049208574 0.03965555 0.019972933 0.06542723 -0.036198407 0.033092834
qualified.a.01 0.013349589 0.010164944 -0.0401564 0.07309769 0.03429346 -0.046892922 -0.049463276 0.025199046 -0.027489865 -0.057792623 -0.040323433 -0.03553818 -0.03963829 0.055716425 -0.015357404 -0.029027728 -0.032765523 0.028305383 0.008567547 0.011504833 -0.038405776 -0.012337839 0.006495065 0.048274662 -0.009050228 -0.05145374 0.054760274 -0.06522714 -0.019551855 -0.04518122 0.024265977 -0.026140112 -0.01304279 -0.02058005 0.037641585 0.049330335 0.014409782 0.04338807 -0.008193786 -0.075535625 -0.010198355 0.044023965 0.032346886 0.016983947 -0.07100538 -0.050349746 0.01828786 0.05830034 0.0038837565 0.05723848
unfortunate.a.01 0.034451507 -0.045306377 0.04068215 -0.057493597 0.009030159 -0.018140215 -0.07559955 0.06411954 0.012797243 0.04696352 -0.050152257 0.027584916 0.003804999 -0.034296136 0.0039644106 0.021628913 0.034527507 0.0072468207 0.053124245 0.010026139 -0.027976545 -0.010361087 -0.024149315 -0.004876727 0.05123427 -0.014232511 -0.025048167 0.017169245 0.026670104 -0.004390905 0.00478628 0.032650515 -0.003425042 -0.019882549 -0.04279773 -0.003415142 0.027613379 -0.024274124 0.036242712 -0.01394399 -0.02061627 -0.079004735 0.029072935 -0.071881674 0.013565789 0.08786561 -0.07207036 0.06978729 0.010889414 0.006200636
civic.a.01 0.031195125 -0.046726257 0.027025504 0.0062260614 0.032014336 0.009715838 -0.045203947 -0.06523002 0.04082859 -0.0047455938 -0.032387666 -0.013399009 -0.050128344 0.0010482899 0.027368229 -0.03226514 0.0072485786 -0.04458699 0.061300796 0.020859605 0.0019614461 0.029801995 -0.04360283 -0.064418145 -0.07613184 -0.0532054 0.043425675 -0.050173715 -0.036877643 0.039550316 0.010891337 -0.008934811 -0.034204904 -0.07214151 -0.12606773 0.029296877 0.028520236 -0.06625125 0.05709022 0.0031200456 0.005686429 -0.029324614 0.04190394 0.004636724 -0.013429291 -0.0013099688 -0.091254056 0.022361383 0.085729435 0.018811008
alike.a.01 -0.031229366 -0.011890381 -0.0346094 -0.01256309 0.051541094 0.034063805 -0.04381434 0.022386087 0.0051121777 -0.039162464 0.04866992 -0.024889348 0.00033999924 -0.00087734644 -0.046316102 0.016369179 -0.016881337 -0.002973166 0.017611695 -0.0067549674 -0.016039182 -0.010106595 0.0038284473 0.06792099 -0.00432545 0.011227798 -0.012172866 -0.0056665065 0.027211819 -0.010725396 0.0013256328 -0.024173591 0.0057149027 0.028249826 0.06433362 -0.04808349 0.023060864 -0.048450783 -0.020208849 0.03092117 -0.020854972 0.010058299 0.054887384 -0.033845473 -0.007626354 -0.011834935 -0.03324846 0.060613785 -0.049560603 -0.024711298
effective.a.01 -0.034859475 -0.00484734 0.06435472 0.004572049 -0.010732673 -0.025074175 0.028221916 0.031053523 0.033123802 -0.014185702 -0.03325647 -0.022840807 0.079205416 0.058490913 -0.037785463 0.029146487 -0.031022634 -0.031402484 -0.015787967 0.0075689647 0.005289766 0.032658044 -0.024143115 0.007387064 0.069604814 -0.022501642 0.018764969 0.05107289 0.063483804 -0.007826378 0.032497793 0.025241086 -0.028411571 -0.010377478 -0.006734321 -0.024075499 0.06393991 0.04018561 0.03088664 0.021270448 0.014525515 0.06962357 0.03908324 0.0054388917 -0.064722 -0.0313436 -0.035752837 0.026513798 -0.020187588 0.026460404
autochthonal.s.01 -0.047384314 0.030387487 -0.103350475 0.029876955 -0.017608631 -0.075119935 0.023916364 -0.054022282 -0.012601586 0.036965735 -0.0079306485 -0.013649512 0.06283384 -0.022422696 -0.033772398 0.009915743 0.025280468 -0.025247144 -0.027529752 0.0427322 -0.026054889 0.007129844 -0.024931699 -0.019526228 0.021351371 -0.050208338 0.012620763 -0.007792668 0.019419104 0.009686289 0.013147848 0.041558538 -0.016321022 0.0011033022 0.013877858 -0.016251748 -0.05646432 0.020558683 0.012476934 -0.001494568 -0.008559428 -0.03960412 0.03349086 -0.041623674 -0.028098708 0.039664883 -0.06673129 -0.00951287 -0.020577637 -0.04983432
laic.s.01 -0.023877494 -0.017071106 -0.010700554 0.0041250354 0.02822771 -0.01365959 0.055749796 -0.026010359 0.013013077 0.008865567 0.026156472 -0.009299309 -0.03624561 0.013957664 0.009383625 0.024398144 -0.059525423 0.018748797 0.043004878 0.023143537 -0.024155129 -0.010938114 -0.03248818 0.038900226 -0.052962843 0.0177123 -0.06133828 -0.0120236175 -0.101934314 0.040509474 0.007956419 -0.10397356 -0.03144857 -0.045291997 0.010523771 -0.07784502 0.0004992438 -0.05472345 0.04320305 -0.007396107 -0.0055892337 0.0378517 0.01858671 0.036356337 -0.064631894 0.05661034 -0.033198733 0.05747251 -0.032848887 -0.058696087
firm.s.03 -0.027629824 -0.015963132 0.08835635 0.07938099 0.043925382 -0.06994335 0.077384986 0.045514632 0.012872115 -0.012830941 0.0098187905 -0.033034917 -0.06888298 -0.013412606 0.030036984 0.046204887 -0.04348219 -0.01129984 -0.021010738 0.0060084434 0.016127327 -0.0045562945 -0.024433667 -0.04099362 0.056962065 -0.10669403 -0.011336671 0.0032765032 0.03908362 0.022440936 0.07063894 0.072550535 -0.012938312 0.021735823 0.008732066 0.01226872 0.046309866 -0.009274927 -0.031486403 -0.033988744 -0.058661833 -0.05372491 -0.02682049 0.06651508 0.004737118 -0.039371293 0.0020293652 -0.081135705 -0.11880828 -0.02687963
weak.a.01 0.12332962 -0.12186809 0.022122907 -0.08030604 0.04495398 0.013334913 0.06691131 0.030788898 0.0177186 0.042998426 -0.035731353 -0.092572965 0.031880625 -0.08235189 0.020554835 -0.059672892 -0.017333891 -0.018603746 -0.0055006705 -0.07038841 -0.023717968 0.078575574 0.08778747 -0.05132028 -0.04962852 -0.102174185 0.017496735 -0.04263811 0.028818348 -0.00567119 0.06398628 0.06804829 -0.059060466 -0.013652526 -0.005067593 0.06365885 -0.026384484 -0.05048223 -0.07263383 0.04736035 0.047992934 0.046124544 0.061565038 0.01279387 0.104848094 0.047299806 -0.086609535 0.022124503 0.09833118 0.03462807
outdoor.a.01 -0.012022172 0.029961152 0.0098616 -0.005482367 -0.00127573 0.004266847 -0.028350899 1.3677562e-05 -0.016712504 -0.08007626 0.005831222 -0.018841576 0.019398201 -0.02524356 0.0016236628 0.06317719 0.025790317 -0.021889264 0.018659255 -0.0007779745 0.032897424 0.011207121 -0.0031390525 0.030552236 -0.0044851378 0.002025401 -0.029209144 0.00629463 0.027434042 0.044179294 -0.023754675 -0.022183007 -0.0075904517 0.0009301578 -0.013597755 -0.084495984 -0.011026299 -0.0072170855 0.0135530075 0.01538688 -0.010218268 0.009319344 0.053875513 -0.004067361 -0.040876523 0.051217403 0.030983796 -0.015927717 -0.006676154 0.0004987656
sad.a.01 0.054467555 -0.016462576 0.045442034 -0.010819369 0.03353184 -0.028259886 -0.0008328431 0.018703453 -0.03197132 -0.0030033197 0.025715912 0.012588045 -0.034423113 -0.08747376 0.0064333715 -0.055203415 -0.039893586 0.006167516 0.065157704 0.0151400715 -0.0057969117 -0.037186757 -0.008179636 0.06745563 -0.041929167 -0.015961431 -0.021865506 -0.006756736 0.019777423 0.008713791 0.00040068486 -0.029575348 0.02668492 -0.053541955 0.020618258 0.019792408 -0.013762707 -0.0073187 -0.039682273 0.026253708 0.014612123 0.02956528 -0.018428538 0.020947335 0.046374835 0.023472548 0.008265195 0.009811932 -0.008115805 0.023024501
comprehensive.a.01 -0.03865084 0.044193856 0.06356684 0.013532143 0.0077398703 -0.0436506 0.046293955 0.015517709 0.034779232 -0.04177022 -0.019516287 -0.016593745 0.002801055 -0.044680666 0.008478115 0.0005781494 0.0025873561 -0.036075287 0.053275358 -0.044784192 0.027421275 0.04023498 -0.03473687 -0.018087134 0.014438698 0.0053443117 0.010045831 0.04142514 -0.0748755 -0.004652676 -0.009252066 0.00563709 -0.03229518 -0.04009542 0.053777885 -0.055419214 0.052494377 -0.04298347 -0.010476864 0.0022460844 0.051881164 -0.04224671 0.010346646 0.015600757 -0.016057674 0.04720306 0.020597953 -0.029354675 -0.010077033 -0.022658804
impressive.a.01 -0.0717665 0.027624032 -0.06643449 0.02662337 0.030026983 -0.030375829 -0.03597569 0.03935146 -0.09943108 0.064455085 0.0043981373 -0.016379157 -0.030567858 -0.03552731 -0.042019002 -0.07516667 0.062529296 0.015439744 -0.02874895 -0.018072637 0.061824556 0.029402753 -0.04385422 -0.03058772 0.07100861 -0.026745101 -0.086882465 -0.00039057957 -0.07474231 -0.018809784 0.032564905 -0.008385619 -0.013518983 0.01186824 0.007851658 -0.0026689684 0.07930787 0.03682979 -0.038919304 0.04706636 0.022297734 0.015741332 -0.055167977 0.024359446 0.05625051 0.06776568 0.011750679 0.07971767 -0.054187674 -0.07846092
constitutional.a.02 -0.05998639 -0.013857074 0.002144359 -0.04909195 -0.009804199 -0.015981471 0.09702705 -0.016814211 0.021074593 -0.032344595 -0.025325757 0.0027860655 0.04290013 0.0282979 0.027478447 0.028544972 0.050281864 -0.024744477 0.0051899105 0.007011908 -0.0124860685 -0.043912243 -0.025166824 -0.015014257 0.0031995517 0.027159631 -0.044995785 -0.07102836 -0.031575058 -0.01961279 0.0018336963 -0.016782332 -0.018347299 -0.03305529 -0.073348194 -0.03357681 0.04279521 -0.022504024 0.01425556 0.03330194 -0.010743153 0.0048431074 -0.03429948 -0.026927644 -0.004401368 -0.008180101 -0.062208235 -0.0025672843 -0.03705921 0.010822267
violent.a.01 0.0646638 -0.02947917 0.0020188226 0.056983467 -0.079352856 -0.023808794 0.022977177 -0.043325596 -0.005180654 0.011723647 -0.071585596 -0.044109076 -0.016011305 -0.038452283 0.024254505 -0.083815016 0.016780214 -0.017068608 -0.08292481 0.025562506 0.010201703 0.014233754 0.041191813 0.032254636 -0.02210649 -0.015261296 0.024762359 -0.024380118 0.023689467 0.06647657 0.023378529 0.0022120809 -0.0051875003 -0.045306705 -0.026074126 0.034889836 -0.05933191 -0.056947723 -0.031077864 0.008782533 -0.064855315 -0.030952517 -0.044628736 0.0009926176 0.092903286 0.004011126 -0.0055566477 -0.011486155 0.00987416 0.012809416
marine.a.01 -0.01504313 0.017670128 -0.0102977995 0.104209915 0.031991344 0.0412632 0.00068185385 -0.0451076 0.06537341 0.012521084 0.004342636 0.013238107 -0.0057816077 -0.00073207234 0.033517756 0.013118993 0.023006475 0.06574807 -0.045318697 0.018351337 -0.06658899 0.020155095 0.022630798 0.047403328 0.030838829 -0.020855745 0.017988967 -0.06783354 0.0046133595 0.0013294432 -0.033466227 -0.032407865 -0.02206142 0.010418274 0.0007213343 0.008736119 -0.07659731 -0.050476648 -0.010797132 -0.058529135 -0.011316122 -0.023306902 -0.04538448 -0.028132841 0.010612652 -0.0042139622 0.021752594 0.0061459844 0.011656903 -0.031094346
junior.a.01 -0.04190477 0.00024724612 -0.002545393 -0.01669878 -0.022700686 -0.021628974 -0.023800636 0.061777394 0.013365163 -0.0012103011 0.014684988 0.026857432 -0.019227192 0.04970073 0.060367823 0.014300627 0.03823886 0.025180547 -0.04681066 0.032010708 0.0047095194 -0.039005417 -0.054061923 -0.01739632 0.023004789 -0.006337936 -0.022349026 -0.03454371 -0.047023397 0.017048083 -0.006972819 -0.0029881862 -0.033491086 0.019575277 0.031007161 -0.056601427 -0.00364088 -0.050329614 0.018413426 -0.036296494 0.011613273 -0.053850297 0.03315956 0.03010759 -0.06350817 -0.038798653 -0.020123392 -0.01786638 0.012784631 0.009858671
loyal.a.01 -0.0283317 0.005691913 0.0017918766 -0.04219582 0.032910023 0.06589889 0.027579783 0.047129314 -0.04585114 0.042022936 -0.009746474 0.024285564 -0.08016786 -0.05846708 -0.085284576 -0.02822147 0.008438421 -0.02898476 0.035477843 0.04338976 -0.041766133 0.033082806 0.070180684 0.061458487 0.0049008895 0.0266632 0.044736907 -0.04159109 0.009450195 -0.022226643 0.021880724 0.016973048 0.012767757 0.014270503 -0.030779744 -0.043120984 -0.054385494 0.0047619184 -0.007831047 0.021110943 0.0030126297 -0.045353647 -0.010933993 -0.05465693 0.04109945 0.05094994 -0.0371619 -0.024724612 -0.051426057 -0.0038059156
ashamed.a.01 0.03254865 -0.021631412 -0.008248075 -0.033506285 0.015880525 0.015284557 0.063947216 -0.0051513277 -0.055926118 -0.02637294 -0.035560966 0.07011266 -0.1073595 -0.031830423 -0.023607243 -0.008313192 -0.0012646378 0.036017004 0.016430434 0.077364996 -0.047936156 0.07100494 0.014663335 -0.003058204 -0.021162767 -0.016708566 -0.053222924 -0.0054507423 0.017693395 -0.044962987 -0.002494766 -0.00023999126 -0.013267107 -0.015614927 -0.030443255 0.02248457 -0.031259965 -0.07587113 -0.07589274 -0.05066968 -0.041549936 -0.023320682 0.06718605 0.011976245 0.045119736 -0.0005453917 -0.080189556 -0.030155977 0.042229947 -0.03433156
cooperative.a.02 -0.0027129094 -0.057623386 -0.002691879 -0.05066158 0.074046955 0.011941708 0.032378044 0.017434094 -0.028007982 -0.03765678 -0.050446983 -0.028378546 0.006312376 0.09078876 -0.002422024 -0.04152363 0.05354755 0.025421826 0.016860573 0.019262929 0.027646149 -0.017254632 -0.009147484 0.035233796 0.06525888 0.04248118 0.028657828 -0.039190497 -0.01347929 0.06043581 0.028623333 -0.03856259 0.014383069 -0.053638626 -0.00084739644 -0.03453977 0.0051441616 -0.003189736 -0.014455355 0.015468145 0.0021979252 -0.012533252 -0.0004770862 0.037126016 0.019536141 -0.036609035 0.008542444 -0.0013382406 0.0062260954 0.034552988
harmful.a.01 0.007824368 -0.07270863 0.0072856345 0.046080347 0.072245784 0.05056475 0.108396135 -0.107658826 -0.0009611534 0.06262836 0.029922249 0.09059857 -0.036231186 -0.05005777 0.083469644 0.0051477915 0.10896229 0.0053475928 -0.0254516 -0.007010817 -0.020227568 -0.0008318632 0.01347737 -0.0685353 -0.031227235 -0.057199094 -0.016743885 0.06722065 -0.00010739405 -0.084680736 0.0055455687 0.04240544 0.0015687257 0.05645217 -0.07693267 -0.01668709 0.056448936 -0.02971927 0.028339019 -0.042869497 0.005031347 0.003995688 -0.03861301 0.041608296 0.032773495 -0.03755765 0.08781086 -0.0077648545 0.014680352 0.0055354103
political.a.01 -0.037892748 0.0028043631 0.041475203 -0.028574623 -0.00021670811 0.06612156 0.035540257 0.057566285 0.037041605 0.033882223 0.008884816 0.0032474403 -0.0009800304 0.0010667709 0.009708052 0.0016078678 0.08654871 -0.034330897 -0.011587168 -0.013015643 0.008574794 -0.027898561 -0.039472863 0.020600269 -0.0015573986 -0.023628164 -0.04642273 -0.049221784 0.0034285453 0.051700804 -0.008494215 -0.03484292 -0.07447482 -0.06329032 -0.08735034 0.007845839 -0.059800096 -0.036598608 -0.08497467 0.002928014 -0.02501599 -0.020669887 0.029683053 0.043669693 -0.011519046 -0.08100816 0.030671278 0.039532073 0.012912434 -0.009967449
appropriate.a.01 0.045703884 0.03972806 0.028562559 -0.02310721 -0.064042576 -0.029722441 -0.041414678 -0.026653066 -0.028383233 0.0063459924 -0.021830294 -0.0012697575 -0.049437758 -0.01404165 -0.04590271 0.017430961 -0.0148886535 -0.038376093 -0.023002813 0.0012784554 0.032428816 -0.021055067 0.021135744 -0.021207185 0.021550437 0.016319398 0.085871816 -0.008168725 -0.050335344 -0.05246267 0.033690438 0.00726796 -0.028382538 -0.0133922305 -0.026123514 0.027243353 0.020249533 -0.06838937 -0.032781735 -0.0531907 0.025396632 0.07052132 -0.034750946 -0.018227044 0.07145414 0.06970232 -0.026132831 0.020970093 -0.021033732 0.024012309
even.a.03 -0.051044665 0.0443205 0.04000906 0.06694958 0.015411784 -0.00039665817 0.061798614 0.035462778 0.04905254 -0.009272048 -0.020266583 -0.06880665 -0.057789948 0.015385771 0.016141059 -0.022716433 0.045066718 -0.045454443 -0.02297186 0.0005505294 -0.03721008 -0.0050317515 0.012197427 -0.012418059 -0.045915857 0.007614779 0.038162336 -0.019182222 0.057857886 -0.0649955 0.01288635 -0.015137659 -0.046227247 0.040454105 -0.024125589 0.0153232515 0.046479624 0.043983035 0.021854216 0.055380985 0.017774478 -0.06809763 0.11328093 -0.008957081 -0.040900707 -0.0449531 0.07540686 -0.035921153 0.013921524 0.008390612
vacant.s.01 0.071973324 -0.03556341 0.01919823 -0.008245721 0.030912332 0.01953871 0.002510907 0.026204148 -0.07231751 -0.014899087 -0.046554375 -0.020069744 -0.006346382 0.009981218 -0.0068148067 0.0075415657 -0.011114001 0.04822183 0.050068643 0.043833513 -0.040586956 0.0014678885 -0.0015931316 -0.0248246 -0.020878172 0.01452106 0.010151754 0.0152143305 0.055148676 0.0011538507 0.0115390355 0.041141465 0.00597181 0.09623255 0.015806783 0.024629936 -0.021539243 0.03167598 0.00089885853 0.018353641 0.019870186 -0.012739558 0.026643876 0.023472914 -0.0010887309 0.0025774797 0.044894665 -0.007002866 -0.024131833 0.025343567
muggy.s.01 0.002473348 0.006431945 0.028803205 0.022404866 -0.012378673 -0.012954229 -0.018546475 0.023223547 -0.03455281 0.011357964 -0.02539136 -0.015516656 -0.013247927 -0.025633229 0.03569716 0.02691104 -0.00931912 -0.002313834 0.018027417 0.05311633 -0.0825856 0.02891751 0.054067757 0.035103668 0.041762903 0.036697187 -0.021334996 0.011717921 0.04200589 0.043959968 0.00264414 -0.008732001 -0.050432473 0.005972484 -0.005189717 -0.035564248 0.022208896 -0.017027574 -0.0029477922 -0.0016009656 -0.0038013472 0.011310329 0.02435318 -0.051549472 -0.05142983 0.0408381 0.02617341 -0.03295766 0.007710343 -0.04944103
complimentary.s.02 -0.0077083483 -0.07072413 -0.048904117 0.059589826 -0.013007449 -0.073822744 -0.008882143 0.013997255 0.06253924 -0.075240545 0.03857287 0.13405131 0.0019109395 -0.004463825 0.050016195 0.018979965 -0.010002445 0.03766941 -0.01269835 0.034769803 0.03310243 0.040012106 -0.1118625 -0.09858847 -0.014349851 -0.042594027 -0.004243116 -0.05276071 -0.060145903 -0.01307215 -0.019273551 -0.037497986 0.006462626 -0.008313005 0.0151106315 0.0061815535 -0.009567375 0.033373736 0.0069801537 -0.028623085 0.034783512 0.020479921 0.0037093123 0.044963144 0.0117714135 -0.0028293272 -0.028899917 -0.0027086264 0.058060236 -0.01535486
critical.s.04 0.021779006 -0.10077523 0.008589487 -0.064670086 -0.07503904 -0.0077900486 -0.061570466 0.010703285 0.028318616 0.021936389 0.037337136 0.03355699 0.0038343032 0.028572617 0.010453344 0.01137552 -0.03660465 0.023314469 0.06664167 -0.027950881 -0.050825022 0.067379065 0.040180504 -0.028174361 0.067302 -0.046787612 0.018243993 -0.022869445 -0.010478549 0.0036721905 0.0536371 -0.01370716 0.018001022 -0.09610354 -0.029599557 0.00668786 0.07916253 0.020147342 0.030935567 -0.009154567 -0.06288654 0.0395174 -0.048438918 -0.0601543 0.025040865 -0.007745222 0.0119247325 -0.028661963 0.0037307185 0.06246902
ordinary.a.01 -0.10720877 0.012928397 -0.04997635 0.0012539118 0.043834724 -0.018481355 0.030449092 -0.0033339767 0.014426101 -0.037907038 0.015945481 -0.0017645278 0.0006244157 0.013430166 -0.038887598 0.033906084 0.0008264707 0.05884745 0.07124701 -0.048752386 0.03621235 0.027178405 -0.10297557 0.0096254265 -0.01066457 0.032189023 0.008017397 0.027602103 0.02834775 -0.011380795 0.012235409 -0.012664021 -0.022581404 -0.045585595 0.019507935 0.010473156 0.05605055 -0.016694384 -0.02511553 0.018559769 -0.03821807 0.046892136 0.016647594 -0.021282272 0.012823767 0.04452009 0.0003389645 -0.021985868 0.04163361 0.09062259
empty.a.01 -0.012745465 -0.044122092 0.060954385 -0.044596784 0.031426236 -0.0049125976 0.015991768 -0.0057038083 -0.0031482321 0.03141191 0.0006612237 0.012737186 0.018783618 0.0027870613 0.021663375 -0.030456692 -0.018826023 0.024963336 0.013505046 -0.042480297 0.06433042 0.0011102695 0.018138137 -0.048246823 0.024051988 0.105210036 -0.024318757 -0.017920954 0.03988455 -0.039174233 0.02895529 0.0055275387 -0.015926527 0.08113248 -0.024650162 -0.03397477 -0.040551454 0.004190266 0.009556842 0.015864324 -0.05251498 0.019011388 0.027341979 0.0054026567 0.00043087074 -0.0001180273 -0.01429828 -0.02466203 0.01374119 0.0140910745
well.a.01 0.05241587 0.029600713 0.025695555 -0.006780559 0.0007643972 0.012804737 0.022235354 -0.033236682 0.09063759 0.005916515 0.019080982 -0.03678789 -0.005826273 -0.042073563 -0.0034056357 -0.0053281677 0.025747228 0.0107308505 0.0074580554 -0.010742203 0.025317881 0.04435253 0.048913646 -0.0080882255 -0.040475998 0.013579252 -0.033159755 -0.008641244 -0.01690273 0.021606859 0.029101046 -0.004721721 0.02342694 -0.046595495 0.026456458 0.017767584 0.025215248 0.014368667 0.020113055 -0.04244825 0.037700325 -0.00947477 0.007575968 -0.037238162 0.0014094838 -0.03781775 -0.054221857 0.0032165293 0.0135582285 0.026244638
invisible.a.01 0.015462669 0.048738003 -0.026649052 0.011497531 -0.056595396 0.07261889 0.017277442 -0.0037830102 -0.02735328 -0.019778986 0.04719855 0.032481704 0.031969313 -0.026064757 0.03248658 7.7490724e-05 0.015727209 0.040564 -0.007143426 -0.00703915 -0.030968696 0.07332863 0.05593595 0.050166685 -0.031103708 -0.011406265 0.016981732 -0.036315747 0.017611366 -0.0031635105 0.0067222053 0.007784732 -0.003905882 -0.019586883 0.00918035 -0.044049054 0.040164497 0.008664986 0.008288062 -0.06703442 -0.006500433 -0.032049473 0.008341586 -0.01954736 -0.025356553 0.0024680402 0.024612462 0.028235309 -0.01709482 -0.05390802
decisive.a.01 0.009758001 -0.018856859 -0.11723251 0.049910117 -0.025567055 0.008931383 0.013955773 -0.020877048 -0.022984821 0.025846163 -0.042956542 -0.06368364 -0.022243565 0.04888586 -0.059105664 0.018448219 -0.051554885 -0.016332094 -0.019212265 0.03470634 0.01495039 0.011323817 -0.0072256215 -0.072131954 0.034074426 -0.0072016167 0.072918996 -0.0029024277 -0.011483972 0.018891037 0.030333389 -0.029231824 -0.043228343 -0.034391914 -0.015802737 -0.038888786 0.03857937 -0.079636075 -0.04437478 -0.030603673 0.04000973 -0.06598532 -0.012552067 0.045004964 -0.032215264 0.017495876 0.0011232229 0.016294707 -0.0006938895 -0.032696664
major.a.02 -0.024358414 -0.030535014 -0.03921858 0.020543227 -0.03157368 0.014919436 0.015730541 -0.0090341475 0.011306704 0.055021703 0.02273288 -0.012704122 -0.016137447 -0.050824884 -0.035174295 -0.008519254 0.03755049 0.0058133285 0.023083296 0.007124464 0.036124587 -0.002918395 -0.10351761 -0.0026493608 -0.005634419 -0.04649846 0.019995922 0.015512635 0.01144092 0.0071142875 0.037438765 0.045377925 0.0104607 4.534917e-06 -0.09401453 -0.015775349 -0.036093526 0.0656744 -0.02742583 -0.004343428 0.005878217 -0.034461297 -0.047152176 0.014240411 -0.018395247 -0.037379023 -0.0596096 0.08252659 -0.009138886 -0.060186308
warm.a.02 -0.077671364 0.054792587 -0.07243089 -0.055923138 -0.011888706 -0.049704358 -0.04415163 0.056009628 -0.0576689 0.053070102 0.04166205 -0.108654596 0.0020782044 -0.03500987 -0.020771569 -0.07474345 0.03264029 -0.014396198 0.013413426 -0.002473914 -0.019548913 0.046081636 0.0039207204 0.038738344 0.018201692 -0.042655844 -0.0012963868 0.011603299 0.039579943 0.03500748 -0.003108899 0.046523333 0.031458344 -0.018409843 0.006392684 -0.02627307 -0.039868005 0.0022103686 -0.053770486 -0.014849521 0.047620416 -0.052231282 -0.078624494 -0.0046189534 0.03663579 -0.03329505 0.013439905 -0.00011559297 -0.0143285105 -0.035450306
cultural.a.01 -0.011679127 0.027612856 -0.061711587 0.022696055 0.121326946 -0.037052523 0.023610212 -0.016142514 -0.023094214 0.022226024 0.019334268 -0.09814435 0.07310322 -0.050228447 0.012639123 0.0135755995 -0.08582622 -0.014273912 0.03125311 0.04193879 -0.05566545 0.064566 -0.08414066 0.038804326 0.002985183 0.023285545 -0.039264552 -0.016781876 -0.0050419853 0.022609426 0.024426922 0.036970556 -0.03615108 -0.058393884 -0.036699668 0.0014577159 -0.046703406 0.016116813 -0.018225936 0.010887723 -0.040496755 -0.050888583 0.0070355767 0.055730965 -0.032461602 0.031086382 -0.014020587 -0.018792119 0.025379768 0.0015216392
liberal.a.03 -0.0033539152 0.022762986 -0.0074058142 0.01764034 -0.0057281028 -0.0041460497 0.027683847 -0.0007991982 0.0008075474 -0.004864174 0.061148096 -0.023901569 0.015248592 -0.06470641 -0.040389594 -0.016955718 0.041495807 0.007623087 0.05521186 0.034739137 0.015138482 0.057865053 -0.04851871 -0.0043900865 -0.026466582 -0.02400354 0.020635149 -0.025405934 -0.019963695 0.016832007 -0.0048385356 -0.0043642274 -0.037834745 -0.014875487 0.04149667 0.007945142 -0.038576894 -0.07590753 0.010788374 0.08155424 -0.013563285 -0.036221523 0.02865825 -0.011849376 0.06701927 0.0395686 0.011937539 0.031444307 0.019208414 -0.04742308
proud.a.01 -0.050518602 0.04333113 -0.094271526 0.007721244 0.08382652 0.04134422 -0.020507252 -0.022791289 0.036913402 0.010193086 0.08099205 0.051591963 0.0016833396 -0.059744164 0.045989234 -0.010337223 0.022419201 0.026368314 -0.024136938 0.029270072 0.03181758 0.05568498 -0.04529555 -0.03454717 0.028471544 -0.032043137 -0.07000936 -0.077071 -0.026293598 0.046529755 -0.014833888 0.120282136 -0.039429687 -0.0019872338 0.009516937 0.00065130385 0.028828366 -0.019395765 -0.02663886 -0.106885605 -0.03362495 -0.0016078274 0.029005403 -0.055335645 -0.07231785 0.007115823 0.027589338 -0.040878117 -0.050358668 -0.055599097
accurate.a.01 0.034837157 0.030416315 0.06397305 0.020268682 0.06941633 -0.060721662 -0.0045428127 -0.044959288 0.022587543 0.034628462 -0.019785974 0.030710857 -0.01411456 -0.015126636 -0.0057984856 -0.005845109 0.02678275 -0.09307793 -0.025343996 0.008673931 0.026027154 0.01148283 -0.016630162 0.043849565 0.055634677 -0.018555785 -0.06565567 0.016582344 -0.004066645 -0.0231435 0.020199556 0.0035050067 0.013376776 -0.07416908 0.014420926 -0.03403028 0.104095325 0.020407265 -0.011657381 -0.016775697 0.039884046 -0.052426476 0.028862694 0.0057393424 -0.054726787 -0.042954918 0.03490292 0.03978697 0.04956954 0.07218132
controversial.a.01 -0.036157742 -0.0023416174 0.024013674 -0.016047247 -0.027223112 0.00635188 0.012845204 -0.03365728 -0.05129304 0.042957306 -0.016766416 0.038835682 -0.047055718 0.008989828 -0.005833462 -0.058262926 0.015289999 -0.0003929264 -0.028970167 0.0224578 -0.016629547 0.011758972 -0.037141245 0.06512407 0.011344899 -0.088364065 -0.06401266 -0.03323643 0.0044745635 0.04933166 0.0052568265 -0.016833145 0.05610834 -0.10396157 -0.07830546 -0.04748476 -0.03846149 -0.031875603 -0.05435838 0.011574229 0.019875012 0.060941882 -0.035961147 0.049452987 0.029428698 0.03562085 0.006120924 0.08543449 -0.021117618 -0.032450683
abstract.a.01 -0.05330585 -0.005560191 -0.033625904 0.012065913 -0.02171871 0.029207878 0.021757884 0.008793094 -0.04313894 0.011739922 -0.05158951 -0.04316101 -0.015693113 0.021926848 0.036299225 -0.058135677 -0.014252101 -0.019990876 -0.018203733 0.017595224 -0.06095579 0.003544718 -0.037261892 -0.08689344 0.044614144 0.019721625 -0.03324732 0.01128921 0.043345865 -0.032656677 0.010200639 -0.042687662 0.009449247 -0.060390145 -0.030918248 -0.043585837 -0.057985514 0.0055527 -0.02977325 -0.024960622 -0.03150283 0.02188883 -0.0016903955 -0.011287781 -0.039144754 0.038380407 0.04964759 0.03508806 -0.029430566 -0.028622936
constructive.a.01 0.028779935 -0.006858161 0.0063212183 0.047900114 0.0021998812 0.022120086 0.03904042 -0.026174698 -0.018844765 0.015551817 -0.0016696199 0.0014377328 -0.040516943 -0.012060943 -0.055362288 0.0018077862 -0.003567448 -0.032023367 0.014181799 -0.034602035 -0.015083154 0.068347394 -0.027946118 -0.003924341 0.015614618 0.024712872 0.03038123 0.00550568 0.028827716 0.026675731 0.0058240667 -0.051696543 0.019155921 0.0049027908 0.014734347 0.016360937 -0.05709372 0.019314224 -0.020432346 -0.059971254 0.022718329 0.035400376 -0.04112878 -0.004589879 0.019177008 -0.043794874 0.0038871411 -0.00013773772 0.01281219 0.031584494
well-defined.a.02 0.03790069 0.009127584 -0.05308567 0.005118801 0.0050272103 0.04726052 -0.007818157 -0.059316393 0.0058937045 0.037884165 -0.014076608 -0.024357924 -0.016067438 -2.0653586e-06 -0.072974026 -0.03358269 -0.06308864 -0.04568149 0.049307596 0.0058119525 -0.101096205 0.024394665 0.017905572 -0.06762962 0.06512534 0.022619829 -0.019482587 -0.0129398415 -0.017007656 0.057118874 0.045954373 0.025952443 0.0020150868 -0.0019126771 0.00058061356 -0.014837025 0.08601415 -0.011205917 0.0050290725 0.037628535 0.07473538 -0.059041843 0.058906507 0.046246048 -0.05204738 0.08396889 -0.018704383 0.08398256 0.07570416 0.044514623
alone.s.04 -0.035147212 0.027123211 -0.006908943 -0.013312579 0.067077786 -0.00854576 0.03972624 0.023586418 -0.0038445555 -0.0051332447 0.038034838 0.031897187 0.0026443538 0.042518813 -0.10446313 -0.03610149 0.045587234 0.06664898 -0.0024164468 -0.013490209 -0.051170193 0.05702744 0.0014825952 0.0069132764 0.04491307 -0.007871016 -0.021069791 0.067036316 -0.0025465419 0.032157864 0.01947977 -0.035142295 0.050445158 -0.054753587 -0.008085389 0.027619269 -6.3451735e-06 0.009597375 -0.012725698 -0.013925578 0.07225438 -0.020685565 -0.008350108 0.010664184 -0.04187783 -0.05111613 -0.024732145 0.038437713 0.033917587 0.05024468
official.a.01 -0.08002632 0.02246845 0.027595472 -0.0050881053 -0.009085403 0.048649974 -0.040128313 -0.03387254 0.0061296225 -0.013210411 -0.007305557 0.04409421 -0.001904945 -0.01977611 -0.06216299 -0.017748803 -0.03401004 -0.0050002625 -0.0036644475 -0.029301168 0.05725072 -0.025307897 -0.010693755 -0.019656105 -0.08388986 -0.08481155 0.009157557 -0.042608585 -0.052183572 -0.022716105 0.066842675 -0.09705014 -0.039039895 -0.08167778 0.04150651 0.008546546 0.04222088 0.03231786 0.03462741 -0.009033976 -0.020565502 -0.041424237 0.00089915947 0.044018727 -0.012612304 -0.03753321 0.010513523 -0.007497779 -0.066723175 0.0005047385
rough.a.01 -0.007121149 0.006501961 0.022594655 -0.009025423 -0.01779291 0.005478992 0.021242484 0.033071093 -0.018529918 0.011457217 0.017222239 -0.02773394 -0.012450793 -0.044485852 -0.028185561 0.03102045 0.0430919 -0.0015769041 0.054195385 0.0055943555 -0.01009977 -0.011113833 0.00218758 0.006277216 -0.031036876 0.01926708 0.0334166 0.08170454 0.030584436 -0.03009732 -0.0113105895 -0.03693625 0.0380303 0.05379331 0.014651161 0.019460963 0.041276567 -0.058228835 0.06354267 0.0519324 0.005258206 -0.0043900856 -0.0045113685 0.008178174 0.04221215 -0.019492827 -0.04056004 -0.00461806 0.029018566 -0.035361182
weekly.s.01 -0.010504686 -0.028754486 0.056518402 0.026195303 -0.0026511243 -0.02322849 0.006234572 0.0038210112 0.009653492 -0.03903639 -0.03647019 0.028448896 0.025535379 -0.046891652 0.062988244 -0.026325379 -0.014893607 -0.030752512 0.020323593 0.01886736 0.018925205 -0.0029624077 -0.018460853 0.011564519 0.0013692358 0.021145696 -0.0060925325 -0.06356955 -0.009746163 0.008303643 -0.0146737285 0.004729306 0.015374425 -0.052511115 -0.008207934 -0.011925689 0.035898287 0.038166974 -0.007766733 0.016365405 -0.056526933 -0.013108165 0.008825553 -0.017662428 -0.029314952 0.03379638 0.03471859 -0.032454073 0.024993453 0.0183604
continental.a.03 0.025272528 0.009928197 -0.01777683 0.024495598 0.071764946 0.0024139124 -0.029337756 0.018923037 0.037014313 0.020679053 0.009443703 -0.0003447832 0.06491531 -0.042858306 -0.030989304 0.038881868 -0.019769771 0.0050948104 -0.052992932 0.0442066 0.00902022 0.05062421 0.025200948 8.6064945e-05 0.036483493 0.00094538525 -0.012844935 0.035467066 -0.054066353 0.017274173 0.0080233 0.0062326505 -0.0016306946 -0.0173029 0.0368374 -0.031229611 0.014602037 0.0028024823 0.030930193 -0.006085455 -0.03750104 0.014574066 -0.016523061 0.009462865 0.0011917269 0.047290675 0.012162177 -0.03411248 -0.027774032 -0.00044721735
dynamic.a.01 0.0006188717 0.01648833 -0.03170089 0.0039398163 -0.011784577 -0.01805423 -0.03717775 0.026078075 0.008593425 0.03187898 0.030428745 0.073216826 -0.0912375 0.024702055 0.044745658 -0.05215467 -0.004362337 -0.027182318 -0.05819093 0.01996462 -0.016193898 0.017756883 -0.06779091 0.020825958 0.013812356 -0.024709666 -0.009988314 -0.0006914527 0.022576604 -0.02046996 -0.013771231 0.012481275 -0.0069540306 0.011990473 -0.013466805 -0.023971142 0.037198883 -0.0036446673 -0.030935932 0.003787209 0.024999218 0.03897215 -0.06480221 0.013524361 -0.025163434 0.008575518 0.036636077 -0.015980044 -0.052581422 0.016538342
artistic.a.01 -0.04117543 0.04083203 -0.029800395 0.019995797 -0.000377848 -0.027144857 -0.038746398 0.0074997963 -0.053525608 0.044311855 -0.040255208 -0.0038827953 -0.01926661 0.01377171 0.07096779 -0.015950367 0.019873865 -0.0064617 -0.025013389 -0.020895911 0.019906025 -0.0013653315 0.01220253 0.028239496 0.034060415 -0.001595537 0.013857894 -0.0477563 -0.057782385 -0.07916695 0.025316028 0.0090857595 -0.002653409 -0.07991739 -0.013737023 0.025290996 0.07655786 0.014548193 -0.010914197 0.030748708 0.033140544 0.012291221 -0.03548684 -0.043326415 0.013571682 0.017619746 0.017089063 -0.08661915 -0.035259444 0.024561398
acrimonious.s.01 -0.02938503 0.0341631 0.020665774 0.0013299289 -0.0380361 0.05329424 0.06730971 0.03664141 -0.035021637 0.03836651 0.019864263 -0.007038229 -0.020070449 -0.007368358 0.06127963 0.026201567 0.062015492 0.029553132 0.040786654 0.05714552 -0.033639446 0.08443788 0.015887214 0.06755564 0.03724525 -0.011736955 -0.001476944 -0.016238017 0.0009839309 0.0026064096 -0.005844353 0.009447611 0.044231158 -0.030135278 0.027950391 -0.018218957 -0.056512322 0.009234845 -0.0088864565 -0.015982453 -0.0021883775 0.07654595 0.008425008 -0.016412443 0.02812113 -0.0042236443 -0.012974824 -0.06448173 -0.036723062 -0.00405642
uncomfortable.a.01 0.045985978 -0.024224745 -0.010074605 -0.03420962 -0.040623836 0.011465168 -0.033146724 0.055579383 -0.06462954 0.004037004 0.003265238 -0.07963534 -0.025747074 0.013369528 -0.00409237 0.015284817 0.060134273 -0.0051372615 0.040015556 0.0012242154 -0.044414077 0.033096287 -0.018208139 0.04944488 0.004882365 -0.06434321 0.008892736 0.04371683 0.053525932 0.05220696 0.014901297 -0.010252285 0.052966967 -0.0039487816 0.029693333 -0.007087754 0.023663113 -0.016173968 -0.01315025 0.007957241 -0.076616265 -0.07007854 -0.020056074 0.042360354 0.073290616 0.003528484 -0.04753377 -0.032854114 -0.05712251 -0.03237919
gradual.a.01 0.0006939842 0.008075233 -0.0052285986 -0.037345465 -0.06731527 0.0026610866 -0.02509681 -0.039256454 0.09833569 0.013004286 0.039688576 -0.05799612 -0.022142978 -0.0458158 -0.010425178 0.035518978 0.074278735 -0.09912034 -0.054519974 0.011200315 -0.051360972 -0.06438549 0.030510414 -0.08341041 -0.0016175188 0.0122704515 0.02670389 -0.00724773 0.014739177 0.014855318 0.040687867 0.03829009 0.045437153 0.027330184 0.07322963 0.0014595735 0.055497766 0.037061676 0.1130167 0.09134946 -0.06198945 0.051691927 0.009246923 -0.017543051 -0.041080333 -0.11245339 0.050658967 0.05220215 0.045312773 0.014968889
assertive.a.01 0.01366665 -0.052862696 -0.055934872 -0.045685887 -0.017749652 -0.02640628 0.02812286 0.007670444 0.009747353 9.8538374e-05 -0.06991493 -0.033176173 -0.00792264 -0.0013230615 -0.0126284715 -0.010428659 -0.01981067 -0.11745521 0.037084725 0.041494478 -0.055755213 0.080088444 -0.0006619098 0.0025454387 -0.031949654 -0.009050185 -0.04755328 0.004490203 -0.02477796 0.07518652 0.0037673144 -0.03154995 -0.019500984 0.0042719203 -0.00681809 -0.06460143 0.0052289995 -0.038408928 -0.03795817 0.02783119 0.08371681 0.011146827 -0.08773186 -0.03294796 -0.0042757806 0.012983689 0.052128665 -0.0051487335 0.014502365 0.027770841
free.a.01 -0.024328828 0.0080011785 -0.01467602 -0.070526965 0.0748242 0.03878818 -0.010986571 0.06254982 0.03457893 0.03994926 -0.059853323 -0.0022991048 0.008686035 0.037219398 -0.07337694 0.09101739 0.038681924 -0.025230434 0.06973339 -0.0660287 -0.019588541 0.017128257 -0.04674436 -0.04113483 0.030883 -0.041151196 -0.039830368 -0.017978275 0.035092264 4.8768245e-05 0.0097007295 0.059503965 -0.013440016 -0.010512643 -0.07074869 -0.045629468 -0.060025413 -0.08997121 -0.102694735 -0.043150738 -0.08278927 -0.005077027 0.0025468855 -0.028619224 0.07064669 -0.053386547 -0.027727433 -0.0026698718 0.01681153 0.035869338
incapable.s.04 -0.04537716 -0.013331768 0.012964347 -0.0044074105 0.030766739 -0.0053460384 0.025020681 -0.03851305 -0.009186703 0.011714744 0.023151627 0.00048158903 0.009127941 0.033328082 0.017647723 -0.054547414 0.056643832 0.00550435 -0.0015103199 0.0053024734 -0.0072645484 0.0135047715 0.029347092 0.0061864844 -0.014021011 0.021662341 0.053853933 -0.040511265 0.023778116 0.047728367 -0.009003251 0.019223029 -0.013063084 0.013941196 0.055529114 -0.031547252 -0.041185513 -0.023538124 -0.025648998 -0.005607416 0.02527242 -0.032093186 -0.03069545 0.033034686 -0.0016760287 -0.0051116743 -0.0016412535 -0.041807007 -0.0007137144 0.051704396
obvious.a.01 0.010736816 -0.010223577 0.017733902 0.014601519 -0.019742085 0.013585428 0.0017988305 0.00974249 -0.037446152 -0.031651393 -0.015546943 0.021534825 0.054238424 -0.015884336 0.011518052 -0.0050103874 -0.055311933 0.03222071 2.4567737e-05 -0.046724785 -0.08485785 0.017912053 -0.045841232 -0.020796662 -0.007982291 -0.014230927 0.0056416783 0.07136887 -0.0155774765 0.0032494976 -0.029465225 0.009201421 0.052485 -0.029398417 0.006603413 -0.042698316 -0.012221575 -0.001668531 -0.017643118 0.0414697 0.008188132 -0.014724454 -0.0049074893 0.014384804 0.04516804 0.019086435 0.022684546 0.009906475 -0.06927904 0.028181555
religious.a.02 0.012065278 -0.0027888296 -0.04235739 -0.044387188 0.08058064 -0.011916085 0.029403353 0.04158847 -0.0142024495 0.04873059 -0.029603424 -0.0068973014 0.058720402 -0.030475391 -0.044282492 -0.041483805 -0.013503634 -0.0045272177 0.051839385 0.060021102 -0.027796874 0.08840876 -0.027256446 -0.024307607 -0.0635591 -0.024898 -0.027141113 -0.06690639 -0.023080615 -0.044634238 0.01822185 0.05556742 -0.018106883 -0.023527838 0.050272252 -0.07488253 0.002340335 -0.098859616 -0.034546502 0.016226904 0.078040086 -0.041092232 -0.010013268 0.043885075 -0.019877953 0.05249962 -0.05893194 0.027199408 -0.070710324 0.014578276
busy.a.01 -0.008241964 -0.0045352257 -0.020783322 0.002793217 -0.0142009985 -0.026506228 -0.004910203 0.016608132 0.009270423 0.018578451 0.053371277 0.006497997 -0.017782092 -0.0066425935 0.007082038 -0.03280549 -0.0065740943 0.04842179 0.014940186 -0.018920459 0.01546827 -0.013647137 0.038683325 0.01068242 -0.03144692 0.041724052 0.035793036 -0.03363239 0.005549389 0.014767239 0.019717047 -0.01914074 0.034426734 -0.020783123 0.0075477557 0.021489594 -0.0026442066 0.01982919 0.019127494 0.035195682 0.036192864 -0.0320274 0.0206176 -0.03708323 -0.0038054406 -0.01798157 -0.00515952 0.032697015 -0.020602262 0.03465924
residential.a.02 0.0072431634 0.04311455 0.040398374 0.009603513 0.009999589 -0.029267875 -0.014942367 0.014572108 -0.018536508 -0.056681596 -0.051260464 -0.04135741 -0.005795743 0.048976243 0.057213806 -0.008138894 0.03387671 0.04752748 0.021615222 -0.03020294 -0.034993723 -0.029098816 -0.010328863 0.025285035 -0.037701037 -0.020165356 0.0143673 -0.03492811 0.011249758 0.019552156 -0.015975386 -0.0058531235 -0.0016944993 -0.0054292614 0.026906824 0.0564592 -0.014636455 0.0055109444 0.0027107683 0.030325245 -0.009176207 -0.063312024 -0.034526065 -0.06330162 0.0062295054 0.013351857 -0.07150397 -0.033589914 0.041833352 0.017433293
lost.a.03 0.0031941545 -0.026775604 0.055221587 0.027650315 0.08567254 0.031751603 -0.006069714 0.053206615 -0.025334667 -0.012453689 0.0327827 -0.010372743 -0.02219858 0.03402839 0.006293995 -0.12731177 -0.017891964 -0.011526243 -0.022926373 0.03924115 -0.013241037 0.052639503 -0.03082885 -0.036644265 0.043902557 -0.046045355 -0.025930505 -0.08564946 0.055576097 0.042169765 0.07360127 0.057940472 -0.037806194 -0.045900624 0.04084674 0.0336158 -0.073340915 -0.10298279 0.051186368 -0.05362494 0.0082737785 0.019805241 -0.010339512 -0.04295598 0.031795777 -0.065242775 -0.0421213 -0.021574931 -0.004813534 0.010296563
reliable.a.01 -0.0060528517 0.07330041 0.02818689 -0.05289151 0.078493945 -0.069030374 -0.12354994 -0.048237998 0.022714408 -0.027173623 0.028491728 -0.009580321 0.010320676 0.064703375 0.023407426 0.016924798 -0.036563165 -0.040719964 0.04721629 -0.061887614 0.0351356 -0.04538258 -0.05019567 -0.06711008 0.062720776 -0.075738154 -0.05296281 0.032779284 -0.03776676 0.032282744 0.041348092 0.078654565 0.06316356 -0.012971927 -0.027204948 -0.04335805 -0.03923675 -0.012239629 0.118056074 -0.09618441 -0.049128693 -0.0625211 -0.06671867 0.023662921 -0.059419073 -0.054217223 0.017511109 0.096957475 0.034298472 0.06861065
desirable.a.01 -0.05188165 -0.019165106 0.022557944 -0.001107007 0.03449987 0.0057228296 0.0021814527 0.052433245 0.04371613 0.032729905 -0.03169424 0.050552543 -0.000992633 -0.061407696 -0.04832436 -0.03939709 0.027491953 -0.016320152 0.038457826 -0.07098824 -0.053644545 0.05052268 -0.05830704 -0.03621206 -0.035310484 -0.04206682 -0.016236767 -0.049812973 0.076865755 -0.033083383 0.004540682 -0.0169967 -0.021968672 -0.016176928 0.049574126 0.01648552 0.021435447 0.005744994 0.033954155 -0.04586484 0.0039754636 0.01362577 0.051760275 0.010563316 0.0017879626 0.046778936 -0.034717318 0.035785127 -0.023668626 -0.058759283
cosmopolitan.s.03 0.014480488 -0.00027571965 0.03494562 0.13557665 0.028988548 -0.029953528 0.021405332 -0.07077898 0.028820213 -0.061279718 0.07188345 -0.0075002536 0.017640444 -0.01964643 -0.064678065 0.039330397 -0.111296296 0.016689572 0.024418943 0.059161752 0.059183825 -0.019160904 -0.01632144 0.022034174 0.038966894 0.006395686 -0.0078358315 -0.019646946 -0.033683263 0.012038549 0.029604318 -0.036244333 0.03530375 -0.028781308 -0.060990926 -0.022229588 -0.0027545337 0.01346912 0.079207614 0.028787127 0.035166573 0.023831107 0.01028451 -0.035936963 -0.018016415 -0.05189752 -0.03275572 0.036143545 -0.019355567 -0.020656059
irrelevant.a.01 -0.02424201 -0.043780588 -0.025060669 0.021182822 0.0033264426 -0.0075910753 0.0059277858 -0.018805422 -0.05210301 -0.0039973403 -0.06899162 0.024995621 0.021652201 -0.021648953 0.021318506 0.045773275 -0.0314008 -0.024534043 0.045527708 -0.023286033 0.013193536 0.061878465 0.021615598 -0.0008920698 0.07355646 0.019617768 0.010552593 0.007169041 -0.060247783 -0.049373157 -0.012603548 -0.0049047675 -0.010697945 -0.030200755 -0.027672196 -0.07900423 0.013487024 -0.0042569856 -0.008336212 0.07978427 0.04192337 -0.0051700575 0.00079999684 -0.0061421064 0.02784375 -0.02514521 0.019891819 0.03668597 0.048621524 0.076926306
subjective.a.01 0.014915837 0.067649566 -0.04326518 -0.012428363 0.031329975 -0.067222476 0.06963642 -0.08231001 -0.0075561292 0.033235736 0.015617095 0.068939745 -0.018979914 0.03146567 -0.020748531 -0.00025100735 0.061847497 -0.05695536 0.035409424 0.022583459 -0.016687382 0.057846442 -0.07647573 -0.028010951 -0.06340786 0.08498036 -0.067062445 0.0012978964 -0.016341854 -0.0052349376 0.015378611 -0.045434892 0.021820888 -0.005797676 0.008761627 -0.02507333 -0.0063003297 -0.012418201 -0.009845969 -0.013186924 0.07463218 -0.08564897 0.032381687 -0.03839546 -0.006996271 0.06834862 0.0030555502 -0.038034197 -0.05065632 -0.057530712
alert.a.01 -0.02731752 -0.0062918807 0.021296188 0.0056503317 -0.019309111 0.014229599 -0.03368937 0.01658559 -0.011073272 0.0413847 0.012307385 -0.021612331 -0.014065376 -0.0046806717 -0.08441105 0.018098213 -0.024331003 -0.046758424 -0.033241753 -0.006730048 0.06371576 -0.0030910822 -0.0060335346 0.0010076765 -0.04076035 -0.023489285 0.00026089948 0.01208686 0.028257888 -0.016213654 -0.00875725 0.02761672 0.06967675 -0.011525826 0.0024982453 -0.009153594 -0.02082547 -0.026052084 -0.0075283586 0.045770884 0.032774795 0.043527126 -0.042724155 0.005444322 0.03607459 0.033265553 -0.015337154 0.017018417 0.0192092 0.046924755
firsthand.s.01 0.064856716 -0.018942572 0.013726554 0.0023395221 0.012905536 0.039824676 0.04013264 0.037011642 0.02691769 -0.018928623 0.014122459 0.017295197 -0.009170737 -0.094185285 0.03924713 -0.008169446 0.017716665 -0.02615284 0.020967685 0.011264968 0.025881223 0.036335964 -0.0057014436 0.036541343 0.035299942 -0.006527467 -0.022088045 -0.020698486 0.031325765 -0.046302035 0.029929824 0.020311875 -0.002947913 -0.11524099 0.056997456 -0.015011763 -0.03748011 -0.0046012304 -0.05326442 0.01504385 0.06640151 -0.052810803 -0.03791141 -0.0026928727 -0.02210484 0.015494183 0.013463392 0.05891866 -0.002503032 -0.010708441
traditional.a.01 0.07150834 0.053676013 -0.12163829 -0.027846523 0.06919326 -0.041526195 0.0019989498 -0.010887309 -0.05815708 0.04057951 -0.03129887 0.022150328 0.024561822 -0.028887244 -0.0033960717 -0.056430113 -0.03426399 -0.04723456 0.0064487597 -0.015605436 -0.040398065 -0.02860101 -0.10083998 -0.05005411 -0.077154756 0.009177669 -0.03682063 0.0013193759 -0.03110852 -0.0021397814 0.009798697 -0.00026551122 -0.03494567 -0.030796664 0.011507441 0.043800876 0.08710353 -0.03557528 -0.027175125 0.03303526 -0.01919691 -0.026872408 -0.04468841 0.014699179 0.023179421 0.024673682 -0.04150284 -0.031887542 -0.040797252 -0.08559516
dangerous.a.01 0.03558417 -0.054656222 0.04190087 -0.0051831133 -0.00793975 0.018123582 0.0075791567 0.093831345 0.06399933 0.076092966 -0.042780533 -0.042703018 0.004972555 0.055251177 -0.019411145 -0.026782535 0.02634799 0.020143889 -0.027310377 -0.00029436217 -0.035823405 0.0567947 0.026705462 -0.042684413 0.00040019798 -0.15333185 -0.034337834 0.042032458 0.07472233 -0.0007817428 0.089173645 0.048389744 -0.04276697 -0.089586444 -0.10325412 0.116689555 0.06762603 -0.06775859 0.026805144 -0.074579746 -0.1442952 -0.017365905 0.049750917 0.0017417624 0.054585956 -0.014674628 0.011486178 -0.074191764 0.010695026 -0.019478567
square.a.01 0.009592194 -0.004209598 0.032943442 -0.049006145 0.042704273 0.013367191 -0.004184373 -0.023447467 -0.058423106 0.01890219 0.045935623 0.032779027 0.0014867005 0.024136413 -0.06217798 0.048646923 0.0007226261 0.0050264727 -0.03788179 -0.061302066 0.060710717 -0.046402678 -0.0076373033 0.059689317 -0.014330747 0.024933044 0.007385599 -0.07847189 0.000382275 -0.013627227 -0.009106635 0.016841136 0.02673831 -0.031583987 -0.03554975 5.01537e-05 0.037865236 -0.014768138 0.0019024988 -0.0016205482 0.015682628 0.033362098 0.009156933 -0.018958353 0.027363522 -0.04029326 -0.027292663 -0.047486357 0.0046278806 0.08430878
solar.a.01 0.026518118 0.03588844 -0.03713229 -0.026483731 0.038488653 -0.124546945 0.036422584 0.0055058184 0.03295668 0.013093457 0.0036470164 0.02788559 0.006261149 0.03196769 0.010771498 -0.008159345 0.009899604 -0.00924617 -0.031235345 0.029865198 -0.08844955 -0.03957936 -0.061488785 0.026650896 0.033873793 -0.0078086625 -0.03575338 -0.04022765 0.005182785 0.06423499 4.94697e-05 -0.019952927 0.008137449 -0.01711562 -0.015577954 -0.030422166 -0.022135684 -0.00050102884 -0.044938896 0.014775181 -0.053167265 -0.056510087 -0.026767738 0.009052193 -0.07436927 0.0018434641 0.019357715 -0.0316857 0.007249539 -0.031342674
seasonal.a.01 0.057828564 0.04012616 -0.04015943 0.011579422 -0.044846307 -0.03319942 -0.07516806 -0.009745694 0.02138957 0.014497071 -0.05985279 -0.023039633 0.037658814 -0.048836853 0.04963395 -0.09859989 -0.016994186 0.057777047 -0.05009164 -0.09648354 0.0022289397 -0.0062733176 0.028623229 -0.018802982 -0.040248435 0.009163759 0.07118906 0.061413717 0.086304165 -0.0053399997 0.039987236 0.010454488 -0.03330935 0.033413187 -0.022371251 0.035536576 -0.026843064 0.04497373 0.050570633 -0.011711972 -0.03977251 0.016056763 0.0266718 -0.0007434412 0.039870147 -0.051205613 -0.030961234 -0.06704033 0.009497667 0.00062417483
illegal.a.01 0.07438899 -0.013894721 0.023136476 0.0064026057 0.014393667 0.0073620155 0.02636986 -0.01936675 -0.029591821 0.014039713 -0.01980022 -0.010331351 -0.009649986 -0.032253273 -0.028154593 -0.000576453 -0.01651984 -0.040613305 -0.020989267 -0.030407915 0.030800954 0.04687843 -0.0117017 0.035574522 0.0050726696 -0.047981795 -0.022766357 0.03568422 0.013973836 -0.05605876 0.008524524 -0.054033425 -0.04508553 -0.0101417 7.353317e-05 0.01119005 -0.012794767 -0.030801179 -0.027806828 -0.060608074 -0.034581088 -0.00629045 0.08017849 0.050601702 -0.016503328 -0.035926934 -0.00072852836 0.038696717 0.039397247 -0.0028912043
acute.a.01 -0.035138447 -0.020986605 0.0045419014 0.018688748 -0.022113126 -0.028293967 0.037640054 -0.052565955 -0.033250455 0.05415279 0.067265816 -0.05645257 -0.046952296 0.037608705 0.04658038 -0.027647456 -0.09015827 0.05474586 -0.005574189 0.033263158 -0.038139533 -0.025918625 0.00598742 0.0005006105 -0.028334327 -0.04774829 -0.029493134 -0.016513532 -0.014674754 0.04797243 0.01453794 0.0010800896 0.019515023 -0.0072986074 0.014602451 -0.0677655 0.022046987 -0.0009449812 0.026744403 0.033820964 -0.046104457 0.053609844 0.046225976 0.033165235 0.009903487 0.023569843 -0.024863428 0.025260743 -0.07028127 0.03489377
statistical.a.01 0.011578062 0.005180748 0.01120283 0.0053636637 0.028196234 0.053459223 0.025804508 -0.055896915 0.038763408 0.050398838 0.06421112 -0.03767504 -0.016642107 -0.02663875 -0.06571382 0.06893113 0.027874187 0.004017184 -0.07510035 -0.044237446 -0.022907887 -0.117186025 0.01281268 -0.048026495 -0.06561834 -0.035946712 -0.042204775 -0.07633567 -0.017610895 0.076958485 -0.022599563 0.029050572 0.01414441 -0.05102708 0.078806005 -0.058328066 -0.013989394 0.0076282574 0.01643131 0.031472858 -0.015129961 -0.06344685 0.017821373 0.074961886 -0.05940126 -0.041503016 0.041609418 0.09963735 -0.027091943 0.039165113
equivocal.a.01 0.03709533 0.049538177 -0.02380581 0.05148942 -0.0022686417 0.01871079 0.08302914 0.0103278095 0.0006757292 0.029875673 -0.058206987 -0.06676645 -0.07510103 0.012490224 0.04376293 -0.020793006 0.032318275 -0.04309675 0.046134256 0.060016796 -0.009757138 0.015564429 -0.02537673 0.015564358 0.021818722 -0.011988312 -0.014445979 0.08549131 -0.057166506 0.040439766 0.020158112 -0.11752738 0.029815143 -0.09721429 0.03971546 -0.028692398 0.0050210194 0.054851197 -0.033741195 -0.018549744 0.02934534 0.013490146 -0.03003433 0.024055872 -0.029549487 0.025231382 -0.045089412 0.06452077 0.0045591723 0.028543554
complete.a.01 0.03210187 0.009538359 0.06917974 0.01739486 0.011491377 -0.0071788817 -0.015715059 -0.028335681 -0.07611508 0.056657996 0.07342943 0.0062583573 0.009693238 -0.0338085 0.012461921 0.025147246 -0.018933466 -0.015531907 0.021950722 -0.01712327 -0.010148535 0.015567505 -0.047351502 0.04963154 0.014985491 -0.042756192 -0.031985246 -0.068718724 -0.02533491 0.03385478 0.018284742 0.00083072396 -0.012507321 -0.080997296 0.014968207 -0.030660085 0.05112435 -0.04054721 -0.019262647 0.020352649 0.016557822 -0.02832029 -0.00038794224 0.038237862 -0.08447656 0.0013055005 0.0565522 0.0014567152 0.013949535 0.028694345
color-blind.s.01 -0.010751102 -0.1095243 0.05837005 0.035519082 -0.05320608 0.0017350294 0.029965024 -0.03774768 0.026699621 0.051426318 0.001151236 0.0011222656 -0.01907759 -0.008551521 -0.02792275 0.008484168 -0.036191367 0.029141951 0.0102923475 0.015503661 0.0038357791 0.038876086 -0.01597922 0.012434912 0.028371131 -0.02188588 -0.025456496 -0.04053376 -0.02052829 0.0028319694 -0.041701123 0.0072665443 -0.035122354 -0.009792993 -0.0060792784 0.0073741293 -0.013006186 -0.026137033 0.008448253 0.039586037 -0.040317036 0.009289011 -0.012752083 0.02108869 0.032491643 -0.026117776 0.04290241 -0.036998916 0.0039449707 -0.082161784
digital.a.01 -0.016615316 -0.030579044 0.027418518 0.055148046 0.014615809 -0.07547899 -0.067618385 -0.0128133055 -0.03291685 0.042071298 0.055397917 0.011333863 -0.006764373 0.044245724 -0.049010213 0.031006126 0.004444842 -0.055344865 -0.027100028 0.038501173 0.009506633 -0.012664248 -0.02630774 -0.010402907 -0.05514217 0.026276836 -0.0063894466 -0.015359368 0.02893997 -0.009709432 -0.029097795 -0.04465792 0.022621596 -0.0631974 0.017821142 -0.016333599 0.00039607726 0.045779496 0.003649794 0.0015513727 0.02996076 -0.005711488 -0.032455333 0.035169404 -0.0056690443 0.009878847 0.0320804 -0.013143109 0.029675731 0.043177716
toxic.a.01 0.016778676 -0.0072606513 0.06275272 0.03227998 0.0078994855 0.019377237 0.029026411 0.010616509 0.033571884 -0.014365742 0.011591826 0.017564956 -0.068810746 0.032202058 -0.0027502414 0.006291294 0.0062507493 -0.010552964 0.03593529 0.019422552 0.022854919 -0.03472003 0.02592409 0.022610333 0.040834785 0.019061355 0.0060021332 0.013591445 0.025411893 0.041082013 -0.030965466 -0.016036345 -0.03504503 0.016160166 0.066973574 0.054093745 -0.022784447 -0.019577036 0.05574756 -0.026935074 -0.049744453 0.056844044 -0.0069054123 0.022598153 -0.04653194 -0.025845133 -0.027206391 0.022663562 0.047534082 -0.016853618
concluding.s.01 0.020409007 0.07180621 0.01932516 0.054410104 0.03853108 0.03409828 0.019321278 0.12209651 -0.012588712 -0.02931728 -0.034073655 -0.038685296 -0.06637836 0.01586452 0.04991814 -0.041248072 0.026708432 -0.055676665 -0.005361805 0.026818207 0.014692808 -0.014058628 0.009789152 -0.03326122 -0.02057022 -0.024076786 -0.010220779 -0.05519884 -0.050297722 0.09617525 0.031032678 0.019833993 -0.08915975 0.026496768 -0.060745906 0.009734471 0.07411018 -0.033361554 0.08338174 -0.020514447 -0.059147343 0.06878819 -0.012803922 -0.05817984 0.020116434 0.031717278 -0.014412062 0.012179196 0.004888589 0.015461057
tough.a.03 -0.021964857 -0.07956282 -0.023405086 -0.03183698 0.025054624 -0.002343835 0.0049481825 0.020886524 -0.0069948067 -0.0124282995 0.002101945 -0.07516997 -0.029770216 -0.11489371 -0.004037935 0.0036314966 0.0019593511 0.00061169674 0.011712219 0.033723254 -0.046100076 0.01660937 -0.029771635 0.024673568 -0.01390734 -0.033701055 -0.0037035772 -0.034352954 0.03174243 -0.02042466 0.03235033 -0.024625307 -0.038839314 -0.039997283 0.02526926 0.04280791 -0.014419688 -0.097762346 0.025089273 0.007874164 -0.07546149 -0.021343546 0.0743222 0.024847263 0.0318167 0.0024016744 -0.011714238 -0.06173319 -0.036082264 -0.016158827
complex.a.01 -0.024261866 0.006456028 -0.031292073 0.009174736 0.006882975 0.015013386 0.023647262 -0.030648738 0.024599798 0.06736567 0.026037125 0.052183364 -0.053653352 -0.033811636 -0.012850311 -0.09138199 0.012805887 0.038207244 0.04442173 -0.036575735 0.024327924 0.035928715 -0.024664767 -0.042580012 0.006845327 -0.018637234 0.00966927 0.044968475 0.008196003 -0.020549005 -0.01424078 -0.058558553 -0.03904473 -0.01752453 0.069763936 0.044928607 0.015201285 0.0056653153 -0.04352484 0.037831962 0.01774768 -0.10493162 0.030095132 -0.023574516 -0.015962724 0.011922488 0.074295156 0.01726475 -0.0017322137 0.03427303
part-time.a.01 -0.01370213 -0.021985043 -0.025541654 -0.02292781 -0.03383167 -0.006116238 -0.0372048 0.0075516338 0.001741751 -0.084166214 0.0149008585 0.035340715 0.02307375 0.01261345 -0.019587314 -0.005022036 -0.022186939 -0.011283434 0.021572856 -0.026916802 0.05471807 0.017287306 -0.019148253 -0.008666069 -0.03221853 0.017504938 0.030754454 0.011023734 -0.020345932 0.016912078 -0.025549268 -0.025368875 0.01512818 0.026401108 -0.01213329 0.013874395 0.049557198 -0.020936267 -0.008251989 -0.031251222 -0.05152296 0.012233948 -0.023273652 0.0025109616 0.026132766 -0.050101522 -0.0027491022 0.042187832 0.02322639 0.022955626
steep.a.01 -0.0065680644 0.06359173 0.03362555 -0.00034719083 -0.05097696 -0.014972628 0.050062668 -0.026838804 -0.018179702 -0.0012781908 -0.04549378 -0.029856555 0.02356632 -0.02912034 0.003667787 0.010288965 0.017251223 0.029127695 0.004982538 0.06309186 -0.03910186 0.025552507 -0.013042484 0.0071457485 -0.0024385417 0.005904963 0.037283693 0.028484479 -0.063149996 -0.030173454 0.009515084 0.0040335846 0.01135303 0.048327014 0.04770417 -0.06696423 -0.01128306 -0.023597032 0.0078105642 0.03919823 -0.029044988 -0.007544639 0.019849313 -0.07010224 -0.030357687 -0.049956672 0.0514389 -0.034508675 0.013278576 -0.0094379885
human.a.01 0.044559933 0.026108216 -0.08642332 -0.019131165 0.06472225 0.07833243 -0.029795116 -0.00728901 0.06439771 -0.0012045212 0.061179057 -0.0037574996 -0.05113017 -0.007352334 0.018361669 0.0046980237 0.04159127 -0.0031975873 -0.008082009 0.00828849 -0.026981952 0.04878263 0.062095556 0.0060720993 0.0733046 -0.092243716 0.012064447 -0.000527256 -0.055529233 0.014347855 0.0645971 0.02338033 -0.050940633 -0.0053546824 -0.11772039 -0.047424894 0.038740907 0.05308839 0.052168507 0.042886082 -0.06715871 -0.07314649 -0.0077177933 0.015752068 0.037690524 0.08007663 -0.03622504 -0.058535255 0.016231267 -0.043240692
happy.a.01 -0.032700244 0.011401122 -0.051319577 -0.018736703 0.048477817 -0.033311527 0.04356408 -0.014104176 -0.021591542 0.043786854 -0.043462135 -0.02613444 -0.051272374 0.023832807 -0.02013619 0.02180195 -0.015382622 0.02541857 -0.04754523 0.0075499825 -0.07003003 0.025004892 -0.013828323 0.0038633675 0.068699725 0.005174414 -0.024907336 -0.006346792 0.011551582 -0.010625478 0.016040346 -0.0072713187 0.058372643 -0.037988584 0.01620753 -0.035228383 -0.009180487 -0.020607125 -0.06966318 -0.006649696 0.085349046 -0.04042057 -0.04190926 0.013402489 0.005335808 -0.029400796 -0.03140785 -0.0069305515 -0.012613813 -0.006402742
handy.s.02 -0.023552995 -0.026457287 0.046461083 0.016439585 -0.041537255 0.005872887 0.0072132177 -0.03426761 0.028374827 -0.055330195 -0.053374503 -0.042018574 0.058657262 0.0060018417 -0.06201424 -0.0020663594 0.05157291 0.054432075 -0.029583313 -0.044023708 0.010687686 -0.050661728 0.016564528 0.051332768 -0.010041503 -0.0031552895 -0.04594834 -0.04399856 -0.023279978 -0.0002075346 -0.01487617 -0.026801035 -0.009915158 0.030212281 -0.04450343 -0.016603425 0.0067631537 0.069311745 0.01728729 0.07347688 -0.013377975 -0.05657775 0.014244101 0.022751013 -0.013832079 -0.036173925 0.0001692597 0.034784622 0.004585255 0.008119272
standard.a.01 0.01598732 0.067305855 -0.095347576 0.07249129 0.11442668 -0.030994471 0.071334235 -0.035420127 0.040057987 0.09175253 0.051519588 -0.056185495 -0.029392164 -0.034557335 -0.055437278 -0.0024823882 -0.024311285 -0.012902169 -0.0053657955 -0.04387697 -0.08527852 -0.021546496 -0.11712475 0.014787158 -0.010049092 0.046286587 -0.03849011 0.034328975 0.035167713 0.055786185 0.069313966 -0.12631385 0.110540785 -0.070733696 -0.0029550209 0.01967505 -0.007064592 -0.030404493 -0.082636684 0.04190881 0.06773811 -0.06305221 -0.03145947 0.13227071 -0.10880519 -0.030772593 0.06455071 0.030844998 0.040738836 0.018279381
extraordinary.a.01 -0.017187515 0.00847372 0.018378308 -0.003087511 0.08055182 -0.027342902 0.019453362 -0.041024003 -0.03996661 0.044490762 0.018192587 -0.054673936 -0.08139589 -0.04826966 -0.054104753 -0.051401135 0.03904184 0.064205915 -0.020905597 -0.032535702 -0.023557505 -0.005800645 -0.03241389 -0.037511967 -0.0040324074 0.009367831 -0.038011577 -0.0035206904 -0.0043524704 -0.011183414 0.011437795 0.06774623 -0.008079721 -0.05493991 0.03612925 0.0070509827 0.023217484 0.071606286 -0.059413817 -0.017260384 -0.02411027 -0.0037695558 0.050042752 -0.008188862 0.055483326 0.025149912 -0.06461742 0.0041394723 -0.07177157 0.013859274
wrong.a.05 0.042257644 -0.040424123 0.016416365 -0.01721671 0.04460369 -0.02395584 0.04178457 0.0136300335 0.016918305 -0.036582816 -0.011533824 -0.00958746 -0.030993534 -0.05016612 0.062294193 -0.016471218 0.014376357 -0.0041974834 -0.045930978 0.009131519 -0.025113586 0.013461076 0.056999817 0.015889859 0.051503893 0.0499961 -0.09365944 0.059960175 0.018115867 0.029444268 0.02194061 0.0010451138 0.03346101 -0.06500904 -0.021350501 -0.010224339 0.06838536 -0.020557642 0.04466413 0.0016146103 0.066410206 -0.042590275 -0.04690616 0.057368007 -0.059331838 -0.073641166 0.04106686 0.10056894 -0.0042684483 -0.022608276
ill-famed.s.01 -0.013716273 -0.031490754 -0.029051313 0.057179224 -0.047426373 0.090509966 0.017551813 0.029966708 0.0018250975 0.017086163 0.04060427 0.026827672 -0.014742547 -0.0321595 0.0076127048 -0.022454979 0.010340387 -0.0036669003 -0.018329129 0.03043573 -0.010233927 0.027918693 -0.012806367 -0.017528202 -0.05184334 -0.043902036 -0.02861157 -0.031333376 -0.0029580204 0.011697501 -0.02220249 -0.020224085 0.037528493 -0.010893898 -0.022506675 -0.011001389 0.07817367 -0.05081519 -0.066493206 -0.014328286 -0.010488389 -0.011988956 -0.026790282 -0.011645348 0.003908547 -0.05155062 0.016203713 0.019797446 0.025014093 0.010178729
chronic.a.01 0.008008029 -0.06563144 -0.063799776 -0.014556794 -0.04697437 -0.025721947 0.027663015 0.010334921 -0.029935958 0.013556993 -0.055585943 -0.054031514 -0.0028405397 -0.020937465 0.06106592 -0.061764117 0.00895079 0.07148413 0.00019833833 0.018548418 0.0031425795 0.025218755 0.029653892 0.06914263 -0.015121366 -0.022812312 0.04270912 0.02069054 -0.035115406 -0.02456567 0.04194556 0.056148432 -0.011893746 0.03214181 0.009010058 0.11992434 0.0141218845 0.039002467 0.05597919 -0.022095252 -0.04931358 0.03823849 -0.018366486 -0.0021623443 0.05885479 -0.011772114 0.04638343 0.072848506 0.020875221 0.054348383
hot.a.01 0.04224247 -0.035873044 -0.049700044 0.10539182 -0.09323114 -0.09099896 0.0014589713 0.0050710067 0.09261141 -0.02287461 -0.049097013 -0.08892964 0.026416246 0.07928508 0.093507156 0.033158157 -0.0054980367 0.065083936 -0.056804083 -0.07921028 0.0051362477 0.04217466 0.041924503 -0.024358597 -0.0075385203 -0.006584975 0.0020658243 0.063868605 0.018554863 0.0001143001 0.008139661 -0.06998149 -0.0030261087 -0.015669849 -0.0858608 0.018308211 -0.021236908 0.017572017 0.0074138297 -0.046065543 0.0011646852 0.032722674 -0.015526828 0.017010124 0.021702347 0.07039806 0.02801048 -0.028144795 -0.060211275 0.02227576
flat.s.12 0.08351432 0.101128474 0.092800625 -0.08029239 0.06533701 -0.024706753 0.07133414 -0.012990141 -0.049722843 -0.06765155 -0.012759826 -0.05380241 0.006257203 0.05530273 -0.062813 0.046887808 0.017733693 0.026193615 -0.027926033 0.0077746697 0.046717696 -0.043741543 0.02710029 -0.0010933955 0.030688608 0.057865083 0.019033235 0.030843766 0.03609149 -0.05148233 0.053388257 -0.03749703 0.055709794 0.07056072 0.022073181 0.02657069 0.07745921 0.056633916 0.0071643717 0.017902488 0.02547272 -0.04270758 0.027401892 0.0009844678 -0.014922418 -0.06418152 0.075898714 -0.010104167 -0.0013024933 -0.1104915
optimistic.a.01 0.0060179937 -0.0072440263 -0.0036551896 -0.002794964 0.0016392741 0.04964833 -0.017715974 0.051708017 -0.05140095 -0.010072273 0.034882262 0.07055728 -0.023008278 0.008159722 -0.008593464 -0.04321485 0.009684416 -0.015317565 0.038700826 0.0042260513 0.016073072 0.07199834 -0.004622912 0.035900865 0.028404195 -0.043077916 -0.044682365 0.014641745 -0.023224177 -0.015924612 -0.0029313029 0.04030338 0.023817975 -0.017577335 0.015219654 -0.016140014 -0.018373922 -0.038771726 -0.0074695204 -0.031254184 -0.059923135 0.058266297 -0.05594221 -0.0765609 -0.017880365 -0.039983474 -0.012568302 0.044072464 -0.013740044 0.0038874804
uneasy.a.01 0.056345195 -0.019426465 -0.06306086 -0.061022185 0.068684965 0.032879405 -0.011315974 0.004987582 -0.026936693 0.009736694 -0.022843933 -0.008868491 -0.0030834982 -0.034795873 -0.018977793 -0.043106988 -0.03691195 -0.003034251 0.010990487 -0.00138222 0.0039793113 0.050294757 -0.008633436 0.03999768 0.07218899 -0.045704555 0.031471025 0.047823526 0.024375066 -0.034098845 -0.013904331 0.05129869 -0.042978875 -0.06026753 -0.08420251 -0.059637293 -0.041326907 -0.04432065 -0.01664935 -0.05427463 0.040405743 0.081089616 -0.033933226 0.08039817 0.052256398 0.028294003 -0.012583588 0.010851139 0.027996615 0.0883809
heavy.a.01 -0.029975174 -0.037067 0.010130011 0.03112712 0.0259885 0.0287356 -0.030475715 0.015202523 0.049216725 -0.04701249 -0.023893617 -0.028132388 -0.05504244 0.019326892 0.0028226296 -0.028530061 0.005911721 -0.020392107 -0.008399231 -0.021655086 -0.09908257 -0.039774146 -0.023572417 -0.012834143 0.0067597157 -0.04511113 -0.034552045 0.016384993 -0.008192467 -0.013265343 -0.022551384 0.035859723 0.0124999555 0.019844769 -0.0103228865 0.025153914 0.063602075 0.02176005 -0.01709068 0.019436542 -0.0028482329 0.02630174 -0.054095443 -0.054898996 0.0043795505 0.043968055 0.012370356 -0.052536145 -0.021889763 -0.03702067
retired.s.01 -0.06236537 0.031342432 -0.015358786 -0.0035806063 -0.0076892544 -0.07330817 0.034427285 0.017958103 0.013563598 -0.047990456 0.017247433 0.028521178 -0.004592725 0.014461206 -0.019401135 -0.024827134 0.0152237015 0.047973778 0.047494765 -0.022066163 -0.010122381 0.011980496 -0.0050645275 -0.001708113 0.0031824885 0.021334771 0.028860325 -0.006772081 0.01162333 -0.06789018 -0.007184514 0.043251652 0.018871987 -0.0053354385 0.045794573 0.022065302 0.007070684 0.0077656605 0.042783417 -0.046959918 -0.052854523 -0.0069295163 0.06422403 0.0060401554 0.026258316 -0.005139189 -0.023154572 -0.023140823 0.042725462 0.03320111
ample.s.03 -0.030968321 -0.012471066 0.047544632 0.06436559 0.044653516 -0.031700213 -0.018525263 -0.022793202 0.01931897 0.031890787 -0.002331674 -0.034978073 0.06270255 0.0026567648 0.06764965 0.04361953 0.013514518 0.004007042 -0.069617815 0.0017006649 -0.023386179 -0.0005223673 -0.021719337 0.04436042 -0.01662904 0.032417975 -0.027192863 0.032783918 0.03535876 0.01829903 0.0007381916 0.020340031 0.03944809 -0.06874188 -0.002941792 -0.023816528 -0.047340225 -0.04351335 0.004716263 -0.030871514 -0.012680136 -0.0021010228 0.031635743 0.009780383 -0.05285604 -0.024683274 0.038449977 0.014279013 -0.02731063 -0.050771955
drawn-out.s.01 0.05203958 0.004473628 -0.00831438 -0.08408771 -0.015375803 0.008963475 0.006833013 0.048721153 0.030923357 -0.023240661 -0.09356988 -0.07156012 -0.028908564 -0.043697227 0.085946515 -0.060935967 -0.021972114 -0.061616898 0.019298391 -0.00033313097 0.042729992 -0.05532804 -0.017446583 -0.085871026 -0.009475786 -0.03998674 0.019033002 0.009352213 0.013254693 0.015640168 0.025573667 0.046974096 -0.05860116 -0.0090431925 -0.06263295 -0.006410454 0.05034841 0.006461512 0.00029617496 0.0048498483 -0.0395723 -0.018736988 -0.028651964 -0.051261894 0.01646997 0.0076964633 0.021213325 0.0050600856 -0.051886916 -0.016671455
cosmetic.s.01 0.029932993 0.036862925 -0.044514015 0.016824473 -0.022802878 0.0131692765 0.051558096 -0.040135294 -0.042648874 0.011474288 0.0029283653 0.026096703 -0.04495884 0.04135452 -0.014351327 -8.2795574e-05 0.01998987 -0.028409474 0.0022880465 -0.0060459077 0.04992545 -0.0046493914 0.00020412622 0.004748396 0.027081504 0.040371746 0.033536185 0.015116061 0.021795666 -0.012017708 -0.031249387 0.016667422 0.0069473595 -0.045318503 0.019691357 -0.004548416 -0.05034896 0.03150701 -0.011224479 -0.032431938 -0.03654532 0.007004668 -0.031083655 -0.048432298 0.010991466 -0.004090022 -0.008231907 -0.00965754 -0.033136286 0.04499118
responsible.a.01 -0.022953669 -0.018878218 0.0012490771 -0.043973584 0.08184354 0.09649182 -0.031953726 0.030974932 -0.0061982963 -0.069000915 0.026502738 0.018643958 0.05265632 -0.037799124 0.012151626 0.015995713 -0.018025532 -0.0017105229 0.014189053 -0.0070493086 2.7871636e-05 0.066695005 -0.061984465 -0.0037127172 -0.023413861 -0.04763909 -0.0059093153 -0.037362162 -0.002340896 0.020691333 0.062506035 0.011325769 0.0054096687 -0.03588695 0.08847178 0.09761453 0.02495831 -0.0029005096 0.06310896 0.01323424 -0.008402362 0.036427982 0.055037744 -0.014360316 0.007966422 0.06852717 -0.05834492 0.05916779 0.0013744357 0.03673735
electronic.a.01 -0.0658846 -0.024748841 -0.011189631 0.035207704 -0.0015162631 0.02757066 -0.031654924 -0.016163483 -0.03860891 0.04229871 0.017243404 0.012429839 0.021687444 0.012439591 0.016151391 -0.04785733 -0.013928493 -0.019774217 0.02946726 -0.010175244 -0.017813342 0.013997932 0.012826219 0.0021463023 0.0103477165 0.0006113453 0.018907307 0.02915282 -0.006703025 -0.060506433 0.0010862757 -0.09143119 0.04335015 0.03609248 0.007936682 -0.009172517 -0.05070738 -0.039838515 -0.0033729428 0.008505084 0.01643519 0.017816136 0.015297623 -0.02892502 -0.052930858 -0.063711494 0.025143776 0.027210977 -0.005435396 -0.014239526
solid.a.03 0.0073863766 0.029638289 0.04566008 0.07082288 0.10504578 0.08370997 0.07171807 -0.050055746 0.015808372 0.0036034957 0.04984297 -0.029625911 -0.03102881 0.072373755 -0.000685654 0.063609675 0.023516772 0.09497021 0.012761135 -0.058932807 0.015748024 -0.018924331 0.008299122 -0.059570964 -0.020407148 -0.04496901 -0.0023387456 0.035249278 0.0617343 -0.03184485 0.0074786474 -0.03179959 -0.08531892 -0.050426695 0.036297947 0.013810792 0.016146235 0.0661549 -0.04336233 0.025763433 0.09077402 0.0072745313 -0.057732534 -0.010346208 0.04677767 -0.012406428 0.057579916 0.050615776 -0.020992113 -0.07850735
quantitative.a.02 -0.042338546 -0.046858177 -0.027709628 0.037092198 0.06199586 0.010477269 -0.0052094446 -0.06238448 0.05330428 -0.085784905 -0.028258622 -0.014615238 0.014125105 -0.025570842 0.02726427 -0.009032357 -0.0321735 0.032194335 -0.026548868 0.002794091 -0.026265489 -0.0975725 0.070221834 -0.02267515 -0.09235007 -0.03834033 0.0008394144 -0.012846192 0.06327878 0.030007143 0.0047681225 -0.038156595 0.01568056 -0.022497194 0.0069642332 0.001077835 0.018799031 0.009270381 0.044793643 -0.005638573 -0.041888203 -0.05054453 0.049254853 0.041864835 -0.07994329 -0.018621797 0.01988393 0.026160086 -0.015234666 0.034357015
valuable.a.01 -0.030955907 0.05387038 -0.04100663 -0.013895778 0.054707553 -0.045953132 -0.018193733 0.002299678 0.07565759 0.06702882 0.005848624 0.0009953071 0.044617884 -0.0662213 -0.0044980557 0.033760153 0.022141138 0.041878708 0.0314614 0.008223591 8.9816014e-05 0.053480987 -0.061255448 -0.07637339 -0.07428479 -0.03235987 -0.06633871 -0.040984206 -0.015136662 -0.0031237346 0.00045756932 0.016859805 -0.043084275 0.05058917 -0.0019163628 0.020027855 -0.01791488 -0.043148816 -0.0020811867 -0.08632765 0.05157938 -0.06424289 -0.014707908 -0.0018563198 -0.046589326 0.0075974 -0.12304747 -0.028351849 0.03330149 -0.06183231
stupid.a.01 0.02709412 -0.06355045 0.01865934 -0.035258614 0.06512529 0.016543157 0.009542939 0.029647438 -0.018655475 0.011149513 -0.0073642125 0.014815221 0.056115553 -0.10546575 -0.075702675 -0.0073821205 -0.026939714 0.0010096697 0.020537622 -0.018445782 -0.03018543 -0.049060937 0.024131307 -0.0050210734 0.032333694 -0.0017731438 -0.016946444 0.004598891 -0.047721375 -0.037050802 -0.055896714 -0.02780182 -0.037698258 -0.031340715 0.05757152 -0.03722596 0.029985625 -0.0142069645 0.07501261 -0.023192808 -0.04047838 -0.016694468 0.065235876 0.0034751236 -0.052371476 0.027013723 -0.013198617 0.016826162 0.012921881 0.031718582
subject.n.06 -0.009657691 0.049369313 -0.038563196 0.031216515 0.04351246 0.0032631196 0.008851962 0.041316397 -0.026461197 0.00254792 0.046923097 -0.0062713143 -0.0017067131 0.017151263 0.03380292 -0.029978542 -0.015535627 0.004081304 -0.07737655 0.0048947837 -0.065489285 0.07017425 -0.06090627 0.0061697797 0.07540997 0.04359701 -0.07473707 -0.06973415 -0.006223406 0.009651558 -0.010307437 0.0066545233 0.015866192 -0.018077848 0.018621549 -0.014861145 0.036363106 0.016952852 0.073400594 0.0009895924 0.040314887 0.036213767 0.05555058 0.034136474 0.006139256 0.013332726 0.049829263 0.062147677 0.006902376 0.026785996
prize.n.01 -0.04300343 0.029115604 0.00586232 -0.04619182 -0.02074779 -0.007432193 -0.006741544 0.016341925 -0.018890439 -0.048196517 0.015291874 0.014002803 -0.030393364 -0.030055702 -0.017722784 -0.061458528 0.006391809 0.03469697 -0.015874155 0.055718902 -0.008573248 0.01728293 -0.07107036 0.04809972 -0.019013584 0.018898796 -0.017266301 -0.08654608 -0.027819809 0.0049571865 0.002460599 0.07590619 -0.00625809 -0.039822027 -0.020331785 0.011439748 -0.0014084097 0.056732748 -0.0065736603 -0.027314305 0.014757007 0.0036690407 0.0069661466 -0.003014212 -0.015756048 -0.03767247 -0.022067234 -0.009791862 -0.058978382 -0.019892205
cup.n.02 0.01587232 -0.0104302075 0.005086407 0.014831495 -0.041264158 -0.07082163 0.011112105 -0.018292282 -0.0030959037 -0.01892672 0.02775326 0.05325395 -0.0007416577 -0.017264241 -0.018757353 -0.004849109 0.0763086 0.015742587 -0.0073619853 -0.013370888 0.03454841 -0.012333151 0.029074214 0.024280522 -0.0034688201 0.03077726 0.05567946 0.0092972955 -0.0032444752 0.02953216 -0.033023566 0.050331417 0.094330974 0.014061405 -0.032350235 -0.019744152 -0.014513576 0.053490445 -0.01922622 0.024076438 0.03634228 -0.013209091 -0.027061684 0.05212946 0.0043751854 -0.054094873 -0.011285911 0.0025764746 0.0077951048 -0.03591582
university.n.01 -0.006886369 -0.033355225 0.034559358 -0.02963863 0.039474092 -0.01913775 0.0053838296 -0.0030174365 -0.030769818 -0.044574723 -0.03266172 0.046207894 0.076994516 -0.03852083 0.008845628 -0.040710025 0.06767086 0.0027868445 0.0089899395 0.07657849 0.053639065 -0.044186413 -0.028720127 -0.01644871 -0.034956414 0.03584893 -0.051602755 -0.026845243 0.020873997 0.01610874 -0.015006826 -0.049144864 -0.038960207 -0.017258476 -0.035329048 0.010400106 0.032701872 -0.034850556 -0.018815227 0.02973602 0.019913165 -0.04003069 -0.00020448036 0.026664684 -0.019195838 0.009847115 0.016684167 -0.0049526864 -0.0003286486 0.011895731
library.n.05 -0.027299246 0.007946118 -0.056044947 -0.033267412 0.060946792 -0.03467025 0.001572743 -0.058291726 0.02516922 -0.03432071 -0.044776037 -0.0262669 -0.04113557 0.032247894 -0.021019403 -0.034185935 -0.04119752 0.01720465 -0.029150974 0.023924647 0.044091497 0.021126738 0.017094688 0.0006171168 -0.04370611 0.018621955 -0.015392867 -0.055457797 -0.024432706 -0.01877558 0.019930217 0.009934622 -0.020464493 -0.045371633 -0.028385188 -0.012671517 -0.02478247 -0.015399724 0.08305044 0.032087617 0.04258838 -0.022610636 0.010861247 -0.040553387 0.007581065 -0.073015094 -0.0257085 0.063391976 -0.059406262 0.06441205
competition.n.03 -0.07952268 0.071420856 -0.041086696 0.06735523 0.02929007 -0.045886826 -0.027074192 -0.01697992 -0.023525625 0.0010773563 0.027210807 0.04476933 -0.024977611 -0.046969485 0.03920812 -0.03134986 0.15015115 0.03228052 0.002297992 -0.0030028804 0.011252135 0.028698437 -0.029168535 -0.041444674 -0.013027339 -0.092738725 -0.03173181 -0.043657426 0.014061899 0.036719944 0.05167882 0.0237397 -0.002358541 -0.07542216 -0.0054148887 -0.03588483 -0.047295988 0.06396133 0.0010922236 -0.033291556 -0.10195229 -0.012867067 -0.019419843 0.043914028 -0.019798052 -0.034838278 -0.048616376 0.066129565 0.0407103 -0.002417574
legal_profession.n.01 -0.010325023 -0.053453244 0.034210663 0.010979615 0.023186686 0.052944414 -0.0013194064 -0.0038428903 0.03739842 -0.033356432 -0.0058022924 0.04928984 0.012846351 -0.0009850871 0.048637856 -0.009275339 0.023552326 0.02585453 0.022890456 -0.009433869 -0.015661273 -0.079381816 -0.015913375 0.047327727 -0.0071874387 0.059059627 0.012925284 -0.03948692 -0.030756837 0.02456509 0.004305604 0.05368105 -0.056653842 -0.012151063 -0.026722707 -0.010494695 -0.014040099 -0.032821704 -0.03756392 0.0132856695 -0.017320454 -0.08221787 0.023213483 0.055593397 -0.0015141449 -0.03869157 0.02477066 -0.032980785 -0.051040195 0.05130832
