1000 50
old.a.01 -0.11691244 0.039908756 -0.0908138 0.05014957 0.0015765693 0.10256606 -0.021236923 -0.097085744 0.08079402 0.023188006 -0.026103392 0.07187635 0.05949977 -0.11292608 -0.05599711 -0.031550914 -0.015515432 -0.008962322 -0.038263626 0.02803771 0.060237672 -0.052942384 -0.11611401 -0.116068475 0.075590186 -0.020204367 -0.06296629 -0.087956324 0.06032797 -0.08687908 0.07859499 0.17374696 -0.041465517 -0.06681811 0.007812813 0.056995276 0.08711508 -0.05098063 0.10618988 0.109227106 -0.048151754 0.14009534 -0.052689962 -0.1250485 0.017764376 0.21612598 0.12761304 -0.03586557 0.070195876 -0.04591728
tidy.a.01 -0.10375856 -0.018314583 -0.09959253 0.03948828 0.06625507 0.12123742 0.14991364 -0.0006019168 0.12182591 -0.064178176 0.07727911 0.0070343083 0.09925417 -0.12398364 -0.11739598 0.05584415 0.12235282 -0.13302346 -0.05024227 0.042364042 0.17480777 0.08684082 -0.034130186 0.08798228 0.07705392 0.20442607 0.10203898 -0.086386345 -0.11246061 -0.16285141 0.13487166 0.034319285 0.14062107 -0.08682205 0.24453397 -0.0071891327 0.19227028 0.028344817 0.20885639 -0.11647943 0.19208342 0.16466404 -0.14036307 0.015705694 -0.064753704 -0.08623417 0.28586063 -0.109096944 0.047109265 -0.019998394
available.a.01 -0.06780734 -0.0072607086 -0.108053446 0.026527543 0.17907181 0.06972346 -0.11128976 -0.13602221 0.1897932 -0.024934905 0.026580604 -0.07970355 -0.10557721 0.025971716 -0.09290835 -0.08349859 -0.032631755 -0.0068939724 -0.17797153 0.15089563 -0.028105745 -0.030871049 0.031114167 0.008492957 0.037113618 0.079072595 0.08764802 -0.053143516 -0.08006148 -0.16392192 0.17368135 0.011052431 0.0037485692 -0.07305587 0.21034408 -0.034004614 -0.0007583641 0.028212948 0.057769332 -0.124549754 -0.014816913 0.09791912 -0.124720514 -0.09526464 -0.11619907 -0.03855865 0.04405741 -0.17558576 0.039877918 -0.11952264
warm.a.01 0.069170706 0.11280876 -0.101303145 -0.053479914 0.05324975 -0.065284684 0.014923694 0.08785178 0.10827079 -0.025055321 0.070847996 0.08996323 0.1406442 0.08149633 0.045919232 5.6603563e-05 -0.060120724 -0.055528447 -0.033923317 -0.072330855 0.16496824 0.12106178 -0.14949483 0.008146703 0.0391606 -0.02861292 0.2534069 -0.06531334 -0.10867699 0.0074669835 0.14054267 0.09164773 0.13671373 -0.12780632 0.11148328 -0.024216222 -0.15313306 -0.05347735 0.09187743 -0.0065068076 -0.022167336 -0.014365303 -0.06414659 0.1124595 0.0007220966 0.047125567 0.0039411406 -0.19007525 0.012469464 0.09995179
strange.a.01 -0.18452637 -0.11651121 -0.1737611 -0.004433478 0.14201295 0.091124535 -0.013673706 -0.027241 0.015643727 0.057974767 0.058941837 -0.28001466 0.09135895 -0.11386636 -0.12835772 0.121507086 0.07765523 -0.11649938 -0.07059044 0.16505598 -0.0329738 0.060056116 0.058883514 -0.053923108 0.03309775 0.03677296 0.041365165 -0.044339992 0.019444607 -0.013943071 -0.08887131 0.03533021 -0.10853045 -0.13898481 0.15673 -0.19763683 -0.011893008 -0.0910368 0.044105545 -0.025387205 0.0971732 0.16035555 0.07843341 0.006347662 -0.07381735 -0.035134148 0.25326678 -0.16944873 0.07674639 0.0632995
odd.a.01 0.05347489 -0.16272892 -0.065172955 0.056145106 0.19176751 0.061562646 0.008965847 -0.1514406 0.15825444 -0.068889804 0.08258765 -0.003053503 0.16011404 -0.16459519 -0.15003516 0.007084004 0.22349247 0.043240372 0.014743488 0.09231464 0.09986477 0.0179607 -0.15862347 0.06616182 0.07929845 0.049414642 0.0035042695 -0.07018193 0.059017815 -0.08922395 0.06291337 0.19871502 0.0064158584 -0.15948607 0.25528 -0.06525424 0.31436267 -0.02105551 0.17662318 0.019873265 0.021209106 0.17200543 -0.21486527 -0.14583991 0.049501438 -0.018521445 0.10609937 -0.15375082 -0.11220652 -0.041642383
impermanent.a.01 0.042710014 -0.07470889 -0.03469116 -0.017451363 -0.017308746 -0.10620877 0.114109196 0.09074018 0.019302301 -0.013585673 -0.025693422 0.093784384 -0.023217916 -0.048831474 -0.05099126 -0.025828414 -0.07231843 -0.019269446 0.04706947 -0.029634668 -0.059805106 -0.10267549 0.11023549 -0.030411208 -0.00867188 -0.022783898 0.033192907 -0.08841648 -0.09715269 0.021083757 -0.0005555429 0.27434465 0.03627129 -0.0020506892 -0.019175146 -0.13218987 -0.077773266 -0.18495874 0.019121315 0.028560596 0.04035124 0.057369042 0.0053663207 0.041865792 -0.06456396 -0.009389344 -0.04914496 0.039665494 -0.14681284 0.007433198
sensitive.a.02 -0.07540892 -0.00860567 -0.03915872 0.048362788 0.08551427 0.056270584 0.07842599 -0.034374066 0.2319258 -0.010810765 0.052624743 -0.09424727 0.030801652 -0.022825444 -0.11080126 0.0058285533 0.12734337 -0.030710319 -0.119780324 0.01966677 -0.052611444 -0.10459575 -0.022956114 0.10135149 0.07649825 0.024025423 0.14562392 -0.0739152 -0.12763527 -0.11006918 0.09542835 0.02997464 -0.03780426 0.012634238 0.15418413 -0.12259389 0.14479236 -0.21471064 0.15592223 -0.13834779 0.0518235 0.10386082 -0.19657269 -0.010233759 0.04296281 -0.0116602015 0.08160475 -0.05460984 0.04485064 -0.09573736
fat.a.01 -0.18714936 -0.021934107 -0.3264062 0.14234583 0.24329662 0.04222485 -0.024227854 -0.05529442 0.15871815 0.00015527969 0.075693294 -0.056952752 0.019886319 0.0073285517 -0.04576743 -0.039346125 0.101905555 -0.1525266 0.09696691 0.05168896 0.0653385 0.10070884 -0.15366532 0.014687895 0.16898397 0.13121149 0.1102791 -0.04746861 -0.054094948 -0.0533296 0.07874953 0.103514805 0.16330558 -0.20500974 0.04555543 -0.10926294 0.021878228 -0.14717957 -0.056912426 -0.10442327 -0.006609295 0.1398551 -0.18275863 0.036493156 -0.08140632 0.013282636 0.0831262 -0.17858912 -0.08776008 0.003357479
outer.a.01 -0.21719822 -0.109079316 -0.06577764 0.035435054 0.19800735 0.053973436 0.117885895 -0.06263771 0.080912724 -0.00433635 0.10018665 -0.04930226 0.08121928 -0.04581479 -0.13958736 -0.15118204 -0.10647483 -0.10979762 -0.0704576 0.0982223 -0.043332573 0.10981775 -0.0046981475 -0.030441599 0.076253526 0.11812388 0.2664785 -0.16098994 -0.089317255 -0.25498152 0.18908307 0.18834765 -0.007915105 -0.248034 0.21400261 -0.10637016 0.0049280967 -0.0709326 0.14991969 -0.11799123 0.024042424 0.16757932 -0.21047162 -0.06936934 -0.040062938 -0.055651397 0.15916085 -0.13659605 0.069294706 0.025225915
plain.a.02 -0.16039576 -0.084260255 -0.18153848 0.17467535 0.035547134 0.12982231 0.011792493 -0.10837471 0.062384304 -0.09361008 0.051681343 -0.0580528 0.037582345 -0.08964365 -0.11119366 0.031618077 0.11301503 -0.078750126 0.054832157 0.07742438 0.19834803 0.060270112 -0.085904494 0.11688787 0.12886278 -0.0083439825 0.058851704 -0.050644316 -0.008450603 -0.05116194 0.071751915 0.14726356 0.02208403 -0.09342469 0.18836594 -0.09050793 0.0142022045 0.02978331 0.096383676 0.030819908 -0.024274053 0.18637584 -0.09699446 -0.044188373 -0.26646504 0.1534318 0.22956231 -0.12850036 -0.07013512 0.03589192
structural.a.02 -0.044773016 -0.13304093 -0.067152895 -0.18271771 0.13762598 0.10202968 0.045624625 -0.114379205 0.039337497 -0.0032785006 0.13995811 0.01444912 -0.020305635 -0.14719099 -0.15076096 0.07511398 0.095921546 0.0943662 0.07511814 0.025620043 -0.04129559 0.024853708 -0.03631334 -0.0013282453 0.08703561 0.0037113705 0.03491 -0.25011164 -0.05389617 -0.25303707 0.073223606 0.038793564 -0.0045146025 -0.22443923 0.20429976 -0.062381573 0.08720759 -0.0861589 0.059381407 -0.0782392 -0.060749795 0.050503615 -0.058216777 -0.03903931 0.10139311 0.06339131 0.0930021 -0.08237403 -0.0901956 -0.11307301
objective.a.01 -0.07726279 0.015932014 -0.03351808 0.09767895 0.08975631 0.06197546 0.03913551 -0.068591215 0.28345177 0.015853677 -0.014375963 -0.085995436 0.15783048 -0.08609325 -0.1225128 -0.06681964 0.06311232 0.0714964 -0.030994052 0.17812452 -0.03537564 -0.20240614 -0.07962229 0.036559384 0.21503131 0.06570843 0.09334814 -0.1355961 -0.1550798 -0.20979078 0.1396732 0.12904146 -0.046311457 -0.189395 0.22296542 -0.025618842 0.10259493 -0.061219033 0.004340084 -0.15062033 0.20514652 0.1234196 -0.114450626 0.0042686374 -0.21785401 0.13294472 0.21814018 -0.07776891 -0.07988432 -0.09627312
ambitious.a.01 -0.10056539 0.0421202 -0.13562703 -0.02628825 0.2722581 0.21918167 -0.08237666 -0.15215832 0.08694449 -0.07919033 0.12433992 0.041365676 0.005468636 0.034207337 -0.116159864 -0.0007819816 0.046909958 -0.015935093 -0.055277977 0.17824598 0.09586194 0.08854991 -0.09707398 -0.007380205 0.0391412 -0.11049522 0.25338608 -0.027735755 0.02726868 -0.13062188 0.060128786 0.17639835 -0.0016712043 -0.12401769 0.21014015 -0.13885085 0.08783765 -0.14440851 0.13666844 -0.07913291 0.09564902 0.049953505 -0.052122463 -0.17903368 -0.044208292 0.03785046 0.27466542 -0.058370154 -0.17517191 0.03676219
mobile.a.02 -0.10490082 -0.09850728 -0.08289034 0.06980306 0.116322875 0.16520266 -0.15374187 0.049085338 0.16457754 -0.0654382 0.16496627 -0.0074197063 -0.09151059 -0.07297823 0.017660353 -0.06287252 0.20483583 -0.16989565 -0.045030303 0.14974238 -0.080870956 0.05085561 -0.11942313 0.025990501 0.18801731 -0.09044328 0.11796817 -0.06738367 -0.09790195 -0.027153542 -0.08300022 -0.015515179 0.10970853 -0.031484075 0.17561963 0.047151413 0.07310692 -0.05216354 0.14821814 -0.1766491 -0.007006555 0.15063637 -0.074510835 -0.0082483245 -0.038459033 0.025886316 0.081352405 -0.10582858 -0.06764818 0.018588193
ethical.a.02 -0.06071581 -0.09719019 0.0955045 0.0016278599 0.028900143 0.056246467 0.15589964 -0.03278547 -0.005293679 -0.08751789 -0.12097293 0.081389226 0.008886642 -0.007689305 -0.131992 -0.09237459 0.02488455 -0.034621365 -0.17582735 0.046846017 -0.07568339 -0.16758044 -0.01688075 0.0918146 0.017096242 -0.025668057 0.12123773 -0.039465882 -0.00040298322 0.013163699 -0.03008732 0.006019013 0.0268468 -0.031600825 -0.010212311 -0.0017058632 0.10984285 -0.07977827 -0.011945272 -0.062000267 0.043880958 0.16203806 -0.122430615 0.088469744 0.04218538 0.00042016088 0.06510694 -0.04185261 0.013784918 -0.07269081
bureaucratic.a.01 -0.024697566 -0.103808664 -0.0025093213 0.015095256 0.062877975 0.16824523 -0.025160808 -0.005872792 0.13802871 0.056131 0.027095733 0.00899206 0.045374088 -0.042680763 -0.07258546 -0.109419495 0.06621319 0.058106918 0.06634082 0.041917432 0.019116301 0.08713561 -0.09449351 0.081894755 0.11007034 -0.061774552 0.1433957 -0.061517294 -0.016984837 -0.0439415 0.08518336 0.1483181 0.026332755 -0.014465875 0.05197979 0.07538886 -0.036229838 -0.03323027 -0.13544711 0.050552316 0.09464005 0.33825096 -0.013905908 0.02350416 0.08034625 -0.06401419 0.026671007 -0.03977274 -0.031338956 0.13183028
grotesque.s.01 -0.12128754 0.10897336 -0.053354196 0.07052763 0.110643655 0.09913401 -0.09922579 0.056022886 0.062578045 -0.10843462 0.12357915 -0.042713303 0.12081128 -0.073791325 -0.22319284 0.107423246 0.0073909652 -0.043956112 -0.08773795 0.050371025 0.08880099 -0.15358058 -0.07630918 -0.020788739 0.23483758 -0.09042703 0.086930916 -0.13147764 0.06980281 -0.15243137 0.0597559 0.07240141 -0.048805524 -0.03155431 0.19707294 0.018325083 0.028647775 -0.1139866 0.04765491 -0.0815375 0.085547 0.15171956 -0.075133845 0.01158692 0.07490639 0.0012688912 0.26202005 -0.0646168 -0.0325013 0.17954624
exotic.s.02 -0.13167788 -0.08387119 -0.040396456 0.059883814 0.17831571 -0.030410238 0.0964453 -0.124561295 0.16795571 -0.25055274 0.16070297 0.015517256 0.30490646 -0.10236376 -0.107558504 -0.08069688 0.046343587 0.036703628 -0.084718965 0.1462918 -0.13319811 -0.08890437 -0.19323581 0.050106574 0.070015244 -0.021600114 0.13306177 -0.082547545 -0.08172626 -0.07258533 0.00072523486 0.09268345 0.010580376 0.02033939 0.2088375 -0.14183849 0.21410494 0.008757596 0.093396485 -0.20363966 -0.070089325 0.100686245 -0.07284563 -0.07580625 -0.05945909 0.07179967 0.16112882 -0.28798866 -0.14399514 0.12217059
high.a.01 -0.14529794 -0.080296196 -0.018751372 0.0656433 0.13570048 0.06653825 -0.021168513 -0.021758623 0.2145469 -0.079315744 0.0072591295 -0.097197376 0.06833943 -0.0609889 -0.012911018 -0.015660467 -0.053102728 -0.013543207 0.0034268543 0.023437724 0.109451555 0.06770687 -0.13323109 0.072604336 0.09059837 0.05108423 -0.020026658 -0.060059898 -0.09442773 -0.05253774 0.18461964 0.22079581 0.020105315 -0.006280368 0.17875162 -0.15624215 0.081884675 -0.13444941 0.0207649 -0.106862545 -0.096967466 0.103808686 -0.21433419 0.018737568 -0.05269084 0.047655143 0.09932402 -0.06983995 -0.13918152 -0.061948143
social.a.02 -0.033130612 -0.011357991 -0.11000161 -0.062206432 -0.005797361 -0.09522969 -0.071833275 0.122199774 -0.018800816 -0.048019536 -0.14669031 0.13015135 -0.09960962 0.07392424 -0.07711001 0.050188515 -0.08541979 0.037570395 -0.05618704 0.10709568 0.03217939 -0.074394256 -0.06958392 -0.0550714 0.04574618 0.070748486 -0.045021527 -0.046189554 0.04674798 -0.011965091 -0.13943319 0.06267427 0.095309615 0.046689916 0.10942921 -0.0991518 -0.104100026 -0.0027616378 -0.07036497 -0.04710133 0.063045114 -0.03195448 -0.03906594 -0.0031722172 0.10215222 0.037017092 0.06791964 -0.05142777 0.15017544 -0.070654355
easy.a.01 -0.16956268 -0.09155899 0.0013884857 -0.029786421 0.19371527 0.07217544 0.14527266 -0.08101007 0.19869927 0.108983025 -0.014043491 0.06229146 -0.054089796 -0.050348278 0.017945234 -0.05209425 -0.05795539 -0.06795938 -0.09338327 0.16917944 0.052843813 -0.016033303 0.078469045 0.14227334 0.07892274 0.02900829 0.15616702 -0.04548303 -0.073451765 -0.07956155 0.0765696 0.17086966 0.034206033 -0.15143867 0.10822892 -0.07241473 0.023871431 -0.02536509 0.067881666 -0.11708834 0.03654771 0.055745896 -0.054179996 -0.05736811 -0.07169991 -0.021647597 0.09616174 -0.101159774 -0.058626164 -0.12923945
poor.a.03 -0.13220766 0.0160539 -0.08104076 0.082946494 0.15959315 0.10422551 0.07536814 -0.0010327809 0.27464813 -0.036367252 -0.13604438 0.11682179 0.06982863 0.17618056 -0.14539908 -0.13897009 0.032357737 -0.062737934 0.05321666 0.11604 -0.08175104 -0.07129449 -0.117578715 0.16556479 0.10531819 0.07197455 0.095947735 0.08083072 0.0054814084 -0.09979392 0.21376376 0.17973663 0.15820266 -0.13577074 0.15809147 -0.027435802 0.08808917 -0.05544545 0.17988417 -0.19563484 0.049984258 0.20878199 0.017521141 -0.028678702 0.08760916 -0.08325587 0.26828715 -0.16210078 0.029768532 -0.045004427
inactive.s.10 -0.20292161 -0.22443269 -0.14042248 -0.0026276524 -0.018575259 0.37539202 -0.13037115 -0.11095442 0.0014921232 -0.095468305 -0.17447536 0.0021304088 -0.008626618 -0.15630402 -0.03604767 -0.079022296 -0.012720673 -0.11286765 -0.07964579 0.019765655 -0.00025629916 0.09483237 -0.043988045 0.12039953 -0.0052924887 -0.11100792 0.13614596 -0.025010487 -0.06966841 -0.13720928 0.020285934 0.09724151 -0.1134374 -0.19539848 0.18935728 -0.03289902 0.09605995 -0.07149121 0.113568336 0.12477479 0.0060913707 0.15101832 -0.11832759 -0.08013406 0.0062640584 0.024508474 0.18281703 -0.0581355 -0.031847514 -0.0041295015
abundant.a.01 -0.17072415 -0.07776705 -0.04639082 0.05642132 0.030747782 -0.05524525 0.16298485 0.020373283 0.14487463 0.13360102 0.1384224 -0.031512506 0.08199121 -0.048666917 -0.05028993 -0.027720885 0.11048191 -0.033088256 -0.033730526 0.16044296 0.008944706 -0.097676404 0.010691663 0.035106152 0.17455956 -0.058408823 0.14200452 -0.09635443 -0.05000353 -0.16808571 0.018344833 0.0025735863 -0.08093464 -0.036038768 0.14716412 0.013388393 -0.06637944 0.10373 0.0040883548 -0.023634186 -0.073185235 -0.070053026 -0.09499134 -0.056717534 -0.04859069 0.04017274 0.09097516 -0.21713163 0.06760181 -0.040042233
green.a.03 -0.05143844 -0.04827002 -0.13099973 -0.031483196 0.25963277 0.104706414 -0.010751714 -0.13784441 0.23124336 -0.024175154 0.18272631 -0.05394185 0.10722859 -0.00086507853 -0.18237168 -0.15733972 0.11271063 0.0070257946 -0.16418803 0.07621113 0.16416195 -0.12326972 -0.07836059 0.06237899 0.043268014 -0.09407461 0.18574509 -0.17964336 -0.07727372 -0.07945502 0.10272915 0.15981728 -0.018490179 -0.062125612 0.06704289 -0.03359878 0.070351765 -0.054495137 0.14699404 -0.054557778 0.059055995 0.09455598 -0.057674438 -0.16886137 -0.0439887 0.0821132 0.21643776 -0.16242637 0.0396571 0.08753956
urban.a.01 -0.18780793 0.014209443 -0.032260083 -0.060571898 -0.09808109 0.021958448 0.11578074 0.10385368 0.017293258 0.07090014 -0.021434644 -0.16788645 -0.11811538 -0.068244696 -0.109687924 0.019678768 0.11170915 -0.07022928 -0.012763787 0.1575295 -0.025487233 0.09640651 -0.095412925 0.10226215 0.0009886976 0.02208171 0.055295426 -0.034970954 -0.08366035 -0.14812362 -0.0077505615 0.03239509 0.030806039 -0.025323702 0.012729695 0.1275927 -0.04865043 -0.106809236 0.011021261 0.065258496 -0.048861112 -0.048683297 -0.006858666 -0.08844531 -0.027207725 -0.0764908 0.04880903 0.063157015 -0.02421604 -0.054634582
exact.a.01 -0.040239733 -0.053418763 -0.021048578 -0.091942176 -0.0002588879 -0.0054376414 0.12534125 0.076395445 0.115815245 0.0030040503 -0.052013062 0.042737436 -0.091297396 -0.07440781 -0.021719528 -0.032302283 0.10710402 0.026799299 -0.01152297 0.03697087 0.075709276 -0.048768744 0.046266876 0.09287582 0.012980225 -0.06462258 -0.08354968 -0.02944481 0.060142815 0.050608806 0.11134686 -0.068290226 0.042978927 0.051893074 0.034325182 -0.07246545 0.09441932 0.02533465 -0.020723188 -0.067247674 -0.017500022 0.049204484 -0.018486328 -0.013329159 -0.04568685 0.09371227 -0.026504153 -0.0510359 -0.008377245 -0.098688975
thirsty.a.02 -0.09489792 -0.03438223 -0.17698339 -0.06517807 0.094923854 0.1451583 -0.120053224 -0.062602185 0.034502767 0.022592645 0.07368772 -0.18903421 0.07886621 -0.0041864295 -0.059976127 -0.05999489 -0.013163353 -0.047598843 0.0014682133 0.09099424 0.044289228 -0.02536567 0.049384575 0.09003029 0.07996063 -0.0478635 0.12444139 -0.021651478 -0.04859712 -0.05942655 0.11505884 0.16720335 0.07345202 0.011844133 0.17875391 -0.15108807 0.07719676 -0.0110442275 0.019631354 -0.05404758 0.0719119 0.028302131 -0.16197826 -0.0435187 0.028632313 0.03409515 0.12770082 -0.06268275 -0.02777216 -0.050061233
operational.a.01 0.044812523 0.045552447 -0.07083797 0.0316059 0.11951642 -0.030873561 0.10345094 0.031420417 -0.010160338 -0.1288762 0.034046073 0.0023381282 0.055691447 0.009212883 -0.14750223 -0.13756324 0.1416663 -0.0036427532 0.040679116 0.05818442 0.010484104 -0.048264734 -0.044378597 0.03958324 0.028974771 0.086653344 0.011017356 -0.12213576 0.082793854 -0.05936364 0.10386247 0.045400713 0.016873265 -0.039929077 0.05730134 -0.16207264 -0.053186644 0.0758597 0.007222986 0.021906715 0.024332117 0.047227092 0.031840593 -0.124399744 0.009149674 -0.061053675 0.14700826 0.004136091 -0.038939603 0.0053914348
vocational.a.01 -0.23414508 -0.044187512 -0.0106521305 0.15320829 0.1089595 0.13713716 0.10608462 -0.065167286 0.17220642 0.028383652 0.06439773 0.06905025 0.030531542 0.01854131 -0.08050393 0.08098277 0.081364624 -0.14726396 -0.12781146 0.034291055 -0.0737266 -0.09091804 -0.039514087 0.11853363 0.0895001 0.06373825 0.075647265 -0.026957938 -0.059067726 -0.14142047 0.07144632 0.21026875 0.05284297 -0.00073045917 0.057641227 -0.02260148 0.10728496 -0.043742765 0.17712595 -0.049900237 -0.047395963 0.10370602 -0.028260881 -0.04157074 -0.06364371 0.04454596 0.18417093 0.059202857 0.06643689 0.07280992
potential.a.01 0.01632018 -0.06127777 -0.037697848 -0.011479839 0.116294675 0.014743111 0.024993254 -0.0959424 0.104623474 -0.07316935 0.16086148 -0.10809519 0.09478545 -0.12656914 -0.06610043 -0.045774776 0.14660093 -0.11846617 0.071673445 0.100942545 0.06277346 -0.034681905 0.01360681 0.03929202 0.09937748 0.03630081 0.04683471 -0.06082499 -0.15076989 -0.10497889 0.0532616 0.053659458 -0.006450658 0.017809898 0.07408347 -0.03555736 0.12078073 -0.029451765 -0.02453835 0.009004275 0.08083213 0.055729795 0.06296325 -0.1705833 0.1410566 -0.048353687 0.03560984 -0.12835509 -0.032936994 0.18628587
personal.a.01 -0.13383074 -0.0018774151 0.028311891 -0.117794305 -0.033936016 -0.07961214 0.20031312 0.010885378 0.13339289 -0.061094683 -0.12694494 -0.10200166 0.0479991 -0.019828068 -0.08217593 -0.06815268 0.03656655 -0.25734872 0.10127161 0.056717698 -0.07058231 0.026786854 0.03912092 0.15692481 0.053556174 -0.09437529 0.09313007 -0.19283308 0.0020171076 -0.26761183 0.048023175 0.020478548 -0.053844146 0.07623105 0.05597163 -0.13518792 -0.051299065 0.017758483 0.0011751077 -0.112159155 -0.060182553 -0.009203527 0.06862177 0.019260868 -0.011195629 -0.014534029 0.07107173 -0.1197604 -0.14247173 0.049279008
covetous.s.01 -0.17475115 -0.077206254 -0.033166986 -0.007321178 0.059001125 0.13336132 0.015014362 -0.12865917 0.14263663 -0.087076984 0.10682574 0.027045246 -0.071684524 0.019125877 -0.11216171 -0.055615984 -0.033880003 -0.1339802 0.026594592 0.09980702 -0.037561316 -0.07969146 -0.03545441 0.07048196 0.012135353 -0.01750736 0.1898854 -0.018895805 -0.25733727 -0.13161899 0.18924709 0.07130496 0.15128152 -0.082016654 0.12315179 0.08741064 0.05705406 -0.09947132 0.06851449 -0.010771563 0.021278212 0.050314337 -0.06683567 -0.057025578 -0.1732446 -0.023365237 0.0074125505 -0.23237908 0.04864635 -0.1013157
rich.a.01 -0.005289061 0.043035287 -0.014348531 0.051388346 0.0019047833 0.010294378 -0.06900038 -0.030329362 0.14535126 -0.08048079 0.026653726 -0.015353519 -0.045384943 -0.0235241 0.029553099 -0.08537337 0.0744906 0.022932606 0.0893526 -0.03565801 0.019276734 -0.056776714 -0.0902759 -0.09030604 0.08598963 0.06440999 -0.04597184 0.1297422 -0.017598774 -0.012336103 0.001358163 -0.009943727 0.033397153 -0.007211907 0.08230159 0.005642237 -0.05957454 0.08256213 0.0049539055 -0.026922092 -0.007395157 0.06430585 0.032254707 -0.09576849 0.02986304 0.07961048 0.03342392 -0.018443696 -0.010423285 0.035218976
first.a.01 -0.066089734 -0.0696813 0.06760386 0.11923873 0.08516115 0.06785017 -0.0061997925 -0.03656571 -0.015311093 -0.0737697 0.048959956 0.035363313 0.025139175 -0.10975826 -0.12154023 0.07300175 0.108298734 -0.10261714 0.1462052 0.07421608 -0.0080730105 -0.17640977 -0.10176926 0.12832361 0.12121347 0.04518167 0.1703956 -0.013435992 -0.0327556 -0.12260377 -0.05723364 0.07132559 -0.058071986 -0.06227344 0.19392358 -0.03844996 0.018375568 -0.008763924 -0.029915221 -0.034101866 -0.012398058 0.066201404 -0.17097247 -0.12304903 -0.0143086985 0.07876851 0.116272226 0.042154003 0.006967865 -0.053423565
negative.a.04 0.019018322 -0.16020301 -0.055102654 0.043777753 0.17457172 0.06663297 -0.13345475 -0.15109977 0.08246301 0.06842176 -0.049100723 -0.006671833 -0.021107983 -0.050316516 -0.086789764 -0.11740841 0.17710583 -0.016545147 -0.13231751 0.18036875 -0.014673106 -0.031538457 0.048178975 -0.013238089 -0.039814096 0.06910722 0.09330746 0.026601963 -0.026168104 -0.16440439 0.02147581 0.084385306 -0.1378274 -0.096647784 0.10178623 -0.008653833 0.14597559 0.018169615 0.0030906098 0.0055543613 0.08529392 0.099446565 -0.08583041 -0.06400152 -0.009118392 0.027801337 0.1129735 -0.020641757 -0.0027241353 0.08494143
daily.s.01 -0.1235473 -0.0042590136 -0.15054242 0.08029102 0.0033326186 -0.009657961 0.028340857 -0.062329743 0.013583686 0.020281075 0.15587252 -0.053591665 0.03726925 0.08936835 0.0015108528 0.012428631 0.10704043 -0.056806702 -0.041783072 0.06246948 0.055250034 0.041318014 -0.10436416 0.011213994 0.15643816 0.076331444 0.04367919 -0.068227395 0.004601045 -0.05677649 0.090336 0.1033301 0.044159602 -0.18091041 0.1266088 -0.07034287 0.18828279 -0.044945505 0.0584983 -0.050539225 -0.10467431 0.053393252 -0.15387392 -0.07125344 -0.08502119 0.054692373 0.091535136 -0.11313108 -0.1649875 0.0016761592
adequate.a.01 -0.20504402 0.07874222 -0.0041122246 -0.014050225 0.002516675 0.06193295 -0.0317674 0.013090199 0.1933849 0.08777009 0.047759824 -0.02591538 0.017765215 0.115650065 -0.057289414 -0.05586506 0.041914634 -0.025134627 0.06532988 -0.017013684 0.044134356 -0.045663107 -0.08797517 0.015100738 0.118218 -0.026400972 0.029678572 0.07567557 -0.06409736 0.019634206 0.038767546 -0.062464606 0.0759151 0.021105649 0.0650337 0.123163365 0.06045381 -0.06897621 0.071070485 -0.1142315 -0.14453083 -0.039952382 -0.09249556 0.009531242 -0.014426485 -0.07624694 0.10556376 -0.073771924 -0.05143257 -0.0859794
sweet.a.01 -0.12406638 -0.23002733 -0.19408593 0.101039164 0.077996805 0.1886424 -0.035594724 -0.0032720065 0.059091505 0.18413602 0.0819035 -0.033008825 0.1882401 -0.13853738 -0.012341274 0.02983332 -0.04626707 0.053984817 -0.044082448 0.067501575 -0.01819203 -0.027201837 -0.14623237 0.029162655 0.065653116 0.074943885 0.09481375 -0.03144957 -0.20267892 -0.04833206 0.09708535 0.16925617 -0.16228718 -0.113364995 0.22532219 -0.1122728 0.099699214 -0.12791128 0.0019981237 -0.13991342 -0.022975938 0.04443624 -0.1501387 -0.17875604 -0.003089351 0.019803496 0.12151484 -0.17501651 0.039371848 -0.06972953
wet.a.01 -0.14095491 0.036974635 -0.035960868 0.07684089 0.166132 0.08244596 -0.052937564 -0.041311134 0.05894602 -0.040745817 0.13180308 -0.042851992 0.08768291 -0.052603956 -0.037475236 0.066820115 0.08589046 0.053732473 0.06842652 0.10242684 -0.077668525 -0.06015684 -0.15303607 0.045820307 0.14464888 0.02147783 0.21101086 -0.041046534 -0.021193689 -0.121462554 0.101094306 0.041029856 -0.0684811 -0.099405296 0.26843855 -0.10917456 -0.11527325 -0.10007585 -0.12359095 -0.013159958 0.0097059775 0.03951138 -0.023039958 -0.08047434 0.06298903 0.024352167 0.10022135 -0.16493845 -0.11996004 0.09093068
discreet.a.01 -0.036165863 0.0032801086 0.10205067 -0.025894493 0.2145234 0.026626728 -0.0004110717 -0.038946763 0.13795845 0.0074964054 0.02936916 0.09161297 -0.08608876 -0.09109913 -0.048723824 0.035823006 0.12676086 0.06769526 -0.08945416 0.107771575 0.02350959 -0.12789832 -0.087904625 0.06549362 0.10603298 0.19748801 0.07142593 0.13137515 0.010743036 -0.0956026 -0.054319404 -0.03742064 -0.014515483 0.084149644 0.06898568 -0.08390931 0.0067031137 -0.011821901 0.040278114 -0.076717444 -0.056765806 0.05034677 -0.10868136 -0.16550352 0.018579911 0.1506443 0.21614131 0.02511074 0.061480615 -0.0072808564
qualified.a.01 -0.12209542 0.05295449 -0.14939447 0.18050534 0.02762132 0.11391525 -0.05939716 -0.05699795 0.07324443 -0.0495398 -0.033105846 -0.047700893 0.04731328 -0.07631307 -0.17652975 -0.08054602 -0.05987924 -0.104637526 -0.024723263 0.15900141 0.17099161 -0.054838832 -0.031123158 0.1716615 0.12691574 0.050072275 0.17364043 -0.098476365 -0.03395239 -0.043007907 -0.0031276448 0.0918061 -0.25960216 -0.052491345 -0.019561198 -0.013699974 -0.03265719 -0.124780506 0.030746944 -0.11879912 0.011596741 0.122202694 -0.12455504 -0.01609007 0.022061639 -0.09030512 0.14203252 -0.062738255 -0.08237396 0.12228448
unfortunate.a.01 -0.041498996 -0.04668594 0.07413926 0.022013545 0.08693684 0.101337194 0.0656391 0.06245389 0.10603901 0.07229391 -0.09129446 -0.05554936 -0.029526314 -0.0154362265 0.026901742 0.05779234 0.0161256 -0.14008588 -0.037002105 0.029133381 0.03364881 0.12738581 0.023891704 0.0024786827 0.13376111 -0.0031514994 -0.00053488434 0.033508446 0.00012415355 0.0063169217 -0.007279451 0.029639425 -0.067404725 0.061930306 0.02390409 0.008174476 0.10588511 -0.12688272 -0.10885906 -0.050600547 0.12409594 -0.055354733 0.07511842 -0.008507641 0.035674334 -0.027064305 0.1186851 -0.063841365 0.10685331 0.120723434
civic.a.01 -0.11275098 -0.002563431 -0.025426628 -0.026188482 0.085853554 0.05946576 0.046352856 0.078252465 0.14082327 -0.037026815 -0.057277676 0.13183157 -0.08610239 -0.00073631323 -0.106827974 0.09049953 0.043735065 0.09121663 0.078558646 0.015386104 -0.00799911 0.091659226 0.08366003 -0.06248266 -0.007249498 -0.1682231 -0.028335165 0.01723694 -0.03768 -0.012646289 -0.05223519 -0.02887172 0.048077375 -0.11160919 -0.04358076 0.05433933 0.039504036 -0.18260802 -0.039245956 0.07222609 0.058999702 0.004249678 -0.14391425 -0.011877448 -0.078768395 -0.08391278 0.013340338 -0.02239762 -0.004190984 0.017454257
alike.a.01 -0.03157267 -0.05591424 0.077059306 0.066580825 -0.09049455 0.034258444 -0.14593461 -0.08764115 0.11071203 -0.011104735 0.089538455 -0.0708164 -0.0592026 -0.063123964 -0.08519323 0.0048914966 0.11305281 0.06315872 -0.08536364 0.028255517 0.008437304 -0.036916424 0.07540292 -0.03564358 0.012503925 -0.1302139 -0.02027974 0.12862909 0.1676104 -0.1433229 -0.0019001836 -0.035769384 -0.09715467 0.0324239 0.12589571 -0.015596931 0.11922455 -0.09435209 0.06105312 0.10968296 -0.17519213 0.06884351 -0.041775484 0.04992779 0.075086586 -0.011262405 0.052793603 0.00044740818 -0.047986396 -0.01186074
effective.a.01 0.051713854 0.06347062 0.033695325 -0.06440153 0.15829495 0.11787798 -0.07169244 -0.09301873 0.13640633 -0.09580201 -0.029463222 0.031615626 0.13197863 -0.10384757 0.044588823 0.006591613 0.15592681 0.006151625 0.0012429855 0.14707759 0.18889278 0.122774646 0.058251847 0.07760429 0.12646331 -0.09944813 0.047619376 -0.11954616 -0.027853658 -0.14669868 0.102493815 0.08448141 -0.10523457 -0.092759855 0.18426538 -0.06448214 0.05142488 0.010882366 -0.07153038 -0.09838109 -0.08601121 -0.08261775 -0.044652548 -0.091690496 0.014578534 0.07277129 0.024607897 0.06846262 0.04076102 0.042335413
autochthonal.s.01 0.073038176 -0.18430053 0.043019705 0.023294704 0.037101462 0.0970277 0.11634616 0.010148799 0.17412105 -0.027987028 0.023809802 -0.13707489 -0.07191113 -0.018100886 -0.09052169 0.04663988 0.17026265 -0.19201529 -0.028854845 0.018612636 0.13777226 -0.0732091 -0.0241006 0.029048236 0.09607876 0.16403307 -0.06382264 -0.0018105616 0.0060129142 -0.14125545 0.17919046 0.12499366 -0.073965214 -0.046681844 0.07230392 -0.094154455 0.06592998 0.0828943 0.009160969 -0.0026098357 0.06327422 0.1795014 -0.08384187 -0.27819836 0.07808089 0.10479175 -0.06190865 -0.12025621 -0.034335498 0.06983585
laic.s.01 -0.15570693 -0.02905592 -0.035339825 -0.052565783 0.16046327 0.025970902 -0.012007754 -0.0444082 0.07090789 0.02056426 -0.015093783 0.09824268 0.04311859 -0.12494537 -0.10614477 -0.16518158 0.054144334 -0.067574 0.02048579 0.14974265 0.06478595 -0.067637235 -0.0110983895 0.0038975268 0.040257975 0.050982732 0.19867599 -0.06318016 -0.10783771 -0.14070964 -0.008505539 -0.063042924 0.0029741796 -0.1597326 0.18812445 -0.08108811 -0.092579976 -0.13498117 0.0069590947 -0.008461169 0.03638106 0.053490687 0.045814496 0.06676381 -0.07328275 0.026337698 0.1693561 -0.10948521 0.06909316 0.050097175
firm.s.03 -0.0810566 0.088464074 -0.09641073 -0.058198676 0.033341274 0.11774934 0.015847841 -0.07603057 0.21092571 -0.057727754 0.006138896 0.027611306 -0.003863565 -0.028780939 -0.040233158 -0.03859173 0.10517955 0.02944832 0.066075414 0.1955987 0.01533384 0.013818928 -0.059565697 0.053192973 0.20395875 -0.04593154 0.13660583 -0.019389497 -0.013409594 -0.07535617 -0.040007576 -0.09679351 -0.101209395 -0.03876344 0.029440826 -0.13502258 0.060027145 0.07540476 0.03783314 -0.08648279 0.0558695 0.10166726 0.055139992 0.047127012 -0.17564616 0.010748075 0.036369186 -0.062675826 -0.016512254 0.054027844
weak.a.01 -0.08802362 0.0676309 -0.06593352 0.0129638845 0.0617579 0.061789308 -0.035952628 0.079639316 0.007815656 -0.0131032085 0.027109701 0.10581695 0.02976904 0.12035227 0.01077266 0.0470762 -0.05541246 0.13638976 -0.02812322 0.029287282 -0.09064746 -0.018523453 0.14084147 -0.0008754635 0.09479146 0.019124493 -0.037154768 -0.029102406 0.029508516 -0.0010018348 0.015973032 -0.15434495 -0.0607039 -0.056323655 -0.06856877 -0.064995356 -0.022509415 0.038239878 0.02755877 -0.041830886 0.016274769 -0.12872963 0.10884024 0.044550624 0.0057670753 -0.03373933 -0.01525192 -0.10625365 0.035025474 0.059788994
outdoor.a.01 -0.15534434 -0.14994672 -0.21863493 -0.024965687 0.20276512 0.12875372 0.041887827 -0.07714709 0.15484223 -0.08467337 0.091833256 -0.10060684 0.088886954 -0.12218512 -0.054540757 -0.12392656 0.14579499 0.00611659 0.074028425 0.03006116 -0.0026359311 -0.012345294 -0.1415684 0.16202278 0.09601464 0.018119387 0.18666667 0.0035692279 -0.01397358 -0.19976598 0.14820665 0.0908512 -0.025665687 -0.10717366 0.1336719 0.03840957 -0.134258 -0.059262943 0.15522814 -0.009490622 0.09374631 0.11421902 -0.12060746 -0.10677921 -0.10305631 -0.031095164 0.21911208 -0.23979726 -0.011238674 0.12513745
sad.a.01 -0.06362285 -0.06055274 -0.09817078 0.09080901 0.15447082 0.10705659 -0.013410004 0.081860766 0.14240657 0.07353981 0.18419707 -0.020485783 0.10345663 0.02701164 -0.060033616 0.043592285 -0.007629868 -0.0597858 -0.07407386 0.07855589 0.03540617 0.009931663 -0.044697125 0.07093656 0.094024934 0.05522254 0.06988918 0.05866701 -0.028296629 -0.075676866 0.16546762 0.09133413 0.113745935 -0.07527343 0.12485173 0.05544762 -0.012832405 -0.019121623 0.045927085 -0.10469123 0.1498158 0.08817958 -0.17554374 -0.0132966945 -0.03497418 0.0016149484 0.077993646 -0.10403447 -0.06007389 -0.09241316
comprehensive.a.01 -0.10143148 -0.082409754 -0.16484919 0.04968834 0.10136189 0.09055774 0.016625986 -0.09557356 0.10693768 0.002777477 0.0016437394 0.011042987 -0.053267103 -0.11079171 -0.015076816 -0.03448515 -0.0021919827 -0.036164086 0.04729627 0.09887176 0.046404853 -0.087169714 -0.07873503 0.07856823 0.11886163 0.02156603 -0.0034659954 -0.18926282 -0.1798929 -0.07723786 0.021436734 0.11011177 -0.05879636 -0.19470464 0.034078185 -0.08826205 0.13068756 -0.022821901 0.17201103 0.019023225 -0.07627848 0.033420593 -0.046287566 -0.07557627 0.012143431 -0.05414101 -0.0029672838 -0.20922273 -0.07706471 0.13961886
impressive.a.01 0.05324352 -0.1046842 -0.23515467 0.03814554 0.10739843 0.08301351 -0.023006616 -0.14223124 -0.030910034 0.15489061 -0.049218867 0.0050747017 -0.022412347 -0.025351359 -0.065952964 -0.02929579 0.020348812 0.069367945 -0.007402028 0.1599426 0.011826169 -0.030966124 -0.11085018 0.06598714 0.03543498 -0.11983086 -0.053122338 0.060649432 0.10916277 -0.13576269 -0.17096685 0.10798848 -0.0085168565 0.039081298 0.03867179 -0.13667867 0.10639963 -0.070825264 -0.12345663 0.019531041 -0.057771668 0.044556558 0.030918283 -0.022074977 -0.012693635 -0.0023405612 0.0448063 -0.12948325 -0.007821356 0.14251825
constitutional.a.02 -0.09673252 -0.047611378 -0.08078399 -0.0059676184 0.12092204 0.028601194 0.06097827 -0.09534094 0.22333205 0.07877076 0.02310337 -0.034513578 0.060331628 -0.020050796 -0.096425734 -0.16351849 -0.010460175 -0.079175524 0.053923614 0.10343508 0.023529198 -0.021822594 -0.068995215 -0.07434132 0.14342527 -0.016888684 0.14848723 -0.12008774 0.05297626 -0.15835755 0.14489488 0.15490802 -0.0074192327 0.016042007 0.2526503 0.04442681 0.029552216 0.057978675 -0.08065222 -0.01602474 -0.017473187 0.06544037 -0.18813552 -0.16939694 -0.019216526 0.118308544 0.28065777 -0.037686385 0.13684769 -0.04957801
violent.a.01 -0.091728896 0.0046966644 0.075386934 -0.06563824 -0.030438794 -0.005679457 0.11225168 0.04050679 0.11379959 -0.021140156 -0.020446045 -0.049349483 0.051303152 -0.054517016 0.06559292 -0.032149523 -0.06567878 0.035588283 0.18389392 0.1448172 0.05640091 -0.18239276 0.046101853 0.1200627 -0.05291197 0.0073421896 0.104566 -0.01880007 -0.0773183 -0.047756333 -0.066297464 -0.09098926 0.034136474 0.035572298 -0.022924196 0.010209143 0.12432714 -0.027340023 -0.048091434 0.020875357 0.12599407 0.09221073 0.061721265 -0.09121257 0.04073678 -0.057407923 0.031738818 -0.089459054 0.018627442 0.0064374977
marine.a.01 0.011632883 -0.034106158 -0.10558895 0.0076472214 0.24259998 0.086088955 -0.000829729 -0.17874628 0.13996544 -0.004001277 0.051121 0.061507236 0.190273 -0.08737093 -0.07247951 -0.15554109 0.13974738 -0.16700283 0.029199585 0.18827343 0.13153408 -0.043277353 -0.16956814 0.08475989 0.06105339 0.011031614 0.17662388 -0.15680256 -0.07739863 -0.19078852 0.043325618 0.122090146 0.099140376 -0.25324616 0.1641276 -0.19819622 -0.025151635 -0.09297901 0.22611932 -0.15424094 0.05410964 0.15923245 -0.20143214 0.015853329 0.07815762 0.038958885 0.2137308 -0.122053035 -0.010433453 0.04002906
junior.a.01 -0.1436063 -0.16489688 -0.16050905 0.0022785687 0.12807488 0.2609148 -0.010495222 -0.1537406 0.109488316 0.059635945 0.04002771 -0.061200146 0.0779684 0.017580407 -0.16370654 0.028638285 0.059694715 -0.06723847 -0.035118833 0.26235473 -0.0029670252 0.0018360451 -0.087709256 0.17060572 0.11710241 0.054568697 0.24034998 -0.094277516 -0.21308398 -0.19068053 0.041102905 0.1886378 0.01491742 -0.15135987 0.09073277 -0.06146744 -0.016091604 -0.107525624 0.16338761 -0.14274475 0.0036258665 0.06277537 -0.018327763 -0.14735699 -0.032921143 -0.029034693 0.14797214 -0.097424984 -0.056232266 0.0084119085
loyal.a.01 -0.12741195 -0.042325534 -0.08868887 0.10130279 0.12528391 0.15020005 0.08425139 -0.0878029 0.21307835 -0.05315476 0.14711672 -0.12965095 -0.045304224 0.0850098 -0.023948578 -0.19307198 -0.0729438 -0.08869132 -0.03284371 0.1175839 0.101198606 -0.07746454 -0.0021562316 0.16093826 0.14212054 -0.0057861456 0.11388011 -0.08728305 0.0032439404 -0.038301617 -0.011858611 0.031972308 -0.052291963 -0.09445786 0.14914133 -0.014015418 -0.05113492 0.069033325 0.06274935 0.0043706014 0.08117409 0.13287751 -0.038046256 -0.028679442 -0.066068254 0.027189877 0.17427103 -0.09834038 -0.14052546 0.10919241
ashamed.a.01 -0.231501 -0.1920016 -0.2184226 0.0010757915 0.18134415 0.06414653 -0.047521077 -0.113766626 0.11285703 0.00911877 -0.03450672 0.024571847 0.18283838 -0.09306731 -0.015838014 -0.03885586 0.09920013 -0.13436319 0.07189743 0.18438761 -0.0037614005 -0.08967226 -0.025262527 0.21021831 0.10755063 0.0570834 0.05485035 -0.10390982 -0.14346197 -0.15369928 -0.009835894 0.1964816 -0.16179545 -0.14879698 0.16384809 -0.14386633 0.24805745 0.010685974 0.19835515 -0.124995895 -0.028012713 0.05344926 -0.16302896 0.017515212 -0.19841522 0.11163829 0.24415281 -0.118821815 0.0219843 0.06875756
cooperative.a.02 -0.2783711 -0.013670509 -0.15579848 0.05915531 0.0010909005 0.013326256 0.120254986 -0.008091216 0.19461161 0.05344174 0.14901654 -0.030389505 0.14899834 0.003329104 -0.057442777 0.0014792539 0.012076499 -0.08746735 0.116953105 0.15535896 0.13329938 0.009734979 -0.009965601 0.022110878 0.20086639 -0.04881283 0.11303437 -0.09916077 -0.0419414 -0.053470906 0.09924902 0.046818975 0.011210322 -0.11397088 0.12408294 -0.016977182 -0.027426999 -0.02754994 -0.008328674 0.022158185 -0.10057477 -0.0077628545 -0.13878037 -0.12421214 -0.18157491 -0.004278907 0.13329169 -0.053218167 0.057366896 0.049254324
harmful.a.01 -0.061250977 0.037415333 -0.0027584757 -0.0023996437 0.0311124 -0.012920025 -0.020744001 0.0477581 -0.060943287 -0.021129526 -0.017949702 0.0019475971 0.0068229497 -0.03542766 0.10955302 0.03749804 -0.07138299 -0.012124234 -0.032907 0.070662715 0.20016825 0.019130146 0.08008403 -0.070907526 -0.026083676 0.101237245 -0.005538789 -0.0138254035 0.06062121 0.013654718 -0.047615785 -0.009021304 0.051538832 -0.058641322 -0.060666308 -0.07577658 0.0021882383 -0.06320349 0.0062072 -0.015245609 0.04672213 0.06443866 -0.08873499 -0.016973022 -0.01968886 -0.0096807 -0.044621494 0.02482736 -0.06274279 -0.13431011
political.a.01 -0.16726972 -0.054003518 -0.10113697 0.06657176 0.006499855 0.051080626 0.031788435 0.0584734 0.011069663 -0.07194895 0.029440837 -0.044363927 0.019083485 -0.074688405 0.017954225 0.018176092 -0.0016635252 -0.19057254 0.06415469 0.08515834 0.046896365 -0.046327293 0.049130056 0.069396704 0.17798631 0.10595744 0.005089791 -0.14748865 -0.012853168 0.07498663 -0.047034487 0.018235104 0.05045746 -0.04022675 -0.025060909 0.014596442 -0.015325004 -0.107519485 -0.011516268 0.029491536 0.079332285 0.13035753 0.034012605 -0.12238035 0.173285 -0.032573234 0.042659782 -0.11299488 0.0023883088 0.032300215
appropriate.a.01 -0.046808958 -0.0965052 -0.07359864 -0.0032051264 0.017393915 0.028114337 0.15623444 -0.019452492 0.021580972 -0.022509238 -0.15904558 -0.0957549 0.030761778 -0.0148890335 -0.13997161 -0.051028967 0.058919482 -0.19205914 0.059686102 0.09193716 0.1305568 0.03891817 -0.15061027 0.053961374 0.0022976194 0.043193594 0.011468693 -0.1654736 0.021829112 -0.037020657 0.12065437 0.0916091 -0.05223072 0.053052664 0.099437155 0.06976544 0.013952232 -0.0053358385 0.0692522 -0.061414156 0.05495144 0.081888944 -0.1593952 -0.0030532372 -0.016727222 -0.06630458 0.09190254 -0.14277188 -0.05377127 0.046967756
even.a.03 -0.12784232 -0.11572439 -0.0858878 -0.09242636 0.13765278 -0.016112328 0.04609334 -0.0716984 0.15859549 -0.11233398 0.06398378 -0.31786314 0.108975895 -0.067968756 -0.0945467 0.0053651547 0.15261178 -0.05357425 -0.08214006 0.2971743 -0.047361124 -0.008322074 -0.029704511 0.16359371 0.061330143 0.10078858 0.21501803 -0.10721148 -0.02088484 -0.14009528 0.117420234 0.04891437 -0.014469446 -0.10391993 0.0271824 -0.13371149 0.12802517 0.03566157 0.034299143 -0.27853575 0.0013671765 -0.004985109 -0.123761855 -0.058910698 0.056580793 -0.0064278473 0.14634067 -0.06765298 -0.0731847 0.13829832
vacant.s.01 -0.060406636 -0.0023428132 -0.09615531 -0.013688018 0.21125299 0.0705881 0.15483235 -0.10111073 0.2246179 -0.05626022 0.04909569 -0.043174047 -0.017658662 -0.12490095 -0.11767956 0.023532538 -0.04188384 -0.009602293 -0.12980403 0.10534362 0.006338607 0.20376064 -0.14885093 0.121562056 0.10142246 0.12975632 0.24427469 -0.04881484 -0.20643722 -0.15810387 0.12196812 0.17720923 0.10225193 -0.1738058 0.058783147 0.049800023 -0.002590009 -0.13188162 0.098613165 -0.11742269 0.12174362 0.26023495 0.08129877 -0.106600106 0.0061954055 0.05306679 0.20176178 -0.095081165 -0.03609424 0.012762835
muggy.s.01 -0.050743435 -0.13475536 -0.12075283 0.043197155 0.12256777 0.23429233 -0.018549986 0.052208617 0.107008696 0.07759365 -0.099213995 0.015412768 0.104831204 -0.2486409 -0.14457896 -0.12767191 0.13376603 -0.061675023 -0.11524467 0.018439129 0.081248365 0.0038153422 -0.1387771 0.14167106 0.0149172135 -0.018768892 0.19414452 -0.115583844 -0.16925761 -0.18637574 0.13411099 -0.032407593 0.19675091 -0.16164193 0.2252882 -0.039025296 0.12076893 -0.023874998 0.13484478 -0.053148914 -0.07182919 -0.02091374 -0.15701254 -0.13651474 -0.025427654 0.13746469 0.22796737 -0.16448271 0.009895528 -0.07503413
complimentary.s.02 -0.14224924 -0.12662151 -0.11663251 -0.055059675 0.09634805 -0.0019276957 0.04643325 0.06450806 0.15785456 0.12737587 -0.06288597 -0.20365556 -0.08572437 0.01617535 -0.14372882 -0.058817614 0.19785626 -0.111984834 -0.0413945 0.05074848 -0.00046432615 0.093101636 -0.013564678 0.06545066 -0.04262264 -0.06318978 0.08196819 0.011611322 -0.04533835 -0.1655191 0.10600918 0.031731065 0.095813714 -0.118212715 0.23287764 -0.022038812 0.15964589 -0.036408182 0.11798505 -0.1503638 0.1380476 -0.097366504 -0.14939234 -0.04985715 -0.16726753 -0.07949808 0.08984005 -0.1574383 -0.020021973 -0.09646703
critical.s.04 -0.040961806 -0.15572809 -0.12131859 -0.13619642 0.09436907 0.07530479 0.035281703 -0.09121163 0.35521606 -0.1827709 0.21483077 -0.040876333 0.10526565 -0.0057179006 -0.046703484 -0.09938387 -0.0036471165 -0.09416368 -0.07103376 0.19917555 0.06939808 -0.103884496 0.043010768 0.056909826 0.0973007 0.123379014 0.07610228 -0.04494683 -0.096095406 -0.0214519 0.031088289 0.09594023 0.08825367 0.037090268 0.022579012 -0.07058275 0.02299343 -0.07774085 0.08465757 -0.099430315 0.12819932 0.1451813 -0.13043149 -0.06402045 -0.029511197 0.037956696 0.14735155 -0.15835766 -0.054246742 0.029272657
ordinary.a.01 -0.05784457 -0.039054405 -0.15917276 0.034549434 0.047877353 0.095927976 -0.09929924 -0.150803 0.07907956 -0.053366575 0.06593546 -0.0064416546 -0.0035369683 -0.061010882 0.06197905 0.038970653 0.09308135 -0.021293635 0.07306377 0.22031544 -0.10135104 0.067637734 -0.12343284 0.15405019 0.020073557 -0.05700167 0.12243051 -0.036646035 -0.14562076 -0.15861864 0.030920805 0.17432962 -0.084511064 -0.012313196 0.055921935 -0.005152451 0.12185267 -0.14398566 0.18215078 -0.09335082 0.043777518 0.11492224 -0.1435014 -0.09194992 -0.079613805 -0.025842352 0.18481705 -0.09870718 -0.062377762 -0.051822446
empty.a.01 -0.16819079 -0.19046344 -0.1167292 0.06791808 0.029454807 0.09504937 0.0634159 -0.15206675 -0.00731275 -0.008932037 -0.021902608 -0.081579976 0.14157084 -0.08743572 0.006945987 -0.04009178 0.09449639 -0.06509289 0.099639855 0.14441326 0.035825457 0.091821864 -0.15812264 0.13788876 -0.052314688 -0.051829975 -0.026938984 -0.078819655 -0.03028386 -0.11154235 0.06018842 0.16894867 0.07240659 -0.11205002 0.19512185 -0.17851739 0.18934914 -0.07356621 0.025966378 -0.06855087 -0.0120093515 0.04848928 -0.043768767 -0.030027006 -0.034009837 0.108106524 0.1878707 -0.020312097 0.018736348 -0.19600342
well.a.01 0.02252649 -0.047157805 -0.08462184 0.15924615 0.061332576 0.12085227 0.033850107 -0.06057648 0.19952783 -0.082545415 0.04287569 -0.036008116 0.0793623 -0.04749196 -0.30206513 -0.11656275 -0.0027535788 -0.1407744 0.05512785 0.12159868 -0.016933016 0.036094602 -0.0131766265 -0.060468446 0.04715514 -0.0290581 0.12142415 -0.02808977 0.0047338097 -0.06688988 0.16941889 0.0072085946 -0.027172409 -0.11625775 0.17302524 -0.13906601 0.04303507 0.010400794 0.15387623 -0.056936383 0.12921368 0.20779546 -0.22357725 0.006846501 0.026519187 0.034332663 0.11645309 -0.10491058 -0.0788137 0.058220644
invisible.a.01 -0.22385085 -0.024761805 -0.07151293 0.0470962 0.123770386 0.05144129 -0.040572416 -0.031006873 0.23719375 -0.05737259 0.13559489 -0.061708752 0.070346735 -0.0569608 -0.045925654 -0.09629428 0.11585368 -0.1657894 0.1145056 0.21257514 0.07814401 -0.04389102 0.014267502 0.22966903 0.10425999 0.17662205 0.11756624 0.0028876744 -0.1409015 -0.18226211 0.07872526 0.21948554 -0.0016166205 -0.06480788 0.25965312 -0.14433317 0.09900904 -0.11297154 -0.10393029 -0.061360877 0.03865794 0.18007818 -0.05288025 -0.1847657 0.009743286 0.027805787 0.16487843 -0.08620102 -0.014731593 -0.052560493
decisive.a.01 -0.018052211 -0.07622544 -0.063079305 -0.0054142447 0.066952966 0.07788934 0.06773463 -0.1875877 0.10656183 -0.11370109 0.12719032 -0.06011121 0.047450826 -0.07207751 -0.031850625 0.0015009858 0.040330626 -0.12016278 -0.062852554 0.035096705 0.061376102 0.0278719 -0.04850998 0.15810284 0.14743729 -0.021634491 0.11914466 -0.18158482 -0.15341026 -0.052620735 -0.038462885 0.010255851 0.032349978 -0.13455819 0.0495384 -0.047290176 -0.060279477 0.054172628 0.031321254 -0.022741307 -0.051704798 0.03464924 -0.078229316 -0.032645904 -0.12312511 -0.12307254 0.047926154 -0.1067928 -0.06427883 0.09958703
major.a.02 -0.05541662 -0.07707946 0.026673477 -0.17031053 -0.0038179907 0.05068006 0.15503646 -0.063761376 0.1407828 0.039260637 0.024556441 -0.028280083 0.051235408 0.024360873 -0.10861321 0.05646885 0.08050728 0.10134669 0.08056041 0.07692388 0.018074688 -0.017567858 -0.0028172722 -0.051563255 0.21592051 0.0116185555 0.103969954 0.062231425 -0.037922807 0.0028848664 0.1716885 -0.055898253 0.06277641 -0.10049362 0.035166204 0.18084617 0.021326026 0.07317153 -0.03961737 0.026991177 -0.06260735 0.057505213 -0.060109362 -0.14808908 -0.028603476 -0.06959102 0.0029127696 -0.0140495375 0.10352004 -0.10088982
warm.a.02 -0.22715122 -0.016455177 0.016262904 -0.024749536 0.016953466 -0.00041857336 -0.070310526 -0.08134022 0.20661682 -0.08568598 0.06632955 -0.04363639 0.02785655 -0.033333898 -0.13441372 0.020078216 0.1079261 -0.0062414743 -0.013584479 0.13852909 -0.04408354 0.17552096 0.005374917 0.07371882 0.013261564 -0.0072875335 0.05821033 -0.0025692193 0.004865977 -0.0056192307 0.10417388 0.09699459 -0.039797094 0.006006448 0.11980281 -0.02798791 0.013813956 -0.03984749 0.0965556 0.053017482 -0.018288236 0.10381322 -0.11862868 0.080404796 -0.1222535 0.07214389 0.02101087 -0.18582255 0.0655949 -0.023372483
cultural.a.01 -0.14040132 0.1115816 -0.09858023 -0.046206813 0.09074103 -0.03982489 0.0034347586 0.054242536 -0.020475928 0.12232836 -0.10837691 0.08908129 0.038771577 0.09446181 0.010212536 -0.14350519 -0.055619903 -0.014718176 0.10271656 0.096819595 -0.112900205 -0.13412769 -0.028951224 -0.10626823 0.020089615 0.15994702 0.012838134 -0.046527002 -0.048827842 -0.018265773 -0.01832739 0.02928637 0.031907775 -0.035431705 -0.07981595 -0.043603536 -0.0580503 0.022989443 0.0067008026 -0.11324307 0.12090512 -0.070050485 -0.09867477 -0.0462186 -0.18454039 -0.055190757 0.11633752 -0.1200121 -0.05658823 -0.014657566
liberal.a.03 -0.015389916 0.026001835 0.06287959 -0.0061438186 0.039298482 0.06526536 -0.15447947 -0.0102627305 0.06904188 0.05478128 -0.00046685626 0.14814293 0.049119193 0.024808845 -0.033623848 -0.049148813 0.14578994 -0.10150357 0.059828475 0.11495928 -0.14333919 -0.15506558 0.12660904 -0.10233739 0.087406926 -0.04036228 0.086570464 -0.2420185 -0.061469518 -0.020782497 0.094007626 0.06679723 -0.010336004 -0.076379925 0.12145253 0.073142916 0.1538551 -0.043292828 -0.09702664 -0.04312756 0.10599215 0.048077736 -0.10071497 -0.015120967 -0.07280298 0.015453161 0.04070962 -0.14510058 0.015292236 -0.018450208
proud.a.01 -0.09454416 -0.004998372 -0.21580212 -0.0133756 -0.014063742 0.067922935 0.059985377 0.054367658 0.031989876 -0.008280486 0.010065681 -0.02372913 -0.021463642 -0.11577182 -0.15729447 -0.043638762 -0.02630405 -0.1011156 0.1089933 0.13340841 -0.012693325 0.041690167 -0.09595578 -0.02815511 0.16287178 -0.03113748 0.040631726 -0.07965598 -0.01643817 -0.094209194 0.118209675 -0.101593524 -0.0030400003 -0.058478426 -0.023061102 -0.11874037 0.077685624 0.023541823 0.16601957 -0.050603937 0.17306533 0.07199959 -0.13687256 0.011763712 -0.11796163 -0.12493135 0.12921138 -0.06369269 0.06718331 0.047580425
accurate.a.01 -0.0070879734 -0.035210826 -0.10939227 -0.18452735 0.03338103 -0.06893388 0.11964305 -0.20141168 0.048096284 -0.052768353 -0.14959423 -0.013910163 -0.09595545 -0.04260904 -0.03343442 -0.09354534 0.10050793 -0.20644642 0.026826648 0.076640874 0.06616849 0.05542084 -0.070683844 0.16644911 0.03396115 -0.10754766 0.018308707 -0.06071791 -0.04030008 -0.136071 -0.017445816 -0.044711478 0.014716406 -0.07609892 -0.022240996 -0.020862896 0.16422749 -0.0010776005 0.15891986 0.11154432 0.0004868241 0.15278788 0.020287989 -0.024991708 -0.030418722 -0.0010296117 0.19063571 -0.14289217 -0.06886268 0.051332735
controversial.a.01 -0.06507085 -0.17105702 -0.033270013 -0.076905705 0.091498666 0.14279729 0.093617335 -0.011703259 -0.066575244 -0.059849583 0.03327523 0.10333489 0.02182229 0.003248065 -0.13504769 -0.16527233 0.04635356 -0.027965972 -0.09118556 0.09862319 -0.02043673 -0.19588885 -0.06313883 -0.032998808 0.021992661 0.12056021 0.07172229 0.008545502 -0.014107393 0.01221614 -0.011939529 -0.06354397 0.03824658 -0.11382201 -0.020059602 0.046291515 -0.040684022 -0.023013545 -0.03532108 -0.065764666 0.0580643 0.027093083 -0.11101477 -0.023280142 0.024819106 -0.04765497 -0.028280172 0.038542714 -0.016046258 0.03918507
abstract.a.01 -0.07073708 0.12079743 -0.10972262 0.02876314 0.059240714 -0.011584021 0.09157673 -0.042960614 0.16696228 -0.1472851 -0.03538192 -0.13904914 0.04143767 0.0012262838 -0.076511934 -0.0120507525 0.047548342 0.052664354 0.04811242 0.1918923 -0.0328586 0.057322197 -0.059012286 0.07683684 0.106340565 0.05590786 -0.019855868 -0.04774156 -0.064485654 -0.09712545 -0.008338016 0.06772299 -0.0010998246 -0.09093758 0.013281199 -0.07127571 -0.051844336 0.013098326 -0.06798768 -0.2216113 0.041330963 0.11613609 0.017049795 -0.06383626 -0.016056139 0.059584122 0.028204095 -0.130255 0.050153427 0.071790874
constructive.a.01 0.08544352 -0.13731614 0.07871551 0.0222166 0.066291295 0.11963654 -0.03767276 -0.1576182 0.0726482 0.04258461 0.03434464 0.10244038 -0.08574675 -0.065839835 0.07988049 -0.025844784 -0.045372725 -0.123670764 0.15823814 0.03352044 -0.05545524 0.09903216 0.050273854 -0.018555589 0.020371532 0.15970775 0.09093515 -0.11891476 -0.10285025 -0.15387514 0.1606613 0.18177432 -0.0006998024 0.025171217 0.020575335 0.10349821 0.07439836 0.12825388 0.15265098 -0.054380603 -0.13674039 0.030269198 -0.099822536 0.09417138 -0.014733537 -0.2586597 0.0026219906 -0.105930395 -0.09029819 0.020895189
well-defined.a.02 -0.09594812 0.031930044 0.01897306 0.028345622 0.023358298 0.050300557 0.06373871 0.03038443 0.09758114 -0.04821188 0.19093296 0.007320562 -0.03693107 -0.089761145 -0.09783323 -0.0819882 -0.036157835 -0.14361443 -0.011351367 0.031347387 -0.032855127 -0.015194948 0.046059486 -0.024201445 0.21063037 0.023169115 -0.0070754555 -0.15468521 -0.044377957 -0.05912854 0.008499286 0.06673358 -0.0142367 -0.005588954 0.09723432 -0.074144594 -0.0071685975 -0.034283742 0.021551292 -0.16251105 -0.04560439 0.083349444 -0.074460976 -0.1057451 -0.025693163 -0.05311196 -0.055762 -0.1136761 -0.084616795 -0.117473654
alone.s.04 -0.06209933 0.06539065 -0.110589966 -0.06661279 0.04931661 -0.0208987 -0.061435953 0.11704534 -0.002926041 0.07888313 -0.051083583 0.0420177 -0.08699009 -0.034831233 0.06425412 -0.05761129 -0.025343277 -0.040501356 -0.07184404 0.08848818 0.062021844 -0.0023802947 -0.029439924 0.086636506 -0.07644686 -0.053143688 0.0152192125 0.0089344075 -0.028395085 -0.13660362 -0.030809065 -0.05192806 -0.04538953 0.03990013 0.034280565 -0.14110772 -0.04153266 0.050149698 0.057753183 0.0805205 0.06853807 -0.0039499835 0.0565299 -0.066124104 -0.1333302 0.05361558 0.030301128 0.047522195 0.02751277 0.041139245
official.a.01 -0.11685014 -0.177259 -0.12309817 0.15130718 0.09768761 0.08214765 -0.042266134 -0.10097241 0.16907172 0.08383101 -0.10918855 -0.06709913 0.026776936 -0.06699263 -0.057968453 -0.044201355 0.17676929 -0.117249854 -0.07090945 0.19825886 0.044847295 -0.075279385 0.120354995 0.10677003 0.001797356 0.03262141 -0.0097610345 -0.046779245 0.004539092 -0.032891974 0.11323643 0.14003608 0.094332345 -0.13280012 0.054560892 -0.09426915 0.18791518 -0.00062310405 0.09062506 -0.14391404 0.01845918 0.1425379 -0.14263852 -0.05703474 -0.08081226 0.047857374 0.050846133 0.050636645 -0.038500674 0.015733939
rough.a.01 -0.09374861 -0.18855952 -0.09020294 0.11637908 0.2155099 0.1323104 0.13206518 -0.07299109 0.0120834615 0.06452229 -0.027287435 -0.01641855 0.014816446 -0.0249624 -0.11458186 -0.10623555 0.12891057 0.07918209 -0.0254562 0.14039129 -0.026747594 -0.076271504 -0.10893968 0.047236577 0.039511178 0.104039446 0.062043935 0.014485141 -0.096859105 -0.12052488 0.09438763 0.15839809 0.106107615 -0.11767573 0.14922102 0.030100014 0.04885441 -0.047048196 0.033775017 -0.08119594 0.12953961 0.15816864 -0.13329446 -0.0553926 -0.082755424 0.0927694 0.15930179 -0.19479772 -0.13373592 0.07292217
weekly.s.01 0.033780534 -0.17284837 -0.16533433 -0.011564105 0.14079921 0.15456262 -0.07973106 -0.11574421 0.13691048 -0.0026867301 0.0615896 -0.009716713 0.020231454 -0.16111489 -0.16491427 0.07733799 0.01558316 -0.12877683 -0.09479683 0.0113511775 0.046482995 -0.014607625 -0.11200601 0.08865664 0.2304297 0.06147124 0.017551415 -0.056320343 -0.10543728 -0.061405618 0.075727284 0.023704588 -0.04138569 -0.00039399575 0.14656894 -0.06974377 0.09368431 -0.047321793 -0.0056211012 -0.11657295 0.05138726 0.17463207 -0.09175336 -0.054802027 -0.12234748 0.11673717 0.2094212 -0.22283973 -0.14396073 -0.079762295
continental.a.03 -0.053030524 -0.09539564 -0.07249655 -0.13427535 -0.054641563 -0.030106202 0.15814787 0.06880423 -0.020187475 -0.023186833 -0.044041727 -0.04572083 -0.014590896 0.027717505 -0.103451185 0.017660988 0.08261941 0.020458097 -0.08108691 0.051542204 0.029504133 -0.048797503 0.0041038413 0.09772659 -0.04515795 -0.031561837 0.008533364 -0.04988722 -0.049039196 0.064236395 -0.016812861 -0.0141794495 0.048212674 -0.008237574 0.013260819 0.020924225 -0.037315752 0.046946794 0.01033145 -0.094773956 0.03276878 0.08468986 0.05206272 -0.037793446 -0.05472151 -0.15250427 -0.10208119 -0.09706918 -0.012071318 -0.010717883
dynamic.a.01 -0.08851526 -0.06346937 -0.20210215 -0.050428376 0.17161895 0.19994779 -0.031057237 -0.12759337 0.22103204 -0.07230868 0.12433451 -0.12764283 -0.055338133 0.07844432 -0.1743137 0.0019042722 0.097849496 -0.032779433 -0.093512505 0.1899077 0.0330002 -0.13143522 -0.09716926 0.12747957 0.18770775 0.08644547 0.14438616 -0.1598743 -0.1411151 -0.17654106 0.26595706 0.27645263 -0.050166003 -0.13479312 0.20623721 -0.07299346 0.19692434 -0.24413364 0.14450775 -0.16679196 -0.055407707 0.21553412 -0.07758817 -0.02552386 0.06256134 0.0031600997 0.13757525 -0.187421 -0.16399229 0.08076766
artistic.a.01 0.15715499 -0.1001613 -0.11111118 -0.09254828 -0.06347428 0.03837417 -0.030594487 -0.035744287 0.15723732 0.08059366 0.043288346 -0.007337104 -0.057554692 -0.04143142 0.063344955 0.025928136 0.019406887 -0.10519335 0.025105989 0.081175834 0.13671006 0.009034458 -0.073945 -0.119629 0.17261817 0.034749545 0.008745368 -0.018252324 -0.0100607155 0.005030474 0.09286685 0.03734737 -0.137815 -0.026446823 0.023932954 0.0014080529 -0.06326858 0.08585194 0.13856006 0.022756264 -0.034189314 0.0052684355 0.006859959 -0.1159772 0.17134728 -0.09327921 0.06985042 -0.18102342 -0.037941497 -0.13684165
acrimonious.s.01 -0.020123241 0.070435636 0.036326922 0.07403079 0.064955756 -0.09871698 -0.02551073 -0.15223517 0.048181724 -0.018579053 0.0661041 -0.076686114 -0.022121489 -0.07926193 -0.15620643 -0.02151639 -0.06776082 0.03878929 0.06543202 0.043217175 0.20676425 0.099588916 -0.14560552 0.11455771 -0.005971814 -0.15265776 0.07561758 -0.0015274802 0.041295517 -0.054615635 -0.02593972 0.045498863 -0.17293572 0.07210717 0.05842015 -0.05745892 0.035275422 0.055623036 -0.013916237 -0.09093307 -0.066700034 0.058770433 0.021603853 -0.07268768 -0.026904445 -0.025665397 -0.10451431 -0.15705116 0.029541064 -0.022175005
uncomfortable.a.01 -0.099070586 0.014318598 -0.057873465 0.035923544 0.200808 -0.026317645 0.10872316 -0.10701181 0.04416177 -0.124550335 -0.07609122 -0.07167284 -0.038123634 0.027729165 -0.20105161 -0.06216851 -0.07008705 0.042085074 0.10380686 0.054548517 -0.12210979 0.07281129 -0.02695363 -0.0033357842 -0.034565724 0.0024960395 0.025362417 0.06935077 -0.1467215 0.022684291 0.12211703 0.040949564 0.10556608 -0.008900493 -0.11133942 -0.09799356 0.02611843 -0.01412239 0.016562322 -0.19329944 0.02408405 -0.0028650854 0.060199067 -0.050077103 -0.0073354165 0.17794928 0.060831986 -0.09029052 -0.05592803 -0.07652155
gradual.a.01 0.07084434 0.0050564106 0.1427398 -0.02065179 -0.033679787 0.15030494 -0.014341775 0.054728102 0.24791704 -0.043188564 0.09591804 -0.07374468 -0.043872368 -0.07685531 -0.1182446 0.08337295 0.11187232 0.08295768 0.043553174 0.005903591 0.028409986 -0.0010675249 -0.124082774 -0.027613763 0.12326868 0.041588996 0.0014715262 -0.0750884 -0.0036757642 -0.10939703 0.027289998 -0.003911532 0.077570714 -0.061710015 0.18537778 0.0046148524 0.26696202 -0.15273985 0.17180921 -0.06562775 -0.03650154 0.13309489 -0.04837592 0.039210197 -0.04931426 0.051102217 -0.050740674 -0.10599121 0.0058908598 -0.03933725
assertive.a.01 -0.13261303 -0.057257216 -0.105602354 0.050962403 0.2598673 0.12997381 -0.10643999 -0.12954083 0.20575745 -0.20384541 0.063399605 -0.0031065252 0.11305077 -0.14514183 -0.14474246 -0.07062624 0.070208356 -0.03572058 -0.052255522 0.1642262 0.12475445 -0.1346719 -0.041524284 0.1616367 0.1602917 0.049522474 0.24246271 -0.20550695 -0.056018602 -0.0886904 0.15274449 0.18195245 -0.014300062 -0.110969365 0.14451532 -0.023880517 0.061423928 -0.00840485 0.18680444 -0.08884336 0.1334164 0.15929697 -0.15532267 -0.19528295 -0.0110220825 0.016549563 0.23440702 -0.25665948 0.054469988 0.11925612
free.a.01 -0.13176529 -0.114225745 -0.1495563 0.103779 0.06293662 0.119747795 0.09612834 0.04183157 0.15298128 0.17636578 -0.029531054 0.19889829 -0.07715542 -0.05155991 -0.035584897 -0.15588765 0.14455362 -0.051828384 0.09809464 0.060133062 -0.036542382 -0.1069512 -0.088952325 -0.027141461 0.1800567 0.07633994 0.15856725 -0.10109032 0.052116107 -0.11650873 -0.010997248 0.076190054 -7.190944e-05 -0.1758473 -0.024687394 -0.09258712 0.072100475 -0.030671187 0.03619857 -0.0035011335 0.105517484 -0.032523874 -0.028807463 -0.029958032 -0.040148165 -0.0047118496 0.050576378 -0.023882383 0.05134984 0.07147649
incapable.s.04 -0.06787237 -0.04978894 -0.16524605 0.07042524 0.049415376 0.044824593 0.1313193 -0.114034764 0.19635688 -0.019038389 0.098161794 -0.10290963 -0.03984849 -0.029997317 -0.1713507 0.042263605 0.055687774 -0.029862309 -0.1500212 0.21884683 0.06460156 0.024129542 -0.04796378 0.0020490012 0.1827627 0.07067711 0.18682583 -0.04662928 0.0040850868 -0.36299697 0.16756678 0.17758067 -0.0018804373 -0.280154 0.15300499 -0.062245525 0.24320847 -0.14208092 0.16076393 -0.1260576 0.052587442 0.15125088 -0.1207902 -0.08242075 -0.10031404 0.08398249 0.1580914 -0.14582703 -0.08100294 0.05331598
obvious.a.01 -0.07263313 -0.12310153 -0.20578173 -0.041710876 0.09834882 0.14105538 -0.04796883 0.019882096 0.19819167 -0.019196555 0.12724821 0.027093453 0.07838907 -0.031804323 -0.08427286 0.05541006 0.1010714 -0.1439031 -0.18781085 0.16753443 0.102047205 0.008637325 -0.1020063 0.047966234 0.09467075 -0.11369241 0.008318934 -0.0652821 -0.014505064 -0.090151705 0.008552454 0.039954346 0.084760316 -0.09124796 0.20541042 -0.044774547 0.07680306 -0.018726554 -0.091203086 -0.1741679 0.0791008 0.084738255 -0.008083811 -0.101898104 0.050748166 0.09926417 0.053393375 -0.1034186 -0.04674145 0.020470556
religious.a.02 0.057162713 0.059122656 0.04124516 -0.04094395 0.035151683 0.12324668 -0.10535526 -0.121128954 0.17169799 -0.04569012 -0.097408 0.07572865 0.09128562 -0.17074218 0.066708945 -0.03090619 0.0073745553 -0.15196814 -0.011747714 0.034793638 0.03399464 -0.066726334 0.07942867 0.091052465 0.0988773 0.10348581 0.148998 -0.13612632 -0.07217266 -0.25920358 0.08044564 0.10460087 0.008755572 -0.09665194 0.09947969 -0.10764653 0.16879849 -0.110829294 0.11341628 0.042751994 0.034508 -0.03658793 -0.1496764 -0.006116685 0.037426583 0.0742039 0.116245374 -0.12053286 -0.061343413 0.0940611
busy.a.01 -0.10233202 -0.123560145 -0.1451776 -0.008414432 0.1820052 0.09204809 0.03339798 -0.2679267 0.18565854 -0.006708067 0.08149399 0.01849926 0.023174742 0.0011841226 -0.017104411 -0.15254223 0.02954019 -0.15361266 0.089213386 0.2018843 -0.07410117 0.08403854 -0.16877542 0.15078606 0.041223947 0.12784386 0.035739437 -0.1538196 -0.17613012 -0.20304993 -0.0253611 0.18067406 -0.017806815 -0.06978476 0.23362729 -0.17883237 0.14194804 -0.12326824 0.12748566 -0.12312721 -0.16340235 -0.0078681735 -0.16665049 -0.10911718 0.07040502 0.06418863 0.33625042 -0.2095661 -0.08184865 -0.0708953
residential.a.02 -0.112065375 -0.099468574 -0.041967403 -0.091048904 0.069036506 0.14416441 0.030707529 -0.039702248 0.15008482 0.06354013 0.040468108 -0.045075983 -0.08084036 -0.06069051 -0.2111021 -0.1549756 0.07346693 -0.0484117 0.033698797 0.15363935 -0.004312553 0.031282462 -0.05669978 0.19787702 0.04068396 0.049115952 0.11026199 -0.07975988 -0.0743154 -0.16906315 0.11330898 0.28438094 0.01698351 -0.053322975 0.14765516 0.040168695 0.0805747 -0.122393645 0.075429626 -0.08418926 0.13024189 0.26820302 -0.097484626 -0.056885224 -0.15124775 -0.06560866 0.09136667 -0.14186476 -0.11294844 0.013302847
lost.a.03 -0.083372824 0.033089116 0.03809792 -0.02228174 0.15137085 0.11264363 -0.037722085 0.015963543 0.1257797 -0.07764315 0.09549508 -0.14428774 0.066040955 0.068738684 -0.07456947 -0.022262905 -0.006218086 -0.096926816 0.08313709 0.16707546 0.102424465 -0.03494476 0.031127123 0.22598268 0.08758305 0.024207454 0.06061462 -0.13539311 -0.04043628 -0.1678443 0.12238457 0.10540787 -0.013351136 0.00934424 -0.07882675 -0.10520903 0.1546857 0.019735953 0.013278444 0.013344045 0.037495553 0.11995207 -0.13559553 -0.14715151 -0.0072338064 0.06630302 0.16539818 -0.13961023 -0.027163034 0.08737293
reliable.a.01 0.039753895 0.02218667 -0.014146159 -0.00078901334 0.06929357 -0.14039935 0.024809293 0.010846609 0.124535546 -0.085643955 0.07897229 0.0020164847 -0.10521826 0.04624212 0.011655159 0.003436902 0.07677092 0.12596028 -0.015667869 0.11866322 0.08033395 -0.0332092 0.03622791 -0.15434816 0.104986235 -0.076776415 -0.037376538 0.006604239 0.007889964 0.041098673 0.049479067 0.0085679395 -0.025873465 0.067981586 -0.03241202 -0.036531243 0.098925136 -0.05861945 0.14928745 -0.005086751 -0.032373786 -0.04972117 -0.070738606 0.03794836 -0.13288157 0.009731904 0.04419592 0.01997002 0.01157768 -0.009908062
desirable.a.01 -0.016450902 -0.047918163 -0.24408548 0.058310848 0.019897284 0.101757795 0.031000696 -0.064146526 0.107611015 0.03183676 0.0803054 0.0039890236 0.20085178 -0.031979952 -0.05722671 -0.0032887093 0.1480803 -0.095959395 0.063357994 0.13753012 -0.0502976 -0.07893653 0.0090938425 0.0869414 -0.006280633 -0.0958376 0.14100423 -0.023736842 -0.14928603 -0.10733366 0.059451453 0.05784118 0.019035075 -0.066551894 0.028896576 0.032597817 -0.04113915 -0.12245092 -0.0077376133 0.088647686 -0.099283405 0.10056987 0.03997357 -0.15820308 -0.017513275 -0.0732749 0.042949643 -0.0995132 0.057716716 0.09166213
cosmopolitan.s.03 -0.0027750416 0.006023896 -0.12947513 0.06330259 0.022806607 0.012297782 -0.08485108 -0.051082592 0.121278286 0.019877827 0.044209477 -0.09948332 -0.047815926 0.19746152 0.07358957 -0.0035762638 -0.04591831 -0.0359913 -0.006224281 0.08056569 -0.029149983 0.0418277 -0.0067115324 0.11077428 -0.03998461 -0.010184893 0.0261016 -0.011230035 -0.07705134 0.09882746 -0.05488936 0.03950414 0.021051845 0.025857167 0.004330272 0.010935785 -0.056868494 -0.04367423 -0.119118586 -0.082344085 0.05882707 0.11317219 -0.09357974 0.102095895 -0.08724691 -0.07500325 -0.025082204 -0.11856011 -0.024285033 0.10615629
irrelevant.a.01 0.0029388135 0.020093394 -0.20544085 0.07430125 0.028939368 0.03511477 -0.01657954 -0.028880505 0.16073252 -0.0717088 0.030441003 0.012093325 -0.0176444 -0.025871262 0.014666712 -0.0020828578 -0.056946497 -0.047254555 0.116548456 0.16837092 0.008222239 0.1354021 -0.019430857 -0.015397656 0.15237808 0.011193652 0.07430116 -0.035134997 -0.17692961 -0.06495611 0.027698118 0.18856701 0.072661 -0.035624716 0.22816303 -0.03867777 0.09384637 -0.023026202 0.07589327 -0.08148672 0.035724528 0.07990509 -0.086892165 0.02453943 -0.028852405 0.10365576 0.2191071 -0.2233434 -0.091707334 -0.07391972
subjective.a.01 -0.0010645281 0.008982832 -0.1083046 0.09312759 0.11658116 0.13984863 -0.015026386 0.034966856 0.2407062 0.059283435 -0.06705795 0.06642051 -0.054259185 -0.06849615 -0.17021398 -0.06532893 0.056880064 -0.026925769 0.043425206 0.19010974 -0.07542644 -0.043199513 -0.011467039 0.02079415 0.15794002 -0.12444416 0.1868221 0.07978947 -0.043657843 -0.045961715 0.031837434 0.11936446 0.054636434 0.057074767 0.0012352983 -0.09883148 0.13161823 -0.08900456 0.0069215046 -0.14579491 0.13566288 0.09911445 0.0349278 -0.0318098 -0.059302725 0.030580113 0.09901086 -0.060017638 -0.11244359 0.085198395
alert.a.01 -0.0930349 -0.055030674 -0.08065012 0.13193217 0.20302168 0.11231501 -0.06629199 -0.039967947 0.36691958 0.05547688 0.0653713 -0.08128116 0.1394444 -0.14405802 -0.17055327 -0.18901663 0.07100654 -0.12555896 0.06862887 0.15532807 0.051055223 -0.109168574 -0.07531565 0.06485154 0.15075979 0.10669126 0.16231613 -0.005157239 -0.14451562 -0.20890154 0.20091404 0.17058343 0.15581922 -0.04756576 0.25854328 -0.014806069 0.161634 -0.07033248 0.1719049 -0.15744907 -0.029975753 -0.00058979134 -0.21802549 -0.03633444 0.16873264 -0.04560761 0.061400045 -0.11886128 0.018366925 0.060699068
firsthand.s.01 -0.08687371 0.0018277862 -0.15269405 0.0402483 0.15883714 0.08465917 -0.035385564 -0.022447594 0.14023522 0.0053837104 0.05920544 -0.13368009 -0.00245441 -0.15724671 -0.0144400885 -0.12282743 0.0430077 -0.024077516 0.07005255 0.042825554 0.08941619 -0.09521828 -0.18243144 0.14552242 0.0944756 0.017653408 0.19759561 -0.115528114 -0.03158309 -0.16268535 0.11008306 0.27363378 0.103857525 -0.10391703 0.23969007 -0.08043514 0.17462787 -0.044393096 0.08907661 -0.12747575 0.018995564 0.076427534 -0.15610357 -0.09034338 0.032836217 0.07651916 0.17016608 0.005623868 -0.011532402 0.06575213
traditional.a.01 -0.08127462 0.017397998 -0.06192031 0.073241405 0.0706442 0.070392385 0.01857108 0.02707339 0.08442268 0.09838281 0.030142805 -0.02429896 0.06473381 0.04095743 -0.0594371 0.08709391 0.068434246 0.033146206 0.12438294 0.14440298 -0.019224295 0.12942857 -0.21034478 -0.08535359 0.034283996 0.16256782 -0.060404066 0.006827415 0.0042314506 -0.11817478 0.12480547 0.072793745 0.07115791 -0.06640335 0.21935698 -0.051229805 0.10776156 -0.09310168 0.11461422 -0.048548665 0.010731098 -0.069339894 -0.096341155 -0.049427688 -0.10752976 -0.061888695 0.0696914 0.04898431 -0.008894219 -0.12656006
dangerous.a.01 0.12585899 0.066481456 0.07674047 0.00022794734 0.025411734 0.007823608 0.0037066482 0.00818979 -0.015322021 -0.06075722 0.022580566 0.0007117505 -0.05104605 0.054475166 0.012134668 -0.0019523846 -0.07407059 0.13190544 -0.06729855 -0.0033335818 -0.12382432 -0.07924046 0.13199614 -0.011445335 -0.20735678 0.017485557 0.1183335 0.11787072 -0.032311372 0.038412806 0.029488994 0.06890177 -0.01043901 -0.033585697 -0.022331072 0.0818973 -0.014940684 -0.104232416 -0.085689746 -0.16607222 -0.014650216 -0.062300757 -0.052008092 0.030519836 -0.05969898 -0.0048699277 0.040074285 0.06405321 0.010762163 0.0052093794
square.a.01 -0.0050782985 0.07720771 -0.16456123 0.18439263 0.16652001 0.06020774 -0.03522281 -0.017290913 0.23112497 0.018790409 0.10683247 -0.111779466 0.1595265 -0.14706767 -0.2324529 -0.00012593225 -0.010950807 -0.055244848 0.19065395 0.045099862 0.10233188 0.11108654 -0.061527807 0.14087029 0.103784464 -0.1072582 0.14020415 -0.017676279 -0.07269489 -0.12783825 0.22814155 0.23259401 0.0046218685 -0.180865 0.2051246 -0.030208891 0.062730335 -0.033512805 0.08090043 -0.08677799 -0.017788965 0.035901804 -0.07423486 -0.21980684 -0.100617826 0.14231755 0.08795244 -0.08010539 -0.095111094 -0.16977952
solar.a.01 -0.11415636 -0.10775512 -0.2429205 0.049347796 0.19974262 0.21993107 -0.028187962 0.005084657 0.20251161 -0.2627388 0.1256518 -0.16634862 0.059295762 0.0278999 -0.03454955 -0.057180073 0.16305009 -0.06623753 0.022200268 0.08469036 -0.060090568 0.006735275 -0.058351263 0.07515189 0.14594884 -0.040586174 0.11403192 -0.29139563 -0.20813662 -0.0806816 0.13072053 0.24460873 -0.15260863 -0.10739259 0.019956635 -0.001964522 0.082168944 -0.004514217 0.12229005 -0.0647073 0.108966306 0.15620637 -0.06517224 -0.07175885 -0.013920824 0.028793933 0.15160939 -0.04547932 -0.010855108 0.06117095
seasonal.a.01 0.081953816 -0.03934187 0.030692078 -0.0424118 0.090442955 0.10583711 -0.0317244 -0.20727473 0.07441171 -0.14050774 -0.11866866 0.084931426 0.049275864 -0.0487486 -0.21180709 -0.016073106 0.07265692 0.0035420305 0.047821347 0.0657816 0.005658686 0.15475036 -0.040260945 -0.05749929 -0.0013787427 0.020966325 -0.014972597 -0.10270821 0.033427585 -0.08591158 0.1007381 -0.016443416 -0.15486383 -0.107085615 0.08795455 -0.048126567 0.034116264 -0.030627754 0.086633235 -0.06911142 0.0036104554 -0.015534311 -0.07216927 -0.018300474 -0.022446003 -0.054086544 0.07346775 -0.11503763 -0.15198687 0.052620552
illegal.a.01 -0.17113726 -0.05067064 -0.19859919 -0.061313666 0.26551014 0.13589236 0.13183318 -0.017426146 0.15106495 -0.161844 0.09579494 -0.09321044 0.052640636 0.01669598 -0.17961009 -0.03434902 0.07774712 0.07557568 0.068033874 0.2364356 -0.09503351 0.12867898 -0.07298962 0.016247945 0.18624108 0.07995631 0.075189225 -0.16970187 -0.047817975 -0.111248136 0.10151023 0.11310577 0.028631087 -0.19962274 0.10814515 0.0702435 0.13840283 -0.1248043 0.042399634 -0.010622791 0.11356156 0.25853938 -0.24983695 -0.05667083 -0.09635054 0.012144635 0.16826598 -0.104289316 -0.056215283 0.14454128
acute.a.01 -0.14897504 -0.065836295 -0.24178061 0.10637437 0.2642789 0.0789875 0.04893006 -0.09858931 0.14561382 -0.13478045 0.12500545 0.055612832 0.11482796 -0.056931503 -0.14694633 0.017415717 0.08575348 -0.00615071 0.08663572 0.19433579 0.12931255 0.04741618 -0.20236193 0.0799247 0.06228554 0.02696253 0.07113577 -0.15669706 -0.021632114 -0.07348836 0.20115744 0.05518506 0.13994299 -0.19389296 0.27912378 -0.098016486 0.23753536 0.036834657 0.037481576 -0.10376357 -0.031101877 0.120695494 -0.06310016 -0.032658923 0.082539916 -0.010644304 0.15746792 -0.17114612 -0.15870018 0.08885822
statistical.a.01 0.03945844 -0.17571644 -0.2018599 0.007147398 0.023278287 0.04246473 -0.040448822 -0.11039718 0.1414387 -0.121092066 0.1664741 -0.06128984 0.122371376 -0.046995137 -0.15389785 0.015021848 -0.005958251 -0.016504452 0.02461049 0.16115005 -0.048803717 0.014631524 -0.13729386 0.17286415 0.1451596 -0.05969798 0.13342024 -0.05231402 -0.050825696 -0.12555869 0.22650477 0.20972195 -0.014717881 -0.06566309 0.05587291 -0.07816738 0.11577468 0.02730822 0.15464629 -0.1398346 -0.121331714 0.09345255 -0.025262361 -0.25002664 -0.03433369 0.058290362 0.03776948 -0.11276322 -0.16994354 -0.14398596
equivocal.a.01 -0.02620868 -0.042231806 -0.265016 0.12735397 0.118055634 0.160454 0.020404555 -0.04823659 -0.02784576 -0.0021792625 0.0369274 -0.050510034 0.17516038 -0.10421744 -0.10961837 0.052041076 0.074030295 -0.08990021 -0.039680615 0.13758604 -0.072291784 -0.08178958 -0.13925987 0.03807596 0.120406285 0.12361634 0.109095335 -0.17573284 -0.14627215 -0.0011994748 -0.028503671 0.1732001 0.124779284 -0.110237695 0.11308861 -0.028344706 0.09609375 -0.039377782 0.1386294 0.024354715 0.12760729 0.062168233 -0.13579634 0.094710596 0.047708694 0.073504806 0.10582329 -0.104146264 -0.09850679 0.07475203
complete.a.01 -0.14508374 -0.0013304853 -0.112164475 -0.06977543 -0.03133053 0.10892935 -0.13660595 0.002251818 0.1102601 -0.17324053 0.009148462 0.066262595 0.02436358 -0.07266187 0.041304857 0.029054957 -0.043766834 -0.0834164 0.02628302 0.1818154 -0.034938026 -0.0113882 0.059414666 0.10297617 0.19287536 0.0016477155 0.17908753 -0.11564291 -0.0647628 -0.17519754 0.17952119 -0.0007037042 0.09295531 -0.18742809 0.035900574 -0.00041199994 0.013267936 -0.17127956 0.06253689 -0.09937194 0.05608607 0.030643515 -0.09991855 -0.11302764 -0.12715389 0.0028892094 0.08874135 -0.049448952 -0.11914211 0.09565109
color-blind.s.01 -0.30832177 0.025697447 -0.07375617 -0.03628508 0.13867655 -0.024430834 0.018790197 -0.090145335 0.04905227 0.059783936 -0.05836014 -0.051819652 0.04312289 -0.027961742 -0.12447854 0.048933968 0.14197642 -0.23061252 -0.0054220804 0.06500979 0.10656107 0.052327458 -0.031535365 0.09210176 0.032947853 -0.06361707 0.1666593 -0.061901987 -0.08226188 -0.13731638 0.22771218 0.044125028 0.07731729 -0.069298126 0.16356328 0.21643797 0.109343484 0.09434168 0.15960142 -0.050394513 0.08204045 0.23519488 -0.07984065 0.04882471 0.06655587 0.010363032 0.13748558 -0.19505464 -0.099220425 -0.044154506
digital.a.01 -0.1731998 -0.015238954 -0.0508225 -0.03883566 0.1080802 0.06017197 -0.024675287 -0.07964539 0.22419445 -0.030840889 0.08644446 -0.01087169 0.047732044 -0.16080584 -0.18551883 -0.11990627 -0.09073696 -0.050575085 0.021366283 0.06865743 0.16486584 -0.07317092 -0.11599579 0.28437757 0.11819212 -0.057999473 0.20394641 -0.07074977 -0.040919054 -0.20782089 0.1178495 0.014171593 -0.055967905 -0.13718452 0.19549246 -0.071732014 0.09444126 0.08235265 0.082023196 -0.13345933 0.2226958 0.11814317 -0.10468654 -0.15357994 -0.035653137 0.16885677 0.15083723 -0.1489545 0.014717983 0.042788394
toxic.a.01 -0.11431373 0.03512963 -0.12241535 -0.05402272 0.089459345 0.04822988 0.07755309 0.020149842 0.031036071 -0.076174885 0.086505406 -0.13611226 0.089581825 -0.022237506 -0.07608031 0.027949937 -0.049490113 0.020552019 0.1330136 0.025478482 -0.05702152 -0.004810417 -0.059690498 -0.02698107 0.009270886 -0.0051200045 0.1952436 -0.01185285 -0.09992875 -0.03895726 0.034554567 0.08846053 -0.12391095 -0.003543292 0.08858338 -0.040728472 -0.16873258 0.10801764 0.06567616 0.041527793 -0.0664049 0.007383083 -0.1104275 -0.027646217 0.0062903087 -0.0074201683 0.19403702 -0.041062307 0.008356041 -0.035630587
concluding.s.01 -0.13475756 -0.12760141 -0.14831387 -0.040534973 0.19096711 0.15955232 0.033423334 -0.05075475 0.0726585 -0.04071888 0.06678932 0.0029571445 0.009113331 -0.050904192 0.029021677 -0.06662502 -0.047530055 -0.05765986 -0.033101715 0.14446475 -0.006997653 -0.102557875 -0.10602287 0.19483262 0.15058409 -0.020780308 0.18131313 -0.09926555 -0.1292576 -0.095870465 0.0843516 0.02050592 -0.076809764 -0.02858801 0.18551895 -0.13347243 0.05672189 -0.03549778 0.076676555 0.009293468 -0.009860816 0.055210344 -0.19726837 -0.05184631 -0.09466939 0.023252754 0.20945938 -0.16454431 0.02007611 0.06118222
tough.a.03 -0.2503797 -0.16028135 -0.04902155 0.0860998 0.18345839 0.04970609 0.05865441 0.03699243 0.0005971774 0.03560494 -0.04085838 0.0694047 0.019833295 0.036611784 -0.15012327 -0.122436486 0.065980405 -0.03923614 0.054706495 0.0501345 0.025710609 0.08707691 -0.12562385 0.042427056 0.0933286 0.002908503 0.07744039 0.027553884 0.031875726 -0.017208863 0.028788684 -0.010953329 -0.10564855 -0.09757154 0.04509208 -0.030663894 0.016554352 0.03801953 0.02839819 -0.052401774 0.04229931 0.005808095 -0.09349403 0.091677554 0.00361322 -0.06305682 0.10583329 -0.02724194 0.030331872 0.007566987
complex.a.01 -0.08294164 -0.0068498477 -0.20270966 0.04076817 0.12325626 -0.032528203 -0.02885809 -0.055186797 -0.036812022 -0.04954785 -0.06437945 -0.0112133995 -0.0007576005 0.020771634 -0.14591509 -0.13737598 0.0083140815 0.052181922 0.05323828 0.096702814 0.119249634 -0.0020978383 -0.10497922 0.097923875 0.14163753 0.073527426 0.1810453 -0.04562491 -0.14984679 -0.021117171 -0.07786783 0.18153386 -0.013492677 -0.06341346 0.03820957 0.047115628 0.19895872 -0.09157219 -0.055357073 -0.1662404 -0.008371738 0.06992114 -0.059192345 -0.1386634 0.016543338 -0.057877246 0.0015525975 -0.044061016 -0.010133027 0.0048055584
part-time.a.01 -0.22664881 -0.04433031 -0.030823367 0.11659798 0.14810015 0.09559005 0.051781364 -0.068608 0.2093332 0.12713705 0.01702907 0.053026557 0.10623459 -0.033876956 -0.14025421 -0.059585456 0.20352705 -0.012776974 0.03321988 0.11198024 0.048475828 -0.026003916 -0.006391687 0.028165352 -0.07962376 0.027035723 0.13184637 -0.08308898 -0.012399224 -0.004991887 0.10397432 0.095816776 0.053491075 -0.07120309 0.104669735 -0.0020806778 0.025368059 -0.09069047 0.12039828 -0.01656101 0.03700274 0.013922303 -0.12748647 0.0065994193 -0.14156514 0.0229476 0.02229274 -0.08679726 0.052477833 -0.061556462
steep.a.01 -0.18620089 -0.09195051 -0.22556737 0.026887419 0.11930163 0.18521899 0.03503413 -0.1455712 0.25010917 0.06971832 0.16022079 -0.10332897 0.05804682 0.026577467 -0.18197273 -0.043854263 -0.022396145 -0.052698255 0.12170965 0.22151001 0.0067883185 -0.1214437 -0.10072229 0.10337883 0.062515154 0.026557883 -0.039140407 -0.08336185 -0.122712344 -0.026102586 0.06182959 0.020872474 0.0020296637 -0.011142323 0.13216269 -0.038694367 0.072647884 -0.04309188 0.042382523 -0.07048137 0.0044146148 0.10862719 -0.16878285 -0.05538593 -0.031379536 -0.029973684 0.09928496 -0.13287377 -0.095241494 0.015386171
human.a.01 -0.12721232 -0.121114336 -0.076379746 0.12101537 0.056052513 0.025711816 -0.023522502 -0.06309865 0.06324073 0.02742211 -0.14755799 0.15258063 -0.06716901 -0.14549042 0.035815455 -0.0554812 0.124372184 -0.15348819 0.10887487 0.06252734 -0.057072084 -0.17748176 0.022381613 0.16090618 0.18718019 0.11490862 0.078507535 -0.02591264 -0.17677955 -0.029604835 0.10781619 0.12090672 0.030269435 -0.0815706 0.0048225666 -0.07169878 -0.043901388 -0.21658365 0.038374756 0.022733808 -0.015276756 -0.028766464 0.006869197 -0.01784034 -0.027235968 -0.11588962 0.22922617 -0.011399948 -0.031314414 0.12340855
happy.a.01 -0.11609214 -0.14658384 0.06651245 0.09531504 0.026385976 0.17043467 0.03924759 -0.01410223 -0.007131188 0.046677966 0.023207225 -0.05537581 0.13202286 -0.094790824 -0.16909495 0.070266396 0.14474288 0.08467456 0.10028419 -0.05530599 0.04307099 -0.0095939 -0.157387 0.024730036 0.0697021 0.006214698 0.052456785 0.046043694 0.055197574 0.07193082 -0.00966139 0.0022118941 -0.003950127 -0.0604241 0.09667813 0.073423035 0.002676725 -0.063478224 -0.07886481 -0.021617955 0.090787895 0.0921292 -0.08942158 -0.0052653807 -0.022440106 -0.0068067466 0.029247351 -0.10209012 0.02669794 0.0018748443
handy.s.02 -0.2112292 -0.096811086 -0.03580645 0.075218424 0.090354554 0.09095938 0.048533596 -0.06633283 0.19535899 -0.010566816 0.07510934 -0.13491157 0.024855142 -0.052078433 -0.11260972 -0.036381405 0.20477347 -0.16665849 0.015817827 0.1442508 0.041712847 0.04764444 -0.054380067 0.01203281 -0.0031928436 -0.054554265 -0.0023130889 -0.031513568 -0.013792075 -0.24228306 0.15654363 0.11887744 -0.088377774 -0.14200994 0.1530082 -0.0647028 0.02564709 -0.042158097 -0.013026756 -0.009271926 0.022316145 0.13907064 -0.17434968 -0.0636224 0.0032838373 0.033798356 0.13554522 -0.10497174 -0.15381797 -0.02789872
standard.a.01 -0.08351996 -0.067237236 -0.10125881 -0.06530107 0.04859432 -0.020798717 0.0016270886 -0.061226252 0.17386644 -0.03913589 -0.0736843 -0.11546139 -0.028220644 -0.11739697 -0.10599782 0.032777254 0.09375864 -0.033470668 0.06536863 0.10172949 0.18249708 -0.09855474 -0.082946986 0.058347054 0.16204609 0.0029731675 0.16215914 -0.12449238 -0.03681026 -0.06543453 0.02356727 0.14027633 0.11001474 -0.012907836 0.10965853 0.02509469 0.075360134 0.038334694 0.008798038 -0.14421147 0.039486617 0.13390528 0.022076037 0.057588834 -0.057611596 -0.094821736 0.0012484986 -0.18928628 -0.08757321 -0.01769531
extraordinary.a.01 -0.024156595 -0.040137526 -0.10480142 -0.042079 0.1487431 0.07193121 0.048733532 -0.010591661 0.13295056 -0.03239653 0.098810084 -0.058851123 0.06925161 0.0041804495 -0.060706038 -0.04639557 -0.109222814 0.004827153 -0.031954348 0.07492117 0.12287878 -0.039400365 -0.013087364 0.06615788 0.049716707 0.022455266 0.26269883 -0.11078869 0.047135167 -0.097753346 -0.017584141 0.1056596 -0.044713844 -0.08413643 0.06322787 -0.04098584 0.010695236 -0.055601176 0.03443644 -0.05607363 0.021352341 0.058528252 -0.04034565 -0.007538356 -0.029302457 0.10576552 0.01965066 0.02819358 0.07270662 0.009424756
wrong.a.05 0.025914095 -0.0023396711 -0.13189949 0.040934455 -0.009385847 -0.06896463 -0.10529397 -0.0713228 0.031673983 -0.18665716 0.036702603 -0.049057897 0.018905267 -0.22151686 -0.119278364 -0.06542335 0.13372397 0.044346504 0.018637514 -0.0187531 0.05809948 -0.105368465 -0.009484377 -0.017524773 0.06431281 -0.063610926 -0.049027067 -0.062424403 0.018380072 -0.06726647 0.089278065 0.063672476 -0.083186634 -0.033922758 -0.10133316 -0.039264895 -0.019198203 0.02546512 0.0073190075 -0.10291402 0.07035989 0.07166897 -0.09242848 -0.037225448 0.022212343 0.036731366 0.09176741 -0.07325374 0.016186327 -0.03889088
ill-famed.s.01 -0.15309821 0.019922927 0.018552639 -0.028395386 0.11584321 0.034746327 -0.011853499 0.0076823044 0.03962176 -0.027669247 0.08909458 -0.0395385 0.011639043 0.01728414 -0.20704256 -0.13254191 0.0743456 0.039824355 -0.00021188679 0.16648413 -0.03165454 0.021365954 -0.14448993 -0.036233656 0.09597362 -0.021455541 0.34965798 -0.014669742 0.008850261 -0.20282906 0.14932877 0.13357306 -0.11923407 -0.17368016 0.03696904 -0.09118831 -0.0018322855 0.032213345 0.1790499 -0.12329758 0.007188786 0.2624887 0.0011995628 -0.04575594 0.08357193 0.053259715 0.17045723 -0.17389779 -0.030031402 -0.01795113
chronic.a.01 -0.20471366 -0.18619934 -0.027394034 0.008790268 0.21205 0.1170156 0.06303821 -0.121938564 0.27347144 -0.09710344 0.015058465 -0.10395967 0.027965523 -0.014440054 -0.09225418 -0.009335312 0.18737316 -0.16749363 -0.011991584 0.14845377 0.04867301 0.07764511 -0.029900959 0.24543793 0.1149339 -0.11397582 0.14806142 -0.13906984 -0.08875898 -0.097434 0.18771794 0.24306117 0.021451375 -0.14505129 0.23797657 0.03364427 0.17608355 -0.06643748 0.08347901 -0.14684352 -0.046534747 0.12726776 -0.1453053 -0.15098532 0.13254906 0.0467393 0.21958846 -0.11677089 -0.019126507 -0.012151519
hot.a.01 0.031653136 -0.112154536 0.0027405764 -0.14440435 0.160906 0.11499923 -0.053797863 -0.07626555 0.12812555 -0.10376594 0.009553627 0.06410813 0.057389516 -0.105386205 -0.02220492 -0.19565481 -0.08835609 -0.16658337 -0.05633597 0.07663783 0.07349554 0.09431012 0.0123515995 0.044756126 0.14016159 -0.047240466 0.08875871 -0.05655186 -0.019589797 -0.27608508 0.17687714 0.01422973 0.10961665 -0.06292831 0.1507015 -0.07338199 0.050190315 0.034862835 0.18795207 -0.05188209 0.044530552 -0.05185177 -0.028986093 0.020317411 0.043887466 0.044435363 0.059566908 -0.032430526 0.065407254 0.0070093144
flat.s.12 -0.12703094 -0.090139754 -0.1529959 0.048079666 0.16705304 0.105238505 0.076534405 -0.00049341534 0.18924484 -0.07073589 0.115098804 -0.085003175 0.013150915 -0.15091792 -0.03603277 0.018132672 0.13374338 -0.105473615 -0.063632675 0.1409468 0.040867355 -0.022780567 -0.0614186 0.10534283 0.07903436 -0.015346931 0.12427375 -0.06299412 -0.048744734 -0.29412162 0.067796305 0.02012139 0.013346988 -0.24245472 0.07460997 -0.049553774 0.111827426 0.0157647 0.26333505 -0.088638574 0.06943133 0.13307045 0.039430577 -0.06937785 -0.042105123 0.09815822 0.14540659 -0.15267517 -0.09706024 -0.0064982125
optimistic.a.01 -0.14036629 -0.00096374087 -0.007704527 0.109003216 0.038772874 0.120269164 -0.0012699848 -0.012326395 0.15093522 -0.05670344 0.07163128 0.0560949 0.13686581 -0.06257137 -0.2713498 -0.07878357 -0.05542385 -0.10748469 -0.032806236 0.039525606 0.04279774 0.06819468 -0.11483427 -0.0146397315 0.18669775 0.020902017 0.17202169 -0.14606446 -0.059487514 -0.059567586 0.011763714 0.21244189 0.008228854 -0.28742135 0.16816974 -0.069953494 0.08275867 -0.019075096 0.030295826 -0.10267904 0.076194614 0.14447902 -0.23488195 -0.10041477 0.007631122 -0.026348243 0.1374375 -0.11439221 0.0021200618 0.03957326
uneasy.a.01 -0.10958004 -0.21677338 -0.07580625 -3.1871426e-05 0.18910488 0.16772108 -0.04810979 -0.016726485 0.059212524 0.033353098 -0.073321946 0.012151463 -0.0910561 0.0028905403 -0.07771652 -0.0692018 0.05399815 -0.0050499323 0.06691911 0.08344219 -0.03317053 0.025390895 -0.07247878 0.096592024 0.023572894 0.03630845 0.12156253 -0.02486671 -0.114230916 -0.17946284 0.05434314 0.08818194 -0.07302112 -0.06060825 0.104221314 0.010998735 0.17183083 -0.06133477 0.022080984 -0.11579622 -0.03488743 -0.030332152 -0.09286858 -0.086500764 0.01949497 -0.02665861 0.10341158 -0.05307212 0.07554613 -0.0060931393
heavy.a.01 -0.06908384 -0.06264923 -0.13806656 0.12560709 -0.096385606 0.073827974 0.08546606 -0.025768766 -0.036105156 0.06561702 0.25555533 -0.015980588 0.17323329 0.05727359 -0.124758326 -0.06379247 0.036356915 -0.032945093 0.12695006 -0.01456442 0.12027071 -0.11728458 -0.038530156 -0.029817268 0.13327985 0.007826038 0.18949322 0.07911116 -0.08439765 -0.075047344 0.11971679 0.14479524 0.07585905 -0.052090377 0.102466434 0.021625254 -0.032729007 -0.07869687 -0.00590785 -0.12410931 -0.11824619 0.21680948 -0.004614962 -0.11069275 -0.041473635 -0.091723785 0.025100587 -0.12812622 -0.095369056 -0.014194212
retired.s.01 -0.23183027 -0.10433848 -0.08246558 0.09156606 0.15694423 -0.078562304 -0.031061491 -0.05567424 0.217077 -0.07387608 -0.022737382 -0.054740205 0.044176787 -0.019554736 -0.15454845 -0.23815878 0.08559523 -0.06460381 0.021519491 0.09159155 0.15086049 0.12205382 -0.0078061023 0.13047731 0.04102261 0.08827583 0.06042144 -0.113556206 -0.07030777 -0.116861954 -0.03398648 0.20498522 -0.06398754 -0.1297207 0.17485644 -0.10167215 -0.066566184 -0.040298924 0.13305831 -0.07552318 0.0022573576 0.15696348 -0.10373494 -0.07946427 -0.044279322 -0.07052517 0.055577803 -0.17242892 -0.005795378 -0.020922076
ample.s.03 0.012393597 0.042466305 -0.14053835 0.023219584 0.1522307 0.11071964 0.014897836 -0.14188755 0.15038525 -0.07085621 0.18358387 -0.014014181 0.08361265 -0.16292748 0.010141437 0.03125355 0.14159417 0.00066805596 0.080634795 0.19889906 0.042522088 0.05531949 -0.082253374 0.09487 0.035254993 -0.019889383 0.1996784 -0.03019315 -0.06963141 -0.035543747 0.22620852 0.11979892 0.041631274 -0.17569597 0.22211514 -0.0027127466 0.08820703 -0.12512082 0.0986244 -0.13700402 0.123196684 0.20398232 -0.13809004 -0.07927841 -0.05866988 -0.012688767 0.23143281 -0.2297926 0.08407413 0.012598919
drawn-out.s.01 -0.065311044 0.046261765 -0.18278795 0.053769026 -0.03747015 0.10686895 0.050922666 -0.047994006 -0.08508707 0.04644595 0.050726242 -0.12516777 0.016555492 0.0103372615 -0.06786111 0.06289372 -0.025028635 -0.0395413 0.02896787 0.28441817 0.09994264 0.0067756562 -0.069997475 0.12270095 0.0069346298 0.012940893 0.13606624 0.016018035 -0.1934626 -0.12535034 0.09710716 0.1330811 -0.098750606 -0.06748383 0.05109697 -0.10410803 -0.002602832 -0.20831688 -0.037488077 -0.09066038 0.16311283 0.104373425 -0.058252994 0.058354508 -0.06493017 -0.08535457 -0.0059232516 -0.049212754 0.07607211 0.02965227
cosmetic.s.01 -0.007058218 -0.15034007 -0.14523186 -0.08168644 0.08063683 -0.004828011 -3.5595326e-06 -0.04318435 0.14970955 -0.08373474 -0.045302752 -0.017397035 -0.03915425 -0.04291325 -0.038033888 -0.037177857 -0.017961143 -0.06787363 0.0785235 -0.04815684 0.06857143 -0.048437286 -0.020652294 0.056843013 0.06889906 -0.016920546 0.12201953 -0.06289948 -0.024639372 0.021584103 0.10829442 -0.021057922 -0.04899402 -0.012734639 0.10411066 -0.037128195 -0.017206397 0.055563517 0.15079173 -0.009202457 -0.06702509 -0.12692857 -0.1005904 -0.02437859 0.012106868 0.011158096 0.12454033 -0.065999016 -0.087367974 0.113634154
responsible.a.01 -0.058009464 -0.11077819 -0.106009796 -0.04350042 0.08126412 0.042020362 0.1175058 -0.013483303 0.13488653 -0.097061105 0.08314438 0.08082675 0.021134637 -0.01961457 -0.19586295 -0.16717018 -0.117831774 0.08221002 0.05668025 0.1130867 0.09972874 0.04721514 -0.018445736 -0.07784011 0.08571768 -0.10364728 0.0858921 -0.002952196 -0.022540271 -0.057058893 0.1315461 0.095638305 -0.015562273 -0.032722425 0.080270596 -0.16626701 0.16961858 -0.058248118 0.080111265 -0.103486136 -0.070534766 0.03355538 -0.09157205 -0.1533018 0.0008908415 0.033247683 -0.021685038 -0.036083423 0.10462233 -0.24132185
electronic.a.01 0.0017873872 0.004858442 0.049048785 -0.05025102 0.020824704 -0.054550294 0.12421311 -0.074735 0.19215111 -0.079866864 0.009835426 -0.038860135 -0.025417829 -0.10419672 -0.11313263 -0.07388588 0.038208548 0.007841097 0.004503896 0.15433517 -0.012262443 -0.055823907 -0.16592954 0.05214756 0.17082076 -0.022171315 0.078013964 -0.047311876 -0.077896275 -0.21176307 0.13403516 0.078076236 -0.108163565 -0.043062713 0.14742447 0.009256594 0.08478785 -0.19979604 0.0699907 -0.21040413 0.013394185 0.12365963 -0.21152115 -0.05728094 0.0144124115 0.06510587 0.2965456 -0.3303438 -0.020428212 -0.08978446
solid.a.03 -0.110276766 0.026157396 0.005010061 0.00037467454 0.045106743 0.008055613 -0.010262201 -0.033057254 0.13731363 -0.13459519 -0.006814961 -0.056519456 0.13558318 -0.095717646 -0.09411665 0.0012085367 -0.00042857457 0.0031808896 0.096666515 -0.10025723 0.06646308 0.08768282 -0.0012023621 0.17812692 0.05566707 -0.015087989 -0.04255491 0.11267004 -0.038958363 -0.043567996 0.025953 0.14630936 0.079615004 -0.08513682 0.20363809 -0.09184383 0.010698149 -0.020479716 0.08803687 -0.08196864 0.114735246 0.118927754 -0.09958002 -0.035994012 -0.0007284062 0.0391722 0.1791566 -0.08097298 -0.012779395 -0.013486731
quantitative.a.02 -0.042348996 0.0148972785 0.05333616 0.09766398 0.042717963 -0.038416866 0.059150692 -0.0666371 0.20964672 -0.045693118 0.05290667 0.031378504 -0.051287796 0.015872283 -0.0644746 -0.006719471 -0.032846723 -0.08427386 -0.06662399 0.12764715 -0.10386953 -0.08266974 0.060815204 0.028535968 0.05979339 -0.10956068 0.017288 -0.07902917 -0.101775445 -0.11813262 -0.09693563 0.12349154 0.024316246 -0.03172749 0.05662593 -0.171636 0.14231358 -0.027023908 0.048717678 0.099757895 -0.02291511 -0.014813104 -0.0047654985 -0.11606751 0.016892722 -0.12922747 0.0094556445 -0.05632467 -0.036495484 -0.053939052
valuable.a.01 -0.0038682087 0.03784145 -0.06780246 0.05212823 0.10792784 -0.10496602 0.013671256 -0.05307195 0.22054578 -0.058646936 0.06443308 0.024400044 0.19438913 -0.07575635 -0.10063499 -0.103762954 0.06332672 -0.09116751 0.08134634 0.090565145 0.07021589 -0.041119058 -0.13183454 0.0006676946 0.06510765 -0.051959574 0.1099933 0.005758159 0.0117267845 -0.084414005 -0.046486802 0.030831525 0.017126026 0.052713435 0.08056116 -0.03620551 -0.008075379 0.062182553 0.102169715 -0.09532745 -0.061942827 0.018653184 -0.12557608 -0.1318024 0.18245557 0.16517846 0.020642852 -0.050165556 -0.10562521 0.029485185
stupid.a.01 -0.081136204 -0.08478593 -0.17328693 0.06431882 0.2583417 0.021969028 -0.016885728 -0.067367606 0.08268134 -0.027607754 -0.024999281 -0.007435178 0.009089406 -0.1090409 -0.021139653 -0.1519443 -0.0830448 0.1627378 -0.043607257 0.16795631 -0.07060231 -0.049698547 -0.13808131 0.122321494 0.05599937 0.053061552 0.044349223 -0.068631805 -0.094755106 -0.093295544 -0.062014416 -0.03650055 -0.08396752 -0.061110165 0.04259497 0.025939098 0.1241627 0.11005518 0.002758031 -0.054494593 0.11236619 0.1452669 -0.078454524 0.0006734113 -0.00064685196 -0.12274466 0.10920234 -0.11812659 -0.13116474 -0.016551005
subject.n.06 -0.04883206 -0.13269155 -0.25792506 0.014032743 0.12706883 -0.06772844 0.07116138 0.064105466 0.06483092 -0.069141045 0.0043832613 0.058279626 0.06147858 -0.0024583389 -0.05887653 -0.05975018 0.11596204 -0.042758796 -0.065926984 0.14415935 -0.06888572 -0.07548747 0.052785836 0.16510688 0.019899014 -0.02200069 0.1374435 -0.077676654 -0.06839813 -0.07434583 0.048755094 -0.037000995 -0.01447596 -0.011871333 0.08902816 0.015333619 0.058238253 -0.11641758 0.02845465 -0.083972715 0.0018480525 0.033975158 0.0064200643 -0.06581068 -0.039290443 -0.0983341 0.16230614 -0.14826992 -0.026232304 0.115872726
prize.n.01 -0.07615648 0.003231798 -0.019015672 0.1209946 0.134613 0.06770524 0.05252903 -0.16632345 0.22630876 0.06662653 -0.068302475 -0.06446628 -0.08097998 -0.015876485 -0.046263542 -0.04540097 0.06279462 -0.13341537 -0.064541794 0.03707569 0.13014363 0.039224103 0.07390792 0.042728897 0.061144814 0.02453554 0.07187847 0.032365065 -0.11676168 -0.10087799 -0.0690619 0.14633968 0.09213357 -0.006298406 0.099169165 0.023495128 0.17439379 -0.16442044 0.14453419 -0.116891004 0.07984106 0.21978495 -0.04480076 -0.029653603 -0.12492861 0.1669466 0.15588439 -0.085827254 -0.0770885 0.035823572
cup.n.02 -0.15123342 0.00090027926 -0.098533735 0.055876054 0.0009898888 0.106923304 -0.0005343037 -0.08594929 0.0747781 -0.17657869 0.06079247 -0.07440206 0.06894657 -0.094867185 0.0521601 0.07046646 -0.05776283 -0.032592643 0.050999552 0.060130414 0.022712179 0.024853498 0.08354757 0.089722596 0.046811994 0.023607042 0.077550344 -0.058681544 -0.013831787 -0.26508647 0.2390749 0.096612036 0.086440995 -0.18271677 0.114754215 0.012169225 0.1788418 -0.018206183 0.024946721 -0.12980491 -0.011262427 0.28804436 0.11728721 -0.0006166599 0.106683396 -0.05100378 0.11526915 -0.14065835 -0.021657147 0.02275721
university.n.01 -0.039150205 0.0785236 -0.02657505 0.044941287 0.011856174 -0.087363265 -0.08114125 0.056285877 -0.022819038 -0.083641306 0.079927 -0.041605175 0.04300872 -0.025676142 0.018423956 0.06489305 -0.05867556 0.034565862 0.06686665 0.012813076 0.019049134 -0.056245644 -0.10231344 0.032969356 0.012138947 -0.16184103 0.031934373 0.06457972 0.15173596 0.06617579 0.096491985 0.015521626 0.062013607 0.009228532 -0.040572017 0.014776678 -0.055300374 0.021645958 0.16474774 -0.019261474 0.094115414 0.0516789 -0.105120406 0.022316579 0.02481168 0.0314033 0.024104713 -0.039617598 -0.03373988 -0.058351234
library.n.05 -0.091234826 0.07071272 -0.057899732 0.070206545 -0.013342418 0.08191132 -0.048225783 -0.11885258 0.09076798 -0.113741465 0.054990895 0.02203243 -0.015270056 0.079123564 -0.048042797 -0.06682954 0.13864921 0.06907838 -0.12743933 0.1318511 0.032763228 -0.09959333 -0.1169033 -0.15788265 0.19499296 0.03105198 -0.019297693 -0.018351117 -0.047626648 -0.1714668 0.0016340283 0.07360321 -0.0036476094 -0.18193263 -0.039956637 -0.010508539 0.07154241 -0.092360884 0.06781081 0.09783405 -0.12518917 0.1260443 -0.023982482 -0.21228075 -0.101374574 -0.10583019 -0.012180988 -0.1693528 0.11243074 -0.005918785
competition.n.03 -0.09186495 0.016538145 0.10554056 -0.009098551 0.0073264935 -0.07425901 -0.025181973 -0.026691027 0.06871832 -0.04387425 0.17468287 0.022683503 0.15151188 -0.037316754 0.09334076 -0.0001601674 -0.09774599 -0.034558672 -0.064457975 -0.100678876 -0.013968154 -0.06866845 0.016551217 0.07516465 0.026155809 0.035727777 0.043095615 0.11396302 -0.009540021 0.07728221 0.13684705 0.016602574 0.0048546717 0.026570702 0.04594256 -0.05252291 -0.02354028 0.03185824 -0.0155438585 -0.06747656 0.01787503 0.004232431 0.028897462 -0.011239312 0.09126072 0.08709385 0.013148037 0.061483834 0.04714895 -0.0041929195
legal_profession.n.01 -0.11599318 -0.011942246 -0.055080328 0.078570895 0.22819854 0.10436545 0.00042488647 -0.18150756 0.15454823 -0.0058700494 -0.017387323 0.012077471 0.02275594 -0.044838693 -0.16603523 -0.10722971 0.27959388 -0.069223054 -0.05566784 0.10430759 0.17157365 0.061984017 -0.07806235 0.101534344 0.104581125 -0.022075824 0.09984187 -0.008658297 -0.16114171 -0.08809149 0.13089368 0.18035486 0.06748796 -0.020231187 0.25251436 -0.15435778 0.0031886287 -0.09763209 0.10326892 -0.08764483 -0.038115833 0.19744548 -0.1734936 0.09399512 0.046270706 -0.11547604 0.12630393 -0.2223941 -0.041348007 0.109991
percentage.n.01 -0.037130617 -0.07063045 -0.116238765 0.13497499 -0.00068874564 -0.010394891 -0.08665667 0.039700173 0.13801055 -0.06770791 0.0035733557 0.027581092 0.19241017 -0.118621506 -0.076825246 -0.090962335 0.051735863 -0.02436323 0.08778429 0.049141243 0.168418 -0.015687376 -0.073946565 -0.004878296 0.07353592 0.0871316 0.14765511 0.1755776 -0.080675416 -0.18202671 0.07784306 -0.005193394 0.011269213 -0.14604753 0.1099331 -0.04818693 -0.13783383 -0.11577554 0.042622805 -0.013365232 0.059005205 0.052406363 -0.088634 0.0028726114 -0.09149963 0.024843104 0.11083569 -0.0073984326 0.00011419119 0.06769041
finger.n.01 -0.038348716 -0.13787585 -0.20397744 -0.20360848 0.12377172 0.14191489 0.00039032954 -0.008468061 0.22939658 0.10763773 0.060230628 -0.027878055 0.120024085 -0.16915864 -0.02969949 -0.04442824 0.048668902 -0.18949756 0.04882673 0.2907383 -0.041157186 -0.046447404 -0.119769506 0.09034349 0.099309936 0.027939016 0.1852411 -0.07499923 -0.041767556 -0.18421465 0.16224882 0.03155218 0.11141685 -0.15751952 0.18328448 -0.0572402 0.10970857 0.029659469 0.11273379 -0.23193565 0.19579934 -0.012366683 -0.12225471 -0.023434734 -0.07459962 0.041510176 0.23413847 -0.20263836 0.041038282 -0.17070225
manner_of_speaking.n.01 -0.020932818 -0.044457916 0.0892125 0.03351397 0.13556537 0.086779565 0.07081004 -0.023119336 0.13920625 0.042209357 -0.05422852 -0.1535017 0.015764939 -0.02812354 -0.020584105 0.084437996 -0.035057895 -0.08060518 0.014503679 -0.08438998 0.040592585 -0.017169423 0.0063589904 -0.05719118 0.09304606 -0.02873006 -0.027508967 -0.022647526 -0.032208517 -0.09125855 0.0054524136 0.17066582 0.06869267 -0.050575417 0.15234914 0.21003461 -0.040953677 0.05281956 0.1066461 -0.06815703 -0.030890679 0.06469969 -0.14016749 -0.020392623 -0.03490651 0.12687287 0.15382606 -0.027709274 0.15906334 0.10082155
presence.n.01 -0.042198136 -0.12873976 -0.08122854 -0.027183374 0.21705684 0.07480859 0.022483246 0.06954105 0.09108541 -0.03234577 0.032852024 -0.09197965 0.0067350552 -0.023519097 -0.09155821 -0.03793833 0.04796894 0.010203926 -0.054670718 0.12047854 -0.009334953 -0.06352465 -0.124607615 0.100929506 0.01935467 -0.07614006 0.15066239 -0.03583538 -0.105194636 -0.12185614 0.14109884 0.06706107 0.1282581 -0.105340794 0.14515871 0.023321392 0.02906526 0.025909508 0.0006457836 -0.069088295 -0.050838374 0.0031754193 0.023638193 -0.060331047 0.17462124 0.05717464 0.115215965 -0.12735468 -0.04812891 -0.08068317
campaigner.n.01 -0.08878004 0.019419989 -0.1988126 0.15332375 0.08191 -0.024726063 -0.09706391 -0.055338845 0.093347676 0.10890222 -0.017517198 0.03648159 -0.09196796 -0.12993076 -0.04326682 -0.05376209 -0.09250405 -0.059379388 -0.048621133 -0.00031214254 -0.013622529 -0.123906545 -0.061383903 -0.004741796 0.14393961 0.17996208 -0.007442205 -0.18974672 0.0285115 -0.12043428 -0.04916546 0.07856594 0.025214411 -0.1563353 -0.122998625 0.08772735 -0.005590066 -0.07766928 0.062313925 0.24314496 0.036979876 0.088147946 -0.0903761 -0.04400998 0.120711446 0.019034296 0.06555708 -0.05477038 0.17254546 -0.037328925
gentleman.n.01 -0.111336246 -0.10308647 -0.051488414 -0.10316882 0.03659844 -0.0017819363 -0.014276968 -0.0011670124 0.1561253 0.106772 -0.06461347 -0.06925454 -0.010190438 0.027784478 -0.13819672 -0.21787114 0.16280308 -0.031522635 -0.1018153 0.05889899 -0.008632092 -0.23501197 0.1296461 0.09480137 -0.015817465 0.06128913 0.15046172 0.094466135 -0.101963274 -0.102964215 -0.03281802 0.09284181 -0.017095681 0.075887315 0.04976801 0.026497867 -0.0068784007 0.040136196 0.11440516 -0.15858212 0.13789259 0.05258445 -0.02101038 -0.04485888 0.0474223 0.07614556 0.14715864 -0.047640428 -0.04066906 -0.10104091
